12 300
england -0.0372056 -0.0224693 -0.101114 0.0928857 -0.0716976 0.00120494 -0.085887 -0.0917732 -0.0303591 0.101949 -0.0102436 -0.00122499 0.064028 0.0120913 0.0260168 -0.0648037 -0.0472622 0.0600723 0.0514998 0.00080734 -0.0336464 0.0398495 0.0062529 -0.0834352 0.00854979 0.0590546 0.0205667 -0.0847771 0.130243 0.195374 -0.0474991 0.0197895 -0.0818639 0.103384 0.0209985 -0.0556626 -0.0595111 -0.0732265 0.0371059 0.0214524 3.16436e-05 -0.0820634 -0.0670834 0.0446233 0.0339906 -0.0731467 -0.0554206 -0.0185569 0.0782947 0.00321275 0.0224932 -0.0577452 -0.0339458 -0.0286132 0.00462021 0.0643622 -0.0241042 -0.0250889 0.0248532 0.0181623 -0.0497214 -0.0164192 0.0744612 -0.0257324 -0.00705054 -0.0373578 -0.0691935 -0.0534752 -0.0987295 -0.0844578 0.0874808 0.0298254 0.0763592 -0.0543631 0.000107536 0.0219368 0.1842 0.0929256 0.0133256 -0.114311 0.0896183 0.071331 -0.0543307 0.0115588 -0.0840962 -0.0489632 0.0258247 0.0932573 0.000192194 0.00821308 -0.0816693 -0.127682 0.0418922 -0.0298503 0.0266204 -0.00461697 0.0355121 -0.0251164 -0.0980561 -0.0685649 -0.0181751 -0.0485217 0.00110135 0.0339133 0.0131974 -0.0386548 0.0126874 -0.0332948 -0.00147615 -0.0750323 0.0108921 0.0419695 -0.00173687 0.0106688 0.00741843 0.0583837 0.038318 0.013924 -0.034709 0.0541286 0.0584535 -0.0300972 0.01639 0.0691311 0.0344022 0.00201669 0.114363 -0.0534278 0.00221373 0.131081 -0.0933047 -0.0105791 -0.0574858 -0.0750972 -0.0225783 -0.0951254 -0.00870268 -0.0179775 0.101326 0.0457257 -0.00511007 -0.000269795 0.041775 -0.0313718 0.0391287 0.0876928 0.0401488 -0.00903266 -0.0825473 -0.0172989 0.0695377 -0.0991211 -0.051839 -0.0439699 -0.0865804 -0.00702385 -0.0704455 -0.0574933 -0.0148022 -0.00982032 -0.0298678 0.109023 -0.00133945 0.037889 -0.0172954 -0.000623494 -0.0540862 0.0376895 0.0791702 -0.0154527 0.00381185 -0.00412113 -0.0533056 -0.0272614 0.0195923 0.0467658 -0.0337313 0.0728325 -0.0665845 0.0149424 0.0199207 -0.106781 -0.0697147 0.0546499 -0.0171535 -0.0508987 0.00231293 0.0757033 -0.023547 -0.0202732 0.00998369 0.0250366 -0.022046 -0.00365896 -0.069595 0.0820085 0.0463194 0.0375399 -0.0583463 0.0177498 0.0551188 0.048831 -0.00324243 0.0642575 0.0561364 -0.137272 -0.0306235 -0.00622572 -0.0219074 0.0200275 0.193159 -0.0707698 -0.0454614 -0.00219869 -0.0212155 0.0440746 -0.0382806 -0.0500556 -0.0937536 -0.0467534 0.0371508 0.0593489 -0.077968 -0.0380287 0.142066 0.00688842 -0.058047 -0.0192967 -0.0383904 -0.00836123 0.0149431 0.00479905 -0.0307033 -0.00398245 -0.0082046 -0.0514698 -0.0842209 0.0386198 -0.0562212 -0.0141629 -5.44529e-06 0.0146999 -0.0407673 -0.0521483 0.0184751 0.0741245 -0.116486 0.0875631 0.00881467 0.0718398 -0.0148508 -0.0258197 0.103636 -0.11338 0.0461248 0.0619404 0.000214704 0.0515921 0.062337 0.166701 -0.0428949 0.0707972 0.0183544 -0.0329755 -0.0769105 -0.0152519 0.0199544 0.033851 -0.0241913 0.0199098 -0.0177259 -0.00756758 -0.0165686 -0.0837744 -0.00235458 -0.125736 0.0299326 -0.00173118 0.0806417 0.0159263 -0.055912 0.0633845 0.0294413 0.0614964 -0.000806816 0.0377469 -0.0195721 -0.0639607 -0.0245684 -0.0190839 -0.0407898 -0.047342 0.0287753 -0.0447455 0.0655096 -0.0295834 -0.0402959 -0.0150279 0.0257449 0.0627535
france -0.0416599 -0.00648835 -0.0382318 -0.000985032 -0.0752091 -0.0120929 0.0331529 -0.060213 -0.00444146 0.03812 0.0347284 -0.0271039 0.0396298 -0.049017 -0.0251589 -0.0198684 -0.00532036 0.10286 0.120983 0.0454236 0.0241314 0.00104924 -0.101421 0.0512756 -0.078664 -0.0183296 -0.0095661 -0.133266 0.0793374 0.0906064 -0.105688 0.0530845 -0.0957778 -0.0278576 -0.000615308 -0.0413074 -0.0338166 -0.0790263 0.0106123 0.0586205 -0.0757781 -0.0890042 -0.0412685 -0.0125631 0.0026727 -0.0604197 -0.0337704 -0.054074 -0.0214568 0.0722649 0.0598605 -0.0119196 -0.0384312 0.0203026 -0.0409646 -0.0294306 0.0933538 -0.0357446 -0.037201 0.131493 -0.0489513 0.0325354 -0.00143494 -0.0606409 0.0131678 -0.0163387 -0.0711513 0.0507675 -0.14346 -0.0800304 0.0610859 0.0111749 0.0478159 0.0578498 -0.00096867 0.0417669 0.149344 0.0683116 0.0346676 -0.0446747 -0.0646209 0.0155801 -0.00157394 -0.0174823 -0.0849197 -0.0816472 -0.0298075 0.0807233 0.051954 0.0267708 -0.110241 -0.0516963 0.0345339 -0.0226488 0.0841295 0.0103901 -0.020916 0.0108758 -0.103305 -0.0100353 -0.0683651 -0.0202552 0.0102673 -0.0639475 0.0190138 -0.0974991 -0.0528001 -0.0301795 0.0243371 -0.0102413 0.0563449 -0.0205122 0.0184116 0.0322071 -0.0261605 0.0306949 0.0654962 -0.0197425 0.126823 0.0213887 0.0164831 -0.014214 0.0298318 0.0399921 0.0141884 -0.0386233 0.110708 0.0829479 -0.00962178 0.0688392 0.0104212 0.0120762 -0.0222209 -0.133482 -0.0363111 -0.00659192 -0.0466343 0.0583215 0.0967016 0.115542 -0.0240429 0.000356717 0.0705119 0.0236716 0.0138563 0.105235 0.0585136 0.024242 0.00875795 0.0331091 0.112639 -0.128901 -0.0094088 0.00331091 -0.0740227 0.0365227 -0.0457542 -0.0674412 0.0324843 0.0562452 -0.0246361 0.0431941 0.0958531 0.0168208 0.0381856 0.00541178 0.0581197 0.0432305 0.105537 -0.0620754 0.0438335 0.042596 0.00409524 -0.0202251 0.0163 0.050398 -0.0352414 0.0313076 -0.0194108 0.0117594 0.0246094 -0.138819 -0.0286453 0.0946983 0.00381492 -0.00369603 -0.0215975 -0.0104786 -0.0137229 -0.0567922 -0.052625 -0.115099 0.0123973 0.0278357 -0.1416 0.0297977 0.0951699 -0.0413925 -0.0878372 -0.0420344 0.0204971 0.0159733 0.0359999 -0.0112809 0.103971 -0.147438 -0.0689972 -0.055934 0.0175857 0.0798359 0.0562573 0.00165157 -0.0512781 0.0179032 -0.0374052 0.0231154 0.0303059 -0.0613484 -0.0110876 0.0240001 0.0715014 -0.000649613 -0.0463693 0.0111335 0.0363573 0.0080378 -0.073889 -0.0373493 0.0134734 -0.13442 -0.037184 0.000937841 -0.0641298 0.0251953 -0.0169696 0.0116772 -0.00772271 0.0535027 -0.087932 0.0390074 0.00508356 -0.0233393 0.107868 0.0562938 0.00594739 0.0811026 0.0734392 0.111134 -0.023376 0.0155094 0.0414168 -0.0363403 0.0250057 0.0119894 -0.0309696 -0.0382878 -0.017608 0.0288909 0.0419347 0.118846 -0.00219075 -0.0250981 0.0945913 -0.056746 -0.0922184 -0.0318449 -0.026958 0.062885 -0.0428002 0.0500624 -0.0273567 -0.0560264 -0.00107134 -0.0976231 -0.0155577 -0.114336 -0.0367099 0.0572517 0.0760236 0.0556471 -0.0961133 -0.0181016 -0.00394451 0.0371888 -0.0438505 0.107939 0.00687006 -0.138814 -0.0619417 0.0477308 -0.011144 -0.0831959 -0.0490097 0.0582194 -0.00085897 0.0179839 -0.00951189 0.0227045 -0.0174014 0.00698846
canada 0.0394649 -0.105234 -0.00801884 0.0878288 0.0123135 -0.0129111 -0.008167 0.0260697 0.00312681 0.0589908 -0.0552411 0.00571875 0.0598149 -0.0782349 0.0545813 -0.0102745 0.0150926 0.145955 0.0368422 0.0495073 -0.0592185 0.100083 0.000190917 0.0526911 0.0594087 0.0223411 0.0260227 -0.0797165 0.0459031 0.0464972 -0.0735272 0.0262129 -0.105464 0.0304229 -0.0893996 -0.00292653 -0.0138101 0.00246891 0.123063 0.00232758 -0.152222 -0.0633393 -0.0749242 -0.00499957 0.0351376 -0.0577675 -0.014126 -0.0594205 0.0309746 -0.0228565 0.0167839 -0.0299321 0.0583052 0.0215897 -0.0590448 0.0222723 0.0652646 0.0740672 0.018964 0.112987 -0.0810619 0.0355321 0.0350202 -0.0321345 0.00150743 0.0346351 -0.0503901 -0.00449311 -0.0968708 -0.00258631 0.110792 -0.0384107 0.109195 -0.0632383 -0.0198621 0.0153237 0.13573 0.0269666 -0.0853493 -0.00889182 0.0253418 -0.00308478 0.0419702 -0.0275419 -0.0359993 -0.0479318 0.0214582 0.0809656 -0.0021817 0.0212072 0.0142039 -0.0672745 -7.21559e-05 -0.0143417 0.0400942 -0.0920434 -0.0193937 0.00294015 -0.0246163 0.0453842 0.00611533 -0.116789 0.0316462 0.00444098 -0.0664245 -0.0614632 -0.0188067 0.0612754 0.0474364 0.0947717 0.0386972 -0.0543066 0.0182166 -0.00694182 0.00601319 0.0575186 0.0258537 -0.0199161 0.0325666 0.0166862 0.0338227 0.00239588 -0.0129761 0.0605099 0.119195 -0.00926961 0.00597304 0.0403337 0.0415946 0.0845979 -0.0939875 0.0518952 -0.0777277 -0.0248652 -0.00251728 -0.0205881 0.0136249 0.0295424 -0.0244496 0.161231 0.0607682 0.0129257 0.117968 0.0645133 -0.0502023 0.106603 0.0813295 -0.0721677 0.0653116 0.0633087 -0.0701719 -0.0393663 -0.0135838 -0.0433344 0.0689251 -0.0148369 0.0222312 -0.0061482 0.0427005 -0.0358021 -0.00668683 0.0748373 0.0239213 0.0789487 0.0949666 0.0373048 -0.0658939 0.0172873 0.0369315 0.045835 -0.0325806 -0.0114546 -0.0829872 -0.0331817 -0.0394908 -0.0750064 -0.0407563 0.0728392 0.0202932 0.0228804 -0.032205 -0.0325454 -0.0362952 0.0266614 -0.054323 -0.0325595 0.0407493 0.0150832 -0.00997307 -0.0243275 -0.0661381 -0.0531795 0.0442713 0.0178257 -0.0220673 0.0568964 0.19169 -0.0334518 -0.0778428 0.0369831 -0.0150581 0.0509043 0.0188362 0.0550908 0.0234503 -0.109045 -0.00213211 -0.0382416 0.0739146 0.0834873 0.15709 -0.000725621 -0.0867698 0.118705 -0.0537689 -0.0181469 0.00772252 0.0181422 -0.115303 0.0356542 0.0256283 0.0320852 -0.0689392 0.00382158 0.0185193 0.0325501 -0.0349145 -0.0921678 0.062602 0.031308 0.0145763 0.0128529 0.0489813 0.0437453 0.0639662 0.0688124 0.0106538 0.044283 -0.02367 -0.00349286 0.00843678 0.053365 -0.0688688 -0.068796 -0.0340434 0.0588382 0.0187541 0.0271709 -0.0317307 0.0424211 0.00318035 -0.093849 0.0204305 0.0159973 -0.00748139 0.0281547 -0.0481924 0.0497843 0.0670514 0.16561 -0.00862556 0.00567156 0.143215 -0.0610922 0.00502939 -0.0406835 0.123809 0.101402 0.00470771 -0.016002 0.0384365 0.0221547 0.0527029 -0.0246538 -0.053945 0.079052 0.0291737 0.111809 0.0564761 0.0265862 -0.0465864 -0.0790778 0.0150353 0.006464 0.0643653 0.0524399 0.00311484 0.00263796 -0.174354 0.0658821 0.000253841 -0.0613083 0.0129984 -0.0358537 0.0277015 -0.0713694 -0.0230476 0.0288051 -0.0285069 -0.0233704
america -0.138108 -0.0163146 -0.00637377 -0.0203789 -0.0429504 0.0830132 -0.0889471 -0.0769937 0.0350084 0.10081 -0.0579651 -0.017412 0.00511721 -0.035283 0.0210007 0.0261341 -0.0237318 0.0557302 0.00802693 0.0330531 -0.105975 0.0168566 -0.06723 -0.074983 0.0859537 0.00846938 -0.0122403 -0.0321032 0.0650001 0.0660331 -0.0568489 0.0515173 -0.0771802 0.0186935 -0.0421239 0.0382713 0.045072 -0.0596609 0.0772003 0.0268169 -0.0552237 -0.105975 -0.0546644 0.0799644 0.00033484 -0.0685982 -0.0148172 -0.0567128 -0.000763739 -0.0800954 -0.0579248 -0.0377347 0.0752173 0.0238452 -0.159062 0.0514719 0.00177534 0.0551431 0.0962214 0.221696 -0.108394 -0.00637024 0.0535255 -0.104226 -0.0299388 0.0440389 -0.0350739 0.0480552 -0.00666429 -0.0484332 0.037843 -0.0539614 0.0686863 0.0265775 -0.04867 0.112121 0.0522707 -0.0245948 0.0191621 -0.00881685 0.00691323 -0.0342348 0.00413756 0.0102208 -0.0545636 -0.0349958 0.0242443 0.0818164 0.0503406 0.0689156 -0.0462209 -0.0746706 0.0253882 0.0151725 0.0660231 -0.122759 0.0129403 0.0443589 -0.109223 -0.0107918 0.113272 0.017828 0.0735317 -0.116469 -0.00334336 0.0245096 -0.00458531 0.0308005 -0.014028 0.0295382 -0.0210516 -0.0410254 0.0880349 -0.0137884 -0.0223825 0.0303117 -0.0150387 0.0489598 -0.0358575 0.0248367 -0.017836 -0.00780822 -0.0807858 0.0198833 0.0992676 0.0883902 0.0256956 -0.00150409 -0.0147595 0.0778781 0.00826983 0.0475765 -0.0600766 -0.0174024 -0.0718007 -0.0432124 0.0140666 0.0121998 -0.0138625 0.148353 0.0801005 0.0901515 0.0374071 -0.0408616 -0.0369838 0.119528 0.105642 0.042769 0.00489749 0.0150699 0.0127443 -0.104914 -0.0558511 -0.0109812 0.000265901 0.0747865 -0.0703166 -0.0353082 0.0182939 -0.0033489 -0.0373517 0.0662675 -0.0118649 0.0101102 0.0454726 -0.0199044 0.033804 -0.00740558 0.0318411 0.0201549 0.0441422 0.0801584 -0.0359003 -0.0753232 -0.0456515 0.00171943 -0.0436005 0.0182024 0.00631305 0.0444823 0.0422474 -0.0522858 -0.0444975 0.0308585 -0.0388458 -0.0177133 -0.0386695 -0.0203925 0.0250451 0.0631153 -0.0317958 -0.042585 -0.0105592 0.0437794 -0.0194141 0.150478 0.0767241 -0.00199919 -0.0711859 -0.0208999 0.0386241 -0.0172031 0.0339803 0.0791304 -0.00386871 -0.111584 0.0277315 -0.0020267 0.177876 -0.00507967 0.154413 -0.0477504 0.0255797 0.0550297 0.0711229 0.0173505 0.0293467 -0.047836 0.0144302 0.0518751 -0.0391759 -0.0494663 -0.091691 0.0174309 0.000707273 0.0426757 -0.00947902 -0.0540873 0.0491311 0.00292509 0.0112181 0.0907511 -0.0633497 0.00220283 -0.0536464 -0.00977558 -0.0165407 0.0605982 -0.0431368 -0.00862485 -0.0265271 0.0783291 0.0142218 -0.0408817 0.0662876 0.0221782 0.0390121 0.0290594 0.0351419 0.0230036 0.056539 0.0140739 0.0316345 -0.00990333 -0.0314027 0.0529107 -0.0787449 0.0200554 0.0618479 0.102916 0.00935152 0.0516785 0.172416 -0.0710448 -0.0689156 -0.0268295 -0.0380622 0.052059 0.0582801 -0.0512804 0.0541781 -0.0162685 0.0217644 0.0511318 -0.0221374 0.0454902 -0.0197749 -0.060442 0.0891688 0.0199029 0.00716873 -0.025105 0.0434594 0.0220315 0.0634152 -0.0352276 -0.0390323 0.0158064 -0.114156 0.150616 -0.0221759 -0.0442455 0.100427 -0.0266682 -0.0581365 -0.0501441 -0.0216183 0.0315463 -0.0134881 0.0331967
china 0.0157346 0.0533845 -0.00553079 0.0540648 -0.0977985 0.048407 0.0121268 -0.12981 -0.0130164 -0.0225567 -0.0137022 -0.0519808 0.0649323 -0.0578589 -0.00444164 -0.121883 -0.0447398 0.0356447 0.122861 0.0449841 0.0189051 0.0300996 -0.00346363 -0.0577511 0.0077661 0.0525293 0.0831319 -0.00608028 -0.0039276 -0.017424 -0.0939013 0.00212968 -0.0448667 0.153801 -0.0682139 0.019026 0.0292636 -0.0420211 0.155205 0.0105583 -0.141535 -0.0788371 0.0592626 0.0494705 0.00787389 0.0157255 -0.0567212 -0.0290025 -0.0238844 -0.0515784 -0.0239129 -0.0844781 -0.0596027 0.00980021 -0.141056 0.055363 -0.00306625 0.0285283 -0.0008947 0.0221136 0.0373358 0.0141046 0.015702 -0.0490274 -0.0263006 -0.057205 -0.10056 -0.0424403 -0.0455087 -0.0596842 0.0409911 -0.0102199 0.0269282 0.000557151 -0.00938342 0.0948714 0.102539 0.0919204 -0.00973362 0.00931348 0.0413863 0.00584362 0.0170161 -0.0846194 -0.0611333 0.0670833 -0.0990225 0.0765879 0.0513029 0.019535 0.0238377 -0.0425936 0.0795078 -0.0215174 0.0474034 -0.00950271 -0.0753184 0.0875441 0.012139 -0.0918797 0.0638568 0.0346483 -0.0322913 0.00409312 -0.0761927 -0.0148548 0.022139 0.0217188 0.0226659 -0.0155528 0.0270048 -0.104675 0.101288 -0.0370388 0.030684 0.0253616 -0.00699697 0.0263078 0.0423397 -0.077194 -0.0461578 -0.0595931 0.0141115 -0.0597608 0.0599237 0.0510443 7.68826e-05 0.0483639 -0.0242334 -0.0537294 0.127544 -0.022288 0.0137187 -0.0813067 0.0450607 0.0185747 -0.0698451 0.00316038 0.0319583 0.127129 -0.0245041 -0.021178 0.0456045 0.020143 0.0375754 0.163993 0.0556672 0.0152776 0.0509125 0.0932761 0.0425457 -0.0286001 -0.0531952 -0.0116372 -0.026521 -0.0452236 0.0181223 -0.0551091 -0.035228 0.0255197 0.105636 0.0663432 -0.0677013 0.0220355 0.101324 0.00580003 0.0514251 -0.00134049 0.14805 0.0990848 0.002723 -0.0767197 -0.0546372 -0.0433936 0.0233788 -0.00849692 -0.0181472 0.0138382 0.0921958 0.0695098 -0.0269952 -0.021652 -0.00676821 -0.0467806 0.0306673 0.0685804 0.0545582 -0.0519138 0.0261401 -0.0097717 -0.0575883 -0.0929695 0.00614136 0.0687265 -0.0555906 -0.0179654 6.84271e-05 -0.095087 -0.0798983 -0.031908 0.0478944 -0.0366268 -0.0378963 0.0464979 0.0476956 -0.163849 -0.0557558 -0.0616579 0.120875 0.0975661 0.117692 -0.0725159 -0.0184234 -0.0348447 0.00656078 -0.0507065 0.118099 -0.0849739 -0.0667408 0.0351585 -0.0346651 0.00685564 0.0586494 0.0131266 0.0449769 -0.0390557 -0.0603093 -0.0408378 -0.00715913 -0.0194598 -0.062961 -0.00228154 -0.0540743 0.0415827 0.0115179 -0.0597967 -0.0276683 -0.100556 -0.0464021 0.0257377 0.0227349 0.00814456 0.00256898 -0.0607908 -0.0264156 0.0250982 0.0420019 0.0479543 -0.0819391 0.0876902 0.0489028 -0.0465147 0.000698643 -0.00416642 0.0269162 0.0782239 -0.0357909 -0.0512239 0.0887945 0.0445697 0.0375347 -0.0465554 0.0385455 -0.0898604 -0.0973985 -0.0857788 0.0352447 0.0398294 -0.0270479 -0.0602686 0.0113466 -0.0158625 0.0108319 -0.0678857 -0.0258167 0.0174099 0.0513556 0.0378676 0.0943636 -0.0537055 0.0117835 -0.0589847 -0.0171536 0.024667 0.0702116 0.0517844 -0.0355897 -0.049837 0.00714763 0.0987351 -0.105856 -0.0502921 -0.0515281 0.011156 -0.0389215 -0.032126 -9.47708e-05 -0.0293163 -0.0546971 -0.0424331
italy -0.00942423 -0.0855946 0.00543741 0.0594918 -0.0789749 0.0343602 0.0347244 0.000790225 -0.0572138 -0.00784821 -0.00279309 -0.00460215 0.0533005 0.0329772 0.00184814 -0.0786392 -0.0142306 0.0719219 0.0488588 -0.02765 0.0195709 0.0532196 -0.0992958 0.0268074 -0.0951016 -0.0761542 0.00135139 -0.102559 0.010542 0.00249602 -0.0411727 -0.00499704 -0.108189 0.00851352 0.0147919 -0.113433 -0.0330486 -0.115042 0.0791153 -0.0711316 -0.0527054 -0.0593942 -0.0713506 -0.0370285 0.0105513 -0.0703128 0.0128688 -0.0746022 -0.078663 0.0175776 0.00929308 -0.0858778 -0.0372023 0.00585182 -0.101838 -0.00684085 0.0516557 0.0292258 -0.0872751 0.065326 -0.0258338 0.00660258 0.0510321 -0.0321822 -0.00452955 -0.0265979 -0.0550667 0.0810624 -0.112795 -0.00438292 0.0735834 -0.0286569 0.0454954 0.0644453 -0.0126258 0.114432 0.0745236 0.0974629 -0.011583 -0.0436268 -0.0836784 0.113133 0.0791915 -0.039416 -0.127807 -0.0252459 -0.00389233 0.11533 0.0136291 -0.0407847 -0.010215 -0.172884 0.0360431 -0.0129312 0.0714839 -0.0507488 -0.0181148 0.0492754 -0.0495515 -0.0409037 0.000891341 -0.0311348 0.0531839 0.0154615 -0.00583945 -0.0658687 -0.0540979 -0.0147195 0.0162687 0.0144303 0.0189653 -0.0116598 0.0146557 0.0592371 0.0313657 0.0713292 -0.0156752 0.0210581 0.0657426 0.00541575 0.00418511 0.011069 0.0411632 -0.0226315 -0.00487588 0.00498419 0.109669 0.0317299 -0.011074 -0.00961514 0.0222369 0.027631 -0.036193 -0.112661 -0.0749687 -0.0733549 -0.038164 0.0575709 0.0536004 0.0877607 0.0163584 -0.0171306 0.0125851 0.0505084 0.020702 0.176202 0.0171482 0.0310301 -0.0737738 0.079608 0.0964299 -0.0779989 0.0502894 -0.00137912 -0.0815456 -0.0200586 0.0463523 -0.0657759 0.0321084 0.0347577 -0.0493016 0.0283641 0.0118793 -0.0274382 0.106791 -0.0228848 -0.0161454 0.0937282 0.0961157 0.0187787 -0.0322369 0.00651427 0.0536338 0.0138509 0.0220027 0.00753996 0.0272549 -0.000101767 0.0605058 0.0703652 0.00524055 -0.166971 0.00366548 0.0424557 0.0268645 -0.0779703 -0.0921786 0.0110257 0.024965 -0.055369 -0.0791748 -0.0978724 0.062779 0.0192686 -0.101838 -0.0400159 0.0385639 -0.0275667 -0.0663995 0.00802269 0.0261266 0.0332843 0.0843996 -0.005709 0.0392018 -0.0800984 -0.00851685 -0.0925118 0.055569 0.0332081 0.110367 -0.0789106 -0.0188113 0.0487422 0.0819265 0.00872394 -0.0165912 -0.0793509 -0.0898839 -0.0401087 0.0883034 -0.0655973 -0.0134075 0.0545597 0.0600512 -0.0469426 -0.0844568 -0.0783964 -0.000773062 -0.124408 0.0298137 0.0480733 -0.0842687 0.0307944 0.0134956 0.0154053 -0.0246555 0.0551381 -0.0609533 0.00101843 0.123351 -0.0217096 0.0342673 0.0228477 -0.0410394 -0.0138581 -0.0378831 0.075033 -0.0221533 0.00958514 0.0440029 0.0388876 0.00208887 -0.044867 -0.0400706 -0.0199399 -0.0254649 0.00590752 0.0959133 0.124399 0.0197313 -0.0327487 0.125937 -0.0906052 -0.0704866 0.0284736 0.0351028 0.0144472 -0.017302 0.0337865 -0.0600821 -0.0648975 -0.0217246 -0.0243009 -0.00406728 -0.0817194 0.0361859 0.100081 0.0445409 0.0158464 -0.0196778 0.00657735 0.0618126 0.100786 0.0233147 -0.0417226 -0.0419059 -0.0639811 0.0124989 0.0552905 -0.0721861 -0.056871 0.0592085 0.0234494 0.0983984 -0.0319822 -0.0245579 0.0502704 -0.0202245 0.0726574
spain -0.0461371 0.0520751 -0.0557289 -0.0467953 -0.0213213 0.0489202 -0.00867957 -0.0375106 0.0140949 0.0604775 0.055819 -0.0649305 0.0520081 0.056304 -0.0746378 -0.0999352 -0.0385084 0.0784372 0.0829294 0.065628 -0.0254844 0.0206319 -0.0530336 -0.0174864 -0.121849 -0.044779 -0.0287756 -0.11025 0.103557 0.0434394 0.0168469 0.0192401 -0.0876849 0.0495692 -0.0453726 0.0321523 0.0362773 -0.0915073 0.10294 0.0182437 0.0186186 -0.0796797 -0.0521028 -0.0461925 0.0444811 -0.043809 0.00592165 -0.0840426 0.0292029 0.0346144 0.0634523 -0.0240686 -0.0132656 0.0312053 -0.072125 -0.049001 0.0346351 0.091147 -0.121507 0.154361 -0.0559668 -0.00025974 0.073393 -0.020858 0.0410282 0.0115001 -0.0819963 -0.0330092 -0.09836 -0.0433655 0.0753146 -0.0194039 0.0988519 0.0226098 -0.0563017 0.0147169 0.101106 0.139545 -0.0150899 -0.0457098 -0.0841466 0.0733214 0.0131339 -0.0167988 -0.00290043 -0.0573734 -0.0265884 0.102894 0.0527426 0.00558791 -0.0626901 -0.119006 0.05887 -0.0252812 0.0846916 0.0157329 -0.0547589 0.104737 -0.0190484 -0.0422592 0.074199 -0.0487331 0.0273691 -0.0525717 0.0446612 -0.0213389 -0.0271289 0.0452594 0.0402175 -0.0583504 0.0381204 0.00346883 0.00247684 0.0156304 -0.00254197 0.097159 0.00959996 0.0223325 0.124537 -0.00310876 -0.028965 -0.0198741 0.0680346 -0.0595237 -0.0378132 -0.0182915 0.05793 0.043026 0.0158941 0.0288403 0.0403168 0.00800539 0.00974338 0.0106088 -0.0653324 -0.0235212 0.000503775 0.0691802 0.0473011 0.174702 -0.00403053 0.0200683 0.00896573 0.000929924 -0.018195 0.11231 0.0126161 -0.0423955 -0.00143998 0.0654848 0.0165067 -0.107134 -0.0236413 -0.00562694 -0.0834121 -0.0225369 -0.00139229 0.0030912 -0.0252488 0.0675219 -0.0586506 -0.013088 0.0126108 0.0349862 -0.0558398 0.0104384 -0.0171954 0.0358893 0.0436773 0.00724945 0.0357022 -0.0234519 -0.00812364 0.0299281 -0.00437859 -0.0317111 0.0250987 0.0736978 -0.0445434 0.0661246 0.00503013 -0.155927 -0.0335704 0.0391251 0.0372335 -0.0150257 0.013279 0.0247407 -0.0412153 -0.021404 -0.0628842 -0.049948 0.0930848 0.0331454 -0.0240455 -0.0227283 -0.0101499 -0.00432062 -0.105462 0.0339861 0.118239 0.0126283 0.0842967 0.0201533 0.0787952 -0.0991568 -0.029838 -0.0492897 0.0213056 0.0901377 0.134064 0.0374436 0.0261704 0.00854607 0.0313624 -0.0465205 0.0704482 -0.0286509 -0.0463057 0.00652954 0.0198826 -0.0629142 -0.0440954 0.0715383 0.103252 0.0355382 -0.0182149 -0.0201852 -0.0217056 -0.0653023 0.0342379 0.020873 -0.0452802 0.0374968 -0.0516224 -0.00446196 -0.047278 0.0248816 0.0142023 -0.0392036 0.0793864 -0.0142638 0.0501812 -0.023221 -0.0527218 -0.0722843 0.00165244 0.0920339 -0.00499595 -0.00530867 0.0480517 0.0104487 0.0386331 -0.0417257 -0.0758435 -0.0465158 -0.0574196 0.0327436 0.133921 0.0891977 0.056177 -0.0437443 0.147841 -0.150273 -0.140693 -0.0127082 -0.00378594 0.0812457 -0.0475182 0.0114865 0.0102166 -0.027995 0.0100413 -0.0753146 -0.121177 -0.11756 0.0271774 0.088357 0.0787143 0.0105596 -0.0375891 0.00375268 -0.0219396 0.041467 -0.01889 -0.0047248 0.0178795 -0.0786381 -0.0263159 -0.0246322 -0.0783171 -0.0890892 -0.0198771 0.0226556 0.111167 -0.0115112 0.0615769 0.0104945 0.0161099 0.0227105
norway -0.0379678 -0.0688178 -0.125187 0.0418977 -0.0409116 -0.0364628 -0.0192826 -0.014902 -0.0394583 0.102264 -0.0342012 0.03484 0.0506981 -0.055397 -0.0442874 -0.0436487 -0.0157649 0.063662 0.0644063 -0.0238151 -0.000769898 0.00284665 0.00785651 0.0603337 -0.0858729 -0.0128598 0.0112059 -0.0473284 -0.0238461 0.00259568 -0.111987 0.00345113 -0.0473739 0.0865241 -0.0376701 -0.0278567 -0.0537846 -0.0719973 0.126689 -0.023873 -0.0399668 -0.061665 -0.067778 0.0283383 -0.0210925 -0.0890586 0.0244953 -0.0510867 0.0851101 -0.044949 0.0745277 -0.0672178 -0.0197399 -0.0154157 0.02163 -0.0388298 0.113161 0.0140542 -0.145667 0.0245924 -0.0305751 -0.0530073 0.107195 -0.0794168 -0.0240921 -0.0151987 -0.0374365 0.0390613 -0.0102876 -0.0290019 0.0481181 -0.0949649 0.0980079 0.00363677 -0.00300666 0.0295456 0.13223 0.0318527 -0.0677015 -0.0420114 0.0532946 0.0883227 0.0371822 0.0445562 -0.016799 -0.0446203 0.0100491 0.0429582 0.0131335 0.0960151 0.0304408 -0.0761898 0.0780214 0.00206319 0.0334611 0.0474421 -0.100617 0.0282929 -0.078991 0.0558973 0.0184693 -0.120595 0.0273584 -0.000620682 -0.0319706 -0.0745091 0.00931105 0.0521514 -0.0232466 0.0164777 0.00922257 -0.0388546 0.038375 -0.00183881 0.0809011 0.0339179 -0.012989 0.0327231 0.0372876 -0.0200024 0.0827203 0.0771015 -0.0500634 -0.0373476 0.0221592 -0.078594 0.0775087 0.0437954 -0.0681729 0.00138798 0.0596536 0.0890669 -0.0586055 -0.0737297 -0.00919611 -0.0421292 0.0407214 0.0208837 0.0450131 0.0604309 0.00658244 -0.028851 0.106651 -0.0345857 -0.10121 0.123446 0.0887258 -0.0285471 0.0344203 0.0924221 0.0713937 -0.11312 -0.0624733 0.00357227 -0.0781702 -0.0555231 0.0536874 -0.00167731 0.042921 0.0466979 0.0851163 0.0708748 -0.00465077 -0.0474587 -0.00954093 -0.0267465 0.0385073 0.00987377 0.0931808 0.0600505 -0.00522506 -0.0181673 -0.069221 0.0906174 0.0248405 -0.0475889 0.11031 0.0182949 0.0368039 0.0516325 0.0611978 -0.0475703 -0.089807 0.0257005 0.0264034 0.0100561 0.0120698 -0.0200539 -0.0329629 0.00674059 -0.048145 -0.046394 0.0342528 0.0601849 -0.0362085 -0.0079669 0.108466 -0.044397 -0.0825694 0.0666245 -0.00841654 0.0226885 0.0182959 0.14716 0.0486908 -0.109982 -0.0334073 -0.0879609 -0.0509214 0.0346539 0.0842026 -0.0137875 -0.0172718 0.0459082 -0.0314021 -0.0490381 0.000305813 -0.0591016 -0.0655309 -0.0335231 0.0596432 -0.0226781 -0.0692685 0.00666555 0.0614087 -0.0504211 -0.0188466 -0.0504169 0.0209127 -0.0730062 0.0547479 -0.0101504 -0.15233 0.0563149 0.0447092 0.0410046 -0.0560317 0.0485316 -0.0264137 -0.0552792 0.023596 0.0503322 -0.040403 -0.0282784 0.0399813 0.0305648 -0.00217995 0.0673377 -0.00374303 -0.00935984 0.028297 0.0418749 0.0352265 -0.0430719 0.0552544 0.0714784 -0.0177102 -0.0313752 0.0302775 0.112243 0.00454617 0.0420238 -0.00258845 -0.204616 -0.0780483 0.0345257 0.0880519 0.0109663 -0.078071 -0.0665604 0.0161517 0.0048515 0.0265129 -0.0582065 -0.0645303 -0.138473 -0.00977598 0.0444652 0.0508304 0.0243857 -0.0583677 -0.112012 -0.0192235 0.0245759 -0.00779304 0.0406428 -0.0396898 -0.065351 -0.0693512 -0.0423814 0.08867 -0.004965 0.0410046 0.0271517 0.0525256 -0.00906918 -0.119063 -0.0362436 0.0534683 -0.0230316
switzerland 0.0871957 -0.0975989 -0.0252068 -0.0217446 -0.0878831 -0.0891848 0.00944021 -0.0757519 -0.0738109 0.0116473 -0.0217488 -0.0392874 0.0908647 0.0418929 -0.0142973 -0.135977 -0.00587733 0.0299769 0.0893583 0.000262389 -0.0681694 0.0788673 -0.0182223 0.102839 -0.0498849 -0.0193447 -0.0928016 -0.146897 -0.0156103 0.0629835 -0.0850102 0.053274 -0.0535602 0.0517403 -0.0829793 -0.0619409 -0.0635957 -0.00958731 0.154889 0.00805451 -0.0626931 -0.0403655 0.00802985 0.0091502 0.0358712 -0.0240137 -0.0557687 -0.0417132 -0.00887565 0.0582322 0.0823838 -0.0902504 0.0333346 0.00531528 -0.0547345 -0.0461156 0.0566108 0.0405912 -0.0424403 0.0619471 0.0160142 0.0139302 -0.00787085 -0.0175386 0.0127461 -0.0595924 0.0109565 0.0569764 -0.0435519 0.0624152 0.0826073 -0.0555389 -0.0208627 0.0544691 -0.084772 0.0551085 0.137425 0.0498745 -0.0182005 -0.0462974 0.0167962 0.0187174 0.0170064 -0.0488841 -0.149078 -0.0300104 -0.0305557 -0.0303656 -3.70413e-05 -0.0101462 0.0149203 0.00771895 0.0547763 -0.0245131 0.0381319 0.0552276 -0.00725071 0.0138449 -0.0248181 0.00161297 0.0366944 -0.0497763 0.0865563 -0.0149183 0.0272293 -0.0100495 0.0368825 -0.0920578 -0.00774026 0.00206215 -0.0429522 -0.0987544 0.022152 0.0410947 0.0310739 -0.00839111 -0.02332 0.0623671 0.0962283 0.0493814 0.0900248 -5.02359e-05 0.0286251 0.0130551 0.0259694 -0.0344608 0.0502171 0.0594586 0.0395256 0.0376534 -0.0139043 0.0761301 0.000589154 -0.109657 0.0167699 -0.127417 0.0405828 0.0149099 0.0382009 0.120495 0.0103324 0.0550792 0.055307 0.066289 0.0645694 0.207624 0.0261324 -0.00171184 -0.0110758 0.0598995 0.144567 -0.0144605 0.0157273 -0.080894 -0.125589 -0.0812994 -0.0425427 -0.062365 -0.0464833 0.0716107 -0.0292623 0.0869763 0.0830336 0.0139233 0.0268156 0.0399079 0.0573233 0.0759066 0.114135 -0.00207891 -0.0213288 0.0772939 0.0136456 0.0501879 -0.0140211 -0.0704678 0.041312 0.0398118 -0.0153556 0.00599894 -0.016763 -0.16519 -0.00710988 0.0197745 -0.00541494 -0.0814456 -0.0396091 0.0361846 0.0101001 -0.0087741 -0.114565 -0.0638882 0.0561281 0.0194546 0.0265106 0.00407688 0.0340743 -0.0074912 -0.0642852 -0.0730002 0.0130948 0.0504491 0.0654971 -0.00301462 0.0232553 -0.103125 -0.0806057 -0.0589008 0.0403321 0.0606935 0.0635539 -0.0578916 -0.0315732 0.119542 0.0519409 0.0225825 -0.00740303 -0.113821 -0.0734431 -0.0645025 -0.0156124 -0.0054701 -0.0595067 0.0277559 0.0871873 -0.0227726 -0.0761301 -0.0303447 0.0762471 -0.067762 0.0463935 0.00362494 -0.040541 0.0342247 -0.0285206 0.0295005 0.0172728 0.0220497 -0.0374947 0.033226 -0.0203313 0.0510466 0.0167553 -0.0378164 -0.00264416 -0.00267446 0.0446447 0.0687169 -0.0201372 0.0528456 0.000476973 -0.0396363 -0.0656078 -0.081151 0.00092344 0.0388005 0.0628895 0.0071594 0.0439677 0.0139753 -0.0123997 -0.00644022 0.0277183 -0.0820745 -0.071688 0.00409443 0.0599538 0.0656956 0.018946 0.0207413 -0.023857 0.00544148 0.0525364 -0.0394859 -0.0714916 -0.00981046 -0.051943 0.0851418 0.0701398 0.0257082 -0.032992 -0.080123 0.0475448 0.123178 3.09109e-05 0.0149805 -0.0569346 -0.109839 -0.072365 0.0259611 -0.057223 -0.034839 0.0921184 0.0489259 0.0726763 0.0242122 0.00402715 0.0284558 0.0495673 0.0429397
argentina -0.0688774 0.00994249 0.0278377 0.0380335 -0.0223782 0.017236 0.105801 -0.0198475 -0.0452925 0.0115614 -0.0335726 -0.077753 -0.00552192 0.0704456 0.0308586 -0.0614838 -0.0637795 0.0640212 0.0180514 0.0352144 -0.0997086 -0.00882767 -0.0552676 0.0281572 -0.00578827 -0.0670127 0.0179427 -0.101107 0.0730272 0.00641978 0.0152754 -0.00124841 -0.0904063 0.067698 -0.0131185 0.0178515 0.0398645 0.00952393 0.088756 0.00298874 -0.0290759 -0.0817094 -0.0658649 -0.0103951 -0.0234924 0.010443 0.027041 -0.116699 0.0215857 -0.08748 0.0704225 -0.0657619 -0.00333581 0.0689615 -0.116304 0.00262673 0.0500288 0.0520364 0.0265469 0.160402 -0.0804712 -0.0662832 0.0538023 0.019191 0.0435981 -0.0455868 -0.0704435 0.0212136 0.00130262 -0.0575968 0.0171931 -0.0371674 0.112682 0.0204622 -0.102038 0.0590137 0.0949324 0.0723103 0.0338543 0.00745092 -0.0684527 0.0639371 0.0731449 -0.0249724 -0.0507078 -0.0972995 -0.0462091 0.0359123 0.121624 -0.0138516 -0.0180501 -0.107489 0.00111502 -0.00209167 0.0303435 -0.0311109 -0.0257165 0.080467 -0.0615343 -0.041252 -0.0250102 -0.0672418 0.0420382 -0.0811733 0.0191532 -0.065743 -0.0858781 0.0596486 0.0909108 -0.00557532 -0.0510694 -0.0446303 0.0624025 -0.0389185 -0.0105311 -0.00870238 -0.0515739 -0.00524085 0.069384 0.0355949 -0.0222205 -0.0792119 0.0453997 -0.0757664 0.0619884 -0.00302069 0.0772842 0.0154768 0.0296856 0.0595477 0.0746249 0.0186859 0.0270893 -0.0233999 -0.0347961 -0.094903 -0.0256892 0.0273395 0.0209756 0.102942 0.0219557 -0.0427278 0.102179 -0.0631005 0.0441993 0.11717 0.0547819 0.0453724 -0.0517211 -0.0120826 0.0417965 -0.0386768 -0.00342558 -0.0600564 -0.0424103 -0.0286323 0.0512544 0.0565289 0.00143149 0.0591462 0.016283 0.0483029 -0.0102999 0.0110186 0.0587068 -0.0665229 -0.0192995 0.13449 0.0175221 0.123233 0.0357631 0.0404763 0.00180644 0.00706075 0.0470373 -0.0479518 0.0352712 0.0948336 -0.0262862 0.0411847 0.00473064 -0.0776332 0.00747405 0.0296856 0.0116634 -0.0366103 -0.041519 0.0166715 0.0144539 -0.00900468 -0.131486 -0.0317668 -0.00969211 0.0178334 -0.0674352 0.0427152 0.0788188 -0.0299904 0.0137738 0.00297192 0.0485068 0.0754952 0.0113955 0.104849 0.103257 -0.0546033 -0.0315734 -0.0564196 0.129911 0.0565268 0.173856 0.00109251 0.0290423 0.0635945 0.0552634 0.0539453 -0.00648705 -0.0197746 -0.0972238 0.0840933 -0.0477857 -0.0200281 0.0118349 0.0158624 0.12421 0.063338 -0.0999609 -0.124595 0.109774 -0.0905534 -0.0347477 0.0225506 -0.0108511 0.00748898 -0.0303204 -0.0415316 0.0811039 0.0257712 0.0472034 -0.0776247 0.0152575 0.0233326 0.0301186 0.0487591 -0.0192942 -0.0207645 0.0796093 0.0494255 -0.0542501 -0.00549018 0.0537582 -0.036049 -0.00910201 -0.0104388 0.0198345 -0.0177623 -0.0493119 -0.0124105 0.102074 0.141509 0.0217665 0.0474683 0.116169 -0.0548618 -0.0954306 -0.0494129 0.0424734 0.020067 0.0379725 -0.0215583 0.0563502 -0.0288951 0.00397468 -0.0541681 -0.0359039 -0.00127719 0.0224371 0.0650639 0.0908015 -0.0324184 0.00464088 -0.000813415 0.0280584 0.0246844 0.0284936 -0.0708156 0.0163343 -0.0586353 -0.0398708 0.0469175 -0.0655222 -0.0503883 0.0848795 0.0708282 0.0196216 -0.103184 -0.0177396 0.110232 -0.0500078 -0.00686651
denmark -0.0986576 -0.0768275 -0.0769086 0.00840992 -0.0228684 -0.0300141 -0.0860944 -0.0859385 0.00790919 0.0929902 -0.0704871 0.0132258 0.0366556 0.00870408 -0.0439124 -0.0242078 -0.0159619 0.109149 0.0561829 -0.0450895 -0.00313236 0.0370337 0.0322657 -0.017816 -0.124391 -0.0429297 -0.0119614 -0.0781071 0.0522651 0.0811106 -0.121545 0.0856629 -0.0910911 0.0411225 -0.0433164 -0.0224796 -0.0284503 -0.106243 0.117578 -0.00713288 -0.0676417 -0.0431412 -0.0717753 0.0451194 -0.00325775 -0.0396079 0.0380442 0.0146037 0.0558433 -0.0228961 0.109745 -0.00581717 -0.0501417 0.0017858 0.0287772 -0.0582294 0.104537 0.055448 -0.103319 0.0548884 0.0113865 -0.0716386 0.0897581 -0.120204 -0.0553818 -0.0548221 -0.0270767 0.0145127 -0.00893201 -0.0546854 0.0539612 -0.0617521 0.0285166 0.0869254 0.00434104 0.0780921 0.210855 0.0847273 -0.0566508 -0.0522886 -0.0202647 0.0376789 -0.0338123 0.021546 0.0044643 0.00574091 0.0442392 0.00910548 0.0524018 0.0347672 0.0224069 -0.0957075 0.00830418 -0.0316141 -0.0071739 0.0348761 -0.119415 0.0141886 -0.0531794 0.0578428 0.0226932 -0.103637 0.0228684 0.00610151 -0.074044 -0.0162302 -0.0256284 0.0650782 -0.027489 -0.0107222 -0.0403855 -0.0658857 0.0590091 0.00870579 0.0628309 -0.00395652 -0.00176688 0.0325498 0.0294416 0.0174421 0.0838493 -0.015025 -0.0379267 -0.0357306 0.0442328 -0.0210372 0.0988627 0.0275168 0.00242526 0.0618867 0.0178431 0.0611454 -0.0622562 -0.096641 0.0383731 -0.0322913 -0.00455274 0.0297577 0.104895 0.117318 -0.0121953 -0.0116745 0.129426 -0.00899354 -0.105711 0.0843513 0.0940156 -0.0228299 0.0228534 0.0584794 0.0390418 -0.0529188 -0.0617457 0.0362433 -0.100236 -0.0563773 0.00900871 -0.0233896 0.0550828 0.01734 0.0713865 0.00877116 0.0264124 -0.092595 0.0101001 0.00717133 0.0334171 -0.0363437 0.115982 0.044126 -0.011227 -0.0340409 -0.0465699 0.100382 0.0502912 -0.0412998 0.116638 0.0565717 -0.0430344 0.102449 0.0132013 -0.0932615 -0.0567426 0.00356238 0.00414643 -0.0728519 0.015041 -0.022283 -0.000479435 -0.0401633 0.0168547 -0.0141226 0.0214157 0.0726597 -0.0607288 -0.0172533 0.0322614 -0.0134965 -0.108427 0.0747724 0.110428 0.0640955 0.00753941 0.0878291 0.071301 -0.113583 0.0113611 -0.0795255 0.0162364 0.0353952 0.0760093 -0.0191233 -0.0401441 0.0649116 -0.0404346 -0.0554609 -0.0152414 -0.0710831 -0.0976493 -0.0462644 0.0476743 -0.0562513 -0.0204476 0.00938404 0.0571314 0.00684 -0.0550806 -0.0653644 0.0156545 -0.0874595 0.0558497 -0.0551618 -0.0916145 0.0146862 0.0405927 0.0145828 -0.0629035 -0.0181571 -0.0707371 0.049614 0.0446985 0.0131609 0.00853745 0.0230243 0.0386786 -0.00778828 -0.0342139 0.106228 0.0188129 0.0459909 0.045051 -0.0155678 0.0499793 -0.0689512 -0.0821253 0.0090619 -0.0489133 0.0192507 -0.0186192 0.0753086 0.0403513 0.0068541 0.0339811 -0.120753 -0.062833 -0.00218814 0.0689149 0.0172922 -0.0462601 -0.002487 0.0257865 0.0638071 0.0196753 0.00131919 -0.0487018 -0.113842 0.0021482 0.027128 0.0322998 0.0245346 -0.0137005 -0.0083061 0.0191344 0.00124386 -0.0832511 0.110926 -0.00011036 -0.0404538 -0.0123613 -0.0716086 -0.0294266 -0.0518635 0.0701667 0.11481 -0.0320478 -0.0299137 -0.0588511 -0.0541044 0.040394 -0.0018692
finland -0.0583448 -0.057107 -0.0693858 0.0408653 -0.0634919 -0.0810477 0.012383 -0.017357 -0.00964499 -0.022835 -0.0730703 -0.0200093 0.120461 -0.0433842 -0.0344763 -0.0820545 -0.0749599 0.0623346 0.0937082 -0.00165848 -0.00755499 -0.013224 -0.0398256 -0.0144637 -0.0921321 0.00320544 0.0546851 -0.0878617 0.0771364 0.0463652 -0.0669701 0.0104322 -0.100466 0.0632567 0.0015443 -0.05406 -0.0287763 0.00140315 0.128754 0.00505117 -0.0915936 0.0565521 -0.0454967 0.0296469 0.00646925 -0.0859494 0.00775572 -0.04279 0.0202633 -0.0215271 0.0727526 -0.117073 -0.0465034 -0.000271136 0.119953 -0.0178581 0.0839503 0.0637972 -0.0646348 0.109255 -0.0542993 -0.0496845 0.0179245 -0.0345382 0.00143618 -0.0868632 -0.10557 0.080402 0.0169728 -0.0362793 0.0702254 -0.110544 -0.0232207 0.113238 -0.0864135 0.0207699 0.143665 0.101145 -0.127955 -0.000809859 -0.0364134 0.0249722 -0.0309177 0.032238 -0.0830096 -0.0742069 0.0251352 0.128717 0.0188004 0.0576826 0.0706937 -0.0969099 0.011232 0.00814397 0.0501775 -0.0348456 -0.0370117 0.0295932 -0.02418 0.0120197 0.0520569 -0.0883898 0.0276644 -0.0267299 -0.0918989 -0.0293643 -0.0146254 0.034239 0.0536866 0.0622191 -0.0970089 -0.041119 -0.0460805 0.0215085 0.0415585 0.0188421 -0.0198175 0.00321885 0.0548522 0.0119163 0.00945746 0.0407064 0.0306 0.0351055 0.0844454 -0.1019 0.126912 0.0407704 0.0213084 -0.0225565 0.0634795 0.0737325 -0.0700439 -0.0875894 -0.0052552 -0.102864 0.0337852 -0.0786712 0.0403722 0.117903 -0.022804 -0.103986 0.0450242 -0.00642882 -0.0470769 0.106849 0.0611422 -0.0202185 0.034827 0.0201123 0.0987397 -0.074601 -0.0674095 -0.0351901 -0.0450717 -0.00855595 0.0538269 0.0222305 -0.00104227 0.0274127 0.0153018 0.130844 -0.00426766 -0.0273735 0.00561746 -0.0448592 0.0483704 0.0390437 0.0974277 0.0980239 -0.00240913 -0.0116411 -0.0248876 0.0723977 -0.0258015 -0.0442981 0.107928 0.0561766 0.0239696 0.0942755 0.019185 -0.0274168 -0.107811 0.024508 0.0546872 -0.044067 -0.0467303 0.0408818 -0.0154741 0.0173863 -0.041643 -0.0754695 0.0949315 -0.00673785 -0.0510976 0.0331292 0.0122495 0.0735159 -0.0106921 0.0385754 0.0270228 -0.0754901 0.0790178 0.00539837 0.0168 -0.0922682 0.0068245 -0.0892274 0.0417049 0.0762658 0.113218 -0.0300203 -0.0276169 0.00492224 0.0876327 -0.0584541 0.0306103 -0.0818688 -0.0888684 0.0189968 0.0229196 -0.0559311 -0.0195507 0.0381215 0.0106946 -0.0297191 -0.0395842 -0.121424 0.00678035 -0.0309135 -0.0380576 -0.00222016 -0.0610927 0.032304 0.0320049 0.0391798 -0.0152313 -0.0191126 -0.0222821 0.0123411 0.0523313 0.0468046 -0.0100386 0.0167558 0.0395615 0.0190822 0.135442 0.0576393 0.027456 0.00207019 0.0271094 0.0186016 0.0126773 -0.0471677 0.00154828 0.000842433 -0.0404857 -0.0395409 0.026439 0.105603 0.00489954 0.012037 0.0820173 -0.0892645 -0.10077 0.0364444 0.0536495 -0.0415585 -0.0414924 0.00927406 0.0161456 0.0386662 0.0350333 -0.0564118 -0.0640675 -0.0894688 -0.045181 0.087674 0.0304576 0.00936834 -0.0926519 -0.0836595 -0.0471697 0.0351426 0.0813737 0.0922331 -0.00784298 -0.0162364 -0.0149806 -0.0302761 0.0173887 0.0203029 -0.0216838 -0.0245782 0.0314726 -0.00413439 -0.0262801 -0.0203829 0.00722409 0.0127813
