12 300
fly -0.0731141 0.0565591 0.0202625 0.0190022 -0.0278404 0.0221129 0.0349839 0.137193 -0.00492734 0.0574324 0.00850382 0.0654841 -0.0357199 -0.0411917 -0.0606386 -0.00764326 0.000688774 -0.0133306 0.115159 -0.0253902 -0.0160877 -0.0439214 0.0170768 0.0259316 -0.0486646 0.0140751 0.0288784 0.0689897 -0.0593087 0.0780744 0.00736006 0.0781542 -0.0840826 0.00196228 -0.00935266 0.0688724 0.105895 -0.0529861 0.0318625 -0.0312562 0.0331824 -0.000739574 -0.013498 0.0493757 -0.0664696 0.0202645 0.0325087 -0.0322343 -0.0223706 0.0172644 0.0441958 -0.0152486 0.0396073 -0.0440761 -0.123732 0.0327483 0.0459848 -0.0129374 -0.0264232 0.0575022 0.0284791 0.0319049 0.126861 -0.020546 -0.0211323 0.00800505 -0.0341805 -0.0280001 -0.0846515 0.0138314 0.000174707 0.0165393 -0.0116838 -0.0307422 -0.042821 0.0356526 0.0886012 -0.0227297 0.0039782 0.0129775 0.0515214 -0.0651298 -0.0115713 -0.0108001 0.00729295 -0.0295845 -0.094562 -0.000883317 0.0539542 -0.0217067 -0.0139883 -0.00702497 -0.0334993 0.00528513 0.0811359 0.00211907 0.051731 -0.0174283 -0.0452662 0.0345547 0.0359894 -0.0171062 -0.0322742 -0.0671333 -0.0130402 -0.148466 -0.0424517 0.0473372 -0.00577043 0.0533578 0.0437168 -0.0602743 -0.0209754 -0.104043 -0.0721011 -0.114573 0.119224 0.0525744 -0.0234453 0.0523548 0.158337 -0.0538569 0.00603566 0.0876107 0.0939757 -0.0596056 -0.0678045 -0.0261412 0.0670934 -0.0751776 -0.0784387 0.0543983 -0.0314009 0.0753223 0.0497424 0.00493108 -0.0261088 -0.00330452 0.0125524 0.112317 0.0124314 0.0231366 0.0236691 -0.0918174 0.00500094 0.123066 0.0631536 -0.0668364 0.0206113 0.00575621 0.0699229 -0.0481106 -0.0668339 0.0287586 0.00222751 0.00385419 0.0119867 0.0300635 -0.0715247 -0.0573051 -0.00614495 -0.0100201 -0.0663598 -0.0291553 0.00795016 0.0619211 -0.0380853 -0.0116347 -6.02194e-05 0.0711005 -0.00900958 -0.0654816 0.074958 -0.151084 0.0159475 0.122108 -0.0084866 -0.0910439 0.0271168 -0.00904376 0.00775155 -0.0175648 0.000157114 0.00967328 0.118138 -0.0862059 -0.0779671 0.0268174 -0.00482554 0.0213514 0.0166284 -0.0464464 0.101708 0.0450791 -0.0779172 -0.0798933 -0.0218511 -0.00849609 0.016957 -0.00663748 0.0384371 -0.00645783 -0.0304079 -0.0266901 0.045391 -0.14777 -0.0809862 -0.0477513 0.104987 0.017955 0.137253 -0.0327757 -0.00809662 0.022323 0.0486895 0.0720063 -0.0319947 -0.0618412 0.0185401 0.0550795 -0.0595058 0.0401812 -0.0654891 -0.0394077 0.0605587 0.000680865 -0.094562 -0.0220211 -0.094814 -0.0725752 0.0355104 0.109323 0.00476715 0.0722558 -0.0166389 0.0517535 -0.0581584 0.134771 -0.0518283 -0.0192121 -0.0900309 0.0225919 0.00698755 0.0133241 -0.0232012 0.0666792 0.00460547 -0.11206 0.0605263 0.0225153 -0.00803474 -0.128174 -0.0370748 -0.0106978 0.0272665 0.0523723 -0.0113702 -0.0526917 -0.0649576 0.0492235 0.0206525 0.151366 -0.0208072 -0.0710182 -0.0911936 -0.0664397 -0.0108375 0.0389411 0.0729444 -0.11111 -0.0746336 -0.0548923 0.00297866 -0.0577068 -0.0419777 -0.121155 -0.0103707 -0.00342079 -0.0327782 0.0193069 0.0928753 0.03571 -0.0579563 -0.0789876 0.0182352 -0.0806568 0.0761107 -0.0218277 -0.0834214 0.0787106 -0.0459075 0.0313086 -0.0323565 0.0903079 -0.0294672 -0.0470303 0.0337987 0.0685331 0.0884715 0.0477389
spider -0.0207875 0.0177429 -0.0241518 0.054409 -0.0782111 -0.0412937 0.0554406 0.00436519 0.013498 0.0760503 0.0302924 0.151423 0.0318983 0.0161594 0.00723207 -0.105131 -0.0767556 0.00245797 0.0554289 0.102912 -0.112923 -0.0149713 -0.00868055 -0.0691517 -0.05251 -0.0738016 -0.0155061 0.0340337 0.0558626 -0.107603 0.0191042 0.145659 -0.0212369 -0.00495599 0.0156678 -0.00171894 0.0723324 -0.0500503 0.068003 -0.0122244 -0.0418017 -0.116781 -0.0275493 0.0551612 0.0169438 -0.032461 -0.0910509 -0.0812198 0.0847443 -0.00758217 -0.125866 0.022331 0.0455665 -0.00963436 -0.00930574 0.0658128 0.111989 -0.118137 -0.00679014 0.118397 0.0347957 0.00789164 0.0785628 0.100929 -0.0375914 -0.0252596 0.00377888 0.0521779 0.0562142 0.0381815 0.00882825 -0.00177167 0.0506168 -0.0504723 -0.070281 0.0988424 0.027565 0.0244605 -0.0456368 0.0714513 -0.0101216 -0.0544618 0.051963 0.0542898 -0.0436577 0.0851722 0.0660551 0.00918559 -0.0106429 -0.0842208 0.017372 0.0115238 -0.0288075 0.0285907 -0.0334984 0.00278502 -0.00810772 -0.0661372 0.026381 -0.0390763 0.0332171 -0.0280827 -0.0672078 -0.0898631 0.0738465 -0.0342779 -0.0504781 0.00281159 0.0257148 -0.0132548 0.0103518 0.0712285 0.0194457 -0.0851859 -0.0219129 -0.0329494 0.0744795 0.0585685 0.0253827 0.0264709 0.0241714 -0.00821908 -0.00120042 0.117801 0.0925319 0.0547255 -0.053989 0.0684543 0.0555832 0.0934247 -0.0365696 0.0785472 0.00437417 0.0472701 -0.0416161 0.00182076 -0.0381639 0.0208364 -0.0317401 0.0145917 0.0489699 0.0381522 0.0113534 -0.0613701 -0.0680948 0.0717697 0.00871806 -0.0182922 0.0237591 0.0412918 0.0862174 -0.108439 -0.0437788 0.0458908 -0.0745655 -0.0253729 -0.0551534 -0.0969551 -0.0203616 -0.0353642 0.00613681 -0.0623528 -0.0192009 -0.0120669 -0.0389161 0.0464183 -0.0434799 0.0155154 0.0959919 0.00234661 -0.00206547 0.058125 0.00624095 -0.0217527 0.040524 -0.0329533 0.0678232 0.000695855 0.0777383 -0.0790942 -0.10562 -0.0816672 0.0255097 -0.0482529 -0.0612216 -0.103566 -0.0932371 0.0656468 0.0346003 -0.00880227 -0.0622043 -0.115754 0.0787875 0.105794 -0.0130604 0.0446541 -0.064879 0.00327755 0.0250271 -0.00878898 0.081423 0.0672547 0.027352 -0.0101798 0.0554113 -0.0842286 -0.0791567 -0.015238 0.0249372 -0.0428333 0.093411 -0.0307808 -0.0037439 -0.0745049 0.110994 0.0578182 0.0822924 0.0335668 -0.0198927 0.0761324 -0.0639275 0.00762301 -0.0182381 0.119685 -0.0343502 0.0127691 -0.0600904 0.01203 -0.024652 0.0491164 0.0317948 0.055423 -0.148449 -0.0210357 -0.0136516 0.0161103 -0.0560404 -0.0157559 -0.072643 0.0259961 0.0455743 0.0406685 0.00190479 0.0920532 0.113622 0.0539909 0.0440426 0.0173967 -0.0521955 0.0548291 -0.124469 0.00111883 -0.0673875 -0.0574724 0.0440113 0.00550537 0.032082 -0.0922212 0.0993034 0.0455059 -0.0480262 0.0635661 0.0499643 -0.0654221 -0.0636892 -0.0285887 -0.0252987 0.0595551 0.0602877 -0.0785472 -0.0435249 0.00531606 0.049216 -0.0101533 -0.074501 -0.0524573 0.0385234 -0.0174869 -0.0363078 -0.043349 0.140597 0.00593324 0.0397776 -0.0902988 0.0398675 0.0614189 0.0507985 0.0179798 -0.0594789 0.0196583 -0.0839355 -0.0997743 0.0310289 0.0230206 0.00720061 -0.00717893 -0.06205 0.0121345 0.00398148 0.0383143
butterfly -0.0369296 -0.00775787 0.0321987 0.034608 -0.0105436 0.06062 0.0419555 0.0435399 0.053043 -0.0780696 0.0149322 0.0189836 0.0157432 -0.0325532 0.0748671 -0.0998843 -0.0825337 0.0365228 -0.0383144 0.0898942 0.0258683 0.0636265 -0.0271261 -0.0307934 -0.0490995 -0.0316929 -0.00853536 0.0139589 0.0304108 -0.0796913 -0.105491 0.107165 -0.0704552 0.0563948 -0.0171177 -0.0690536 0.105701 -0.00423959 0.0264188 -0.13001 -0.0123715 -0.0913182 -0.0167247 0.0425359 0.0162326 0.0124711 -0.0127087 -0.0405782 -0.089534 0.0372898 -0.076431 0.0233432 0.0322677 0.0467555 0.0271467 0.0874195 -0.0512551 0.035013 0.0498311 0.0396786 0.0321632 0.0423567 -0.105668 -0.0774108 0.0117379 0.00900883 0.000783719 -0.000717205 -0.0109488 0.000355187 -0.0191199 -0.0456544 -0.0816117 0.0102954 -0.0637105 0.0660956 -0.00431499 0.0681186 -0.04834 0.0379206 -0.018041 -0.00456488 0.00325943 -0.0715974 0.022369 0.0385943 -0.026277 -0.0206483 0.0309464 -0.000716664 0.126714 -0.0531904 0.0104951 0.0263237 -0.0466939 -0.0162602 0.147263 0.0455499 0.0808634 0.00905941 0.0294758 0.0345763 -0.117985 0.118829 0.0172609 0.0332736 -0.040567 0.0398746 0.0201314 -0.00277495 0.00635519 -0.0487655 0.0201911 -0.0750033 -0.0578243 0.0258235 0.0111871 0.116401 0.10095 -0.0165786 0.0701193 0.0148758 0.02283 0.0165707 -0.0219939 -0.00713547 0.000949163 -0.0322173 0.0164606 0.0523636 0.0318907 0.084538 -0.0129034 0.0420899 -0.0262229 0.0801392 -0.0980778 0.0158384 0.0315268 -0.0285968 0.00430734 0.108264 0.0176448 0.0386615 -0.0107794 0.0919807 -0.0414385 -0.0593677 0.0903179 -0.020053 0.0678051 -0.0782263 -0.0567064 -0.0601628 -0.057104 0.0329078 0.0714499 -0.0793162 -0.0258758 0.00200306 -0.0293507 -0.0127274 0.032055 -0.0443182 0.0308811 0.0336991 -0.0539089 -0.0278465 0.0383685 0.0384114 -0.063899 -0.0108008 -0.117002 -0.0904522 0.0602169 0.0438348 0.0235709 -0.00879085 -0.00157681 0.0394603 -0.0527947 -0.0425695 0.0652278 -0.0677566 -0.0634922 -0.145485 -0.107456 0.0924995 -0.0144747 0.0126844 0.104673 -0.0549988 0.0998246 0.0641678 0.025398 -0.000162973 -0.0258328 0.0846257 0.0567531 -0.100351 -0.00973574 -0.0118008 -0.059336 0.000635015 -0.0407928 -0.143702 -0.00582816 0.0260941 0.0851763 0.0108187 0.120029 -0.0323274 0.00763414 -0.0428905 0.000234477 -0.0192169 0.0915664 -0.0436258 -0.0616819 -0.0086981 -0.0958607 -0.0276692 -0.00172926 0.124806 -0.0360357 0.0232984 -0.0391318 -0.0196723 0.0295878 -0.111746 -0.0241289 0.109022 -0.00968498 -0.0319224 0.0305451 0.10218 0.0465913 -0.039464 -0.0440905 0.101351 0.0511599 -0.0522834 0.0244257 0.00831458 0.0105707 0.0642163 -0.0103324 -0.0513391 0.108363 -0.031189 0.0472277 -0.186458 0.0620813 -0.131195 0.00441166 0.0468339 0.00806189 -0.017092 0.0298976 0.00614057 0.0878507 0.0504134 0.0204505 -0.0386858 0.00505926 -0.0296456 0.0157083 0.114992 0.0628539 0.00944908 -0.0836292 0.079738 0.102435 -0.0408189 -0.120788 -0.0727675 0.0621746 -0.00328276 -0.0020486 0.00666648 0.0498703 0.0692832 -0.0645149 -0.031719 0.0197395 0.0472575 -0.0305881 0.0590747 -0.0590299 0.0210235 -0.00589124 0.0118233 0.0122638 0.00224792 -0.0350372 -0.0504283 0.0432395 0.119499 0.0695557 0.0664334
beetle -0.091336 0.0258566 -0.00123045 0.067738 -0.057838 -0.0414253 0.0372854 -0.054587 0.0390354 0.0188955 -0.0122487 0.0158578 -0.00475192 -0.0192804 0.0180576 -0.0600781 -0.0162365 -0.00730682 0.046349 0.0798763 0.00938326 -0.0407157 -0.0578983 0.0408085 -0.159613 -0.00503621 -0.0202512 0.0588784 0.0119097 -0.0397341 -0.0238191 0.0558315 -0.0345461 0.0521105 -0.0305762 0.0617955 0.0306983 -0.0210041 0.0720154 -0.0676189 -0.0454245 -0.00451061 0.0480062 -0.0234126 -0.0185646 0.0719984 0.0747455 -0.0334779 0.0041634 -0.0305824 -0.0243617 0.0403957 -0.0695868 0.00727776 -0.0433716 0.0616997 0.0868375 -0.0461619 0.0610674 0.213952 0.00554713 0.0558222 0.0251872 -0.00258844 -0.0592015 -0.0809723 0.0871204 0.0492429 0.0863861 -0.0655613 0.081821 -0.0180885 0.0273515 -0.0304124 -0.0220151 0.108129 -0.0403973 0.0193515 -0.039646 0.0349063 -0.006144 -0.00455544 0.0352464 -0.0331981 -0.060698 -0.0258442 0.045307 -0.0950431 -0.0355308 0.0172027 -0.0827223 -0.03985 -0.0843718 0.0954465 0.0168858 0.0174609 0.0345028 0.0953275 -0.00267053 -0.0317805 0.109002 -0.0256881 0.0429526 0.0173078 -0.00289051 0.10029 -0.0189125 0.0587965 0.0536595 -0.0238176 0.0547354 0.0282821 -0.0288278 -0.0499911 -0.0182956 -0.0709086 -0.00267811 0.0999698 -0.010265 0.0333016 -0.0115378 0.0255644 0.0313105 0.0456641 0.100421 0.0925727 -0.0730388 -0.0145581 -0.0236444 0.0276297 0.0255134 0.0824193 -0.0154161 0.0788838 0.00936131 0.0545468 0.0180174 -0.0493356 -0.0101902 0.0113816 -0.0179787 0.156908 -0.0362837 0.00929901 -0.067101 0.00604692 -0.0751505 0.024538 0.128632 0.0947246 0.0629101 -0.0364274 0.0489894 0.00309472 -0.085307 0.0722241 0.0401778 -0.0715826 0.0639505 -0.0894083 -0.0335412 0.0256634 0.0249646 -0.0867571 0.0674226 0.0350114 -0.00706303 0.0111238 0.172985 -0.0835107 0.0434659 -0.0771926 -0.0271026 -0.0937043 0.0791714 0.0231992 -0.0414748 -0.0460676 0.0379223 -0.0187919 -0.0747269 -0.0161623 -0.0341565 -0.0590593 -0.0672742 -0.160309 -0.0623552 0.102626 0.0317264 -0.0151822 -0.107794 -0.0747857 0.00800448 0.0630601 -0.00267857 -0.000238454 -0.107576 0.0974562 0.0381171 -0.0185013 -0.0246601 0.007377 -0.0458744 0.063598 0.0682945 -0.0791652 -0.0650141 0.00524707 0.0427177 -0.025787 0.097263 0.0064286 0.0612916 0.0239443 0.0293349 0.0991613 0.026795 -0.0143123 0.0400881 -0.0500869 -0.00280069 -0.0414547 -0.0350114 0.0952147 0.00712317 -0.0271799 0.0256139 -0.0232827 0.0736711 -0.0395517 0.0347409 -0.0295358 -0.121371 0.00813959 0.07409 0.0315548 0.0541836 0.00822693 -0.0164236 -0.0113863 -0.118106 -0.00394728 0.003921 -0.0665182 -0.0392982 0.0337747 0.0141986 -0.0866721 -0.0191691 -0.0292545 0.00541928 -0.0417778 0.0234079 -0.082022 0.00944386 -0.044885 -0.00956243 -0.0721808 0.0104805 -0.0174377 0.0827671 0.0171625 -0.0821874 -0.0547107 -0.0478129 -0.123484 -0.0242365 0.0630894 0.0719289 -0.0928278 -0.104496 -0.0284197 -0.0123219 -0.0302253 -0.0789148 -0.0270439 0.041685 0.0728379 0.0663698 -0.0295992 0.0916483 0.138175 0.0223799 -0.0210984 0.0996421 0.0149853 0.0811625 0.0314172 -0.0858914 0.0515293 -0.0309364 -0.0345043 0.049113 0.0137889 -0.00793121 -0.00733403 -0.035217 0.0304943 0.0753577 0.0228978
bee 0.0479312 0.015341 -0.0471986 0.00526392 -0.0437996 0.0170321 -0.00496208 -0.0126854 -0.0290861 -0.0634455 0.0621079 0.00349865 -0.0209118 -0.048116 -0.0369972 -0.0868512 -0.0478894 0.01966 0.0496934 0.038777 -0.039514 0.0790655 0.0708551 0.0560778 -0.0676871 -0.0662703 -0.0685979 -0.0133685 0.0867852 0.0286549 0.00750813 0.053165 -0.0354133 0.019937 0.0337171 0.0307647 0.0581259 -0.0128515 0.101059 -0.0170328 -0.00276495 -0.0949824 -0.0597605 0.0528746 0.00136923 0.0111628 0.0472228 -0.00718121 -0.00331957 -0.0145602 -0.0160591 -0.0125474 -0.0631485 -0.0243077 -0.0390344 0.0709827 0.0531518 0.0450822 0.038579 0.0537898 0.11383 -0.00318603 0.0849746 0.0586297 -0.0161251 -0.0548216 -0.0216901 0.037523 -0.0182155 0.0402356 -0.00673175 0.00885276 0.085353 -0.0488706 -0.0966302 0.0918892 0.0259379 0.0860592 -0.0831772 0.0275021 0.0332243 -0.0650119 0.0144715 0.0445388 0.0140621 -0.0543596 0.00056201 0.00640153 0.0455728 0.00432474 0.0873 -0.0527778 -0.0473834 -0.0516294 -0.0308637 0.0166354 0.0104233 -0.0487518 -0.0488794 0.110303 0.0677531 -0.0121992 -0.0277595 -0.0587486 -0.036643 -0.0372436 -0.0591159 0.088587 0.0354638 0.0907144 0.0614017 0.0393974 -0.0560734 0.0374108 -0.0679577 -0.0388078 0.057675 0.0547072 -0.0947602 0.0305777 0.0441164 0.0813688 -0.00332793 0.0562076 0.0569336 -0.0220967 -0.041659 -0.0193065 -0.0268377 -0.0514798 -0.0745907 0.143684 -0.0188904 0.0433442 -0.00935238 0.0230801 0.00912886 0.0344409 0.0129318 0.0621871 -0.0164278 0.143651 -0.0109236 0.109395 0.00764739 0.0708155 0.0453506 -0.00916406 0.0803415 0.0539306 0.0144049 -0.0874606 0.0230559 0.0375296 0.034949 0.0681249 -0.0755961 -0.0340361 0.0039371 -0.00491148 -0.0158677 -0.0175997 -0.0205347 -0.045905 0.0899136 0.0624005 0.0284811 -0.0757369 0.0540252 -0.0043155 -0.0599057 -0.0331055 -0.0393116 -0.146722 0.0290773 -0.0297175 -0.0886002 -0.0662549 0.0310837 0.0270027 -0.0249963 0.0412476 0.0319439 0.0730749 0.0390234 -0.0850626 -0.0870162 -0.00150644 0.0775079 -0.0392214 0.0299815 -0.0768919 0.081415 -0.0307163 -0.0605877 -0.0272865 -0.0457642 0.00487452 -0.00216976 -0.0698343 0.0265517 0.104992 0.0185505 -0.0227413 0.036742 0.00678763 -0.0472272 -0.0328393 0.0515788 -0.0431726 0.053913 -0.00619869 0.0421672 -0.130822 -0.0744059 0.0382776 0.097882 0.0392104 -0.0301091 0.00890688 -0.101569 -0.0441318 -0.0999346 0.0519638 -0.0835952 -0.0098806 -0.0701093 0.0681337 0.00674539 0.0310881 -0.0349337 0.0123802 -0.164788 -0.00675287 -0.0684175 0.0428162 -0.000717417 0.0157522 -0.0342847 -0.0147153 -0.0727537 0.00497484 0.0647149 0.00357256 0.0411354 0.0250403 -0.041879 -0.0244617 -0.093086 -0.048567 -0.0353824 -0.103857 0.0799851 -0.0806407 0.0526216 0.0624775 -0.0362646 -0.018078 0.0586913 -0.0435884 0.0329955 0.00680259 -0.0460414 -0.0953696 -0.0202122 -0.0305931 -0.036852 0.150818 0.10389 -0.0238127 -0.196087 -0.0179136 -0.0519198 -0.00169857 -0.0323905 -0.15295 0.0186443 -0.0828516 -0.0965004 0.054089 0.1185 0.045762 0.0393512 0.00567378 -0.0263735 0.000287231 0.0179526 0.0703579 -0.117719 0.0864332 -0.0563968 -0.0791183 0.101488 0.0540758 -0.0688113 -0.0635005 0.0225829 -0.0337127 0.100194 -0.0230559
ant -0.0332594 0.0259185 -0.115714 0.0231388 -0.0600087 0.0529344 0.0288325 -0.0320111 0.0513699 0.0228329 -0.00622696 0.0321702 -0.0796072 0.0275842 0.0593535 -0.0191899 -0.0393231 0.0370084 0.0386597 0.0491854 -0.0480115 -0.0132246 0.0192672 -0.0417081 -0.0970956 -0.0896865 -0.0341522 0.000565304 0.0467839 0.00698255 0.0483215 0.0967091 -0.00716029 -0.0389593 0.070896 -0.0417287 0.153161 0.0113305 0.103432 -0.0856027 -0.0277082 -0.0269518 -0.0366198 0.055526 -0.0782514 -0.00050506 -0.058066 -0.0556479 -0.0138884 -0.0344415 0.018919 0.0939232 0.0160082 0.0134966 -0.00984245 -0.00243209 0.0507829 -0.09841 0.0584359 0.0699929 0.0523474 -0.086448 0.0711482 0.114088 -0.0143935 -0.0847574 0.0398832 0.0513037 0.00370353 -0.0114603 0.055805 -0.0069656 0.0867001 -0.0155182 0.00329701 0.119631 -0.031544 0.0176031 -0.132182 0.0801342 0.0732149 0.00799875 0.0460729 0.0211919 -0.0646835 -0.0447916 0.000320586 0.0247859 0.133507 0.0229156 0.0730661 0.0153153 -0.0497124 0.0793985 0.0412988 0.06668 0.0440062 -0.0964074 -0.035541 0.00739734 0.0721092 0.0116353 0.00630302 -0.0175911 -0.0232628 0.00229466 -0.0833644 0.0369671 0.0180094 0.0678642 -0.00166282 0.0251476 -0.000894426 -0.0471827 0.0106855 -0.0411211 0.00558897 0.0476457 -0.0999786 -0.0078206 0.079138 0.0634167 -0.0199707 0.137274 0.0418031 0.0101281 0.0544017 0.0229445 0.00890024 -0.0611454 -0.0236389 0.0841229 0.00585351 0.0518101 -0.074521 -0.0669673 -0.100402 0.0186346 -0.0428241 0.04468 -0.0101603 0.122524 0.00615401 0.0441736 -0.0269725 0.0175266 -0.0525293 0.0142334 0.0163554 0.0270758 0.0276049 -0.0889941 0.0238828 -0.0265964 -0.029467 0.0499315 -0.0559435 -0.0308434 0.0722063 -0.0958432 0.0127914 -0.0442956 -0.047253 -0.113139 0.000839431 -0.054565 -0.014718 -0.10039 0.0964797 -0.0131988 -0.05218 0.0302689 -0.0472613 -0.103616 0.0421069 -0.0332243 -0.0639106 -0.0038453 -0.00948822 0.00606308 -0.0807377 -0.0946672 0.0183761 0.00377772 0.00598661 -0.125132 -0.0151743 0.0510144 0.159351 -0.0133044 0.00211795 -0.134654 0.0678952 0.0428137 0.0028103 0.0351794 0.00542385 -9.69199e-05 -0.0458642 0.0369443 0.0479288 0.0572517 0.00785924 -0.0276979 0.0927969 -0.0490283 -0.0726817 -0.0357126 0.0216652 0.0182306 0.0925323 -0.014687 0.0464346 -0.100235 -0.0362912 0.036378 0.107427 -0.00644459 -0.0492928 0.00896927 -0.0417659 0.00247281 -0.094814 0.114545 0.015777 0.0522255 -0.115985 0.0161304 0.000853154 -0.00415303 0.0234343 0.0842593 -0.121776 -0.0196669 0.074085 -0.0632472 -0.00488154 0.0495243 -0.0805889 0.0373287 -0.00260962 0.0066649 0.0454198 0.0208447 0.0588224 0.0519775 0.00180299 -0.00535564 0.00433221 -0.0248087 -0.0417184 -0.122528 0.0257242 -0.0350822 -0.0362396 -0.00138663 -0.0512603 0.0453062 -0.0064884 -0.0195264 0.0652436 0.0128586 -0.0565738 0.062683 -0.0626975 -0.00942332 -0.0637535 0.0295269 0.0211341 -0.105457 -0.0492391 0.0493383 -0.0730206 -0.0586116 -0.0408049 -0.057386 -0.000680667 -0.120292 0.00182888 0.0403812 0.153064 0.0407594 0.0137543 -0.12611 -0.00673847 -0.0631769 0.0279046 0.0216053 -0.131773 0.0731529 -0.0457464 -0.0979615 0.0927039 0.0643901 0.0273259 -0.0203471 0.00871052 0.02107 -0.0227192 0.0244325
wasp -0.0524425 0.0562087 -0.0778014 0.118883 -0.0121491 0.00908268 0.00136703 0.0448234 0.00218045 0.00546272 0.0424934 0.0555269 -0.0201528 0.0182622 -0.0533644 -0.0650766 0.0299945 0.0286672 0.0689759 0.162401 -0.0795564 -0.0124949 0.0416119 -0.105724 -0.134698 -0.0584862 -0.0236947 0.0459873 0.073313 0.00930519 0.0112561 0.105069 -0.0852068 0.0036825 -0.0802201 -0.0627063 0.145833 0.00148187 0.0579053 -0.103852 -0.0746424 -0.0638118 -0.0380978 0.0604107 -0.0127028 -0.0654659 -0.0217904 0.0106019 0.0385154 -0.0636363 -0.0499754 0.0240336 0.0121257 -0.048753 -0.111284 0.0253306 0.109902 -0.0977823 0.081729 0.157477 0.051674 -0.0601706 0.104322 0.0081723 -0.00298755 -0.0493481 -0.0860197 -0.0294095 0.069684 0.0266661 0.0129558 0.0112847 -0.0252379 0.028524 0.0117568 0.119952 0.0175826 0.0038586 -0.020697 0.0245944 -0.033789 -0.00178107 -0.00135769 0.0700733 -0.0349368 -0.0751447 0.00979437 0.069103 0.0339746 -0.0149357 0.10027 0.00284513 -0.0279289 0.0999085 0.0220688 -0.023501 0.00670273 -0.0508025 -0.051093 0.0143233 0.0613709 0.00545183 -0.0271906 -0.0485613 0.0366454 0.0073075 -0.153168 -0.0023503 0.00793285 -0.0189646 0.0775936 0.00639651 -0.0421223 -0.0562592 -0.0063372 -0.0214636 0.0353282 0.0214979 -0.0759173 0.0926464 -0.0298715 0.00847085 -0.0111112 0.0327965 0.084652 -0.000881136 -0.0763208 -0.0420698 0.0250583 -0.01403 -0.0473812 0.107522 -0.0611551 0.0629665 -0.0388241 -0.0371275 -0.0232125 -0.00775089 -0.0295608 0.0602775 -0.00343639 0.0911556 0.0530235 0.000486884 -0.00807991 0.0353846 -0.0313622 -0.0350114 0.0980385 0.0732949 0.07249 -0.145662 -0.0300107 0.073656 -0.0479259 -0.0175114 -0.0050621 -0.0646852 0.0736055 0.00521642 -0.0436695 -0.0274669 0.014618 -0.0234728 -0.037537 0.0537295 0.0799599 -0.0283444 0.0145712 -0.0372567 -0.0382431 -0.0414364 -0.038822 -0.0497636 0.0227849 -0.027009 0.0131368 -0.0233073 0.00993578 0.0138353 -0.0508025 -0.0116436 0.00816503 -0.0582401 0.00488801 -0.063025 -0.119704 0.0223976 0.0468971 0.0881136 0.00477524 -0.111546 0.0437966 0.0771317 0.0490556 -0.0487025 -0.00702771 0.0945224 0.0635838 -0.0550508 0.067229 0.0356671 0.0515913 -0.0138093 0.0496244 -0.0387192 0.0202976 -0.123692 0.0182317 0.0242736 0.0963743 -0.017558 -0.0359858 -0.0441355 -0.0207353 0.0886119 0.0524163 0.0301337 0.0216068 -0.00772991 -0.113989 0.00184885 0.00987445 0.0875932 -0.0176929 0.0292643 -0.121729 -0.0291937 0.0150751 -0.0135551 0.0178745 0.00903326 -0.0965538 0.054254 -0.00549217 0.0377973 -0.0237996 -0.073892 -0.0823987 0.0233558 -0.0430966 -0.00842708 0.0539434 -0.0997512 0.00609432 0.0643161 -0.0864756 0.0112302 -0.0208745 0.0409987 -0.0473994 -0.11385 0.0242292 0.0269162 0.0566888 0.080678 -0.00529549 -0.0814385 -0.0788161 -0.0424632 0.0515106 0.0487005 -0.0409966 -0.0224399 -0.14002 -0.0265471 -0.0822333 0.0716085 0.0328832 -0.0589098 -0.0698151 -0.0610602 -0.0347351 0.00107923 -0.0623654 -0.0842244 0.0422675 -0.134547 -0.0301136 -0.0175441 0.0634951 0.0293369 0.00236483 -0.0775008 -0.00386566 -0.0330426 0.0108673 0.0181125 -0.133457 0.0622423 -0.0111205 -0.102111 -0.0417128 0.0417289 -0.00419528 -0.0333553 -0.00897093 0.0428404 0.0712111 -0.0501651
roach 0.0410061 0.0241338 -0.0290249 0.0100048 -0.0458852 0.017681 0.100115 -0.0385618 -0.00106213 0.101455 0.0302815 0.0617412 0.0964401 -0.00354439 0.0280371 0.020946 0.0518401 -0.00327949 0.00197514 0.0174889 -0.0231147 0.0432172 -0.0522638 -0.0324117 -0.00113248 0.0189139 -0.0786515 0.0721587 0.144187 0.0830308 0.0615912 -0.0880076 -0.100858 0.0522138 0.0895237 -0.0164584 0.0502693 0.0133752 0.0210797 0.0037724 0.0528826 0.0466207 -0.0446761 0.01854 -0.000227712 -0.0416868 0.0112244 0.0225754 0.0264068 -0.0262069 -0.0431458 -0.0576903 0.0384523 0.0540679 0.0425436 -0.0262283 0.128973 -0.0101091 0.0226622 0.0635619 0.0639951 -0.0267828 0.123949 -0.0267162 -0.0567978 0.118998 -0.0768284 0.0686886 -0.0394638 0.00611985 0.102435 -0.053956 0.0222574 -0.0282418 0.0904352 0.021625 0.136449 -0.0668893 0.0537585 -0.0320642 0.0574428 -0.0267805 0.00195586 0.084466 -0.00504121 -0.0880337 -0.0555435 -0.00872555 0.026959 0.0673177 0.0568692 -0.0317738 0.0403183 0.00226798 0.00779875 0.0298769 0.0428149 0.0331543 -0.0276873 -0.00263211 0.0350226 -0.0732916 -0.026997 -0.0172973 -0.0497195 0.0219194 0.000691694 0.0826738 0.000979086 -0.049898 0.00501074 -0.0128578 0.00279157 -0.0606035 -0.110868 -0.0994771 -0.0528421 -0.0677651 0.000820217 0.0754623 0.0587971 -0.00723777 0.0291534 0.037536 0.0107279 0.0190557 -0.0238149 -0.0491745 0.067777 -0.0984227 -0.0346846 0.112101 0.00782517 0.075091 0.0542821 0.0193623 -0.0834973 -0.0210595 -0.0285322 -0.0250978 0.005105 0.0168389 -0.0184131 0.0106977 -0.0574833 0.0371432 -0.101403 -0.0122516 -0.00585233 0.113553 0.0494982 0.00275135 0.00367648 -0.0426507 -0.0877648 0.0234032 -0.024191 0.0763238 0.0696668 -0.0201215 0.00560124 -0.0379191 -0.104097 0.0418891 -0.0428982 0.0739295 0.0412274 -0.0286155 0.0415178 0.10696 -0.0865176 -0.0206454 -0.0467587 -0.0533753 0.00449427 0.0242862 -0.0338492 0.0793203 0.0260998 -0.0807365 0.0152564 -0.0609439 -0.00995104 -0.0191616 0.0647044 0.0424532 -0.109771 -0.00150258 0.0780565 -0.0221957 0.0151774 -0.0880218 0.00347489 -0.00022284 -0.0020232 0.0298198 0.0267352 0.0503169 -0.124208 -0.0567097 0.115716 0.038488 -0.0226794 -0.0797011 0.0361912 -0.0861916 0.0649471 -0.0934341 0.03557 -0.0604536 0.0548104 -0.0519163 0.0256475 -0.0846469 -0.024229 -0.0365173 -0.0542178 -0.133019 0.0316096 0.00515593 0.0708521 -0.0610319 -0.0288797 0.0236471 0.0524042 -0.0336517 -0.0882027 -0.134845 -0.0574404 0.0733535 0.0347989 0.0505977 -0.0153497 -0.0127876 0.0668726 0.0459066 -0.00600751 0.0230549 -0.0910755 -0.101955 -0.104294 0.0104616 0.0133909 0.0441668 -0.0527303 -0.0214225 -0.037167 0.0060237 -0.0276159 0.070119 -0.0155411 0.0415892 0.0633358 -0.037148 0.0526494 0.0446214 0.00545486 -0.0566383 -0.0614508 -0.0286179 0.0658849 0.0505716 0.0395852 -0.133317 -0.0719207 -0.082562 -0.0230261 0.0245718 0.0296175 -0.121386 -0.0358509 -0.0328092 0.0210221 0.0240648 -0.0327592 -0.0336184 0.113165 -0.00873911 0.0310455 0.0389426 0.0268685 0.177793 -0.0445548 0.0695216 0.0618626 0.116668 0.0688671 0.0704855 -0.128016 0.0556316 -0.0459757 -0.0704784 0.01909 0.099696 0.0251406 -0.0400398 0.0261831 0.0428126 -0.0547438 0.0544701
flea 0.00584451 0.0142907 -0.0558816 -0.0259821 0.00224354 0.0156106 0.0648226 -0.0615217 0.0924518 -0.0241257 -0.0306973 -0.00935061 -0.0654586 -0.117214 -0.123255 -0.00363589 -0.0749127 -0.0771614 0.0467056 0.0404855 0.0347484 0.0435406 0.0426221 0.0323703 -0.0335497 -0.00878444 0.00505045 -0.000276681 0.124525 0.0411474 -0.0516946 0.0266159 -0.0614355 0.00480898 0.00271722 0.0723168 0.179962 -0.0167854 0.0858307 -0.0343366 0.0230887 -0.00689147 -0.0133121 0.0473438 -0.135999 0.0619529 0.0168274 -0.0595554 0.0114633 -0.0276012 -0.0173934 -0.00294058 -0.0434134 -0.0617934 -0.0335324 0.095979 0.155177 -0.0467919 0.0383942 0.0531866 0.0409987 -0.0722716 0.0395477 0.10918 0.0136948 -0.017048 0.0483356 0.0231706 0.0370726 -0.0434845 0.0354987 -0.0658812 0.0423569 -0.051285 -0.00240826 0.0401492 0.00315985 0.055293 -0.058568 -0.0666595 0.0423914 -0.0211263 0.0382519 -0.0642857 0.0323315 0.0471153 -0.0866414 -0.0284011 0.0718749 0.00731577 0.0417317 -0.0354987 0.105625 0.00555625 0.0875124 -0.00263206 0.0784011 0.00474538 0.0644043 0.084246 0.0348325 -0.00968069 0.0745009 0.0182174 0.0515933 -0.0136473 -0.0781445 0.0601462 0.014726 -0.0127459 -0.0147827 0.015417 -0.000489392 0.0764801 -0.0865271 -0.079104 0.101509 0.0106207 0.0407141 0.0244362 0.0980294 -0.0284615 0.0770752 0.0016896 -0.0080031 0.0504118 0.026202 0.0126737 0.0576948 0.00808352 -0.0618624 0.00594886 0.0449398 0.090589 0.027584 -0.0257557 -0.106895 -0.0181812 -0.113242 0.0548424 0.0316653 0.0877711 -0.0764801 0.0454487 -0.0421909 0.0888642 0.0354922 -0.0632293 -0.0350826 0.020801 -0.00746389 -0.138127 -0.0669376 -0.108148 0.037314 0.0999461 -0.0253654 -0.0842115 0.02155 -0.0775689 -0.0175174 -0.0014939 -0.0663124 -0.0476413 -0.00865228 0.022222 0.00894248 0.0056869 0.0590639 0.018026 -0.0493273 -0.104922 0.0298801 -0.108318 0.0423742 0.0495882 -0.00913479 -0.0532297 -0.0390733 -0.0226381 0.00351106 -0.0418956 0.0958389 -0.0383705 -0.0025428 -0.0868462 -0.0565176 -0.0409426 0.0350351 0.0739877 -0.00766914 -0.0574663 0.104142 0.134615 -0.0193545 0.0193062 0.0150481 0.0275214 -0.0587297 0.00666077 0.020962 0.08173 -0.0326183 -0.0418568 0.0465396 -0.0710211 -0.0606701 -0.0633672 -0.0566707 -0.0248308 0.111097 -0.0803156 0.0751671 -0.0384848 -0.0487021 0.104428 0.077474 -0.0949463 0.014879 0.0128179 0.00706502 -0.0273425 0.0184977 0.00311177 -0.0337329 0.0475098 -0.033927 0.0247639 0.0270816 0.0786361 0.0479324 -0.0158609 0.0112231 0.0533569 0.102538 -0.0114954 0.0125861 0.0580786 -0.0496831 -0.0279828 -0.0491699 0.021614 0.028123 -0.0199159 -0.0806584 0.0530486 0.0908693 -0.0832651 -0.000187448 0.0380579 -0.0232698 -0.0331249 -0.00813096 -0.0728386 -0.0562632 0.0205358 -0.0224225 -0.0888319 0.0387133 -0.10387 0.0781833 0.0151509 -0.0659221 -0.132081 -0.0782717 -0.00738584 -0.0517248 0.0402872 0.0171933 -0.029188 -0.0795847 -0.0258311 -0.060849 -0.00871998 -0.0460674 -0.0324328 0.139796 -0.000569165 -0.0251304 0.0914493 0.0787202 0.0327196 0.014492 -0.00655944 -0.00312406 0.0630029 0.0529192 0.083927 -0.0539714 0.109691 0.0229636 -0.00846514 0.139653 0.00264499 -0.0458324 -0.017006 0.049461 -0.00171713 0.0423289 0.0725583
firefly -0.0277614 0.00569974 0.0439357 0.126653 -0.0642713 0.0152682 -0.0172306 0.0542859 0.0064217 0.0453651 -0.0219112 -0.0480902 0.0109018 0.01492 0.059222 0.0512254 0.0351621 0.0116047 0.0690376 0.0272426 -0.0165551 0.0741051 -0.0255799 -0.058479 0.00860591 -0.0577088 -0.0507724 0.0137269 0.0174827 -0.0549496 0.0269277 0.067624 -0.0423839 0.0200115 0.0373346 0.0849196 0.0325276 -0.0852255 0.0389089 -0.0305024 -0.0516694 -0.0383336 -0.132355 0.0665774 0.0732057 -0.0526345 -0.0374365 0.0278882 -0.0303733 -0.0293697 -0.0276889 0.0404448 0.0846229 -0.017348 0.0227414 0.110398 0.0175976 0.00984662 0.030994 0.100684 0.0387277 -0.000815194 0.0903315 0.0179209 0.0784318 0.0133995 -2.77772e-05 0.0129915 -0.0295736 0.000608824 0.00431881 0.0321832 0.033744 0.0210932 -0.00743339 0.0438881 0.0456256 0.0227505 -0.0397403 -0.00476802 -0.0227392 -0.0330667 0.028527 -0.0300629 0.0321311 -0.0996283 0.0619403 0.0239692 -0.0133902 -0.0788169 0.0276209 -0.0505798 0.0100022 0.0298704 0.0873322 0.0287241 -0.0697828 -0.0446039 0.0727481 -0.00459677 -0.0340476 -0.0278973 -0.0233916 0.00414438 -0.00177641 -0.0124936 -0.0840158 0.0217934 0.125611 0.00687091 0.00115422 -0.00542496 -0.0496284 -0.0928709 -0.00412377 -0.0187482 0.0978138 0.0370333 -0.0297843 0.0864419 0.103511 -0.0270342 -0.0298749 0.12859 0.00129784 -0.00312613 -0.0826566 -0.0333091 0.0588187 0.0243793 0.0586353 0.126873 -0.0983982 0.114573 -0.0318933 0.139147 -0.00771474 0.0408277 -0.0290186 -0.0371035 0.054116 0.0623685 0.0127487 -0.0776525 0.0985704 0.093521 0.0132151 -0.0502378 0.112092 -0.0178509 0.124415 -0.107129 0.0212905 -0.05649 0.0313315 0.00271769 -0.0286358 0.0158864 0.0272358 -0.00707116 -0.0497598 -0.014121 0.00805159 -0.00247462 0.0280717 0.0536992 0.024189 -0.124646 0.0374138 0.137144 -0.0131275 0.00354068 0.047311 -0.101108 0.0827857 0.0610342 -0.0137158 -0.0621759 0.0493248 -0.0854928 -0.0280105 0.0535746 0.009703 -0.0557221 -0.0239783 -0.0637685 -0.0748685 0.0358757 0.0374161 -0.0122012 -0.0115404 -0.188773 0.0617523 -0.0157355 -0.0384876 0.0378171 -0.0372122 0.0651729 0.0586942 -0.0248686 0.0775529 0.121151 0.0349424 0.00361317 0.0174293 -0.0596614 -0.064994 -0.110769 0.0491119 0.0407484 0.0595958 0.0156478 -0.0622031 -0.0818773 -0.0413215 -0.0193161 0.124635 0.0142187 -0.0861995 -0.00598291 -0.0268507 0.0334292 -0.0215336 0.020176 -0.0104555 0.0231039 -0.0594168 -0.0157962 -0.00672389 0.0539619 0.00706844 0.141407 -0.0411448 -0.0135232 0.0740779 0.0503941 0.0434441 -0.0645817 -0.0752604 0.131168 -0.0137185 0.0773694 -0.0528519 0.0833407 -0.00867002 0.0250362 0.00728569 0.0939809 -0.015212 -0.0101427 0.00952721 0.00151495 -0.0105167 -0.00129404 0.111261 -0.0332615 -0.0314878 -0.00347521 0.00853591 -0.0270478 0.0612132 -0.0569453 -0.00258744 -0.0798657 -0.120693 -0.0823395 0.00774532 -0.0190923 -0.00586398 -0.0915298 -0.078203 -0.0320088 0.0328628 0.013325 0.00144006 -0.0931812 0.0349605 -0.0126017 0.107083 0.167218 0.089149 0.0917405 -0.0453334 -0.103973 0.124082 0.0232919 0.05748 0.0400778 -0.0923498 -0.0245469 -0.00254915 0.00846999 -0.0379417 -6.56509e-05 -0.0389724 -0.0235502 -0.00378941 0.0168813 0.0509717 0.0158329
locust -0.0399647 -0.0340397 0.0228926 0.070884 -0.0561405 0.00604196 0.109069 -0.096332 0.0329076 -0.0354653 0.033199 0.0914034 -0.0288264 0.0155911 -0.0419619 -0.0806388 0.00447531 -0.0504779 0.0684441 0.0478046 -0.0338417 0.0725209 -0.0487587 -0.085563 0.00314509 -0.0833277 0.0588161 -0.00703413 0.0288264 0.0470862 -0.112328 0.0547749 -0.0648567 0.115146 -0.0409232 -0.00960873 0.0185218 -0.028266 0.0225234 -0.126548 0.043263 -0.0107014 -0.0119665 0.0700544 -0.0411746 0.0858543 0.0653994 0.0159952 0.0434298 -0.0305078 -0.00963854 0.00508004 -0.0474576 -0.0109714 -0.0901157 0.127589 -0.04764 -0.0208555 -0.0693271 0.130054 0.0653059 0.036177 0.00607866 -0.0308704 0.00884031 -0.00544212 0.0116369 -0.0553153 0.0352007 0.155657 0.0996481 0.0269871 0.0376961 0.00638625 -0.0879071 0.072919 0.00357256 -0.0514677 -0.0742535 -0.00942325 -0.0258417 0.0197068 -0.0332613 0.00229615 0.00130908 -0.0113135 0.021416 0.102032 0.0555756 0.140514 0.0275587 -0.0158593 0.0501621 -0.0287597 0.0141014 0.0465836 -0.00710953 -0.0111694 0.00187453 0.0721539 -0.0013867 -0.0289132 -0.0320892 0.00963431 0.00345957 -0.0209305 -0.0397489 0.0740622 0.00695984 -0.0119692 0.0144971 -0.00816752 -0.0402783 -0.0205751 -0.0550796 -0.00214404 0.0383344 0.0261041 -0.0288442 0.0459186 0.1216 0.0126902 0.0549951 0.0980468 -0.11011 0.0302899 -0.0718937 0.0555778 0.0325206 -0.0186497 -0.0559247 0.142813 -0.00148943 0.0567476 -0.0501643 -0.01053 -0.0227858 -0.0402471 -0.162868 -0.00210468 0.0641917 0.0750519 -0.0763641 0.0447709 -0.130963 0.0632487 -0.0930381 -0.00944993 -0.00195282 0.0581355 0.0722985 -0.14526 -0.0608533 0.0305123 0.0669762 -3.59124e-06 0.0558625 0.00115626 0.0629484 -0.104036 0.012186 -0.074983 -0.0605731 -0.0130376 -0.000426647 -0.00932183 -0.0245673 0.0923487 0.0228392 -0.0193233 -0.0917259 0.00842463 -0.0671586 -0.0992767 -0.0231528 0.0225745 -0.0848379 0.0434165 -0.046628 -0.0647811 -0.0690113 0.081871 0.0717981 -0.0681172 0.0233707 -0.008603 -0.0658887 0.0167009 0.0524707 -0.0658998 -0.0118637 -0.120846 0.0604886 0.055451 0.026827 0.00982514 0.0139079 0.0250477 -0.108994 -0.0855163 0.0246829 0.0616785 -0.135271 0.00978266 0.0690713 -0.0763819 -0.0527754 -0.0171633 0.088819 -0.0105933 0.13502 -0.0392685 0.0430984 -0.0184341 0.0257327 0.0195842 -0.0139911 -0.0136759 -0.0119051 -0.030668 -0.0461165 -0.00388348 -0.00522038 0.099101 0.0262376 -0.0111073 -0.0155344 0.0398401 -0.00558625 -0.053754 -0.00070557 -0.0168393 -0.0695584 0.0193832 0.0461209 -0.0121911 -0.0548149 0.00310216 -0.0985783 -0.08603 -0.0657018 -0.0124215 0.00378162 -0.0271873 0.0667338 0.0436878 0.0696563 0.0115399 -0.0783235 -0.00227591 0.0190209 -0.0189568 0.0527688 -0.024763 0.00724364 0.0498396 -0.0190983 -0.0239979 -0.0319757 -0.0051163 0.0350094 -0.0144439 0.0390061 -0.0399202 -0.0158938 -0.0615228 -0.100731 0.038092 0.0986851 -0.0243782 0.0201527 -0.116224 -0.105798 0.0312173 -0.0107495 -0.0574371 0.0855941 -0.0418618 -0.0153673 0.153306 0.00533181 0.0155346 -0.0241069 -0.0225167 0.00101125 0.0156849 -0.0594277 -0.028108 -0.055362 0.0288754 -0.0606309 -0.0383567 0.127334 -0.0428782 -0.127574 0.0643051 -0.0256905 -0.0128197 0.0137942 -0.0465346
pupa -0.0798766 0.0237364 -0.02336 -0.0170723 -0.00907915 0.0112779 0.0556173 -0.0127364 0.00295945 0.0316041 0.0601287 0.103862 -0.0630376 0.0361171 0.0189547 -0.0931792 -0.115373 -0.013942 -0.0503255 0.134464 0.012706 -0.0292148 0.0443644 -0.0135093 -0.0839005 0.0144911 -0.0613032 -0.0597892 -0.040503 0.00696712 0.00528901 0.0554885 -0.00351051 0.0183707 -0.0512619 0.00740716 0.115249 0.0442357 0.0106446 -0.149432 0.0860211 -0.0612887 -0.0527952 -0.0332645 -0.0657937 0.0491832 0.00548498 -0.0783111 0.0241596 -0.0241338 0.0472138 -0.0642009 -0.0472171 -0.00672353 0.0142552 0.0165108 0.00754295 -0.00397871 0.0788211 0.0825908 -0.0127839 0.0126104 -0.0843768 0.0464158 -0.0506521 -0.111677 0.0202258 -0.018472 -0.0385595 0.0788388 -0.00326869 0.000564571 -0.0518492 0.0910795 0.013054 0.0440153 -0.0128505 0.0799619 -0.0929443 0.0445044 -0.0956151 -0.0123807 -0.0229915 -0.035348 -0.0850042 -0.0215354 0.0265086 0.00690839 0.00954333 0.0999077 -0.0212651 -0.102583 -0.045753 0.0695023 0.0458624 -0.0414764 0.115054 0.0556462 0.0766008 0.082393 0.00603781 -0.0523994 -0.0510753 0.0176209 0.0400381 0.10991 -0.157766 0.0247871 -0.00370632 -0.0968813 0.0373158 -0.0333562 -0.0736629 -0.0302848 -0.0772106 -0.0381299 0.0459701 0.0519875 0.0320449 0.0464705 -0.00830912 0.0483321 0.00338067 0.0742486 0.0131801 0.061263 -0.0991354 -0.033242 0.110243 -0.000622702 -0.0574884 0.0177625 -0.0894754 0.0540341 0.0323603 -0.0132398 -0.0996116 5.09996e-05 -0.0268545 -0.0118685 0.074004 0.0778107 0.00983454 0.093538 0.00696004 -0.0256961 -0.0658999 -0.00788614 0.0761455 -0.028531 0.0725367 -0.0530253 0.00606709 -0.0337874 -0.0254918 -0.0384919 0.0609026 0.0165317 0.0637295 0.0821934 0.000232505 -0.0462935 -0.0261112 0.0309106 0.00113165 0.0199104 0.0168036 -0.0118835 -0.0100738 -0.0437611 -0.0397388 0.0209691 -0.000179137 0.00493923 0.0551812 0.0235932 -0.118965 -0.0954767 -0.00272085 0.00823736 -0.0588721 -0.0342121 0.0463354 -0.0325614 0.0385337 -0.06153 -0.0162276 -0.0426043 0.125507 0.059963 0.0570444 -0.0254435 0.0682682 0.127824 -0.0405883 -0.0597168 0.0353159 -0.0127198 -0.0321028 -0.023619 -0.00844701 -0.0455341 -0.0668089 -0.0768003 0.0789145 -0.0931277 0.00580242 -0.0510399 0.0381846 0.0439091 0.100003 0.0474134 0.0581368 -0.0738351 0.0742261 0.0416341 -0.0231267 -0.0635396 -0.0397983 -0.0800761 -0.0535096 -0.0162839 0.0553679 0.0783948 0.0694894 0.102077 -0.0974621 0.00968749 0.0672144 -0.150578 0.019513 -0.0130266 -0.105985 0.0511316 -0.0158838 0.0414587 -0.0341381 0.00968314 0.0310458 -0.0143891 0.0512828 0.0508645 0.0180569 -0.0559728 0.0278295 0.108433 -0.0573034 -0.0591633 -0.052076 -0.0717805 -0.0608897 -0.0310796 -0.135092 -0.047785 0.045119 0.042231 -0.0363649 -0.111416 0.0674992 -0.0468776 -0.0442213 0.110079 -0.134044 -0.0926273 -0.044794 -0.0397951 0.0254918 0.0829545 -0.0136591 -0.0306709 -0.131793 -0.0122566 0.00397356 -0.0140995 -0.0733395 -0.0383004 0.035673 0.00259664 -0.0175614 -0.0465526 0.0476515 0.0233954 -0.0404129 0.0257492 0.0220117 0.0297603 -0.013714 0.0175083 0.00541821 0.0641397 -0.0191414 -0.0716647 -0.0264153 0.000622332 0.00848691 0.020089 0.00347881 0.130743 -0.0277781 0.0728263
