10 300
مكعب 1.1225924 0.34469336 -0.25650325 -0.14308296 0.269926 0.05027818 -0.34612194 0.095747545 0.6154736 0.2802517 -0.63092524 -0.25900912 0.041484103 -0.39415574 0.24444707 -0.48203817 0.1335629 1.7318298 -0.45236835 -0.51022667 0.6821606 0.49122584 -0.19169718 -0.28056934 0.0065591508 -0.48639405 -0.17684224 1.4965811 0.20802958 -0.25199747 -0.3854433 0.39106935 -0.7252964 0.062588304 0.24029993 -0.6823598 -0.021524625 -0.7013675 -0.4154874 -0.08075798 0.50659287 0.72002214 -0.010927507 -0.031813983 0.27531448 -1.0861583 -0.28194523 0.1989429 -0.41034177 0.381307 -0.23457305 -0.1491592 0.15179127 -0.001015388 0.2839091 -0.58636004 -0.14244796 0.35511395 0.26970935 -0.39377257 0.42452094 -0.27941856 -0.70543885 0.58622134 -0.33482933 -0.56546646 -0.0744612 -0.13631968 -0.110946685 0.4470001 0.33565348 0.36315158 0.7522405 1.204176 0.46944398 0.52142817 -0.19309394 0.21645914 1.2699362 0.04372513 -0.21163961 0.60714406 -0.11500568 -0.21236226 -0.56331116 0.1795903 0.015900243 1.3394396 -0.32599425 -0.24928568 -0.49097982 -0.08271483 0.5146666 -0.32982928 0.050123468 -0.06015833 -0.06809577 0.23454504 1.021141 -1.2069463 0.8802717 0.33449534 -0.45706356 -0.5503403 0.10728839 -0.979938 1.1983037 0.17410146 0.3316022 -0.61358887 -0.0036132052 -0.5975559 -0.3374799 -0.440313 -0.037520777 0.56586385 0.15621741 0.42595848 0.34594864 0.30428883 -0.06512073 -0.1624164 -0.5219751 -0.48168072 -0.48098728 0.21354452 -0.17212118 -0.47408828 0.33557257 0.6439531 -0.11646853 0.93164384 -0.47891536 0.45212 0.34612215 0.43306836 0.2817941 -0.2251319 -0.12772214 0.41518676 -1.3899385 -0.1899012 -0.25582516 0.41119397 0.343791 -0.094555505 -0.35371885 0.06038597 -0.18668899 -0.38718867 0.5432285 -0.007239817 0.7178576 0.045006722 -0.5808958 -0.0072403196 -0.3267591 1.4220177 -0.18936838 -0.15314177 0.14613982 -0.28266093 -0.63614476 -0.03434947 -0.33894712 0.06935665 -0.37306824 0.37095305 0.23633642 0.49035498 0.07802596 0.0074033705 0.3381389 -0.44640833 -0.16986823 -0.40493247 -0.41713294 0.093192354 0.040082213 -0.6201871 -0.16924976 -0.26476097 -0.06541069 -0.68329185 -0.33918685 0.34734738 -0.12189775 -0.34467456 0.5674487 0.22774507 -0.3878489 -0.24823028 0.34634626 0.510148 0.5959608 0.22231133 -0.13656445 -0.021199545 -0.7122571 -0.20810984 1.1638055 -0.5494368 -0.012529841 0.6467351 0.5394269 0.64548117 0.6080659 0.64297694 0.036374807 -0.1501111 -0.52110976 -0.04534928 -0.010238717 -0.44831103 0.04220236 0.52752197 -0.76916504 -0.03901573 0.13901882 -0.14623404 -0.07522281 0.051800307 -0.27882951 -0.9203158 -0.18656419 1.0802904 1.0092528 0.41437384 -0.4015644 0.064299926 0.079127274 -0.24249437 -0.22512102 0.14319077 -0.19618979 -0.09931765 0.56981605 0.16900988 -0.35388774 -0.21096571 0.36688864 0.021599239 0.44097394 0.23574573 0.14210346 -0.44526517 0.5686238 -0.13476858 -0.4718461 -0.25786552 -0.13083698 0.25457707 0.9264972 0.24635059 0.1690005 1.0342488 0.23590493 0.22445467 0.7188166 0.17361319 0.040528867 0.09963836 -1.1630481 -0.060433593 0.10403691 -0.26875764 -0.31151125 0.82403016 -0.17378092 -0.27080172 0.66901195 -0.23068345 -0.16289182 -0.39541498 -0.54943156 -0.8221708 -0.020121802 0.20990157 0.35674855 -0.6318903 0.4089911 0.22979659 -0.26615694 -0.17605856 -0.41685343 -0.5369602 0.007049946 -0.35861692 -0.14202325 0.1971019 -0.3783744 0.10306465 0.103734575 -0.6183889 0.03092474 0.2319107 -0.7284467 0.13656636 0.6634244 0.3977801
نجمة 0.9539114 0.32183713 0.04879293 0.1607179 0.38500914 -0.9980134 -0.10903562 -0.5669129 0.37224072 0.49059072 -0.42751336 -0.5830892 -0.11065185 -1.0419363 -0.10734866 -0.19641535 0.6084072 0.15371425 -0.2306509 -0.5759979 -0.60919183 -0.03247673 0.034935363 0.6556538 0.74159986 0.3235385 -0.29340103 -0.005670613 0.24134335 0.23974198 -0.20657527 0.22844276 -0.07088572 -0.31132054 0.4821101 -0.16697364 -0.2957756 -0.8362728 -0.27943256 -0.19564098 0.35200623 0.55523485 0.058836408 -0.19265847 0.23315287 -1.2978728 -0.43795043 -0.56002015 0.12608376 -0.008853536 -0.066602424 0.17335415 0.31465462 -0.21983333 -0.32218552 0.63672876 0.095822 0.7191927 0.28682226 -0.74586475 0.110784 -0.26521415 0.03498014 0.20492435 0.50804085 -0.17701694 0.26220736 0.88364524 0.15929918 0.6265127 -0.083613604 -0.6476272 -0.2167566 0.99547666 -0.37930194 -0.2676668 -0.36949968 -0.22458097 0.022090847 0.17509949 -1.2228299 -0.022832105 -0.5214747 1.2996999 0.050483257 0.20438477 0.87503844 0.1229698 0.30384648 0.02126502 -0.54674727 0.05434507 0.7731846 -0.36068952 -0.07665666 -0.5143539 -0.49899513 -0.15188336 0.13001856 -0.7525776 0.20875195 0.39811885 -0.49556348 -0.17507401 -0.13288687 0.4359559 0.27274278 -0.74732304 0.2715379 -1.2478741 -0.09800508 0.35816258 0.18298326 0.49054727 0.5895695 0.13756229 0.60918975 0.40645096 0.123751305 0.369967 -0.35417038 0.018073091 -0.37053412 -0.26465738 -0.3505035 0.0061681126 -0.6537981 -0.2802184 0.3407289 -0.19190164 -0.7344899 0.092745304 -0.064386 0.18712126 0.42379838 -0.7519937 -0.73541176 0.06527861 -0.15644264 -0.49944127 -1.8070948 0.40937188 0.3501037 0.3308667 -0.36939245 -0.11277208 0.5441879 0.32844362 0.8398059 -0.7295254 -0.14668219 0.19711033 0.18724158 0.28496188 -0.5843734 0.9669949 -0.50554025 0.28099537 -0.37360176 -0.29714558 -0.32543352 -0.342674 0.030111467 0.43071535 0.04436407 -0.35055512 -0.14147243 0.0895483 0.3918065 0.06630769 0.35633475 -0.7263996 0.26381826 0.11684856 -0.25344783 -0.5451399 -0.41496393 -0.11938008 -1.4771411 -0.5658012 -0.41151828 0.24594097 -0.41255918 -0.43657464 0.066696726 1.1701726 -0.9741102 0.30817333 -0.99107397 -0.45918092 -0.17189646 -1.005309 -0.13039277 0.3403792 0.06774561 -0.17247917 -0.31769478 0.4562225 -0.48340273 -0.31042528 0.073869325 -0.4660558 0.06347075 0.7529267 -0.14930236 0.26455924 0.43132403 -0.10118858 -1.1039195 0.078282736 -0.11516014 1.3235472 -0.5712373 -0.008251618 -0.1308688 0.6487831 -0.64920735 0.48078424 0.57355857 -0.3913949 0.0087645855 -0.36912677 -0.2795735 0.13490263 0.55673975 -0.62368894 0.9541738 -0.30567685 0.22248974 -0.004410016 0.102297895 0.46616402 0.28869373 -0.11749115 -0.8459813 -0.074555404 -0.43865258 0.7429813 -0.31065163 0.18112765 -0.031429153 0.31843367 0.23614198 -0.30742422 0.49840885 -0.3757756 0.20080727 -0.0005181532 -0.29808462 0.046654575 0.68692505 0.13486001 1.0132183 0.101246715 -0.007915306 0.6505735 0.7661164 -0.34728184 0.1933343 -0.33383152 0.11183644 0.258532 0.63800836 -0.49124154 0.048518717 -0.39293098 0.8367971 -0.023948539 -0.39196366 -0.55838114 -0.37209627 -0.29807714 0.07100098 0.014266794 -0.28784132 0.26513278 -0.02484581 -0.23552848 -0.52523816 0.32144463 -0.03835501 0.038760804 -0.15882556 -0.5898346 -0.588809 -0.3673873 -0.65200394 0.11942725 0.6657607 -0.117765844 0.3105981 0.56610644 0.09498717 -0.5344065 0.29157713 0.2275858 -0.101979226 -0.1169341 -0.39134967 0.44446185
مثلث 1.8995267 0.29192275 -0.629626 0.19867615 1.0318701 -1.3132269 0.5797428 0.5179744 0.74765754 0.58558697 -0.82370055 -0.90643096 -0.073607475 -0.91526824 0.03383262 -0.7262841 0.6950904 1.5347378 -0.2986066 -0.9053842 -0.073068075 0.7745449 -0.6206657 -0.055678762 1.9905994 -0.05547457 0.23308733 1.964789 0.3471337 0.10869137 0.35531884 1.1429743 -0.61603624 -0.20453319 1.0571488 -0.700751 -0.13196366 -0.38492352 -0.15502597 0.0550198 1.004654 1.0069575 0.085490376 -1.1339488 0.45548958 -2.0548034 -0.86184245 -0.50475 -0.33994076 -0.09834305 -0.049808603 0.22043742 1.3138354 0.8258751 -0.017306903 0.3602346 0.36340058 0.86147875 1.2485794 -0.2897117 -0.6789352 0.13928197 -0.4378932 0.8329329 -0.1642321 -0.3054363 -0.34982458 1.1740209 -0.7295749 0.6648692 0.6236415 0.04312683 0.61310494 1.955318 -0.3847816 -0.8500817 0.03127835 -1.150655 -0.97887844 0.027644629 0.4148485 -0.3317564 -0.5134085 1.721135 -0.79338044 0.74872 0.5568584 2.374026 0.9268128 -0.73123765 -1.0929465 -0.20267728 1.1807632 -0.8134861 -0.23114216 0.54880875 -0.85746855 1.5288683 -0.043298244 -1.0293722 0.47253463 0.726656 0.12607357 -0.6450077 -0.42335826 -1.2685207 0.5577275 0.09991203 0.62817276 -0.48056638 0.47157145 0.11307481 0.72744554 0.25373164 -0.042425733 1.4138726 -0.35200518 0.5912229 -0.46156746 0.8934128 0.3074563 -0.77489895 -0.23328993 -0.074929394 0.14741726 1.3827269 -0.7495956 -0.42668504 0.5432936 -0.48067525 -0.9061219 0.99978507 -0.60145026 0.93801856 0.6455358 0.18800063 0.018598298 -0.5979601 -1.5303797 0.083446585 -2.5044153 0.60468376 -0.26744863 0.09992281 0.13277484 -0.35131013 0.090978034 -0.3880628 0.09407165 -0.42295173 -0.71625644 -0.42396736 0.98034406 0.48265693 -0.9415382 0.88211274 -1.0461973 0.46483904 0.18937096 -0.026965298 0.40821972 -0.07903724 -0.4061024 1.7929716 -0.2881298 -0.89043903 -0.61633086 0.4290349 0.8487866 -0.39900598 0.2679105 0.13312608 0.37863493 0.82304835 -0.34416744 -1.1034304 -1.0400138 -0.43342662 -1.3962077 -0.9272208 -0.4295889 -0.95547855 -0.42454165 -0.5434122 -0.6639839 1.5378902 -0.81636506 -0.6715596 -1.2404753 -0.003995599 -0.57485884 -0.5522707 -0.4993215 0.48547813 0.47933835 1.0096879 0.16176042 0.46942344 -1.1655283 0.48626727 1.035177 -0.050405994 -0.41932783 0.102663636 1.0233281 0.38890192 0.4297831 0.31220204 0.103544265 0.9972473 -1.0783747 1.9837935 -0.6741892 -1.3108703 0.6917815 1.3471379 -1.6098342 0.8940989 0.34745917 -0.60719 -0.20938306 -0.65323365 -0.8782744 -0.23230915 0.4732812 -0.6935136 0.6813809 1.4555999 1.0277097 -1.1274275 -0.43721265 0.8927532 -0.27989414 -0.4515718 -0.6341105 -0.40665606 -0.44850758 1.3007038 0.427993 0.42614603 -0.058882043 1.130177 -0.40461892 -0.08595055 0.5394845 -1.0089756 0.31484735 -0.36136183 -0.69640267 -0.67797035 0.09674612 -0.118054114 0.8925921 -0.07202537 -1.5130898 0.96559256 1.2343063 0.10555199 0.5884475 0.25932375 -0.8208092 0.17161469 -0.19667684 -0.9011219 0.5399425 -0.211785 0.68951803 0.20600156 0.06460533 -0.51092744 -0.20355442 -0.88600343 -0.77252674 -0.25479946 -1.6436373 -1.2856303 0.24709931 -0.4080923 -0.018338945 0.33082843 0.9526329 0.4722993 -0.25952226 -1.2107435 -0.7049957 -0.6954772 -1.0552394 -0.2823143 0.8235813 -0.89083505 0.8122418 0.31444147 -0.031227626 -0.7122171 -0.13177928 0.6002169 -0.90342367 -0.2878693 -0.83886063 0.39358416
دائرة 1.0210866 0.4071195 -0.45051733 0.020620625 0.27364835 0.1007058 -0.03710386 -0.015330363 -0.058549106 1.0196217 -0.37105662 -0.010020518 0.16105965 -0.52194554 -0.1009855 -0.13522723 -0.10323744 1.0408704 -0.3319487 -0.13558538 0.15357088 0.3535888 -0.14810032 0.45569438 0.34752315 -0.12517399 -0.083567046 0.16689548 0.03228635 0.046371847 0.048645396 0.33621818 -0.5147802 0.20890903 0.2030906 -0.16373247 -0.013958925 0.17805138 -0.3608075 -0.14471242 -0.17709376 0.24542356 0.061616488 -0.28136215 -0.044281535 -0.3148976 -0.2949819 0.17164248 -0.32828015 0.25321418 -0.13257104 0.08614152 0.070706144 0.24504507 -0.059683304 0.35927972 0.28990197 -0.017533114 0.0871171 -0.24496652 0.08823266 0.15453656 0.02331406 0.19843407 -0.11073438 -0.09655421 -0.18255353 0.25554186 0.1152087 0.4504325 0.32154953 0.049725767 0.18437117 0.02461913 0.14629054 -0.08048633 -0.0014481515 -0.11552887 -0.2791531 0.28473657 -0.5776398 0.25072083 -0.2834062 -0.13460875 0.03401929 0.1299711 0.14088207 0.22721896 0.42139176 0.21804625 -0.22855471 -0.38202637 0.7035224 -0.024693977 0.068948254 0.0039270422 -0.29448608 0.12451933 -0.14956719 -0.282772 -0.23779209 -0.11872363 -0.17298114 -0.28613383 0.118452355 -0.6509267 0.43516737 0.04544151 0.21263504 0.0144704 0.015791867 -0.19257551 0.24278009 -0.098140545 0.096415885 0.059614442 -0.45558003 0.1356935 -0.45337093 0.14012638 0.20256895 -0.14886203 0.022987043 0.17165467 0.13150167 0.33756584 -0.15925309 -0.041803557 -0.64318186 -0.40153626 -0.2976507 0.14891687 -0.40004668 0.117568955 0.053107996 0.14428553 0.33527794 0.0728327 -0.029695923 -0.7251221 -0.9417911 0.095430985 0.052812576 0.25753805 0.5307263 -0.20650454 -0.12876165 0.28457546 0.14138965 -0.03142418 -0.38577595 -0.109005265 0.2644126 0.20727731 -0.25929224 0.5767984 -0.23352568 0.21602641 -0.14026414 0.04561646 0.18878941 0.16657774 0.11050039 0.03269094 -0.056239672 -0.3391801 -0.035547435 -0.1508668 0.15926158 0.03763052 0.23982958 -0.29283258 0.09781052 0.14286928 -0.20823361 -0.21886641 -0.3186625 -0.036759645 0.034259435 -0.45593047 0.041512158 -0.17623295 -0.19712308 -0.09816738 -0.16719168 0.14786872 -0.40611377 -0.19052063 -0.010039953 0.0361195 -0.26114902 0.36621758 0.012140453 0.43414745 0.2825027 0.3891994 -0.044736482 0.10124789 -0.32394716 0.3335097 0.084807955 -0.18136325 -0.18377233 0.5888252 0.26922247 0.24818924 0.3303982 -0.020203609 -0.3913489 -0.1291039 -0.17932501 0.3786943 -0.1093726 -0.18811266 -0.11063201 0.33259812 -0.36564848 0.13490331 -0.03887087 -0.0012744747 0.07620618 -0.22057627 -0.2685445 0.36476427 -0.040129337 0.0060061794 -0.22815523 0.22672932 -0.08554292 -0.0124352565 -0.24323982 0.17128477 0.08368616 0.29389212 -0.1307358 -0.038024127 -0.14293435 0.081976876 -0.12705211 0.15381528 0.13141549 0.25375322 0.28047037 -0.075120166 0.3085083 -0.36591905 -0.03645868 0.107295826 -0.011686143 -0.27333108 -0.0932724 -0.16174376 -0.07361825 0.08120151 0.14438964 0.4533738 0.14327024 -0.09023732 -0.08793972 0.27833444 0.0653334 0.18783312 -0.17480858 -0.096261874 0.18983872 -0.17449129 -0.13584714 -0.10244624 0.48666516 -0.17071901 0.11503525 0.15183328 -0.4031396 -0.18431477 -0.15307115 -0.23791581 0.29435778 0.015104277 -0.52207637 0.037887998 0.38684815 0.040494185 -0.09564469 -0.27400458 -0.271042 -0.16610257 0.012726689 -0.17286384 0.26092583 -0.085916184 -0.08227461 0.13546716 0.34281355 -0.08314993 -0.055594265 0.009436917 -0.008938127 0.252789 -0.13832858 0.09945438
مستديرة -1.0531867 0.3997946 -0.3551283 -0.2957 0.9652275 -0.49582475 1.0237832 -0.15119348 -1.2414463 0.96750253 0.7140081 0.87881565 0.59739774 -0.23830682 -0.3500765 0.19750112 -0.2775819 1.5141754 0.2649506 -0.43275464 0.51633584 0.66171414 0.051020987 0.412826 -0.57025987 -0.55652535 -0.099725306 -1.715253 -0.22323065 -0.77694553 0.3664195 -0.9617162 -0.49869853 -0.9431069 0.0566882 -0.67631537 0.041450992 0.985586 0.71017253 -0.7284601 -1.5744859 -0.027033946 0.21106519 -0.20170149 -0.034219794 1.2527807 -0.46465 -0.13345626 -1.1105486 -0.62713873 -0.20523866 0.23707433 0.041844103 0.9963284 -0.8559202 -0.5209031 -0.38958725 -0.315963 0.5593157 0.97298515 -0.34073165 0.07247941 -0.022158027 0.56574804 0.5292734 -0.78142726 0.36476588 -0.031187242 0.7975738 -0.059925474 0.15256606 1.5313461 -0.17646757 -0.7134222 -0.7061018 1.4612725 0.7802227 -0.94648564 0.27038324 0.32866317 -0.6926873 -0.73815835 0.9960244 0.8844028 -0.05311527 0.04092468 1.7626628 1.4769381 0.95360833 0.13872303 0.87643486 -0.31416818 -0.28607914 0.7163877 0.32152286 -1.325864 0.17951027 1.0348668 0.60044366 -0.5060355 -0.57050675 0.17372796 -0.049370795 0.43881556 -0.57117957 -1.1642046 0.044497065 -0.06593875 0.7156177 0.8135392 -0.53201205 -0.8921718 0.7585727 0.09949707 -1.0042824 -0.42772785 0.023275202 0.3871751 0.1268498 0.5728417 0.07663878 0.4143987 0.21943441 1.6703545 0.4260862 0.52979976 0.5691916 0.15273997 -0.57785004 -0.0906284 0.8422856 0.3457055 0.35434029 0.11118433 -0.42022613 -0.31825492 1.1173614 -0.6204821 0.020541564 0.24098943 -1.4315208 0.48178905 0.074360944 -2.334056 0.18990846 -0.18551536 -0.34745142 -1.798742 -0.55309355 0.46408412 -0.55692357 -0.41590273 0.7601243 0.12070182 -0.12967485 0.23013312 0.0023317377 0.08464806 0.13931671 0.22944449 -0.3356372 0.64652264 -0.57326514 -0.01639476 -0.012923727 -0.12391339 0.58883786 0.46271315 0.07307772 1.2986615 -0.76035845 0.64911145 -1.6260935 0.3280427 -0.42569646 0.5038078 0.20811425 -0.5241189 0.94609517 -0.28557086 0.461437 0.4574072 -0.76516134 0.36004478 0.5055624 -0.9114315 0.13552438 0.8707409 0.9727427 -0.36600047 -0.22738333 -0.413466 0.09921906 -0.6719936 -0.7830777 -0.1331263 -0.29064578 -0.7933621 -0.54812235 0.065876685 -0.013128507 0.37045407 -0.101756655 -0.23329227 0.5953729 0.1282565 -0.15375477 -1.1009499 0.5292139 1.1572115 -1.1399688 -0.7770692 0.94602853 -0.6787382 -0.3075095 0.15084933 0.13440299 -0.33087072 -0.046088263 1.563679 1.1007595 0.50407 -0.012246631 0.2909883 0.47638068 0.7453618 -1.1175195 0.49007264 0.7753191 0.15265739 0.25427788 1.0181599 0.78260744 0.45944908 1.2606945 -1.097753 -0.43794635 0.37339693 0.7329891 0.030132558 0.6410308 0.25026324 -1.7440747 1.1141355 -0.392889 0.35154414 -0.24040234 -0.39683202 -0.18690692 0.97455496 0.49680144 0.022759808 -0.3126402 0.336433 -0.05424147 -0.10021459 0.65972173 -0.7415543 -0.046276994 1.4973059 0.19684306 -0.3132654 -0.9240094 0.43189648 -0.28748664 0.12135684 0.06306725 -0.27719003 -0.44052634 0.6607839 -0.16380773 -0.52823144 0.7491754 -0.14449787 -0.059410337 0.34368423 0.58048403 -0.29617125 -0.60201997 0.12378957 -0.17041714 -0.3666015 1.2348675 0.051203284 1.1890455 -0.5810977 0.48622087 -0.36220634 0.01941163 -0.32696488 -0.06949972 0.62261015 0.25893432 0.48021972 -1.0315844 0.93454826 -0.8145728 -0.5328483 -1.1611046 0.5045937
مربع 0.9982113 0.633578 -0.34818634 -0.36508715 0.23143461 0.10908555 -0.24930586 0.0144567005 -0.20374534 0.8894259 -0.2736545 -0.040072013 0.20292163 -0.31764656 -0.3641064 -0.118579015 -0.05486121 1.8916862 -0.23761526 -0.22880273 -0.1740644 0.08887861 -0.12478715 0.57364595 0.17569569 -0.4588076 -0.17992418 0.49792394 -0.12512487 0.15035608 -0.08880243 0.37369376 -0.35726723 -0.23297979 0.14410481 -0.3642753 -0.06920856 -0.89984405 -0.50905275 -0.24933012 -0.11861697 0.4549344 0.68370897 -0.77147025 0.2767672 -0.38541847 -0.4077059 -0.20500319 -0.44352412 0.14709826 -0.15176764 0.31585845 -0.04766361 0.42829904 0.2610913 0.0751813 0.17065044 0.27954304 0.15753022 0.1349274 0.06536669 0.07114405 -0.36526105 0.68467486 0.019265203 -0.4654413 -0.3357227 0.106404595 -0.051094152 0.4624711 0.09537437 0.091461085 0.2534019 -0.2593788 0.29179975 -0.52228534 0.18595088 0.035206635 0.5835007 0.22698194 -0.5660176 0.167621 0.48168674 0.017501414 -0.062622815 0.4373635 0.38063818 0.9945515 0.69713247 -0.440773 -0.247673 0.5815609 0.44390142 -0.034214567 0.3774257 0.17948386 -0.3944693 0.5116631 -0.0976518 0.3242051 -0.14900568 0.19712861 -0.65506065 -0.06443449 -0.094406195 -0.33504486 0.17646138 0.20848984 -0.03814761 0.19606523 0.18948628 -0.32086816 0.17081702 -0.059151866 0.0656303 0.13873202 -0.8714502 0.15834627 0.32943904 -0.2989546 0.21844709 -0.20959209 0.082011595 -0.10724526 -0.31054088 0.3416342 -0.12005009 -0.2001006 0.08261405 -0.24703649 -0.0002900892 0.3026533 0.18687274 0.3816245 0.11173716 0.1767128 0.4477435 -0.113770455 0.35422957 0.19375437 -0.8099656 0.23759098 0.16454647 0.326098 -0.31907147 -0.1268253 -0.10661112 -0.1845052 0.31683454 0.07722624 -0.20906857 0.016959507 0.6493384 0.38580307 -0.62858105 -0.38392866 -0.32316682 -0.06876345 -0.09900955 0.06698856 0.018067272 0.06566181 -0.49006566 -0.23663849 -0.121480756 -0.163935 -0.08149962 0.83383846 0.41082332 0.32064044 -0.014555575 -0.352438 -0.037951276 -0.11070759 -0.94532806 -0.11642249 -0.28935018 -0.07369245 -0.01786985 -0.47975686 0.070803076 -0.12472082 0.17980807 -0.33341235 -0.35922733 -0.11803839 -0.27739838 -0.09927836 0.084091 0.21570328 -0.649201 0.12384353 -0.17754787 0.14108437 0.099463955 0.23415396 -0.21889263 -0.28173432 -0.5836146 0.18346973 -0.06286657 -0.54688907 -0.31715474 -0.21998413 0.48119456 0.3667347 0.022136794 -0.16284093 -0.06904124 0.013488035 -0.019247383 -0.05122788 -0.2610649 -0.577059 0.10759874 0.424366 -0.49215516 0.11907437 0.21905829 1.0113255 -0.10796216 0.42595813 -0.07867512 0.052912988 0.22570273 0.22585127 -0.2724267 0.3411415 -0.24430119 0.041938227 -0.18444121 0.490582 0.15794142 0.105935104 0.07238234 -0.3078584 0.48076156 -0.0640553 0.056719873 0.40748712 0.29623267 0.111335665 0.10937543 0.21996443 0.23297764 -0.15324463 0.2283789 -0.2564994 -0.049035754 -0.28185037 -0.05584803 0.17801753 0.2409447 -0.23947078 -0.075690925 0.9237205 0.40173978 -0.01905506 0.080751136 0.23173219 0.18571354 0.0097928345 -0.49175972 0.10424456 -0.008650848 0.000674987 0.21499266 -0.4405327 -0.45782372 -0.19476366 0.11650513 -0.14981908 -0.17780888 -0.34639934 -0.5637937 -0.33372477 -0.41259152 0.14632194 -0.43943524 -0.15241326 0.62303734 0.3326325 -0.18973976 -0.24846812 -0.29588625 -0.24493407 -0.14056556 -0.16100852 -0.17451775 0.1421661 -0.11966626 0.33695865 0.29186708 -0.21759829 -0.30044457 0.7215589 -0.27116182 -0.33115435 0.10924944 0.1468635
مستطيل 0.6121856 0.1657816 -0.15191081 0.42471725 1.3067491 -0.6450612 -0.5319377 0.39630088 1.1456112 -1.4412313 0.12032671 -0.8121453 -1.1376872 -0.8948938 -0.086988084 0.1664022 0.71962374 1.5714732 0.5115874 -1.1795504 -1.4007386 -0.6468697 -0.26124787 0.8145249 0.96670973 0.06732777 0.1624153 1.1320271 -0.92482066 -0.39632306 0.09770507 1.0698218 0.09513351 -0.49825463 -0.3825571 -0.7260784 -0.4246499 -1.8551472 -0.4630493 -0.32852897 1.2297336 0.2622124 0.32437536 -0.6995344 0.104022056 -1.3705189 -0.17794618 -0.55205655 -0.18461123 -0.82763106 0.006895199 0.26171267 0.112726584 0.2571893 -0.82281923 -1.0728638 0.8154689 0.9283774 0.28684637 0.01571232 -1.237518 0.57854074 -0.18849644 -0.5747656 -0.12583883 -0.7444676 0.17096832 1.2893926 0.047728505 0.8047696 0.3311995 0.07707491 -0.39681756 1.0449536 -0.81777894 -0.2387303 0.31396863 -0.9470206 0.33295685 -0.206147 0.12217998 -0.43877682 -0.40636253 0.965708 0.06414791 0.93156016 0.8907172 1.1200532 0.76373124 -0.64416665 0.34681785 0.3013391 1.7046987 -0.5310378 -0.60739106 0.19083433 -0.8953436 0.57972753 0.60124624 0.14142248 0.3783957 -0.27126434 -0.22589277 0.4004934 -0.71076703 -0.34744674 -0.019777039 0.19225569 -0.20917046 -0.22879374 0.21663207 0.76317596 0.062239807 1.2143023 -0.21357182 0.93767995 -0.18319835 -0.07094832 -0.7772223 0.83262646 -0.3595607 -0.62581164 0.5783629 0.4078996 -0.5569408 0.55699146 -0.07868529 -0.0928982 -0.3302652 -0.08625775 -0.5280503 0.97432613 0.29182312 0.36991522 0.71119225 -1.1368716 0.08422876 -0.15136293 -1.1455276 -0.13014235 -0.61328465 0.2879469 -0.23529482 0.27892357 1.0127409 -0.64976144 0.02267598 -1.0101694 0.49298072 0.012045037 -0.95051277 -0.31818658 -0.120441034 0.34645396 -0.43096703 0.47299868 -0.24082243 0.26475424 -0.037773725 0.2832986 0.28712904 0.034451686 -0.07547054 0.41141248 -0.16553202 0.50274706 -1.1423397 0.73044384 0.3827644 0.029849447 -0.386367 -1.083893 -1.1986094 -0.58468866 -0.863728 -0.9192487 0.116870396 0.21922989 -0.6939299 -1.2723682 -0.12253725 -0.24276064 0.43811235 0.2731889 -0.4530779 0.56984293 -0.93440515 0.4040356 -1.473675 -0.07104839 -0.2573055 -1.9720405 0.03918951 0.32935652 0.05427991 0.06588613 0.9202387 0.6045188 -0.86709815 0.38548568 0.27024922 0.108530656 -1.0802466 1.3925548 0.012736008 -0.17792565 0.20137537 -0.22517627 -0.44451237 -0.09976303 0.10977421 0.27440327 -0.22052968 -0.43314123 0.019232968 -0.09219084 -0.45349523 0.46088797 0.6178786 0.74728453 -0.3543973 0.10706601 0.51643103 0.516748 0.6468438 -0.04349424 0.41965178 0.24771194 -0.4857987 -0.8527504 -0.43223938 0.6803446 -0.06527672 -0.14140707 0.74089867 0.36198837 0.2661983 0.2636159 0.47879127 0.6940419 0.123947255 -0.060537893 -0.28171822 -0.83284026 -0.35426912 -0.6795625 0.97992337 0.13309024 -0.19323933 -0.04342405 0.69290715 0.18178916 1.3905017 -0.271145 0.020121327 0.49184912 0.5991729 0.60098785 0.5127232 -0.84231466 -0.27048373 -0.27273503 -0.09387637 -0.80577797 0.3567577 0.3103255 -0.08338275 -1.0959185 -0.04168136 -0.85305667 -0.79677093 -0.20449091 -0.18232274 -0.29798147 -1.1023073 -0.51116914 0.48950455 -1.3914496 -0.3307058 -0.34889218 0.36669978 0.51559436 0.3068357 -0.52034265 0.4248388 -0.8201692 -0.75684506 0.49304762 0.2553781 -0.15732408 0.7053974 0.29591534 -0.5363586 -0.0713403 0.5429325 0.6304891 -0.26465467 0.2997904 0.20218636 0.6394782
دائري 1.2775345 0.08501851 -0.22554967 -0.29429498 0.2954874 -1.0122458 0.085477225 0.31444237 0.38150582 0.26820737 -0.35691252 0.020024156 0.20434451 -0.73293334 -0.10905678 -0.08897163 0.12075268 1.1918672 0.0665373 -0.64814776 0.115044415 0.31043038 0.45780584 0.20820215 1.2464733 0.16644637 -0.22450012 -0.24595477 0.4566934 0.098242745 -0.60735977 0.3066124 -0.34225005 -0.39776054 0.8080221 -0.5499287 0.31742495 -0.17558485 -0.3599753 -0.49964944 0.25623274 0.902417 -0.12487619 -0.69507664 0.5160253 -0.80654263 0.0035688493 -0.28361475 -0.21070765 0.11540849 -0.5206337 0.19977763 -0.47893837 -0.06787677 -0.068798475 0.8601112 0.10009402 0.2763005 0.16897221 -0.14391942 -0.23789947 -0.3848538 -0.30085656 0.28972757 0.8714765 -0.88749146 -0.11447131 -0.13269657 -0.15959294 0.33059117 0.4182182 0.09487449 -0.34466946 1.1459771 0.37544164 0.0903055 -0.026035463 -0.1669701 0.11323352 0.81243587 -0.836421 -0.60699403 -0.13450623 0.03915598 -0.17863487 0.43855736 0.514614 0.5798058 0.46927634 0.4835339 -0.053032823 0.23115334 1.0212175 -0.7019944 -0.32427204 0.2554389 -0.7737747 -0.11906344 -0.04811086 -0.9584974 -0.22352955 -0.12578057 -0.7649516 -0.053162497 -0.39612305 -0.48545423 0.50926197 0.48632938 0.287337 -0.6793897 0.60827035 -0.18443139 0.16581713 0.22578625 0.17547375 0.19343732 0.26084697 -0.0540027 -0.07153353 1.5540916 -0.49366567 -0.53336996 -0.32773224 0.22511198 -0.12749094 0.38231102 -0.3894508 -0.38425022 0.7520499 -0.23979582 -0.35950783 0.16446795 0.1099057 -0.14874922 0.1805841 -0.42826462 -0.8693266 -0.19374794 -0.31759992 -0.8140123 -1.0241328 -0.024903549 0.3164605 0.06473173 0.19501893 -0.11583852 -1.2607538 -0.018025622 0.8766544 -0.23248832 -0.37353072 0.3515526 0.22092408 0.29646838 -0.070043914 0.008563142 -0.8182609 0.4915592 -0.6846618 0.17267407 -0.44409555 -0.23770243 0.40577513 0.6173799 -0.8363152 0.14552006 -0.7449706 0.93352675 0.13262118 0.12868273 0.3203867 -0.07288127 -0.4173991 -0.058749966 -0.67947114 -0.47452155 -0.20526831 -0.17355928 -0.8272106 -0.29105154 0.19573517 -0.16423088 -0.13594556 -0.24121659 -0.0136345755 0.90316445 -0.31492436 0.26690072 -0.3974787 0.24092571 0.4213294 -0.6972735 -0.23193581 0.32902598 -0.13593267 -0.07534441 -1.1348864 0.40756097 -0.16400857 -0.18864349 0.13045458 -0.3789705 0.01671062 0.79458904 0.29250097 0.48559195 0.24416581 -0.68154883 0.39291373 -0.1472543 -0.2086214 -0.2278732 0.067593075 0.0642248 0.08598678 -0.08094301 -1.0177207 0.8849288 0.2959882 -0.44307268 0.5885125 -0.0056899586 -0.56333196 0.2662207 0.37862533 -0.2122601 -0.28851816 0.16608407 -0.07883828 -0.63977844 0.035023388 1.0270432 0.14229995 -0.20538555 -0.25544125 -0.19598286 0.7493098 0.7502623 -0.17745619 -0.0003777171 0.30609885 -0.007465604 -0.01156606 0.12733816 0.24330127 -0.30464578 0.12694186 0.29845327 0.178488 0.07502025 0.1040333 -0.2990438 0.50315106 -0.082386285 -0.6634558 0.46217507 0.41777685 -0.4214355 0.16307703 -0.073465414 0.18062282 0.46155232 -0.58395845 0.088443935 0.15758985 -0.6018818 -0.9530118 0.093834035 -0.45940432 -0.09324852 0.74075574 -0.080929965 -0.08222317 -0.74007773 -0.47231102 0.09916002 0.5469895 -0.8391021 -1.4133339 -0.2137751 0.1934325 -0.68909645 -0.113945425 -0.38014936 -0.6868903 -1.0354234 -0.4856182 -0.21616885 0.1715904 -0.50523657 0.039777495 0.47087702 0.46581337 -1.0614457 0.21281889 0.14598024 -0.6976918 0.36171368 -0.3722158 0.042649124
اسطوانة -1.3873731 0.8121319 0.7175181 0.18325035 -0.22152555 0.015766783 0.18190846 -0.98299974 -1.2950145 -0.0036748296 -0.052207656 0.1175527 -0.5023614 -0.2674938 -0.62550414 -0.25393426 -0.23977722 1.898274 -0.38764256 0.113985464 0.3968375 -0.7314115 -0.6645466 0.19360785 -0.35889488 -0.1133376 -0.8662741 0.10046272 0.95545685 -0.3877416 -0.37816635 -0.04507191 0.1950088 -0.1858154 -0.62106174 0.64710987 1.1417254 0.75945634 -0.021194272 -0.9737808 0.21005446 0.10118702 0.7912803 -0.018089741 0.063243546 0.20396915 -0.3618052 -0.31841153 -0.6394129 1.0262215 -0.23423824 1.2275223 -0.19213773 -0.33672372 0.9957982 -1.9424549 -0.096650876 -0.42477417 -0.6416563 0.4568024 0.56291807 -0.43914828 0.5790959 0.07939986 0.39123094 -0.7269145 -1.1053563 0.044469662 -0.3275619 0.26413128 -0.49963045 -0.2826134 -0.6434279 -0.6839963 -0.3518911 0.50106746 -0.29539385 -0.14436312 0.5941557 -0.24009651 -0.35430405 -0.10319086 0.061338972 0.080486745 -0.31085694 -0.29828015 2.0452476 -0.7256899 -0.006335662 -0.58487064 0.30737308 0.02469512 -0.22069155 -0.45948067 -0.3051704 -1.4039117 0.020989247 -0.48259673 -0.31785595 1.5158652 -0.0063975467 0.17336687 -0.351889 0.11759024 -0.36573482 -1.2842168 0.30427045 -1.228523 -0.07191796 1.1971756 0.13552639 0.014621932 -0.8889133 0.29095092 -0.86539364 0.065560326 0.48441568 0.88642037 -0.90859514 -0.8635842 -0.8177913 0.13210942 0.48714986 -0.53169686 0.076360844 0.4932857 -0.3422575 -0.42879605 -0.46694037 -1.00819 0.14761974 -0.32765648 0.6542944 0.7334571 0.82072705 -0.0799769 0.8623792 -0.52181196 -0.11476954 -0.74666756 -0.92316496 -0.07515832 0.40510747 0.6567568 0.20071772 -0.9424137 -0.9793818 0.09839167 0.8439064 0.031506013 -1.0903152 1.3220083 0.4863618 -0.15485458 0.065257445 0.7161755 0.16138524 -0.56308484 -0.48024967 2.0331933 -0.5213591 -0.54665095 0.01035663 -0.9902158 -0.07682156 0.23799151 0.23337199 -1.7318499 0.45710737 0.26978162 -0.85465676 -0.5738234 0.079578236 -1.0448891 -0.5809356 -0.859947 0.6326312 0.21946591 -0.41562667 -0.44326228 0.79447824 0.23645689 0.19996308 -0.43551984 -0.9561988 -1.057807 -0.4107585 0.27986342 -0.52622205 0.5056634 -0.5891114 1.124147 -0.052376978 0.40513214 -0.20851941 -0.47218522 -0.3225762 -0.76029336 -1.0409493 -0.3328167 0.15309091 -0.08440168 -0.0024990705 -0.7246441 -0.46331483 -0.6454073 -0.14666113 -0.034631748 0.5578099 -0.12383958 0.010582409 -1.1675308 0.25799507 0.052538738 0.64025843 0.10786829 0.45215297 0.5277654 -0.23570731 -0.65122 -0.29054272 0.74677914 0.11061058 0.38731217 0.80182046 0.4978644 -0.63837844 0.12007599 -0.38164154 0.7880201 0.68051565 -0.8949933 0.57327586 0.33654428 -1.0518978 0.8519723 -0.47951478 -0.13628197 0.39102226 0.5861959 -0.18590833 -0.8118627 -0.11749614 0.27272815 -0.20035096 0.3059378 -0.5970543 0.17919901 0.42341548 0.0714515 0.27767643 -0.6279077 -0.1842626 -0.51419413 -0.69037074 0.63148385 0.036017172 -1.0333184 -0.25262013 0.16468292 0.2186901 0.1697821 -0.4839057 0.13777217 0.05230315 0.32754377 -0.10112579 1.0303459 -0.41844597 0.5658992 0.8057517 0.17559631 0.10788347 -0.18985651 -0.835473 0.5196042 -0.45742688 -0.5103981 0.25403544 -0.083396025 -0.3197609 -0.47012275 -0.05414234 0.16389002 -0.32279685 0.41695246 -0.2430095 -0.2084166 -0.13260278 0.28597274 0.5909428 -0.17049105 0.79702836 -0.52818865 -0.2044128 -0.13672689 0.28665715 -0.85679686 0.3699055 -0.38090858
خط 0.8405016 0.097928606 -0.32855535 -0.0052832146 0.5696275 0.10323376 0.0355948 0.13932334 0.7642932 0.86812574 -0.102995135 -0.07293959 0.039655875 -0.04523492 -0.10867938 -0.079616 0.040793914 1.1665512 -0.19865292 -0.27317658 -0.3473946 0.3772002 -0.21914713 0.2322334 0.11468016 -0.059303243 0.10745332 0.056166492 -0.124562 -0.003596727 0.09842832 0.2151049 -0.1469804 -0.15560006 -0.04943873 0.14322096 -0.1310692 -0.621547 -0.14130266 -0.10164236 -0.41275346 0.34677082 0.16690895 -0.45426908 0.18059716 -0.31128028 -0.47202185 -0.09391119 -0.03599425 0.24607357 0.1273233 0.25588968 -0.15752627 0.331466 -0.027340043 0.6123377 0.0387615 -0.023019738 -0.09306491 -0.1936791 0.24137495 0.19261456 -0.033954494 0.46353406 -0.05691367 0.0742239 -0.15192208 0.076626204 0.20712924 0.4700261 0.2635949 0.08526004 0.13957971 0.18035439 0.010613027 -0.27093887 -0.006608588 -0.26467618 -0.1928475 -0.08634299 0.37726772 -0.16165604 -0.11228609 0.030387668 0.23444256 0.021566298 0.018667849 0.23039415 0.1978879 0.035409797 -0.2103232 0.4743387 0.8335296 -0.096174605 0.073040254 -0.08069829 -0.04352636 0.014796183 1.0842985 0.21638663 0.2663862 0.17824666 -0.30454752 -0.066343814 -0.16598275 -0.5699668 0.26120195 0.13888729 0.0067506866 -0.12297691 -0.18124267 0.040084146 0.33221993 0.124610305 0.03276196 0.16599871 -0.21501613 -0.10604059 0.470147 0.08389063 0.19019337 -0.18432671 -0.062161162 -0.12203043 0.2821011 0.13253823 0.0017298915 -0.088425 -0.02246808 -0.44149515 -0.20011483 -0.014789289 -0.21502769 0.25942567 0.081477545 0.15617605 0.25925046 -0.11739057 -0.010580991 -0.41349852 -0.7472201 0.22727624 0.053371027 -0.081012756 0.5957685 0.022490278 -0.04158583 -0.21781422 -0.09142379 0.259243 -0.48627838 0.06483996 0.44278 0.24916436 -0.30469248 -0.20276758 -0.18208663 0.24467997 -0.010949669 -0.07027457 -0.27816275 0.1158107 -0.08889071 0.05096295 0.07186214 -0.17142628 0.011733393 0.033310775 0.3093648 0.28077585 0.2997966 0.4646053 0.012499092 -0.23893972 -0.49059254 0.05732999 -0.36071846 -0.04227217 -0.32502678 -0.35310072 -0.163713 -0.32330814 -0.31701046 -0.15381289 -0.02453602 0.07341676 -0.2947494 -0.0598819 -0.2959151 -0.29303828 -0.41860998 0.12105627 -0.040218014 0.26790297 0.22045384 0.18560216 -0.012081792 -0.07760597 -0.35546628 -0.0011725662 0.08240964 0.04077502 -0.22638942 0.31388876 0.33806214 0.12194172 0.32494316 -0.10102068 -0.33763814 0.1975367 -0.18212412 0.010370105 -0.26093626 -0.32777217 0.028723463 0.17370217 0.0156303 0.26602674 0.046081718 -0.19266003 -0.027327681 -0.1469361 -0.1913446 0.43965918 0.0902613 -0.97734547 0.8785916 0.17796238 0.32868582 0.027083084 -0.23204058 -0.004293855 0.008311493 0.090209246 -0.31965795 -0.22185262 -0.27579153 -0.027991705 0.073651366 0.34552407 -0.013093119 0.124750346 0.27264658 -0.0068207346 5.443051e-05 -0.35776612 0.2332335 -0.3301603 -0.25263324 0.030886251 -0.18522501 -0.055720277 0.23232475 -0.091656715 -0.10750261 0.40332222 0.44735458 -0.032508258 -0.012770833 0.08844963 0.16036019 0.38280082 0.12061333 -0.2860388 0.3176496 -0.23763439 0.40729225 -0.27837223 0.47027874 -0.10183335 0.07314701 -0.07731698 -0.25551367 -0.34525537 -0.13516116 -0.32969946 -0.4037385 0.10764515 0.44397503 0.10864893 0.23712929 0.20804611 -0.086916186 -0.09315848 0.021720713 0.016929932 -0.15104045 -0.09326864 0.3313663 -0.20922539 -0.23583996 0.40943113 0.040266477 -0.025091963 -0.03769124 -0.27784023 -0.04308918 -0.09461127 -0.33102247 0.16952921
