11 300
شاحنة 0.9735109 0.48300323 -0.405908 -0.020136595 0.77075005 -0.1727183 -0.40254664 -0.5192933 -0.065949015 2.0977468 -0.29120615 0.028456269 0.022211432 -0.18557662 -1.3384511 -0.88236254 -0.08662396 1.3546304 -0.38025615 -0.44444236 -0.51183575 0.10303381 0.18988754 -0.002786913 0.14168258 -0.3809264 0.30135268 -0.03650292 0.35425153 -0.3188646 0.2155536 0.03883933 -0.6297571 0.06613868 0.11640741 -0.2958174 0.052964322 -0.8075024 -0.55625486 -0.31438082 0.56473583 0.2923792 0.012224992 0.022818843 0.4796624 -0.16357225 -0.20854102 -0.89852124 -0.58428794 0.51851267 -0.07315701 0.38716736 0.54017204 0.3605348 0.11800579 0.6110437 -0.11385262 -0.14138125 0.25284758 -0.23957741 0.28299576 0.31357896 0.0038178882 1.1326472 0.72711164 -0.2901237 0.30240834 0.114415556 0.15627892 0.8503445 -0.11767959 0.2600496 0.57185173 1.3677171 -0.33768672 -0.4863396 0.6910695 -0.43714812 -0.28185531 0.43436083 0.3975555 -0.052059054 -0.08533446 0.09631607 0.038873304 0.34660685 0.28908846 1.6613879 0.066686206 0.122919604 -0.39518893 -0.22045334 1.0181389 -0.42934832 -0.22667098 -0.3756674 0.65858465 0.60382193 0.56759644 -0.47604126 -0.61716235 0.72428507 -0.38374713 -0.3338016 -1.2608699 -0.32195324 0.6038372 0.32944122 0.49758986 -1.0509564 -0.003922075 -0.2451397 0.85935694 -0.41941807 0.474792 0.06634422 0.4834498 0.5914017 0.59592557 0.6880983 0.45030838 -0.28427276 -0.21216276 -0.78064144 -0.2380166 -0.18149212 0.07963434 -0.31325272 -0.6631298 0.09551409 0.08168636 0.2268427 -0.84507364 -0.09524492 0.23205099 -1.2900947 0.25998783 0.018617513 -1.4046979 0.36161408 -1.5150404 -0.29568142 0.72575456 0.3364211 0.21778628 -0.0024655855 -0.57912105 -0.29358885 0.12009399 -0.2042148 -0.48547325 0.33823386 0.36842886 0.015705753 -0.016802542 -0.102958985 -0.095415466 1.3946384 0.13355224 0.03121894 -0.35461894 0.20680675 0.16525696 -0.0033778336 -0.18216905 -0.22421351 -0.38497078 0.8739584 0.53017 0.20932232 0.23442425 0.90594095 -1.1319057 0.31862763 -0.44038245 -0.40462396 -0.59290016 -0.025622096 -0.03947197 -0.2932168 0.15158267 -0.3152526 -1.0426006 -0.43138298 -0.3320163 0.42967683 -0.22620505 -0.08243278 -0.19575635 -0.20119555 0.82438827 -0.34537175 0.3347149 -0.024449652 0.06992623 0.20611802 -0.12879317 0.46926153 -0.57772934 -0.6682321 -0.3446801 0.6782265 -0.35436466 -0.9530876 0.4255507 0.20200428 0.6347899 0.030025972 0.4643706 0.1200837 -0.2645287 0.1468846 -0.5124324 0.53373784 0.6739517 0.5524648 -0.6475711 0.07562874 -0.094845064 -0.5228932 -0.08906049 -0.22304168 0.13722406 0.4314435 0.09486743 -0.74095833 1.0436918 0.7885067 -0.90657806 -0.19841987 -0.484814 0.14562234 -0.24087554 -0.64455277 -0.04104348 -0.24192156 -0.35175687 0.36548418 -0.49708053 0.36120474 0.54817015 0.49481368 0.0754292 -0.18927078 0.3637554 -0.41376916 0.50514287 -0.89230657 -0.33638793 -0.22113548 -0.4362558 -0.76753783 0.14166708 0.55133015 -0.13368699 0.4551116 0.6087507 -0.17790239 -0.051701386 0.4127819 0.04487438 0.0858458 0.6133271 -0.9977068 0.6388443 -0.2439328 1.3412703 0.045412205 -0.5964579 -0.1006201 0.9799072 -0.31879938 -0.11799934 -0.4541953 -0.5069504 -0.2627759 -0.6177465 0.33711642 0.54514366 -0.010638278 -0.07804678 0.23510656 -0.35978276 0.19470014 0.2079026 -0.3203151 -0.32347783 -0.18044461 0.07749507 -0.45662725 -1.0739245 -0.44259253 0.886234 -0.24490698 0.14741245 -0.34492308 -0.22804847 -0.32253596 -0.17017372 0.21741936
قطار 0.4914604 -0.16568111 -0.40096384 0.21991566 0.260486 0.18481828 -0.53760296 -0.17457278 -0.2527093 1.3855932 -0.5243167 0.03202946 -0.14078829 -0.30716234 -0.73296016 -0.2107135 0.06182531 0.64693785 0.028741466 -0.63250023 0.28918728 0.25655955 0.110142976 -0.12462964 1.0074968 0.48801076 -0.25519088 -0.25389603 0.2514604 -0.0962649 0.0016875472 0.13632943 -0.28335166 0.14171435 0.21075968 -0.10189568 0.4723252 0.51136607 0.18982631 0.6670297 0.5580758 0.17623654 0.22738585 -0.005482467 0.66010606 -0.16128048 -0.25334883 -0.51307327 -0.17736462 0.16238438 -0.24466924 0.1421834 -0.072457515 0.80444056 0.1336643 -0.29662648 0.50406665 0.06370685 0.12486912 -0.56758374 0.029347505 -0.53450394 -0.20143315 -0.054898106 0.5035283 -0.08147997 -0.22289538 0.42236307 -0.0027871968 0.2534922 0.0055846726 0.01220667 0.13363443 0.62481874 -0.051284786 -0.39505515 0.5012543 -0.28665474 -0.17203087 0.08012303 0.056962293 -0.1167219 -0.35058916 -0.7025144 0.2313229 0.45599607 -0.023313869 -0.30917534 0.024543228 -0.27992985 -0.16000174 0.723081 0.745235 -0.5933419 -0.34665787 0.41162628 0.45636952 -0.4027945 0.22117347 -0.6042951 -0.56856555 0.23219228 -0.5049461 -0.54473543 -0.005368801 0.039322272 0.39686915 0.3312751 0.2592804 0.7792677 0.3609384 -0.23674218 0.70068306 0.19955905 0.38127282 -0.22643521 0.4344004 -0.07718801 -0.47142732 -0.014696008 0.20131037 -0.35595933 0.15491764 -0.71149236 -0.6254967 -0.061033737 -0.13385053 0.042991586 0.15181896 0.078424305 0.5571899 -0.31103623 -0.311002 0.09809867 0.27574006 -0.19863194 -0.5163579 -0.32418594 0.054003123 0.057185005 -1.0870152 -0.17850131 0.03452006 0.48631033 -0.3294147 -0.09992731 -0.47819102 0.013955992 -0.46853542 -0.43507385 -0.5423736 0.42196676 0.14018755 0.19472347 -0.24405041 -0.7716662 -0.27564028 -0.104269214 -0.24405035 -0.41780218 -0.5425353 -0.052568603 0.038786024 0.7674239 0.23283981 -0.028335389 0.016026916 -0.55518407 0.1469002 0.08789224 -0.7325057 0.7062625 -0.7232189 -0.33633 -0.30184847 -0.02970067 -0.035617143 0.05127493 -1.0036465 0.0495181 0.08999979 -0.10211108 -0.27791333 -0.16338776 -0.158065 0.6452625 -0.4596319 -0.032849118 0.13631691 -0.062957786 0.42410833 -0.45795062 -0.16373828 0.54785 0.16864322 0.3313766 -0.24338458 -0.09831072 -0.23191847 -0.08974756 0.036769737 -0.35636055 0.021918483 0.46539366 0.4283346 0.36077985 0.39721847 -0.62109005 0.48447144 -0.21918947 -0.0605878 -0.46608132 0.0020412689 0.24911039 0.020556664 0.34090132 -0.372466 0.65339816 -0.19796485 0.4716996 0.12016945 -0.18177107 -0.2730964 -0.10876588 0.34610417 -0.01944999 0.6293008 0.3888076 0.111371666 -1.4066992 -0.34747693 -0.5161325 -0.010606105 -0.18120217 -0.6095917 0.21504569 1.1621737 -0.15290192 -0.3683297 0.058035843 -0.056760162 -0.04029391 0.062982485 0.21879655 -0.3151631 -0.22944967 -0.13154748 -0.014447965 -0.24607798 -0.38472342 -0.300942 0.15980041 0.6362096 -0.1198724 0.16476232 0.52156824 0.32808167 -0.49452126 -0.009328335 -0.065228306 0.19726874 0.32301724 0.25740075 -0.20238902 0.3401144 -0.4355333 0.18713486 1.03192 -0.059587326 0.17040716 0.46098858 -0.24667954 -0.33942702 0.101933 -0.03917215 0.8549372 0.29400864 -0.08476956 -1.1620448 0.23239946 -0.16106741 -0.6475944 -0.34126085 0.37030163 -0.27080283 -0.35763767 0.14333509 -0.3313377 0.07920665 -0.40358543 -0.1528285 0.081907526 -0.5272599 -0.46837303 1.5105603 -1.0602698 -0.20463917 0.41822186 0.39019525 0.6141506
زورق 1.1359555 -0.1726672 -0.76975894 0.20550786 0.5506994 -0.109599546 -0.43799242 -0.407897 0.972348 1.4961683 -0.2708577 -0.54297006 -0.24995829 -0.15861896 -0.7308819 -0.029657904 0.63479394 1.2481828 -0.036246017 -0.29066563 -0.5332658 -0.33250535 0.38809097 -0.65430075 -0.3860837 -0.32167664 1.0043459 0.8479184 0.8392929 -0.3314097 1.3116562 0.40918967 0.14864518 0.05132394 -0.03136897 -0.8120526 1.054497 -1.006902 -0.5344403 0.23354453 -0.041233048 0.13168886 0.24406613 -0.38789853 0.37184405 0.5556588 0.19851346 -0.2310479 0.4940711 1.2567024 -0.5560919 -0.16345568 0.6033328 0.7071053 0.3574219 -1.3316896 0.53808606 -0.40018025 0.5417692 0.4569913 0.18579921 0.47438896 -0.45205268 0.50513214 0.36555222 0.16039881 -0.56866 0.5258371 -1.5457659 0.16255623 0.20537551 0.93413186 -0.23698488 0.72478443 0.45480332 -0.39132184 0.34232736 -0.61856234 -0.3925744 0.32151783 -0.37073246 -0.6759783 -0.28555182 0.10917735 -0.56207883 0.81731594 -0.35247228 0.84230745 0.15637006 0.47953582 -0.14720823 0.40207407 -0.9284895 -0.12417115 -1.2367133 0.16713206 -0.24972385 1.6519736 1.015447 0.55600137 -0.22647323 0.29249316 -0.116952024 -0.56863344 -0.30424106 -1.2562267 -0.22012945 -0.061824482 0.57324994 -0.12032007 0.6032128 -0.23123302 0.8213103 0.36290282 0.6328361 -0.33626893 0.078811064 0.03546933 -1.2029246 0.1548804 0.4126638 -0.40423405 -0.18657717 -1.0725526 0.98822135 0.040735688 0.030956399 0.18902157 0.6223973 0.30588642 0.12680168 0.8339503 -0.5979135 0.17322592 0.72521675 -0.35461307 -0.3445206 -0.63087946 -0.5536422 -1.1940645 -0.71812594 -0.029505705 0.0695575 -0.25286135 0.83923805 -0.31900164 -0.6573703 -0.08350233 -0.19254017 -1.0954769 0.42586622 0.3305406 -0.117440246 -0.32445017 0.324679 0.97009015 0.3252834 1.7571682 1.9773939 1.1751947 -0.03739035 -1.656136 0.22558565 -0.036463592 0.25691703 0.12272926 -0.92267275 0.66875327 0.79801565 -0.657997 -0.1452109 -0.38735572 0.08839227 1.4038649 0.19334248 -0.14040083 -0.4335009 -0.13562275 0.68793386 -0.25291717 0.089390576 0.39702684 0.23031938 -0.5033515 0.5583428 -0.26214075 0.48747844 0.85054934 0.026449855 -0.60624945 -0.18589574 -1.8537964 0.2408318 -0.1530415 -0.845312 0.35465303 -0.7243036 1.4063985 -0.057539765 -0.17573027 0.5995512 0.17092417 0.11737638 0.1471395 0.06684134 0.2585599 0.2608959 0.13851331 1.3550065 0.44047922 -0.34747005 -0.53346276 -0.23396009 -0.16565277 0.7117374 0.49293432 -0.21596019 0.34012228 -0.063447654 -0.106281 -0.344941 0.053225115 0.2639748 0.54943913 0.38068533 -0.21023463 -0.04475419 0.12172665 -0.6856077 -0.41235414 0.24621736 0.45916378 0.13018428 -0.42112133 1.9375848 -0.06995546 1.2931212 0.63084567 -0.49766463 0.30798444 1.0528655 0.09175296 1.1783603 -0.27051714 0.05427078 -0.2491397 -0.42775264 -0.51835406 -0.59883034 0.28109407 -0.66589457 -0.54808897 -0.0004159527 1.9627948 0.008640769 0.54503846 0.47107756 -0.7374269 -0.4645859 0.21617898 -0.026723698 0.16913496 0.8202567 -0.2326549 0.19662538 -1.0406014 0.32160375 -0.3563238 -0.6522059 -0.2809443 -0.1762766 -0.170464 0.11348037 0.2067889 -0.017209489 -0.3004414 0.8916033 -0.51787525 0.41018587 -0.43267834 -0.26213375 -0.07606014 -0.2513911 0.28090188 -0.022915088 -0.7877539 0.01857272 -0.5526521 -0.21884564 -0.073869035 -0.38820383 0.08086736 0.67146754 -0.6927615 0.682612 0.61215025 -0.9068958 -0.06882838 0.18447633 0.29856482
طائرة 0.8238615 -0.12605302 0.14049587 0.42877167 0.287224 0.11439899 -0.33088413 0.06741114 -0.05538449 0.32715303 -0.10564877 -0.17558008 -0.2098746 0.24866584 -0.31716105 -0.26944116 0.012089059 0.6403264 0.043322373 -0.04624989 0.12827803 0.3363378 -0.25641105 0.5336872 0.20525983 -0.11485943 0.0695539 -0.04945157 0.25955984 -0.07953685 0.09640459 0.18760449 -0.098381646 0.44557947 0.16785726 -0.13570875 0.24141248 -0.86111474 -0.23268859 -0.20528537 0.7330668 0.04638343 0.03721238 -0.028006192 0.17174916 -0.08257631 -0.46692804 -0.15240589 0.50015116 0.44507468 -0.10520952 -0.005432996 -0.024484921 0.526018 -0.31990823 0.31515098 0.3011557 0.09451123 -0.0013750438 -0.03792497 0.3018048 0.2670819 -0.021708516 0.28665218 0.033460185 -0.022800779 -0.29764414 -0.0012158934 -0.28613955 0.13555843 -0.23503165 -0.043299504 -0.41570142 0.027965726 -0.21835783 -0.41334125 -0.011769243 0.036438674 0.013157715 0.5010774 0.25719538 -0.16588125 -0.09015517 0.09059702 0.22750768 0.09184912 0.038173784 0.25107393 0.009727443 -0.15590134 -0.098574825 0.720329 0.04948732 -0.49049577 -0.5596236 -0.035368685 -0.1433561 0.07340748 -0.02886529 0.25770682 -0.0581658 0.5112718 -0.1650228 0.06992515 -0.37749302 -0.10706945 -0.021569412 0.041776057 0.1916602 0.21596184 -0.032765064 -0.0049201944 0.2400997 0.0864506 0.044102896 0.10989743 0.33617955 -0.005017935 0.6535911 -0.059983805 -0.12649773 0.04302017 0.3653014 -0.33751664 -0.53035825 0.09497558 -0.09805621 0.048081834 -0.022775406 -0.252058 0.04591335 -0.055035934 -0.23115407 -0.041137237 0.18386905 -1.2132246 -0.43432492 -0.017046211 -0.0014019689 -0.48017988 -0.62425584 -0.15383889 0.1654588 0.08977095 0.672994 0.15473904 -0.006700232 -0.114036486 0.22713116 -0.2226757 -0.21767122 0.11040864 -0.3971423 0.15084033 0.07042686 -0.01704435 0.020430043 0.26017973 0.15796824 -0.083078824 -0.113408275 -0.13381478 0.082921095 -0.0131676365 0.31289342 -0.09690575 -0.34321332 0.07830994 0.6057065 0.417003 0.014425164 0.853774 0.33938155 -0.064583994 0.27176294 -0.23901856 -0.04609562 -0.25616875 -0.1156475 -0.118260905 -1.1089717 -0.1358139 0.08800258 -0.24822961 -0.053603273 -0.060228534 0.2234026 0.3946955 -0.29935315 -0.3355878 0.7084263 -0.10276719 -0.03709481 -0.210576 -0.34824455 -0.054781858 0.054131564 -0.1097621 -0.2297254 -0.09067827 -0.06092928 0.209688 0.15852658 0.7652815 0.19199218 -0.09949862 0.038734704 -0.18919614 0.22962643 1.211737 0.2557519 0.067834035 0.06787611 0.09075649 0.12737797 0.3426732 -0.10579252 0.21072073 0.24774225 -0.026015026 0.3277733 -0.052486937 0.24536547 0.24709417 0.11300674 0.13659121 -0.39711183 0.53909606 -0.72674596 0.34376058 0.39634812 0.013254135 0.09523324 -0.33549273 0.10438109 -0.04488673 -0.3144159 0.16745803 0.1927241 0.32671183 0.26304495 0.26090458 0.33931756 -0.06963112 0.09797345 -0.14811099 0.13841397 0.33962494 -0.020589743 -0.2181777 0.011483103 0.1502386 0.10184607 0.010964022 0.05092031 -0.187332 0.41248366 -0.18564871 -0.13030657 0.03255157 -0.19325337 -0.30030978 0.09185138 -0.36592656 0.17793861 -0.52759975 0.13431022 0.8588268 -0.1787016 0.008129386 0.3664513 -0.08477355 0.2591462 -0.081365764 0.13216639 0.12501384 -0.48169634 -0.33249983 0.1638228 -0.055993333 -0.2325145 0.023098879 -0.050664872 -0.119924076 0.1557039 -0.086936206 -0.14089885 -0.027044538 0.045165796 -0.00034556625 -0.17395157 0.17202163 0.11187446 -0.2430249 -0.038252074 -0.46550512 0.20697793 -0.034607533 0.11381919 0.25426045
حافلة 0.002795197 0.1197304 0.0067747305 -0.14932793 0.7025759 0.21353644 0.19497445 -0.58051634 -0.0771134 1.0198197 -0.2263165 -0.19484797 -0.08553583 0.23473789 -1.3591855 -0.25053903 -0.22466335 0.3629204 -0.0036706 -0.65675676 -0.5207429 0.32231137 -0.057472955 0.7501155 1.3857377 1.0693253 0.013556608 0.058916 0.052457813 -0.0557447 0.13161336 -0.26505634 -0.33132723 0.000569625 0.06402405 0.00763566 0.15031116 -0.17974909 -0.1646213 0.1438321 0.45123842 -0.5119154 0.2545223 -0.02960231 0.047387455 -0.19354363 0.1777478 -0.3129773 -0.8918915 -0.62136215 -0.03437716 0.07198913 -0.4266805 0.6395486 -0.08937818 0.49398187 -0.21678326 0.32683182 -0.09841751 0.22610241 0.22641833 0.13331805 -0.31302792 -0.10778055 -0.014064658 0.12998028 -0.38459983 0.54908705 0.31761497 0.5019272 0.08266153 0.01086466 0.68694574 -0.05533522 -0.061412066 -0.74465585 0.8944063 -0.40438825 -0.26395273 0.65100986 0.38495043 -0.057312492 -0.537846 -0.0076754503 0.5232171 0.029029155 0.16740727 0.79941505 -0.03651513 -0.05731083 -0.27834836 0.03936496 0.8954404 -0.35086945 -0.028991228 0.098053545 0.10455211 -0.046595905 0.049947977 -0.35934407 1.0509768 0.38595015 -0.5185867 -0.547309 -0.19108923 -0.14575312 -0.32784143 0.31663242 0.45128816 -0.1997129 -0.4249655 -0.090201564 1.0394046 0.028923193 0.20843175 -0.80970544 0.28090757 0.10594613 -0.3036856 0.3278387 0.20692877 -0.21037142 0.60410285 -0.5626718 -0.6905864 0.27736932 0.21114862 -0.018147836 -0.07200769 -0.24284443 -0.41289815 -0.1463687 -0.32420453 -0.020269543 0.27696237 -0.17214347 1.1169451 -0.056293212 0.15477587 0.76587486 -0.3235416 -0.37398255 0.8013477 -1.377676 0.17754795 0.22722018 -0.49708182 -1.7018334 -0.163233 -0.15062235 -0.7677766 0.024900943 0.48404735 0.1483798 -0.26751614 -0.011190819 0.12227759 -0.1828292 -0.31848478 -0.31805748 -0.3433983 0.054175656 0.04026057 1.1372492 -0.014193605 -0.543733 0.30259404 -0.042518087 0.44548458 0.4434829 0.2482308 -0.25435245 0.09935525 0.1165285 0.04814772 -0.10432588 -0.43638402 -0.39794153 0.15857178 0.22976983 -0.20402792 -0.14154112 -0.7885001 0.012927155 -0.028427104 1.1113081 0.20015465 0.21838646 0.08574426 -0.4493821 0.38240993 -0.04188883 -0.46264166 0.2647271 -0.33058327 -0.0041566347 0.35675272 -0.24423833 -0.2474674 0.084299535 -0.0060109645 0.15395083 -0.67995274 -0.3932052 0.6920726 -0.327944 -0.00077833806 0.24094066 -0.050763175 0.09292829 -0.19969118 -0.03365925 -0.5661944 0.14493766 0.19127169 0.2259731 -0.42429972 0.43514222 0.3991961 0.71565855 -0.11031674 -0.519656 0.06497039 -0.2527774 0.062284224 -0.10947226 0.11431529 0.7077205 0.034255788 -0.5870231 -0.3411922 0.35184425 0.21357216 0.07545495 0.24949533 -0.3088399 0.5661277 -0.24447672 -0.020670405 1.0574545 0.24200834 0.64501977 -0.4636688 0.009558812 0.12125119 -0.5371475 -0.19268236 -0.69411325 -0.4041156 -0.48325315 -0.34089774 -0.022951351 0.009134792 -0.2267966 -0.3192517 0.39904743 0.06920036 -0.47300982 -0.0140943425 0.21038681 0.027205244 0.22494914 -0.031824406 0.06643534 -0.0845496 -0.069507286 1.3049822 -0.29099825 -0.12415358 0.16198334 0.34575355 -0.31455532 -0.22789258 0.005871774 0.020171301 0.28850535 0.4151582 0.2932027 0.48789024 0.63842744 0.5786936 0.26272088 0.060780156 0.42225853 -0.3908079 0.01008628 0.2265198 -0.3239467 0.16940796 -0.2836414 -0.35613716 -0.20936164 0.35337427 -0.16612141 0.28195655 -0.21685265 0.2510918 -0.3520941 -0.7713076 0.47677046
جرار 1.610228 0.0072102505 -0.15839885 -0.17875047 1.0090677 -0.04128039 -1.0048155 -0.30961928 0.9726854 0.72165954 -1.3913243 -0.0015155844 -0.8335286 -1.4084414 -0.5330733 0.4756811 0.7198772 0.31888717 0.145106 0.5254624 -0.027187042 -0.6004819 1.6742249 -1.1511267 0.69923854 0.73639673 -1.5137678 1.16052 0.874512 0.9459246 -0.7288747 0.62389547 0.3215365 0.34733775 -0.7592592 0.6825116 0.89211 -0.053605758 0.9091915 -1.1348691 1.2559814 0.43515202 -0.14445284 1.2149649 0.28711045 -0.59969866 -0.25461075 -0.8208308 -0.011587935 1.1190311 -0.78888637 0.041456852 2.246817 2.2745934 1.4712838 0.33080703 -1.3818028 0.20667167 0.40570378 -1.8369248 -1.6324066 -0.6073727 -0.53511035 1.2076517 -0.61646456 0.4267331 -0.2475737 1.1968447 -1.3691455 -0.20807697 -0.19167115 0.2147543 0.8119885 0.5770173 0.51913166 0.8215655 0.07495353 1.4801016 -1.8890166 -1.0133874 0.38498166 1.2307197 -0.5616251 -0.20280059 -0.0765065 0.5224204 0.31957683 0.02253828 -0.045096155 -0.1732712 -1.2129444 -0.23884627 -0.9867858 -1.32062 -0.73084646 0.6442637 -0.1865383 -0.21038921 0.6059737 -1.9901278 -0.3550789 -0.3413907 0.36325797 -0.41165063 0.120820865 -1.107419 1.2495685 -0.46376282 -0.9326162 -1.585639 1.2082498 -1.7204623 1.7960813 -0.17212309 1.954894 1.0617745 0.93631595 1.5849802 0.438112 0.25179783 -1.5766267 -1.9571046 -0.22103813 -2.2692459 0.46427128 -0.07317698 -0.89231193 -1.7452524 0.93115985 1.4459645 -0.6619818 1.2449747 -0.86977124 1.4950634 0.92403114 -1.5570949 0.318233 -0.042980418 -2.1193132 -0.5638412 -1.0559266 -0.32856104 0.09839793 0.59241724 0.63289046 -0.8201287 -2.797998 -0.102959 -0.48285475 -0.56943697 0.962827 0.22323874 -0.37017813 1.4557501 1.3343875 1.4355286 -1.310059 0.18034545 1.1210293 -0.023467602 0.17331241 -1.4579909 1.4111396 1.2330257 -0.56667715 0.4355904 -1.6160731 -0.9486315 -0.32054034 0.2573122 0.605341 0.90120536 1.2550392 -1.5278925 0.2399226 -2.4169238 -0.97676396 0.9383392 -0.53145975 -0.34226382 -1.2507112 0.49395797 -0.02812772 -1.1908392 -1.3588166 0.4234049 -1.4855639 -0.85911065 1.9861662 0.33099517 1.501862 1.0830325 -0.3611084 -0.14062236 1.8860977 0.7026813 0.7484853 0.07265921 -0.80423474 -2.420109 0.86458373 -0.8058424 1.5169396 0.94918185 -1.3584664 1.1257455 -0.3977693 0.039422896 1.3077673 0.22252354 0.5358151 1.5923132 0.74540955 0.60853386 0.97534376 0.5788193 -1.2817304 -1.1008775 -1.3338295 -2.5078187 0.06735295 -1.5111866 0.061623644 0.27037612 1.0194172 0.02834472 0.7452988 0.7871413 0.3265099 -0.93662554 0.42115548 -0.38313937 0.07256604 -0.8016455 -0.58856475 0.4690463 -1.3935643 2.46232 -1.7866693 0.011395894 0.09429681 -0.5569101 0.69211 0.8342104 -1.1537732 -0.44104403 1.1265701 1.1183995 -0.23277417 0.33244783 -0.14007984 -0.3515502 0.95414615 1.3229436 -0.4168541 0.71291703 0.07401349 0.97063005 0.80886775 -0.679177 -0.5872167 0.33093783 -0.11062475 -1.7436063 0.08488342 -0.40877157 -0.7969133 1.1627805 -0.4331894 -1.2415985 0.68000567 -0.6038639 -0.9610093 0.43588543 -0.24174917 0.32103112 0.89558846 -1.2705014 -0.8130108 -0.60784715 -0.07641307 0.56922674 -0.8533841 -0.9068901 0.54419565 -0.14835952 -1.3391333 0.056708887 -0.14200641 -0.16113594 -0.17158039 -0.65910244 0.5259873 -0.72356963 -0.048272233 -1.2978494 1.8349302 1.5627298 0.90995413 1.9102672
قارب 0.73410505 0.13631909 -0.36420816 0.29472566 0.27897528 0.016438123 0.103985906 -0.19229512 -0.017647544 1.08216 0.096426256 -0.51652694 0.18827091 0.32306066 -0.79161704 -0.46620372 -0.3213368 0.6043133 -0.33639097 -0.025408858 0.05609341 0.056905497 -0.4554515 0.40591803 0.20366645 -0.15396835 1.8789982 -0.044759657 0.051828846 -0.41991797 0.09433239 0.16622876 -0.5818816 -0.026249133 0.11498617 -0.5196005 0.5824568 -0.9046737 0.03800339 -0.10643562 0.10431413 -0.10919163 0.06606807 -0.44519907 0.76987576 -0.32897675 0.005472477 -0.33802763 0.36591613 0.26387736 0.10344426 0.0046860273 0.062356733 0.45763558 -0.36496004 -0.21638033 0.70462775 0.053137388 -0.02881938 -0.12681124 -0.0024339815 0.37657693 0.20456086 0.678632 -0.12484343 -0.48716325 0.55240166 0.18347378 -0.441147 0.17956178 0.08683596 0.19838838 -0.29574516 0.7599586 -0.27053142 -0.23210177 0.39501825 -0.34294152 -0.08658942 -0.3961266 -0.45252523 -0.10973194 0.16463685 0.41943473 0.41419074 0.39515084 0.28614026 1.4048703 0.40590465 0.18247153 0.25940895 -0.025857538 0.07061825 -0.2654973 -0.004875165 -0.36507374 0.12958914 -0.0110119805 1.3948103 0.24219193 -0.2123561 0.17093702 -0.5411915 -0.7414307 -0.9696961 -0.34578168 0.238247 0.13420498 0.16121468 -1.2451636 0.265259 0.06306798 0.30281484 0.17931858 0.08776907 -0.10996721 0.719444 -0.098513775 0.91629905 1.6065418 0.5174634 0.06181636 0.36685106 -0.481643 -0.8467504 0.31670898 -0.4466311 0.069315925 -1.0551784 -0.99047923 -0.009909442 0.1278398 -0.51761764 -0.03628183 0.22158481 -0.033424582 -0.06816208 -0.0045901337 -0.2533085 0.12854056 -1.4840765 -0.20404258 0.56186336 0.033465367 0.691971 -0.0879846 0.016208924 -0.3498594 0.07368433 -0.045494713 -0.11202857 0.30412865 0.33862254 0.38916487 -0.38200343 -0.04514523 0.012637295 1.3204453 0.31482556 0.06531794 -0.14594562 -0.5009292 -0.23112966 0.8583956 0.4656154 -0.11196796 0.037589464 0.93637806 0.4525107 0.35694227 -0.17833175 0.5997785 0.044224996 -0.07969567 -0.20754617 -0.1250474 0.19436997 -0.34104937 -0.28714892 -0.15756215 -1.4149058 0.2905782 -0.64427096 -0.04803818 0.325651 0.29227412 0.23842491 0.49762705 -0.37678617 -1.3613976 0.015776087 -0.13492146 -0.14273934 0.2774914 -0.4829927 0.4458301 0.2423053 0.15039383 -0.3920989 0.1263182 0.040191434 0.5110798 -0.06597226 0.78003937 0.4819379 0.11540838 0.18212445 0.18972152 0.42150187 0.24658908 -0.1831503 -0.24301088 -0.37249112 -0.12484339 -0.0011238941 0.4858339 -0.14395271 0.43480447 0.6145137 0.55363697 -0.10018226 0.060858227 0.4754566 -0.20979208 -0.3117967 -0.90128434 0.020279795 0.432107 -0.0463159 0.082544915 0.061388537 0.23575835 0.5989392 0.12032218 0.28633893 -0.37311926 0.836586 0.3336012 0.073568195 0.50475323 0.04568457 0.09011444 0.46039262 -0.05831472 0.37854522 -0.60171306 -0.07417313 -0.7855273 -0.3423469 -0.1863833 -0.40630126 -0.37564132 -0.12954149 -0.28008953 0.31199718 0.2573252 0.5469113 -0.71830213 -0.057128802 0.23359096 -0.12565109 0.22642438 -0.27943602 0.07731049 0.66991884 -0.25682032 0.38695437 -0.021615356 -0.45673427 -0.2673603 0.38787317 -0.055777993 0.024045868 -0.08047245 -0.07325056 -0.42252436 0.9191807 -0.08140678 -0.29312617 0.37054887 0.36833632 0.1464216 0.17709987 0.32267013 0.104560055 -0.117771685 -0.008015221 -0.039076548 0.35414562 0.12849818 -0.23102944 -0.15035355 0.1738052 -0.43941236 0.26627034 0.59241104 0.04032975 -0.28722963 0.086595826 -0.08967554
تاكسي 0.66231817 0.2725024 -0.35280612 0.2826293 2.1266341 0.65507597 -0.122552484 -1.4439192 0.00096306996 2.3004165 -0.8689252 0.883914 -0.34432042 0.9807824 -0.62900704 0.74825895 -0.07240265 1.6045521 1.0302521 -0.48578146 -1.3010279 0.017916888 0.34469345 0.7530211 1.0613756 0.09163891 0.04072596 0.11743439 1.1564995 -0.33940044 0.15315893 -0.7161423 -0.18888345 1.551433 0.09392254 -0.56567734 0.5441461 -0.23467834 -0.64032525 -0.070926495 0.4256501 -0.36045164 0.08832779 0.35135674 -0.48046216 -0.03303349 -0.063497454 -0.3459678 0.7611646 0.7500489 0.41059297 -1.9963142 1.9475204 0.68225145 -0.48953843 0.8176316 0.01342559 -0.6018049 1.0295237 0.24893446 0.096580595 -0.34721008 -0.2450285 0.5865139 1.5199312 -0.083143964 0.31126767 0.37959254 -0.2250728 0.9273502 -1.2872303 0.54506195 0.5546408 -0.1750265 -0.9633712 -1.2102238 -0.023329336 -0.6772005 -0.17373669 2.14726 -1.0717608 -0.78962857 0.19443816 -0.7294305 -1.392474 1.2423127 1.3195515 2.053044 0.1618066 -1.0157942 -0.46351478 0.115959704 0.5580881 -2.0534966 -0.25664726 0.21271956 -0.9995175 1.1455811 -0.64570016 -0.041619223 0.6653812 0.39843404 -0.23015557 0.32157734 0.15112329 -0.3161192 -0.0922582 1.3196596 0.003375538 0.37216568 0.13371955 -0.018024271 1.0564301 0.21957195 -0.3691178 -0.93646115 0.109537914 0.5916227 -0.9871339 -0.021460464 -0.066320285 -0.35884696 0.13491946 -0.7625383 -1.7094779 0.6797572 0.6322415 0.8021028 -2.3714595 0.23718663 -0.2780079 0.16763595 -0.18170191 -0.585708 0.43344024 -0.40346628 0.52258563 -1.2343509 -0.22885676 -0.6426702 -2.0625408 -0.13745698 2.2272227 -1.5327029 -0.16329445 0.16254525 -1.5719969 -1.2302983 1.4839004 -0.13202009 -0.689505 -0.34971607 0.3073828 -0.034434985 -0.037367422 -0.5327134 -0.05714512 0.3413787 0.273268 1.1044112 -0.62573904 0.51863724 0.74926686 0.4285613 0.1925211 -0.7334686 -1.3627402 1.1331197 0.45843348 -1.9872223 0.30744797 0.29043242 -0.6482315 1.1213046 0.07062661 -0.7799835 -0.9877181 -1.1909764 1.0256481 -0.87093395 0.6532218 -1.0565019 -0.83255017 -0.09279022 -0.6235613 1.7768844 -0.38413507 2.1409464 -1.0107527 -0.89813703 1.3649399 0.43120772 1.167938 -0.010215717 0.04531744 -0.62818676 -0.59822077 0.46569702 -0.8754956 -0.6460646 -0.34761444 -0.43169925 -0.47586802 -0.15186602 0.078688495 -0.787416 0.7877029 0.039895218 0.2964957 0.07719686 -0.26979333 0.770694 -0.18371662 0.091125816 0.5478308 0.305535 -0.231463 1.0064176 0.11932804 0.5445078 0.29720822 -0.9851856 -0.69208026 0.24547297 0.33274212 -1.2378894 0.22871578 1.0222849 0.32905102 -1.886607 -0.3654936 1.2636436 0.6832648 -0.03995719 -0.45678475 0.83175063 -0.32592502 0.3474159 -0.51808465 1.0228293 0.57331294 0.54467595 0.29499197 0.38765073 -0.621238 -1.0348941 1.5812496 0.56505793 -0.527507 -1.1683154 -0.527982 -0.76021624 -0.44713882 0.65751684 0.07091988 0.55187225 -0.9895719 -0.57320505 1.4960508 0.012471147 -0.82484025 0.09421551 1.0275073 -0.35103756 -0.7002087 -1.0113009 -0.48554695 0.0955175 -0.9441665 -0.37794694 -0.22504944 -0.28863806 0.5207909 -0.13309425 -0.96992767 0.65781444 0.42493358 -0.64706635 2.0321805 0.017760696 0.5267127 -2.056664 0.68980813 -0.3282391 0.22982423 0.15462072 0.5899471 0.20804378 0.2589207 -0.69225544 -1.1417688 -0.049781345 0.90287304 0.2213728 1.7088747 0.869401 -0.3593674 -0.8002406 -0.22364107 0.85137546
فان -0.11193851 0.14150701 -0.13955732 -0.2058982 0.16033305 0.18980195 -0.14843039 -0.20557506 -0.24276288 0.98806965 0.030319843 0.15282056 0.118650824 0.16136003 -0.13625316 -0.20440952 -0.19349357 0.6347317 -0.25485316 0.030083867 -0.5001381 0.42291304 -0.20246813 -0.26532724 -0.1277494 0.23613444 -0.039227325 -0.016940955 0.18409353 -0.11477593 0.011614659 -0.0989106 -0.07854101 0.23646133 0.14501022 -0.13227896 0.18710339 0.31331393 -0.17641218 0.03766619 -0.37809855 -0.05875574 0.18155374 -0.12373153 -0.19017129 0.029575253 -0.18148798 -0.22121245 0.24548674 -0.12358456 -0.06984778 0.102954924 -0.04290792 -0.65883845 -0.067502834 -0.52073365 0.5297692 -0.217852 0.13303673 0.054852683 0.3996152 0.050995924 0.20011644 0.22639124 0.20656753 -0.07015335 -0.37824962 0.030059436 0.22470298 0.15363805 -0.20526437 0.13406594 0.08903224 -0.10900469 -0.11154941 -0.39164835 0.19649541 -0.23882796 -0.07488491 0.26217076 0.25896576 -0.062479943 -0.03423215 0.022327775 0.128216 -0.26212713 0.10878409 0.008883059 0.12561549 -0.034286853 0.019206481 0.5867818 0.61384827 0.25059882 0.065266244 -0.04133544 -0.13894382 -0.05423208 -0.21293004 0.4202158 -0.31407604 0.10669791 -0.120723106 0.0027808873 0.03931857 -0.566749 -0.1182913 0.09510749 0.16204172 0.1334106 -0.17551722 0.05556546 0.12172447 -0.20681496 0.12986198 -0.14962213 -0.2523297 0.15789028 -0.14149173 -0.09793865 0.11342491 0.050664168 0.20455886 -0.060517 0.165992 0.085539356 0.19200185 -0.1014245 0.0704374 0.5385732 -0.004019391 -0.13763265 0.115783244 -0.010589709 -0.020334296 0.23156254 -0.4500576 -0.21155353 0.27230573 0.5003002 -0.49310178 0.140695 0.23464905 0.007988838 -0.34648177 -0.043481566 0.06898879 -0.18403049 0.6718712 0.0886468 -0.006503549 0.104159564 0.2450145 0.21552472 -0.16620845 -0.32488498 -0.07886352 -0.09178127 -0.13350777 -0.03667638 -0.13949001 0.2357796 -0.12812757 -0.22935042 -0.13006511 -0.25161505 0.2448563 -0.043743994 0.26269677 0.11092695 0.21571384 -0.18564606 0.011951838 0.16300225 0.013876669 0.20445693 -0.055753823 -0.17248112 0.015651476 0.007875806 0.12568775 -0.2215339 -0.21756029 -0.020901838 -0.03178183 -0.10810933 0.09503987 -0.026020588 -0.12100499 -0.07130083 0.40249634 0.34829178 0.10354804 0.010268806 0.09018093 0.034835722 -0.17109886 -0.027835755 -0.11272237 0.20342425 -0.16770738 -0.021588674 -0.0960193 -0.28449124 0.16372228 -0.04431534 0.1699477 0.096515015 0.08733909 -0.22277202 0.0039569275 -0.065723896 -0.057149597 -0.1337304 0.13847743 -0.049046267 0.024319543 0.19419682 -0.028406018 0.14789866 0.19743098 0.07173742 0.03540393 0.13073452 0.16909243 0.101699136 -0.14153726 0.059793275 0.4188495 0.0877561 -0.083704785 0.11715532 0.22977723 0.12251695 -0.2686738 -0.16596776 0.35688117 -0.12729971 -0.008886786 0.1254277 0.10980025 0.1930677 -0.016015932 -0.0021823514 0.2405433 -0.019817092 -0.011506591 -0.093738765 -0.10481122 0.11199911 0.21847562 -0.120994 -0.1844052 -0.23422278 0.090794295 0.09921304 0.07488665 -0.041180074 -0.067460485 0.1502872 0.20161442 0.00911094 0.19979127 0.13320155 -0.018996479 0.034276385 0.11601864 -0.34572247 0.08963208 0.17504618 0.036992066 -0.3514604 0.28849056 -0.26341128 -0.14896826 -0.049375143 -0.47532165 0.2716095 0.19848277 0.23555689 0.08676259 0.039554965 0.63078743 -0.21974908 0.07985025 0.09547053 0.08865759 -0.11589707 0.24670297 -0.15990566 -0.04549426 0.11381126 0.083614804 -0.024174249 -0.19761881 0.481625 -0.18177308 -0.28276452 -0.08968514 -0.09210341
دراجة 1.1073267 0.22948526 -0.25820637 -0.22091052 0.07971182 0.073984064 -0.21730141 -0.452108 -0.43793753 0.8659929 -0.30953157 -0.011203907 -0.4934372 0.30863497 -0.6617852 0.213676 0.06354092 1.2679477 0.26251832 0.038065866 0.44942376 -0.48497802 0.35263807 -0.31357124 1.1811106 0.52816224 0.13449153 -0.10682967 0.35396856 0.4561734 0.5975047 -0.294379 -0.012035096 0.065733016 -0.27842268 -0.31749132 0.3447687 -0.75442255 0.3539983 -0.09634847 0.5341433 0.15227659 0.21287535 -0.09916887 -0.022389766 -0.0096710315 0.17844304 -0.7123818 0.07402225 0.31073478 0.11029608 -0.075082056 0.46131787 -0.05670946 0.06822963 0.27433243 0.16782825 -0.04132493 0.17695592 -0.10334164 -0.62049025 0.28741112 0.109201714 0.82463825 0.42702025 -0.70605844 -0.06136589 0.111114234 -0.30566096 0.26970434 -0.13876644 -0.13262005 -0.19007918 0.6401407 -0.11731472 -0.47187194 0.29517794 -0.035492506 -0.2745491 0.51138276 -0.47197914 -0.18854919 0.1571356 1.1001669 -0.07339385 0.7300475 0.70876616 0.55117494 0.040617783 -0.42167777 0.36509028 0.4109378 -0.57643706 -0.13589355 -0.16060548 -0.28103775 -0.024532313 -0.23169634 1.1784405 0.5065446 -0.04428537 -0.11053088 -0.3348707 -0.22073826 -0.05478872 -0.372815 0.0655068 0.22920807 0.24858774 -0.5498346 0.2880396 -0.16617613 -0.04221385 0.2457241 0.40018827 -0.16715077 0.48175183 -0.116784245 0.57062954 0.028879784 -0.015630484 -0.042044673 0.3077732 -0.6216181 -0.2485221 0.25567132 -0.21224482 -0.38992834 0.2934676 -0.12837128 -0.098057345 -0.1304279 -0.27861777 0.004629082 0.075332366 -0.35602263 -0.32859898 0.018659852 0.139108 -0.19849427 -1.4894432 -0.052542053 0.8522931 0.034952328 0.21221918 -0.30893755 -0.6260053 -0.12190347 0.18365881 -0.23277564 -0.62800854 0.22352542 0.21679959 -0.13458316 0.115909465 -0.39319846 -0.38972262 -0.0008740048 -0.0032029906 0.29630306 0.095636494 0.15546809 0.21169132 -0.61630124 -0.1403229 -0.11288532 -0.16374929 -0.22857106 -0.23221758 0.45944932 0.4998965 -0.5449758 -0.008696364 0.41943008 -0.57688916 -0.48013145 0.17643353 0.045203388 -0.7447114 0.09533898 -0.17622538 0.2547601 -0.36025986 -0.22583166 -0.08195707 -0.14554852 0.08191747 0.5907808 -0.08480378 0.19152017 -0.3604048 -1.0317042 -0.08554626 0.22231437 -0.1018268 0.3708609 0.21280122 0.12941445 -0.27328682 0.21417451 0.046154812 0.26851827 -0.47591704 -0.26532406 0.14978956 0.37262982 0.34197238 -0.8808826 0.1945906 -0.14258747 0.109313615 0.05702097 -0.055803083 -0.03173547 0.41224548 0.43855718 -0.36383143 0.86108774 -0.11440082 0.03485229 0.3179866 -0.2673668 0.081779234 0.3949076 -0.117175035 -0.9618557 0.79225063 0.3660431 0.100851394 -0.0040662983 0.3795118 0.065790616 -0.18294992 -0.39034382 -0.17431733 0.0133494185 0.30358028 0.6232383 0.011046259 0.57763624 -0.26215985 0.0466144 0.030313833 -0.2225546 0.06501213 0.27650735 0.20562808 -0.20402741 -0.17513107 -0.2620886 -0.08381394 -0.5327147 0.43560067 0.29754153 -0.33665994 0.15832283 0.2330159 -0.49927306 -0.3287622 0.51785123 0.05409396 0.5120607 0.024666259 -0.41312873 0.21531084 -0.2062969 0.12103336 0.54789585 -0.25515574 0.12333858 0.20765564 -0.10344405 -0.016106788 -0.038473487 -0.034029227 -0.24537607 0.74476886 -0.107026815 -0.67665905 -0.28722516 -0.37408862 -0.38431823 0.55081654 0.58705235 -0.5388417 -0.41689122 -0.6737272 -0.38915318 -0.0332133 -0.14382659 -0.23489873 -0.08855266 0.85350233 -0.27385658 -0.27420777 -0.4532247 0.5464445 -0.124861136 -0.36355996 0.17722644
سيارة 0.9868546 0.54746246 -0.2399245 0.127798 0.55228424 -0.13726462 -0.32813904 -0.5082324 -0.023253143 1.1723055 -0.5055045 -0.015540071 -0.30203587 -0.02192051 -0.911963 -0.24216072 -0.14586797 1.3013018 0.06318907 -0.23404264 -0.65562046 -0.6916365 0.23288545 -0.2589604 0.2044026 0.28680876 0.06212617 0.031357672 0.4112404 -0.007939368 0.21300782 -0.20917514 -0.07457816 0.42006993 0.31868514 -0.47203046 0.3634038 0.029425595 -0.28211784 -0.25972342 0.7552394 0.06821506 0.40581274 0.061136637 0.11943662 -0.22982517 -0.114547685 -0.5985724 0.11965673 0.16120806 -0.32096145 -0.04121443 0.29528874 0.28968897 0.19209309 0.4432211 0.15062515 0.01627478 0.3093279 -0.48866865 0.41343018 -0.086962484 -0.09650398 0.68495023 0.41959417 -0.17881902 -0.29324996 0.23388235 -0.14992121 0.36884028 -0.30279785 0.01680642 0.15316102 0.3194667 -0.4820394 -0.22649595 0.21255106 -0.4075225 -0.41916326 0.48891413 0.2185078 0.15378256 -0.17328057 0.115456894 -0.19123657 0.40264112 0.041291747 0.20863205 0.26451766 -0.39203498 -0.38653693 0.44056162 0.82209444 -0.5645762 -0.39630064 0.22788638 0.038938895 0.32330027 1.1242746 0.19174817 -0.17057513 0.51157403 -0.30403596 -0.41412386 -0.1301252 -0.26121974 0.43509507 0.39606333 0.15937969 -0.022977114 0.26498002 -0.1020707 0.67619324 -0.09847229 0.34565073 -0.027263807 0.50315267 0.26134396 -0.16307145 0.07949838 -0.029979171 -0.52944374 -0.02855133 -0.86837864 -0.53486156 0.330142 -0.29329076 -0.12840472 0.4010335 0.12932113 0.005881612 0.12227878 -0.32230416 0.031945318 0.03572047 -1.1740867 -0.5717372 -0.0744323 -0.9510543 -0.56360674 -1.0849291 -0.08796357 0.93161345 0.21389054 0.7516507 -0.30121058 -0.35086876 -0.10835417 0.44773424 -0.3432951 -0.29066014 0.38859108 0.15734549 0.0023763636 -0.041870713 0.004046283 0.0035870129 0.3405047 0.1272852 -0.11616935 -0.14168963 -0.14531098 0.44688052 0.010075075 0.08919226 -0.46536353 -0.39813527 1.0567026 0.6207805 0.111312315 0.2361427 -0.15317513 -0.025334168 0.2504672 -0.23130524 -0.43248966 -0.030709414 0.024108859 -0.16705449 0.06542523 -0.269933 -0.16157806 -0.6832608 -0.30596784 -0.4802095 0.031489085 0.013698289 0.35170665 -0.3498786 0.053643163 0.41206178 -0.12888542 0.03023611 0.34542233 0.12246246 -0.10647692 -0.192441 -0.020192744 -0.3065823 -0.31493166 -0.14496978 -0.12642781 0.02760386 -0.280165 0.16797134 0.10640386 0.24224697 0.9749087 0.26319644 0.8209044 -0.4620703 0.058330964 -0.16925341 0.25665843 0.441138 0.5921212 -0.33330864 0.5029774 -0.114146225 -0.37719724 0.2559968 -0.42901105 -0.51669556 0.38542125 0.070451275 -0.97191167 0.185404 0.57212645 -0.29358798 -1.0603542 -0.188217 0.2288109 -0.35461202 -0.413013 -0.5672118 0.17416865 0.51970977 0.3445202 -0.22566526 0.50988936 0.0064900927 0.13968919 0.39980876 0.17387608 0.08634669 -0.54180896 0.51653534 -0.21026751 -0.5313339 -0.36737224 -0.48094803 -0.28090632 0.21241872 0.16611308 -0.2850766 0.8197373 0.110302255 -0.38094106 0.27030715 0.0015676591 -0.15071613 0.2435275 0.34717408 -0.53375405 0.22142169 -0.6385144 -0.11069031 0.81260294 -0.15059476 -0.21222211 0.6024469 -0.28610584 0.18472908 -0.4146688 -0.33817822 -0.0013086299 0.39940193 -0.06656544 0.13313445 0.14950137 -0.17996882 0.19868776 -0.14240275 0.016179461 -0.12158856 -0.022707334 -0.23818786 -0.29631898 -0.06479432 -0.27339843 -0.7887224 -0.1025324 0.51141435 -0.5337637 0.12598611 -0.42063287 0.019245602 -0.2273206 -0.0047938554 0.31917182
