10 300
شكل 0.055438284 -0.2093017 0.02575107 -0.11096862 0.014324595 0.11498352 -0.2264674 0.057163168 0.026738262 -0.108296864 0.023845984 0.09881409 -0.17797053 -0.1619233 0.14841132 -0.084217295 -0.2075757 -0.17191757 0.06758017 -0.057659898 0.2804794 0.11884153 0.14548463 0.15804067 -0.15888967 0.049734026 0.13507228 0.12051707 -0.043856777 0.20841745 -0.03973109 -0.058652442 -0.030848322 -0.3472564 0.26804364 0.023823759 -0.21233176 -0.09181317 -0.077288456 -0.05719791 0.020112494 0.07643483 0.07073479 0.2243613 -0.11204788 0.113563135 0.15520082 0.06317524 0.118573174 -0.15263638 0.09502558 0.07289937 -0.0359541 0.05366179 -0.10020665 0.04261424 -0.024846662 0.081362665 0.091585666 0.028310742 0.1877019 0.028453676 0.040514395 -0.23873499 0.11976789 0.013050199 0.1894077 0.3088816 0.016351614 0.1290203 -0.1472591 -0.033008147 -0.14467463 0.12275287 0.03069537 -0.29249892 0.043697216 0.05785219 0.043512076 0.21689536 -0.17024828 -0.06947622 0.10800819 -0.024091734 0.064813524 0.021502037 0.036713216 -0.1391971 -0.08578973 0.07720861 -0.042296324 0.20748135 -0.20616424 -0.06115373 0.12542589 0.10929345 0.13051087 -0.16116695 -0.09874601 0.2519639 0.18542638 0.04744235 0.12747757 0.056349203 -0.013612365 -0.20372526 0.15094133 0.00604959 0.11408643 -0.11579687 -0.06747307 0.1488813 -0.07331517 0.027032644 0.112653844 0.0374535 0.029076114 -0.23402128 0.093416914 0.023060067 0.042779222 -0.08427515 0.091253266 -0.1708069 0.1124057 0.055324905 0.3368582 0.15246546 0.09821064 -0.11343828 0.048122816 0.2148303 0.10329029 0.15680535 -0.09191418 -0.1994661 -0.075943716 0.22677824 -0.06895761 0.027096083 0.08995023 0.049244784 -0.0025163959 -0.020500202 0.22842576 -0.04755851 -0.10118061 -0.13850395 0.17733377 -0.015744658 0.027538555 -0.06812142 0.106501415 -0.11114943 0.03064703 0.16920447 -0.07210029 -0.22899552 -0.014435113 0.12116639 -0.10086378 -0.2910133 -0.04881661 -0.007073801 -0.25333583 0.087012306 0.013205549 0.22695158 -0.12918457 -0.20119038 -0.18035549 -0.01865865 0.08813291 -0.11886011 -0.04593077 0.021565475 0.0013219727 -0.31185082 0.14691773 -0.0078642685 0.0075531467 -0.12778929 0.04048993 -0.06035403 -0.22851384 0.05694379 -0.04965782 0.29397705 -0.17867582 0.07162354 -0.15650143 0.4156341 -0.020465598 -0.0076048225 -0.027433364 -0.09643726 0.13974983 0.16409127 0.12768845 0.15477936 0.003538015 0.016113088 0.07525113 0.32581592 0.07836733 -0.3219305 -0.016922494 -0.050978918 0.027481398 0.07732877 -0.12359116 -0.09079726 0.07506995 -0.03975163 0.01949763 -0.15561815 0.050383598 -0.08852287 -0.07218987 0.19899109 0.061806552 0.13062944 -0.22126772 -0.0276623 0.09410377 -0.0046487683 0.14695294 -0.19376445 0.03564817 -0.05711464 0.16568634 0.018258475 0.023719678 -0.06073232 0.18757504 -0.059953373 0.31584603 0.20892063 -0.13249642 -0.041507028 -0.049501214 -0.14458023 0.19317485 0.20182937 -0.011552473 -0.024301017 -0.1223166 -0.14496137 0.058185235 0.06934737 0.10731253 -0.18874352 0.18695302 0.2256945 0.21937546 0.08925103 0.18378897 0.008724208 -0.20353457 0.1010187 0.035733327 -0.12501936 0.092948765 -0.21720348 0.08353518 0.19187231 -0.16141132 0.13291563 -0.16786674 0.044119027 0.2177813 0.2589597 0.08471344 0.06943281 0.10475859 -0.0056293514 -0.068834074 0.22239895 0.055438127 0.1557873 -0.22188874 -0.13303414 -0.08476535 -0.29943278 -0.15934245 0.12853976 0.15816385 0.20587578 0.08629451 -0.056390893 -0.08669711 0.019420026 0.0800044 -0.16280118 -0.0629106 0.15031978 -0.5762884 0.10334122 0.051068824 0.12398717
الجو 0.2564574 0.37116143 0.57048595 -0.2401026 -0.12503068 0.12804939 -0.18761069 0.16182283 -0.311135 -0.18397821 0.2513675 0.121614724 -0.624975 0.15714501 -0.2958783 0.6851045 -0.39634368 -0.022140386 0.15304169 0.1520234 0.6202815 -0.05225469 0.15622558 -0.21366405 0.32077658 -0.14353757 0.3465167 0.082791686 0.06414739 0.15895884 0.41640544 0.11480915 0.032997776 -0.15704937 0.1271041 0.14774086 0.23898247 0.19354601 0.14174716 0.016321976 0.2255162 0.08172111 0.014150869 -0.08867166 0.11455513 -0.18972701 -0.17995462 -0.06214715 0.515329 -0.24078484 -0.1478126 -0.1362179 -0.0042339093 -0.3832723 -0.200018 -0.2509768 -0.1594336 -0.03318496 -0.13196716 0.08548161 0.19841614 -0.04002427 0.04631888 0.22553651 0.49815127 0.20100887 0.10268194 -0.04461773 0.19754213 0.075809404 0.22088405 0.042122353 0.11980472 0.34332463 0.03564051 -0.18534091 -0.35204792 0.22807778 0.23548998 -0.090449065 -0.005992371 -0.16712366 0.08823096 -0.31641704 -0.29246294 -0.045063917 0.2863948 -0.1447431 0.22087581 0.3471269 -0.010712446 0.04677222 0.14733277 0.07649768 -0.2147423 -0.19989122 -0.41756493 0.16417454 -0.37456983 -0.17355655 -0.16405962 0.2694262 0.12773983 0.5562148 -0.14640228 0.013027677 0.07619383 0.14246243 -0.049151506 0.10325614 -0.038575873 0.21794233 0.07616666 -0.11570211 0.016594054 0.12988877 -0.06671434 -0.11198074 -0.220836 -0.10205017 -0.040032964 -0.02623024 0.2459604 -0.26187766 0.1337474 -0.08903695 -0.09119527 -0.07898527 0.035928763 -0.026172446 0.021977603 -0.10852483 0.5138569 -0.020875975 0.018915506 0.05972578 -0.3404675 -0.086267315 -0.20394774 0.36977348 0.10319036 0.14903322 -0.10911283 0.03438208 -0.47359774 0.28327817 0.14789473 0.32973984 -0.13632028 0.10984776 -0.10748902 0.034053393 0.065570615 0.65203875 -0.14740013 -0.22713624 -0.06021457 -0.12554199 0.21550635 -0.12354364 0.27624026 0.32210547 -0.041726373 -0.1935901 0.0023866654 0.14770226 0.27500063 0.0055014123 -0.14226545 0.10989607 0.24065602 -0.008752899 0.44274676 -0.2512863 -0.38528237 0.02654377 0.07084662 -0.21793832 0.20878878 -0.24693274 -0.14075251 0.18754682 0.26810798 -0.20916341 -0.020078551 -0.30217707 -0.1077583 0.2563192 -0.128217 -0.27752808 -0.024476225 -0.16589913 0.28136423 -0.3923314 -0.092045404 -0.12982978 0.084199876 0.19783434 0.20005172 0.04589014 0.22496651 0.18636376 0.25228724 0.3590768 0.0029959625 -0.29793283 0.31564558 -0.32530016 -0.18532144 0.012978231 0.06680644 -0.4328218 -0.2936913 0.23985808 0.031621397 0.044666894 -0.19995138 -0.11431543 0.033485204 0.24697138 -0.23241986 0.012671567 0.335357 -0.04978442 0.094192915 -0.32391366 0.114105 -0.0612536 -0.22087376 0.41241223 -0.14245011 0.2528496 0.5187619 0.53002393 0.016358072 -0.29719818 0.16902292 -0.17814308 -0.25911462 -0.36771992 -0.0464844 -0.013728363 0.09410883 0.34969655 -0.17617108 0.02108096 -0.08689446 -0.1300443 0.13367198 0.31209517 -0.35044768 0.3055179 0.37012136 0.25013936 0.22236596 0.23288779 -0.22455308 -0.065013036 0.0012801753 -0.0746858 0.4532831 0.13583197 0.21978223 0.044368833 -0.023530904 0.26645476 0.21516511 -0.32145223 -0.2831843 -0.10334233 -0.18547966 -0.21040036 -0.18723887 0.4535417 -0.109300055 0.008323753 -0.08412113 0.06526318 -0.057584297 -0.046535283 -0.039812986 -0.0048554204 0.30098814 0.0041167736 -0.16916057 0.09788732 -0.2307321 -0.14336504 -0.10152034 -0.039352298 0.13144179 -0.112504765 -0.053305186 0.01292598 -0.033265226 -0.11953917 0.3598296 0.41360217 0.26023826 -0.06275891
لون -0.1915773 0.07833904 0.14791372 0.013196907 0.060039997 0.29659897 0.27406114 -0.18551944 -0.045634434 0.25229552 -0.021169864 0.07986629 0.2357125 0.13638166 -0.039446205 -0.15703288 -0.6049042 -0.08534898 0.017954852 -0.09574886 0.035312697 0.11361628 0.16676874 0.32723922 0.19829756 0.103871524 0.08800536 0.044624884 -0.049520392 0.27826628 0.09381527 -0.16682453 0.061067723 -0.50630265 -0.1637705 -0.33420408 -0.29619658 0.06642465 0.24888617 -0.115478076 -0.04995812 -0.08010718 -0.08138385 0.33016795 -0.15905799 0.0003157832 -0.038181998 -0.17643602 -0.11305972 -0.039001595 -0.2929362 0.2720068 0.3958948 0.07874355 -0.04922878 0.14071104 0.028500814 0.027002007 -0.03867438 0.18256685 0.013569402 0.23358448 0.36453396 -0.38469988 -0.14063165 -0.06702627 0.056558806 0.20816387 0.042278197 0.20643036 -0.18952736 -0.31979883 -0.101083726 0.25440216 0.041386083 -0.2791292 -0.020008327 -0.060243927 -0.016770486 0.05067699 -0.15864323 0.029326627 -0.028131278 -0.21838565 -0.06702493 0.12092842 0.08689855 -0.44925514 0.0022113388 0.0972217 0.06732131 -0.03132628 0.07072677 0.04937834 0.11271075 0.2919898 0.051869817 -0.022193618 -0.038847033 0.2456326 -0.03159683 0.092328444 0.019711757 0.06397198 0.18002655 0.0011635423 0.121503875 0.27905875 0.0974748 -0.15188079 0.11575737 0.19109637 -0.076189585 -0.02438563 -0.02717389 0.07213156 0.052203994 -0.1825543 0.17666674 0.286742 -0.08352931 0.034487065 0.13167973 -0.22503513 -0.004529315 -0.1477674 0.14162129 0.11772055 0.08732056 -0.1232265 -0.13894758 -0.016667709 -0.32757586 -0.09839546 0.08149497 -0.23091802 0.07621613 0.2048367 -0.11148615 -0.022421425 0.081255 -0.02284943 -0.12261647 0.2572376 -0.24139103 0.09532663 0.040893007 0.021587053 -0.023116315 -0.013373762 -0.20021228 -0.22375171 -0.034040175 -0.18659236 -0.007965522 -0.1067453 -0.23248346 -0.09310305 0.29067594 -0.089195736 -0.23892638 -0.01738742 -0.054717425 -0.05467855 0.04618232 -0.20765829 0.05955065 0.44027874 0.29777163 -0.266207 0.0035139057 -0.06861941 -0.061159275 -0.11693749 0.022808077 0.17058381 0.17323448 -0.27894294 0.11034831 0.09668776 0.040172774 -0.25475538 0.089459546 -0.094158836 -0.09362128 -0.25626248 -0.069981985 0.19839165 -0.024606267 0.042263925 -0.37708834 0.038836647 0.07540971 -0.14830124 -0.102320805 0.273537 -0.061147247 0.054769773 0.17616504 0.25319085 -0.06518264 0.09570025 -0.10273399 0.41924554 -0.0816757 -0.27946016 0.2674088 -0.058012575 -0.26943278 -0.12798554 -0.025271904 -0.19135575 0.049721844 -0.24181889 -0.081577614 0.14372218 0.15303399 -0.13552901 -0.13060214 0.48677126 -0.14406826 0.258784 -0.117153645 0.08927985 -0.17548028 -0.057812653 0.23551421 0.08791241 -0.16587417 -0.07835356 0.009427281 0.2554338 0.09886232 -0.21934395 -0.0657259 0.13212317 -0.3184969 0.0871423 -0.5016816 0.14851275 0.06197229 -0.16058122 0.038601812 0.21990697 -0.25876597 -0.04902778 -0.10638318 0.055899847 -0.07064976 -0.023723211 0.26315692 0.2386256 0.27793235 0.09137828 0.36109108 0.23843527 -0.088863336 -0.1383733 0.12758052 -0.5216358 0.11909993 -0.29417413 0.17304854 -0.061892495 -0.078801244 0.022037683 -0.24744427 0.058449313 -0.113118336 -0.08028208 0.3054549 0.42264867 -0.19063717 0.2593092 -0.16243121 -0.04404066 0.060350284 0.1048962 -0.059368167 0.30446827 -0.25818023 -0.3753543 -0.04130417 -0.25052473 0.038859 0.11911093 -0.20635255 0.21191388 -0.13578162 -0.2520692 -0.02396046 0.14938426 0.027781328 -0.13176058 -0.16128731 -0.15438811 -0.10273038 0.35089645 0.036060277 -0.052599367
بلد 0.20661658 0.015422913 0.15404892 0.026832463 0.12653467 -0.044433787 0.015957052 -0.024003796 -0.03701046 -0.21424787 0.07779284 0.019474048 0.120931715 -0.00387836 -0.051821362 0.24860093 -0.36158574 -0.11819336 0.20440103 0.19526261 0.24628797 0.08243689 -0.06762738 0.24691035 -0.05536204 0.068137445 0.3156866 0.081359506 -0.052636374 -0.011305828 0.18480626 0.067542076 0.08573318 -0.13349453 0.18031457 -0.09211794 -0.33409032 -0.170956 0.1721499 0.022175249 0.29399678 0.11162713 -0.21208012 0.13023527 0.23567937 0.09197894 0.14550127 0.0996574 0.29077846 -0.08656413 -0.25921792 0.022399647 0.18998025 0.04554553 0.12110129 0.24025485 -0.07218324 -0.076108836 0.036263607 -0.011781956 0.0047365986 0.15324728 0.040435348 -0.22422704 0.10927694 -0.31186384 -0.12298008 0.5213924 -0.102383934 -0.018716685 0.012180769 0.08909651 -0.19034992 0.22803251 0.23709159 -0.109117776 0.07267169 0.16211149 -0.0054520564 -0.022003291 -0.028339963 -0.41323656 0.20289762 -0.12817256 -0.25481412 -0.119129665 0.26388007 0.067750804 0.06642668 -0.09548727 0.034362473 0.17829981 -0.21309379 -0.11904193 -0.017193241 0.0929852 0.006165625 0.17396274 -0.0032854679 -0.02230956 0.67435616 -0.03999632 0.30138394 0.42994443 0.14178838 0.035740286 0.047468428 0.13313013 -0.037823975 -0.024679262 -0.11965139 0.19213717 0.072788075 0.20663583 0.11872888 0.13894543 0.1802933 -0.09918275 -0.12383335 0.18025117 -0.13510747 0.015137213 0.035147674 -0.29096445 -0.2501173 0.42674616 0.35425937 0.3255972 -0.009865732 -0.16409287 0.3043238 -0.021671364 -0.10427952 0.25875464 -0.003315001 -0.074183784 0.15018192 0.14596413 -0.027086338 -0.12473913 0.10913212 0.23846586 -0.18231136 0.25834915 -0.094595015 -0.14388187 0.13646878 0.101902746 -0.045214504 0.16224813 -0.074440084 0.066661075 0.13509344 0.296305 0.14889704 -0.16244543 -0.009505527 -0.21664846 0.048348617 -0.08199524 0.019559236 0.008500199 -0.45952192 -0.17423171 0.24116345 -0.26396668 0.23255235 -0.1392778 0.09450178 0.1434425 0.11622821 0.34075606 -0.23209625 0.10520919 -0.029974977 0.3091549 -0.23236823 0.059975706 -0.10365209 -0.07712791 -0.03728972 0.25072405 -0.27744192 -0.10404452 -0.5694487 -0.13000302 0.06022618 0.45365646 -0.22484824 -0.4027673 -0.19263346 -0.08094151 -0.025334036 -0.016864598 0.028020773 -0.23336798 -0.09202752 0.4708278 0.22094439 0.036620416 0.05468419 -0.0007177282 0.012099289 0.17063543 -0.3696236 -0.2310735 0.0062648645 -0.08787261 0.27463663 -0.09226641 0.16542329 0.1569516 -0.48147276 0.26779407 -0.2029091 -0.0791134 0.10241203 -0.09815281 0.02109756 0.09487185 0.15759958 0.08075444 -0.23622687 -0.31341594 0.08751752 -0.42195252 -0.018362626 0.15507892 -0.09506204 -0.2550974 -0.09737312 -0.0064641135 0.07775443 -0.029881414 0.07899096 0.13290629 -0.30139613 0.18680096 0.06327424 0.0021826865 -0.060403764 -0.14766593 -0.16664332 0.12847854 -0.091371395 -0.10008759 -0.25604588 0.3103803 -0.025414566 0.2727512 -0.24039234 0.2071099 -0.1034944 -0.23500682 0.12860231 0.18092473 -0.030302607 0.14291014 0.14742479 0.108875774 -0.12253804 0.02700104 0.30090588 0.052308965 -0.23552504 -0.102335535 0.050045177 0.27949443 -0.010503664 0.097899675 -0.1685773 0.14382695 -0.13474381 0.20378354 0.29187572 0.3440512 0.1321222 0.14037481 -0.023724472 0.07183662 -0.11568483 -0.268433 -0.28409192 -0.19493803 0.116658464 -0.091021284 0.0014551755 -0.36588886 0.011445566 -0.14256929 -0.26927292 0.07935348 -0.032850485 0.38392326 0.21056525 0.01857487 -0.054225456 -0.06426958 -0.11339728 0.105548136
عربة 0.31306827 0.2404151 0.20178984 0.17297348 -0.16631924 -0.024264723 -0.030437484 -0.17967686 0.02415471 -0.17421052 -0.042176474 0.08728273 -0.2698396 -0.47982436 0.1022145 -0.097348474 -0.14252904 -0.3261738 -0.027978225 0.119715855 0.06494928 -0.12775481 -0.09633882 0.23646829 0.078608 0.10296191 -0.05531643 0.16362247 -0.17504211 0.011240503 0.059698477 0.2096119 -0.22479145 0.010940261 0.18484832 0.10760033 0.011547224 0.114191666 -0.04165854 -0.2703941 -0.05102682 0.3442576 -0.16613182 0.081706285 -0.003967084 0.2986879 -0.23206557 -0.0075720865 0.17127545 -0.054068457 -0.19580056 -0.15711887 0.046332993 0.29469645 -0.24624276 -0.28634232 -0.20081694 -0.32895666 0.08584045 0.0785063 -0.1534535 -0.05930378 0.090711586 0.13763843 0.09036968 0.07105123 0.26808858 0.17113605 0.019390784 -0.0049852803 0.22257377 -0.18549028 -0.036599163 -0.03314495 0.059375435 -0.11334664 0.07077479 -0.002624519 -0.030582892 -0.12420591 -0.04454264 -0.07496386 -0.14930233 -0.31325388 0.28359592 0.3974394 0.24264611 -0.122068726 -0.02862908 0.089428134 -0.056501303 0.31353468 -0.13169082 -0.038605083 -0.02359346 -0.117684565 -0.38731697 -0.236971 0.14219238 -0.26069075 0.29633445 -0.024319261 0.15202841 -0.048675746 -0.24678688 0.2124343 0.11775401 0.095575504 -0.08429442 0.29471081 -0.16823502 0.026821844 0.028473245 0.18240723 0.004376796 -0.10525778 -0.22323936 0.16079175 -0.027611956 -0.03161142 0.026534487 -0.27362618 0.2478707 -0.17858504 -0.17755288 -0.061924756 0.025250012 -0.017812373 -0.09810525 -0.2057356 -0.08295743 0.16635236 0.17621219 -0.026315045 -0.1652434 -0.027972879 0.1228649 0.08809836 -0.028988538 -0.032243203 -0.38947758 -0.10741154 0.20433915 0.31659302 -0.042446908 0.18339907 0.19077277 -0.008466848 0.103737526 0.2456047 0.17212385 0.08101605 -0.15801553 -0.10896257 -0.12440536 0.2703585 -0.07342215 -0.05281793 0.027581716 -0.018308632 0.25812295 0.10054559 -0.0014590682 0.08370531 0.00012503391 -0.23613754 -0.013405504 -0.17822056 0.02538611 0.2521151 -0.06523834 0.03186779 0.001185317 -0.09261963 -0.014775366 0.11221244 -0.34698784 -0.278996 0.084166355 -0.38962957 -0.20394683 -0.31094745 0.23442948 -0.024399174 -0.1365261 0.0077903196 0.13451631 -0.06793873 -0.2848756 -0.3757641 0.10100204 -0.11181395 0.2239063 -0.17369516 -0.10684465 -0.07580724 0.19918051 0.43229783 0.2899385 0.3125103 -0.16833104 0.44651666 -0.058824643 0.22317417 0.012773752 -0.31810555 0.22157323 0.002602618 0.04382484 -0.10553198 0.26591945 -0.024185196 0.24345836 0.08817152 0.053794384 0.032863144 0.13022523 -0.1314732 -0.12476336 0.23226416 -0.26193267 0.0049671372 -0.069929175 -0.052270554 0.28164205 -0.081023745 -0.013054655 0.11292013 0.30460617 0.055823606 0.18315561 0.17413116 0.12156561 -0.05358464 -0.1524368 -0.20038816 -0.3387556 0.004856324 -0.011165683 -0.015103522 -0.00428162 -0.0032209442 -0.28667971 0.12001318 -0.12249921 0.23835997 -0.16405778 0.25770923 -0.032327447 0.24411413 -0.09029147 0.28806636 0.40232337 -0.26114786 0.38526794 0.3493453 -0.10237782 -0.19084167 -0.37710473 0.39721945 0.17555778 0.18056571 0.12674189 -0.07120349 0.183564 -0.01894463 0.20564234 -0.0105105685 0.06636077 -0.08527688 -0.24024566 0.18533511 0.08017322 -0.031094698 0.20638335 -0.34735808 0.27577156 0.40159613 0.19579922 -0.24082442 0.020219011 0.009277913 0.06882336 -0.20536183 -0.0639367 0.022683157 -0.005216555 0.17022409 -0.05347487 -0.038536828 -0.20528524 -0.17601496 0.31199732 0.17077842 -0.06066013 0.18563807 -0.14350365 0.22352043 -0.02669567 -0.176346
زهرة 0.19376989 -0.1333262 -0.23147534 -0.1265513 -0.2709682 0.40574747 -0.086472206 0.13300526 -0.16006011 0.048230834 -0.06043097 -0.19038334 0.024700077 -0.15096778 -0.097138 -0.053955816 -0.11213697 0.13595527 -0.16756867 -0.014893252 -0.19036667 -0.082646675 0.11618727 0.11221084 0.04359921 0.21096289 0.0060454695 0.26862738 0.02866343 0.27820435 0.14612181 0.14954968 -0.1136673 -0.35510355 -0.19170581 -0.1598607 -0.18801598 -0.02351261 -0.069397084 -0.06534494 0.22878815 0.041810837 -0.012317472 0.017908597 -0.20906407 0.12943009 0.04612808 0.100035034 0.015793247 0.1504107 -0.050990004 -0.12334862 0.063585296 -0.02040055 -0.18034625 -0.15169568 -0.060464688 0.13211808 -0.008312431 0.06777875 -0.12239775 -0.043989446 0.45128512 -0.10189192 0.1146776 0.17659777 0.16622247 0.16626096 0.18804914 0.3585056 -0.054400012 0.17378834 0.23290572 0.014771277 -0.0583601 0.0942573 0.12243198 -0.28898594 0.008137902 0.06883464 0.44700673 0.15369022 0.1977248 -0.052861124 0.31497356 -0.33012635 -0.16443115 -0.068861924 -0.1923225 0.18272543 -0.03437004 0.13635927 0.1095108 -0.11861388 0.19584128 0.18797977 -0.0715009 0.1818859 0.22614425 0.041010495 -0.013451881 0.2888766 0.07445535 0.049544107 -0.15405148 -0.21998666 -0.1010586 -0.10513468 0.17050976 -0.013395525 0.14417422 0.3175584 0.028619781 0.19279942 0.23498377 -0.036252826 0.07216431 0.08003255 -0.033303846 0.031681567 0.055190925 -0.12127095 0.14351967 -0.1943374 -0.1708859 -0.06959171 0.10452504 0.10620839 0.1334223 -0.12488847 -0.29970548 0.10229956 -0.003575521 0.11249555 -0.22003223 0.25464642 0.12902184 0.12013363 0.020804297 -0.042353526 -0.10947054 -0.25646448 0.076603904 0.13342457 0.11466064 0.15258336 0.053647187 0.04785048 -0.17770453 -0.079749316 0.061517254 -0.05440599 -0.1657594 0.016347509 0.03184385 -0.15375379 -0.06707629 -0.19157554 0.12573323 -0.41042712 0.012299816 0.2762259 -0.33802193 -0.022735624 0.0808006 -0.37521404 0.30494165 0.21137986 0.26488948 -0.32740587 -0.31453118 0.06285197 0.09974331 -0.025920907 0.1182054 -0.24216264 0.009324528 -0.17003709 0.2693931 -0.32316887 0.16777763 -0.11025411 0.20488913 -0.3948591 -0.09304444 0.30224353 0.20960765 0.11162638 0.04754837 0.038946316 -0.19384754 0.046936058 -0.10805673 -0.18309881 -0.09294229 0.11607611 -0.042642348 0.18720824 0.06674081 0.32921752 -0.15556547 0.064142674 -0.18427862 0.15358312 0.031524517 -0.2593796 0.0751261 -0.13136344 -0.22815089 0.04366706 0.22873619 0.120267786 0.24272257 0.3268439 0.12966812 0.36778715 -0.08959939 -0.10056574 0.20828682 -0.012330569 -0.06433786 -0.19518074 -0.048081722 -0.14156114 0.14881882 -0.17295764 0.036754217 0.07513179 0.08190496 -0.051453527 -0.057470597 0.3767488 0.09115753 -0.057031807 -0.21122377 0.17190354 -0.24548388 0.19683856 -0.19891378 -0.011325962 0.3779239 -0.13661346 -0.26662308 0.1600163 0.46888927 -0.18399206 0.08972825 0.15109913 -0.3375048 -0.09470105 0.51265454 -0.16174522 0.22187322 0.04618429 0.30180538 -0.16519201 0.0025269256 0.04813217 0.043149218 0.12517902 0.12967198 -0.22552824 0.16566132 0.004114865 -0.25467476 0.29182264 0.01658199 0.26524457 -0.103832744 -0.085913174 0.19211948 -0.004267162 -0.042083576 -0.18458356 -0.057180855 0.20870917 0.11894419 0.008844384 -0.08287057 0.30146146 -0.26832515 -0.11594986 -0.06197589 0.06582694 0.1088979 0.16505143 -0.10026336 -0.11201013 0.12325972 -0.10989549 0.11205176 0.19088604 0.026012333 -0.28684217 -0.08698402 -0.038931616 -0.025520878 0.33340532 -0.020916758 -0.09810319
طعام -0.102863364 -0.19573165 -0.15969682 -0.45113134 -0.13595293 0.051468235 0.018181294 0.1625365 0.12273269 -0.076070786 0.08935701 -0.025385985 0.05375745 0.35422078 -0.04861594 0.284562 -0.15344195 -0.5447548 0.17881086 -0.13596787 -0.037302062 -0.13818753 0.09428995 -0.21005657 -0.11717875 -0.108329535 -0.18630461 -0.028107546 0.16377713 0.04268214 -0.08111129 0.0011443692 0.29301584 0.08415398 -0.0001467852 0.14050202 -0.56107646 0.107356615 0.37394515 -0.007706512 0.015619852 -0.0017263863 -0.18342124 0.094166234 0.36992726 -0.06700962 0.07063416 0.34065965 0.1524484 0.010947574 -0.014587723 -0.019186184 -0.0667402 -0.1420488 0.42786735 -0.31721905 -0.08881604 -0.049445864 0.365992 0.07476222 0.0032413192 0.24727626 0.29842666 0.14182702 0.11704094 0.29354286 0.01885196 0.06460536 0.1931993 0.1283105 -0.043736733 0.13561979 0.34464344 0.18084647 -0.07574999 -0.2551942 0.16077587 -0.13218416 0.031961523 -0.083100915 0.022657378 -0.19904238 -0.12016719 -0.15400712 0.33462247 0.16260725 0.21331759 -0.23575218 -0.17374185 0.23389529 -0.25708956 0.32487503 0.024320055 -0.06155942 -0.093596525 0.13912855 0.20721667 -0.22967085 -0.049593303 0.26983562 0.21804003 0.2756375 0.10379332 0.17065606 -0.09461118 0.12479524 0.13335148 0.23675746 0.1287379 0.12600894 -0.21399698 -0.045475144 0.19517292 -0.122202106 -0.13561921 -0.052422415 -0.3313544 -0.2177 0.17987783 -0.06483123 0.15063308 0.0011228252 -0.147595 -0.20445375 -0.2647671 0.32928142 -0.16970682 0.030381339 -0.075181484 -0.061782815 0.0072471923 0.13581459 0.11128873 0.433092 -0.123577595 -0.13625051 -0.007105646 0.17512842 0.19487526 0.041113086 -0.21555988 -0.12270522 0.07192176 -0.014473211 -0.014096501 -0.049968712 0.10294968 -0.18978906 -0.15193605 0.23889603 0.06777648 -0.098720215 0.029273445 -0.01808911 -0.036099296 0.041429453 -0.4199996 0.24538082 0.041664902 -0.07883425 -0.15675485 -0.066918395 -0.14562345 0.089509144 -0.15676668 -0.23635802 0.32517093 0.039955102 0.23185888 0.21258381 -0.06602813 0.36821535 -0.07528783 -0.30116287 0.117401496 -0.052904915 -0.13603438 0.030130161 -0.049673013 -0.3722392 0.031886905 -0.22774094 0.18871859 0.0013770455 -0.5780192 0.13761762 -0.027009495 0.29018155 -0.1274323 -0.21697716 -0.23719859 -0.017513806 0.06492662 -0.09329867 0.06541611 -0.35410812 0.116672814 0.05744364 0.15131342 -0.0049399924 -0.073324054 0.03881339 0.43159258 0.34945118 -0.03566633 -0.2660411 0.27911147 -0.049028013 -0.4360196 -0.4816707 0.19108497 -0.10172569 0.2614866 -0.15995444 0.13436142 -0.021168971 -0.066800535 -0.111231275 0.048406284 0.107414104 -0.41323543 0.09240042 -0.20956737 0.03755138 -0.027182018 -0.0143215945 -0.086875156 0.14928003 0.12734203 0.30249992 -0.034594417 0.08950929 0.253924 0.35792744 0.265891 0.19819774 -0.15880567 0.36952898 -0.2080634 0.02438227 -0.006946952 0.18469273 0.25320584 0.36985466 -0.14269483 0.19835044 0.08541947 -0.012626395 0.0815348 0.30350375 0.2088193 0.013969356 -0.15025872 -0.040015116 0.22003965 -0.08889361 0.34685054 -0.09980419 -0.026904933 -0.10702008 0.085967086 -0.33152503 0.14370497 -0.31778648 0.119020976 0.09821414 0.16671777 -0.1680798 -0.573972 -0.010669977 -0.3691745 -0.10631863 -0.05008119 -0.071901836 0.28514704 -0.1386833 0.20082797 0.15346211 0.13600688 0.20058967 -0.027398027 0.10277683 -0.27146342 -0.18867305 -0.24974431 -0.29287833 0.037863594 -0.06546902 -0.31599188 -0.38453785 -0.06159802 0.19353975 -0.075822815 0.21532173 0.39442173 0.21063235 0.13526538 0.05937867 -0.14538093 -0.13822356
طير 0.08489531 0.047986284 -0.09388013 0.22502276 -0.23751184 0.115495525 -0.34209272 -0.29861236 0.14341906 -0.07844751 0.095621094 0.09362919 0.34229758 0.38629472 0.15313983 0.29965922 -0.47766525 0.17783366 0.14175598 0.117984496 -0.02333049 0.14507888 -0.30135873 0.39216074 0.43691093 -0.069691345 -0.120915204 -0.06566552 0.0057831723 0.37101787 -0.036672942 0.036231633 -0.15430379 -0.05300802 0.063333586 0.01849892 0.16128244 0.07451402 0.14061949 0.053752888 0.3825998 0.083374225 -0.26220274 0.028377773 -0.011144858 -0.089538276 -0.065684445 0.20726295 -0.028468732 0.05161302 0.19272259 -0.18017322 -0.4037685 -0.0027590874 -0.20074001 0.015294494 0.123481385 -0.026459852 -0.16976938 0.17571823 0.061988898 0.02429061 0.38629383 -0.22818366 -0.29371977 0.0046683433 0.28290936 0.06379741 -0.17577308 0.06699904 0.29916796 -0.10311215 0.08035396 0.013541471 0.030835588 -0.008144909 -0.0121800015 -0.092419595 0.25516832 0.13638462 -0.09247334 0.20014247 0.14564247 0.021051971 0.10622787 -0.21293373 0.16405433 -0.095379494 -0.4441496 0.5355674 -0.045082744 -0.046532698 0.07017752 -0.13210931 0.016881073 -0.026549997 -0.09031091 0.23570974 0.40519118 -0.1759586 -0.11719213 0.22059897 -0.13161425 0.065054394 -0.051742584 0.120298214 0.351305 -0.18845461 0.10248658 0.033723447 -0.10744915 0.4071664 -0.3410521 -0.014023693 -0.043511026 0.033398762 0.07225621 -0.22547294 -0.15450051 0.1474125 -0.0058702864 -0.106534325 -0.008029866 0.14662358 0.10240494 -0.08763877 -0.13448848 0.25785178 0.39804757 -0.3383404 0.18302627 0.23079753 0.039586727 -0.1274685 -0.16201149 0.0049090674 -0.10303121 0.12061103 -0.06804491 0.07412565 -0.116725646 -0.13525003 0.2426784 0.09819136 -0.31257156 -0.009286161 -0.27143502 -0.088972926 -0.3670483 -0.0633477 -0.06866405 -0.012660264 -0.4121428 -0.21852468 -0.034560632 -0.069041274 -0.30630103 -0.29486892 0.2762441 -0.07485838 -0.0974775 0.10982819 -0.27203953 -0.09377349 -0.027454384 -0.10354299 -0.07319091 0.21110685 -0.0039823605 -0.15214357 -0.29429495 0.10531789 0.14168867 -0.19155587 0.13695051 -0.13415845 0.22977558 0.012690706 -0.032707904 -0.11393061 0.20697932 -0.14560178 0.26022777 -0.24932359 -0.22160886 -0.047186684 0.3475651 -0.022180367 0.12237178 -0.2686798 -0.57638633 0.13287395 0.28053483 -0.042048696 0.031253062 0.03151827 -0.14051421 0.28383797 0.15703224 0.3844462 0.08267792 0.09562203 -0.13378255 -0.0948045 -0.36083442 -0.20286088 0.36791387 -0.3941546 -0.045106813 -0.06988547 0.18222441 0.011339169 0.09809345 0.04049282 -0.06764869 0.11420234 -0.304027 -0.36866805 0.41462255 -0.02373867 0.04983403 -0.40676627 0.10616445 -0.0005434138 -0.09145484 0.19706196 -0.10493614 -0.03919713 -0.038565144 -0.11504136 -0.021299742 0.35505712 0.08738209 -0.07231185 0.07980382 -0.04586054 -0.046488304 0.062008925 -0.31783858 -0.09498347 -0.008495727 0.084076524 -0.1582986 0.21109387 0.25074226 -0.112421475 -0.32885763 0.34027344 -0.10584547 0.013489687 0.10645224 0.043541122 0.16684513 -0.374492 0.22345968 -0.049870737 0.12838037 -0.24293172 -0.02310146 0.17474073 0.06741586 -0.18163273 0.23722395 -0.24130473 -0.112364784 0.14652285 -0.06522088 -0.4429332 -0.16984563 -0.025741018 0.0152076315 0.11302493 -0.04769642 0.06859466 -0.2990697 0.11762924 -0.0825568 0.4836088 0.017305175 0.11493968 -0.22686265 -0.06260843 0.4476701 0.09151007 -0.18873489 -0.1298357 0.18859603 0.018150475 0.14486219 0.11777946 -0.07516459 0.21800426 0.041708764 -0.015260339 -0.13251522 0.18191734 0.268441 0.37763503 -0.15658705 -0.14307162
حشرة -0.01637503 -0.1627824 -0.45627406 -0.058146555 -0.03412021 0.004287596 -0.017750377 -0.07120452 0.14696267 0.065799534 -0.014531725 -0.19810525 -0.086085014 0.026375294 0.120984666 -0.281425 -0.68842375 0.039633818 -0.11991322 0.064361826 -0.28777412 0.036036745 0.044127464 0.19274265 0.254017 0.18290237 -0.05746624 0.2655522 0.07839739 0.1490165 0.018569218 0.26258913 -0.20498383 -0.40746915 0.05911855 -0.21853225 0.06678519 0.40849626 0.07623395 0.24847902 0.15967596 -0.22489479 -0.2598356 0.3650307 -0.08707361 -0.104901075 -0.08218157 0.10667629 -0.2488554 0.3185321 0.13430274 -0.07418261 -0.08746345 0.19475083 -0.13372044 0.30583733 0.061611637 0.10194949 0.13728145 -0.037111796 0.0131483525 0.20626178 0.25361568 -0.2575124 0.024769472 0.30419108 0.18423675 0.13837238 0.14304598 0.19122891 -0.023977011 0.31158018 0.29198506 0.26899934 0.3417085 -0.032188285 -0.20414393 0.030148143 0.12715621 -0.22546108 0.30865136 0.11067668 0.43262246 0.07437749 0.1060604 0.08875869 0.3370632 0.014231008 -0.11069364 0.24722785 -0.23333225 0.32376084 -0.13497934 0.0016886749 -0.09092782 -0.11401025 0.07507061 -0.06105948 0.58613485 0.0017736404 0.050614614 0.41032434 0.29233325 -0.1349121 -0.28125647 -0.28123704 0.16235745 -0.07264038 0.06734703 -0.17699082 0.065239824 0.36468327 -0.0496351 0.03931643 -0.08529875 0.3211309 -0.065740205 -0.20532459 0.02476021 0.12077179 0.16647074 -0.09079057 0.14854357 0.17807484 -0.13091482 -0.14369375 -0.059345655 0.17041229 0.26614827 -0.48333344 0.07937301 0.30045202 -0.05155659 -0.088662006 -0.21655646 -0.022487843 0.10816263 0.24034792 0.12984371 0.35581225 -0.32152474 -0.12992246 0.020959765 0.14188766 -0.24294542 0.022347767 0.25191653 0.38786092 0.18297434 0.07344137 0.008493177 0.109509915 -0.04949731 0.037965 -0.25234562 -0.29971978 0.069588915 -0.38357463 0.28876355 -0.030012203 -0.108901545 0.1250593 0.038826957 -0.08795544 -0.03823473 0.19173172 -0.005678889 -0.039199308 0.03867101 0.04173312 -0.6638401 0.077023365 0.2037164 -0.43577322 0.021516534 -0.10660208 -0.05397453 -0.46752834 -0.0026813347 -0.18701382 -0.079770684 -0.06832592 0.25928992 -0.039019033 -0.28110158 -0.086703755 0.35839215 0.18635641 0.0018804867 -0.41298112 -0.41530812 0.37225643 0.08556724 -0.4062284 -0.2123871 -0.13290186 0.29790714 0.20433153 0.07910542 0.44867805 0.01659539 0.6110011 -0.12893584 0.25418338 -0.17695697 0.07012912 -0.09107919 -0.21518806 0.19512378 0.019663252 0.28237748 -0.30376342 -0.011508357 0.21253175 -0.004399424 0.04178139 -0.35708338 0.08138236 0.012493435 -0.036292538 -0.13997672 -0.35199285 -0.046291232 -0.04075248 -0.036305133 -0.14890851 -0.12988533 0.25318933 -0.13756263 -0.14219493 0.005736088 0.46302202 0.1313834 -0.16098316 0.14828339 0.11730141 -0.054410014 0.04132045 -0.19693577 -0.0041560894 0.49431208 0.17628993 -0.08976793 0.3079946 -0.004797927 -0.076421395 0.12189259 0.27873105 0.06527776 0.1871196 0.18674152 -0.2932437 0.23917876 0.017376255 0.16361353 0.058381904 -0.17288375 -0.2900271 -0.044979215 -0.12627149 0.16740729 -0.2291189 0.17914613 -0.2081204 -0.20813876 0.12007282 0.16703874 -0.04901985 -0.34288815 0.14748432 -0.00090753706 0.26437396 0.0018438882 -0.09733966 -0.59336716 0.09615577 -0.26318568 0.122395195 0.044930097 0.2221135 -0.1322716 -0.33552107 0.18333453 -0.30504772 -0.44782755 -0.208511 -0.14461482 -0.10354968 -0.07458376 0.19444507 -0.021101583 0.25069168 -0.1947403 0.22249839 -0.57455176 0.10650439 0.4769715 0.45839143 0.13666524 0.08919904
ثديي 0.111960255 -0.1525122 -0.10987194 0.6809874 -0.06660886 0.24396221 -0.10721436 -0.1755785 0.15797824 0.013715755 -0.16298977 0.014209141 -0.15567715 0.10521193 0.5312471 -0.24182922 -0.37212425 0.15628527 -0.38788527 -0.29895344 -0.0724289 -0.122993685 0.14106534 0.2604189 0.16290252 0.3479173 -0.31001288 0.115886346 -0.39901954 0.21313564 -0.26226285 -0.4335794 -0.0383932 -0.14179994 0.22854964 0.1046714 -0.106544495 0.14056258 -0.030821687 -0.230778 0.0992641 0.032620367 -0.15756199 0.33535382 0.058447383 0.016744422 0.045660816 0.29742962 0.15805225 0.028174615 0.05618117 -0.25791267 -0.7977195 -0.39703158 -0.3965799 -0.14860573 0.14480224 -0.33882776 0.10796267 -0.20292838 -0.015660418 0.53526175 0.070780985 0.061385464 -0.19644848 0.54040414 -0.07266297 0.23162869 -0.035787746 0.3235811 0.27552867 0.017303368 0.11702641 0.295785 -0.30071667 -0.054691415 -0.43921214 -0.27871543 0.36951503 0.37178677 -0.10343265 0.072487146 0.5178472 -0.19714758 -0.35329315 0.20891476 0.041333515 0.18746948 -0.051992454 0.8364856 0.384908 0.47779247 -0.020462247 -0.07478744 -0.17417617 0.067564465 0.23060702 -0.15401018 0.21744372 -0.1705521 -0.1082909 0.386527 -0.34053275 -0.40847453 -0.14817585 0.37724087 0.018290667 -0.21015725 -0.314624 0.009449321 -0.36791995 0.19388424 0.07224347 -0.037367303 0.027567511 0.21090479 -0.12433502 -0.13596527 -0.0036208862 0.016939625 0.15606196 -0.08740311 0.54221666 0.27974468 -0.16288403 -0.1957807 0.057167195 0.47723213 0.7304657 -0.025294224 0.10118462 -0.19510287 -0.07767342 0.445322 0.003376993 -0.47476053 -0.12978718 0.35887253 -0.054784488 0.31657895 -0.10362429 0.36793616 0.29475376 -0.106275484 -0.04697366 -0.03663695 0.23276307 -0.07656999 -0.3440712 -0.32441097 0.07001898 -0.5761581 -0.32365817 0.14558111 -0.19999109 -0.26183742 -0.3145292 0.24697268 0.31649414 -0.085799426 -0.44828632 -0.19098683 -0.027092462 0.034390315 -0.079542994 0.078962445 0.19839856 -0.17056614 -0.010676797 -0.18209894 -0.121839084 0.14037564 -0.07763411 -0.020018267 0.097707324 -0.435332 0.1377937 -0.23891072 -0.2576304 -0.035185203 0.50189745 -0.035813242 0.424934 0.017863236 -0.46805593 -0.08661974 0.12530631 0.21992858 -0.241734 -0.20482185 -0.907448 -0.27899298 0.011247789 0.2138261 -0.32351458 0.11709384 0.1719234 0.4337068 0.4723055 -0.089619994 0.09292618 0.23412685 0.26596645 0.22563024 0.241714 0.061242852 0.039228037 -0.04432469 0.17390622 0.17889105 -0.059393298 -0.1934972 0.2631181 0.51429886 -0.19761905 0.08172163 0.05203521 -0.13190748 0.27694204 0.4361999 0.102767855 -0.33475062 0.09130317 -0.13515423 0.07960418 0.35452524 -0.4062128 -0.3981254 -0.09370901 -0.36877584 0.17977232 0.24244532 0.062452197 -0.025417773 0.39031458 -0.2120075 -0.23858236 0.31922626 0.03437667 0.19559996 -0.067094825 -0.026739705 0.084297955 0.39650357 0.030940227 -0.317372 -0.19901073 0.19121744 -0.25310934 0.016383361 -0.009507366 -0.04342313 -0.121136755 -0.21059692 0.103521995 0.076824635 -0.3650552 -0.5487781 -0.546302 0.07413084 0.3996896 -0.25108734 0.34920523 -0.30925414 -0.32136846 0.6700356 0.064591825 -0.25529206 -0.042807676 0.008613983 -0.14702477 0.106787905 0.34474713 -0.1326358 -0.2132521 -0.29251987 -0.24568316 0.63406014 0.026156245 0.33103997 -0.33277592 -0.32273343 0.1603384 0.24069552 -0.10820467 -0.0888866 -0.034245532 -0.17558908 -0.05851134 -0.44812343 -0.197728 0.31463388 -0.020912249 0.5269751 -0.2737398 0.06966134 0.34665748 0.19690235 -0.36063248 -0.0024594732
