10 300
البنفسجي -0.01522426 0.28529948 0.22984801 -0.17520249 -0.15535142 0.4317652 0.23277913 0.20645292 0.020756358 0.2156593 0.13118188 -0.07893521 -0.084981784 -0.09666494 -0.25739792 -0.0885157 -0.24572061 -0.19521113 0.3190087 0.027507974 -0.31132662 0.005804432 -0.13602142 0.19756287 0.15695989 0.18094729 0.16906513 0.28448096 -0.36872736 0.4765158 0.039576102 -0.10128214 0.2657356 -0.78095084 -0.11712107 -0.21747792 -0.25715575 -0.06259448 -0.079349905 0.21657178 -0.19969657 0.15692529 0.07459797 0.13603267 -0.24669933 -0.043477595 -0.23444746 -0.04433527 -0.3094463 -0.030499794 -0.09589981 0.38571748 0.32919618 -0.31166506 -0.41422486 0.14029635 -0.1571864 0.06223256 -0.031230528 -0.010578512 -0.07475497 0.14510423 0.46850327 -0.5548374 -0.24015428 -0.0021485034 -0.13925366 0.16315635 0.32227886 0.051422507 -0.084297754 -0.5078933 0.066206574 0.11557809 0.12245294 -0.5772415 -0.060104012 0.19159403 0.14612958 0.040334225 0.031242073 0.18601416 0.0024807437 0.12712732 -0.011674352 0.08826154 0.104722284 -0.17292367 -0.09289068 -0.034546155 0.01929649 -0.1605897 0.24265154 0.21665947 -0.14265901 0.4397473 0.0021760906 0.033143092 0.24319404 0.5967178 0.17145851 0.21948788 -0.29012543 0.22538738 0.03551477 0.40437582 0.12815554 0.13821714 0.2821089 -0.2648631 0.2253444 0.28818065 -0.13107072 -0.15368915 -0.2923694 0.074969515 0.47350684 -0.111167535 0.08703377 -0.15693486 0.29186782 -0.09722557 -0.024379887 0.02271817 -0.022513406 0.08517627 0.3116824 0.25726414 0.3910851 -0.22386736 -0.33312362 -0.17547451 -0.21234438 0.12508741 -0.2770013 -0.06807244 0.15688369 0.15378162 -0.078402005 0.1836564 0.04366702 -0.006923708 -0.049998388 0.37824214 -0.23761918 -0.026560666 0.13402805 -0.17075664 0.2328274 -0.26512232 -0.08193595 -0.05869648 0.13962564 -0.07157628 0.2628225 0.036853053 0.14893983 0.12769851 0.13789153 -0.2619746 -0.0015497351 0.052919257 0.106973745 -0.030590119 0.044981495 -0.08134461 0.1714579 0.27837914 -0.050692964 -0.027724016 -0.02721501 -0.0009869298 0.22042777 -0.18568121 0.004280425 -0.09644738 0.3496808 -0.15443577 -0.07969789 -0.1329119 0.15699106 -0.41114146 0.20561738 -0.14979509 0.044399306 -0.15603383 -0.2665407 -0.04764966 -0.14898172 0.30979994 -0.44591993 0.333398 0.096824884 -0.23445827 -0.34461045 0.32794526 0.2999299 0.1695814 0.007597434 0.37936735 -0.062497 -0.0710248 -0.2593587 0.27402028 -0.28250065 -0.02372297 0.2072908 0.18379337 0.08553148 -0.18280946 -0.16757698 -0.17747548 0.15965834 0.105428286 -0.20209591 0.25121614 -0.06596635 0.027473718 -0.2708922 0.53442246 -0.027304891 0.365481 0.11884021 0.10452102 0.13742356 -0.17026943 0.40501955 0.18222624 0.11531853 0.269293 -0.1817864 0.40783572 -0.015332419 -0.29540431 -0.44574255 0.10123786 -0.13373643 -0.006226138 -0.5656041 0.064196564 -0.048718765 -0.024692183 0.030758997 0.27498287 -0.079577595 -0.07646775 -0.18663749 -0.1409066 0.08991149 -0.04523514 0.35699633 0.23026572 0.1571842 0.28610575 0.47149268 -0.096431896 0.09589944 0.06894061 0.023813024 -0.37338212 0.27379987 -0.39203086 -0.089658305 0.20727773 -0.18444592 0.2272123 -0.2105944 0.24594748 0.011261193 -0.35812005 0.35789445 0.4952186 0.007650595 0.1381425 -0.038590744 -0.09627288 0.116682924 0.14196846 0.03231289 0.035174586 -0.40838835 -0.16156156 -0.30825236 0.012247998 0.1656223 0.10583661 -0.3705571 0.31772298 -0.07617502 -0.4244271 -0.10325475 0.15335906 0.04641508 -0.29999822 -0.13998583 -0.05866093 -0.19891188 0.25737828 -0.19976081 -0.15809014
برتقالي 0.070121005 0.062550835 -0.09613158 -0.11877717 -0.045553632 0.47196284 -0.06251812 -0.37929735 -0.22656904 0.19762641 0.0453828 0.33228052 -0.1161032 0.3013054 -0.15360743 0.061414786 -0.8229553 -0.10207093 0.060466167 -0.11268032 -0.034198254 0.2187311 0.057471104 0.5008251 0.50666773 0.32424018 0.28116623 0.14589076 -0.098048374 0.34586954 -0.11691744 -0.29424262 -0.07720922 -0.46247765 -0.17144756 -0.27162006 -0.49981922 0.11178493 0.20140344 0.09486806 0.15106602 0.15845029 -0.052474078 0.18599068 -0.16283527 0.13294978 -0.10127575 0.0055294773 -0.02355196 0.029979115 -0.20552213 0.099235184 0.71269935 0.1589176 -0.21171477 0.1092358 0.054677643 0.2475521 -0.45803246 0.39634398 -0.5171512 0.3432919 0.32356465 -0.58620083 -0.25969332 -0.091680236 0.21624844 0.2653637 0.060138993 0.37898454 0.2657134 -0.32496986 -0.17579502 0.3403554 -0.15698376 -0.46564803 0.060707264 -0.57703054 -0.091901556 0.49501964 0.13507654 0.014576199 0.03937907 -0.3831617 -0.1629855 0.3043318 0.48498175 -0.13555978 -0.019737596 0.26994425 -0.09826466 0.112168014 0.27234453 -0.029408576 -0.06945869 0.47961885 0.24390966 0.21839808 -0.1212696 0.3906416 -0.23049909 0.33109087 -0.25440344 0.08173976 0.10135918 0.0058217356 0.24549134 0.41950855 0.09247934 -0.2160901 -0.091658406 0.15126556 -0.31267533 -0.04973105 -0.08826992 -0.10824121 0.16432226 -0.3467063 -0.13117565 0.0069163344 0.070151895 0.20817816 0.09020418 -0.3819315 0.00046352053 -0.11833145 0.363752 0.2226662 0.16397598 -0.03990841 -0.16848068 -0.27255774 -0.49186116 -0.0023633752 -0.24961485 -0.11941275 -0.08613904 0.31691107 -0.3283324 0.008123156 -0.0752292 0.028819835 -0.17037894 0.3260647 0.12479865 0.15391666 -0.031962525 -0.13623014 -0.032136463 0.03273945 -0.3985456 -0.4259753 -0.0012253574 -0.72026503 0.11510476 0.05201278 -0.4890321 -0.34651813 0.4730407 -0.2842528 -0.055721477 -0.002391452 0.27027267 -0.09191937 -0.17615359 -0.43331835 0.14153339 0.26173398 0.21525224 -0.08114762 -0.22409976 -0.3233438 0.22065164 -0.26860687 -0.1531863 -0.23210843 0.04327684 -0.4632087 0.013376834 0.017765652 0.24672066 -0.42957968 0.1140895 -0.23397823 0.12760264 -0.18673655 0.058979638 0.086525664 -0.09638593 0.20611526 -0.7625613 -0.10806956 0.2610901 -0.15084445 -0.22957322 0.4012454 -0.08954359 0.1366923 0.105079934 -0.012979986 -0.04311739 -0.013478796 0.22470044 0.33312348 -0.013477065 -0.024622971 0.5184187 -0.13848092 -0.3397577 0.09425237 0.24068387 0.037798524 0.38066408 -0.30316195 0.25992477 0.3972134 0.12684427 -0.12058956 0.057065777 0.6237659 -0.046642516 0.26126164 -0.20272006 -0.013968278 -0.2561003 -0.11209977 0.13615525 0.36909154 -0.09312968 -0.13953406 -0.02525683 0.4126127 -0.2984563 -0.39968354 0.020385236 0.28604874 -0.16170667 0.057981107 -0.3175563 0.43472806 0.023687653 -0.08613318 -0.15904091 0.4818869 -0.20034036 0.056556728 -0.13321652 -0.2484492 0.11084988 -0.18296736 0.58288914 0.4333472 -0.08683368 0.021021904 0.70380646 0.30738872 0.081019685 -0.20615569 -0.076150924 -0.7580108 0.2949527 -0.39634123 0.24936345 -0.30520284 -0.13913791 0.24364057 -0.40442222 0.0064600897 0.06959336 0.070813715 0.41328976 0.5232602 -0.11893618 0.11665769 -0.26735583 -0.203308 0.0662661 0.17078495 -0.13695598 0.5932731 -0.23363607 -0.76359814 -0.49389505 -0.63496 0.17657022 0.38820642 -0.20309183 0.5099852 -0.11009683 -0.15486608 -0.11317627 0.42705503 0.28207812 -0.46231994 -0.04205033 0.08826124 -0.09217674 0.42184404 -0.03354875 -0.060573738
احمر -0.36346105 0.119697675 0.029407391 0.08107811 -0.07131933 0.1953701 0.03814615 -0.5155448 -0.2430885 0.38164556 0.041815028 0.2563044 0.020015681 0.058632888 -0.03905112 -0.10880086 -0.30785617 0.19843212 0.0027920743 0.022928711 0.012992144 0.11644344 -0.06601789 0.45504683 0.44128016 0.15264866 0.08162858 0.10329705 -0.12182886 0.0614674 -0.018744364 -0.36027274 -0.17043298 -0.37306497 -0.28385496 -0.09019621 -0.5556525 0.20251313 0.23391218 0.2921357 0.12590674 0.3923699 -0.13024375 0.39908653 -0.30909312 0.23609833 0.007584206 0.124172926 -0.1576082 0.2282622 -0.07047032 -0.13130157 0.33300632 0.14580663 -0.22585869 0.10878932 -0.14972137 0.044747055 -0.2557472 0.22522241 -0.11258871 0.24342728 0.20366642 -0.42073348 -0.2334893 -0.20716679 0.12973784 0.017842881 0.24412765 0.15898018 0.1612361 -0.029156039 -0.05051221 0.3233515 -0.036031585 -0.29668882 0.22905661 -0.046261847 0.00784088 0.18621524 0.039044768 0.039261002 -0.12413319 -0.21264724 -0.12982713 0.10735965 0.23896551 -0.3435136 -0.2535357 0.31963646 -0.29432863 0.35027373 0.11143542 0.11371613 -0.052741636 0.116116256 0.03879866 0.054186635 -0.22344175 0.031839877 -0.40899897 0.2478438 -0.040958967 0.1254487 0.082012855 0.042207297 0.025271218 0.42115766 -0.14794096 -0.15530066 -0.03871815 -0.006670351 0.053335484 -0.21704039 0.018015685 0.23327614 -0.32624558 -0.48033038 -0.17723013 0.08436592 0.06999664 0.1682002 -0.1485671 -0.45126492 -0.20263894 -0.041944783 -0.030058773 0.106701605 0.22022137 -0.16823591 -0.45832106 -0.03868708 -0.17682719 -0.16301093 0.03742848 -0.04455957 0.15840667 -0.057496704 -0.036704753 -0.1398638 -0.21166381 0.011011819 -0.22045101 0.3137687 0.10067731 0.06800908 0.06392034 -0.07644822 0.09820958 0.03991411 -0.1270841 -0.3114855 -0.03113548 -0.41536573 0.16494803 -0.15550067 -0.5511237 -0.16685241 0.21711853 -0.10428659 -0.1882255 -0.0657996 0.25193942 0.067577675 0.09578409 -0.18507595 0.032459952 0.344652 0.1445255 -0.034176186 -0.081430934 -0.2593352 -0.3919902 -0.03737987 0.024331091 0.17941847 0.18334088 -0.10421847 0.37632713 -0.049289294 0.11771143 -0.3452782 -0.13957758 0.1372137 -0.045549583 -0.3389931 0.18036646 0.3577387 0.07757332 0.07120167 -0.46548596 0.19137555 0.24076769 0.104137294 -0.24230585 0.15763162 -0.073585965 0.02433661 0.05807682 0.21962975 -0.105835505 -0.040713098 0.16491544 0.13767835 0.041444067 -0.2880798 0.29106104 -0.3348818 -0.23223351 -0.1218004 0.1835888 -0.017826874 0.18966253 -0.089335024 -0.10842336 0.47623923 0.03852085 0.069457166 -0.12131823 0.5296969 -0.26983398 -0.11328102 -0.16364177 -0.059382327 0.0044105425 -0.15856856 0.4578898 0.18298453 -0.08847288 -0.050758794 0.17189884 0.2734181 -0.28757468 -0.44977567 -0.04791379 0.00838909 -0.06707587 0.38957182 -0.37022448 0.041592605 0.054214984 -0.20223944 -0.15195158 0.3792367 -0.25374427 0.3525347 0.06037988 0.062687576 -0.026552595 -0.19936164 0.31411764 0.31721798 0.059605528 0.09711164 0.3508302 0.26269242 -0.06730944 -0.27055895 0.2706163 -0.4979293 0.4241526 -0.4463335 0.11289381 -0.13058674 -0.2367202 0.3230048 -0.13517322 -0.23758554 0.054085936 0.2063133 0.19946036 0.5548823 0.25687027 0.29090133 -0.009748479 -0.2078107 -0.017412739 0.007908598 -0.27390012 0.29943588 -0.12583046 -0.6361627 -0.32819936 -0.30994052 0.12435154 0.2759471 0.0046250895 0.43763652 -0.13674605 0.11176074 -0.12129921 0.1662423 0.14815924 -0.15973566 -0.17798184 0.2820697 -0.3444688 -0.025925118 -0.13691643 -0.051995467
اصفر -0.4317973 0.11953292 0.11353553 -0.031065714 0.07902262 0.45806098 -0.01381042 -0.60521704 -0.24743597 0.44016212 -0.118407875 0.3881921 0.044614263 0.565302 -0.10089768 -0.11937386 -0.5501411 -0.038423717 -0.27507323 -0.15608767 -0.34142452 0.4509665 -0.05905295 0.2959671 0.4690251 0.20803426 0.10525812 0.17259684 0.146685 0.2496676 -0.103504345 -0.23188783 -0.34903222 -0.4519112 -0.2688235 -0.33230135 -0.47131062 0.18560421 0.42587754 0.15106763 0.14027643 0.084741555 -0.015915949 0.42288792 -0.3827677 0.025601896 0.19117516 -0.18782514 -0.25007725 0.42673096 -0.3822026 0.102968015 0.2326462 0.11224805 -0.12145305 -0.027539417 -0.0852115 0.08847248 -0.2669278 0.44280714 -0.31044638 0.45532843 0.5701284 -0.50397736 -0.054014068 0.06713465 0.12590908 0.040769182 0.33694398 0.15035005 0.00035842316 -0.20685679 -0.26817742 0.55789405 0.000620677 -0.40722254 -0.06538224 -0.11099262 -0.12130805 0.34506488 -0.067772165 0.089770034 -0.2997795 -0.1716119 -0.06739706 0.36504441 0.065086365 -0.13988648 -0.17880192 0.13218047 -0.20503229 0.30334207 0.34786174 0.17449415 -0.25744516 0.17483464 0.028765263 0.25921842 -0.22484691 0.49389157 -0.3835877 0.31306443 -0.006480575 0.07741819 -0.050352387 -0.02769058 0.18050657 0.63339084 0.01942966 -0.34857562 0.17213073 0.056119464 -0.09348336 -0.011681006 0.06320457 0.13007422 0.0022433698 -0.3102015 -0.12686189 0.06222595 0.11001958 -0.021892268 -0.16269372 -0.5023756 -0.07987787 -0.035044692 0.19034545 0.2340288 -0.026872277 0.08966987 -0.47705653 -0.1340795 -0.2073005 -0.30668846 -0.08010551 -0.12780374 0.22247809 0.32571733 0.08359421 0.107178405 -0.034145974 -0.006152325 -0.22242175 0.32191777 -0.0037804744 0.3141879 -0.17412166 0.12250956 -0.13133916 -0.099240616 -0.036306277 -0.3469168 0.092542276 -0.5824097 3.309921e-05 -0.20786719 -0.44422364 -0.5081071 0.41165593 -0.31435853 -0.1862955 -0.07715179 0.27279168 0.15460636 0.24236417 -0.28349996 0.003411986 0.2897877 0.19940531 0.040669493 -0.05211222 -0.23550275 -0.47624737 -0.14628693 0.35629687 -0.077062674 0.40116614 -0.35235262 0.10299063 -0.01069888 0.10797874 -0.47450048 -0.15944134 -0.17171906 -0.24772634 -0.45121256 0.06938505 0.41082135 -0.10819371 -0.017920893 -0.73804593 0.1577015 0.22932075 0.0826372 -0.38989562 0.30332273 -0.38520044 0.2915502 0.47303182 0.18278798 -0.16780987 -0.446999 0.33932874 -0.02307495 -0.004172389 -0.39420527 0.53718174 -0.17668487 -0.6386019 -0.10769631 0.33612278 -0.16160019 0.1773363 -0.09910471 0.09700395 0.20369986 -0.063719094 -0.24390408 0.07162967 0.53634655 -0.11117096 0.4449881 0.08468005 0.07523313 -0.35123673 0.21024497 0.4550286 0.07831816 -0.114516154 -0.29415956 0.10083258 0.47447747 -0.22775473 -0.067074455 0.0010566987 -0.03589005 -0.31422645 0.2760261 -0.22104737 0.405731 0.007857828 -0.42802846 -0.07297652 0.357105 -0.2217542 0.29701513 -0.13326778 -0.24434668 0.10378843 -0.2208097 0.5315533 0.35145703 0.2012253 0.3068564 0.53970754 0.45538294 -0.106218524 -0.21417254 -0.06770618 -0.48195654 0.5067635 -0.41538784 0.14516261 -0.10076972 -0.047181807 0.13509956 -0.23445027 -0.03054218 -0.14715992 -0.0030913686 0.26737174 0.50252247 -0.33338085 -0.1780261 -0.2663852 -0.09094259 -0.036717966 0.18391828 -0.26326245 0.46985194 -0.10499606 -0.83349526 -0.33982477 -0.23299152 0.22368838 0.022609599 -0.033439178 0.17254318 0.07266412 -0.24279252 0.17842406 0.2168562 -0.014375519 -0.5078184 -0.16934742 0.35015017 -0.24252759 0.023835797 -0.16910888 -0.37327224
لازوردي 0.10944069 -0.3348551 -0.24507572 -0.23740005 -0.10597327 0.15082778 -0.04837387 -0.22568566 0.37580892 -0.03422241 0.113676235 -0.23567045 0.16527042 0.36358058 -0.1965658 -0.3114642 -0.2474253 0.119324565 -0.1801859 0.33738232 -0.53871304 0.13808748 -0.15872729 0.5075947 0.5384215 0.15635061 -0.1389156 -0.041840456 -0.20216931 0.5414311 -0.67875135 -0.603773 -0.24142525 -0.24537188 -0.25636825 -0.41524214 -0.16032119 0.41799718 -0.28728205 0.1580276 0.11373623 -0.15950188 0.021962482 0.14967887 -0.42537487 0.25422102 -0.008387748 -0.093860224 -0.0784657 -0.36517736 0.12435716 -0.37068546 -0.35906303 0.13273573 -0.2682167 0.4752606 0.408944 0.10477583 -0.29677138 0.23176838 -0.26359951 -0.11688467 0.17711262 -0.31751308 -0.17420647 0.016269887 0.37761575 0.6466945 0.22185825 0.6676694 0.6365072 -0.5250512 0.32348353 0.24841133 -0.35639095 -0.5207837 0.15073961 -0.38045225 0.14814068 0.3643255 -0.2268262 0.010792512 -0.0016724671 0.09281992 -0.24172431 -0.11599692 0.4977639 -0.034259968 0.002364107 0.6874079 0.018446755 -0.18436411 0.23524833 -0.50818855 -0.01673305 -0.0075955894 0.19691521 -0.02587651 0.59199876 0.57476115 -0.36569402 0.095338844 -0.023162436 -0.46861795 -0.13802344 0.19297156 0.48759875 0.49192086 0.27646777 -0.07665986 -0.114732824 0.93404746 -0.10258366 0.25272167 0.05998708 -0.007131505 0.09410281 0.05936945 0.08410213 -0.12442971 0.105574585 0.08345094 0.15630172 -0.026081499 0.17870931 -0.34815273 0.039896622 0.39265049 -0.11498761 -0.2805065 -0.3450748 -0.28566775 -0.055109598 -0.13925071 -0.41832218 0.07390705 0.37969604 0.18377015 -0.69038475 -0.068745986 0.03454528 0.10129401 0.3954295 0.18235895 0.644192 0.07444821 0.17370069 -0.1140418 -0.12520488 -0.42805687 -0.17636183 -0.19525017 -0.09804799 -0.09900123 0.039963335 0.30740383 -0.51756305 -0.5484954 0.333418 -0.3004051 -0.25880527 0.45329493 0.25645173 0.13516986 0.3089854 0.17154361 0.13105118 0.12364276 -0.054267216 0.3049156 -0.57473475 -0.35582122 -0.041312348 -0.034102913 -0.15096131 -0.39379245 0.2803615 -0.41906345 0.18994886 0.094226934 0.25598994 -0.09002763 -0.20549937 -0.2687907 -0.5189866 -0.442674 0.45101267 -0.02760484 0.2390836 0.08591938 -0.5320358 0.011570353 0.5422202 -0.42260802 -0.11220881 0.4269323 -0.26184073 0.2315384 0.23943934 -0.46801883 0.108754195 0.15210222 0.15497085 0.4156514 -0.19222611 -0.5917885 1.0071504 -0.16424474 0.14412189 0.03175126 0.6446078 -0.2462759 0.4746789 0.13368663 0.06056081 0.08137004 0.22890195 -0.16719122 0.46737713 -0.067472 -0.06806116 0.08808993 -0.04537505 -0.22456072 -0.31940064 -0.072620325 0.10942679 0.051419422 -0.16234577 -0.06704835 -0.15284458 0.26240724 -0.3072222 -0.16733588 -0.070240125 0.039701484 -0.1507149 -0.07528135 -0.4846409 0.19214568 0.08543058 -0.15205033 -0.4342394 0.041732326 -0.1668376 -0.025577402 -0.5307244 0.075085245 0.2865656 -0.027486613 0.2840375 0.69076616 -0.12538487 -0.4346354 0.3760695 0.29406613 0.55595565 0.071325816 0.28244245 -0.35584232 0.32945734 -0.34104282 -0.100787416 -0.098535135 -0.2637755 0.3873137 -0.0038870804 0.036572274 0.48631197 0.39460734 0.1722947 0.62308544 -0.043431904 0.21709628 -0.35531974 0.464685 -0.30315372 -0.1272775 -0.17974962 0.46833062 -0.13363223 -0.7809092 0.21001518 -0.8423452 0.11726333 0.28086117 -0.037347432 0.4693918 0.33722118 0.23493472 -0.47182626 -0.08084877 0.1351692 -0.22084613 0.1125607 0.58951753 0.19358231 0.6100837 -0.29965013 0.009763713
ابيض -0.47162494 -0.008111561 0.05597005 0.050946224 0.20125222 0.089958146 0.07611155 -0.4447776 -0.31516302 0.026680334 0.3293533 0.16609606 -0.041764047 0.25942397 -0.19004363 0.3147731 -0.36506784 0.111083865 0.19058442 -0.022482958 -0.045637954 0.17677422 -0.36819926 0.3189467 0.43627444 0.015119118 0.092976026 0.20106451 -0.29718128 0.13884847 -0.11262913 -0.41244557 -0.12903701 -0.39412385 -0.08914758 -0.2149347 -0.3783803 0.04720398 0.26814097 -0.3382391 0.3717026 0.29915473 -0.1777296 0.27777818 -0.35640964 -0.07432856 0.13000163 0.16097294 -0.026841817 -0.3096241 -0.29623345 0.0473511 -0.058310878 0.1622984 -0.15468895 0.1830711 -0.08327673 -0.15816121 -0.57046247 0.07722114 -0.427599 0.43188477 0.34511918 -0.26331878 -0.3292842 -0.07332579 0.07724816 0.12087753 0.3656673 -0.06449972 0.27741572 -0.5041898 -0.22176614 0.27241752 0.015200812 -0.22382854 0.19733034 -0.20150504 0.08168322 0.4102588 0.0016268336 -0.08748269 -0.22545968 -0.15617363 -0.07978374 0.3408434 0.2672338 -0.32215247 -0.18749094 0.42844674 -0.13453561 0.11898694 -0.118749276 -0.34894663 -0.06096009 0.08968315 0.11036679 -0.17208141 -0.20308833 0.095171764 -0.16276173 0.21189635 0.07427589 0.04497309 -0.28380862 0.050935555 -0.15233567 0.17583065 -0.2761173 0.047212537 0.1239079 0.20882057 -0.04631208 0.011319365 0.3080512 -0.020336075 0.10989605 -0.19186898 -0.09128736 -0.115224 0.07346153 0.08341552 0.11954972 -0.5085714 -0.12708724 -0.33333573 0.046595085 0.2490158 -0.0382253 -0.34188473 -0.31079862 0.09019877 -0.49168912 -0.42174566 0.1900992 0.13483176 0.060704023 0.07534652 -0.13093092 -0.051187165 -0.35294193 -0.13863446 -0.19855566 0.41601002 -0.17544952 0.3151958 0.09601999 0.013747546 -0.070464246 0.10110804 -0.39744976 -0.09290274 0.10233255 -0.13124187 0.19793765 0.033836234 -0.44609448 -0.17450503 0.095634416 -0.19476861 -0.29794684 -0.31922427 0.23083766 0.054901667 0.0031414966 -0.30604848 0.10303107 0.14561425 0.19548541 0.09594424 -0.17577146 -0.18747061 -0.24477187 -0.06736002 -0.056458157 -0.18182866 0.06865811 -0.20486735 0.058604248 -0.12962912 0.16803625 -0.47277677 0.0113448035 -0.24586973 -0.0016841836 0.043404207 0.36313373 0.0045169154 0.07142612 -0.20234136 -0.55322766 0.07237904 0.23314814 -0.32415757 0.042765997 0.22023556 -0.26646477 0.18278357 0.2576032 0.3476044 -0.10899841 -0.2360376 0.1857882 0.33197385 -0.09978709 -0.4560562 0.40777227 -0.5565631 -0.3802124 0.16155697 -0.030126609 -0.021123683 0.34208143 0.2077737 0.13246608 0.3151781 -0.11148035 0.23237488 0.07162929 0.6346548 -0.31186402 0.22817598 0.055134572 0.21544033 -0.1992368 -0.26654914 0.2351099 0.37980053 0.12242705 -0.14541583 0.26556152 0.37000567 -0.0044909418 -0.20631315 -0.17118408 0.016049653 0.034619533 0.18523335 -0.12883049 0.19962387 0.18332677 0.077222005 -0.039680615 0.52349675 -0.16475219 0.06448021 0.13721545 0.033218008 -0.01304143 -0.2593996 0.46070173 0.2788092 0.2575301 0.26221016 0.2145725 0.062726706 -0.20089832 0.10435462 -0.00088636455 -0.3494653 0.025504954 -0.37806892 -0.054302387 -0.14947012 0.052137457 -0.062075306 -0.31770632 -0.27922738 0.0066098054 0.11285373 0.2276122 0.057535604 -0.20058252 0.4256788 0.2618481 -0.101809934 0.19881631 0.035246395 -0.13603714 0.30686635 -0.03919549 -0.45647052 -0.19129144 -0.03129213 0.33029827 0.14739029 0.33763105 0.18243656 -0.00531837 0.30500612 -0.081560366 0.14816605 -0.0165887 -0.39633211 -0.13719362 0.014798613 -0.33277655 0.030366443 -0.027835915 -0.019787937
أرجواني 0.063979276 -0.22827387 0.0040788907 -0.1500061 -0.14644444 0.62729394 -0.059699725 -0.22529094 -0.027034737 0.030432152 -0.027465515 0.2183495 -0.09787929 0.26405787 -0.109281704 0.13684648 -0.59669846 0.008465626 0.33017367 -0.2326353 -0.047095984 0.02523402 -0.055556092 0.42803895 0.4612369 0.59606755 0.29246587 0.28998387 -0.16131051 0.36382353 -0.3724066 -0.082364306 -0.06552074 -0.49039444 -0.049705982 -0.5269646 -0.36976266 0.12837277 -0.024865266 -0.052678194 -0.06322987 0.28247678 -0.04993073 0.16952743 -0.26148257 0.23564777 -0.1574435 0.16747707 -0.20292172 0.16887972 0.06323329 -0.11613644 0.52731204 0.07578161 0.04679686 0.3880492 -0.1491827 0.03593467 -0.1397454 0.2571852 -0.5084946 0.11425855 0.7211395 -0.39843664 -0.01619535 -0.4501647 0.29690287 0.24125338 0.057184905 -0.012079239 0.36118928 -0.104624614 -0.40657428 0.18218161 -0.18421398 -0.5476127 0.041776683 -0.65155566 -0.040698588 0.27060586 -0.013684705 0.03175467 -0.1606639 -0.21288773 -0.122481205 0.24583153 0.3490712 -0.28935698 -0.11802054 0.28800586 -0.15802525 0.14478374 -0.104866855 -0.32148233 -0.034210917 0.5009319 0.7464107 0.28180984 -0.23473066 0.29968655 -0.43060204 0.32247835 0.15459214 -0.2718804 -0.20530362 -0.18736732 0.47944495 0.34081724 0.32723054 -0.28706938 -0.019138189 0.3933632 -0.027846146 0.08782167 -0.046555653 0.16885741 0.029364778 -0.13695326 0.070553966 -0.03638988 0.14676178 0.1591838 -0.083787166 -0.38424954 0.016491292 -0.38988596 0.71149075 0.4099251 -0.21578151 -0.067906804 -0.16089296 -0.13199106 -0.5281298 0.23899263 -0.004900987 -0.14011967 -0.023736002 0.1901535 -0.55851483 0.12330943 0.30686232 -0.034470167 -0.32329577 0.42967775 0.03264421 0.3181597 0.17355765 0.10381074 -0.090564154 -0.41017836 -0.034475207 -0.38676518 0.062326647 -0.69101197 0.17945929 -0.21440151 -0.34993786 -0.48771104 0.36798477 -0.2969953 0.008721253 0.023616122 0.2496537 -0.30494726 -0.13551542 -0.5182039 0.31936398 0.30696142 -0.1980323 0.032705583 -0.3995109 -0.047622778 0.12540059 -0.29009843 -0.13529617 -0.16866037 0.035059825 -0.5419894 0.0808341 -0.13740768 0.4329731 -0.47299507 0.11957402 -0.40913317 0.12828544 -0.15813336 0.3116213 -0.053103767 -0.23916231 -0.21359542 -0.54459745 0.058104496 0.37989828 -0.11848644 -0.29145503 0.3933737 -0.2296203 0.18058442 0.0005263894 -0.14224777 -0.065725215 0.072128475 0.3111655 0.5867834 -0.15378965 -0.28911033 0.22904116 -0.17233522 -0.055324614 0.18938081 0.10195181 0.25324312 0.35799545 -0.18436912 0.00225267 0.4373039 -0.25062674 -0.40989745 0.14451398 0.61481434 -0.22678114 0.14050965 0.0641592 -0.15999332 -0.09448062 -0.3984058 0.258601 0.14429252 -0.21198265 -0.21491565 -0.2833199 0.44337517 -0.3473876 -0.2954077 0.16568285 -0.23362975 0.13794321 0.35247347 -0.57171357 0.4135226 -0.21481377 -0.08187192 -0.24270529 0.44203684 -0.19320983 -0.16698988 -0.26735634 -0.21599051 -0.11814099 -0.20684357 0.6185275 0.50505805 0.14734697 0.38795686 0.7024499 0.4575957 0.022331174 0.019678952 0.11281798 -0.4940207 0.1391118 -0.3809441 -0.2567444 -0.23017076 -0.32118204 0.10061088 -0.40561205 0.2056426 0.41286454 -0.15078066 0.31915733 0.8120005 -0.09063169 -0.15527442 -0.3875749 -0.11068399 -0.20804507 -0.17448412 0.07191045 0.70455015 0.08452807 -0.518771 -0.2581124 -0.27716526 0.2521924 0.27516663 -0.37470722 0.4404578 -0.49258697 0.50246733 -0.06328221 0.4799118 0.18875018 -0.5448443 -0.1536658 -0.06080715 -0.39181823 0.24500817 -0.116112486 0.20127004
اخضر -0.44923568 0.16199128 0.097669244 -0.0153843025 -0.29880753 0.41136473 -0.10159774 -0.6034227 0.078533284 0.33142307 0.16348204 0.4293226 0.26141298 0.3268625 -0.03618394 -0.05843948 -0.5584785 -0.21886925 0.0023889812 -0.17036034 -0.32592058 0.34384447 -0.06395315 0.4514773 0.44196764 0.2137794 0.02366046 0.19509749 -0.099487424 0.37564558 0.029521186 -0.35188314 -0.2541308 -0.11754842 -0.053404972 0.05114766 -0.2871846 0.19559762 0.37479612 0.02869556 0.047356453 -0.0455099 -0.2870411 0.4191169 -0.022528313 0.18520865 0.06952949 0.022672998 -0.026451318 -0.17287649 0.011204474 0.19697273 0.3181826 -0.07087822 -0.19337925 0.27212992 -0.278756 0.22681172 -0.3839506 0.2607413 -0.0885475 0.09328398 0.6381783 -0.1454251 -0.38760135 -0.053846866 0.075490884 0.108752616 0.05276781 0.124433964 -0.1333837 -0.45339853 -0.2406131 0.16338632 0.044037733 -0.46141452 0.08090642 0.058666524 0.2675084 0.3688502 0.14240663 0.11602602 -0.054230176 -0.3980569 -0.026841437 0.14815664 0.3413407 -0.51379186 -0.20913602 0.5455499 -0.14778864 0.16033946 0.29563248 0.28908196 -0.13585009 0.07410524 0.1402902 0.13734119 -0.18008421 0.20898017 -0.093004875 0.19403508 0.016727893 0.3501624 -0.22055465 -0.14859131 -0.116281785 0.16962673 -0.091465585 0.069041125 -0.18021564 0.117516026 -0.22990994 -0.38726738 -0.24308664 -0.042729873 -0.067161076 -0.20774187 -0.004218463 0.0736115 -0.15706147 0.008406818 0.02500991 -0.34854528 0.034601875 0.1424966 0.32371143 0.28821826 -0.265466 0.044477474 -0.48147494 -0.08685057 -0.052553486 -0.11057933 0.1296085 -0.06540911 0.2502743 0.1401761 -0.04408235 -0.2273491 0.0076830597 -0.035094634 0.014156801 0.23694894 -0.078482375 0.45004234 -0.05937399 -0.20523618 0.16058561 -0.06920443 -0.3155765 -0.31467733 0.076857686 -0.5014008 0.04078941 -0.28259706 -0.22993688 -0.34077913 0.41091558 -0.20020437 -0.0636153 -0.050881285 0.14880475 0.038993385 -0.15538779 -0.28420746 0.15649748 0.48339573 0.26171035 0.12365839 -0.059866257 -0.09640637 -0.10919868 -0.08660447 0.15190513 0.07483559 0.16949353 -0.31554085 0.14172897 -0.5172122 0.14041686 -0.18373847 -0.16252795 -0.021510491 -0.16614185 -0.17065154 0.3118657 0.12841092 0.044168483 -0.030454393 -0.7781958 0.36950856 0.13337597 -0.044860546 -0.12759882 0.1085061 -0.18613553 0.12189621 0.028555553 0.13455628 -0.10812413 -0.04140753 0.027090866 0.4366297 -0.019806612 -0.22353603 0.5676543 -0.25038433 -0.52476406 -0.16664478 0.23925012 0.05371494 0.48364377 0.14798495 -0.21373278 0.20145757 0.09754512 -0.17410259 0.037088264 0.76604617 -0.14357525 0.26152116 -0.063998744 0.090574466 -0.35729003 -0.0042146705 0.35344285 -0.0803488 -0.077526286 -0.12611951 0.32814625 0.48484465 -0.1545769 -0.1200796 -0.2795164 -0.20534497 -0.22163078 0.19529502 -0.46877742 0.46653146 -0.041088533 -0.13341054 -0.13813348 0.025756449 -0.22475679 0.31226805 -0.008215929 -0.21677288 -0.080733195 -0.087092385 0.30962306 0.40058059 0.059430346 -0.065792814 0.28089455 0.2512173 0.11583269 -0.06238008 0.17422341 -0.40576804 0.15232857 -0.4319187 0.39234698 -0.3095942 -0.3452221 0.087704375 -0.39874926 -0.15206589 0.22787377 0.24488074 0.17546658 0.27402252 -0.054051 0.043728806 -0.25729862 0.10949596 0.028621644 0.084472366 -0.20886064 0.4389871 -0.25838217 -0.8913025 -0.3506619 -0.2614497 0.41097325 0.15867476 0.11993315 0.3753365 0.23922275 0.14345945 -0.21174282 0.25197458 0.1473905 -0.23259519 0.08671332 0.14850108 -0.1668854 0.26778877 -0.14891781 -0.10625773
ازرق -0.38087356 0.29622722 0.06303849 -0.22914769 -0.22983134 0.2725858 0.035374645 -0.829372 -0.048414636 0.29516515 0.20871198 0.5889869 0.33673182 0.10752654 -0.32228348 0.014602674 -0.67052424 -0.0030748532 0.0813973 -0.2361202 -0.1105776 0.13857493 -0.04763661 0.27057084 0.24812743 0.17880529 0.09437607 0.30221152 -0.3317052 0.050055392 0.16171215 -0.31656578 -0.1106435 -0.197033 -0.10081037 -0.12785903 -0.6194477 0.25949693 0.27550972 0.080389805 0.19734803 0.120609984 -0.063790284 0.49403796 -0.061959844 -0.020833336 0.13578874 0.08242372 -0.22611485 0.005301321 -0.12958531 0.12019079 0.4013863 0.04530196 -0.11631255 0.34385344 0.18251775 -0.20785564 -0.4998137 0.16670838 -0.26992425 0.30777958 0.39031604 -0.71399415 -0.24232058 -0.13217823 0.12151067 0.24007747 0.29644406 0.38437244 0.3473517 -0.28339612 -0.098385096 0.3599423 0.13725759 -0.29253933 0.11666763 -0.13416833 0.10545748 0.24604653 -0.14749725 0.17901689 -0.033988018 -0.4976209 -0.31322262 0.33060643 0.49103218 -0.46166143 -0.10132899 0.086997055 -0.19869648 0.20719153 -0.19895087 -0.024990141 -0.21543443 0.29164135 0.2422359 0.18977194 -0.00674092 0.5922485 -0.36887705 0.112498686 0.26165757 0.16619606 -0.01379275 0.024253089 0.12772529 0.3349009 -0.3142295 -0.19034955 -0.028786743 0.16770844 -0.23218833 -0.15608868 -0.05447427 0.5102194 0.079203606 -0.23215295 -0.12197443 0.05338315 0.05704029 0.029079132 -0.14954308 -0.40325072 -0.13544752 -0.1004005 0.22336082 0.08669746 0.1318627 -0.111676715 -0.28749943 0.18679395 -0.36435485 -0.25580627 0.13961363 -0.019435348 0.2633448 0.32934555 -0.12490613 0.09439433 0.11810764 -0.030082481 -0.06643681 0.31936893 0.011380882 0.12958188 -0.012071351 0.09532022 0.12686613 -0.12866321 -0.4615065 -0.21857364 0.09576606 -0.51580876 -0.033506617 -0.25396883 -0.4585308 -0.0814048 0.3121041 -0.14477573 -0.17199604 -0.040957917 0.04870661 -0.06588432 0.010903086 -0.34636086 0.18247984 0.2663883 0.10231138 0.18800409 -0.00985332 -0.39447853 -0.35252693 -0.052837383 0.22458845 -0.27092615 0.1291329 -0.21520664 0.21541649 -0.19896951 0.021907553 -0.38209635 -0.01501032 -0.098377496 0.08907428 -0.38574004 0.2015942 0.4106494 0.20679942 0.051799767 -0.56228477 0.16056153 0.41050726 -0.09330295 -0.14097323 0.3345183 -0.1259112 0.1237624 0.16921069 0.25730792 -0.16478042 0.12569864 -0.10471007 0.16341166 -0.14377275 -0.2232264 0.5619521 -0.6444546 -0.43401313 -0.14177543 0.06410516 0.13727781 0.3026043 -0.015763186 0.01575116 0.17637426 0.08089846 -0.018433398 -0.154869 0.6846421 -0.39568004 0.24542426 -0.11691412 0.14658405 -0.405858 -0.31859228 0.6181627 0.21075127 -0.20104042 -0.093480036 0.23788336 0.5704395 -0.31509352 -0.23333539 -0.04870042 -0.037894845 -0.10720854 -0.006095963 -0.14415783 0.5390357 0.12331338 -0.25846046 -0.12740353 0.3762604 -0.20849863 0.16137868 0.039487563 -0.16952436 0.11452763 -0.17804953 0.3616814 0.05283419 0.008652758 0.17750849 0.46374393 0.27204242 -0.15946302 -0.0828409 0.021588888 -0.5388052 0.53211427 -0.26173913 -0.04527314 -0.32763657 -0.2853522 0.13412026 -0.1935735 -0.27328295 0.19073045 -0.046505835 0.18786164 0.44449458 -0.046587527 0.5365269 -0.06415856 -0.010732906 -0.24932037 -0.08481623 -0.3212496 0.3968724 0.031031696 -0.7895389 -0.26585892 -0.35474375 0.2818464 0.21843179 -0.0906427 0.5615103 0.059343148 0.19145401 -0.28955975 0.34690142 -0.18977298 -0.29697242 -0.20204972 -0.015087288 -0.33948153 0.29346663 0.086855456 0.027472772
البيج -0.22141701 0.05167206 -0.15721041 0.04043907 -0.039181598 0.20216401 0.5421619 -0.56104225 -0.07474684 0.34906334 -0.024932219 0.25478593 -0.047312155 -0.086769566 0.13093656 -0.26481828 -0.24409157 0.010229989 0.11615232 0.28994387 0.18877497 0.066999316 -0.3617638 -0.07548386 -0.12385477 -0.35396346 0.19320348 0.14892286 -0.017042039 0.32539722 -0.16101527 -0.31704363 0.0775251 -0.6284091 -0.15441607 0.37483668 -0.3475981 0.02604577 -0.41947663 -0.007838704 0.100964636 0.15517356 -0.014041104 0.30552772 -0.109971754 0.29040593 -0.21907413 -0.06849913 -0.6061302 0.14504853 -0.19800144 0.3946149 0.3394767 0.16007565 -0.41089582 0.010566496 -0.32665506 0.24896066 0.0017725977 0.35255024 0.16134015 0.28004235 0.3991435 -0.26274937 -0.21152146 -0.17799287 -0.059451796 0.059329964 0.057814833 0.23458032 -0.3919943 -0.3383009 -0.12955019 0.19582374 -0.06433932 -0.6089895 0.36887813 0.02827421 0.18208843 -0.003934166 0.09501551 0.08226371 0.37312335 -0.19717994 -0.11668542 0.1382295 0.09806101 -0.04262288 0.30815032 0.05553998 -0.1621903 0.35566828 -0.19041266 -0.050038755 -0.41947964 0.12232947 -0.58558935 0.048140086 0.101103894 0.059728064 -0.0036321618 0.3985112 -0.15047197 0.062723465 0.12311656 -0.3725021 0.32514128 0.9047967 -0.2444638 0.16042416 0.02662644 -0.29266754 -0.4010556 -0.025993377 -0.14163367 0.055458236 0.11994383 -0.17917898 0.023930145 0.060926277 -0.12056041 0.24542034 -0.14804736 -0.30417314 -0.32121944 -0.18465541 0.10079092 0.10363302 0.17029151 0.36092758 -0.4722421 0.023952045 -0.5041546 0.1467113 -0.25060207 -0.07235796 -0.07143593 -0.03691597 -0.2394189 0.21303898 0.05863057 -0.24889687 0.042654913 0.51495546 -0.08894669 -0.12137384 0.1797429 -0.26558337 0.3185089 0.054942515 -0.12441833 -0.016008494 0.008802657 -0.3356126 -0.065276645 0.099119864 0.14033939 -0.13400172 0.19920193 -0.3914488 -0.07782179 -0.011143781 -0.13164082 -0.16768315 0.34818673 0.2103592 -0.0766034 0.59543735 -0.004485503 0.08636813 0.09728161 0.09501904 -0.41513535 0.0006073092 0.3639268 -0.018121311 0.114949115 -0.015258438 0.35771626 0.20681669 0.107072905 -0.5257524 -0.13691531 0.029143525 -0.14987074 -0.02836756 -0.5340548 0.2981116 -0.15153323 0.011934841 -0.30639917 0.24863276 0.093071796 -0.03077403 -0.50542426 0.23634402 0.18213771 0.30311036 -0.30335936 0.33694798 0.13917182 -0.35567623 0.17875533 -0.020252392 -0.13416074 -0.4688642 0.06364291 -0.11431244 -0.034829516 0.007925925 0.096352406 -0.3586844 0.027150914 -0.1016782 0.29452425 0.4916981 -0.23497485 -0.08660304 -0.034330253 0.21814436 -0.3754008 0.18154427 -0.049970053 -0.03910991 -0.23518956 -0.18024552 0.068789124 0.19351168 -0.32784736 0.11187167 -0.12883158 0.25697607 0.20628276 -0.38848868 -0.24777506 -0.30965853 -0.20513172 0.19195184 -0.34872144 0.06264455 0.3166312 -0.19655192 0.025790637 0.47240296 -0.40968156 0.24280548 0.01681941 0.11914237 -0.028912866 0.07595956 -0.21841447 0.22879677 0.15732269 0.40304205 0.067273945 0.17269182 0.036911942 -0.19220673 0.23588453 -0.41514644 0.12313863 0.058463298 0.42041776 0.10288104 -0.08322471 -0.0015246506 0.16502964 0.18521306 0.10672059 -0.31250128 0.27258307 0.40820754 -0.25541347 0.3968626 0.23984635 -0.11686328 0.04420491 -0.07860663 -0.030211458 -0.045341972 -0.29948142 -0.22124566 0.01476654 0.06701502 -0.06355556 0.33943737 -0.07966748 0.56548333 -0.28446484 -0.11232951 -0.23354357 0.3872548 0.07959998 -0.25872415 -0.16888835 -0.053419072 -0.32172066 0.21105674 -0.3292158 -0.062564574
