4 300
london 0.16000569 0.18625022 0.035523415 0.047491737 0.12948109 -0.07100642 0.069887824 -0.07376757 0.08069967 -0.08598383 0.1454214 -0.027670257 0.2498894 0.17998889 0.039811928 0.04711201 0.17446943 -0.09059693 -0.14795291 -0.047706835 -0.09187814 0.18896928 -0.34485516 0.06732729 0.0014704245 0.23368737 -0.20454694 -0.08040679 0.057141583 -0.21895002 0.42944556 0.0777217 0.06545007 0.13040833 -0.095406726 0.24438831 -0.13403857 -0.32137746 0.052901387 0.11014474 -0.06789305 -0.11318684 -0.09197018 0.054710206 0.4150178 0.11214854 0.08979871 -0.30382702 0.35585466 -0.026854651 0.22533542 0.04139316 0.29839322 -0.072664194 -0.09177312 -0.08388063 0.04185334 -0.19555475 -0.21915795 0.31660655 0.22320363 -0.032118917 0.29782304 -0.14331083 0.098608054 0.06360204 -0.047458343 -0.0067748046 -0.31368893 -0.114956886 0.14744158 0.05372438 -0.15573964 0.08884483 -0.18873926 -0.07253979 0.036880594 -0.020674216 0.13332418 0.126081 -0.5114989 -0.028359711 -0.12556969 -0.14422949 -0.13815588 -0.2519813 -0.04142478 -0.105560355 -0.053138014 0.10047901 -0.12733476 -0.17690158 -0.2125254 -0.07246144 -0.16976146 0.017056994 0.17580721 -0.06728053 -0.24952403 0.38718143 -0.054525446 0.15174463 0.08846736 0.014113901 -0.11560618 -0.08289964 -0.054879665 -0.15626441 -0.114516735 0.36993232 0.03765462 -0.18578127 -0.011521137 -0.07615507 0.05578461 0.06679405 0.08271319 -0.17823176 -0.3416927 0.19970247 0.30664262 0.0059105977 0.2228277 0.38169345 -0.002168259 0.18682867 0.12997049 0.07484383 -0.080047235 0.08029619 0.0479112 -0.05671309 -0.2715506 -0.045991376 0.104579926 0.019591939 -0.12765929 0.032163266 -0.028220166 -0.3155347 -0.03700007 0.13809556 0.055369865 0.1226194 -0.1725241 -0.046818018 -0.044019274 -0.057991803 -0.32100716 -0.069439396 -0.24308015 -0.17617312 -0.27969196 -0.010058492 -0.017973663 -0.07405018 0.01070902 -0.1405168 0.08890583 -0.014507795 -0.049912706 0.12106754 -0.19990662 -0.009844826 0.015192356 0.21084502 0.17548567 0.26467547 0.096667185 0.10829712 0.17063427 0.07374292 0.20699011 0.238013 -0.26400456 -0.17539355 0.004545722 0.06199263 0.22375792 0.04741939 0.026750961 -0.17904213 -0.23949055 -0.08978394 -0.049510974 -0.026407776 -0.0622019 0.079263985 -0.03848594 0.119732514 0.10048465 -0.19912755 0.10267568 0.2331193 0.16002327 -0.004731087 -0.0456162 0.055538345 0.18865491 0.19103175 -0.057975113 -0.11453072 -0.06493321 -0.04256416 0.112637624 -0.0364026 -0.11376155 -0.055626053 0.19902349 -0.1599998 -0.14725612 -0.369713 -0.13903548 -0.04649526 -0.15116845 0.2667436 -0.17879455 0.105668165 -0.13010821 -0.0859327 0.24687433 0.087376386 0.2704252 -0.069699354 -0.0524562 0.045023944 -0.10145987 0.0034046187 0.06297654 0.2746979 -0.0635109 -0.24925902 0.021347757 0.2593892 0.04781053 -0.3549986 -0.2260092 0.10114534 0.0341542 0.0671695 0.24514623 -0.4458898 -0.04689312 -0.15389952 0.22765441 -0.025567416 -0.03706337 0.011947157 -0.0945892 -0.069205076 0.18992117 0.015001999 -0.13904102 -0.03568528 0.22355528 -0.0248798 0.031505708 0.15690541 0.13636665 -0.18564291 -0.05414982 0.06540619 -0.002154471 -0.124748535 0.12241562 -0.1282895 -0.11152293 -0.10525586 -0.09566277 -0.011432955 -0.04012817 0.03314729 -0.50190836 0.13981335 0.26815262 -0.047870558 -0.16009948 0.18671523 -0.21468468 0.08914354 0.040959407 0.36762726 0.057922628 0.20642552 -0.10711626 -0.1348337 0.018923286 0.05074351 -0.13065648 0.010632345 0.21666025 -0.18832734 -0.016635064 0.07072614 -0.31973532 0.16494517 0.15708625 0.21233605 0.13492057 0.040985364
city -0.22964084 0.7416109 0.042150695 -0.0109577505 0.15051879 -0.14482208 -0.3277629 0.14835542 0.07987368 -0.09147939 0.039070766 0.088186026 -0.007308278 0.1625604 -0.18377866 0.08213418 0.10955772 -0.18106818 -0.041572142 0.072621 -0.065326095 -0.27702126 -0.30058894 -0.1194512 -0.061013397 0.53206015 0.29819334 -0.15639518 -0.050526556 -0.4691586 0.19041929 -0.2948389 0.25763926 0.17769396 -0.16495429 0.2754047 -0.13755883 -0.22495113 -0.11716962 -0.009277338 0.19617212 0.10255712 0.3158749 0.20169832 0.104435205 -0.20467786 0.00043952986 -0.12693116 0.31381935 0.04953101 0.21126002 -0.101499304 -0.07128797 -0.01926895 0.1838531 -0.11869549 0.04427599 0.055016644 -0.23054552 0.16399327 0.5693883 0.07769489 -0.14213085 0.04139547 0.13294661 0.16288711 -0.0827009 -0.021541279 -0.15900809 -0.061786834 -0.15852031 -0.21174274 -0.36405662 -0.20470905 0.028100844 0.1392759 0.006880855 0.1118288 -0.39035055 -0.050589032 -0.25126216 0.12706217 0.31504968 -0.23048761 0.108443856 -0.35367966 -0.17626397 -0.16873462 0.16073015 -0.08566538 -0.2318098 -0.095128365 -0.08216513 0.07818728 -0.028235517 -0.11944169 0.1765349 -0.09965806 -0.18038224 0.1234236 -0.09329739 0.008111119 0.070868306 -0.05063311 -0.16604388 -0.1176147 -0.22771405 0.2273283 -0.28304645 0.34176686 -0.04233031 0.077939846 0.09785044 -0.16969422 0.017911175 0.29655194 -0.03248479 0.0079262825 -0.22457053 0.013912918 0.036113065 -0.48674163 0.20436905 -0.009717537 0.043152403 0.0254461 -0.042764183 0.014136469 -0.02547945 0.39506298 -0.14401807 -0.01924035 0.15666842 0.030506115 0.17942673 -0.29963788 -0.23005871 0.19302228 0.16753922 -0.16581447 -0.27886298 0.01286312 -0.08711746 -0.19593719 0.14989391 0.20669739 0.026337 0.069197595 -0.002045426 -0.20076403 0.0092341555 -0.07818375 0.021589233 -0.16693613 -0.18874305 0.07455377 -0.13055675 -0.113656506 0.17467049 0.04217313 -0.042423487 0.38179246 0.1132748 -0.18518294 -0.41821766 -0.0022145987 0.21447678 -0.25945252 0.15856473 0.35981095 -0.012426303 -0.18609904 0.052656103 0.07592433 0.03137859 0.070171304 0.17100392 -0.16539796 0.24193834 -0.089320645 0.09254492 0.21600525 0.08346199 -0.29139182 0.04265737 -0.065465994 -0.4603288 0.05252662 0.14031269 -0.31921512 -0.2089576 -0.07916577 -0.44437096 -0.14570063 -0.22713432 -0.030670173 0.11710962 0.059743296 0.22319737 0.042095695 -0.1786274 0.008079836 -0.12841159 0.10073986 0.25681162 0.00034327677 0.02309808 0.101355255 0.15901537 0.016813604 0.023408202 -0.21976374 -0.25436956 -0.15427403 0.14678435 0.15894818 -0.11677709 0.081471935 0.21960135 0.06222016 0.4112677 0.14774992 -0.14794403 0.036418274 0.019907156 -0.047027342 -0.0019197497 -0.0360273 -0.16030483 -0.12424647 0.1779772 -0.3095673 -0.11147189 0.20336735 0.023486042 -0.16780883 -0.035891388 0.01541516 -0.052081577 0.06644393 0.29725507 -0.34445298 -0.008178749 -0.19430436 0.09245371 -0.026597839 -0.05630555 -0.4657775 -0.12659515 -0.07426414 0.1506999 -0.13824573 -0.1154297 -0.20526327 0.31649584 0.12068122 -0.18623886 -0.11698595 0.22032885 -0.09799673 -0.56823623 0.046375602 0.043370098 -0.24950603 -0.17151703 -0.16715753 -0.03353653 0.22152294 -0.007940077 -0.0027047608 -0.023484193 -0.24815904 -0.13938008 -0.06600899 0.20609999 0.122407384 0.20553742 -0.16800389 -0.17461078 0.086730175 0.01904654 0.06253449 0.050995316 0.05775735 -0.14702077 -0.29391712 0.089639895 0.110232875 -0.21996887 -0.19405144 -0.196089 0.16387689 0.05253039 -0.16911809 -0.25078934 0.05810652 -0.24014091 0.08188248 -0.02906248 -0.03496066
dallas 0.31480637 0.33397362 0.2066898 -0.3872118 0.19804364 -0.07956576 -0.32320538 0.11498063 0.4287544 0.045715522 -0.43966037 0.037574317 0.18365535 0.17682445 -0.2898201 -0.074516125 0.22973144 -0.113048 -0.14100909 -0.18768947 -0.17287515 0.034758296 0.096953094 0.06299991 0.17611568 0.49079123 -0.098793566 -0.14772949 0.3464217 0.0011153084 0.14121804 -0.011587933 0.38367504 0.16286714 -0.03770952 0.00069468917 -0.38298294 -0.03727397 0.09693895 -0.18549626 -0.07837629 -0.027575007 0.2593597 0.05977977 0.16058435 0.25531858 -0.17192188 -0.2692822 -0.1646791 0.10608488 -0.062951684 0.22469641 0.29836822 -0.19619898 -0.13752817 0.013486592 -0.3112565 0.057310987 -0.55037236 0.24038829 0.084897645 -0.01802423 0.19668029 -0.16470389 -0.25903502 0.013555946 0.10294135 -0.16849445 0.26177397 -0.058709614 0.26716903 -0.19632812 -0.30384853 0.48765212 0.04057398 0.37622997 0.09624027 0.014140847 0.23837301 0.054672234 -0.48826885 0.30307412 -0.06625107 0.21145266 0.09640734 -0.11989421 0.10737595 -0.15622416 -0.18430749 -0.119846225 0.40908107 -0.010893229 0.05871368 -0.16379797 0.09318998 -0.03306444 -0.22792736 -0.18083195 -0.01569982 0.21939798 -0.5605913 -0.09220902 0.14083868 -0.14248799 -0.0555697 0.06934565 0.4396149 0.051390667 -0.04486638 -0.042389214 -0.12763855 0.10500344 0.2468507 0.2972005 0.17495318 0.12362493 -0.22479689 0.2059838 0.1849996 0.25666782 0.120953836 0.003019354 -0.11438375 0.11530221 0.061297737 0.08959644 0.1910574 0.021646027 -0.05427096 0.02183537 0.1279962 -0.22424054 -0.1323912 0.04108316 0.0035020674 -0.18770353 -0.2652668 -0.06908544 0.21850802 0.14125799 -0.16839133 0.30947688 -0.13189559 -0.12274488 -0.08564268 0.15999079 -0.08504681 -0.0026746434 -0.35128608 0.35529634 -0.009346737 0.2363539 -0.16548343 0.022334162 0.14057644 -0.04301312 0.24433821 -0.18951651 0.110276654 0.07113871 0.09509941 0.28301063 -0.21452554 0.1478907 -0.2969808 0.079795815 0.29868212 0.25062805 0.26310524 0.014519911 -0.109806016 0.07820736 0.01607268 0.0913344 -0.25141442 0.055857606 0.08454211 0.03881099 0.074590705 0.119227625 0.0020944374 0.11150641 -0.25082687 0.03568404 -0.011470251 0.12508571 0.21593398 -0.10781325 0.20831992 -0.039591193 -0.027066387 -0.21842274 0.020312332 -0.016209472 0.021707138 -0.3738658 -0.069229886 -0.62850195 0.35408616 -0.1915014 -0.17098597 0.19885245 -0.39658314 -0.21766967 0.16728729 -0.104463376 0.06149143 0.122472085 0.0860084 -0.07035552 -0.023802185 -0.10914554 -0.16794649 0.021573737 -0.033966314 0.45908445 -0.28931722 -0.06527082 -0.025610121 0.18925372 0.25268295 0.15342546 0.07261063 -0.3489034 -0.17474265 0.0779083 0.32527494 0.037830126 0.2854454 0.041058123 -0.13640551 0.23408327 -0.096418135 0.011604958 0.3620078 0.022422254 -0.08184366 0.022266528 0.011760307 -0.0736475 0.06511761 -0.23605028 -0.19597034 -0.07449016 0.23324284 0.2503372 0.20111488 -0.5185312 -0.09464255 -0.30184525 0.23590595 -0.02508822 -0.213686 -0.26600912 0.23166078 0.4663788 0.28371075 0.26624647 0.26955244 -0.27788633 -0.2964509 0.0741616 -0.44423914 0.026137069 -0.04411961 -0.09186107 0.18004304 0.044653695 -0.0064080204 0.257794 0.05933418 0.14309265 -0.16124588 0.08485547 -0.11839353 0.09945098 -0.36172733 -0.21770939 -0.2665649 0.09894211 0.27852008 0.053802513 0.14383216 -0.027639398 -0.044469092 0.17319347 0.33133835 0.110101126 -0.067372546 0.009670468 -0.007965322 -0.14925049 0.18774575 -0.29537112 -0.053006288 -0.25624427 -0.012601887 0.26377922 0.1454077 0.058008302
atlanta 0.20660923 0.2771812 0.137417 -0.12215202 0.13763529 0.07107249 -0.2785925 -0.1193013 0.36689827 -0.021794688 -0.311704 0.122281015 0.37979805 0.17057757 -0.66984296 0.0035664681 -0.14332205 -0.049770694 -0.06215517 -0.15168084 -0.06665123 0.29095095 -0.21948187 0.30743715 0.029074594 0.23187576 0.077399276 -0.016478652 0.26006192 -0.20681113 0.38674378 -0.07295432 0.30908737 0.0073259273 -0.35532796 -0.0019059491 -0.28862637 -0.06278146 0.31200537 -0.05963449 -0.18430695 0.028619006 0.26698136 0.058831915 0.25196922 0.35516766 -0.32783857 -0.286486 0.045439396 0.08551064 0.21816368 0.058353953 0.24820994 -0.10605281 -0.09972215 -0.069461934 -0.013027821 -0.05616703 -0.48402205 0.26546037 0.37169006 -0.27163193 0.096632265 0.06123954 -0.29770052 0.15305924 0.14052276 -0.12748533 0.03466482 -0.08363593 0.11253048 -0.1083146 -0.011061094 0.504762 -0.10784526 0.1746394 0.101634584 -0.23667371 0.112739064 0.102974355 -0.30601758 0.093584895 -0.05392569 0.19920522 0.11494894 -0.40216362 -0.039440613 -0.103835486 -0.29837105 -0.059368167 0.29322395 0.09216587 -0.1499691 -0.17490828 -0.034040295 0.076615736 -0.0013566813 0.103696056 -0.08665583 0.31898668 -0.16638754 -0.10850289 0.09031707 -0.17612898 -0.0155978585 0.041701466 0.105385385 -0.07850806 0.07692409 0.045614783 -0.027428577 0.12925261 0.28865278 0.21626896 0.28411832 0.25517365 -0.11565579 0.112173356 0.27159128 0.34016117 0.16428392 0.1479084 0.01775936 0.036775805 -0.09294405 0.030511575 0.2779018 0.11027501 -0.019552402 0.084472984 0.41573295 -0.018432595 -0.2661224 0.08975584 -0.013237443 -0.41841587 -0.018828183 0.2914446 -0.059563402 0.26497945 -0.2801996 0.17345643 0.015546928 -0.17745732 -0.013469176 0.27129507 0.012840157 -0.019154929 -0.34985715 -0.09024706 -0.17945826 -0.102302365 -0.029597882 -0.08250553 -0.01617826 0.2083616 0.46901843 -0.012468406 0.14947917 -0.10092821 -0.05687018 0.15941995 -0.16752975 0.1569169 -0.10999221 0.1289644 0.36280975 0.22453806 0.0037893548 -0.06987359 -0.10133378 0.04451255 0.049789917 0.3848225 0.16782133 -0.0096136825 -0.037605982 -0.038390256 -0.048667733 0.13916817 -0.09578778 0.18925735 -0.3939069 -0.1198824 0.1536776 -0.2618348 0.2372275 -0.26206747 0.32843977 -0.14753874 0.08569723 0.012679653 -0.20777448 0.0108792735 0.097394206 -0.30740282 0.013077682 -0.3021616 0.08729527 -0.077494584 -0.06290337 -0.10859011 -0.05269103 -0.26165593 -0.06322485 -0.05182642 0.3573952 -0.049886387 0.006020657 -0.14042458 -0.14395246 -0.08478843 -0.21556681 -0.023485325 -0.057475377 0.46509254 -0.16546017 -0.027062982 0.07002962 0.20488417 0.10069653 0.08222008 -0.12670228 -0.56743157 0.07100538 0.04489707 -0.14817964 -0.14584531 0.26248118 -0.30585983 -0.1133511 -0.10425093 -0.055187736 -0.08325684 0.11137057 0.04257188 -0.108769774 -0.011918958 0.043454394 0.0057699303 0.14227107 -0.2761706 0.11976717 0.020761376 0.085145675 0.17957671 -0.124731876 -0.21808612 -0.052340645 -0.31081763 0.03179815 -0.10382995 -0.25492606 -0.291683 0.14502771 0.13846691 0.018723119 0.40883252 0.18543024 -0.31949136 -0.45387518 0.054887533 -0.26146516 -0.012840091 -0.15102428 -0.11398349 0.027549526 -0.025877973 0.3187145 0.006450256 0.008139239 0.21410446 -0.42209148 0.38466367 -0.0023898329 -0.17853165 -0.28230402 -0.21128327 -0.3490517 0.2176815 -0.018768521 0.08845849 0.19229698 0.0739338 -0.17772076 0.17983998 0.14870514 0.10834978 -0.15817147 -0.06639657 -0.18330191 -0.25868574 0.08152003 -0.35505393 -0.40177056 -0.015453355 -0.05063449 0.3369684 0.15020755 0.07684646
