12 300
movement 0.04047874 0.101707645 -0.07094706 0.1691553 -0.09281419 -0.14776054 -0.00091326184 -0.059819087 0.17562626 -0.052375827 0.17245333 0.007540115 0.10069238 -0.0049153357 -0.6799825 0.11840315 -0.14516239 -0.009778342 -0.047369134 0.16723537 -0.17028266 -0.015621081 0.1684923 0.07928266 -0.1038323 0.22587754 0.14024697 0.21484733 -0.110656984 -0.2360881 0.3549197 -0.34196147 -0.27903226 0.067366496 0.17460614 -0.12860219 0.21739422 -0.07641448 -0.047690537 -0.10632802 -0.07097528 -0.06370915 0.16904396 0.27934843 0.13110107 -0.13304345 -0.1843421 0.09065205 -0.0024976858 0.1538248 0.06951542 -0.09982394 -0.051789522 -0.26444104 -0.0700768 0.082130656 0.13300215 -0.015793027 -0.05590607 -0.24267301 0.0138898045 -0.21444559 0.030747332 -0.006231221 0.1582359 0.21277599 -0.054365877 -0.13967127 -0.23136762 -0.08601996 0.074694045 0.02574768 -0.15486322 0.09307637 -0.06763234 0.2453701 -0.13736925 0.03883419 0.1059228 0.023180444 -0.2752098 -0.0015876003 -0.09848805 -0.121884525 -0.11465325 -0.22589217 -0.24899842 -0.12528117 0.07255695 0.07945283 -0.15693618 -0.16996317 -0.0722853 -0.08990223 -0.06299903 -0.009447483 0.28558707 0.2037402 0.14891651 0.25759625 -0.012163415 0.21683158 0.052974243 -0.49066237 -0.21308856 0.24188395 0.12040189 -0.15704912 -0.3370075 0.02239623 0.22735947 -0.17216435 0.20340008 -0.20863429 0.1739095 -0.036581267 -0.17299138 0.049692474 -0.09167649 0.19978112 -0.09697464 -0.12535891 -0.05496096 -0.13859552 -0.3227557 0.03498419 -0.022703404 -0.1050331 -0.105877414 -0.01584794 -0.035583653 0.032255802 0.063716285 0.056996837 -0.06772838 -0.32659292 0.07417267 0.12241819 -0.24974024 0.13991775 -0.01934598 0.021912608 -0.026895687 -0.13232546 0.14451057 -0.054680698 0.036202338 -0.011021385 -0.004631562 0.10842106 0.018566623 -0.08805145 0.018962251 -0.04754527 0.0604214 -0.13708663 0.121262595 0.008588496 0.4287087 0.059286326 -0.16089736 0.051270574 0.049761593 0.04317065 -0.2258769 -0.0015203492 0.075756386 0.22003141 0.35826138 0.30290872 -0.06507545 -0.0035418766 0.07057097 0.19716641 -0.14830066 -0.10337037 -0.21678671 0.00513464 0.073620826 0.13314615 -0.07930742 0.035439365 -0.015128886 -0.28273866 -0.14632572 -0.07330434 -0.20221424 0.0020299912 0.16809449 0.011021146 0.12148674 -0.06063318 -0.2005786 0.1544514 0.0009785932 -0.011794547 0.2500988 0.23776636 0.48835313 -0.17128746 -0.1959466 0.02020362 -0.24609746 -0.19339189 0.23152284 -0.11482443 0.21408129 0.04430643 0.1664783 -0.33355638 0.009933563 -0.059628084 0.06527681 -0.09302012 0.07863882 -0.011637476 0.067609735 0.039795958 -0.022801153 0.159476 0.2590294 -0.062685125 -0.13813186 0.27790728 -0.003379936 -0.022933735 -0.20512122 0.21850307 -0.005748833 -0.17898151 0.09574201 0.029118795 0.3121401 -0.17743379 -0.14554729 -0.20675911 0.0733699 0.054570176 -0.07970434 0.026132725 -0.0970365 -0.2443778 -0.12699676 0.0073384997 0.13149977 0.19848484 -0.08471199 0.00086912606 0.09371969 -0.13688824 -0.18711026 -0.08691273 -0.22754046 0.023955695 -0.16473147 -0.029321572 0.13333113 0.01849922 0.21665198 -0.12467151 -0.08867702 -0.051490292 -0.08330402 -0.1670697 -0.21919467 0.09539718 0.02229662 -0.19642453 0.08739611 0.0013764127 -0.07441205 0.06260728 -0.21465129 0.11515998 -0.0134683885 -0.07683255 0.18101393 -0.35598975 -0.14506817 -0.042076815 -0.23838559 0.14026274 -0.22229244 0.35648373 -0.028074455 -0.14299959 -0.05073332 0.2768366 -0.081843376 -0.16986915 0.17546284 0.23106365 0.06746695 0.109657586 -0.3548542 -0.5029198 0.38522267 0.062462065 -0.066912994 0.4506873
lowering -0.07529628 -0.11177212 -0.08091482 0.17877524 -0.23257396 0.07060455 -0.03776435 -0.14809403 -0.061372597 0.33090255 -0.10448633 0.002886331 -0.19501309 -0.11597251 -0.37878644 0.35071352 0.04181997 0.038858198 -0.04713008 0.18146032 0.30390882 0.04607858 0.12987572 0.32842126 -0.19691035 -0.23190515 -0.050557036 0.27115095 0.11165081 0.054636054 0.100297794 -0.115504086 -0.13695644 0.15053114 0.15314561 -0.24802384 0.0014465926 0.25695202 0.09901783 -0.032880705 0.08732997 0.08774103 0.17759858 0.3323267 0.1055626 -0.14745742 -0.16265284 0.073599234 0.06592342 -0.04178846 0.12800708 0.04330697 0.06723894 0.007874066 -0.05319257 0.11112541 0.06119493 0.20894948 0.08524595 -0.047781806 0.015569823 0.074736275 -0.054723054 -0.1885613 0.18311088 -0.028364368 0.36696145 -0.23815003 -0.11934913 0.012775567 -0.056296863 -0.12035722 -0.1669606 0.007772458 -0.06480347 0.27824062 -0.15263268 0.29252848 0.13115779 0.3691671 0.0073462543 -0.3069217 -0.14311567 0.17130052 0.12976186 -0.12786438 0.3090635 -0.02751279 -0.012215065 -0.13488393 0.08299757 -0.08721437 -0.42910737 -0.37643397 0.25204808 0.011566142 -0.26845708 -0.113619536 -0.26205194 -0.020881211 0.028084427 0.167507 -0.045443732 0.1512429 0.13364878 0.10202118 0.2687266 -0.09135621 -0.15150519 0.015426893 0.039555527 0.25900406 0.2132592 -0.119273536 0.15059188 0.019791171 0.15591143 0.15018292 0.08445532 0.216534 0.06967869 0.23131524 0.115179375 -0.16144848 -0.16371655 -0.025664378 -0.06769745 -0.18855157 -0.26971224 0.1598795 -0.4096231 -0.006705162 -0.25943822 -0.02822136 0.044318847 0.062322944 0.11798393 -0.17866114 0.0239089 0.038535856 0.17445731 0.015478625 -0.037492614 0.22045015 0.19206135 0.049292423 -0.03194833 0.04610753 -0.029264685 -0.36335292 0.26682818 0.06882951 0.014680374 -0.060901593 -0.13863288 -0.106424086 0.09224571 0.07011923 -0.0023116146 0.09194381 0.21313615 0.287339 -0.24782395 -0.08632286 -0.006959304 -0.21524075 -0.024674607 0.19181874 -0.04584852 -0.044621825 0.16101146 -0.038939945 0.09126496 0.09306542 -0.10859966 0.2432951 0.12239868 0.3597265 -0.028327484 0.14334477 0.09036251 0.04415234 0.19214098 -0.41354585 -0.05966644 0.032630663 -0.20660761 -0.063503265 0.26119024 -0.174005 -0.1069804 -0.23248512 0.3357324 0.16951254 0.0773259 0.08060581 0.323412 -0.32688013 0.04671453 -0.07402428 -0.2236092 0.23091434 -0.022689775 0.32625985 0.07855058 0.23476927 0.17939012 -0.12489102 0.05231016 -0.1949825 0.091882385 -0.0053800507 -0.15601858 0.18965116 0.25506967 -0.02496806 0.08197872 0.34406492 0.13656802 -0.11924384 0.10446111 0.0018366241 -0.19083999 0.088855095 -0.16271557 0.102573186 0.06084905 -0.19189149 -0.02314969 0.059716653 0.1117286 0.15495524 0.03634939 -0.29214945 -0.11053443 -0.0035756584 -0.15349153 -0.052583274 -0.07106511 0.39565518 -0.17432496 -0.3134367 0.1688166 0.011058625 0.09313561 0.06771766 -0.06785916 0.012661229 -0.27520087 0.09172153 0.107273646 0.11218573 -0.09394254 0.065484576 -0.13483873 0.19827268 -0.15036653 0.1148058 0.26239437 -0.26937568 -0.043769352 0.019639617 0.12364092 0.08368096 0.1438066 -0.23629932 -0.07254083 0.14745268 0.08868142 -0.020042919 -0.080093846 -0.10984615 0.23435156 0.059163347 -0.04730837 -0.04717607 0.09990641 -0.015414019 -0.002231367 -0.22330427 -0.07919747 0.14795081 -0.36964995 0.14842398 0.06623406 -0.1717002 -0.21738733 0.026115553 0.03568407 -0.13040853 -0.19111079 -0.2045904 0.058213495 0.33705646 -0.1816394 -0.25854808 -0.09789393 0.15001418 0.13930775 -0.14370003
transportation 0.11255579 0.28715748 -0.14315245 -0.02633623 -0.13340324 0.11780164 0.010475165 -0.22482374 0.072950274 0.03162228 -0.07431203 -0.23638079 -0.115879744 -0.09883178 -0.55987567 -0.0701275 -0.09860842 -0.13866602 0.16228072 0.1894523 -0.008113689 0.073537245 -0.09638981 -0.056242775 -0.14331008 0.23583312 0.14494827 0.27755782 -0.0477765 -0.23450692 0.13079995 -0.2343174 -0.08818929 0.03540344 -0.07095935 0.1693049 -0.018316587 -0.29895195 0.05062973 -0.3807081 -0.19776964 0.15059681 0.5603579 0.1647974 -0.16083618 -0.07754169 0.010157268 0.04890244 0.09999552 -0.005579076 0.27654752 -0.043799967 -0.12944841 0.08547312 0.043204065 -0.21865267 0.043063976 0.1367766 -0.25442293 0.16265312 0.12690559 -0.022186328 -0.09060771 -0.12288427 0.27089828 0.038471658 -0.13271736 -0.04989049 -0.26093656 0.016200803 -0.27498516 -0.31109208 -0.02731411 0.07466737 0.086115465 0.5153974 -0.06961331 0.25110716 0.11006524 -0.013580532 -0.3001941 0.14258431 0.17941937 -0.2693505 0.08051617 -0.101191536 -0.12823004 -0.15734343 -0.24702835 -0.23301548 -0.06217135 0.033334434 -0.045810208 -0.19972584 0.22840367 0.06823026 0.44677493 -0.12154901 0.17736444 0.22255826 -0.30446595 -0.09060778 0.070861995 -0.01861067 -0.047909006 -0.27527225 0.10488616 -0.05819024 0.07061729 0.116360985 0.13232702 0.15684144 -0.23534653 -0.032698993 0.21246256 -0.10990739 0.060337752 -0.098306604 0.016376173 -0.05297505 0.19000559 -0.34700844 -0.13152246 -0.023476606 -0.067283474 0.07431298 -0.024649408 0.06888566 0.07440386 0.21125603 -0.07966618 -0.035139717 -0.14390202 0.05047006 -0.010613022 -0.044211894 -0.08643775 -0.08018065 -0.14799722 0.07855563 -0.19568472 0.039326567 0.12381552 -0.109255046 0.134298 0.058067873 0.11945299 0.10901887 -0.2586584 0.020647256 -0.11507393 0.010288942 -0.19419646 0.048222475 -0.14333192 -0.028073533 0.10077474 0.059983395 -0.012951841 0.035546575 0.3084543 0.015412015 -0.29535168 -0.18605316 -0.28360304 0.21970941 0.012185732 0.22575516 -0.031716205 0.13683413 -0.085127525 -0.2600053 0.15120737 0.01396265 -0.1499077 0.16645683 0.4544229 0.0675647 0.07581468 0.05573225 -0.18437561 0.16022405 0.37612626 0.086318485 -0.30291623 -0.031993162 -0.31535703 -0.06489144 0.16879667 0.08556962 -0.085422635 -0.21169928 -0.066246696 0.26308665 0.060205728 0.09138487 0.22564635 -0.102996916 0.16612919 -0.03400935 -0.11350193 0.08549341 -0.23491205 0.046799455 0.08296186 0.061224923 0.04415295 -0.10201879 0.1342492 -0.064189814 -0.08070763 -0.029066408 0.014095601 -0.16766377 0.10739679 -0.061854973 0.03341097 -0.009599114 0.016867464 0.06075412 0.014084203 -0.03412806 -0.25263944 -0.08916258 -0.031045936 0.0015818868 0.22995585 -0.17038117 -0.043573637 -0.06174132 0.028169017 0.102999344 0.15855218 0.122561984 0.2486605 -0.06352578 -0.40487885 -0.16476162 -0.12903133 0.3588505 -0.012464139 -0.006565981 0.078926474 0.1683954 0.21306154 -0.021672 0.10602009 -0.30034998 -0.2531197 -0.2880785 0.0636215 -0.018954558 -0.23565178 0.010543022 0.10104516 -0.032904163 -0.73835003 -0.2728095 0.07028745 -0.28262156 -0.39414617 0.05823041 0.1437294 -0.41965437 -0.18091713 -0.16916606 0.006292682 0.52688175 0.0002668726 0.12598796 -0.22766653 0.06239337 -0.10960887 -0.11664893 -0.06429942 -0.008127323 0.025214415 -0.05053031 -0.109109536 -0.04631873 -0.05156491 0.05252533 -0.16472279 0.2470165 0.017548412 0.09613011 -0.055384517 -0.004250191 0.30277142 -0.25757176 0.21277975 0.19668372 0.10381067 -0.037995785 -0.13923794 0.10938576 -0.1814126 -0.012271064 0.24371107 0.16168627
passing -0.17747553 0.22973938 -0.025419151 -0.29863992 0.4140292 0.10028933 0.039618 0.13348858 -0.10197537 0.3799595 -0.06259525 -0.043844245 0.12775654 0.1432154 -0.41858095 -0.0051105465 0.056752313 -0.17732933 -0.009217641 0.088281825 -0.13087346 -0.12592113 -0.12913805 0.23799841 -0.07415675 -0.27321965 -0.030745752 0.07253308 0.30130723 -0.13350815 -0.19500525 -0.20452954 -0.12435272 -0.074520096 -0.25367185 0.04398195 -0.17106324 -0.1376901 0.30031016 -0.06265592 0.2268175 0.3065475 0.11388552 -0.029526649 0.24759902 -0.05859148 0.059010115 -0.006534225 0.15453929 -0.24190165 0.21469772 -0.177431 -0.13763188 0.025338542 0.06975868 0.09245833 -0.0065945354 0.11341353 -0.12034177 -0.04180638 0.12319961 -0.16870064 -0.09400768 -0.10859427 0.5604579 -0.020744847 -0.2012693 0.18611896 0.30841142 -0.04523824 0.18334049 0.10014088 -0.056059666 0.19924572 0.30463958 0.017977012 0.22956099 0.029329563 -0.26863793 0.06304871 -0.3194183 -0.3147617 0.049320653 -0.21108733 -0.16164592 0.0906839 0.10423745 -0.1786124 -0.24713814 -0.15093619 -0.053480636 -0.07430144 -0.17096582 -0.26645622 0.14774244 0.11899475 0.28129938 0.14003041 0.00073820836 -0.16791666 -0.07258312 -0.015315487 -0.29487485 -0.3028422 -0.26738295 -0.1547927 0.19841737 -0.11758344 -0.450874 -0.11249574 -0.09965756 0.055866357 0.09086817 -0.061528455 0.38298872 -0.29114747 0.16600427 0.21648058 -0.13682674 0.08875874 0.04375962 -0.17699318 0.036858004 -0.1062344 -0.23355474 -0.111136556 -0.16683976 -0.3728741 -0.13489519 0.4071526 0.090021536 -0.26485226 -0.0651319 -0.018732376 0.21201889 0.18429685 -0.25542876 0.17675613 -0.003109537 0.175854 0.06153737 0.1936453 0.17934862 0.09168475 -0.11920143 -0.03271697 -0.03361073 -0.07836386 0.071504645 -0.12812091 0.060026944 0.09949108 -0.16645864 0.07668971 0.11468401 0.07231774 0.2090402 0.190909 0.1379498 -0.119447105 0.026635561 0.25760004 -0.043787513 0.27284458 -0.10883701 0.18572916 0.10159662 0.23563068 0.20949167 -0.11584697 -0.32555646 -0.085722044 0.14680965 0.022680638 -0.29444236 0.13031448 -0.17054151 0.34430513 0.34278733 -0.0020548205 0.1358981 0.4465089 0.079033956 0.14800632 -0.06315664 -0.1873529 -0.4843283 -0.16796814 0.013621828 0.11317698 0.14677987 0.048515305 0.00513565 -0.06840892 -0.11292967 -0.19916612 0.102204554 0.070388556 0.0072444025 -0.1788982 -0.09057658 0.31262866 -0.038585354 -0.0507828 -0.0014163386 -0.14193663 0.098357625 -0.31151366 -0.09188218 -0.25137672 0.053218607 -0.21666813 0.051750608 0.0036364603 -0.06807279 0.24627365 -0.038035896 0.06205397 0.31458917 0.16137591 0.27850983 0.106359646 0.13426465 0.09860626 -0.2970073 -0.11067698 0.2386558 -0.30104855 -0.0496791 -0.11136843 -0.26798284 0.15272172 -0.027703876 0.036957163 0.065290056 0.14563505 -0.5523233 0.1386652 -0.047129136 0.32463822 0.033800744 -0.24829657 0.0536792 -0.2378617 -0.0018884776 0.24546283 0.19900903 0.011848904 -0.32064098 -0.3499033 0.0954942 0.34659943 -0.16136265 0.15756312 0.20256177 0.16562341 0.018345851 -0.12661606 0.22029653 -0.14666298 -0.29229543 -0.06811046 0.2631022 -0.4906399 0.30765942 0.059363786 -0.07377721 0.2259968 0.24222466 0.09531791 -0.14468355 -0.054691896 -0.27443522 0.046643212 -0.1871526 0.4852249 0.17554052 -0.06480004 0.18238303 -0.0762537 0.10533485 0.21290644 -0.053317077 -0.10430835 0.1837644 -0.36132392 0.15569796 0.0982139 -0.08871014 0.036059625 0.43665662 -0.032844897 -0.22479449 0.27275977 -0.14654979 -0.23057377 0.018288942 -0.062310413 0.102304116 0.044991367
insertion 0.026123108 0.0007591413 -0.18379581 0.13796422 -0.25009677 -0.2168575 -0.27453315 -0.1317806 -0.16078797 -0.08251578 0.18680882 -0.34876773 -0.14144006 0.17975938 -0.4217954 0.40392354 -0.058019035 0.090644546 0.002714726 0.38511473 0.07457123 -0.035656605 0.07585065 -0.06271721 0.033163212 -0.1404606 -0.22235444 0.41077024 0.063228436 0.022884587 0.33910078 -0.29576027 -0.0857384 0.26814497 0.050090227 -0.036648426 0.032716755 0.27477542 0.14329764 -0.07754757 0.0146279065 0.111352 0.0062235813 0.018577537 -0.08563578 -0.15314923 0.13043842 0.20137867 -0.0050261314 -0.17804596 0.062629215 -0.26697806 -0.08253136 0.025381481 -0.02763629 0.1101115 0.26765734 0.19135663 -0.16477512 0.19833803 -0.06707411 -0.014170345 -0.20742998 -0.13991775 0.22661461 0.100882135 0.24166356 -0.053373963 -0.25945872 -0.1480947 0.26588538 -0.15083587 0.015078085 0.11801739 -0.29088634 0.3924634 -0.09942312 -0.031331178 -0.1292358 -0.09457632 -0.082304865 -0.06227107 -0.36477557 0.21598096 0.20795335 -0.18046741 0.06402722 0.080733396 -0.20057103 -0.35645398 0.14842595 -0.094757184 -0.068539314 -0.42197087 0.3000756 -0.10071284 -0.061013605 0.02053687 0.12005787 -0.27132532 0.23150302 0.27952567 0.20956269 0.020419313 0.113184236 -0.10348863 0.1988395 -0.09893607 -0.19048372 0.025690384 -0.05440429 0.07590005 -0.038569666 -0.04090137 -0.04165968 -0.06947624 0.046512816 -0.026107058 0.0026455356 0.010702345 -0.06744263 0.06778725 -0.30184966 0.3845268 -0.0965929 0.06437301 0.023830162 0.02905864 -0.17285042 -0.041680265 -0.294695 0.12588672 -0.032232143 0.25157335 -0.034179397 -0.0077105653 0.03906294 0.027713627 -0.07594901 -0.277573 0.10301146 0.003910614 -0.041998986 0.16403094 -0.31259137 0.17414942 0.032227688 0.13896954 -0.13496901 -0.22063437 0.020018008 -0.012628314 -0.29036167 -0.3776615 -0.09270643 0.016167775 0.13630907 -0.014518572 0.05605604 -0.0116440505 0.4893284 0.062158532 0.27114293 0.3181957 0.08797407 0.013110424 0.04596847 0.05176073 -0.029270737 -0.02922383 0.067501254 0.1560369 0.039533 0.11878877 -0.13196716 -0.09085472 0.14792155 0.19686045 0.11037793 -0.08139021 0.51956576 -0.0080897985 -0.124108024 -0.123849235 -0.118455194 -0.12189002 0.013345958 -0.1852191 0.11827763 -0.26611453 -0.050344005 0.11050259 0.4894235 -0.08438184 0.20692797 0.10320802 -0.17669436 0.012187051 0.059095953 -0.46236414 -0.33771917 0.25896934 -0.059162676 0.3171293 0.22252193 0.37408146 -0.052925397 -0.10600389 -0.02198112 -0.048132386 0.06901541 -0.11699273 0.23877133 -0.22209613 0.32551324 0.17383635 -0.18187384 0.020828895 0.15310138 -0.033413194 0.08805659 -0.029845536 -0.37365833 -0.1372806 0.08279825 0.016036993 0.2749412 -0.1993115 0.30471778 0.0194005 -0.07462067 0.05058503 -0.1947269 -0.027270295 -0.18892877 -0.15887801 -0.07389882 0.009319274 0.010233027 0.1984382 -0.3569913 -0.28601474 -0.39701423 -0.17827548 0.0068986155 -0.05569891 0.00908282 0.050980877 -0.20670342 -0.016694577 0.20976646 -0.12112744 0.11960088 -0.15492277 -0.10818182 -0.07231638 0.10524165 -0.056271974 0.5128891 -0.17530872 0.017321086 0.06403898 0.16613077 -0.31700647 0.0844427 0.10637487 -0.20183575 -0.108857036 -0.101310626 -0.1930877 0.12730001 -0.0010903166 0.16779456 -0.058930635 0.019052804 0.16736221 0.15578541 -0.112055965 -0.24752916 -0.0027023403 -0.12928241 0.21455294 -0.25659257 0.2867413 -0.15891173 -0.21546984 -0.010293662 0.05413842 0.16133064 0.11241986 -0.19285968 -0.027812924 0.34368134 0.08117316 -0.0021239016 -0.09764026 -0.009090253 -0.41650426 0.053825352 0.018080378
twist -0.040491626 0.0526783 -0.017500162 -0.13350444 -0.3190932 -0.18732725 0.038725257 0.28516623 -0.079716936 -0.24867623 -0.016380364 -0.006152861 -0.16104299 -0.17321587 -0.3700228 0.046594247 -0.19492944 -0.11684328 -0.11288504 0.17457926 -0.20282541 -0.10615003 0.15902248 0.23237373 0.040257767 0.15459561 -0.03132758 0.023411999 0.014696245 0.038209394 0.0065157483 -0.010210863 0.15097103 0.021470685 -0.31000608 -0.20144074 0.09034899 0.004166378 0.19283953 0.061115704 0.0700097 0.1685548 -0.037049536 -0.19743793 -0.06951344 -0.01760559 0.03897883 0.0790986 -0.07506538 0.09090479 -0.031460997 -0.096869975 0.049225044 -0.11195721 0.07310297 -0.17141016 -0.36889067 -0.02224417 -0.07963488 -0.15312015 -0.121819355 -0.12414859 0.15555377 0.32808632 0.19431114 -0.22584634 -0.10986729 -0.18498975 -0.1032965 -0.08796727 -0.03665501 -0.18332845 0.20451845 0.07289458 -0.11241041 -0.078147374 0.051227223 -0.22619745 0.15484981 -0.13252655 0.23999229 0.070376016 0.037166603 0.057566725 -0.14833267 0.06306791 0.07320037 -0.05536262 0.0073309233 -0.042455934 0.08749094 -0.12359402 0.15984645 -0.31073928 0.042925112 -0.09600813 -0.15270613 -0.07236728 0.046666507 0.08415359 -0.13851947 0.108792275 -0.0010004514 -0.03089533 -0.0059867995 -0.065525524 0.01244908 0.32849514 0.10911707 -0.32444772 0.06927214 -0.069647074 -0.03302214 -0.29360697 0.096451536 -0.13652639 0.055058908 0.10266033 -0.23694569 -0.028956803 0.18287647 0.040188238 0.30992997 0.03188167 -0.23724222 -0.01407703 -0.069927655 0.08100764 -0.24950126 0.23486716 0.117378525 0.016427733 0.099106066 -0.11558144 0.07610968 -0.2646575 -0.1103651 0.0546185 -0.26249424 -0.11215612 0.005114256 -0.09515838 0.2625681 0.091196425 0.1250914 -0.06931119 -0.00014411556 -0.18913041 0.01813116 -0.05376273 0.022076728 -0.18551247 -0.14011219 -0.13776146 0.19844095 -0.3303054 0.0872367 0.019430852 0.06257174 0.10475175 -0.10250861 0.041973773 -0.112948745 0.17316638 0.12790917 -0.044011477 0.10747067 0.006715852 0.07985314 0.102764316 -0.12641865 0.23931445 -0.09542739 -0.031989712 0.12877719 -0.17678039 0.105146825 -0.06962989 0.23728019 -0.096533135 -0.1616913 0.034121893 -0.12750606 -0.21136074 -0.015906766 -0.14920008 0.1320742 0.11355307 0.027507812 -0.2711086 0.1589844 -0.019432507 0.008478453 0.24450426 0.25460723 0.052221935 0.22831069 0.06687426 -0.17015874 -0.13143077 -0.111817285 -0.09639429 -0.05054823 0.30518225 0.004090646 0.18451054 0.043858238 0.032175466 0.271363 -0.035299454 0.1379902 -0.07853682 0.015595269 -0.15655828 -0.1543656 0.3472423 -0.15503974 -0.070286185 0.05500159 -0.13868132 -0.050424162 0.014222448 0.059392862 -0.037725598 0.010929606 0.14339326 0.15076254 -0.0067094634 0.32705253 -0.06358749 -0.08033345 0.12234639 -0.47722223 -0.0110497605 -0.10988872 0.050940383 -0.35830903 0.2073576 0.26320088 0.07583183 -0.18185863 0.03973094 -0.36453128 -0.14605755 0.059359767 0.21863435 0.124364525 -0.12920763 -0.07729541 0.14490153 0.05472001 0.051531196 -0.07508982 0.085493796 -0.0478615 -0.13303925 0.20870462 0.106009535 0.124392346 -0.018002 -0.22198595 -0.18315442 -0.03793014 -0.33969393 0.022613319 -0.035824906 -0.02474119 -0.13105685 -0.0014497347 0.07324248 0.20132983 -0.29039547 -0.02723567 0.24388409 -0.009989288 -0.147438 0.09560392 0.06000148 -0.2027843 -0.04015464 -0.00091177144 -0.021216284 -0.12537043 0.10156727 0.054972727 -0.10408669 -0.117968254 -0.07378955 0.02106468 -0.04738576 -0.11019575 0.015903914 0.08909088 0.03851173 -0.13920468 -0.04908219 0.20466484 -0.018775217 0.028348127 0.14777502
bending 0.0745478 -0.27361482 -0.07240775 -0.03126923 -0.45007518 -0.17290758 -0.24733669 0.087835565 -0.005421031 -0.14598773 -0.04091861 -0.1552293 -0.1510534 -0.1603083 -0.37262133 0.062155765 -0.046564545 0.024955448 -0.26734537 0.22930911 0.07590252 -0.06058753 -0.0347781 0.05320938 -0.06763584 -0.1940744 -0.05950639 0.10313818 -0.07947217 0.23359385 0.048386794 -0.123813525 0.30410826 -0.022160383 -0.22997142 -0.2821453 -0.2313975 -0.012310389 0.22179443 -0.090706944 -0.10533943 0.17963316 0.12838048 -0.021248702 0.018674307 0.17076468 0.03660545 0.048881985 0.14293669 0.083755255 -0.026213074 0.042578164 -0.34515744 -0.1548039 0.16654973 0.26328358 0.23655757 0.06998723 0.12849715 0.07895058 -0.0852209 -0.17073996 -0.036559198 0.12689741 0.015957218 -0.13588664 0.06427842 -0.23181222 0.17984164 -0.14236942 0.24987487 -0.042560756 -0.055911504 0.036810316 -0.153729 0.1861977 0.060545344 -0.11856112 -0.24803005 0.1507365 -0.17584476 -0.10378135 -0.24922767 0.116667815 0.31046054 0.15331613 0.2332947 0.03411391 0.14396809 -0.095010735 -0.13955222 -0.1450575 -0.17064701 -0.6582059 0.11373545 -0.21761191 -0.043892864 -0.004961325 0.09171089 -0.056956306 0.2794218 0.16790812 -0.00393474 -0.08174816 0.09579277 -0.03232003 0.07725712 -0.01290496 -0.35954776 -0.1340659 -0.24804577 -0.12160676 -0.09489707 -0.16508985 0.47039077 -0.35724077 0.021501703 0.1222623 -0.057707205 0.12051332 -0.09106929 -0.15342313 -0.035635315 -0.016265325 0.0018511125 -0.084230535 -0.0067509506 -0.14625323 -0.066312775 0.13928203 -0.21334219 0.007009336 -0.19035305 0.009835536 -0.19558793 0.035627928 0.11771392 -0.02677257 -0.09982292 -0.19163892 0.05921219 -0.041373506 0.19006447 -0.07164956 -0.08324803 -0.1245033 0.046995632 0.08990093 -0.1841445 -0.05405395 0.12062683 -0.17430659 -0.25577673 0.05881645 0.21123669 -0.010353229 0.008916356 -0.07952725 0.38552168 0.18094188 0.053359393 0.38037828 -0.25356692 0.032629758 0.05562665 -0.16938776 0.059925433 0.21100047 -0.012047225 0.104573086 -0.039629877 -0.03139139 -0.013794977 0.024024958 0.0063427584 -0.0701816 0.057060156 -0.07567631 0.3317366 0.16972657 0.09826966 0.045150872 -0.052117474 -0.14711829 -0.24432267 -0.15591161 -0.025059745 -0.1801908 0.013319893 0.041623134 0.20581485 0.09880856 0.03001606 0.2345211 -0.013336578 0.046534736 0.0053277686 -0.21563031 0.019991625 -0.19480892 0.041499406 0.10164575 -0.042789884 0.21778148 -0.015099749 0.103078365 -0.17521225 -0.073083885 0.053691395 0.05932889 0.21641459 -0.19378622 0.42240542 -0.1517508 0.16720563 0.45108277 -0.00579015 -0.10500232 0.024213053 -0.07678572 0.021258771 0.15817179 -0.21505241 -0.01058724 0.057746567 0.1634889 -0.028971886 -0.099171445 -0.206419 0.021045398 -0.13086551 0.08526582 -0.22347263 -0.20260519 -0.25751865 -0.10020013 -0.1439652 0.01288666 -0.21467607 0.17242649 -0.36826468 -0.08311612 -0.026767476 -0.24246252 -0.04400029 0.13673376 0.043726966 -0.000758686 0.048522346 0.41456357 0.06755047 -0.11839581 -0.22496931 0.084569484 -0.0060467618 -0.01363778 0.14801575 0.0038757382 0.35635978 -0.012111039 -0.06268066 -0.0377098 0.008788209 -0.053089432 0.14967361 -0.13322303 -0.16266859 -0.08546489 -0.002187131 -0.2364524 0.029385444 -0.15900862 0.1522491 -0.032475792 -0.014290021 -0.20866026 0.27681547 -0.026786301 -0.034875657 -0.26855406 0.22589765 0.22628872 -0.29094863 0.06643257 0.024449695 -0.012199145 -0.0968808 0.01971454 0.044177927 -0.2537655 -0.041355688 -0.069875166 -0.048894696 0.20002787 0.07299693 -0.18584786 0.32496843 -0.13276811 0.03826904 0.15588537
throw -0.12193907 0.274599 0.11308048 0.1322029 -0.41294298 0.12581733 0.037346307 0.036413938 0.31589717 0.13271464 -0.087309666 -0.5403956 -0.064382985 -0.07596121 -0.47566655 0.14419821 -0.19573073 -0.3182868 0.08299403 0.29010773 -0.3789633 0.13167083 0.10344649 0.28723538 -0.07652085 0.026309649 0.06191333 0.051285442 0.053628232 -0.10274216 0.18769506 0.03471718 0.22256133 -0.05968292 -0.28731954 0.31166267 0.0082199285 -0.25373688 -0.21641071 -0.15494609 0.043133073 0.19935085 -0.045786448 -0.18964142 0.20418525 0.15144533 -0.13202833 0.30700037 0.2647755 0.39271632 0.025291799 -0.15166484 -0.08522727 -0.6573585 -0.07805505 -0.31455326 -0.0076509495 -0.11549725 -0.38746318 -0.26244858 0.014012325 0.4898077 -0.28456873 0.67869484 -0.11685476 -0.11608308 0.16067229 0.4176873 0.19928117 -0.14201166 -0.06301427 0.24274606 -0.15113121 -0.45736295 0.3421731 0.30795527 0.13680162 -0.02830793 -0.4245391 0.5315444 0.14636552 -0.30588108 -0.13397111 -0.67052 0.16993684 0.20263875 0.49251652 -0.40853748 -0.12103589 -0.06360337 -0.11927005 -0.14523397 0.29578993 0.47719854 -0.024340723 0.12366895 -0.25098872 0.14396098 -0.11459535 0.3101885 0.07402621 -0.056824557 0.08046592 -0.45153028 -0.026552087 -0.159952 0.13446036 -0.09508318 -0.20454897 -0.049770825 0.041193392 -0.13325895 0.04188814 0.16935322 -0.031488463 -0.34687158 0.018646497 -0.043434016 0.23273145 -0.19695991 0.25915694 0.21856779 0.78571206 -0.27778837 -0.07538244 0.2298868 0.037087116 0.39500797 -0.37898105 0.2344579 -0.040845405 -0.15884289 -0.07864721 -0.06833563 -0.13903207 -0.1972414 -0.09855647 -0.038517516 -0.1778842 -0.21628612 0.09673565 0.1279785 0.25069606 0.20649743 0.032744315 -0.068347804 0.017077016 -0.70555866 0.28318566 0.34944966 -0.12197925 0.12284215 -0.07737331 0.48420322 0.22691844 0.14143912 -0.077754974 0.09808499 -0.20525631 -0.15451117 -0.17599392 -0.21523274 -0.5676392 -0.23341753 0.3667237 0.1339368 0.25418025 0.062136613 -0.24441664 0.21018822 -0.16379282 -0.10293106 0.62763685 -0.31054625 -0.0787062 0.30715406 -0.019106785 -0.45503628 0.15656537 0.29186547 0.10676513 0.081646666 -0.1321315 0.1811112 0.27010712 -0.57598495 -0.07035176 -0.31708091 0.17725305 0.21179879 0.28567946 -0.29582623 -0.43745303 0.06373539 0.42458108 0.05209025 0.1138469 0.3068109 -0.051464 -0.4201871 0.2491656 0.1224848 -0.4895497 0.54888326 -0.4503672 -0.015794346 0.5326538 -0.2065018 0.06920722 -0.50070435 0.1691387 -0.24238102 0.034606762 0.28445518 -0.34530124 0.0960926 -0.02022465 0.1514108 0.09472982 -0.36937785 -0.20045708 0.07238896 0.43664098 0.11785945 0.4001781 0.2058821 0.32714888 0.29505923 -0.09586033 -0.27614185 -0.023873623 -0.27745137 -0.5311582 -0.46845824 -0.05228985 -0.37800005 0.056838285 0.48785448 0.08522443 0.6430466 0.59079605 -0.2187017 0.4553413 -0.37907353 -0.12777628 0.49050516 0.22480337 -0.632066 -0.099625275 -0.12455149 -0.22802866 -0.211549 -0.3610988 0.18835409 -0.10172219 -0.32680964 0.20254329 0.31868252 0.49492928 -0.012570114 -0.30741295 0.026269132 0.19219618 -0.0053285495 0.5723903 0.32151446 0.28698373 0.12153788 -0.25820234 -0.16593936 0.122118615 0.34214604 0.0065890914 0.22823203 0.10243447 0.09744797 0.08688277 -0.16767035 -0.13817115 -0.5006549 -0.06919208 -0.03184862 0.08056325 -0.073032 -0.16139846 -0.1023558 -0.05294015 0.33603966 -0.16748413 -0.23070967 -0.30308345 -0.11661612 0.09847249 -0.22642669 0.06176718 -0.45695564 0.15763777 0.32220966 -0.17369707 0.11198081
transplant 0.036280416 -0.008034143 -0.035249136 0.03551516 -0.2545191 0.17120743 -0.13291 0.20809765 0.2686205 0.047829103 -0.39849165 0.16595179 0.100415714 0.3669292 -0.43301252 0.4199277 0.38639227 -0.32252464 0.1506564 0.078995444 -0.07413583 0.14212851 0.31712568 -0.19711094 -0.19691354 0.0692537 -0.08365759 -0.04384022 -0.06520427 0.050908823 0.46959326 -0.14143221 0.031794704 0.07903437 -0.1682102 0.094041914 0.006491133 -0.3510379 -0.05886279 -0.283872 0.3258408 0.31833667 -0.24323973 0.17826657 0.04747676 -0.27260613 0.09823124 0.18209168 0.18161435 -0.5610306 -0.42833722 -0.3041735 0.14054653 -0.25040334 -0.36982244 -0.10501365 -0.0278394 0.09332767 0.042517956 0.099882804 0.16751851 0.14260021 -0.32010525 -0.0058400594 -0.094231784 0.036984112 -0.037504185 0.37224558 -0.3295881 -0.118881375 -0.15467863 0.091695644 -0.037156936 0.123200804 0.16842885 0.23052065 -0.10969352 0.1723407 -0.30220217 -0.24148019 0.06596522 0.18024836 -0.38110644 0.25779408 -0.0091773905 0.023945875 -0.06646211 0.19763824 -0.19041069 0.15745983 0.15955614 -0.1636407 -0.080387294 0.11814397 0.11606538 -0.3421659 0.327863 0.0120654395 -0.22205709 -0.16920975 0.27418315 -0.053730205 -0.25538418 0.054871395 0.1876169 0.0036315254 0.1633647 -0.04466769 -0.3055287 -0.34422415 -0.4472442 -0.17432879 0.15402079 -0.09107333 -0.21540959 -0.08795854 0.21032043 0.15063156 -0.24464656 0.21830665 0.2738064 -0.03770278 -0.02754721 0.19351889 0.038219124 -0.03753387 0.07823691 -0.13402997 -0.24773046 -0.21540904 0.059286516 -0.030175364 -0.14540894 0.3441032 -0.24942866 -0.1961955 -0.07157356 -0.14614317 -0.33948317 -0.4457729 -0.17783278 0.30824903 0.2483007 -0.041306213 0.2136953 0.20674652 0.17709172 0.08643429 -0.28527036 -0.05681042 -0.08980841 -0.06688139 0.27214703 0.038080975 -0.22708854 -0.07131626 -0.002121168 0.18017384 0.16917314 -0.27040312 0.27621505 -0.11165349 0.40147546 -0.05959682 0.42071155 0.27603936 0.25054765 0.25556308 0.68911535 -0.16046503 0.26907533 0.0751368 -0.093012616 0.20732772 -0.28075403 -0.06424613 0.13600025 -0.0730354 -0.1958163 0.2134237 -0.10787864 -0.32596713 -0.08480633 -0.14161856 -0.11451073 -0.11526127 0.36099777 0.19223383 -0.18124181 -0.075752996 -0.20049912 -0.32629457 0.38792905 0.07537559 0.38683382 0.2470244 0.2815657 -0.08226893 -0.15429015 -0.2158128 -0.33441344 0.14860032 0.31279153 0.046203986 0.43364814 0.13098057 -0.005746241 -0.0055416604 -0.09083919 -0.45391247 -0.30562422 0.18627436 0.32910025 -0.18791275 0.2893282 -0.027086185 -0.07726006 0.18980704 0.4140931 -0.012199632 -0.12935011 -0.1781687 -0.26891848 -0.04908387 -0.18873587 -0.03681812 0.2886154 -0.18717186 -0.09013292 -0.028736522 0.3683029 0.23041464 -0.02158119 0.002377104 -0.5828655 -0.4244668 -0.19007066 0.33792135 -0.0035251582 0.25889447 -0.047650084 -0.27318254 -0.028445674 -0.0515957 -0.14190102 -0.14656185 -0.054976873 -0.2009621 -0.33450317 -0.122678034 0.14354353 -0.15601546 0.22892891 0.14626385 0.26934218 0.3059963 -0.19401094 0.1396052 0.11104883 -0.56097555 -0.08874427 -0.03756832 -0.07131597 -0.005050102 -0.22531594 0.04812646 0.15046334 0.17570178 -0.21551964 -0.039945822 0.06774374 -0.10634868 0.058937054 0.2856861 0.017529396 -0.13125192 -0.28037605 0.08448292 -0.41096425 0.06640478 -0.0005708931 0.10895722 -0.16718124 -0.18596901 0.29371417 -0.14398418 0.04847461 0.13131823 0.38466492 -0.14247058 -0.26521832 -0.164618 -0.28092313 0.038280297 0.4077424 -0.30762404 0.23477066 0.18603472 0.44306836 0.06861049
zionism 0.15188253 -0.09286194 0.13159351 -0.18237056 0.12279553 0.19139658 0.03206876 0.10267652 -0.23014289 0.21667463 0.17175291 0.05405513 0.0045892545 -0.13678195 -0.42583305 0.47389472 0.035525832 0.34350637 -0.008337939 0.20981905 -0.14503546 0.0030669947 -0.19439562 0.066089004 0.003985035 0.49416485 -0.17968084 0.05909689 -0.027149769 -0.41033623 0.26484534 -0.08086006 -0.47673488 -0.11133433 -0.205486 -0.099838465 0.10220437 0.37456757 0.21720208 -0.01806795 0.04097827 -0.09292501 0.027238427 0.1892334 0.039902188 0.040043935 -0.10387357 0.07767674 -0.09998669 -0.056137286 -0.17573774 0.118132845 0.47211087 -0.27543566 0.37110895 0.23543923 0.033758298 -0.23442052 0.007748078 -0.24301235 0.058076162 -0.3791716 0.0051204204 -0.03718391 0.45081186 -0.15034269 0.30946815 0.19033928 -0.1573942 -0.24569267 0.09997922 -0.19752178 -0.27095515 0.29633725 0.027000502 -0.087320656 -0.18349732 0.12665209 0.020718897 -0.0056911753 -0.21183363 -0.04504364 0.07233925 0.018412482 0.49430555 0.0073858607 -0.22198865 0.22343402 -0.08539911 -0.2197829 0.030375397 0.12178623 0.0406703 -0.20989348 0.07107392 -0.4421337 0.037861917 0.19011828 0.115789115 0.23526892 0.022502169 0.27459604 0.10434737 -0.45273298 -0.2436997 0.0083256215 -0.015841141 -0.13095532 -0.35171935 0.11655609 0.10366414 0.16606054 0.059183568 -0.12342682 0.018838016 -0.19918093 0.2359583 0.2462924 -0.10386454 0.4001317 0.20199068 -0.20139241 0.0841198 -0.107902385 -0.3263253 -0.21149956 -0.09718868 -0.29041642 0.0039465427 0.04395007 0.016446672 -0.1535515 -0.29181662 0.029977214 0.047917217 -0.1879957 0.42455184 0.38000485 -0.3598329 0.0421966 0.22394966 0.011750247 0.22550064 -0.02018905 0.36227074 0.1383859 0.3819005 -0.15846768 -0.23748921 0.21149506 0.1830068 -0.095871426 -0.27592537 -0.3912909 0.031304337 -0.21284491 0.18064797 0.40014392 0.013514544 -0.14408466 -0.030684432 -0.26488575 0.16944596 0.08749613 -0.3426531 -0.0069425264 0.13703635 0.34184265 0.43266782 -0.09275654 0.37183034 -0.09566444 -0.15890738 -0.0057151555 -0.28195038 0.007680952 -0.04165357 -0.30516222 0.0049412795 -0.038447984 -0.19504504 -0.5224667 -0.13209864 -0.09392841 -0.014978601 -0.2397436 0.07478308 0.021462502 0.2598385 -0.05708316 -0.04008442 0.053801216 0.44057474 0.083633415 -0.18997239 0.28889206 0.16000502 -0.24323712 0.3300694 -0.2180047 0.30177537 -0.06483481 -0.24938358 -0.41706008 -0.104855716 -0.10893352 0.17628412 0.3137421 0.22541311 -0.18722923 0.0442931 -0.1375728 0.23744878 0.03298706 0.011291545 0.13151835 0.16753012 0.15656771 -0.2125741 0.27103582 0.5624914 0.10858205 0.06773945 0.33203605 -0.08031962 0.13807732 -0.25183007 0.42383605 -0.040392514 -0.16197973 0.154291 0.22947069 -0.07578001 0.010749104 -0.4169014 -0.2928312 -0.28964362 -0.007877809 -0.43144938 -0.16020833 0.11712911 -0.06606479 0.08816807 0.0411989 0.26706165 0.07509517 0.096956015 -0.029243331 0.25561458 -0.14098236 -0.23792997 -0.121263884 0.26368788 -0.083896026 -0.13229375 -0.038234442 0.0858814 -0.24970183 0.22378097 0.11115265 0.12311455 0.05610644 -0.19760168 -0.04101996 -0.4612217 0.22566393 0.18864577 -0.06261411 -0.10960342 0.0076366193 -0.017432382 0.20069712 -0.038231786 0.064943716 0.14208533 -0.18800108 0.09443582 0.07113764 -0.09585812 -0.06813945 -0.28206295 0.20469856 0.040165465 0.113095365 0.042998012 -0.03812099 -0.15064767 0.23845592 0.061368376 -0.62285227 -0.1863317 -0.12363184 -0.18398793 0.25822398 -0.37648892 -0.38147664 0.32164514 0.5155805 -0.2936517 0.20494473
recoil 0.08435639 0.047650855 -0.20821859 0.06570946 -0.23378749 -0.15147081 -0.10723352 0.24338293 -0.12527198 -0.009883806 0.30847332 -0.32623538 -0.101207905 0.003402306 -0.5702913 0.15302551 -0.32646632 0.00020081643 -0.08459483 0.2762766 0.23641232 -0.052502252 0.0061103203 0.62926 -0.070294075 0.12618107 0.008323147 -0.16254248 -0.26542443 0.064281285 0.27577913 0.054548007 0.47004172 0.045971304 0.1992792 -0.100098684 0.19840321 0.076060794 0.25122255 -0.18509631 0.14447956 0.3604483 0.367205 -0.16694155 -0.026479771 -0.105436556 0.029991262 -0.018773746 0.08699221 0.056073252 -0.09180871 0.019688956 0.20645526 -0.29758185 0.5098011 0.15821719 -0.25370786 0.07874266 -0.12836622 -0.05409752 0.39029923 0.27937627 0.05484852 0.08033359 -0.29985192 -0.15900555 -0.03584844 0.073969334 -0.33198988 -0.2656589 0.3562647 -0.06724299 -0.026104754 0.16057812 0.014793731 0.26354182 0.066978104 -0.108681716 0.27222723 0.052720353 -0.011172526 0.07098331 0.18127961 -0.019359147 0.106943704 0.1966993 -0.027046744 -0.0967017 0.15661412 0.1828426 0.1560806 0.110098235 -0.23984407 -0.55639845 0.12232822 -0.34694156 -0.24147372 0.27030018 0.08077617 -0.28412646 0.015762076 0.341411 0.38765657 -0.18465458 -0.117517345 0.12343794 0.051501043 -0.024665557 0.08727555 -0.076395765 0.31225833 -0.08876353 0.2774839 0.16574408 -0.08142056 0.28595534 0.10879605 0.19303772 0.18503812 0.2414919 0.13264653 -0.09498767 0.26016408 0.20697455 -0.32490626 -0.2603168 0.09079063 -0.24985181 -0.3179389 0.24857374 -0.129061 0.0007623421 0.073242575 0.017403256 0.0603727 0.08987219 -0.02883326 -0.37039682 -0.17907524 -0.24169415 0.46484575 0.22369626 -0.071303934 -0.0081703905 -0.115349405 -0.23413603 0.15697531 0.042509973 -0.1505095 0.15904075 0.28918386 0.024919325 0.07455121 -0.06861109 0.5279071 0.37856904 -0.124244414 -0.03882724 0.2621123 0.16943134 0.37206522 0.4159238 -0.5313516 -0.18251295 0.37209013 -0.14175326 -0.004370255 0.3880492 0.09750254 0.51772946 0.24346966 -0.07222669 -0.068177976 -0.13821241 0.042545922 -0.17215143 -0.0780575 0.26131952 0.1535232 0.036684327 -0.24289282 0.16104499 0.105764255 -0.1988802 -0.08973307 -0.25349516 -0.14068179 -0.16998854 0.32519078 -0.34373495 0.222646 0.030825848 0.34016895 0.112031914 -0.10341894 -0.08063267 0.26197323 -0.152422 -0.07809895 -0.16873126 -0.20506965 -0.2171634 0.48059863 0.18732296 -0.2108668 0.01785883 -0.16963165 0.07984379 0.1706195 -0.02109125 0.19631407 -0.2902568 0.3412738 -0.33842605 -0.074862964 0.21727873 0.034262974 0.1734733 -0.16283241 -0.21081413 -0.07278014 0.10094874 -0.26602337 -0.11054339 0.34630972 -0.3316886 -0.03334681 -0.041166484 0.064980425 -0.17353481 0.17598261 -0.30515748 -0.1971574 0.100804806 -0.2886524 -0.03711709 -0.536143 0.15608832 -0.034955226 0.30643797 -0.18859316 -0.24305245 0.15878335 -0.44077215 -0.12883943 0.16691265 0.23253423 0.18717095 -0.10663365 0.31629714 0.00077831984 -0.14342044 -0.1762358 0.0045877276 -0.10983234 0.08240017 -0.044924457 -0.12919945 0.15858616 -0.089776956 -0.2236002 -0.100131854 0.40976983 -0.4132071 -0.15040661 -0.17094073 -0.18521145 -0.1503928 0.1258814 -0.09927864 0.08169103 -0.253902 0.45752937 -0.030237628 0.13097447 -0.18256955 0.10772673 0.065044776 -0.24035266 -0.31014702 0.16336188 0.2290694 0.30157092 -0.06842116 -0.24930565 -0.21981749 0.03852227 -0.30869654 -0.06893716 -0.06744063 -0.028647808 -0.11489861 0.28579637 -0.09213994 -0.21733536 -0.14244519 -0.024862919 -0.17314047 -0.029810878 0.536657
scherzo -0.101805866 -0.08357799 -0.3046124 0.2931774 0.11746427 -0.24835946 -0.020936895 0.11054307 0.10542534 -0.13374464 0.38749552 -0.31566986 -0.1819628 -0.02022245 -0.5039938 0.09678718 -0.22323552 0.24235402 -0.05057931 0.5705977 -0.44253018 0.19585699 0.7384803 0.042114265 0.28400704 -0.29318935 0.51639175 -0.020002948 -0.4739434 0.12742421 0.29815045 -0.1872786 0.013798929 0.3342647 -0.15680683 -0.20469849 -0.2631216 0.056631573 0.24113196 0.22701156 0.0008596471 0.15955551 -0.437302 0.12663321 -0.6778652 -0.025378317 -0.037790105 0.201386 0.10700964 0.0050214045 0.40039575 0.107888736 -0.35093272 -0.27810508 0.1348764 -0.010526327 -0.4110355 -0.70723003 -0.3777165 0.03586944 -0.015905008 -0.31538704 -0.11447301 -0.11708974 -0.011441304 -0.5210183 -0.29313597 -0.48294565 0.12746426 -0.5575725 0.11467443 0.23042354 0.090447806 0.21962635 0.13740045 -0.14259619 -0.31133687 -0.03289772 0.058180045 -0.30204678 -0.41759327 0.1476026 -0.43368036 -0.0875142 0.06328108 -0.6087104 -0.09836343 -0.3986314 0.47002578 0.4084918 -0.39726958 0.10435615 0.046477266 -0.010258726 0.2270603 -0.44667906 0.12668398 0.12144983 -0.1324624 0.5785147 0.023269134 -0.43306667 0.063006334 0.026827762 0.33904758 -0.09575978 0.4629893 0.5407524 -0.10019742 -0.18588139 -0.061431773 -0.35685387 -0.38937935 -0.16448106 -0.1633473 -0.0106948055 0.2689981 -0.05388925 -0.098871455 -0.06554821 0.21830155 0.30359405 -0.060954258 0.41900575 -0.6243425 -0.13641179 0.09337721 0.14454542 0.027150612 0.25844842 -0.21033895 -0.043902516 -0.2571478 0.1903215 0.21577136 -0.2080868 0.12790346 0.09335503 -0.8362131 0.23735544 0.15918161 0.037383895 -0.6355152 0.086163305 -0.36435777 -0.2115493 0.40596378 0.029254466 -0.34648877 0.11183208 0.32419065 -0.120398164 0.6268929 -0.19409984 0.45205304 0.076047234 -0.13503705 0.040789478 0.55474555 -0.041268025 -0.33198366 0.11778007 0.5222923 0.03102784 -0.23070948 0.52881765 -0.24488798 -0.09316875 0.30493355 -0.39543626 -0.0468685 -0.3275997 -0.07707554 -0.049922135 -0.22759832 0.07200273 -0.09137524 0.29870373 0.7022455 0.12345468 0.2778582 -0.29411274 -0.09400746 -0.28215614 -0.24532588 -0.09727573 0.7777787 -0.1382713 0.17876907 -0.15004723 0.0029911199 -0.037391126 0.20203103 0.48966986 -0.28638688 0.18783645 -0.41487002 0.5801077 0.27129808 0.045110587 -0.31017315 0.07225944 -0.057689425 0.121602245 -0.096483 -0.22389318 -0.19339472 0.009775003 -0.019986507 -0.43771493 0.11554873 0.61855555 -0.20687072 -0.43281618 -0.16666524 -0.33475894 0.54779726 0.005163846 -0.12639067 0.44820255 0.27016065 0.18581319 0.28430474 -0.20291688 0.22013889 -0.076131366 0.3730073 -0.21521527 0.2971228 -0.00017439041 0.3860425 0.2970302 -0.16659378 0.15028894 -0.24050055 0.54091376 -0.057354122 -0.08164886 -0.11243869 -0.1476534 -0.059662573 0.11107121 -0.63456035 -0.60012394 -0.061424658 0.08435553 -0.19398628 0.031437136 -0.04086768 0.12561958 -0.106247716 0.075753234 -0.43529132 0.047461014 -0.20765871 -0.07348496 -0.36212885 -0.11138204 0.09433347 -0.05857522 -0.5262228 0.08028379 -0.2572075 -0.5085244 -0.1322004 -0.06163218 -0.31380507 -0.022871329 -0.22527312 0.03676237 -0.28264835 -0.3302307 -0.27671528 0.3339656 0.15137467 0.090551734 0.49025896 -0.26492545 -0.271395 -0.15492167 0.3053611 -0.19200103 -0.16500154 0.39836532 0.020078009 0.019941425 -0.15632367 0.50597626 0.20429115 -0.1476233 0.06343157 -0.12831241 0.26645955 -0.018563803 0.26322582 -0.5178353 0.3753158 0.103298254 0.053785443 0.18668467
