14 300
sport -0.19601512 0.36784828 0.22134991 -0.02588257 -0.06593127 -0.030115565 0.074078396 -0.14850034 -0.037298467 0.18883775 0.026695056 -0.080907546 0.0028757576 -0.025760356 -0.3424936 -0.19862418 -0.22404432 0.1750703 0.023391346 0.04023976 0.02440507 0.25583097 0.063638344 0.13566509 -0.25469348 0.14090742 0.027631244 -0.08520983 -0.09456499 -0.17049469 -0.027073547 -0.2691552 0.15203898 -0.1293982 -0.12879722 -0.013512996 -0.34090167 -0.104413144 -0.016929252 -0.007197599 0.23557602 0.28909948 0.314742 -0.16569306 0.05443421 -0.101963475 -0.10842878 -0.2133594 -0.19372648 0.054178033 0.36819267 0.0019089748 0.29894584 -0.4394082 0.34890214 -0.1141892 -0.06855029 0.101051904 -0.58280045 0.08123478 0.22836219 0.27584034 -0.15152267 0.031287245 -0.21485656 0.29697594 -0.02873134 -0.1925004 0.009177126 0.004779139 0.14334987 0.078662276 -0.12982805 0.048238657 0.4086242 0.24892864 0.10297774 0.10026044 -0.28610915 -0.18706109 -0.43893418 -0.14152141 0.047773544 0.08801489 -0.0676505 -0.01954133 0.21442564 -0.16401632 0.010746291 0.15996474 -0.09282607 0.26697224 -0.10555084 0.07262196 0.30964133 0.26832166 0.18454358 0.3368607 0.053571057 0.40239504 0.06284923 0.0820943 0.22546919 -0.08051948 -0.09892465 -0.04478184 -0.07088761 -0.100231424 -0.25894293 -0.25210488 0.1535755 -0.093844675 -0.07085302 -0.34230417 0.17495698 -0.22968839 -0.05109065 -0.1555042 -0.32929483 0.12718043 0.10944357 0.045302805 0.0031772212 0.2599687 -0.085818745 0.23334002 0.26569974 0.13823518 0.050692797 0.049582604 -0.008540415 0.25125736 0.13129453 0.15614197 -0.035447493 -0.0356243 -0.18498051 0.38147318 -0.037042722 -0.18157138 0.07322535 0.012109828 -0.14079598 -0.09612347 0.17241336 0.018729245 0.01509097 0.03319289 -0.16018468 0.13097478 -0.24624063 0.025891652 -0.03152102 0.12026406 -0.015400901 0.034386106 -0.07056855 0.14168411 -0.046953835 -0.06183121 -0.33606103 -0.05794114 -0.1698493 -0.11131153 0.099837154 -0.0070241946 0.2632778 -0.06288434 -0.1377121 0.11545186 -0.26023254 -0.24958245 0.2805198 0.22658958 0.109789036 0.44809398 0.27684206 -0.11433487 -0.0030871932 0.13000865 -0.17900828 -0.0709566 0.034838654 0.074479856 0.009488343 -0.17799485 -0.18313287 0.0662405 0.072647154 -0.046381794 -0.1669908 -0.2174367 -0.19616856 0.21953607 -0.14772059 0.3165364 -0.1835251 0.101571545 0.39227885 -0.0068961536 0.011280607 0.027841078 0.100880094 0.43614408 -0.028690415 -0.11247274 0.015399131 0.22268979 0.13626237 -0.12507825 0.23862214 0.08817012 0.022095526 0.020108387 0.122378446 0.21661878 -0.29770252 0.25770223 0.23270224 -0.008447794 0.007317473 0.058281858 0.0059963507 0.114182435 -0.061030287 0.046842452 0.03158263 0.18490304 -0.08579321 -0.22976063 -0.13965651 -0.36964676 0.14434908 -0.05153002 -0.14452523 -0.22477953 -0.14944836 0.41673508 -0.19626758 0.27101701 0.055105798 0.11931899 -0.20523727 0.17532352 0.103599206 -0.007639949 0.14571163 -0.10636278 0.09327037 -0.12587723 0.04159944 -0.20280217 -0.28434697 -0.30101967 -0.017553257 -0.52310157 -0.19863671 0.094233245 -0.029506853 -0.13459346 -0.09423124 0.13726722 -0.19382277 0.045145467 0.031304907 -0.0716347 -0.02862861 -0.008188884 0.28801766 -0.06732546 -0.12631026 -0.2557174 -0.2613178 -0.20694329 -0.057344396 -0.15840879 -0.27111438 0.11897522 0.052676562 -0.038759522 0.055123217 0.030520318 0.0912895 0.03923809 -0.002859566 -0.1418834 -0.16339356 0.47036624 -0.2608434 0.39151353 0.054035183 -0.40728092 0.2558305 0.12072978 -0.34552854 -0.28337452 0.20164926 0.111711465 0.19514635 0.21877688
football -0.21103097 0.5806023 -0.30112037 0.18155785 0.2669114 0.17418101 -0.012460902 -0.14026408 -0.003577523 0.074093744 0.23180032 -0.33095232 0.26055875 0.15798712 -0.2847862 -0.1510597 0.28511932 0.19863208 -0.16345903 -0.07206469 -0.15702195 -0.06001208 0.09472913 0.018224327 -0.4049799 0.36445695 0.122199684 -0.063637316 0.10968511 -0.17600404 -0.11090872 -0.06272991 0.47602016 0.1153231 -0.0984453 -0.05845915 -0.09192318 -0.49082953 0.027531814 0.12487411 0.3695634 -0.052190315 0.07990895 -0.09232275 0.05345288 -0.112199284 -0.017436245 -0.6485127 -0.05406139 0.21546012 0.23537287 -0.006098283 -0.034784663 -0.18375655 0.34733093 -0.35396007 0.03588114 -0.18537228 -0.6083803 0.23681195 0.5039538 -0.124392465 -0.14918466 -0.12430507 -0.1992397 0.25323793 -0.023961568 -0.32664606 0.080855906 -0.18412225 0.21729979 0.2631001 -0.36692366 -0.30379328 0.40845796 0.35037234 0.10762976 0.3379507 -0.5295202 -0.027256433 -0.23856197 -0.025898812 -0.24637565 0.063179195 1.024164 0.032390945 -0.44966766 -0.47038367 -0.03088583 0.26486024 0.061238952 0.4321555 0.040794272 -0.11841804 0.44277516 -0.21232928 0.050019365 0.086571366 -0.097527176 0.07545447 0.052992065 -0.08758525 -0.075300425 -0.14733924 0.03197326 0.10993267 -0.0668911 0.14518923 -0.057968136 -0.45816967 -0.12237339 -0.29697382 -0.04041012 -0.17198257 -0.010617642 -0.52017534 0.094060265 -0.05146667 0.095704645 -0.14916535 0.1957698 -0.6031778 0.24896331 -0.060383093 -0.08525816 0.2188464 0.27572837 -0.06625387 -0.016772646 0.24909204 0.31884205 -0.22518265 0.021032432 0.2537562 0.13886352 -0.08322772 -0.34964433 0.18507682 -0.34029454 -0.13191497 -0.1401633 0.0030017789 -0.2848055 0.17573407 0.09967353 0.44723034 0.05366235 0.010827917 -0.11388863 0.32855192 0.1456119 -0.013547652 0.034466214 -0.06915047 -0.052400477 0.07028561 0.20218986 -0.034341376 -0.10827719 -0.08923069 -0.14861885 -0.003072313 -0.054471917 0.21257125 0.10027493 -0.29771817 0.29630494 -0.014518386 0.09470525 0.10389409 -0.099767074 0.5595727 -0.14963514 0.111757085 0.11333667 0.08819454 0.09924217 -0.029427698 0.07297662 0.10711741 -0.26836357 0.20801184 0.19637975 0.08731384 -0.0098307915 -0.09388863 -0.24791957 -0.032607798 -0.37046993 -0.5461602 -0.14949326 -0.06244711 0.15619801 0.25190744 -0.13889404 -0.08200232 -0.16641845 -0.09452792 0.575705 -0.06810996 -0.4558909 0.098607995 0.0348767 0.018088266 0.15901914 -0.25351918 0.2836109 0.17837355 0.21334203 -0.12700598 -0.09827024 -0.0043844436 0.33635926 -0.005667841 0.32376325 0.25199136 -0.270268 0.08299727 -0.11899378 0.22557053 0.095890746 0.14367124 0.18134072 0.20531185 -0.017670514 0.20798157 0.107056186 0.03561527 0.01827952 -0.051663533 -0.26003623 -0.4463622 0.16913198 -0.0063186754 -0.26025724 -0.18112983 -0.21034977 -0.06383154 -0.19576825 0.64975715 0.1641194 0.016006136 0.22909042 0.053426597 -0.29903275 -0.17720243 -0.1518751 -0.19113274 0.18746866 -0.29967648 0.30124536 -0.30138847 -0.14538573 -0.16265176 -0.24750008 -0.34918773 -0.25014195 -0.21674156 0.23964167 -0.24244544 0.06316264 0.0982364 -0.054368533 0.20608571 -0.24786167 0.15328576 0.19890797 -0.107970946 0.014938431 0.027363857 0.12975623 0.20968732 0.036387462 -0.28377262 0.590755 0.29500416 -0.22291735 0.21477556 -0.12076004 0.12274073 0.09973033 -0.0822928 0.07137306 0.15887544 0.04964404 -0.08327392 -0.0679373 0.049582195 0.22807898 0.21323703 0.15396042 -0.06793839 0.16404162 -0.11351476 -0.0375461 -0.37826604 -0.0018056649 -0.003421634 -0.015813578 -0.043613724
baseball -0.08761606 0.43829724 -0.04530899 -0.07941267 0.29899517 0.084543735 -0.26169565 -0.2733803 0.23666821 -0.0031902366 0.12029651 -0.16955543 0.027064988 0.20401011 -0.60274863 -0.12871051 0.14145918 -0.0036558136 -0.20139433 0.06981746 0.15174824 -0.20407929 -0.037338313 0.06064611 -0.33233765 0.2996458 -0.007944298 0.20933332 0.11035751 -0.07836697 -0.31584093 -0.26461986 0.31790808 0.11215114 -0.11620613 -0.43607116 -0.18869197 -0.2502779 0.23582238 0.17446375 -0.02451739 0.20241995 -0.09245562 0.077241994 -0.074605584 -0.36404812 -0.16659778 -0.4526577 0.122573115 0.25121453 0.048024353 -0.070065655 -0.18653122 -0.3580298 0.22583543 0.19005334 -0.024765134 -0.035870455 -0.6428391 0.3007871 0.41610977 -0.2144093 -0.17678832 -0.11204584 -0.2918713 -0.34444916 0.058159072 -0.10099143 0.06309633 -0.40606406 0.088707075 -0.039577916 -0.06133361 -0.3523317 -0.2245519 0.37103343 0.08146037 -0.15834007 0.11054103 -0.053966876 -0.1427829 0.17006049 -0.2149536 0.047559846 0.89848083 0.10845253 -0.52529424 -0.5165705 0.057606433 0.12352117 0.17961639 0.32870686 0.14821501 -0.06899348 0.30016357 -0.22380844 -0.07367802 -0.014892623 -0.36419606 0.46692497 -0.006796034 -0.002646048 0.08547992 0.24149276 0.07084609 0.084776655 0.04641697 0.057329163 0.3001572 -0.121958315 -0.12157743 -0.17546497 -0.15454172 0.21553849 0.13359652 -0.5573849 0.010946314 -0.21216024 0.103398 0.12147297 0.45544416 -0.5000677 0.00053516997 -0.1879875 -0.49011353 0.105330445 0.051745683 -0.1100365 0.5005908 0.041917212 0.5102956 -0.106548265 -0.26188588 0.19318463 -0.12105768 -0.058681406 -0.2528849 0.100873485 -0.15160462 -0.2057252 0.055253945 0.098487765 0.037002243 -0.118279666 0.22974451 0.17165516 0.103970416 -0.063189246 0.009781758 0.0996683 0.14067182 -0.032865975 -0.004987402 0.0320452 0.092296794 -0.12849246 0.015712656 -0.018890837 0.1442156 -0.21476933 -0.38664657 0.2666094 -0.3329379 0.3015852 -0.021702465 -0.12127576 0.2647611 -0.2991906 -0.2673305 0.09066688 -0.35924488 0.39549863 0.22114189 -0.050281405 0.23367617 0.122047335 0.029822987 -0.1585128 0.18427683 0.46811795 -0.24182834 0.35626245 -0.18946797 0.2636856 -0.11993243 -0.08953739 -0.0015279521 0.0657067 -0.36645004 -0.20806053 -0.100568466 0.10822295 0.039801087 0.31837645 0.074890815 0.018263312 -0.23601381 -0.19567588 0.12524316 0.007275408 -0.17719476 -0.279213 -0.04532246 0.020874588 0.43956405 -0.038511038 0.33299997 0.14203171 0.21117817 -0.45461616 -0.1350254 0.14374112 0.28195328 0.081258535 0.061897296 0.040174406 -0.033978883 0.13662523 0.27122787 0.10137287 0.22994803 0.16111973 0.21850789 0.13527633 -0.15652785 0.20297556 -0.07418318 0.1006097 0.1508533 -0.04044818 -0.16523294 -0.4444794 0.20678478 -0.050225064 -0.17591985 -0.4267061 -0.38737178 -0.20502971 -0.25421023 0.48438346 0.23867686 0.113494985 0.20854168 -0.02551671 -0.057831984 -0.14393021 -0.06028279 -0.7589556 -0.047223657 -0.12747328 0.16824423 -0.17709185 -0.1811344 -0.11036935 -0.14409874 -0.41506448 -0.4026226 0.47682166 0.14510329 -0.12613352 -0.18266724 0.14567478 -0.11475705 0.15090294 -0.1029009 0.54527694 0.07582426 0.2067713 0.051287867 0.13807823 0.06038063 0.00043239704 -0.24544124 -0.30831653 0.47062325 0.1965281 -0.10667066 0.12089911 -0.31120008 0.3349383 0.09595228 -0.00303072 0.2920342 0.05029461 -0.12700874 0.34014544 -0.23712012 0.10078926 0.44268566 -0.050155308 -0.10265757 -0.1171776 0.23682795 -0.06123726 0.07734264 -0.26005486 -0.11155613 0.19677782 -0.12978357 0.17876425
hockey 0.0027601533 0.14791177 0.0007659136 0.02427641 0.16025168 -0.17821279 0.08241555 -0.27634135 0.2468833 -0.26429227 0.1433186 0.20576492 0.35461107 0.07929111 -0.44280106 -0.4066339 0.4540961 0.13939118 -0.23353456 0.17729765 -0.03352585 -0.29929233 -0.16745664 0.16210045 -0.5420884 0.16621278 0.13731763 0.2995919 0.14407301 -0.18258789 0.3803648 -0.19123803 0.6027937 0.19085245 0.05735464 -0.3629521 -0.13295269 0.19500664 0.13098237 0.10653155 -0.16220868 0.1819611 -0.15526602 0.16950472 -0.06799294 0.25272417 -0.19933991 -0.19236904 0.1387331 0.3155106 0.054590326 -0.07803066 0.30439007 -0.32572946 0.47998723 -0.19460177 0.034275174 -0.2501174 -0.59979385 0.33720484 0.26386455 -0.021172488 -0.15206158 0.09869302 -0.12256776 -0.17670338 0.4286229 -0.27198946 0.13311718 -0.1722937 0.19098152 -0.09946011 -0.0929888 -0.042018242 0.50964195 0.23988023 0.07723293 0.24277258 -0.03794505 -0.14736082 -0.18810003 -0.1952156 -0.75134546 -0.15165769 0.5310113 0.12961057 0.1257616 -0.348371 -0.25608486 0.3310849 0.011827644 0.16417211 -0.015665196 -0.23124446 0.2769953 0.23506042 0.10333563 -0.01738098 -0.015123391 0.40487495 -0.3051146 -0.08605015 -0.045117773 0.12025549 -0.11400717 0.33808166 -0.033768814 0.23204947 0.42630532 -0.52354133 -0.4377868 -0.25480282 -0.14160621 0.09098356 0.1199714 -0.43144265 0.017775308 -0.1632699 -0.15174711 0.00029573363 0.22899334 -0.33714283 0.3270798 0.007435875 -0.39775446 0.7198626 -0.21929549 -0.29221743 0.04156096 0.14558488 0.14396442 -0.12340309 0.1764443 0.080438845 0.12577093 -0.2773883 -0.2613529 0.3725156 -0.052858714 0.09270746 -0.09458659 0.05284051 0.08548183 -0.0639794 -0.01570352 -0.084377944 0.2700179 -0.2170853 -0.3039433 0.600507 0.27206823 -0.29718128 -0.17876524 0.20990686 -0.01743816 0.07423769 -0.053500123 0.044686157 -0.047676817 0.12812535 -0.5329509 0.009483507 -0.02209816 0.12013363 0.440132 -0.15566121 0.18981268 0.13767347 -0.09199104 0.0148642985 -0.34762293 0.64616144 0.0042343326 -0.14314468 0.39444458 0.120582625 0.3174618 0.10384581 -0.045529723 0.39847532 -0.1996788 -0.37547633 0.09335575 0.1387081 -0.24310473 -0.23484255 -0.34663275 0.3224433 -0.12040253 0.076310724 0.11025737 -0.22919384 0.33238497 0.26177922 -0.04721719 0.09523697 0.00020049488 -0.0496782 0.36035043 0.14501515 -0.24163069 -0.14743057 0.03438287 0.26230553 0.03051201 -0.14818689 0.18803701 0.32196987 -0.08299704 -0.55386174 0.017256709 0.25369507 0.57221967 -0.06166254 0.104078755 0.07036699 -0.5354778 -0.11514077 0.019263243 0.61927193 0.10967234 0.21116391 -0.18230173 0.46181342 0.082301624 0.27297017 0.18909861 0.14735211 0.077809684 0.17870104 -0.17326489 -0.29578978 -0.1458728 -0.06125451 -0.1156683 -0.487063 -0.04809928 -0.30064017 0.14114828 0.6559198 0.24182859 -0.132032 0.28935537 -0.10371876 -0.10633212 -0.088781096 0.03775712 -0.72089946 0.13610041 -0.112616085 0.054928448 -0.31225714 0.018862028 0.09266771 -0.06086725 -0.26749724 -0.10314542 0.6797001 -0.44631174 -0.21107364 -0.034363296 0.32529527 -0.24200654 0.016370047 -0.2558962 0.12444153 0.31681767 -0.34185502 0.25159144 0.46846592 -0.21893798 0.15669407 0.122655936 -0.33421412 0.16241935 0.38118842 -0.22872135 0.19411713 0.013607284 0.3743535 0.3142599 0.16885446 0.2948323 0.17379387 0.053744238 0.49326324 -0.2888022 0.073968835 0.04519733 -0.1679749 0.22770269 -0.07470074 0.35240427 -0.051651154 -0.35751835 -0.2804192 -0.34548968 0.03567317 0.39620548 0.1170127
wrestling 0.48764822 -0.011400055 0.110362515 0.12108106 0.06668656 -0.048510004 -0.11284616 0.174075 0.2583528 -0.030341448 0.17069234 0.38956138 -0.15851249 -0.097702734 -0.16032125 0.038509503 0.10006215 -0.006029705 -0.13818227 -0.22713816 -0.029923242 -0.23597519 -0.049175568 -0.22792445 -0.7078808 0.095977016 -0.25300145 0.036988623 -0.01859589 -0.6125347 0.063151136 0.25591922 0.28350186 0.2312093 -0.28689334 -0.08418547 -0.0039421283 0.29413062 0.25590876 0.59776604 -0.1771788 0.0248521 0.1343596 -0.23984791 0.048987094 -0.16345656 0.26513922 -0.04678857 -0.038253207 0.46950182 0.447331 -0.18000597 0.4721307 -0.02490421 0.4720729 -0.14435612 -0.12986074 0.4223395 -0.43569002 -0.15038694 0.20976229 -0.3172837 -0.04398364 0.3218743 -0.08837919 0.0083662 -0.17725398 0.24221587 0.02946059 -0.19336894 0.247942 -0.32391444 0.14225096 -0.47207743 0.089817725 0.41129985 0.09320653 0.514489 0.006801573 0.094779335 -0.5063059 0.30739897 -0.0871585 -0.43041605 0.6766697 0.16243963 -0.028625775 -0.17369334 -0.024274005 -0.33778125 -0.23320034 0.37349665 0.0072946586 -0.0032934684 0.43326128 -0.006263783 -0.42382625 0.2769774 -0.014656123 0.3548571 -0.3725471 -0.079209596 -0.4229558 -0.2052895 -0.16153061 -0.12358264 0.010549985 0.037398312 -0.07916394 -0.41902268 0.038076732 -0.34616515 0.3197513 0.14765432 0.2957385 -0.17570618 -0.022310078 -0.061653167 -0.0054909876 0.06959019 0.29552475 0.09314477 -0.30103844 0.16988172 0.030672181 -0.015116629 0.13583933 -0.2047032 -0.13494778 0.15628782 0.12749186 -0.23431607 -0.10074687 0.37838125 -0.63176805 -0.11016305 -0.37417972 0.9630149 -0.13682756 -0.25433555 0.12824838 0.15055446 0.19803058 0.056470428 0.59479827 -0.21719813 0.18606156 0.34801477 0.33730572 0.3035008 0.32339257 -0.15093757 -0.3861993 -0.14432542 0.053641956 -0.1502512 -0.13070285 -0.44587004 -0.34508145 0.08754952 0.20218451 0.21246055 -0.106120534 -0.20115407 0.033862174 -0.315811 0.58151066 -0.28089598 -0.31278434 -0.011162168 -0.6639815 0.2521157 -0.12052992 0.12836714 0.26149765 0.027879156 0.3892074 -0.046744794 0.20363359 -0.04827947 0.12738 -0.12842107 -0.62089694 0.078782216 0.14646322 -0.0054314896 -0.07171569 -0.043538477 -0.3727126 -0.24685207 -0.19748403 -0.50266504 -0.21994533 0.20688842 -0.09218747 0.07102504 -0.012416397 -0.27915847 0.17789043 -0.17911316 0.010524806 -0.1631782 0.14580426 0.24832968 -0.01237155 -0.04592623 -0.06451344 -0.010944217 0.117916614 -0.2970446 0.055542294 0.30651674 0.2222581 -0.13321419 -0.11860616 -0.12933426 -0.19800763 0.21272795 -0.15922116 -0.010927401 0.028864032 -0.007953144 0.0016051952 0.050583012 0.049640737 0.0022685954 0.40381914 -0.014785091 -0.3243652 -0.22203553 0.13604702 -0.6706014 -0.08799074 -0.03134287 -0.22079964 -0.76216304 -0.010017985 0.01822792 -0.10067935 0.2948727 0.11406008 0.36001298 -0.1342206 0.1424091 -0.06466745 0.122898996 -0.021294039 -0.61208355 0.060610857 -0.603515 -0.021978747 -0.27568996 -0.124715164 -0.08472542 -0.12092648 0.10194994 -0.50017554 0.21892858 0.29061398 -0.39423668 -0.43812552 -0.19506133 0.10043788 -0.40080965 -0.09528175 0.030779712 0.08673812 0.17235453 0.14119107 0.18191245 0.33321187 -0.104542695 -0.11174729 0.119703025 -0.34660664 -0.011307471 -0.20386863 0.58562034 0.38108122 -0.07481863 -0.009646592 -0.07872097 -0.023260027 0.0806342 0.21648589 0.09479503 0.258708 0.35884088 0.015086409 -0.20301811 0.3323586 -0.71744883 0.44498962 0.24487966 -0.2502544 -0.43118006 0.12643822 0.015654586 0.040197596 0.41888064
dance -0.09868706 -0.05771826 0.01671786 -0.18281995 -0.19915153 -0.31851435 -0.046473138 -0.13709722 0.10332965 -0.30748218 0.07490524 0.25696635 0.087600164 0.108715855 -0.35822174 -0.29702985 -0.11407974 -0.013831805 -0.12875937 0.011852531 -0.12150197 -0.38365346 0.19137034 -0.2066251 0.07630712 0.14772443 0.04675135 -0.08828014 -0.011736635 -0.07965159 0.2788064 -0.14470635 0.39770743 0.083202004 -0.15932623 -0.21402091 -0.15165779 -0.06433638 0.10836568 -0.12212628 -0.27277705 0.17234415 0.0848292 0.059868753 0.011897023 -0.1910998 -0.07567796 -0.2820471 -0.07193444 0.47321415 -0.11800928 0.003095373 -0.17000742 -0.15407586 0.20808795 -8.705283e-05 -0.2222263 0.06780511 -0.17388783 0.07233422 0.37978292 -0.40226448 0.12526885 0.46475965 0.07535153 -0.06590669 -0.2252093 -0.118834615 -0.2890688 -0.21136113 -0.0881088 0.007024665 -0.08910136 -0.16002099 -0.1401404 0.21629402 -0.16821858 0.1229347 -0.17840724 0.2911261 -0.42081806 0.067489006 0.0019747326 -0.07527588 -0.098049365 -0.019109268 -0.13444437 0.07920569 0.14312951 0.00694006 0.015825078 -0.012131112 0.0049741026 0.09100739 0.28675443 -0.03337569 0.51206416 0.034029458 -0.06885582 0.36470917 -0.23645058 -0.08897253 0.06354719 0.20847206 -0.0008845993 -0.10153994 0.18332925 0.29144126 0.16189592 -0.15259093 -0.24678689 0.09648951 -0.018747542 -0.0769757 0.16586186 -0.022303162 0.12638468 0.09796284 -0.07120332 0.22327356 0.1293189 -0.072919935 -0.016636597 0.35664833 -0.30097866 0.29502696 -0.070281565 0.07692937 -0.21520819 0.063053496 -0.12634675 0.14994891 0.3192403 -0.24586774 -0.14504978 -0.35467485 -0.09795458 0.11714718 -0.25034165 0.07845111 0.033214692 0.032261357 0.038121138 -0.12400641 0.13611636 0.13491513 0.13356633 -0.05205274 -0.46547264 0.4550079 -0.08923291 -0.25115898 -0.205147 0.023525348 0.0511788 0.09907643 0.056077026 -0.07139978 0.0210408 0.037473463 -0.06821551 -0.3085691 -0.052494336 -0.042915322 -0.28185612 0.024312042 0.25206658 -0.15359862 0.11440989 0.15663357 -0.075241216 0.21759254 -0.045566846 0.05491498 0.11084609 -0.051211804 0.1345884 0.32740003 0.5158208 -0.13014558 -0.17016797 -0.09351482 -0.1276681 -0.26602966 0.17642945 0.098836966 -0.15337448 -0.069874674 0.13974744 0.03669691 0.13352938 -0.19795337 0.079527296 0.42918953 0.15101735 0.0074254973 0.372742 0.34080565 0.11577953 0.042506535 -0.1772474 -0.042717375 0.11399096 0.080390275 0.27073798 -0.12576973 0.06667507 -0.16038226 0.22873616 -0.16470815 0.05564366 0.15342157 0.0891707 -0.107566476 -0.0573837 0.109732844 -0.27439076 0.11155446 0.085373245 -0.07590316 0.0545493 0.061742846 0.33863118 0.17634109 0.13227352 -0.024225816 0.096831635 0.015024339 -0.19958542 -0.31201774 -0.17907646 0.16329221 -0.3409022 0.12665978 -0.111373976 0.069901735 -0.054648325 0.08451721 0.18370879 0.10194634 -0.13826266 -0.044898514 -0.2431752 -0.2522754 0.15511508 -0.011329756 0.37288472 -0.089828774 -0.02849872 0.03402903 -0.03548875 0.0633601 -0.14110592 0.2572666 -0.3205737 -0.32632285 0.102148816 0.4151078 0.3168697 -0.033208698 -0.45117205 -0.096141495 -0.20442384 -0.11740316 0.08243148 -0.044265274 0.26398513 -0.13423973 -0.1550918 -0.062289957 -0.115016 0.016421095 -0.17389706 0.04013542 -0.25202626 -0.051780276 -0.26270598 0.0801649 0.004170298 -0.1927029 -0.051026568 -0.033291712 -0.32322463 0.27807295 0.11085912 -0.11508692 -0.33638954 0.09215351 -0.3524273 -0.031882316 -0.04732592 -0.23847634 -0.07521394 -0.06966505 -0.1522129 -0.33419612 0.0346055 0.023135757 0.27224633 0.019048817
shooting 0.24434273 0.19041261 -0.057562657 -0.13119973 -0.15604244 -0.2122306 -0.038889427 -0.06548121 0.35095388 -0.06672849 0.17322555 -0.23504606 -0.28855503 0.0762811 -0.32732698 0.16650932 0.037558563 -0.08556007 0.1539403 -0.16087401 -0.07605817 -0.23139355 -0.3311832 0.33835113 -0.051963795 0.07835276 -0.06439489 0.14518693 0.061836917 -0.19449893 0.060761318 -0.23731314 0.38273296 0.04342427 0.114909664 0.05903768 0.100763425 0.14497928 0.01639572 -0.3162492 0.6150604 0.32600772 0.16677916 -0.28240374 0.18055536 -0.1123773 -0.09201441 -0.23814958 -0.06270923 0.113282815 0.12574378 -0.1180523 0.3182254 -0.2827512 0.18857913 -0.060441043 -0.08654383 0.21068564 -0.5030002 -0.08623961 0.06470554 0.1587416 0.21185003 0.13989532 0.089804 0.16040447 -0.003907462 0.09940704 -0.172265 0.037821528 -0.13312961 -0.15108266 -0.16691834 -0.13169636 0.29809427 0.24266121 0.20526119 -0.034344696 -0.060786314 0.02416299 -0.23567171 -0.08833755 -0.06866296 0.08532314 -0.059076842 -0.13514993 -0.022610597 -0.34892 -0.37637132 0.030828884 0.06400298 0.2232761 0.078897364 0.12509808 -0.18428648 0.36104357 0.29768023 0.3920763 -0.061527662 0.13605702 -0.04647602 0.09820771 0.3467573 -0.2333879 -0.1690388 0.20154214 0.18525067 0.32831636 0.20224634 -0.31848693 0.33130974 0.09614987 0.0029582095 -0.0009462414 0.15766194 0.012166028 0.08055973 0.15164278 -0.10803851 -0.046381284 -0.09598001 -0.10392285 -0.29376754 0.1144212 -0.1795003 -0.14883794 0.12756711 -0.26800132 -0.49570432 0.23522456 -0.12218178 0.29713336 0.19779979 -0.10089594 0.117276244 -0.19406256 -0.21508211 0.08037193 -0.23068981 0.08854417 -0.23265041 0.27779946 0.016416475 0.10985326 0.021751726 -0.041121516 0.121865116 -0.18908924 0.27794355 0.2117607 -0.03001434 -0.122246936 -0.13132413 0.16169839 0.14334464 0.36385778 0.02476984 -0.1714723 0.4873327 -0.06814148 -0.18307649 0.28702694 -0.31281945 0.047594495 -0.012832022 0.0556467 0.21313705 0.083673105 0.40945593 0.2660732 -0.34102535 -0.1866851 0.20938228 0.012828905 -0.21097174 0.23683612 0.13050517 -0.026248697 0.32195702 -0.17577939 0.09610951 0.14674711 -0.08620218 0.091410436 -0.07925948 -0.063177615 -0.30018705 -0.19158612 0.101535186 -0.078789406 -0.12180215 -0.10541483 -0.13367979 0.18581404 0.035802566 -0.039552618 0.058154013 0.23404083 -0.13760382 -0.11447713 0.049475376 0.10440434 0.05061275 0.12004686 0.28474516 0.13402729 0.04631996 -0.08011833 -0.014226275 0.067507125 0.27676097 0.051656954 0.14243227 -0.3356564 0.16880514 -0.2239262 -0.2494695 -0.111256324 0.05708914 -0.09880789 0.09443015 -0.33700106 -0.038774982 -0.13121897 -0.0974812 0.16930613 -0.20073725 0.18930776 -0.20023139 -0.3225778 -0.026519855 0.120489575 -0.010180274 -0.07869717 -0.37677273 -0.3670851 0.06763971 0.20079659 -0.30109632 0.2882425 0.14830919 0.080579296 0.1388604 -0.26772854 -0.044533554 0.5042322 -0.093426816 -0.43565488 0.009258693 -0.25622392 -0.03516908 -0.107089266 -0.4379555 -0.26102602 0.07148453 0.13780335 -0.0261456 0.03517561 0.36021534 -0.026963098 -0.33615157 0.3026958 0.03753739 -0.06383227 0.11741037 -0.035255995 0.17990476 -0.1822709 0.23029155 0.11435904 0.01710848 0.017669987 -0.005344061 -0.18417197 0.46034917 -0.029474948 -0.03452361 0.04606572 -0.18945152 -0.2713384 0.088700004 -0.06769064 -0.2858002 0.12849787 0.022418717 0.038222507 -0.14210472 0.2394607 -0.25468096 -0.19023041 -0.09859046 -0.15872897 0.22732799 -0.16366564 -0.2902803 -0.39822102 0.05877741 -0.12337953 -0.09507979 0.12292911
racing -0.10043432 0.5219206 -0.046502132 -0.3677993 0.21967259 0.18280475 0.28957188 -0.10571585 0.3819119 0.26626208 -0.1981627 0.17066002 -0.07843348 0.064277716 -0.47636333 -0.33668414 -0.36255 0.384032 0.15887107 -0.114759915 -0.46113676 0.5665518 0.13524224 0.28085938 -0.42428413 0.09808276 -0.05173246 -0.12563615 0.105505764 0.078425206 -0.18642426 -0.2629866 0.2550792 0.2541599 -0.34524474 -0.31666932 0.05047581 0.11892314 0.1523974 0.21560831 -0.13026392 0.15167333 0.267898 0.19487926 0.3590253 -0.18308954 0.024742147 -0.26373678 -0.09277558 -0.22328311 0.28127804 -0.26218084 0.017079037 -0.49535152 -0.12953864 -0.24414715 -0.20793213 -0.099050604 -0.1771635 0.38464496 0.53734225 -0.18825349 -0.2858738 -0.63628227 0.12306471 0.22540063 0.113552056 0.44857812 -0.08217901 -0.15896805 0.072421834 -0.29851124 -0.0066985264 0.031279694 0.35841745 -0.089091755 0.04805052 -0.33583438 -0.14012167 -0.27339423 -0.000901374 -0.1275131 0.24999359 -0.08585069 0.11836651 -0.47530136 0.0482503 0.05352727 -0.39599738 0.15100195 -0.14516625 0.06152716 0.2618735 0.057398506 0.14430846 0.1551744 0.087488756 0.18295674 0.47176367 0.33725452 0.110015325 -0.2639518 0.23631474 -0.029944832 -0.19540036 -0.10782558 -0.122225545 0.14872053 -0.16368982 -0.40743178 -0.07410017 -0.0340472 0.3298915 0.070140496 0.23636009 -0.008701236 0.16405413 -0.13572745 0.019565746 0.22375627 0.09709406 -0.1741413 -0.022112617 0.5475412 -0.70290244 0.43225393 -0.13031946 -0.23497353 -0.11752836 0.11700009 0.08968863 0.16367832 -0.13305992 0.09538784 -0.032030754 0.16469607 0.12208298 0.44683066 -0.46321258 0.007128881 0.34427276 0.22785881 -0.044203468 0.047054976 0.1009466 -0.11829131 0.13140325 0.058614556 -0.4761539 0.115368664 -0.2659802 -0.18874097 -0.31490153 0.1903903 0.218776 -0.22345902 -0.44941872 -0.05656379 0.0036587322 0.29731172 -0.10947479 -0.0840935 0.14781512 0.15687352 0.14062652 -0.008217056 0.5655585 -0.21437891 -0.53719175 -0.030918635 -0.18499148 0.18150051 0.31059703 0.051544752 0.38203534 0.025254255 0.3492652 -0.24480891 0.17130367 0.01125857 -0.013802052 -0.1279221 -0.04423709 0.21935922 0.068518564 -0.20394097 -0.13083315 0.04021458 -0.2826187 -0.34959954 -0.22877832 -0.24771753 -0.34432542 0.29909784 0.09124016 0.578184 0.2698011 -0.17095153 0.22930075 -0.1817333 0.31552014 0.047741804 0.2510359 0.1643038 -0.19136202 -0.059089094 0.20250857 0.12260258 -0.31333756 0.13871409 -0.09639816 -0.20769669 -0.29150742 0.25436735 0.12172309 0.47542122 -0.13445057 0.42989364 -0.1415666 0.102794066 0.16436036 0.18316963 -0.067455426 -0.24803929 0.16408613 0.21912257 0.27859387 0.13872923 -0.38045758 0.10768777 -0.2169259 -0.27652135 -0.44590664 -0.27817437 0.07350895 0.043844108 -0.33352524 -0.08854237 -0.3046671 -0.111028016 0.05137948 -0.34075972 -0.1010796 0.0968582 0.11579685 0.43835816 -0.16273245 0.5504424 -0.18885833 0.17268728 0.33919907 -0.19339903 0.23057227 -0.36183542 -0.10007121 -0.19142407 -0.17797673 0.12326679 0.05261977 0.038415466 -0.52273315 -0.101884276 0.046912175 0.47197384 0.16974984 -0.055960257 -0.06640794 -0.039651692 0.19621435 -0.029561982 0.06413347 -0.1715825 0.4074194 -0.5308435 0.13905172 0.06792475 -0.63131666 -0.25298548 0.055906482 -0.13613956 0.17680095 0.024914041 -0.10736258 0.46934414 0.33641383 -0.009082185 -0.0398253 0.5443758 -0.08364351 0.27132204 0.28606755 -0.2518303 0.2983367 0.067753375 0.036206417 -0.045794472 0.29412767 0.30058813 0.27962026 0.5294915
sailing 0.37442145 0.16451538 0.0442287 0.010103924 -0.079392284 -0.00037737677 0.27184427 0.21930458 -0.034651905 -0.05186565 0.2365197 0.07171111 -0.0050842213 -0.16366951 -0.30101728 -0.08101194 -0.005965516 -0.11281911 0.08599959 -0.07235319 0.118111774 0.3675685 -0.23632193 0.25147936 -0.40141916 0.10330551 -0.2787446 0.15580632 -0.18307084 -0.33610263 0.20279957 0.11153544 0.41449755 0.4623519 -0.3571835 -0.094180636 -0.32508326 -0.22935058 -0.04746967 -0.0039473055 -0.024299085 -0.01636433 0.088411056 0.43135953 0.43646502 0.011785599 0.16059054 -0.17576173 -0.015174766 0.1335934 0.37707222 0.09505639 0.17038737 -0.5657407 0.32387856 -0.019660149 -0.07055292 -0.31826103 -0.23716566 -0.26232472 -0.17609455 0.15762797 -0.097949654 0.2485251 -0.074283056 0.11057572 -0.029872049 -0.29853156 -0.08908054 -0.29426256 -0.0055583776 0.15818481 -0.05718372 0.09723045 0.35324106 0.02704213 -0.08968531 0.13368012 -0.27290884 0.20719312 -0.19604534 0.30636817 0.13385576 0.120555684 -0.1373375 -0.26188624 0.17624383 0.138742 0.16726314 -0.16759522 -0.0029759519 0.028777543 0.07030324 -0.19133668 -0.18401569 0.3093039 0.18462555 0.26235485 0.11987681 0.2680187 -0.12495041 0.087422855 0.091455795 -0.14228173 -0.11558655 -0.10644043 0.18150592 -0.057943676 0.028841954 -0.40048996 -0.16253862 -0.16974953 -0.05889709 -0.016762128 0.22712892 -0.050079264 0.29687515 0.118507825 -0.19126855 0.12135817 0.28394604 -0.41392106 -0.2264176 0.25016356 -0.20963117 0.15590914 -0.018358843 0.11182865 0.1002862 0.3628702 0.2010762 0.0034539625 0.24808581 -0.5439443 0.08395941 0.07309912 -0.18017393 0.31333655 -0.093854055 -0.0812657 0.045638353 0.35884503 0.035576437 0.27700996 -0.09808914 0.036717575 0.43669054 0.07390254 -0.06987373 -0.08432852 -0.022458924 -0.085327595 -0.34526318 0.44374895 -0.07650868 -0.114063494 -0.004590373 -0.071533464 0.041254003 0.10757775 -0.0037040147 0.32712212 0.1145649 -0.3428071 -0.21127695 0.12541232 0.015277854 0.09524085 -0.0027383638 -0.060887102 0.06290176 0.17129257 0.2936902 -0.029946778 -0.15853061 0.26424745 0.51286256 0.020098753 0.40985715 0.17645462 0.18975225 0.37410158 -0.2317731 -0.17426024 -0.08400836 0.03902614 0.13020492 0.2399959 0.014814624 0.040978067 0.15967062 -0.31443202 -0.18035015 0.15897772 -0.079641834 0.13345277 0.17681298 0.0015576705 -0.117213 0.15806314 -0.061437216 -0.012994154 0.109620295 0.39825308 -0.045836773 -0.058079444 0.39441106 0.21482803 -0.0019763447 -0.11028773 0.028851071 0.116594814 0.061472673 0.16291963 0.031934552 0.16128552 -0.08824845 0.36631474 0.20198561 0.12031995 0.03744067 0.017982371 0.0016037388 0.132214 -0.0763114 0.17720883 0.22287796 0.15230721 -0.18318789 -0.17553629 0.024818642 -0.052373927 0.3088505 -0.14757843 -0.33972922 -0.13550055 -0.19743922 0.2639037 0.007475109 0.5337157 -0.2627473 -0.3591582 -0.20883119 -0.1412462 -0.13081288 -0.043998104 0.13239212 0.081507094 0.03413716 -0.50472414 0.16155279 0.038085114 -0.109361514 -0.21312653 -0.23137307 -0.34376323 -0.14744921 0.18685395 0.09227356 0.053987622 -0.15065417 0.40488413 0.1636271 0.055094812 0.08485724 -0.0777618 0.001532639 -0.0659115 0.08496629 0.07220166 -0.038817137 0.006070319 0.13309422 -0.028366357 0.07835933 -0.098958105 -0.33142784 0.107977 -0.21786375 -0.08038134 -0.048976783 0.16309865 -0.1665323 -0.2862426 0.3307165 -0.08574888 -0.31488246 0.15115483 0.31495532 -0.26270354 0.15211844 -0.20071423 0.5206989 0.42267865 -0.019527562 0.053766273 0.29007128 -0.1101593 0.08577138 0.13214666
judo 0.2898715 0.39984855 0.4132415 0.0945 -0.19460124 -0.082372166 -0.19959258 -0.019263245 0.24214196 -0.03002824 -0.10009205 0.3567305 0.03048099 0.002452024 -0.26222193 0.0975386 0.21105953 -0.05178893 -0.09733674 0.17295709 0.4267286 0.2533173 -0.32541093 0.2732159 -0.11898535 0.07880756 0.0022519424 0.22649564 0.1780065 -0.35193995 0.48186058 -0.16914177 0.6175431 -0.14095509 -0.053153034 -0.06609446 0.01517179 -0.017726881 0.066576436 -0.05643373 -0.07428474 0.10922406 0.3523123 -0.29342538 0.1777958 -0.2990612 -0.05127027 -0.1901911 -0.12253516 0.37253156 0.51139575 0.12013666 0.035089586 -0.2995657 0.32726222 0.055482212 0.018700454 -0.13218726 -0.46801627 -0.25867212 0.09335406 0.12655978 -0.38986418 0.38282666 -0.07345204 0.0010223312 0.17669898 0.30107158 -0.0878307 -0.10812782 -0.15386055 -0.055598814 -0.1167294 -0.45853925 0.6907759 0.14473148 -0.10527281 0.37413317 -0.1507329 0.0076454077 -0.42876118 0.071495645 -0.29717386 -0.014067174 0.2559594 -0.13707215 0.59612 -0.23375125 0.25121114 -0.16100104 0.09824803 0.4144921 0.16793473 0.016431887 -0.0062399046 -0.0033936524 -0.07147479 0.3705593 -0.23929167 0.56632644 0.20803668 0.05637299 -0.046627816 -0.15636334 -0.10016118 -0.21893498 0.05349767 0.1489687 0.0678131 -0.7861347 -0.10197552 -0.016303925 0.08849607 -0.12576112 -0.004780129 -0.70726836 -0.06994614 -0.09960738 -0.12668449 0.09587363 -0.002678472 0.27448842 0.15473795 0.33135322 -0.026128108 0.16870815 -0.085743636 -0.2288807 0.12157129 0.026163926 0.19141406 0.29429552 0.15246272 -0.049848266 -0.3203423 -0.23189771 -0.1224368 0.5764622 -0.28603107 0.1754786 0.12246662 0.22266239 -0.009457398 -0.017116468 0.3839059 0.35204774 -0.058184534 -0.18211453 0.41013655 0.69068027 0.07378693 0.10113071 -0.36796635 0.19385278 -0.142768 0.11996375 -0.18298152 -0.12374884 -0.10620986 -0.38282904 -0.11257717 -0.083715394 -0.18612929 0.12707305 0.27386713 -0.2358808 0.30891964 -0.124425024 -0.017670942 -0.21045105 -0.25797388 0.06282606 0.57514334 -0.04157498 -0.10120036 0.20240927 0.5416082 -0.0007584196 0.19812873 0.15980956 0.19455355 -0.12176435 -0.27458465 0.24700643 0.053522684 -0.1490424 -0.28274763 -0.09762093 0.12418558 -0.1132621 -0.09697454 -0.63324624 -0.25243127 0.051852636 0.14703214 -0.15124169 -0.22753277 0.17777994 -0.08578737 -0.109537445 0.038350802 -0.21566866 0.12570547 0.67595434 -0.21037681 -0.025813876 0.26898682 0.19250143 0.18692867 -0.28532165 0.23803213 0.31719655 0.2008076 -0.16061048 0.12893616 -0.19105782 -0.18298988 0.2865025 -0.071941786 -0.08741134 -0.07900277 -0.1488539 -0.045380034 0.15029283 0.07649009 0.089383155 -0.030332135 0.20801334 -0.20171264 -0.19702862 0.15058117 0.00028796427 0.100565374 -0.03516838 -0.5127318 -0.37139386 0.04347823 0.43495268 -0.047399826 0.43355858 -0.16986623 -0.29669073 0.030236924 -0.21215668 -0.2844893 0.05329468 0.05183968 -0.37564254 0.6832724 -0.29844084 0.048904896 -0.29479834 0.048658855 0.008294157 -0.25587162 -0.29690996 -0.33068085 0.41812372 0.46322182 -0.09409358 -0.32912308 0.21879692 -0.09534683 -0.12310525 -0.1824567 -0.15056626 0.09921117 0.014935682 0.22298759 -0.008317725 -0.2771543 0.10858124 0.27323273 0.017361986 -0.06575318 -0.4805518 -0.04717763 0.48263747 -0.07585391 -0.06738829 0.039668042 0.09267591 0.0972007 0.10781964 -0.06558401 0.12029869 0.18133417 0.44225234 -0.21175507 0.16017412 -0.046604842 -0.38826588 0.47461095 0.3277525 -0.14797437 -0.5021064 0.35169348 0.18239757 -0.25098026 -0.019301934
gymnastics -0.01795347 0.4945027 0.40982908 -0.13934001 -0.34704322 -0.21275696 -0.010157144 -0.10025146 0.33056358 -0.17627473 -0.051392335 0.1745282 0.20082377 0.16666375 -0.16530769 0.20181265 0.17795944 0.15214042 -0.42972 0.010161613 0.21705365 -0.20792456 -0.24992296 0.115608245 0.0650497 0.5182211 -0.30827728 0.016761161 0.18766087 -0.36326012 0.38380483 -0.59710824 0.74391884 0.107733704 -0.23526731 0.085142724 -0.012172185 -0.22772306 -0.065278105 0.19733876 0.09937985 0.36408803 0.16102664 -0.24634415 0.2274087 -0.02356762 -0.019473182 -0.12983367 -0.13598026 0.5060061 0.2772879 0.1533609 -0.11532743 -0.19707306 0.29067227 0.28523397 0.05531578 -0.14248073 -0.72787935 -0.38092768 0.47049248 -0.25183493 -0.29347545 0.08944779 -0.13380009 -0.23429997 -0.050820466 -0.12048 -0.10505746 -0.26224118 -0.16965279 -0.09691766 -0.017144267 -0.5820154 0.46562076 0.13830239 -0.20044027 0.38937667 -0.40567783 0.00040577166 -0.33419156 -0.15171355 -0.7591958 -0.11941042 0.36491734 -0.0954874 0.758941 -0.28264558 0.3741349 -0.07525565 -0.05554998 0.35958344 0.13588041 -0.018068947 0.18693367 -0.049331266 0.2208807 0.24812426 0.009460337 0.588099 0.018672043 -0.28162464 -0.27141258 0.19043449 0.015328898 -0.34268165 -0.026851814 0.32254305 0.029006628 -0.96196145 -0.3997739 -0.040952504 0.0103774695 -0.4065508 0.051876407 -0.50576764 -0.06952899 0.0049036895 0.077589855 0.044249445 0.05950153 -0.039625376 0.039716743 0.06559787 0.005214174 0.3070025 0.20463058 -0.08642333 -0.18360363 0.0026988988 0.20722139 0.10190448 0.11858329 -0.325591 0.15496704 -0.15102927 -0.16232128 0.4317848 -0.41234758 0.053302716 0.15257129 0.25644878 0.11815691 0.03430151 0.31901073 0.37321758 0.0956339 0.1570452 0.05651024 0.4725661 0.25773 -0.007365646 -0.36047512 0.2734346 -0.3092686 -0.2692881 -0.49100947 -0.17451774 0.05517171 -0.41899022 -0.13272457 -0.36536932 0.11216854 0.091072984 0.10713058 -0.24584998 0.2096211 0.04778128 0.15394326 -0.13223775 -0.31485587 0.15022714 0.48246425 -0.05991806 0.11273782 0.4065952 0.41747576 0.26583073 0.045185503 -0.10358898 -0.05876749 0.012314677 -0.22320399 -0.14021869 -0.070387244 -0.10587188 -0.33790433 -0.127753 0.06644789 0.012397476 -0.07578106 -0.54905254 -0.040374618 0.077293575 0.0017595087 0.015583714 -0.14380465 0.08113589 0.18625349 -0.18350263 0.15151253 0.15313034 0.3559614 0.54734284 -0.10998207 0.16008395 -0.20062098 0.25414628 0.23788399 -0.31046537 -0.08294462 0.21513319 0.12392619 -0.13407253 -0.10874237 -0.20743819 0.017239867 0.067925386 0.25939414 -0.13845111 -0.1570688 -0.03857351 -0.13562404 0.12959716 -0.06716293 0.0056243646 -0.13469367 0.24452136 -0.16189809 0.084801406 -0.20374477 -0.20218289 -0.07617378 -0.038374905 -0.44990754 -0.232728 0.010492357 0.17321312 -0.024935327 0.33104014 -0.32647088 -0.13000688 0.18543401 -0.13086662 -0.13262673 0.37290433 0.29166776 -0.4529938 0.6099672 -0.28455156 0.36050728 -0.23679595 0.016847363 0.07362655 -0.13703355 -0.49612886 -0.28455615 0.36412537 0.2966428 -0.06748866 -0.3066674 0.19849484 -0.38715002 0.2916527 0.08947515 -0.2458704 0.011594877 -0.02060183 -0.052413996 0.019099552 -0.30495754 0.14249283 0.3453709 0.03240874 -0.14427862 -0.43121472 -0.25437585 0.2571731 -0.6143684 -0.20617412 0.072791696 0.14919172 0.0024729648 0.10584669 -0.08033379 -0.15324296 -0.25464186 0.43056756 -0.10059572 0.018012324 0.0851588 -0.3382231 0.2987501 0.19214226 -0.23777977 -0.41978446 0.47193867 0.16983576 -0.3278495 0.10092323
equestrian -0.09569017 0.24687178 0.027959244 0.009508075 -0.40159467 0.0070733447 -0.009856817 -0.067373976 0.073256515 -0.16305806 0.032857254 -0.01566813 0.05205543 0.017271101 -0.24265891 0.2172539 -0.20011547 -0.063621655 -0.11543781 -0.04867746 0.17673045 0.34839076 -0.16099301 0.38903105 -0.11783707 0.16745648 -0.24118692 -0.056541365 -0.19431633 -0.09194965 -0.28516644 -0.31314278 0.22144812 0.121437326 -0.19195409 -0.3483017 -0.13170294 -0.21593677 0.13940994 0.3575655 0.36693403 0.14787802 -0.009594218 -0.34075785 0.5201704 -0.25137642 0.013248399 0.16009672 -0.20589097 -0.13671795 0.21499974 -0.22231475 0.062068902 -0.33108163 0.54980475 -0.13102356 0.06007944 0.08043198 -0.42649508 -0.09680101 0.08821656 -0.44714144 -0.3734661 -0.07628676 0.09717099 0.2463531 -0.23491767 0.07488195 0.023116803 -0.37845472 -0.13421898 -0.05163789 -0.34744155 -0.16938475 0.46856198 0.34353954 -0.09486263 0.36858693 -0.042441454 0.060885213 -0.43362972 0.045725767 -0.4619435 -0.048897658 0.27475786 -0.35747346 0.45450893 -0.3791912 0.06412953 -0.4805263 -0.073264 0.12116591 0.107097074 0.22396429 -0.1697296 -0.09431139 0.25832564 0.25424755 -0.08350619 0.2960617 0.08940778 -0.05558346 0.071240015 0.21722296 0.08781784 0.082189426 0.12635598 0.17772819 -0.009453048 -0.3247858 -0.30780756 -0.17356728 0.115516126 -0.019686127 0.033529315 0.1650969 0.18438415 -0.23938629 -0.119679384 0.031210065 0.15755813 0.32756498 0.15736316 -0.017290689 0.14105347 0.19330338 -0.04645809 -0.14702018 0.20892972 0.22044013 0.32469758 0.18501794 0.07638517 0.0012199085 0.2278928 0.14677429 -0.09402636 0.24758437 -0.33271164 -0.17350431 0.3040244 0.15573096 -0.08312201 -0.004528567 0.43187514 -0.33929583 0.20158127 -0.444378 -0.05833558 0.30339497 0.0073422277 -0.15881258 -0.28986847 0.14075352 -0.28313535 -0.10127502 -0.41222277 0.014780328 -0.21358617 -0.112331465 0.06818033 0.031809133 -0.009847461 -0.45313653 -0.043783426 0.02429701 0.21198419 -0.14895712 0.029388225 -0.15525083 -0.05562746 0.20501292 0.5994057 -0.10576119 -0.071524255 0.36861175 0.17657223 -0.2266954 0.19319725 0.30799162 0.12497982 0.21998163 -0.24267758 0.15236765 0.042435825 0.30544683 -0.014197113 0.056246318 0.15647404 -0.10438452 -0.07443802 -0.30861148 -0.020409653 -0.09330292 0.15002316 -0.0339747 0.044730987 0.059336647 0.048121642 -0.092967026 0.18649119 0.004428448 -0.09595569 0.3176061 0.13759343 0.049792834 -0.14276677 0.048457883 0.12955317 -0.008739679 0.10063387 0.18565762 -0.023188043 -0.0901921 -0.07732495 -0.14164083 -0.16505156 0.23565409 0.3521591 -0.083761394 -0.0010205217 -0.1597133 -0.079174966 0.1008146 0.39331147 -0.15274328 0.13898322 0.020429552 -0.16994163 -0.15058345 0.13593888 -0.13703531 0.3372975 0.0394442 -0.019996922 -0.31715798 -0.021371702 0.3978924 0.048662037 0.31846967 -0.30934185 -0.18799423 0.078676626 -0.18296143 -0.15939729 0.117125936 -0.11331047 -0.3235102 0.6138906 -0.30595985 0.13813359 -0.16688746 -0.21758038 -0.15780878 -0.031411942 -0.37474307 -0.16337784 0.26138684 0.22488984 -0.4191745 -0.20914571 0.49385148 -0.13603453 0.060474046 -0.015086638 -0.09005933 -0.035400905 -0.13828814 0.09935248 0.14371847 -0.21167615 0.12211931 0.17407995 -0.05915314 -0.06761781 -0.17371531 -0.35860974 0.49207133 -0.22310022 -0.051563405 0.29934686 0.010309634 0.14956528 0.2091836 -0.15279333 0.2745775 0.08258647 0.4254692 0.11696446 0.1628857 -0.082645066 -0.0987917 0.05580103 -0.15709896 -0.0924469 -0.3365955 0.035222605 -0.10675691 -0.017986126 0.17145231
cheerleading -0.1187737 -0.092279375 0.14075316 0.074926525 -0.47402537 -0.088847235 -0.18839422 -0.24898 0.13349555 -0.35765123 0.2045676 0.20778233 0.079368286 0.09878551 -0.4261979 0.50481707 0.2091961 0.17291415 -0.6663292 -0.049723066 0.07613475 0.082676195 0.36859044 -0.4413235 0.275131 0.4009042 0.11457025 0.15076503 -0.34797835 -0.39871714 0.025661763 0.08822351 0.6486829 -0.0049872315 -0.18661466 -0.07484815 -0.1862244 -0.08529734 0.30425718 -0.07174815 -0.076414056 -0.07183762 0.10518934 -0.066574425 0.10819206 -0.4697341 -0.0799718 -0.342697 0.08741202 0.15233189 0.30125028 0.42454848 0.0041324534 0.16567066 0.22636336 -0.104051724 -0.1498006 0.029096035 -0.79748565 -0.36634424 0.3873954 -0.08447887 -0.2815642 -0.036084473 -0.09903039 -0.04321442 0.20956756 0.09206147 -0.24306877 -0.3266752 -0.23066157 0.049774174 -0.066638604 0.10926005 -0.12694867 0.21752729 0.009079656 0.11760758 -0.043002862 0.010791088 -0.24353854 0.19744344 -0.4740283 0.16504636 0.62511903 0.24807496 0.27332386 -0.082337536 0.1873511 -0.46164083 -0.3077246 0.21534838 0.1681691 -0.13236172 -0.37349594 0.24993551 -0.17216438 0.66689634 -0.12887026 0.60255045 -0.16631068 0.05777317 0.25599915 0.053681888 0.56895846 -0.5249443 -0.123314455 -0.2149574 0.35011622 -0.9466474 -0.23480241 -0.2226255 -0.3922662 -0.068841286 -0.11500762 -0.59319174 0.1279255 0.24547844 -0.13907284 -0.17490871 0.13876955 -0.09429327 -0.41361776 -0.12519188 -0.4297933 0.27304786 0.37728283 0.29916915 0.29647422 -0.07383377 0.122616015 0.1731377 -0.13999541 -0.34661758 -0.057610538 0.08647266 -0.3261027 -0.025070952 -0.20767817 0.06201221 0.26944286 -0.20827897 0.19574694 0.010898606 0.17094707 0.15971366 0.1729794 -0.07900174 -0.28350613 0.36400032 0.17796919 -0.08698644 0.027883556 0.26061606 -0.104374714 0.3170314 0.04896467 -0.35971752 0.39667445 -0.015712267 -0.2229 0.2650842 -0.13278465 0.2615075 0.30273518 -0.2671836 0.16609558 -0.39803118 0.009558829 -0.4462119 -0.6453617 0.20176303 0.16381235 0.016457519 0.08435997 0.29814085 0.1905436 0.20967725 0.13085784 0.38519076 -0.008191403 0.317894 -0.33663642 -0.26279533 -0.06982241 0.18658727 -0.5604571 0.091998845 -0.19502135 -0.115715995 -0.036880195 -0.06928336 0.20170128 0.054329243 -0.52231306 -0.11312528 0.1652768 -0.04879012 0.1384402 -0.22239546 -0.29554757 0.045347106 -0.099797785 0.32405123 0.20061108 -0.19696772 -0.096814536 0.27739766 0.111067936 -0.07695468 0.37314132 0.19775549 0.36535063 0.15208295 0.020422779 -0.52592266 -0.47498134 -0.10729933 0.12220726 -0.16920385 0.007742405 0.1694773 -0.19423875 -0.022723263 -0.44853252 0.14302911 -0.25938606 0.48128563 -0.016198497 -0.31483907 0.110590294 -0.0011258883 -0.078329846 0.13650118 -0.3851403 0.097844236 0.18234305 -0.008268909 -0.24996704 0.42757526 -0.35580975 0.2582843 0.025706708 0.009483526 -0.106331155 -0.038102817 0.294334 -0.22046827 0.20759407 -0.1706088 -0.031753823 -0.18084694 -0.2947485 0.21896076 -0.39766338 -0.63502204 -0.17220792 0.2989262 0.44586542 -0.6402736 0.013814165 -0.22828476 -0.3800983 0.14531998 -0.6233798 0.017353585 0.08799679 -0.26814222 0.1886689 0.14899091 0.34582698 0.37774408 -0.005316999 0.1403186 0.35217702 -0.1685357 -0.3661425 0.31720516 0.07821208 -0.04285335 0.39124963 -0.19488212 -0.06763468 0.27594304 0.06542557 0.25286093 -0.38440397 0.345411 -0.08182677 0.016949093 0.14368716 -0.21138614 -0.020361746 0.13296448 -0.24700028 -0.42636484 0.08186932 0.26067808 -0.2363955 0.0510231
biathlon -0.19423158 -0.19400507 -0.25137213 -0.49732038 -0.4975407 0.3943138 0.33985308 0.09395194 0.85120976 -0.12890255 0.1489038 0.26713437 0.1776473 -0.117725685 -0.38135272 0.10414638 -0.12560177 -0.2320121 -0.27943394 0.23838042 -0.07363117 -0.12072838 0.03736252 0.15502048 -0.0072503947 0.15830807 -0.23556127 0.23997863 0.29672992 -0.42798924 0.21237774 -0.7361817 0.2866542 0.11765927 -0.7272456 -0.025910137 -0.22620735 0.017061554 -0.053623717 0.48221028 0.2743076 0.31300187 -0.18853398 -0.2646007 0.4565812 -0.035550404 -0.21156377 0.19229446 0.048151817 -0.03576383 0.5155307 0.1607494 0.18043372 -0.91946393 1.0393946 -0.22870891 -0.09709821 -0.5245239 -0.33810693 -0.093833216 0.08108233 -0.12846927 -0.3958244 0.04840939 -0.085809514 0.0033811135 0.21683791 -0.23625979 0.1322379 -0.2192363 0.018853856 0.24392822 -0.51115555 -0.14473946 1.0597363 0.16066036 -0.09721054 0.5717287 0.23666808 0.13645123 0.31062454 -0.13153376 -0.5405945 -0.11840807 0.11038401 -0.11500406 0.38257235 -0.33923638 0.2593692 0.20151202 0.34135267 0.1347636 0.2456059 0.25094783 -0.17752433 0.095924765 0.19015074 0.8941871 -0.017910028 0.40284154 0.17767693 -0.04452819 0.19932821 0.17540635 0.21533333 -0.2648237 0.2332585 -0.2523429 0.08352699 -0.70134425 -0.37692824 -0.2407931 0.026769873 0.3143049 0.21150489 -0.23346946 0.21697053 0.16978528 -0.13551472 0.058909368 0.08091071 0.25036258 0.1151705 -0.13590625 0.25750586 0.46358126 0.38537574 -0.15086566 0.18127823 0.07087029 -0.076258466 -0.0734401 0.40944687 -0.26902685 -0.05381001 0.02138281 -0.019750522 0.6779188 -0.030190704 0.05672752 0.2708104 0.27382082 -0.6153275 -0.08111395 0.12326695 -0.118154526 -0.34336677 -0.23058125 0.2335101 0.3795313 0.08503653 -0.12356094 0.06731602 0.42992312 -0.2854468 0.29094866 -0.5523707 0.38749707 0.47155854 -0.21957685 -0.08986424 -0.09294537 -0.121813 -0.2434406 0.67554784 0.008906598 0.2636161 -0.001278597 -0.32914945 -0.04866861 0.13223335 0.27601123 0.7740418 -0.07402152 0.01607824 1.0594431 0.44866684 0.39063182 0.12442765 0.028724594 0.16380051 -0.27372733 -0.06471533 0.0083843535 0.30063927 0.16462527 -0.32237703 0.3373438 0.25629807 -0.30594054 -0.3897083 -0.5900399 0.20244494 0.29646125 0.0507591 0.0063622184 -0.02499458 -0.13274294 -0.06329861 0.057350487 -0.41846833 0.2239066 0.1939125 0.5959049 -0.49976128 0.19340754 0.027617149 0.19366616 0.19264872 -0.3511791 0.10713671 -0.54239106 0.33715242 -0.18463172 0.08539447 0.25857058 -0.6089049 -0.425713 0.06529623 -0.13437752 -0.3012262 0.23383096 -0.5402753 -0.010229997 0.04982169 -0.09417186 0.16070703 0.29944932 -0.58619726 -0.16770147 0.041595347 -0.068090454 -0.013453209 -0.18176427 -0.36724883 -0.1280122 0.122911066 -0.0789106 -0.06147549 0.3975269 0.35650703 0.07155459 0.37751952 -0.09787196 -0.47100314 -0.011306252 0.22699794 -0.46251255 0.510104 -0.40920106 -0.38995594 -0.4182173 0.4420736 -0.0030426674 -0.04440014 -0.23473585 -0.54257745 0.5051731 0.3860154 0.23186429 -0.4815166 0.16884644 -0.4673285 -0.065920375 -0.6592847 -0.3294791 0.3483991 -0.20590308 -0.3073119 0.5083625 -0.55390817 0.046736237 -0.021925945 -0.36768088 -0.46147847 -0.3034968 -0.39861062 -0.079363026 -0.4927762 -0.49177244 -0.30245233 0.011323433 0.19146158 0.57012475 -0.12937178 -0.24553144 -0.09918237 0.8423213 0.0638196 -0.27182254 0.34712386 -0.5393387 0.14148104 0.120291285 0.3371713 -0.25799292 -0.10119208 0.056338772 -0.05928885 -0.07764512
