13 300
aile 0.026561674 -0.5402371 0.05502696 0.18917288 -0.051054638 0.18411991 0.058228392 0.05796412 -0.07460605 0.1819324 -0.09768443 0.052498307 0.5228807 0.4007327 -0.20280312 -0.056603167 -0.69503206 0.21975638 -0.11528097 -0.085596085 0.018286103 0.10880692 0.09816083 0.0719924 0.098160766 -0.049438924 -0.16559476 0.29057226 0.06326658 -0.063986816 -0.1740766 0.1746502 0.20850913 0.050458014 0.12209554 -0.19420059 0.05163329 -0.05532945 0.06417379 0.07343984 0.123503245 0.20218772 0.26727846 -0.18522492 0.068478644 0.1642078 0.043266308 -0.23769373 -0.3067552 0.24809837 -0.17721812 0.06526312 0.1333696 0.061119284 0.06591512 0.013305537 0.19608869 0.04589519 0.3550892 -0.35923442 0.31237453 -0.022889493 -0.3775155 0.26635957 0.26102877 0.16644214 -0.07924182 0.18916719 -0.008056477 -0.02197406 -0.28552127 0.19429703 -0.01779754 -0.15763138 0.050099537 0.036248814 -0.04378407 -0.1297142 -0.09775105 0.035473913 -0.014117351 -0.2870837 -0.19936241 -0.12658972 -0.15468322 -0.29938358 0.060490318 -0.36281696 -0.31436175 -0.21230885 -0.26785138 0.59963405 0.2616504 0.17350093 -0.15676151 -0.14154504 -0.079474255 -0.15994322 -0.156375 -0.021840693 0.18056555 -0.029831573 0.016781121 -0.38027027 0.09995294 0.005751915 0.07457904 0.025124487 0.21110798 -0.21148798 0.36588448 0.15943417 -0.11808319 0.13713813 -0.30579433 -0.0039403588 0.079486996 0.07254495 -0.20034496 0.13980965 -0.07108717 0.02271769 0.3354792 -0.18000422 0.06785696 -0.22301094 0.2795516 0.07390962 0.09802718 -0.19200301 -0.2784414 0.16485848 -0.18045759 -0.113811076 -0.6270238 -0.32801828 0.012369198 0.12879921 -0.040483333 0.27551264 -0.118927605 0.27090555 -0.022569772 0.21264802 0.13095829 -0.0035205865 0.05244944 0.2526176 -0.22751303 -0.006841013 -0.1677587 0.14866805 0.0077449596 0.37220195 -0.37571418 0.15011221 0.106774494 -0.026283454 -0.05822614 0.16294786 -0.08973334 -0.0047671753 0.0073820567 -0.30841652 -0.065442875 -0.10836575 0.16410108 -0.19175225 -0.05636914 -0.05045147 -0.24980633 0.08144147 0.055135034 -0.24641393 -0.12476554 -0.16556689 0.43760785 0.19340082 -0.18136647 0.15454437 0.11099429 0.0031516084 -0.18066528 0.3793967 0.08743811 -0.09771454 -0.034734473 0.19033112 -0.047495484 -0.24065408 -0.110639885 -0.39194894 -0.2396395 -0.11405376 -0.22917816 -0.091417156 0.2194326 -0.24626179 0.21898505 -0.002370146 -0.51848876 0.22811916 -0.2153185 0.19210516 0.050796926 -0.20721056 -0.25551462 -0.11741778 0.17483728 -0.12886868 0.19023843 -0.04947513 0.06187104 0.16058747 -0.34771103 0.16983378 0.11581399 -0.16560908 -0.042965773 0.019228462 -0.075430945 0.07844069 -0.18387932 -0.038424484 -0.18240543 -0.2248187 0.23815252 -0.06852247 0.19559418 -0.38770702 0.032294296 0.28412712 0.17509834 -0.038550984 -0.4028734 -0.2758908 0.35793787 0.16612566 0.16665646 0.22141117 -0.12675107 0.15960003 0.14171581 0.25575718 0.33725482 0.034347005 -0.055595417 0.043238204 0.058447745 0.11753815 -0.16234194 -0.07958685 -0.07078605 0.1333378 0.13252437 -0.042336196 0.35962558 -0.4085704 0.07303876 -0.05980478 0.15886012 -0.09911086 -0.15589885 -0.41399243 -0.28302875 0.03450743 -0.331407 0.16953856 -0.075855635 0.32424945 0.15524411 0.17263763 -0.22409712 -0.11380735 -0.57021564 0.033642832 -0.023277897 -0.06115354 -0.40684098 -0.10240866 -0.35891587 0.07438027 -0.29609573 -0.2581707 0.1787759 -0.017706886 0.004407783 -0.20761485 0.2655786 0.14820975 -0.013504941 -0.27573505 -0.10962876 -0.29650787 -0.08343267 -0.06331381 0.4680396 0.005293212 0.04350131 -0.1161285
pied -0.023030188 -0.28992957 0.46219152 0.17143399 -0.19756739 -0.037202433 -0.038017944 0.16452053 -0.0015334205 0.066775724 0.00017692844 -0.026860766 0.096148804 0.15255229 -0.066371836 0.170483 -0.14144778 0.09483381 -0.047462378 0.06321125 0.17202003 0.07905409 0.23839948 -0.09602005 0.064604826 0.031309266 -0.2011887 0.17097148 0.0057566487 -0.15133166 -0.17834741 0.22676244 -0.15045017 0.07261118 0.16598985 -0.081104785 0.2266456 0.07644673 -0.077996634 0.16739514 -0.047188103 0.2553748 -0.24379015 0.13864113 0.109984815 -0.09352431 0.011470371 -0.01984524 -0.05104822 -0.09687797 -0.14969611 -0.086496145 -0.25350416 -0.21247998 0.041368645 -0.32066557 0.28362048 -0.08619575 0.17533247 0.03264108 0.01407347 -0.09668418 -0.050138276 -0.027966825 -0.0888134 -0.1470258 -0.048242737 0.029401567 -0.18981697 0.017963557 -0.24262066 0.10549097 0.17813954 0.15014055 0.18557823 0.007691593 -0.100204475 -0.061708376 -0.19728263 -0.14427538 -0.023031374 0.26358092 -0.09798309 -0.1556489 -0.05357558 0.2128014 -0.0013579915 -0.16001049 0.023253322 -0.056264397 -0.023057315 0.3416792 0.10455009 -0.15583257 -0.036387786 0.1544785 0.1381466 0.05224053 0.11725509 -0.0038485946 -0.17453101 -0.28779322 0.015317933 -0.19351746 -0.01359513 0.09033692 -0.38803148 -0.14515808 -0.07500724 -0.13133642 0.07655986 -0.055113897 0.014436361 0.25654793 -0.026688375 0.25224972 0.043321367 0.13756151 -0.28619865 -0.069723465 -0.16594729 -0.23716928 -0.04884865 0.012571634 -0.05079726 -0.18242446 -0.17691638 0.057810627 -0.15214443 0.050473742 -0.24580495 0.37985623 0.04831136 0.0818107 -0.08433629 -0.08591352 -0.093958005 0.24596043 -0.058139272 0.12674889 0.09572018 -0.15254618 -0.10532691 0.070594266 0.2108959 -0.07054722 -0.04356323 0.11650009 -0.29708245 0.014337586 -0.16519116 -0.0635201 0.31021267 0.1879708 -0.16579066 0.062420998 -0.217162 0.04037748 -0.033150926 -0.16590944 0.21714406 0.21360892 0.1984028 -0.15660982 0.21929058 0.104582064 -0.019708076 -0.2248171 0.24047987 0.112718225 -0.0196274 -0.021713898 0.0037572018 -0.12563019 -0.1305542 0.3515708 -0.061304737 0.057679113 -0.14596829 -0.24541122 -0.30534598 -0.17317398 0.1262162 0.22711816 0.1687868 0.23547329 0.16070665 0.07290896 0.13690776 -0.19633956 -0.04724444 0.115548536 -0.45827284 0.13619696 -0.17571867 0.08473492 0.034501925 -0.14688762 -0.17787482 -0.053548593 -0.3214948 0.085583754 0.017570494 -0.022667395 -0.20136186 0.15372583 -0.13242678 0.07620205 0.07170994 0.016226878 0.30153844 -0.0014782117 0.11359341 0.038692083 -0.39862758 -0.03144288 -0.044122014 -0.33861867 0.1524534 0.11175572 0.25219992 0.11094124 -0.0021135993 -0.25913322 -0.030647315 -0.22331011 -0.043377224 -0.2151187 -0.110818 0.033431888 0.035641838 0.038736496 0.020098848 0.13020559 0.13833615 0.09628189 -0.018132092 0.36026698 0.24582517 -0.22902453 -0.08273335 0.057187606 0.31800935 -0.052682124 -0.050572015 0.068243474 0.12037308 0.15870506 0.021023741 0.036068205 -0.17553607 0.16781688 0.009852941 -0.0722307 0.16469744 0.14528492 0.28889152 0.14450255 -0.042738285 0.10146249 0.0016181229 -0.018510086 0.13211904 -0.22946575 -0.11290832 -0.08292198 -0.15289624 -0.120606095 -0.16679583 0.16146885 -0.022153817 0.090202 0.12881982 -0.07670728 0.1064158 0.08707009 0.028757954 -0.0834446 -0.06626299 -0.37058732 0.07631566 0.017562648 -0.120960996 0.033819444 0.02184648 0.20444551 -0.18162878 -0.13234445 0.29194412 -0.10188155 0.055035543 -0.12543304 -0.010792313 -0.4146155 -0.15328088 0.17514598 -0.061390854 0.10549907 0.05890007 0.0060162256
pieds 0.110630706 -0.24710622 0.21622811 0.066926874 0.016850293 -0.17742746 0.029504333 0.13399729 -0.10747726 0.22717221 -0.19009931 -0.015284951 0.12680477 -0.102105215 0.19872436 0.115862556 -0.30474085 0.13407551 -0.13974695 0.13642974 -0.04400963 0.23178844 -0.011503596 -0.12805541 -0.23693576 -0.0766832 -0.12921812 0.3427686 0.046062183 -0.02857476 0.064580165 0.19025742 -0.05566079 0.05771607 0.0989209 -0.02480505 0.46168262 0.03919399 0.058708 0.21659525 -0.01679098 0.08349989 0.0111013185 0.122835845 -0.2138897 -0.10181582 -0.030125283 0.22208215 -0.354653 -0.08976965 -0.09207953 -0.12775528 -0.17650588 -0.37690243 0.047190826 -0.10611459 0.30015197 0.16612461 0.09574121 -0.204824 -0.09519582 -0.11746075 0.07155332 -0.073670246 0.10888468 -0.11409269 -0.37882483 -0.16704296 -0.02541607 0.14427358 -0.03969426 0.061547622 0.03936683 0.09977814 -0.15134898 -0.25317702 0.1562143 -0.041722886 -0.09330853 0.060721222 0.008662843 0.002298382 -0.1399318 0.10122949 0.122508064 0.10699126 0.0907739 -0.047105666 -0.15981726 0.02875374 -0.24510422 0.2681386 0.27546382 0.10801855 -0.023263734 -0.010265505 -0.08028215 -0.16173083 0.2572107 -0.04882994 0.13786091 -0.2553782 0.00016434825 -0.14468881 0.16811016 0.14249147 -0.32059267 -0.16042778 -0.067426175 -0.04897788 -0.02984209 -0.062682316 0.016452286 0.3293275 0.08133185 0.17270657 0.061568122 0.08475677 -0.024705293 -0.05959868 -0.0615688 -0.14291841 -0.114688344 -0.15681164 -0.19802901 -0.2047861 -0.29458648 0.016981049 0.10158253 0.19411327 -0.23756333 0.20608315 -0.093703985 0.18377796 0.010351446 -0.2693186 -0.0047338624 0.17192413 0.022570096 0.11938789 0.005652772 0.07540475 -0.03444508 -0.21819536 0.2167052 0.12953903 -0.16381009 0.013812839 -0.35999545 -0.105992466 -0.05014604 0.08117359 0.123264275 0.28862402 -0.01946851 0.07163916 -0.20987324 -0.07604702 -0.13519152 0.0062390636 0.21801929 -0.012922202 -0.106161095 -0.028861614 0.13488525 -0.23664208 -0.3019996 -0.14721996 -0.111179404 0.008808383 0.14266388 -0.022836065 0.0119878715 -0.36087587 -0.1335205 0.2908254 -0.16260992 0.12987918 -0.09992923 -0.2603305 0.053962324 -0.15720683 0.14270364 0.21995844 -0.086178996 0.11304333 -0.025360283 0.045692626 0.21641198 -0.13097112 -0.13662343 0.0607091 -0.031016957 0.21497147 0.026451863 -0.12617992 0.066071354 -0.043194335 -0.11071491 0.03776513 0.05388105 0.09134415 0.05471894 -0.23850365 0.002646668 0.13450286 -0.16531308 0.098164506 -0.103469096 -0.026764605 0.22458696 -0.05204571 0.119482376 -0.03435688 0.103817225 0.057884824 0.0062704505 0.049763646 0.22600228 -0.046532508 0.31020164 -0.0594639 -0.026047526 -0.13570797 -0.0022163207 -0.21126243 -0.12046091 -0.28697893 0.037761364 -0.14257047 0.038400527 0.013319755 -0.13838564 -0.11851055 -0.06494874 0.27376747 -0.076550126 0.06837361 0.23322994 -0.24524428 -0.077354826 0.36807704 0.55942106 0.24076164 -0.090698935 0.08930988 0.16769864 0.08245501 0.25893456 0.1493356 -0.22913463 0.3965291 0.06290119 0.0415629 -0.0907258 0.30074874 0.38532805 -0.17063536 0.36039954 -0.06361467 0.19371223 0.036465123 -0.07922525 -0.17230427 0.17219979 -0.021864012 -0.22186397 0.13246231 -0.10065025 0.064927675 0.21671665 -0.09275984 -0.009514595 -0.15882306 -0.072511025 -0.07420361 -0.05460451 -0.19195569 -0.1661336 -0.22122173 0.03161084 0.08311224 0.10521311 0.07427592 0.017027942 0.16823378 0.0509575 -0.17152001 0.18856557 0.16599716 0.14720929 -0.24057499 0.08137421 -0.12132997 -0.085095435 0.060422055 0.048362132 0.04797097 -0.064128414 -0.09131433
cérébrale 0.6331454 -0.011911569 0.39964783 0.12594262 0.26432854 -0.017786562 -0.2487366 0.3468695 -0.122849 -0.11778872 0.041084938 -0.16074035 -0.044835612 0.28727907 0.100519516 0.13353474 0.20409557 0.14124128 -0.47123867 -0.06535421 0.27259615 -0.30737743 -0.16648802 0.26946935 0.62963355 0.18961409 -0.059899855 -0.0011850138 0.066865705 0.055691563 -0.0049143196 -0.08976087 0.45176452 -0.2952221 -0.15221725 -0.036422864 -0.10380541 0.2196723 -0.016922941 -0.16212903 0.02621944 0.3041101 0.085397504 -0.037512753 0.14928551 0.088512644 -0.07789627 -0.1835061 -0.25753626 -0.19597334 0.41209885 -0.18583386 0.12603222 -0.15833613 0.119845234 -0.055415552 -0.10975604 -0.098973185 0.39534834 0.008532689 -0.0699935 0.1392373 0.30265775 0.12234086 0.14254577 -0.17736237 0.24536611 -0.020305146 0.097693235 -0.3830691 0.0052301185 -0.14158173 0.33666474 0.3710214 -0.09643422 -0.086872794 0.06847785 0.63110924 0.22655682 -0.25458074 0.07889391 0.3330825 0.122356035 0.14873892 -0.1346851 -0.24275285 0.37441024 0.35152027 -0.09188824 -0.17103265 0.21756856 0.27085346 -0.058637813 0.32532135 -0.22293127 0.064116925 -0.22919971 -0.19507267 0.115337506 -0.1872878 0.24206698 0.052231673 -0.056942664 -0.36674738 -0.18625534 0.012032856 -0.407515 0.017593969 0.0959015 -0.22198343 -0.19283865 0.080363974 0.14094225 0.07919831 5.649886e-05 -0.3766832 -0.051264912 -0.055310264 -0.0691632 -0.05148541 0.27397922 -0.20857337 0.27923375 0.056288544 0.09763833 -0.39909998 0.052439686 0.15919738 0.17270894 -0.0408421 0.01558937 0.023762317 0.2723032 0.33296198 -0.16894662 -0.19671819 -0.067423955 -0.016261678 0.22362156 0.3337367 0.53527427 0.11894422 -0.045447927 0.31922513 0.31454542 0.20901552 -0.24351957 0.19833088 -0.03492829 -0.1409741 -0.108195275 -0.17123799 0.013159851 -0.34161884 0.05571766 -0.014644122 -0.12147455 -0.25109786 0.3039162 0.12662333 0.1932948 -0.25467217 0.12919766 0.1892267 -0.09437265 0.027172029 0.35532925 -0.35017642 0.13177231 0.15083969 0.16527382 -0.021294503 -0.01551698 -0.3925181 0.20048684 0.09305599 0.31306082 0.36978382 -0.040128168 -0.18879174 0.08371283 -0.3284991 0.15788895 0.024281304 -0.14432941 0.120226495 0.010408184 -0.22538853 0.3034885 0.020602847 -0.12158772 -0.19735663 -0.27945367 -0.104211904 -0.42973325 -0.6259191 0.035994224 0.22610873 -0.01409823 -0.20071414 -0.31685653 -0.22399038 -0.15246497 0.012412712 -0.30495352 -0.22902659 -0.037371516 -0.055039324 0.107648514 0.09435269 0.30752078 0.089212805 -0.26182345 0.15046911 -0.2035891 -0.3444535 0.27060276 -0.24227455 0.18713109 -0.13869779 -0.21295321 0.13300599 0.11918896 -0.09251735 0.16892187 -0.2676699 0.16795692 -0.3120289 0.055308238 0.04304266 0.18165623 -0.11838217 0.2521107 0.15557615 -0.09263199 0.24508066 -0.31941587 0.14666349 0.04588141 -0.03436463 -0.044555563 0.12063049 -0.09102071 0.18204384 -0.2765403 -0.17725718 0.21189065 0.04123329 0.047178123 0.14915757 -0.25041044 -0.14097911 0.5435004 0.1503521 0.059192616 0.44561747 -0.42812985 -0.0020654856 -0.54920185 0.08479073 -0.23395133 -0.267087 -0.29588413 0.08062522 0.37832043 0.33932608 -0.009747693 -0.037891634 0.077835225 0.28440237 0.26949242 -0.012592814 0.2750651 -0.15437171 0.2734373 0.09767073 -0.0479542 0.08745317 -0.11932133 0.01742028 -0.25109652 0.2561917 0.030802965 -0.15022516 0.085438944 0.046427164 -0.20343052 -0.036369115 0.61643755 0.27585897 -0.09575796 -0.21182165 -0.33196563 0.07339546 0.30881542 0.12580995 -0.0829721 -0.22406228 -0.31020436 0.20973249
cerveau 0.24513826 -0.057213396 0.18292591 0.0038291973 0.34664583 0.2433455 0.024457997 0.13675629 0.16003603 -0.11120193 0.0576973 -0.13107051 -0.12075705 0.17564628 -0.004682585 0.2725772 0.004688266 0.11893656 -0.35228246 0.16781585 0.23434463 -0.3291966 -0.021531757 0.19918734 0.22756717 0.09729287 0.16328229 -0.03098764 -0.039013878 0.14311138 -0.09799122 -0.17492874 0.058936004 -0.20159067 -0.008465737 0.14265475 0.104361035 0.071515135 -0.0440803 -0.26530212 0.14635837 0.0642515 0.123691276 -0.15339515 0.09827148 0.13949391 -0.21874067 0.06541422 -0.19419628 0.08536588 0.024871666 -0.0884825 -0.022405604 0.056833055 -0.058084767 -0.03760729 0.019224353 -0.32662007 0.21040061 0.035104208 0.054532226 -0.17225766 0.26407766 0.21098185 0.061622202 -0.0660005 0.14968725 0.010675356 -0.13818914 0.10419235 -0.07077112 -0.18123332 0.2154136 0.1885563 -0.051520146 -0.037596058 -0.07663087 0.2744505 -0.006535984 0.022785561 0.13431498 0.05623655 -0.03084394 -0.01644214 -0.034042846 -0.33469155 0.14492655 0.27198455 0.07127345 -0.23052701 0.061086237 0.062990904 0.23271163 0.48816437 -0.04235551 0.11106775 -0.15998724 -0.01484051 -0.13187777 -0.018819837 0.12588362 -0.41026786 0.067548186 -0.05534809 -0.21652809 0.016580613 -0.2741732 0.2766692 0.1924092 -0.26945344 -0.12705202 0.08601478 -0.043494456 0.40253875 -0.12927105 -0.042339765 -0.252099 0.08187542 -0.37655887 0.037959546 0.019411255 0.047486376 0.0694289 -0.17211728 -0.012467801 -0.23095274 0.11595926 -0.16294365 0.3533333 0.2096396 -0.293214 0.25896177 -0.243223 0.35331523 -0.09083427 -0.3591497 -0.10919921 0.09823973 -0.023562733 0.016718635 0.3761903 -0.013998307 -0.1552669 0.13053937 -0.12744625 0.14262521 -0.041139223 0.14506814 0.06393861 -0.21669416 -0.17924349 -0.3651253 -0.2058615 -0.25065622 0.007081239 -0.050949596 -0.032150023 -0.07721776 0.16190264 -0.07197341 0.13668324 -0.13247953 0.031177912 0.1470537 -0.16421533 -0.25023022 0.34729 -0.0965643 0.46835548 0.06881603 0.19601242 -0.14441587 -0.028490664 -0.26923043 0.2392268 0.09947969 -0.0151392855 0.073378116 -0.30280682 -0.09898124 -0.023941506 -0.47033957 -0.077352725 0.059365347 -0.045810156 0.012295553 -0.057834797 -0.13330683 0.1882974 -0.040262863 -0.18308114 -0.13670585 -0.09251067 0.021569967 -0.34376186 -0.5879493 -0.008619795 0.009004985 -0.06994511 -0.23978323 -0.062717415 -0.028549666 -0.003447848 0.1389233 -0.2558554 -0.05736349 0.0697117 -0.14732166 -0.014639245 -0.14669034 0.36918736 -0.027854724 -0.3354883 -0.028236898 -0.21762986 0.07756316 0.29389 -0.30809194 0.33748734 -0.17437144 0.04387972 0.29162696 0.15537472 0.22711815 0.0029587965 -0.07671382 0.14986344 -0.34457526 0.12235914 -0.11912337 0.01485242 -0.0982027 0.16377303 0.0059775496 -0.09741453 0.11090445 -0.31230938 -0.014865347 -0.08046463 0.00019358977 -0.031057255 0.03705205 -0.10536803 0.11296647 -0.07434888 -0.017560588 0.08020542 -0.22217226 0.011932206 -0.07038176 -0.14764166 -0.104890205 0.32753298 0.14980175 -0.171301 0.55973345 0.08173118 -0.31952655 -0.34754267 -0.009750199 -0.026691763 -0.0902409 -0.014284385 -0.035358887 0.34963116 0.029070752 0.072432496 -0.1301822 -0.048641216 0.22520183 0.25900188 -0.0810675 0.15040317 -0.16741665 -0.13883023 -0.02627309 -0.11520328 0.085061975 0.01895944 -0.115040936 -0.34697568 0.010364872 0.018042691 0.020143507 0.018178279 0.26661867 -0.3637681 -0.12846892 0.3049034 0.16243856 -0.028339984 -0.18002443 0.19387683 0.14776263 0.13951167 0.28665906 -0.011612532 -0.19830033 -0.27350953 -0.028659167
ailier 0.009486369 -0.35615063 -0.076360196 0.27175808 -0.1934722 0.11024555 -0.16888395 0.03516414 -0.3095625 0.33350027 0.20122689 -0.32352743 0.34049222 0.3864162 -0.41111532 -0.40671113 -0.74401647 -0.083079726 -0.27472547 -0.1498251 0.29854771 -0.5894318 -0.24993517 -0.23115309 0.24689317 -1.0266951 -0.22551696 -0.2787833 -0.13815142 -0.3781703 0.1822662 0.14879659 0.34966674 0.15652028 0.8469102 -0.15319514 0.16354117 -0.4267553 0.23183349 -0.06902336 0.27610162 0.17343779 -0.053651698 -0.22942919 -0.030328998 -0.83947086 0.056234695 -0.09145052 -0.1542934 0.24556006 -0.30551594 -0.4717018 0.10539501 -0.06653643 0.58376163 -0.2239391 0.12402573 -0.24424972 -0.3494354 0.08933527 -0.23387402 0.087371156 -0.4416864 0.29586852 0.3110782 0.1295513 0.05049989 0.12492137 -0.5341419 -0.27183926 -0.08494737 0.02337732 0.16694805 -0.38704425 -0.42583963 0.34869164 -0.01978228 -0.22896606 -0.042314168 -0.52245355 -0.10557623 -0.46566266 -0.17979145 -0.07730404 -0.26507297 0.17466666 0.3425834 -0.24111725 -0.54608697 -0.24606268 -0.10544521 -0.21363176 -0.08487035 -0.064808875 -0.2865182 0.04178965 0.05201388 -0.27850586 -0.11073033 -0.006254373 -0.3295054 -0.5155366 0.4071636 0.19284843 0.047448814 -0.86987424 -0.25062054 -0.19611044 -0.28238583 0.49405676 0.05801744 0.3546161 -0.42631868 -0.114115745 -0.14599428 0.14744778 -0.35514128 0.06459846 -0.04207058 0.30221826 -0.08183246 0.2801434 0.4566311 0.17453335 -0.27458462 0.29454523 0.17162152 0.16657008 -0.1199056 0.008063762 0.09186099 -0.48218292 -0.22337055 -0.26281232 -0.2111609 -0.29627576 -0.009472363 0.25558218 0.019192312 0.116628714 0.6841318 0.24088077 -0.103881486 0.18906912 -0.012581285 -0.19759287 -0.120913446 -0.24061249 0.01865383 0.061155602 -0.3921238 0.55211467 0.34138367 -0.21398337 -0.19719936 0.01945797 -0.3208257 -0.26253498 0.057117097 0.52601945 -0.3611822 -0.09683779 0.07785685 -0.41543669 -0.10481049 0.087976515 -0.030386936 -0.11280579 -0.4417736 0.1709664 0.32738018 0.23519455 0.4997876 0.11412963 -0.08297592 0.033218898 0.35874626 -0.010710506 -0.0064212237 0.28534272 0.30144218 0.17131671 -0.12883133 0.17895515 0.18367848 0.40433863 0.05340358 -0.4588653 0.07978111 0.07366647 0.17453413 -0.02458891 -0.06937956 -0.08888331 -0.5801264 -0.15252101 0.012972126 -0.05452549 0.21533494 0.10509399 -0.46800372 0.2171856 -0.061718486 -0.31224278 0.22216566 0.12035351 0.21803641 0.0679257 -0.29593012 -0.08872866 0.23908989 -0.39861193 0.10859744 -0.1645673 -0.6659986 0.49514678 -0.10786512 0.38870674 0.15328795 -0.40424532 -0.43651906 -0.08184185 0.020957049 0.54128164 0.40041494 -0.15221319 0.5486537 -0.28124774 0.13348855 -0.45298886 0.44121867 0.46875262 0.16818403 0.30367267 0.17121865 -0.008059788 0.17871322 0.91436124 -0.12315459 0.024225531 -0.75175047 -0.41820535 -0.023242313 0.011974799 0.48967832 0.22368608 0.24584305 -0.2030994 -0.010078249 0.042543534 0.011164179 -0.054368395 0.44869047 0.65572006 0.12370886 -0.30236664 0.4096514 -0.83739126 -0.38920182 -0.38015556 0.04731561 -0.3609352 -0.26621354 0.28262854 0.6867111 -0.2558818 -0.15841755 -0.18222438 -0.21724339 0.39312097 -0.21271704 0.7079117 -0.09451346 -0.004065689 0.123722635 0.06066635 -0.6547678 -0.42812356 -0.33492374 -0.7344152 -0.2657709 0.41630834 -0.3124012 -0.22343074 -0.18235935 0.45707002 0.18285851 0.056299698 0.34823197 0.022191286 0.18504997 0.01035168 -0.017298454 -0.22083008 -0.3353846 -0.15046658 0.39291015 0.3220192 0.075862564 0.1893289
ailes 0.038451422 -0.15345448 0.08615011 -0.019117191 -0.046138734 0.10814426 0.12901403 0.14290448 0.14011326 0.3317326 -0.011577025 0.3508677 0.1889129 0.13871494 0.12757063 0.20384493 -0.36195198 0.11888287 -0.045391362 0.1291335 -0.29438144 0.06706972 -0.042781215 0.13051397 -0.08229876 0.13103746 -0.063040614 0.3171501 0.15963376 -0.18795924 -0.09324251 -0.29700354 0.24537385 -0.06352741 -0.040220648 0.0059688715 0.33887264 -0.11085186 -0.034125924 0.28056252 0.0952958 0.29463592 0.16994365 -0.12552607 0.03766125 0.061862435 0.08276118 0.16879135 -0.14679846 0.14924958 -0.082498506 -0.10904663 0.06393703 -0.24798304 -0.06448655 -0.064768836 0.44663325 -0.028596988 0.15613665 -0.34784964 0.009983662 0.20603032 -0.2094006 0.2692161 0.10486188 0.14282255 -0.46377763 -0.031889834 0.17799108 0.35383213 0.11542439 0.044427447 0.2547425 -0.016690841 0.049190283 -0.16440488 0.1424182 -0.2171022 -0.15359724 -0.06643325 -0.0545792 -0.14415103 0.06568764 -0.07913597 0.027346168 -0.2629613 0.13090798 -0.096357904 -0.20075479 -0.07391018 -0.21637818 0.38199016 0.41989926 0.16392247 0.1183723 0.109259985 -0.38319978 -0.031958804 0.014532885 0.020348644 0.41948974 -0.09630961 -0.15313528 -0.20496324 0.27419904 0.027451355 0.14031135 -0.10251759 0.2604013 -0.30093333 0.25402334 0.031637847 0.19006337 0.22049353 -0.034286596 0.24402274 0.023774732 -0.124080494 -0.16510206 -0.098182954 -0.025485639 0.090287276 0.015428113 -0.32347983 -0.029885087 -0.1318994 0.2480728 0.080645874 0.28243077 -0.0055345786 -0.53797567 0.1769738 -0.0061382614 0.2503935 -0.3020657 -0.39935988 0.16817656 -0.023057899 -0.30133256 0.019029632 -0.002431514 0.2979244 0.113301106 0.0338041 0.013355321 0.21379821 0.027776247 0.06869237 -0.005910004 -0.06860807 -0.2599706 0.37952572 -0.20673323 0.16688433 -0.0073859775 0.013182017 -0.222048 -0.2798372 -0.014629843 0.18748127 -0.07007556 -0.08665817 -0.20989032 -0.034000065 -0.108084954 -0.26938778 0.0089324 -0.108210936 0.026079394 -0.066363156 0.20678446 -0.07093204 -0.12464471 -0.26845682 0.014170423 0.024710648 0.12094491 0.6193933 -0.025708651 -0.012327322 0.07288618 -0.05579054 -0.19022028 -0.018414596 0.0069924854 0.027267817 -0.21065964 0.12782566 -0.06688071 -0.1442546 -0.3189648 -0.1038141 -0.21135598 0.4523106 -0.16449945 -0.10605302 0.20865639 0.039115306 0.15758455 -0.118505 -0.12044611 0.2793932 -0.11878038 -0.019038748 0.08824299 -0.032778867 -0.32220396 -0.09584875 -0.14883883 -0.40969905 0.03988704 0.018576253 0.17603329 0.17450473 -0.10020387 0.13610364 0.30739 -0.26709756 0.1117239 0.13028358 0.025847688 0.42547762 0.05324361 -0.1706798 -0.25045148 0.05079175 0.18874343 -0.06058239 0.15506135 -0.35447448 -0.067692004 0.14660835 0.22462568 -0.1989977 -0.20295586 0.020621192 0.1456594 0.09945073 -0.042441294 0.30990085 -0.28797653 0.15396626 0.21940865 0.24478334 -0.029086482 -0.14394659 -0.03758974 0.09531895 0.21269037 0.25217143 -0.21070813 -0.08781106 -0.13265975 0.035134256 -0.34973586 0.03813393 0.35222238 -0.4466652 -0.038498167 -0.1186439 0.22882107 0.11286186 -0.04391559 -0.24222831 -0.23108369 -0.023795702 -0.28307635 0.14596866 -0.23010987 0.056499336 0.20075703 -0.06939225 -0.14037083 -0.27480766 -0.32146636 -0.04695357 -0.086744875 -0.15375507 -0.18879667 -0.06520069 -0.29401487 -0.16356194 -0.41211754 -0.2094742 0.039812826 -0.17421831 0.2632575 -0.16740596 0.18053964 0.14675024 0.14246802 -0.1942492 -0.03908918 -0.21176642 0.018464718 -0.053296264 0.4670691 -0.20545782 0.17133193 -0.20451541
foot -0.17685638 -0.4485895 -0.0020982525 -0.021257555 -0.22039276 0.37230325 0.16887544 0.06253017 -0.1096536 -0.18461265 0.03194629 -0.3809913 0.5635665 0.25689605 -0.15091586 0.24438557 0.08094726 0.06447259 -0.063401766 0.42012247 0.5934291 -0.04412047 -0.26364926 0.14908464 -0.022147613 -0.09941853 -0.065926865 -0.23933227 -0.33007514 0.044240184 -0.17995422 0.23585938 -0.32373366 -0.08188768 0.47946835 -0.40910295 -0.10221228 0.12385592 0.21458437 -0.32986358 -0.029683884 0.49889517 -0.21759768 0.21172197 -0.25856066 -0.0482864 0.18353082 0.02780206 0.10565121 0.27106124 -0.038469747 0.013814572 -0.18976162 0.12629646 -0.21786988 -0.4232303 0.17720112 0.076280154 0.24821237 0.11162992 -0.053458817 0.06214086 -0.05130928 0.048594803 0.32903928 -0.40407622 0.2525037 0.18549466 -0.20406902 -0.24084571 0.24833873 0.43920216 -0.09692075 -0.091368854 0.05903792 0.009739925 -0.22306104 -0.067422345 0.1664508 0.13890356 -0.23810937 0.044518206 -0.055131223 0.079440884 -0.03286731 0.19003046 -0.18147215 -0.16512106 -0.2204107 -0.57147014 -0.0927643 0.1696195 0.13376182 0.15901886 0.23763402 -0.22052503 -0.009712846 0.28561324 -0.039004203 -0.20573747 -0.20626517 -0.16120015 0.2841278 -0.0014528929 0.13892046 -0.12838551 -0.27307823 -0.26308528 -0.011642967 0.16687147 0.4037723 0.30578068 -0.6767755 0.15758774 -0.0013158857 0.19548096 0.0022780036 0.009680559 -0.07385963 -0.07111446 0.35588062 -0.17877755 0.26650634 0.17594275 -0.03026988 0.05519498 0.1505588 0.07343869 -0.43206495 0.028136786 -0.032693062 0.57027763 0.0036934726 0.24237359 -0.33033893 -0.11940904 0.022309281 0.11192148 -0.0072566033 0.01006476 -0.10451112 0.27368435 -0.1719777 0.015508142 -0.1282775 0.11502302 0.16797134 0.17319661 -0.04808439 0.4485611 -0.116581105 0.06619363 -0.26323977 0.3422404 -0.28961062 0.17572343 0.34540412 0.09945859 0.2558161 -0.06382913 0.40307018 -0.03509687 -0.11398075 0.29843143 -0.026017485 0.23451555 -0.15669502 -0.33910564 -0.17385636 -0.19143987 0.29649538 0.42822775 0.3908819 -0.15144028 -0.093014255 0.25151455 0.042609464 -0.12676314 0.23577392 -0.14712176 -0.005253919 -0.13111527 -0.31967467 -0.01067513 0.1630548 -0.07666382 -0.2575118 0.1623342 -0.011231369 -0.4671127 -0.24103676 0.54594845 -0.013230698 -0.078303225 -0.40375373 0.20194685 -0.11090407 0.3452211 -0.11468793 -0.07339761 0.2896442 -0.06805623 0.09672134 0.24503405 0.22619468 0.055614483 0.15755828 0.120719455 -0.31822488 -0.622594 0.29733762 0.13165279 -0.057118285 0.3878733 -0.0043496313 -0.014632186 0.13298066 0.2506544 0.15950735 -0.041296776 0.085599616 0.23964486 0.3608115 0.04539118 0.021027422 -0.08876597 -0.31512043 -0.28118473 0.01684044 -0.087149106 0.20664234 0.23902181 0.23831384 0.023414204 0.100998275 0.23619977 -0.06562535 0.46659902 0.29031605 -0.31416324 -0.10489898 -0.12489967 -0.12701112 0.34486213 -0.082846455 -0.14407994 0.07927148 -0.28702196 -0.27374926 0.0034263276 0.29655203 -0.40308797 0.21369064 -0.01905354 -0.1144969 0.13888137 0.11793756 -0.057311714 0.003902566 0.41530547 0.18077208 0.230726 -0.0559251 0.07419131 -0.46541446 0.111488484 0.047962055 0.104202546 -0.11015876 0.24083547 0.16259837 0.13509639 -0.26515836 0.60198015 0.20683792 0.07269871 -0.07249888 -0.14709096 -0.002171699 -0.6000863 0.30037883 0.07126639 -0.037153024 0.015668605 -0.3138043 0.2993244 -0.30018288 -0.15427731 -0.10989901 -0.13221252 -0.29875308 -0.16956179 -0.2051196 0.30839387 -0.20736593 -0.42393982 0.40367812 0.3741214 -0.1122806 0.21129672
escadre 0.085955456 -0.07407979 0.03706328 0.077095225 -0.035540197 -0.08221916 0.041101053 0.05487272 0.1291403 0.23796155 -0.16801171 -0.019474845 0.116499946 0.23989598 0.15025395 0.17640449 -0.2596695 -0.17388909 -0.06167589 0.0071130954 0.08752156 0.2550831 0.00027626558 -0.1924602 0.43657097 0.18627629 -0.09159444 -0.059629876 -0.2015578 -0.08879277 0.5032819 -0.014620004 0.08947264 -0.0659083 0.43149933 -0.22193663 -0.68258137 -0.19016185 0.028796317 -0.06880399 -0.107762314 -0.3606904 0.11994421 0.3916906 -0.08075893 0.10039598 0.040921737 0.24251996 -0.18112355 -0.090766534 0.23507997 0.43253636 -0.23177214 0.32258418 -0.017185688 0.4510168 0.031283744 -0.20455113 0.34358987 -0.0952648 -0.021337295 -0.31685084 -0.006432614 -0.09994825 -0.1462262 0.06398776 -0.36740446 0.21894735 0.31602976 -0.044347774 -0.16252658 0.012618315 -0.029955346 0.3533331 0.08141292 0.29105973 0.22595835 -0.124707766 0.055898305 0.33709648 -0.18832825 -0.16428003 -0.24574338 -0.13237461 -0.2568276 0.053035147 0.30953795 -0.23537795 -0.56250745 -0.088029705 -0.027411543 0.38018778 0.02567166 0.2809397 0.40438703 0.08714836 0.10451963 0.05454566 -0.30536073 0.120964915 0.33322886 -0.33150998 -0.111850075 -0.11278051 -0.090234816 0.23401242 -0.0393328 -0.19889015 -0.08580489 -0.3166389 0.25826755 0.1442744 -0.24945979 0.3223349 0.24882059 0.25316837 0.1662037 -0.19453093 -0.31099918 -0.31601718 0.032415 0.40018737 0.37272158 0.025994338 -0.14776821 0.16490927 0.07385606 0.20693825 -0.06254954 -0.046205543 -0.33701676 -0.4668972 0.49998507 0.100840494 -0.055649944 -0.47829702 -0.30715194 0.153695 -0.17268972 -0.059681974 0.18301831 0.33229116 -0.27410442 -0.20970245 -0.046284534 0.112978116 0.040813588 0.1639639 -0.025000708 0.6795723 -0.12287494 -0.2346923 0.11048054 -0.26076767 -0.1329559 -0.11305042 -0.23972674 0.01617325 -0.0444495 -0.41555983 0.29587895 0.2872002 0.13471289 -0.33862033 0.023594933 -0.36778298 0.09030253 -0.23785804 -0.16162246 -0.3616849 -0.1608182 -0.05360033 0.04128085 0.21430658 -0.1154482 0.41450003 0.21893965 0.05683811 -0.61095023 -0.107844256 -0.0763391 -0.4357758 0.05461344 -0.31907403 0.26089543 0.14153332 0.21040529 -0.21599495 0.13477291 -0.20696327 0.09017126 -0.33758813 -0.41259387 0.21984233 0.23188023 0.107986405 0.39794186 0.009196882 -0.067354485 -0.33510727 -0.19836949 -0.065090396 0.16330838 -0.015005519 -0.18723774 0.074718796 -0.16419238 0.57718754 0.39764822 -0.2650967 -0.16099209 0.4469614 -0.19831076 0.2277936 -0.03634497 -0.072271176 0.2729258 0.0116014555 0.4363089 -0.3338223 -0.09487445 -0.06997229 0.007994398 -0.16472264 -0.6274804 -0.50705826 -0.13462225 -0.49410188 -0.42007363 -0.3163 0.10088068 -0.44100922 -0.01709826 0.10171911 -0.29203472 -0.3251527 -0.30681208 0.15411124 -0.16230556 0.17792413 -0.3744426 -0.25884125 -0.088582985 0.46671507 0.53737795 0.26658478 0.33691537 0.10261751 -0.008653682 -0.086477496 -0.31625038 -0.16812308 0.14473161 0.27041024 0.02607341 0.040144134 0.26331943 -0.11885617 -0.15920982 -0.21360326 0.030398011 0.10719075 -0.1348111 -0.27133644 -0.2664001 0.13776797 0.32172498 0.3015499 -0.13091503 -0.22694708 0.084807694 0.14383237 -0.39858764 0.23366146 0.3316508 -0.28871658 -0.49742535 -0.13083477 -0.3532081 0.09647888 -0.04763877 0.09695803 0.06477044 0.22789212 0.16095649 0.44846228 0.25385106 0.12484304 0.32181397 -0.14399497 0.4660565 0.31030384 -0.26724476 0.08392179 -0.106002145 0.1477554 0.113425836 0.18921304 0.18705972 0.10620154
wing -0.24508722 0.08103797 -0.12845857 0.099286236 -0.039303754 -0.023454932 0.23175123 0.033782788 0.28276566 0.068634376 0.10368623 0.1718455 -0.051444665 0.27271038 -0.14561953 0.19235785 0.1459214 -0.13466586 -0.18040189 0.10788003 -0.31375396 -0.19126771 -0.06009086 0.18799722 -0.080430396 -0.017049355 -0.48358738 -0.021672864 -0.46722662 0.03188476 0.17041264 -0.07953913 -0.0400864 0.011720733 0.18655156 -0.42596123 0.17343119 0.029622726 0.23068817 -0.24823782 -0.06552378 -0.04821977 0.015518254 -0.081145816 -0.19555104 0.08061806 0.1808292 -0.14187872 -0.015025782 0.15261161 0.21573359 0.21468845 -0.22265531 0.02078715 0.23820318 -0.052092686 0.15579696 -0.21164908 0.31504437 0.22973981 -0.23257612 0.03721365 -0.1771321 -0.012134691 -0.24404976 -0.006902721 0.052473128 0.3168382 -0.1337306 0.06459545 -0.06659695 0.20781468 0.15744112 0.042468075 -0.06532455 -0.071023576 0.11312515 -0.14502497 0.018330088 0.16072309 -0.0606687 0.34527382 0.091312505 0.13967547 -0.023807626 0.28770602 0.19295949 -0.1703994 -0.30257356 -0.26873457 -0.019009996 0.30286422 0.057820104 0.15667379 0.18607579 0.33554405 -0.36909226 -0.2300537 0.08542884 0.0043961774 0.34661943 0.04397832 0.31743595 0.23855874 0.0676213 0.05154838 -0.011185419 -0.3229494 0.06907518 -0.27659968 0.07529101 -0.029721381 0.14993097 0.023911985 0.14374723 0.12802632 -0.09734281 -0.43310854 -0.35579067 -0.28043106 0.22010048 -0.10233523 0.13408414 -0.044046342 0.17183618 -0.28069928 -0.07346743 0.00962037 0.08765204 0.004734118 0.024294632 0.20327818 -0.09004942 0.07608433 0.0093978895 -0.01644341 -0.30620727 -0.053185817 0.025919665 0.070387915 -0.027023403 0.3890815 -0.10242806 -0.097664714 0.24084693 0.00019408551 -0.00021561484 -0.030013774 0.06879619 0.23011528 0.07388065 0.21311724 0.16572769 0.4441002 -0.08807485 0.18332903 0.05362546 -0.13466424 0.10443154 0.26561174 0.18596412 -0.35508257 -0.0560705 0.20251994 -0.3264022 0.0924842 0.24754994 -0.29275316 -0.42852774 -0.47096434 -0.17208777 0.22200431 -0.11103776 0.22996992 -0.45511556 0.035287984 0.21013968 -0.18728584 -0.22151244 0.3516172 -0.2571987 -0.45164967 -0.04380961 -0.4612572 0.2931359 -0.016324792 -0.10695977 -0.27748168 -0.10400383 0.021916308 -0.018808587 -0.29214823 -0.34511977 0.24677977 -0.14227372 -0.13969083 0.04660272 -0.12033647 0.4842058 -0.5288304 0.023741467 0.21490729 -0.3824177 0.03577896 -0.11880598 0.028350705 -0.5074741 0.3469347 -0.30083337 0.19573624 0.45914558 -0.010145629 -0.12163936 -0.13050233 -0.04255319 0.3129327 -0.11155821 -0.12010613 0.011364791 0.087391585 0.04663533 0.10920056 0.067088544 -0.14152503 0.092422284 -0.07406922 0.077921204 0.1297066 -0.20865543 0.20888016 0.18453819 0.19725843 0.1463396 0.050640766 0.2777102 -0.2149471 0.06671711 0.08792835 0.076693825 0.07505816 -0.33211902 -0.05753006 -0.015374575 0.035245173 0.15491833 0.24498944 -0.026806772 0.008409728 0.06305684 -0.23639789 -0.40034902 -0.057105284 -0.003286445 0.14322102 0.091899134 0.22217977 -0.16962884 -0.47394505 -0.23551388 -0.1704031 0.22461097 -0.045731124 -0.24213928 -0.04582512 0.0469745 0.07073699 0.28282464 -0.013096063 0.05660895 0.2163995 0.041059382 -0.29047164 -0.25669473 0.020842288 0.34290087 0.0074841683 0.08892283 -0.15979299 -0.07826578 -0.102472074 -0.035918154 0.09328247 0.19788702 0.0028622567 0.08447935 -0.08341661 -0.16971649 -0.034783382 0.015591747 0.08031852 0.090499036 0.042839795 0.008126298 0.31826064 0.07937599 0.14092287 0.19614495 0.2707417 -0.33847654 0.2590584
glande 0.7248828 -0.13510695 0.41133425 -0.2508377 -0.16413786 -0.028844824 0.14175922 0.27331385 -0.02874832 -0.06581419 0.2758055 -0.13067958 -0.27444303 0.2822536 0.0851665 0.22348896 -0.18096122 0.2306063 -0.0790488 0.13785996 -0.18071662 -0.40168023 -0.14865027 0.21157865 0.60517293 0.07598598 0.29468048 -0.038652584 0.21297798 -0.2459299 -0.16116494 0.11359669 0.33600172 0.053927936 0.028917577 -0.39700994 -0.162828 0.13467729 -0.2278726 -0.18634565 0.43560028 0.3735692 0.38361663 -0.4946895 0.16013819 0.045822833 -0.105781674 0.14269981 -0.43390432 0.19186327 0.07068928 0.16773856 -0.15729652 0.08005492 -0.19971174 -0.2516281 0.20554617 -0.32607937 -0.0076338304 -0.022896675 0.13928333 -0.22246252 0.41675535 0.2746125 0.04080417 0.050141685 -0.0132302195 -0.087939195 -0.29351 0.3044014 -0.046432085 -0.058993414 0.33571723 0.41048047 -0.31425473 -0.10806602 0.080097936 0.20079584 0.09499397 -0.12551749 0.24189137 -0.007514923 -0.33615372 -0.0977727 0.10887243 -0.40246975 0.002974984 0.48782894 0.09778766 -0.25290462 -0.18753368 0.35415098 0.21409099 0.437938 -0.055674534 0.24263084 -0.09726311 -0.27462626 0.10703478 -0.12742496 0.0012508616 -0.4818578 0.10292524 -0.3891162 -0.33432946 -0.12563269 -0.1562028 0.03514509 -0.10117751 -0.068713725 0.42095342 -0.018610412 -0.28855598 0.27672926 0.05982061 -0.098512374 -0.16092849 0.14755438 0.0637209 -0.068021715 0.13635938 -0.0756536 0.2538685 0.14702046 0.049388744 0.23599079 0.29140732 0.17334121 0.24786276 -0.061588448 -0.4473924 0.15387861 -0.30489665 0.17968646 0.11020322 -0.55097884 0.20522474 -0.2192901 -0.11850887 -0.010068111 0.68298507 -0.13752796 0.10393822 0.3591777 0.19531333 0.21424899 0.18752901 0.0076662553 -0.14840284 -0.19582458 -0.16631348 -0.32896042 0.04149779 -0.5562492 -0.13031176 -0.051712852 0.08103194 -0.21481867 0.2388306 0.1755381 -0.21963005 -0.14915285 0.06408713 0.25134993 -0.20124501 -0.2504933 0.20351753 -0.16868736 0.5218087 -0.2906455 0.19200394 -0.36757913 -0.26300406 -0.24850269 -0.06966194 0.18614593 0.057430204 -0.3456072 -0.28774676 -0.058388527 0.113028936 -0.075434215 -0.2601682 0.3070806 0.18295391 0.13378954 0.031783655 0.04644734 0.041558463 -0.15337077 -0.25933227 -0.030054487 0.108182915 -0.05837674 -0.40502894 -0.38333613 0.17708063 -0.032396402 0.4297169 -0.107284054 -0.1481028 0.04507056 -0.032779925 0.5208904 -0.24014609 -0.26623514 -0.18545407 -0.1721484 0.25086626 -0.06793178 0.48800516 0.28782013 -0.12227606 -0.11966127 -0.16137345 -0.15761942 0.20141983 -0.4729835 0.004059419 -0.09663503 -0.14987035 0.57063156 0.24487936 -0.005067804 0.21905012 0.16279821 0.13650493 -0.08361722 0.015144527 -0.22253224 -0.38151953 -0.3097048 0.4334011 -0.3083756 -0.36029214 0.31319714 -0.0453621 -0.00086135254 0.12003223 -0.10490266 -0.3706886 -0.01164126 0.076367825 0.4022655 -0.4946102 0.084316775 0.35276866 -0.06109541 0.17179681 0.30926174 -0.23063415 -0.53419757 0.4183463 0.1995939 -0.63959765 0.3885965 0.036562152 -0.53539073 -0.5236028 -0.14618884 0.010624756 0.115935 -0.17211787 0.01192141 -0.085006185 0.054325104 -0.23185137 -0.21740292 -0.28570583 0.7187155 0.6087687 -0.49557376 0.40787452 -0.018407991 -0.26029494 -0.044397328 -0.3083455 0.049945388 0.026570136 0.048117068 0.048677947 0.20437029 0.16691649 -0.11192783 0.13129938 -0.062275454 -0.113177754 -0.26319334 0.5086799 0.14876138 0.10078832 -0.49533373 -0.08091002 0.3277152 0.29996917 0.45454046 -0.21993381 0.1026282 -0.32257485 0.117499284
cerveaux 0.028846608 -0.124687076 -0.15778661 0.051728584 0.23189823 0.018241657 0.30979928 0.1619652 0.034639258 0.098583564 0.036946144 0.081245854 0.082284436 -0.12219335 0.40082386 0.073982716 -0.0817441 -0.046490006 -0.3615262 0.23289247 0.21117063 -0.3136985 -0.13943765 0.14018962 0.0714783 0.21615921 0.20491365 -0.1187581 0.14505173 -0.024755195 -0.0433929 -0.22079019 -0.016552953 -0.33199453 -0.20403925 -0.030982943 0.26197082 0.062622435 0.060384165 -0.07121343 0.3118057 0.16387214 0.10368446 0.121638656 -0.13534458 0.13703425 -0.12887344 0.22865464 -0.015189856 0.40021574 -0.3148319 0.14580345 -0.2733195 -0.07103583 0.086256415 -0.09843845 0.07252664 -0.1738246 0.08846968 0.040976286 -0.13857028 -0.14096928 -0.12698136 -0.015960723 -0.15245767 0.014941019 0.058639824 -0.15768161 -0.23008117 0.22826041 0.008765974 -0.02067634 0.17343982 0.11555338 -0.37978196 0.03592123 -0.07461415 0.13907832 -0.049006436 0.0682106 0.07312224 -0.07882134 -0.16298956 -0.04735938 -0.1714803 -0.44935316 0.15364127 -0.097335674 -0.2109031 0.014299315 -0.05856603 0.06566344 0.08453887 0.37215292 0.14360635 0.27116764 -0.07530928 -0.0009850955 -0.24081816 -0.054873474 0.34257808 -0.33209416 0.03404004 0.1434828 -0.032441325 -0.094035454 -0.115037985 0.10940998 0.16485953 0.18637171 0.08212496 -0.0759726 -0.039564803 0.1339543 -0.017714787 -0.11560587 0.18526007 0.028958106 -0.2760508 -0.205589 -0.19115253 0.06590967 -0.17572854 -0.04165838 0.09223668 -0.14732754 -0.101159975 -0.20844772 0.21894445 0.0962425 -0.12489132 0.031133907 -0.12316953 0.1649409 0.018577326 -0.089375585 0.025347037 0.09553487 0.19087295 -0.15715265 0.24676572 -0.14587793 -0.16918427 0.1190952 -0.16711393 0.05412429 0.064095944 0.19487035 0.22506854 0.0046671284 0.20991981 -0.07526285 -0.19375768 -0.1096766 0.15510517 -0.038383402 -0.011240036 -0.065506056 0.21882206 0.06856664 -0.011574581 -0.095178306 0.029705307 -0.064215526 -0.05288562 -0.12719773 0.051509388 -0.1289664 0.2822754 0.03583813 0.07407868 -0.39552647 -0.014571956 -0.24889696 0.015611774 -0.15261689 -0.1477082 0.269697 -0.2203839 0.06996843 -0.030084096 -0.42379674 0.009029471 -0.1927239 0.13309667 0.12754506 -0.25597215 0.06748903 -0.0008963799 -0.25414208 -0.11087275 0.03888143 0.13764505 -0.05755195 -0.16049625 -0.35732776 -0.062891304 0.18858087 -0.0058308127 -0.39353913 0.0575267 0.14216857 -0.07969507 0.30558938 0.072447866 0.29072285 0.066577874 0.11013849 -0.21438451 -0.08927786 0.20893045 -0.20776829 0.030023355 -0.15333897 0.26858217 0.15048374 0.28537044 -0.07080862 0.24758402 -0.08040052 -0.03436543 0.2276345 0.109432556 0.36670884 -0.07997152 0.022338372 -0.06479195 -0.28098392 0.041860785 -0.050886523 -0.0033344263 0.09883951 0.008657002 -0.19895862 -0.2843602 -0.034928344 -0.37691602 0.024356097 0.001288782 -0.14066167 0.26391858 0.15833437 0.17612466 0.1825287 -0.22369419 0.017667564 -0.07967634 -0.22326277 0.2002137 0.19920765 0.03728496 0.18226624 0.23066156 0.35583404 0.04758352 0.33825245 0.31063065 -0.22210057 -0.15874408 -0.08516042 -0.076858185 0.076644346 0.124482006 0.16603804 0.34457743 0.20946564 -0.11529742 0.052576903 -0.06870585 0.0095251845 0.2078091 0.060153063 0.10806969 0.10688421 0.012004333 0.080976814 -0.1341391 -0.19041592 -0.07863638 -0.20855542 0.051087786 0.04032784 -0.08509141 -0.17664339 0.18735258 0.35388353 -0.10695254 -0.14116149 0.06803644 0.055631004 0.17799066 -0.10158377 0.075962596 -0.049717855 -0.0068459366 0.10940148 -0.20155728 -0.21014021 -0.16995591 -0.06132835
cervelle 0.40963528 0.07351695 0.23194331 -0.25801158 0.13429898 -0.08074577 0.38142192 0.16846783 -0.14335904 -0.30002534 0.14485607 0.13364105 -0.1282319 -0.07486239 0.20131455 0.17920657 0.33197683 0.16855918 -0.003373997 0.17359 -0.33778447 0.0035976826 -0.24988452 -0.19511132 0.017125709 0.033842634 0.23534758 -0.107691124 -0.029401284 -0.1407363 -0.0918684 0.015625853 0.08177371 -0.22409089 -0.11015079 0.005461774 0.0648407 0.013355777 0.1755253 0.21442816 0.16609685 0.14899413 0.17121719 0.08578421 -0.26174217 -0.0050326907 -0.17528273 0.18727188 -0.17236987 0.29614633 -0.14687286 -0.11254146 -0.13826442 0.050794218 0.272893 -0.35856137 0.2143939 -0.3781566 0.07750913 -0.052978132 -0.104571864 -0.2742403 0.32637727 0.0481406 0.22559153 0.02537635 0.24717984 -0.007661817 -0.1361306 -0.080448635 0.14692393 -0.057196353 -0.014158953 -0.00995725 -0.058406457 0.18317598 -0.12037081 0.06348813 0.024127834 -0.21193898 -0.10679004 0.15770943 -0.2575275 0.15294804 -0.1675507 0.011304692 0.053644504 -0.04787475 -0.24633557 -0.025587952 -0.06757511 0.26112622 0.3082868 0.12490902 0.012843807 0.34191692 0.1455997 0.028595364 -0.029005516 -0.3675501 0.21258718 -0.16236624 0.059045922 0.39031035 -0.09373837 0.05163005 -1.8473875e-06 -0.1498636 -0.08904016 0.06487252 0.21027286 -0.053067468 -0.22182027 0.47410947 0.1537019 0.19599442 0.54783654 0.0020851484 -0.20039515 -0.31735992 0.12039533 0.07029803 0.016039718 0.21073729 -0.056568593 0.043551553 0.24809618 0.41144884 0.016975753 0.43526983 0.051015638 0.41209877 -0.11810707 0.02456623 -0.017297164 -0.28655007 -0.010077923 -0.097359486 -0.048297312 -0.2674253 0.15917729 -0.25183713 0.0016686844 -0.07134658 0.21719563 0.2829975 0.15889779 0.003076949 -0.078167625 -0.26884198 -0.35580972 0.19102393 -0.36774993 -0.3126084 -0.0042561423 0.17000663 -0.10893598 0.18809183 0.039703865 -0.23236565 -0.048807673 -0.1461589 0.16566956 0.28087297 -0.12747395 -0.13099359 0.0028987625 0.10262708 0.24650204 -0.018097943 0.3529511 0.08078263 0.0038424227 -0.2986182 -0.11299822 0.016088294 0.13242032 -0.051088825 -0.21228257 -0.17249571 0.13569425 -0.27754286 -0.13860095 0.2577902 0.37335783 -0.20580906 0.22232245 -0.14246906 0.19989355 0.025134264 -0.099773735 -0.02648224 -0.035717122 0.33365577 0.33048913 -0.16927123 -0.16832016 -0.3007626 -0.33679333 -0.2008869 0.057039075 0.19383578 -0.0049674707 0.20051365 -0.27806106 0.18254556 -0.19450964 -0.09375084 -0.1222429 0.2640658 0.34675145 -0.00777694 0.100233935 -0.12902944 -0.067586064 -0.009184522 0.32165918 0.34361774 0.39235854 -0.0721797 0.11215976 -0.05917601 0.1910775 -0.2756887 0.03141773 -0.16929656 -0.16513897 -0.3471533 0.21439439 -0.3699422 -0.10256949 -0.035958424 -0.02350203 -0.43394992 -0.38255987 -0.19725358 0.0319214 0.39376068 -0.0029586793 -0.107763946 0.046827737 0.08875629 0.24800001 0.016824607 0.16750443 -0.06709446 -0.44502246 0.14098795 0.28272235 -0.05452642 -0.17231447 0.09239054 -0.004465091 -0.13453536 0.018703854 0.19607165 0.028217481 -0.0050885747 0.20321348 0.0022794192 0.20746297 -0.11896498 0.09478042 0.2681784 0.16932084 -0.012415333 -0.15670083 0.10896946 -0.16617198 0.46242383 0.37545115 0.033280186 0.15973972 0.01325675 0.12012713 -0.08476502 -0.43331033 0.07414385 -0.102934666 -0.13124935 -0.021398107 0.09825091 0.15321141 -0.16507202 0.14629029 0.122508354 -0.100685924 -0.2970169 0.011684669 0.20364824 -0.009647492 -0.16531804 0.12079773 0.25277653 0.09083077 0.15100661 -0.046837702 0.15660675 -0.17114578 0.12962243
