12 300
rectangle 0.583755 0.04556683 -0.052220102 -0.030193469 0.37422287 -0.49615118 -0.35934418 0.63112646 -0.54554963 -0.7110235 0.038098194 0.119919255 -0.15371929 -0.2608423 0.18184803 0.059609756 0.076659 2.0051715 0.25664118 -0.5393531 -0.45522648 -0.11796293 -0.36250514 0.6198066 0.548773 -0.42028278 -0.037987616 0.5074912 -0.063849844 -0.19045791 -0.18115735 0.54318494 -0.5982334 0.10243521 0.20392099 -1.0747815 -0.33826828 -0.23617986 -0.37309283 -0.6951032 0.42843026 0.3143649 -0.22081754 -0.6821097 -0.21282725 -1.083587 0.20508319 -0.33280194 -0.19534105 -0.028679617 -0.3769655 0.32989818 0.33734503 -0.10970183 -0.20404248 -0.29587474 0.44354123 0.087028325 0.58131105 0.33339623 -0.51555735 -0.15425667 0.18528561 0.08333885 -0.069561735 -0.19241072 0.00612945 0.3967777 0.084531635 0.38301602 0.5425773 0.0065575982 0.33977273 0.08674597 0.2327039 -0.053650454 -0.40095153 -0.6917659 -0.2606649 -0.20200315 0.024748806 -0.051581267 0.31067753 0.37980476 0.060880985 0.13847426 1.4198341 0.9956809 0.71075994 -0.3957608 -0.10818283 -0.24998988 0.6884917 0.16769257 -0.12238938 0.2534757 -0.5249174 0.56162024 0.13555214 0.058143336 0.8823424 -0.21643093 0.016662085 -0.083105356 0.21337913 -1.252259 0.5904149 0.02007002 0.13837439 0.47503293 -0.46096855 0.05211601 -0.0680214 0.23914295 0.17245159 0.21780968 -0.550277 0.028029582 -0.17919843 -0.01830245 -0.4624341 -0.5813802 0.48339054 0.68241775 0.20680165 0.20058027 0.112752184 -0.22219057 0.042545006 -0.06784736 -0.23208866 0.78126764 0.4378481 0.20277558 -0.27475604 -0.23457724 0.47856146 -0.045374274 -0.091732934 -0.046996795 -1.1867926 0.37839267 -0.59211934 0.58876246 0.04373813 -0.29021755 0.26677662 -0.28335556 0.35556924 0.23273464 -0.36565685 0.017496914 -0.13948333 0.010400699 -0.49147186 -0.38850248 -0.4127953 0.3666841 -0.36867216 0.34791923 0.04719983 0.18597163 -0.3816247 -0.08341865 -0.0068958546 0.121150054 -0.36981177 0.24808198 0.37423396 -0.09932015 0.00025934196 -0.20156568 -0.63052356 -0.44285432 -0.0620917 -0.41448316 0.069473244 0.34954342 -0.57172626 -0.73762804 0.062342774 0.05019657 0.40267333 -0.32216752 -0.280119 0.13285854 -0.18866353 -0.012677147 -0.68596035 0.29460642 -0.24504985 0.49529713 0.038157787 -0.38281727 0.6816784 0.30053768 0.69114095 0.1335586 -0.48285353 0.56566226 0.377672 -0.011153359 -0.4954042 0.6357461 0.20540534 -0.085007 -0.34530777 -0.21671106 -0.27391455 -0.17665331 0.43067762 0.2690561 -0.021653077 -0.68604517 -0.32900977 -0.1390601 -0.6163031 0.2308424 -0.41986308 0.05365277 0.07370927 0.44068074 -0.22023469 0.02106112 0.2986022 0.4889744 -0.37094632 0.4045101 -0.3779792 -0.28355837 -0.34741056 0.61171466 0.36847767 0.17652348 0.18352185 -0.011270337 0.20373893 0.12767164 0.4380795 0.19974644 -0.10689303 0.16955715 0.11250672 -0.015012428 -0.21567781 -0.49406302 0.4449729 -0.06798709 -0.23837112 0.08837186 0.05813004 -0.10254103 0.23544863 -0.4668834 0.16225922 0.4957722 0.5163981 0.7839924 -0.046824075 -0.25903186 0.3849196 0.115533285 -0.3623885 -0.3077866 -0.24610864 0.21930522 -0.0068305773 -0.3804654 -0.254714 -0.11800522 -0.7735264 -0.2593651 0.3371042 -0.5543271 -0.68050855 -0.6347893 -0.3576172 -0.11536852 -0.3028483 -0.36365548 0.33504274 0.30929208 0.43000457 -0.48186833 0.5785642 -0.32412493 -0.051202916 0.1758969 -0.19299999 0.05427576 0.6743365 0.5408796 -0.22746393 -0.22408585 -0.18184288 0.041521136 -0.32960382 0.13193163 0.16516991 0.37312368
round 0.112703875 0.21625781 -0.10427046 0.36132398 0.15013646 -0.93180406 0.09671011 0.58087367 -0.1632291 1.8906016 -0.018114451 -0.2533662 0.39929974 -0.61571175 0.1786691 -0.05242609 -0.34317768 1.2264142 0.6896203 -0.18241338 0.36920425 0.011242543 0.10491428 0.09455698 0.36798155 -0.32524824 0.06768795 0.18068624 0.03214435 -0.20421559 -0.38055348 -0.18133315 -0.33668214 -0.19178632 0.022605816 -0.51868707 0.21944904 -0.004015647 0.018145725 -0.40975967 -0.060228303 0.650213 0.060084976 -0.38328588 0.35051832 -0.30488843 -0.11480165 0.17895196 -0.1951057 -0.10550347 0.076811284 0.31940773 -0.27024922 -0.305977 -0.20462914 -0.07713171 0.14534086 0.2005363 -0.10044113 -0.008489042 -0.21503136 -0.39047384 -0.028961234 0.049773313 -0.20115317 0.29178047 0.12722145 0.076994605 -0.35338396 0.2149925 0.6532863 0.27465162 0.38281128 0.57375515 -0.26425904 -0.010563213 0.02818786 -0.16980132 -0.4533344 0.06048171 0.03947139 0.08444372 -0.23916544 0.4796028 -0.35330912 0.51244885 0.55592144 0.6330379 0.14256468 -0.036741454 0.31938696 -0.08877104 0.12863779 0.018395681 0.10436192 -0.09804265 -0.108682096 -0.006452644 0.14022894 0.3624801 0.40022144 0.22722436 -0.0012735084 -0.38336995 -0.23131421 -0.43813026 0.17538503 0.1529479 0.23442455 0.42710036 0.33922678 -0.8310994 -0.11408246 0.33933365 0.11970694 -0.03562662 -0.05654933 0.1852083 0.33889332 -0.071468204 0.10523395 -0.315101 0.13004069 -0.13794567 -0.06273056 0.068624265 0.27546942 0.29184464 -0.08168509 -0.08310001 0.22515321 0.20487598 0.55937624 -0.04636544 -0.011423897 -0.42337722 0.4265417 -0.09271981 0.29471636 0.073881574 -1.9417973 -0.24739559 0.021418096 -0.35227728 0.09057581 -0.49440897 -0.1722547 0.050868265 0.33918455 0.38988346 -0.3276701 -0.17419519 0.22664817 -0.030333193 -0.45185915 0.17082693 0.2021389 0.2189389 -0.0016375931 -0.29172674 0.023608567 0.029119147 -0.44279042 -0.24489601 -0.03705671 -0.2521158 0.2923493 -0.06831237 -0.08892258 0.4752899 -0.07863111 0.09683673 -0.506287 -0.019860735 -0.090881325 -0.13862664 0.43566737 0.025801837 0.36370423 0.0006692095 -0.1653829 -0.038310707 -0.20978254 0.21500298 -0.1406044 -0.07335018 -0.08642272 0.18340309 -0.044407032 0.35927904 0.23912382 0.057722345 0.48150316 0.11667835 -0.130847 0.46504095 -0.5386173 0.017292498 -0.43490562 -0.097954966 0.32625395 -0.3655616 -0.094291784 0.4300349 0.50711054 0.025427459 -0.1760256 -0.3989464 -0.37917387 0.008888047 -0.30312547 0.50103253 0.4231602 -0.008585465 -0.211731 0.41409847 -0.31956398 -0.3050246 0.22035079 0.31130007 -0.0021219596 -0.4289636 0.14627054 0.06991505 0.2514551 -0.085941866 -0.27110112 0.31826726 -0.30631614 0.62713045 0.40111363 0.7849815 -0.07233034 -0.0076276264 -0.30488268 -0.29497743 -0.24156672 -0.06221066 -0.25056738 0.023489242 0.27146956 0.2955832 -0.6293965 0.43513158 0.026658755 0.10889423 -0.08348439 -0.06885917 -0.24318863 0.22763501 0.25755414 -0.6019203 0.0020855332 -0.38975456 0.4623724 0.53328305 0.33361962 0.26490703 -0.2397592 0.3671591 0.13913563 0.12853205 -0.5803331 -0.0013254039 0.35865754 0.27781916 -0.72938555 0.07744553 -0.39058053 -0.019287905 0.36007658 -0.31984654 0.037401117 -0.099387206 -0.022967437 0.68220735 0.2268257 0.010871634 0.07310148 -0.16024911 0.31929532 -0.16334231 -0.4351167 -0.24906744 0.07573703 -0.5500978 -0.11449002 0.0778208 0.22391206 0.0151850805 0.68492734 0.055791978 -0.21396953 -0.11665468 0.036666848 0.40755782 -0.2618097 -0.15612663 0.22398466 0.39367643
circle 0.3681403 0.25215787 -0.19002016 0.17195831 0.4155545 -0.3333151 -0.17046782 0.71233714 -0.13550252 1.5688511 -0.28675216 -0.00038956892 -0.12920293 -0.3014763 -0.016602164 0.2471536 -0.23414469 1.256484 -0.24071474 -0.18462601 0.13331756 0.17392421 -0.56071293 0.54032856 0.6328554 -0.27385297 -0.12509878 0.1411523 -0.106922366 -0.002931203 0.09506653 0.59977424 -0.85884583 0.06438208 0.026282558 -0.040554456 -0.2640257 -0.100876465 -0.26364318 -0.47465017 0.25998995 0.37268448 -0.36440495 -0.0007313093 0.30666953 -0.48291916 0.094590984 0.1431569 -0.35075578 0.06252115 0.02388126 0.050555672 0.1471553 0.026904117 0.027466306 -0.1474195 0.30208537 0.10298677 0.2435337 0.026178675 -0.45191506 0.019876923 0.25091556 -0.23768339 -0.40541813 -0.36701667 -0.19009249 0.3824704 0.36361378 -0.030454885 0.15489225 -0.20385382 -0.33847722 -0.14190905 -0.53278804 -0.18532291 -0.24435796 -0.49673903 -0.29148948 -0.0742802 -0.12630616 -0.11897145 -0.001963537 0.057832457 -0.13750035 0.38220543 0.6845884 0.51295894 0.30581143 0.10251252 0.15701586 0.08962095 0.32496658 -0.045203805 -0.47416434 0.059258018 -0.40907618 0.15972064 0.025824424 0.10269099 0.27000204 -0.12304697 -0.04459644 -0.3193299 -0.263942 -0.9737408 0.35732728 0.23074885 0.030923959 0.49544808 0.066336714 -0.0008278025 0.1093419 0.116364844 0.3280568 0.19394358 -0.3694018 -0.37641495 -0.4053683 0.2603689 -0.052523386 -0.52839303 0.50245494 0.2987266 0.25992233 0.2947339 0.28924936 0.2605147 -0.1643071 -0.17512223 -0.117118485 0.3861426 0.09191044 -0.11038691 -0.47454348 -0.23428033 0.272693 0.10329254 -0.020397147 -0.21918373 -1.8052022 -0.056778662 -0.28995618 0.118747145 0.011925505 -0.503538 0.27723134 -0.3711 0.032715593 0.30061498 -0.33045962 -0.28958613 0.10709451 0.24082033 -0.37601057 0.18446131 0.016367357 0.54750365 -0.23186092 0.28330645 0.3840614 0.2789105 -0.06558276 0.083657734 0.33041623 0.16696489 -0.5413643 -0.1641218 -0.16950683 0.07295786 0.47055006 -0.24764836 -0.1438736 -0.023899015 -0.045197677 -0.63268936 0.07221731 0.067134514 0.15413888 -0.64359844 -0.02718022 0.31299305 0.04494003 -0.06491933 0.05386692 0.007685012 -0.79029155 -0.3665537 -0.25396642 0.27639568 -0.19580789 -0.07047381 -0.21104077 -0.32027742 0.1883091 0.02696831 0.4399715 -0.15991417 -0.48964086 0.49800402 0.07458649 -0.29627392 -0.15457852 0.4179811 0.10656278 0.09435576 0.08976503 -0.4913612 -0.44235104 -0.4005104 -0.19934261 0.053753577 0.2801791 -0.06347156 -0.14989027 -0.24282384 -0.25894108 -0.22888738 0.06848875 0.32522202 0.61566865 -0.14280063 -0.34155926 0.4474064 0.0001913049 0.37538823 -0.5387894 -0.16054821 -0.5498467 -0.10677835 -0.23458953 0.6308915 0.45080322 0.4208623 0.20757541 -0.0040174522 -0.08249356 -0.092827566 0.12835644 -0.27410105 -0.24286264 0.22700648 0.10273229 0.17758878 -0.12706946 -0.38184616 -0.17802176 0.35976592 -0.13703182 -0.25462732 -0.24436098 -0.0072169877 -0.010540293 -0.29010192 0.20641924 0.39008144 0.089573674 0.2586894 -0.15766858 0.18774028 0.40570906 0.039366838 -0.56606394 -0.103701204 -0.23717046 0.034303367 0.05851184 -0.112939365 0.0037587578 0.17555583 -0.49369475 0.11279961 -0.49301532 -0.05204241 -0.22360444 -0.6955982 -0.12705784 -0.2225476 -0.17972155 -0.38524148 0.10330509 -0.073663644 -0.13224573 -0.3648243 0.050945543 0.13168815 -0.3355518 0.027250914 -0.12137729 0.10402359 0.23422843 0.26473516 0.3916335 0.02094835 0.11054581 0.21362123 -0.05959405 0.49810007 -0.03273644 0.26887387
triangle 0.13850789 0.06742781 -0.1444962 0.0790552 0.46970773 -0.1449008 0.2289134 0.8398949 -0.08393253 0.7177127 -0.120379835 -0.0909758 0.16840352 -0.300211 0.065904744 -0.20767277 0.088903956 1.3180019 0.3911791 -0.18721567 0.0036249454 0.12495472 -0.32487085 0.37789568 0.44261536 -0.32838237 -0.09525388 0.32760015 -0.21646747 0.34531483 0.2093105 0.38424128 -0.30804598 0.050856564 0.3657887 -0.031530295 -0.18989147 0.15288354 -0.23909965 -0.38628882 0.38532826 -0.004025189 0.22195777 -0.43538123 0.02055579 -0.17858914 -0.17570543 0.11135585 -0.36022 0.012066143 0.17777455 0.45617986 0.2689046 -0.37257245 -0.24206905 0.26568052 0.7275692 0.23747091 0.7892437 0.5467638 -0.40255654 -0.49020433 -0.036428515 -0.09600397 -0.41919732 -0.060863294 -0.23624468 0.027863422 -0.004864053 0.083191514 0.11348336 0.21779934 0.4052668 0.07390941 -0.5871273 -0.34859073 -0.57426023 -1.0135695 -0.402893 -0.35171226 -0.32190377 0.021144621 0.19163299 0.4699078 -0.278126 0.53265107 0.7842999 0.49649903 0.21217754 -0.4042762 -0.015796965 0.1507114 0.4119838 -0.47621682 -0.2060623 -0.2104258 -0.3014225 0.2745336 -0.035365716 0.17053708 0.5535373 -0.31860885 0.27085334 -0.060466364 0.14545913 -1.0814431 -0.24272145 0.13507694 0.015227274 0.32846648 -0.21764594 0.16483425 -0.15432285 0.25507283 0.25532094 0.08937624 -0.44844404 -0.04905653 -0.3453997 0.3100438 -0.1371671 -0.5303626 0.53346884 -0.2401171 0.63024753 0.5142739 -0.052833375 0.11493078 -0.1613746 -0.4808645 0.02036771 0.049427737 0.39365718 -0.012363302 -0.088113904 -0.015961537 0.01229193 0.07834043 -0.30638483 -0.2696165 -1.5065647 -0.047549684 -0.386977 -0.10807425 -0.3651682 -0.08982652 0.19275516 -0.42210612 0.5279 -0.24054673 -0.2948554 0.09453155 0.021677991 -0.0006891835 -0.4346952 -0.23768085 -0.16551681 0.43204933 -0.10040099 0.51568925 0.12469511 0.4711675 -0.26060578 -0.038399268 0.5645869 0.013132699 -0.52454233 0.12197618 0.17816393 0.030228732 0.37980285 0.037296023 -0.22403772 -0.6236666 0.113628834 -0.5119541 -0.037831225 -0.2034999 -0.16008501 -0.5941538 0.25231 0.13137235 0.35001868 0.49440166 -0.22091311 0.22925715 -0.6839115 -0.642402 -0.44391853 0.29883412 -0.22101264 0.051539835 -0.63343495 -0.18756676 -0.027683802 -0.2774847 0.40750787 0.08107289 -0.31170055 0.9293311 -0.21879709 0.061030265 -0.035225786 0.38722435 0.073011585 -0.45364103 0.02587652 -0.3870182 -0.21107829 0.13284653 -0.06352861 0.40199044 0.22795884 -0.5368151 -0.19754052 -0.18606478 -0.6832224 0.38907927 0.015383827 -0.01363743 0.17993782 0.23010078 0.069934845 -0.12660283 0.22795627 0.55084074 -0.24518402 0.3184693 0.12021275 -0.17923261 -0.21501191 0.32479954 0.29814526 0.00038157817 0.029994559 -0.08786955 -0.008924689 0.41677 0.8169582 0.08074287 0.08992608 -0.122909024 -0.1812412 -0.15469448 -0.15161014 -0.49357557 0.13648607 0.074412 0.48278135 -0.23796105 0.3715031 0.22854617 0.52232206 -0.38438812 -0.33308035 -0.11305803 0.47362772 0.7511851 0.0048457934 0.03289604 0.07686584 -0.25597385 -0.6174509 0.13956505 0.24047358 0.21185046 -0.007239596 0.22292042 -0.16898589 -0.14855449 -0.5403876 -0.3403948 -0.28883317 -0.058774617 -0.65291 -0.34152704 0.06760934 -0.36268806 -0.46168542 0.030525865 0.19505745 -0.055944737 0.10029887 -0.15281904 -0.0875955 -0.1018406 -0.36162242 -0.072153844 0.25586015 -0.20959549 0.6614951 0.68621475 0.27650243 0.10280734 -0.26160863 0.15653816 -0.16751349 0.047898404 0.64354616 0.42978185
cube 0.12566836 -0.070749566 0.13701074 -0.0039735152 0.30810222 -0.03563151 -0.6641867 0.0730191 0.33359075 -0.32109737 -0.13749224 -0.27357355 -0.2940672 -0.1435114 0.12637912 -0.45958325 -0.029692609 1.6413932 -0.11527008 -0.15573539 0.36184534 0.22668682 0.091817364 0.19831152 -0.063608035 -0.5491262 0.15014505 0.2173774 0.12612586 -0.3550921 -0.6153139 -0.0641386 -0.25988987 0.077402145 -0.32295045 -0.69156146 0.2475017 0.026984025 -0.16323705 -0.33525884 0.23599482 0.048453018 -0.21164104 0.112615734 -0.568034 -0.044339404 -0.4381768 -0.18797074 -0.6097943 0.4704481 0.02470467 0.014947013 0.09510659 0.035702143 -0.4662274 -0.010226482 -0.09308368 0.24090953 0.38151756 -0.08817407 -0.04522441 0.11117049 0.09410835 -0.02729584 0.08924825 -0.28747284 -0.4951674 0.0255064 -0.3962807 0.17876874 0.22803165 0.41928998 0.2800604 0.13088115 -0.41993555 0.47308582 0.19263847 -0.55840033 0.14604792 0.4812152 -0.46646634 0.24751446 0.33887315 0.29313272 -0.26676655 0.28936902 0.9828099 0.70302904 -0.4983039 -0.5628716 -0.0509851 0.029839048 -0.028434355 -0.025291992 -0.07363827 -0.069366835 -0.6333112 0.33064887 0.21078263 0.041120075 0.7247225 -0.1850925 -0.13399628 -0.0017525175 0.24092884 -1.2906995 0.78946936 0.16118923 0.5327948 -0.0015750757 -0.16676325 -0.2820126 -0.38463965 -0.68626285 0.43491736 0.34066597 -0.7028931 0.39353108 -0.17715926 0.23085909 -0.42320934 -0.13074087 -0.10940371 0.20960267 0.20894533 0.05285534 0.035051733 -0.32218412 0.25503314 0.46428317 0.17943521 0.35471684 -0.0143088475 0.008761799 -0.0015284782 -0.06734801 -0.06439535 0.029328018 -0.06681422 -0.2339409 -1.8615683 -0.24048989 -0.50105006 0.22825965 -0.10361961 0.055186916 -0.12327567 0.46105832 0.16887717 -0.2766563 0.19663951 -0.110819675 0.39312947 0.14588377 -0.5939392 -0.34848905 -0.053276435 0.5612972 -0.5051646 0.53131694 -0.14630169 -0.30123472 -0.3139101 -0.3038912 -0.011559565 -0.2338811 -0.38778028 -0.0027574012 -0.1280051 0.5062726 -0.09143841 -0.4049866 -0.07097194 -0.30095366 -0.06847172 -0.14405675 0.11322898 -0.14830485 -0.6484935 -0.471598 0.48926574 0.3883845 0.24757783 0.10074661 -0.0467482 0.12070298 -0.006081117 -0.34797946 -0.34132987 0.09848958 -1.2328522 0.27541378 0.0008523081 -0.29637906 0.49000785 0.2832067 0.6011432 0.115867764 -0.41946632 -0.010336534 0.0653556 -0.24545024 0.5888675 0.26312578 0.2653484 -0.23872209 -0.053344175 0.43166915 0.39944804 -0.09618534 -0.35607666 -0.27090636 0.06534311 -0.015432959 0.45871305 -0.020973884 -0.38507494 0.19499688 -0.3009222 0.10808923 -0.25733882 0.35082906 -0.18663876 0.015208449 -0.030018564 1.1169453 0.28463405 0.8315539 -0.2352591 -0.09527985 -0.08893163 0.4565148 0.04659632 0.37228248 0.17038907 0.085443825 0.04800535 0.28415254 0.19880596 0.08274212 0.10105939 0.3393861 -0.20762596 -0.05322221 0.29621077 -0.22751153 0.34458295 -0.4522989 -0.6293433 -0.2790055 0.2027552 -0.09820017 -0.050545156 0.069900304 0.53466123 -0.16567865 0.0038524969 0.4947503 0.3515592 -0.1347491 0.4989492 -0.42563683 -0.33389735 -0.18242781 -0.47177345 -0.17623985 -0.14294778 0.26446995 -0.1038859 0.107827224 -0.057694625 0.07506937 -0.14477557 -0.32081082 -0.9792675 -0.5090184 -0.3922836 -0.06662544 -0.3883468 -0.30488008 0.6818474 -0.07769365 0.3285699 -0.28513882 -0.002465359 -0.10951818 0.39494637 -0.26268739 -0.41431472 0.17539261 -0.15021941 0.012311116 0.25445136 0.023511427 0.1608307 0.018568857 -0.3755466 0.314526 0.32418123 0.3018022
oval 0.74486965 0.22977361 -0.084368914 0.08729325 0.22479534 -0.61895996 -0.14508818 0.27930507 -0.34646794 0.098233834 -0.0029741228 -0.29670444 0.12259292 -0.252971 0.49192467 -0.099360906 -0.0027747687 1.6230128 0.99797034 -0.6672976 -0.35997486 -0.24468616 0.23158683 0.00046594924 0.51277137 -0.7545856 -0.35572857 0.43121868 -0.30203608 0.018426275 -0.38094157 0.34122384 -0.3020559 -0.605801 -0.38983396 -0.37908816 -0.058827847 0.14745738 0.05545287 -0.18579085 0.4740731 0.8578274 0.49001315 -0.40281025 0.3681218 -0.5429705 -0.033411343 -0.6845215 -0.34418306 0.02706866 -0.31803218 -0.05604041 0.7122787 0.17819783 -0.086439334 -0.4129909 -0.4190392 0.42381752 -0.1100158 0.28579965 -0.31747004 0.009181121 0.35224065 0.40885803 -0.64239347 0.035754994 0.29708728 -0.20745836 -0.0016786194 0.6750311 0.2548071 0.59481525 -0.1691876 0.64825606 -0.23033087 0.4632465 -0.55612564 -0.3089954 -0.23482431 -0.2583741 -0.11764826 -0.025721606 0.015472228 0.7491603 -0.060835253 -0.20581116 1.3239602 1.395131 0.35882202 -0.42831033 0.08200523 -0.36354992 0.53948957 0.07964012 0.04409758 0.12177712 -0.33015648 0.39938146 0.12239366 -0.6486257 0.6397977 0.43291485 -0.01559731 -0.7669527 -0.033164524 -0.81918037 0.47979292 -0.10068373 0.49280187 1.0076957 -0.6482796 -0.008362154 -0.13450436 0.27640685 0.49872783 -0.04257073 -0.3172731 -0.04950735 0.45992282 0.5687711 -0.47600162 -0.38544545 0.447234 0.08254554 -0.013008419 0.17935635 0.37652528 0.08627743 -0.11491343 -0.5011312 0.05561473 0.2456676 0.02737708 -0.08736534 -0.51984197 -0.37330788 0.039346144 -0.32119545 -0.05321923 0.15333013 -1.3012137 0.027106695 -0.020318164 0.46459395 0.101919964 -0.30773515 0.007951835 0.2389871 0.594744 0.56193066 -0.31420988 0.102368854 0.47485945 0.4470985 0.25356227 -0.019850228 -0.3737882 0.0028442806 -0.23745063 0.30971134 0.4226406 -0.17395309 -0.054643154 -0.084096044 0.6025999 -0.018804634 0.048352703 0.18570592 -0.30025145 0.048824124 -0.04198868 -0.2855013 -0.5913489 0.5169462 -0.82100594 -0.2696327 -0.07907687 0.55433947 0.37192276 0.37646282 -0.387688 0.48031077 -0.18106478 -0.3566374 -0.1910663 -0.062089644 0.058398608 0.6091234 -0.7630998 0.6632741 -0.10196529 0.6124668 0.20333949 -0.43441474 0.18739338 0.13675456 0.06339385 0.5337977 -0.35911453 0.16211432 -0.16452423 -0.18961544 -0.20934454 0.5345857 0.12249251 -0.4527089 -0.10446948 -0.59480286 -0.29510525 -0.33326912 -0.46189424 0.6614182 0.23028141 -0.18107267 -0.17263345 0.28295597 -0.5453639 -0.018102506 0.1356698 0.08272742 0.45409465 -0.12518047 -0.16115008 0.027021302 0.6442456 0.43087372 -0.2743265 0.23769535 -0.077742465 0.71041596 0.17652321 1.1922538 0.14225757 0.39531037 0.15760079 -0.06349707 0.6058993 0.023641698 0.28231132 0.1561945 0.17041329 0.21514003 -0.25295603 0.6777207 0.0467724 -0.040427316 -0.019017655 0.24830304 -0.3263393 -0.028296713 0.4317311 0.017261479 -0.23035647 -0.35683337 0.3496649 0.5699437 0.17874762 0.47374192 -0.18312769 0.31572515 0.4638728 0.32944435 -0.03810071 -0.1738244 -0.058000855 0.6183883 -0.21611828 -0.19997878 -0.6646169 -0.018070964 -0.10338581 -0.1537007 -0.36268765 -0.2336102 -0.43746462 0.34835553 0.24612217 -0.14373514 -0.16347446 -1.0333506 0.17923605 -0.020402161 0.2554038 -0.52104366 0.046934437 -0.1279598 -0.23497304 0.12556481 0.30905956 -0.19228172 0.2999476 0.3809185 0.31668714 -0.49106 -0.17480566 0.25213584 0.005739753 0.61993974 0.021702802 0.2254324
line 0.22431056 0.16393647 -0.113802284 -0.1544704 1.1141428 0.14375226 0.3610546 0.21137427 0.12600286 1.6216835 0.0902735 0.12502235 0.012403718 0.110799 -0.13507144 0.2648651 0.07126438 1.7819905 -0.013692996 -0.07427606 -0.03297253 0.35246643 -0.08950947 0.4011248 0.34648466 -0.0027742959 0.03844652 -0.17584848 -0.258662 -0.011650101 -0.5543173 0.10205569 -0.19724385 -0.25826225 -0.16438763 0.35898823 -0.13690034 -0.16028093 0.14751124 0.21389213 -0.2809386 0.22186911 -0.014811903 -0.4444994 0.34327418 -0.24703453 -0.22454235 0.14943992 -0.18538381 0.24126539 0.29664823 -0.09560519 -0.14174393 0.077537656 -0.1332228 0.14122579 0.13300091 -0.27153656 -0.32115078 -0.14596285 0.2789699 0.18685248 0.014888284 0.30305937 0.07496884 0.18356104 0.27025133 0.31221458 0.33768198 -0.012722961 0.35775706 -0.026071548 0.3286998 0.15512785 0.08935848 0.14427002 0.09520352 -0.19656383 0.08755162 0.033376507 -0.028175274 -0.42638448 -0.056428205 -0.017065253 0.1423813 0.14135787 0.19542785 0.1582419 0.16108222 0.15056665 -0.3557143 0.6689829 0.21979466 -0.43097454 0.049796578 -0.27123642 0.13029839 -0.18996146 0.62641895 -0.26398522 0.039794296 0.1822537 -0.19306937 0.14476748 -0.01563713 -0.6883177 0.1968613 0.13499424 -0.35859457 0.04710134 -0.32872906 -0.34373462 0.18187805 0.12792698 0.05339876 0.006137991 0.029398108 -0.40062937 0.07977821 0.19151306 0.058993954 -0.051141117 0.036431357 0.25449008 0.27645457 -0.095809706 0.40979338 0.03180481 0.05345783 -0.43374628 -0.16843745 0.10708307 -0.33656144 0.21742204 0.3457185 0.22461131 0.39970273 -0.10150219 -0.098520525 -0.23438674 -1.2336084 0.2481092 0.08200463 -0.556193 0.37431803 0.17539242 -0.28339064 -0.4448689 0.21147802 0.4337589 -0.3810301 -0.06711802 0.38948923 -0.1178226 -0.10136026 -0.18920998 -0.20819196 -0.15041128 -0.13923852 0.30131376 -0.12036311 0.31162924 0.101027295 -0.110187694 0.2983115 -0.10445971 0.118159175 -0.34940323 0.07492964 0.34404534 0.19764194 0.031135488 -0.49147904 -0.59865695 -0.01891938 0.1468217 -0.34574094 0.25088954 -0.3317997 -0.021992648 -0.007797418 -0.053055502 -0.11250264 -0.26497176 -0.2110596 -0.10221956 -0.21697693 -0.13144639 -0.54727215 0.048153836 -0.07970278 0.27326298 0.16775809 0.14479357 0.09816228 0.02673161 0.18301179 -0.28029668 -0.34468332 0.03059485 0.36553276 -0.52109176 0.17573527 -0.06684587 0.029579006 0.12876417 0.21804602 -0.3737984 -0.796757 0.03437736 -0.3611853 -0.101700306 0.04913659 -0.18434979 0.10943357 0.02450437 0.21741588 0.6058843 -0.23513739 0.09962572 -0.37959376 -0.15700598 -0.024882697 0.2689852 0.049714632 -0.6801388 0.12666765 -0.13750565 0.16486666 0.12371316 -0.11481678 -0.17337747 0.2154113 -0.34812114 -0.39670816 -0.11541599 0.40850514 0.14788732 0.25168604 0.123632014 0.16807091 0.0145045975 0.13796347 0.1704821 -0.5862447 -0.41410375 0.05910334 -0.19507697 -0.2779931 0.008174919 -0.506328 0.09560592 0.12538043 -0.25828287 0.078600936 0.2322947 -0.04285553 0.12667769 0.082237124 -0.07990346 0.30058682 0.3772367 0.17408289 -0.14174697 0.23449028 -0.14925948 0.4315621 0.22959779 0.9728424 0.022562549 -0.15653977 0.45490405 -0.23456383 -0.2146258 -0.030952603 -0.15696846 0.15169321 0.08608694 0.30375546 -0.5169824 -0.23338895 0.3463869 -0.09593303 0.34335098 -0.14548998 0.57844615 -0.21842176 0.05279106 0.20853731 0.099141195 0.13096817 0.30142152 0.14245625 0.15717235 0.0046457136 -0.15682867 0.13733917 -0.11819135 -0.16508836 0.04598133
ellipse 0.20920233 0.124535576 -0.20791025 0.052245226 0.07212068 -0.051888566 0.23674577 0.8607851 -0.58937776 -0.94162124 0.6967897 -0.3457244 -0.42422053 -0.15319537 0.13879946 -0.0123477485 -0.1771649 0.8029583 0.36464313 -0.5439529 -0.49626395 -0.16213271 -0.6896368 0.395092 0.651278 0.001776435 -0.15329008 0.5847381 0.457185 0.41168314 -0.121295504 -0.11200907 -0.51205754 0.65458465 0.016148835 -0.524512 -0.07255661 -0.3878685 -0.36514 -0.29295343 0.088583596 0.536568 -0.6171213 -0.30345887 -0.3342387 -0.9906324 -0.033944022 -0.20417501 0.14351696 -0.03644549 -0.1892888 0.30547884 0.13832968 0.23138067 -0.202312 -0.15850385 0.38672775 0.51178634 0.36885986 -0.027421638 -0.061066963 -0.5366976 0.35827518 0.37947178 -0.3214511 -0.2973519 -0.24610521 0.61754495 0.06060577 0.47481108 0.7528495 0.055917706 -0.27448753 0.29852384 -0.11858665 0.061350353 -0.45658913 -0.87769866 -0.052917544 -0.08167952 -0.46352234 -0.088893354 0.4250778 0.5604317 0.27585685 -0.12703927 1.0804609 0.4454466 0.78892475 -0.3148706 -0.2331231 -0.019793164 0.5187146 0.1245546 -0.4947237 -0.09410226 -0.35802883 0.089459665 -0.26454476 -0.27483872 0.43728566 -0.2152784 -0.31231815 -0.2992506 -0.06365455 -1.6106868 0.45447597 -0.14347456 -0.27454498 0.6044359 -0.68414676 0.07549524 -0.45425874 0.29007044 0.07620893 0.4296473 -0.44872797 -0.0014634787 -0.715565 0.16256458 -0.17920652 0.07441844 0.4752767 0.6195182 0.4164604 0.41205382 0.024076346 0.16362341 -0.20889619 -0.170748 -0.30973732 0.5534388 0.3043429 0.04304603 -0.0109995045 0.20102936 0.019771777 -0.057847723 -0.41897067 -0.6992133 -0.083184585 0.08927267 -0.64009166 0.14926755 0.62571293 -0.55467373 0.42198807 -0.78562075 0.6698761 0.2572734 0.0051140026 0.08082488 0.091020495 -0.038392615 -0.13572338 -0.00744535 0.081581146 0.1321059 -0.25655806 0.26285708 0.76856846 0.25790468 -0.37256798 -0.14361376 0.6974235 0.02430637 -0.56800467 0.252429 0.13844289 -0.054536387 0.27586618 -0.3155813 -0.12617616 -0.76398176 -0.37659445 -0.8101683 0.21132152 0.0655928 -0.5381402 -0.6316635 0.3820403 0.03718111 0.4026919 -0.44253406 -0.24738239 -0.10992008 -0.31945524 -0.0651031 -0.041228607 0.25397858 -0.16528293 0.14299789 -0.13134764 -0.7427166 0.78484625 0.5730396 0.48093885 -0.27398294 -0.42581978 0.85457736 0.30050716 -0.44026294 -0.3974046 0.6381054 -0.32193667 -0.19794697 0.013887511 -0.36358792 -0.61443126 -0.3508601 0.05086924 0.13707387 0.07171181 -0.57738703 -0.60053897 -0.8413237 -0.4348921 0.17707516 0.0130983135 0.22646183 0.8119617 -0.23227037 -0.53716093 -0.028429227 0.16216147 0.41504076 -0.27203184 0.58247626 0.03586536 -0.50890905 -0.0625064 0.7045677 0.49092516 0.04546955 -0.2908756 0.10637387 0.31592837 0.37449858 -0.010916308 -0.08452928 0.044051364 0.03510872 0.03918891 -0.15594548 -0.5378805 -0.6445212 0.25149342 -0.14682479 -0.15505525 -0.119279325 -0.4781029 0.037901014 0.5940143 -0.65696 0.10884086 -0.054094143 0.33341077 0.7957161 0.07029515 0.006773791 0.29171768 -0.0438019 0.04149363 -0.59509677 0.10726222 -0.40984118 0.18376797 -0.30327663 0.18878216 0.08086302 -0.68229467 -0.17810902 0.40481615 -0.63563883 -0.5750478 -0.64185816 -0.020208249 -0.16681795 -0.21372889 -0.13333637 -0.2139437 0.41292688 0.14399047 -0.32496023 0.4995977 -0.21831368 -0.22549206 0.2300069 -0.12434333 -0.28733465 0.9367048 0.39902768 0.16521226 -0.5516675 0.12822929 -0.55810255 -0.2964468 0.67101806 -0.15765567 0.10301238
circular 0.5895343 -0.045581367 -0.3800018 -0.042776085 -0.09895622 -0.19659254 0.2912996 0.33385584 -0.09204447 0.5186434 0.17119612 -0.015692018 0.029092625 -0.35477328 -0.067566834 0.16021684 -0.18341272 2.210385 0.19350769 -0.1647981 0.17753682 0.27788672 0.44135952 0.46837273 0.5128991 0.110819645 -0.2968382 -0.23742247 -0.2690838 0.043447338 0.10994784 0.11217078 -0.7886372 -0.6104151 -0.09963495 -0.3740819 -0.19501819 -0.22095163 0.35473293 -0.68063647 0.22779045 0.21314707 -0.12557034 -0.11374725 0.15690881 -0.39084333 -0.1423142 -0.32625353 -0.56115556 0.09796812 -0.04190733 0.11706021 -0.19927853 0.5709754 -0.0074861636 -0.099243425 0.29421723 0.3993622 0.1641885 0.12017169 -0.6398285 0.19667688 0.34814307 0.008906801 -0.7876271 -0.13177338 -0.2765474 0.14710248 -0.33588725 0.67932093 0.61547273 0.3212946 -0.7033241 0.46448472 0.2436018 -0.3146036 -0.23390324 -0.48998573 -0.27206773 -0.18210533 0.24479805 -0.6940699 -0.037053805 -0.07935468 -0.17464334 -0.09655683 0.63254815 1.0341429 0.4354412 -0.28292468 0.39582884 0.11347594 0.50251013 -0.18793845 -0.099110745 0.6101262 -0.4212661 0.4168343 0.43156484 -0.37199786 0.17233624 -0.30658314 -0.4468656 -0.2313372 -0.3713873 -1.815555 0.06019207 -0.3055699 0.49175066 0.17449737 0.39885855 0.29049423 -0.058502 -0.031374317 0.50013375 -0.009068236 -0.88737917 -0.2508864 -0.36916655 0.6516577 0.18161187 -0.12752844 -0.18209612 -0.020049227 -0.18875876 -0.1730164 0.17637837 0.060465477 0.22232312 -0.25676495 0.037485927 0.19397251 0.4492817 -0.23057759 -0.1910438 0.23119012 0.058151823 -0.12614028 -0.32256165 -0.020589234 -0.67205536 0.0023340296 -0.825167 -0.1363151 -0.32527688 -0.52746594 0.01660942 -0.43869907 0.6214939 -0.02872562 -0.55093163 -0.12489642 0.03090793 0.51534736 -0.28646412 0.24531855 -0.15152147 0.2152743 0.011638527 0.4565245 0.4149332 -0.18526368 -0.20358959 0.37547734 -0.0022753142 0.36744893 -0.4365287 0.4563365 -0.25731128 0.17845023 0.11660737 -0.5031451 -0.26095608 -0.33002162 -0.35494044 -0.066261165 -0.043357395 0.55488807 0.5046366 -0.33666223 -0.16065799 0.14056525 -0.10749705 -0.17773397 -0.44415987 -0.034654588 0.008284813 0.2836677 -0.061273787 0.6490269 -0.17715086 0.17459594 -0.46967635 -0.60158795 -0.095870264 -0.21738218 -0.09968942 -0.020217553 -0.51045907 0.021913081 -0.32043618 -0.1202346 0.17019296 0.3891469 0.34507796 0.31659168 0.014458422 -0.4610057 -0.6524748 -0.13640381 0.009051827 0.118417904 -0.024113357 -0.24501728 -0.18320106 4.194467e-05 -0.39196992 0.10284421 -0.4068714 0.11877283 0.49375802 -0.04764604 -0.112938575 0.18645856 0.7836179 0.08933885 -0.58050096 0.12898974 -0.2101305 0.036737338 0.043366045 0.5471592 0.1842553 0.451178 0.521833 -0.3257417 0.038946725 0.24039623 0.21344979 0.35804063 0.14930604 0.15876049 0.20266524 0.38240343 -0.048511427 -0.13757594 0.43753022 0.20650569 -0.023309415 -0.2156526 -0.040565997 -0.49914387 0.3924223 -0.37950486 0.10560262 0.43775323 0.27107602 0.523754 0.1699858 0.1916969 0.22438613 -0.04887129 -0.52140605 0.20487136 -0.081976555 0.47854903 -0.30912733 -0.085058376 0.24481511 -0.2267355 -0.2590416 0.073281676 -0.41288415 -0.27676883 -0.19131327 0.13110524 -0.19435433 -0.47366434 -0.031003853 -0.5186067 0.52009153 0.15775056 -0.06906608 -0.32774138 -0.2559111 -0.30407706 -0.3523531 0.14475834 0.29924265 -0.3388207 0.3380138 0.3813841 0.4530429 -0.14261113 -0.14753526 0.39398047 0.053101495 0.7815636 0.22267835 0.22245303
square 0.9032635 0.46808133 -0.119064085 -0.29442403 0.21379083 -0.33109733 -0.3260206 0.49652806 -0.19349767 1.321933 -0.18822218 -0.24796583 0.11881665 -0.24823593 -0.27491036 0.050884772 0.06954243 2.1895468 -0.018778615 -0.20260583 -0.19367419 0.107341394 0.2750253 0.2849033 0.32621244 -0.9015092 -0.3099266 0.8038148 -0.59658515 0.26387194 0.17777535 0.40932474 -0.46830404 -0.18833488 0.13445285 -0.41122872 -0.27918187 -0.261235 -0.28769624 -0.21501891 0.07769431 0.37325007 0.5026552 -0.67493737 0.22268029 -0.48418117 -0.2917976 -0.35764152 -0.8683417 -0.08073236 -0.17326018 0.18936075 0.30142677 -0.07902304 0.4443679 -0.34234354 0.40940595 0.44049582 0.27763772 0.4660516 -0.050431952 -0.040611535 -0.27663097 0.53846234 -0.1054638 -0.24842557 -0.40112504 0.13350876 -0.061464753 0.30694014 -0.07706266 -0.113543436 0.2396083 -0.19511046 0.38081765 -0.17952465 0.12544796 0.118486166 0.3278834 -0.05623885 -0.3376582 0.02954619 0.87412447 0.30999294 -0.42242947 0.66588974 0.5583797 0.6581051 0.38309303 -0.89172727 -0.2052947 0.16964826 0.007137469 0.15213563 0.3995241 0.21094592 -0.65692586 0.45518515 0.0202189 -0.10682509 0.21125871 0.024081307 -0.39598325 0.12621558 -0.042317882 -0.79538053 0.29026282 0.05720282 -0.22662847 0.5109471 0.32090646 -0.53604615 -0.010700463 -0.01760012 0.3532507 0.3880463 -0.46373615 -0.04121885 0.083040364 -0.020332213 -0.12945215 -0.061266765 0.13093287 -0.044688463 -0.094874635 -0.06583623 0.06378217 -0.055028874 0.12851007 -0.07399123 -0.05385244 0.5044699 0.39406967 0.30536973 -0.115607284 -0.16162781 0.59904194 0.17564432 0.15726219 0.015985137 -1.0723778 -0.020721428 -0.09713734 -0.011344633 -0.045180533 -0.21710424 -0.12288165 -0.42704794 0.3738034 -0.058519967 0.34817952 0.055551536 0.30100253 0.21987392 -0.7047903 0.050189167 -0.15643525 0.08767888 -0.113069244 -0.048120663 0.29934937 -0.09664634 -0.59727883 0.022452487 0.30315635 -0.41967174 -0.1619808 0.2727744 0.042871572 0.33557063 0.009115734 -0.12088032 -0.9156108 -0.48072723 -0.59781605 -0.25772032 -0.0174494 0.22749159 -0.07869561 -0.46338645 0.28728506 0.10181808 0.38752323 -0.36261177 -0.25559562 -0.14260942 -0.1367654 -0.09282957 0.43912336 0.65145874 -0.52905166 0.20120963 -0.08097765 -0.014780758 0.06862887 0.3719854 -0.0028419257 -0.46559766 -0.5778978 0.16144788 0.110150486 -0.7189653 0.04475671 0.49879113 0.4862251 0.31365225 -0.059138842 -0.5775746 -0.14628883 -0.28404242 -0.0009935949 -0.043286573 0.27740714 -0.5391826 0.017974861 0.54150796 -0.5123105 -0.069713876 0.22650574 0.40635934 -0.04013712 0.66743237 0.1344681 -0.45919535 -0.06298577 0.13083626 -0.2760129 0.23113911 -0.10924733 -0.0064172726 0.16636217 0.43014678 0.15075189 -0.25773636 0.44571164 0.013631281 0.3714736 -0.14535303 0.4985978 0.013329853 0.43806618 -0.06406179 -0.11927877 0.36450374 -0.08730985 -0.25878382 0.5119797 0.1510928 0.19297662 -0.18839034 -0.12199876 0.6187962 0.25571296 -0.17078647 0.2121353 0.7817177 0.3866052 0.30758613 0.023849258 -0.08323055 0.01831502 -0.18483892 -0.74852884 -0.10395543 -0.37977424 -0.06792685 -0.23829092 -0.17999165 -0.950356 0.04128891 -0.52719146 -0.35083544 0.091257885 -0.04281506 -0.5141638 -0.2503798 0.016001184 0.10834187 -0.4701457 -0.4046865 0.50207627 0.72021425 -0.09714243 0.13636014 -0.33092213 -0.12770309 -0.40160495 0.09168258 -0.46947947 0.6328117 0.2930588 0.25346893 0.31189865 0.119704895 -0.37366423 0.34875822 -0.21611829 0.33232427 -0.048837904 0.17023644
cylinder 0.62411106 0.5356054 -0.06924689 -0.24627498 -0.107220866 -0.9461476 -0.38338327 -0.2896619 -0.21419916 -0.3470569 0.48040804 -0.20637392 0.0789869 -0.6729813 -0.25031847 -0.2159222 -0.5533396 2.610474 -0.27290514 -0.172049 0.13699484 -0.46688324 -0.17047292 0.26352736 0.24385077 -0.33683395 -0.41231725 0.24797305 0.022384893 0.49011832 -0.039686754 0.077834435 -0.54754496 -0.0313608 0.28148744 -0.16230854 0.09549773 0.5031991 0.4053255 -0.57652336 0.2624367 0.26293916 -0.3121961 0.1214278 0.2905084 0.08210022 0.13657208 -0.10562686 -0.29692125 0.3341715 0.5695085 0.044823386 -0.18868026 0.2509508 -0.40818158 -0.20826343 0.07637151 -0.24663821 0.010909232 -0.1316722 0.0719741 -0.17186566 0.21635422 0.017636176 0.12359575 -0.85315424 0.0523107 -0.06594882 0.54858774 0.20295261 -0.03778769 -0.3548325 0.028318131 0.099800535 -0.5916862 0.48491827 -0.075599365 -0.25282454 0.3044157 -0.10597258 -0.54299605 0.060814053 -0.10356915 -0.27248338 -0.010309259 -0.081413776 1.4159763 0.8650244 0.016440742 0.3661441 0.28894696 0.010079162 0.5222856 0.23907433 0.0944538 -0.25652924 0.5223517 -0.28651878 0.69672346 -0.78179216 0.14144868 -0.093465745 -0.14513573 0.29058594 -0.069135815 -1.6424603 0.07094237 0.16917382 -0.039220784 0.39860612 -0.11587864 0.2101484 -0.0022183312 -0.057026714 -0.7125463 -0.44466242 0.23400687 0.64643025 -0.34865013 0.638584 -0.43007332 0.55290365 0.31630045 -0.253958 0.011658634 0.11269047 0.076509275 -0.2509272 -0.061649848 -0.6328322 -0.12501644 0.664123 -0.06755523 0.14088297 0.51905745 -0.08989463 0.086411536 -0.051348656 -0.538466 -0.37112412 -0.66853577 -0.115418375 -0.1479442 0.21960387 0.10493316 -0.56338 -0.8763483 -0.21903206 0.70968664 0.101532996 -1.06634 0.16382167 0.11128157 0.3375546 0.19909412 0.3364623 -0.14611721 0.63860124 -0.34897187 0.6608242 0.20035638 0.042496175 -0.014687955 -0.48958305 0.23572822 0.18994047 -0.24290696 0.0005790144 0.45888746 -0.0017850837 -0.3753736 -0.36405194 0.05023455 -0.62027097 -0.8539711 -0.5862458 0.35497186 0.54185855 0.34008476 -0.70039606 0.033399303 0.72898704 -0.00063525786 0.0025623576 -0.29761824 -0.22845826 0.460907 -0.11053851 -0.19140275 0.43609187 0.04059457 0.15786056 0.6010465 0.14119174 -0.025901875 -0.11728478 -0.21407506 -0.30773672 -0.9389778 -0.4838358 -0.03213198 0.3864985 0.04201012 -0.21676825 -0.14392087 0.09292353 0.19644217 -0.20295882 -0.23082066 0.3767435 0.07448194 -0.12129609 -0.050522957 -0.26279262 -0.038034227 0.6322546 -0.3443569 0.6536748 -0.20905878 0.20400397 0.6899737 0.12905623 0.9361361 -0.1187232 0.6691173 0.2879992 -0.10424308 0.85206074 0.44502148 -0.37304363 0.5494601 -0.17445543 0.29222807 -0.1513727 -0.37295878 0.10215883 -0.50398296 0.5390997 -0.17452793 -0.009081258 -0.043020267 -0.30411234 0.0891339 0.84841675 0.05635904 0.007863626 0.20298065 0.45036376 -0.28015625 0.0857499 0.27132425 -0.34969342 -0.09544129 -0.50144637 -0.3388664 0.8636476 0.101251304 -0.19460031 0.26017314 -0.35314015 0.38943928 -0.23782776 -0.6913834 -0.24908538 -0.12715548 0.48569226 -0.03886576 0.20972365 -0.1136838 0.39822745 1.2036195 -0.12820052 -0.29821515 -0.24737087 0.0013309155 0.0259142 0.10609608 -0.36578828 0.07410413 -0.3725126 0.033622194 -0.11642271 0.11506743 -0.36546648 -0.31103793 -0.29004294 -0.18707304 -0.17670965 -0.04233642 -0.053065937 -0.24811909 -0.5373342 0.76528126 -0.45035702 0.06807442 -0.2285411 -0.11407069 0.4539455 -0.07421623 0.10198542
star 0.44191295 0.22885601 0.07073199 -0.104226865 0.48081538 -0.53554255 -0.019610152 -0.23879014 -0.053448673 2.0320845 -0.032972757 -0.59238 -0.16473858 -0.21827315 -0.0869297 -0.16663915 0.21951385 0.24818432 0.13883482 -0.29468682 -0.28159875 -0.40766168 -0.22398634 0.31814227 -0.27895573 0.24602021 -0.8557444 -0.24503759 0.17537598 0.23905513 -0.10284017 0.26666737 0.16872413 0.10263801 0.148469 0.22784644 -0.099184796 -0.2243126 -0.10268323 -0.012853106 0.0125005515 -0.061498813 0.17453684 0.29964966 -0.25927523 -0.34573236 0.06225293 0.022006905 -0.5904002 -0.3674359 0.37953776 -0.3631808 0.45684245 -0.6046112 -0.09533529 -0.16730419 -0.18771246 0.106084615 0.09550264 -0.23392113 0.3608781 -0.38334998 0.46556744 -0.39657664 -0.01738923 -0.034857072 0.19621304 0.30006346 0.17486486 0.3437679 0.29337305 -0.6493406 -0.47625837 -0.021016201 -0.8879163 -0.28772578 -0.6256677 -0.22052865 0.91154575 -0.12196346 -0.6314677 0.102103256 -0.10725327 0.69567424 0.40734938 -0.07028531 0.27451134 0.30009657 0.049373243 -0.13023807 -0.05481002 0.054456197 -0.6180807 -0.1242577 0.041447204 -0.7966666 -0.21391347 0.024957594 -0.32041407 -0.16975537 -0.31300393 0.2520282 -0.22057076 -0.15863451 -0.016704243 0.2059522 -0.13380203 -0.0033585588 0.20522171 -0.37665957 -0.6688925 0.27659476 -0.1269674 0.2825766 0.64995515 0.21102129 0.049479917 0.84751636 -0.16588531 -0.2389371 -0.47708255 0.38294727 0.03780778 -0.29814562 -0.072468214 0.014026062 -0.030768286 0.7755515 0.047810487 -0.1727144 0.07121257 0.3675424 0.3304357 -0.46874204 0.25348827 -0.8960172 0.12747437 0.036215946 0.46738002 -0.5619749 -2.505801 0.03587482 0.17396891 -0.15402094 -0.27576718 -0.35037097 0.48469847 0.16317014 0.94992673 -0.46295977 0.6268666 -0.028069474 0.020098886 0.042747606 -0.29431796 -0.04155626 0.2546876 -0.09025338 -0.015003744 0.29809588 0.44622505 -0.23458545 -0.08622174 -0.556482 0.3730984 -0.095996976 -0.028275978 -0.19001368 0.13317584 -0.009182669 -0.09570314 -0.44025862 -0.26117936 -0.29052943 0.20457539 -0.044756405 0.1574432 0.38369125 -0.07102106 -0.036611855 0.17347226 0.49585202 -0.25666973 -0.0836569 -0.2690359 0.13650532 -0.7891764 0.31577462 -0.2893366 -0.1436178 -0.2924945 -0.22362593 -0.41396564 0.22840695 -0.09275827 -0.99502146 -0.3827797 0.24371132 -0.15100071 0.26671976 -0.2950285 -0.5455267 0.16607347 0.49126175 -0.18200165 0.24994224 0.08989938 0.39280102 -0.79535025 -0.22370714 -0.0891173 0.107176036 -0.30178487 -0.15221913 -0.3051007 0.6980758 0.25095153 -0.28608906 0.08204109 -0.32518402 -0.26866484 -0.15614434 -0.026029889 0.15968202 0.4951998 0.1605647 0.109115906 -0.043927964 0.13074537 0.7705831 0.06926236 0.3894508 0.5073259 0.46296763 -0.13041316 -0.375695 -0.051927596 0.7724747 -0.46638462 0.15321381 0.2786648 -0.24117878 0.42305946 0.010499131 0.27288643 0.3507977 -0.21152695 -0.14292696 0.22272316 -0.027399933 0.25411475 0.39243963 0.4282765 -0.19977503 -0.39597598 0.23645139 0.435543 0.11820489 -0.17847814 -0.24296556 0.0012636794 0.11333534 0.2653655 0.12854043 -0.17151779 -0.074344076 0.12038267 0.15671296 -0.6724478 -0.45961037 -0.9838422 0.11875501 0.40518004 0.10285282 -0.052589178 0.16932636 -0.3921231 -0.116060846 -0.5045897 0.5064486 -0.07024033 0.26773673 0.15417321 -0.021336913 -0.26685107 -0.068496466 -0.27111697 -0.08028236 0.24259105 -0.040626362 0.21562244 0.6409089 0.19345377 0.3175005 0.23360848 0.104069 -0.2840234 -0.24973094 0.1337421 0.6378461
