44 300
مصر -0.0675966 -0.164571 -0.00951028 0.109059 -0.10444 0.045366 0.0602246 -0.0700468 0.00189979 -0.0133551 -0.0271567 -0.0799497 -0.00398013 0.104775 -0.0309284 -0.0406978 -0.050442 0.0327824 0.0302136 0.0787434 -0.0811897 0.0564009 -0.0409591 0.020603 -0.00659868 -0.163519 -0.012242 0.0119509 0.0369287 0.122823 -0.0418297 -0.00752435 -0.13034 0.0554827 -0.00739606 -0.0165349 0.0626974 -0.0712861 0.0189048 -0.0781989 -0.0348643 -0.0592571 -0.0972525 -0.0377252 -0.0574585 -0.0511989 0.0104128 -0.0367444 0.0600945 0.0294591 -0.0401729 -0.0335927 -0.0499443 -0.0345545 -0.0108545 -0.0864467 -0.0741077 -0.0188211 -0.105518 0.055838 0.0306043 0.101079 0.0801262 0.00115445 -0.0343072 -0.0389817 -0.0650403 0.0264746 -0.0196517 -0.0249214 0.017873 -0.0488729 0.0374204 -0.0617285 -0.0564561 0.0696888 0.066193 0.101188 0.0366726 0.10388 0.00991778 0.0116126 0.0465498 -0.0745967 -0.0749326 0.0312817 0.0267709 0.0186895 0.0354543 0.0590775 0.0991618 -0.00597225 -0.00173298 0.00996549 -0.0233647 -0.0330649 -0.0343424 0.0443679 -0.113841 -0.0397918 0.0445425 0.0155559 0.00395281 0.00906314 -0.0591874 -0.0172925 -0.00780189 0.0784199 -0.0679496 0.0354285 0.0237026 0.000190063 0.0285662 -0.0107828 -0.0287956 -0.0508744 0.0402563 0.0561232 -0.0853048 0.0571206 0.0137466 -0.00561507 0.128148 -0.0166394 0.0171386 -0.0163233 0.0832011 0.0304867 -0.0205732 0.022784 0.0407696 -0.0954775 0.0960587 -0.0571461 -0.00815581 0.00455228 -0.0496029 -0.0312596 0.0317847 0.0229851 -0.0713612 0.0345155 0.0665524 0.021357 -0.0532678 0.12944 -0.00562836 0.0375328 -0.0214821 0.0958131 0.0680315 -0.0331567 -0.00399402 -0.00277084 -0.00219953 -0.00615874 0.0430889 0.0423334 -0.0321021 -0.0544172 -0.0412243 0.0986665 0.0695191 0.0179381 0.0416129 -0.0153767 0.0702401 -0.0319501 0.0631711 0.0466319 -0.0365076 -0.0192376 0.029361 -0.0776952 -0.0222924 0.0213304 -0.0189373 0.0527066 -0.0579871 0.0789052 -0.075825 -0.0421811 -0.0479739 -0.0233583 -0.0169571 0.0213654 -0.0238108 -0.107385 0.00195727 -0.0664192 -0.0125901 -0.0879165 -0.0132075 0.00849864 -0.0606118 0.063326 -0.0292361 -0.116045 -0.086132 -0.0685162 0.0917752 -0.0897048 -0.0349903 -0.0389731 0.0611203 -0.0477463 -0.141221 -0.114556 0.0899069 0.172837 0.147924 -0.0122141 -0.0315197 -0.00791538 0.0316796 0.019962 0.022445 -0.0494463 0.0474453 -0.0393238 -0.0110519 -0.0584849 -0.020682 0.000951629 0.0368766 0.067949 -0.0384326 -0.0132998 -0.027547 -0.171001 0.0276599 0.0352133 0.0417452 -0.0163595 -0.064889 0.0370382 -0.0742167 0.0640025 -0.0373777 -0.0438127 -0.0140995 -0.0853556 0.0187343 -0.0515727 -0.0601544 0.00116434 -0.00797011 0.0868077 -0.0680086 0.0288365 -0.0282065 -0.0416805 -0.0356343 -0.0200705 -0.0900273 -0.0358196 -0.0338672 0.029135 0.0137658 -0.0382917 -0.0506645 -0.0236595 0.0091761 -0.109965 -0.115454 -0.133842 0.0135859 0.041323 0.00876901 -0.00273153 -0.0546529 -0.0647656 -0.0428577 -0.119516 -0.0431334 -0.0163486 0.0735525 0.0321591 0.0581439 0.0141226 0.0959061 -0.0329166 0.0622225 0.0110173 -0.00896776 -0.00894227 -0.0434616 0.054338 0.0391113 0.0607642 0.00957884 -0.0192552 -0.00785126 -0.0144863 -0.034824 0.00967755 -0.0895791 -0.0346466 0.0498858 -0.02295
فرنسا -0.02227 0.051158 -0.103038 -0.0467237 -0.112254 0.00181817 0.0507665 -0.0934999 -0.0136675 0.0136872 0.0195092 -0.0434134 0.000358105 0.00444594 -0.0413975 -0.0221204 0.0104444 0.077682 0.0712366 0.0677607 0.0196557 -0.00549427 -0.0574516 0.0528654 -0.110227 -0.0760495 -0.0382695 -0.121864 0.0584337 0.0276218 -0.107965 0.0866996 -0.0679995 -0.0208207 -0.0481317 -0.082817 0.00292373 -0.083203 0.027917 0.0126683 -0.115416 -0.116194 -0.0192399 -0.0141058 0.00134342 -0.0550715 -0.0299331 -0.00488951 -0.00448393 0.063487 0.064114 -0.0027997 -0.00177816 0.0313748 0.00163049 -0.00806855 0.0595536 0.0138728 -0.0384864 0.152258 -0.0964287 0.028424 0.0210257 -0.077419 -0.00522115 0.010762 -0.00881076 0.0114639 -0.0335077 -0.0472358 0.0529756 -0.0486878 -0.007653 -0.00264635 -0.0189186 0.0627756 0.134555 0.0902034 0.0525809 0.0103928 -0.0851872 0.0290408 0.0190174 0.0219919 -0.0892747 -0.0576644 -0.00417577 0.100235 0.00404838 0.00342882 -0.080772 -0.0404566 0.00367524 -0.000841432 0.0229516 0.0192089 0.0938081 0.00100252 -0.0537143 -0.040295 -0.0322917 -0.0627217 0.0782912 -0.0299207 0.00160659 -0.12249 0.0399208 0.0324144 0.0108731 -0.00391783 0.0456559 0.0111664 0.0231864 0.010715 -0.051199 0.0223045 0.0612613 -0.01513 0.152718 0.0275988 0.0293607 -0.00507043 0.0599571 -0.0193347 -0.0216763 -0.0381747 0.0579003 0.114297 -0.00614521 0.0893487 -0.0290531 0.0259884 0.00423934 -0.0905595 -0.0426404 0.0285239 -0.0584974 0.0516222 0.0706023 0.126116 -0.0486304 0.0177977 0.074963 0.0686435 -0.000783322 0.0997781 0.103662 -0.0278218 -0.0395291 0.0728447 0.0698759 -0.0828637 -0.0063918 -0.0123968 -0.012158 0.0176355 -0.0453701 -0.032672 0.0303621 0.0651206 -0.0316824 -0.0141439 0.0752944 0.0177792 0.00199214 -0.0204546 0.0861494 0.0417432 0.169173 -0.0429595 -0.0525604 0.0273963 0.019409 -0.0449869 -0.0310442 0.0475307 -0.0812809 0.059706 -0.0255776 -0.000346416 0.0560307 -0.126031 -0.0649287 0.092 -0.0794255 0.0130911 -0.00607347 0.0266147 0.0451354 -0.007445 -0.0220327 -0.0881241 -0.00221795 0.026241 -0.0992445 0.0455116 -0.000984842 -0.0660723 -0.0518712 0.0232978 0.0424301 0.0214514 0.0399206 0.00864258 0.040027 -0.104171 0.0121892 -0.0779083 0.0138941 0.0933403 0.0948072 -0.012603 -0.00556949 0.0396457 -0.0314781 -0.0366928 -0.0286049 -0.0416036 -0.0711852 0.0478332 0.0230368 0.0286568 -0.0388851 0.0120504 0.0405861 -0.0511484 -0.0490354 -0.0363021 -0.032724 -0.117326 -0.00559947 0.0240643 -0.0228134 0.0264339 -0.0133116 0.031969 -0.00439565 0.0108095 -0.0961894 0.0457309 -0.00618907 -0.0257491 0.0696139 0.0357514 -0.052446 0.0680371 0.0462132 0.13802 0.0178539 0.0118907 0.0355988 -0.105116 0.014919 -0.0797815 -0.0308303 -0.000586986 0.00489388 0.0274462 0.0437097 0.141052 -0.0246981 0.00849422 0.066628 -0.088059 -0.140171 -0.0192658 -0.00837527 0.0943645 0.0266931 0.00649192 0.0125269 -0.0633941 -0.0182708 -0.0717815 -0.0449489 -0.0871866 -0.0817504 0.119157 0.0944129 0.0968258 -0.111116 -0.0153832 0.0226841 0.0532495 -0.0438181 0.0946539 0.0146904 -0.0794735 -0.0620423 0.038628 -0.0426013 -0.10558 -0.0348547 0.0149536 0.022991 0.0383835 -0.040723 -0.038347 -0.03524 0.0766847
العراق -0.0486216 -0.189157 -0.0474665 0.110347 -0.0625102 -0.0874343 0.0695616 -0.114095 -0.0611638 0.0227025 0.0517602 -0.00793985 0.0904448 -0.075501 0.0553472 -0.0834734 -0.00948828 0.0133524 0.118472 0.0958199 -0.00579463 0.0328349 -0.0722474 0.00800569 -0.0712412 -0.072518 0.0620258 0.0924661 -0.0028422 0.114978 0.0117398 -0.0586407 -0.105139 -0.00114538 -0.0169377 -0.0356789 -0.0090516 -0.12676 0.0754801 0.0257576 -0.000714433 0.022952 -0.0141352 -0.0336259 0.00145358 -0.0279556 0.0181362 0.0438352 -0.00198358 -0.00745253 -0.0338608 -0.0770505 -0.0404169 0.0367 -0.061898 -0.0650396 -0.0708825 0.0034153 -0.0854121 0.0969885 -0.0701813 0.069397 0.0740058 0.0489231 -0.0674564 -0.0269724 -0.0807102 0.00137479 -0.00836617 -0.0271716 -0.0322665 -0.112968 -0.0323032 -0.0411596 -0.0164829 0.0901151 0.0168156 0.0368898 -0.0711438 -0.0482664 -0.0579075 0.102865 -0.0707773 0.0240692 0.0303353 0.055996 -0.0981792 0.135245 -0.0778882 0.0342844 -0.0589972 -0.00819249 -0.0843044 0.0123178 -0.00231432 -0.0385483 -0.0185077 0.0691432 -0.0838649 0.00132538 0.00287867 0.0500806 0.0846644 -0.00947385 -0.0460202 0.0234358 -0.0637279 0.0935543 -0.0892427 -0.0163364 -0.00552586 0.0189756 -0.0311028 -0.0441227 -0.0172254 0.0257586 -0.0100069 0.0170334 -0.0628379 0.0142488 0.0731909 -0.0591702 0.135406 -0.0131084 0.0244851 -0.0148707 0.05377 0.0422375 0.0784835 0.00839504 0.0428043 -0.089947 0.0326944 -0.14251 -0.00929365 -0.0361325 7.86972e-05 0.0331932 0.008519 -0.00200301 -0.0341171 0.00967433 0.0569629 0.0031749 -0.0581196 0.0882042 0.0276222 0.0288514 0.0127599 0.124955 -0.0115872 0.00150977 -0.0691769 -0.0306008 0.0915683 0.00614158 0.111837 0.016822 -0.0734328 0.0544671 0.0146129 -0.00202932 -0.0186891 0.0422987 0.0565859 -0.00480352 0.0446417 -0.0217203 0.066418 -0.00578874 -0.0133194 -0.0815186 -0.0767534 -0.0209956 0.0511784 0.0497394 0.0132896 0.0794587 0.0403373 0.0943443 0.0205569 -0.00373271 -0.0126249 0.0686916 -0.00929628 0.0704599 0.0524537 -0.114731 0.0521933 0.0157942 -0.00520728 -0.110851 0.00958159 0.0182452 -0.0164597 0.0142895 -0.058227 -0.0807688 -0.103612 -0.0130564 0.108807 -0.0864175 -0.0236109 -0.00581516 -0.0107657 -0.0472231 -0.00499015 -0.0250203 0.0684301 0.0867114 0.139178 0.0607858 -0.0814842 0.0185948 0.0275299 -0.0202369 0.0364759 -0.0484631 -0.0576562 -0.0127181 -0.030589 0.0301292 -0.061178 -0.0543687 0.0672214 0.0879837 0.0226527 -0.047864 -0.0643886 -0.035121 0.051729 -0.0191193 -0.041713 0.0586723 -0.00961338 -0.0151407 0.0123294 0.0760565 0.0621682 -0.015606 -0.000974877 0.0459304 0.0668448 0.0218079 -0.0877241 0.0359442 -0.0445094 0.0500189 -0.108258 0.107234 -0.0169228 0.0209633 0.046276 0.0439433 0.0290803 0.0415055 -0.0262134 -0.0486848 0.0578903 0.0465037 0.00650693 -0.0195079 0.096083 -0.0882511 -0.0351478 -0.0416589 0.057478 -0.0209044 0.120352 -0.0327498 -0.00690998 0.0526484 0.0912319 -0.0675857 -0.0698611 -0.0288475 -0.0097342 0.0879481 0.00732079 0.036122 0.00965023 -0.00335745 0.0800408 -0.0290981 -0.0278978 0.0589084 0.00279017 0.0313196 -0.000192587 0.0575549 -0.0904723 0.0759672 0.0460568 -0.0455758 0.0245561 -0.0410254 -0.0318175 -0.0145922 0.062748 0.0549086
الهند -0.0528554 -0.00479761 -0.0623409 0.144829 -0.00582619 0.106901 -0.0381805 -0.127702 -0.11886 0.0527306 -0.00829156 0.00573683 0.0937058 0.000992159 0.063889 -0.0523322 -0.00673242 -0.0111245 0.0663177 0.141198 -0.0755576 0.0556493 -0.0859868 -0.0901397 -0.0447841 0.0562696 0.0457211 -0.0618415 0.120857 0.0327839 -0.0301191 0.0385385 -0.0965738 0.0800533 -0.00466697 0.0486551 -0.0242188 -0.00331553 0.068549 0.0175944 -0.0315884 -0.0268659 0.0230569 -0.00592434 0.0176121 -0.040769 -0.0501716 -0.0644266 -0.0124896 -0.00808679 -0.0653809 -0.038906 0.00699161 0.0908885 -0.0176103 0.014655 -0.0625613 0.0580411 -0.0315795 -0.00345445 -0.0699331 0.0123409 -0.0199038 -0.0134301 -0.0415947 0.0128919 -0.101074 -0.0353217 -0.0792367 0.031028 -0.00301209 0.0317334 0.113135 -0.104062 0.0615641 0.060176 0.101365 0.108574 -0.0607357 -0.0378566 0.0131423 0.0306718 0.0168509 -0.0499044 -0.046275 0.0318571 -0.0704256 0.118821 0.0741905 0.0926291 -0.031211 -0.0424523 -0.0738694 -0.0936799 0.0668392 -0.00526989 -0.0576196 0.10099 -0.0654805 -0.146323 0.00685099 0.0568084 -0.0151581 0.0641313 -0.072674 -0.01354 -0.0152259 0.0184128 -0.0787696 0.0181509 0.0165583 -0.0211986 0.0461776 -0.0906728 0.026861 -0.0425263 -0.078664 0.00192204 0.0281809 -0.0211728 0.0866843 0.0264056 0.00481418 0.0121775 0.0050271 -0.0103189 -0.0523736 0.00639834 -0.0446336 0.113189 0.07631 -0.0107616 -0.0656476 -0.0221067 0.0312647 -0.051725 -0.0356067 -0.0838221 0.0280404 0.123214 0.0117972 0.00596192 0.0398912 0.00601214 0.0217581 0.138815 -0.0182281 0.0540358 0.00989654 0.0302293 0.00938803 -0.100796 -0.0429789 0.00249798 0.0657111 -0.0391488 -0.00590753 -0.0416175 0.0458395 0.0882491 0.00970511 0.0266645 0.0454465 0.0386038 0.0714658 0.0640115 0.0480165 -0.0597975 0.152106 0.0942005 0.0405942 -0.0372329 -0.000679267 -0.0443516 0.0341052 0.0393051 -0.000755918 0.0665874 0.0687627 0.0916151 0.00954074 -0.018076 -0.0839306 0.00381065 -0.0227278 -0.00955448 -0.01202 -0.0295024 0.0486873 -0.0422726 -0.02058 0.0421326 -0.00690571 -0.0780129 -0.00613954 0.0359868 0.0522417 -0.116972 -0.134786 0.0240904 0.0824376 -0.00984212 0.0275502 -0.00597582 0.0226751 -0.0570723 -0.0510248 -0.00573715 0.0729108 0.0121996 0.145197 0.000115236 0.012352 0.038185 0.00887266 -0.0674575 0.0987719 -0.0217821 -0.0710802 -0.0208521 -0.0324585 0.0393166 0.00187509 -0.0320535 0.107115 0.0579868 -0.0513388 -0.0634204 0.00435033 -0.003849 -0.0093828 -0.00637203 0.0757115 0.00371454 -0.0237433 0.0090072 -0.113902 -0.0158274 -0.0468909 0.0313159 0.0160164 -0.00404118 -0.0298148 -0.0241342 -0.0423719 0.0728472 -0.000511737 0.0459947 0.083515 0.0386892 0.081057 -0.079443 0.0060704 0.0120055 -0.034609 0.0695439 -0.0261148 0.00355978 0.0790091 0.0252322 0.0543738 -0.0240716 0.0838528 -0.0413212 -0.0529353 -0.1041 0.0183501 0.0357343 0.0506497 -0.0836717 -0.0201955 -0.0649911 0.0285821 -0.0432448 0.0267574 0.0235599 0.00188192 0.0159084 0.00627125 -0.114034 -0.0166913 -0.0679008 -0.0524791 -0.00144993 -0.0506301 0.0420109 -0.118464 -0.0302382 0.0332001 0.0531285 -0.127817 -0.0704772 0.0310032 -0.0821702 0.0139143 -0.0326018 -0.0405257 0.0171042 -0.0897285 -0.0723356
اليابان -0.0135118 0.0443429 -0.0199956 0.0779284 -0.132991 0.0568831 -0.0192911 -0.080818 -0.0744054 -0.0748792 -0.00321518 0.0416378 0.0489167 -0.0415125 0.0133809 0.0334478 0.0467603 0.0622939 0.0601813 0.0383038 -0.0175635 0.0312979 -0.0361819 -0.0366296 -0.0629732 0.0143877 0.0304979 -0.0487773 0.0137741 0.00785526 -0.101653 -0.000220754 -0.0393496 0.0813441 -0.119529 -0.0237246 0.0393875 -0.00727947 0.0820846 0.0401516 -0.122906 -0.0677205 0.051361 0.0188884 -0.00339447 -0.068603 0.00985656 -0.0654246 0.0099407 0.00853168 0.021288 -0.121087 -0.00220177 0.0188987 -0.0582205 0.00886145 0.0207857 0.0375242 0.00473622 0.0409134 -0.07087 0.0032945 0.0688725 -0.0170027 -0.0716653 0.033097 -0.111849 -0.0478001 -0.0621489 -0.0295789 -0.0715793 -0.0682635 0.0821892 0.0831129 -0.0670429 0.133271 0.0941664 0.101022 0.000125306 0.00636941 -0.0508887 0.034716 0.0142083 0.011701 -0.00981124 -0.0131706 -0.0363317 0.0898657 0.10955 0.0700457 0.0280437 -0.0378068 -0.00571529 -0.0532067 0.0137385 -0.0374607 -0.00196505 -0.00840643 -0.0469707 -0.0387602 0.0728881 0.00862242 0.0336606 0.0465055 -0.0497933 0.0280086 -0.0894979 0.0432037 0.0834929 -0.0604953 0.0601544 -0.0281418 0.0688064 0.00178024 0.0112048 -0.0527012 0.0579686 -0.0647496 0.0696268 0.0206947 0.0691749 0.00221319 -0.0375912 0.0377501 0.0841109 0.00655178 0.0171206 -0.0273552 -0.0175866 0.0232951 0.107276 -0.0154394 -0.0405614 -0.0657266 -0.0337104 -0.0536131 -0.0568736 -0.0432446 0.0294713 0.047247 0.0605129 -0.0382005 -0.0117155 0.0293804 0.00214624 0.0841341 0.0292306 -0.00257248 0.0550777 0.0425723 0.0473721 -0.083779 -0.0569035 0.0309146 -0.0338689 -0.00297135 0.00149266 -0.0249964 0.0309511 0.0433729 -0.0186492 -0.00604531 -0.0891329 0.0287706 0.0356254 -0.0405943 0.0315591 0.0580362 0.0789245 0.0609136 0.0329198 -0.00331611 -0.0145254 -0.0268588 0.152301 -0.126381 -0.0232192 -0.023878 0.0123327 0.107828 -0.0762827 -0.0385298 -0.0515349 -0.070893 0.0309643 0.058876 -0.00897609 -0.0420777 0.00153725 -0.00373392 -0.132942 -0.140158 0.0442254 0.0353723 -0.0917948 -0.0184411 0.0214806 0.0455296 -0.0634684 0.0471339 0.0301764 -0.0502583 0.0315234 0.00351932 0.0522123 -0.0509527 -0.0695218 -0.0444895 0.0976698 0.0755094 0.189546 -0.0705533 0.0241564 -0.0337153 0.0345991 -0.00777974 0.0093924 -0.0554671 -0.140085 0.0721572 -0.0461054 -0.0646875 0.0132244 0.0164687 -0.00290823 -0.0807947 0.0182304 -0.0881079 -0.0504289 -0.0562229 -0.0735279 0.0439789 -0.0240396 0.0282977 0.0427681 -0.11088 -0.0220571 0.00771632 -0.0594304 0.0433438 0.0350108 0.00369578 0.0215173 0.0691891 0.0225229 0.0336813 0.0221776 0.049275 -0.039744 0.0845912 -0.0328153 -0.0111496 0.0235067 -0.0404706 -0.00201021 0.0802282 -0.0931585 0.000610793 0.0900149 0.142967 -0.029205 -0.00990721 0.0597253 -0.124595 -0.111847 -0.0859481 0.0984156 0.0269071 -0.0684484 -0.0952801 -0.0382662 0.0432286 0.0187489 0.104903 -0.0162082 -0.0143141 0.00459516 0.127651 0.101406 -0.00909324 0.0124701 0.036273 0.00991521 0.0372136 -0.0121722 0.0511426 -0.0736407 0.00522107 -0.0969901 0.0681126 -0.0128068 -0.0220079 -0.0186221 0.000877495 0.0189834 -0.0225572 -0.088275 -0.0753337 -0.0945726 0.0173489
روسيا -0.0315827 0.0184565 -0.0105528 0.00236851 -0.0370217 0.00444196 0.00141663 -0.0534613 -0.0105666 -0.000168642 -0.0100519 0.0259147 0.0391843 -0.0795077 -0.0405148 -0.0261644 -0.0654401 0.114377 0.0805688 0.0509625 0.0620571 0.0836121 -0.1108 -0.0675929 -0.068955 -0.0578844 0.0417612 -0.0132286 0.0674974 0.141886 -0.0381484 0.0611582 -0.0155032 -0.0707623 -0.0152351 0.00116364 -0.115347 -0.068507 0.166011 0.0446113 -0.0457359 -0.031686 -0.00551661 0.0765184 -0.049789 0.00357097 0.0340197 0.0310475 0.108137 0.0216335 0.0384222 -0.102948 -0.105848 -0.0228185 -0.0853243 0.0210507 0.0654978 0.0546004 -0.00482573 0.047364 -0.0433201 -0.0136712 0.0438737 -0.10008 -0.0162632 -0.0794337 -0.0926641 0.0636335 -0.0651994 -0.0580969 0.133307 -0.0600885 -0.0223049 0.0880427 -0.0316722 0.0644492 0.0330688 0.0680389 -0.0740055 -0.0136424 0.0458083 -0.0062135 0.0224496 -0.0426709 -0.0867459 0.0107294 -0.017612 0.0495787 0.0143 0.0401909 0.0467113 -0.111347 -0.0467514 0.0355886 0.0338166 -0.0242441 0.012883 0.0416283 0.029251 -0.00594766 0.0686385 -0.0170459 0.0303618 -0.0285794 -0.0823964 0.0154685 -0.0451937 0.102268 0.0162871 -0.0111546 -0.0744785 -0.0600485 -0.00919504 -0.0296199 -0.0160588 0.0567643 0.00476805 0.0190869 0.0416126 0.011466 -0.0623049 0.123647 -0.0515861 0.0345059 0.0357851 0.056394 0.0918373 0.0508478 -0.0636534 -0.00247279 0.0544758 0.0413861 0.0163467 -0.0575093 -0.0705948 -0.00519829 -0.0149549 0.0568789 0.0661005 0.0540526 -0.0121596 3.00842e-06 0.0503514 0.0143218 0.0467705 0.12466 -0.0123374 -0.0307652 0.0437846 -0.0184515 0.104436 -0.0205342 -0.0852354 -0.00266832 0.00519792 -0.0482422 0.0866184 -0.0269483 0.009523 -0.0426727 -0.0590459 0.0168122 -0.0759759 0.0293978 0.0100448 0.00475056 0.0155038 0.00662472 0.0764088 0.0478886 -0.00211163 -0.114744 -0.0337106 -0.0541518 0.0654442 -0.0176424 0.0726849 0.0189571 0.0286295 0.0387229 -0.0524725 -0.0971422 -0.107757 0.0483727 0.00360752 -0.00502529 0.0308928 -0.0586633 0.0453187 -0.050301 0.0213442 -0.136067 -0.0399677 0.034802 0.0109826 0.0136143 0.0272336 0.0359624 -0.0791475 0.086706 0.100256 -0.0381756 -0.00364507 0.0352757 0.139471 -0.146161 -0.113404 -0.0367053 0.0394416 0.0715693 0.133949 -0.0402826 -0.00994905 0.0113787 -0.0308196 0.0279306 0.0222005 -0.0598904 -0.0929327 0.0608711 0.0384966 -0.0248463 -0.106931 0.0240379 0.0872969 0.000466387 -0.0705667 -0.118102 0.0157091 -0.0468335 0.0385618 0.0920868 -0.0261303 -0.00249742 -0.0344774 0.0275828 -0.0381827 -0.0193018 -0.0321945 0.0498282 -0.0051841 -0.0608643 0.00439949 0.0636588 -0.0246665 0.0555177 0.09161 0.041177 -0.0453093 0.0447106 -0.0167999 -0.0085891 -0.0324369 0.0023219 0.0201927 0.0300926 -0.0139884 0.00533625 0.0780067 0.112541 -0.0315426 -0.0300927 0.0759549 -0.0320771 -0.122561 0.0179626 0.105981 -0.0536087 -0.088817 0.0490323 0.121054 0.00866759 0.0434195 -0.0819168 -0.000461745 0.00415782 0.0241505 0.0310735 0.0290915 0.00192682 -0.104865 -0.083809 -0.0140704 0.057127 0.0657537 0.121535 -0.00682335 -0.0778921 -0.0632551 0.0145249 -0.0477157 0.0434246 0.00962109 0.0115362 0.0336023 -0.0268251 -0.00685377 0.0381722 -0.0305104 0.050677
الصين 0.0506518 0.0381291 -0.0561735 0.0697706 -0.113555 0.00834088 -0.0113332 -0.0918291 -0.026524 -0.105167 0.0279189 -0.0467817 0.0160789 -0.10488 -0.0210245 -0.124524 -0.0829633 0.0672105 0.105571 0.047712 0.00301896 0.0287595 -0.0201308 -0.0223342 -0.00808997 0.0195906 0.0826647 -0.0501574 0.0458069 -0.00468505 -0.116499 -0.0211444 -0.0611562 0.166897 -0.116179 0.036396 0.0469943 -0.0281045 0.1174 0.0238058 -0.128668 -0.168797 0.0166818 -0.00372106 -0.00522888 0.0549122 0.0524409 -0.0250477 0.0058246 -0.00304072 -0.0454029 -0.0120279 -0.026707 0.0408588 -0.0916059 0.0546743 0.0254191 0.0767568 0.0356343 -0.0239082 0.0398571 0.0227481 0.018469 -0.037782 0.0259038 -0.0663586 -0.0789295 -0.0257237 -0.0433813 -0.0125512 0.0394689 -0.0625774 0.0389172 0.0120547 -0.0344847 0.0872327 0.0425725 0.142683 -0.0561986 0.0447649 0.034031 -0.0144795 -0.00702847 -0.0829205 -0.0169875 0.0740861 -0.156563 0.071895 0.058196 0.00724047 0.0197731 -0.0688568 0.0396154 -0.0663366 0.0796574 -0.0258263 -0.0424865 0.00843352 -0.00676295 -0.0301528 0.0928426 0.0139597 -0.00259222 0.0097444 -0.118535 0.0209517 0.0108513 0.00370259 0.0361442 -0.0309617 -0.0058274 -0.0630841 0.10343 -0.0127565 0.0288173 0.0238809 0.0473343 0.0646322 0.0323731 0.0164471 0.0124036 -0.00628525 -0.0490022 -0.0713004 0.0472037 0.0328435 -0.0255272 0.0668017 -0.113699 -0.0687458 0.0867446 -0.0152858 -0.0220979 -0.0777555 -0.0392378 -0.0210421 -0.0922942 -0.0409073 0.0410088 0.101458 -0.0275862 -0.0125215 0.0587417 0.0206595 0.0566022 0.18153 0.0723293 -0.000825048 0.0177963 0.0844003 0.0453642 -0.0779252 -0.100816 -0.0248181 -0.0165092 -0.0642676 -0.0154417 0.0123023 0.00496353 0.0217981 0.0315773 0.0197175 -0.0302882 0.066324 0.0578203 -0.00503198 0.0338003 0.0188081 0.17221 0.0941922 -0.0693548 0.00606752 0.00426946 -0.0257776 0.06438 -0.010489 -0.0151984 -0.0569622 0.0737364 0.0797269 0.030548 -0.0513072 -0.0377786 -0.0509263 -0.0437864 0.0228613 0.0293897 -0.0896652 0.0422886 0.0742943 -0.0120628 -0.0874798 -0.0321043 0.0339488 -0.00491846 0.00908033 -0.0511216 -0.0530207 -0.0611389 0.0238978 0.0467181 -0.0444342 -0.0581081 0.00756686 0.0438077 -0.141357 -0.0601932 -0.0345227 0.124334 0.111623 0.148434 -0.0657475 0.0160417 -0.0108027 -0.0357999 -0.0708482 0.120586 -0.0950206 -0.0326132 0.0480154 -0.07473 -0.0257808 0.0666312 -0.0353745 0.0579403 -0.0850461 -0.00662473 -0.0315452 0.0151438 -0.0321294 -0.0179361 0.0260452 -0.0254884 0.0572247 0.0340936 -0.00796017 -0.0391498 -0.0827351 -0.0448289 0.0477046 0.0102967 0.0169302 -0.0117157 0.0185192 -0.0117933 0.0809324 0.0513563 0.078454 -0.0596728 0.0302497 0.0576655 -0.041758 0.0299439 -0.00636335 -0.0054654 0.113294 -0.00983553 0.00696564 0.0774928 0.0611181 0.00816527 -0.0586699 -0.00549154 -0.0799273 -0.0442796 -0.0811055 0.0392822 0.0261896 0.00401296 -0.0554363 0.00353407 -0.00969885 0.0165391 -0.0423974 -0.0386306 0.0154217 0.0437636 0.0105983 0.0730891 -0.0352502 -0.0337342 -0.0334426 -0.015195 0.00569482 0.0438683 0.0416637 -0.0187945 -0.0728362 -0.0357734 0.0527055 -0.100168 -0.0352925 -0.0232765 0.000974356 0.0111746 0.00452115 -0.0407233 0.0189164 -0.0107893 -0.00501894
تركيا -0.0588983 -0.0461529 -0.0146785 0.0425498 -0.0985638 -0.0280826 0.035634 -0.0642941 -0.0242855 0.0139535 -0.0144797 -0.0317858 0.0422041 0.000656749 -0.0204392 -0.106147 0.0195358 0.0210362 0.140832 -0.00963168 -0.0121953 0.0484564 -0.0781416 0.00838238 0.00716432 -0.0600636 0.0467805 0.030188 0.0131298 0.0163574 0.0384664 -0.00530159 -0.0628792 0.0479656 -0.00219463 -0.102952 -0.008598 -0.111563 0.0993616 -0.0620322 -0.00975991 -0.00227448 0.0328002 0.022499 0.0312995 -0.0328909 0.0209099 0.0237644 0.11235 0.0245545 0.0324773 -0.0796195 -0.0760438 0.031466 0.00646839 -0.0950894 -0.0358762 -0.0446206 0.0837113 0.0404239 -0.0838497 0.0555703 0.132889 -0.00789026 -0.00238915 -0.0143021 -0.0628191 -0.0307756 0.00754429 -0.0612081 -0.0146046 -0.0189551 0.0257676 0.0663299 -0.0413275 0.0676788 -0.0270695 0.0852835 -0.0387957 0.0172065 -0.0654459 0.109314 0.0346285 -0.0117651 0.00123898 -0.0102692 -0.0494044 -0.00294316 -0.0547329 0.128035 -0.0435898 -0.108423 -0.0263009 0.0153838 0.0218008 0.0483458 -0.0192168 0.0406552 -0.000749119 -0.0299142 0.0286376 0.0387132 0.0527008 -0.0379393 -0.0335714 -0.0694997 -0.0413985 0.0530569 0.0589419 0.0396339 -0.00972912 -0.000586279 -0.0169165 0.0140974 0.0126973 -0.0309112 -0.00245724 0.016532 0.00270854 -0.0157736 0.0216146 0.040991 0.0502116 0.0124636 0.0624637 -0.0374919 0.0639462 -0.00855567 -0.0628609 0.0265897 0.0108071 0.0236725 0.0815303 -0.0471109 -0.0600929 -0.0261749 -0.141371 0.0459748 -0.0156091 0.058374 -0.0134617 0.0350908 0.0525505 0.00400626 -0.0286666 0.132415 0.0865052 0.0240968 0.00853217 0.0812065 0.0894848 -0.0279383 -0.031974 -0.0599965 -0.0416871 -0.0748325 0.081737 -0.0409521 0.0365537 -0.0374836 -0.0173594 -0.00211532 -0.0874469 0.0274536 0.0118645 -0.00711742 -0.0112665 -0.081036 0.0873362 0.0324962 0.0370271 -0.0169387 -0.0402825 -0.0155164 -0.0477107 0.00988927 0.0548223 0.030513 0.0118833 0.0706709 -0.0104166 -0.0607999 -0.0822103 0.0671308 0.0255707 -0.0645036 -0.0032815 -0.119725 0.0498217 -0.0757981 -0.0814791 -0.0323941 0.0482294 0.000536609 0.035242 0.085472 0.00380766 0.00295076 -0.123368 0.00804155 0.0451505 -0.0575118 0.0997497 -0.0124568 0.0823743 -0.0180914 -0.0578363 -0.0835583 0.149793 0.109816 0.125644 0.077281 0.0367301 0.0427998 0.0482556 -0.0339355 0.0631867 -0.116053 -0.0749828 0.0292495 0.0595544 -0.0176381 -0.0687776 0.0183065 0.0507658 -0.0222325 -0.0707555 -0.0418082 0.0309075 -0.123222 -0.0183411 0.117281 -0.0242596 0.0526543 0.0654303 -0.0421028 -0.0852383 0.0521265 -0.0376263 0.0610428 0.0122626 0.106294 0.0859259 0.0581072 -0.0557225 -0.0106511 -0.0149874 0.10493 0.052767 0.0369098 -0.0198051 -0.0877734 -0.0347472 -0.106214 -0.0212845 0.00311851 -0.0864787 0.0136044 0.0276815 -0.0358742 0.0582811 -0.020454 0.0981118 -0.184081 -0.0795545 0.0447602 0.0655328 0.03251 -0.00453427 0.05948 0.0542919 0.0637173 0.0667115 -0.115291 -0.0423355 -0.0887921 -0.0581187 0.154915 0.0059539 0.053054 0.0246609 -0.0701343 0.0713742 0.0236541 -0.0151926 0.079782 -0.026932 -0.0404393 0.0204235 0.0610718 -0.0742533 0.0786946 0.0422159 -0.0180114 -0.0478843 0.00183214 -0.0511125 -0.0178018 0.0434834 0.0388077
هولندا -0.0671713 -0.04427 -0.0731719 -0.0119913 -0.0516198 -0.0386671 -0.024637 0.0229816 0.000326423 0.00123611 0.00114704 -0.0306862 0.0079031 -0.0693509 -0.010267 -0.0549962 -0.062126 0.0801387 0.0133949 -0.0139261 -0.0640473 0.04727 0.0467323 0.00103724 -0.0927562 0.0603582 -0.0737402 -0.0994476 0.0369064 0.0386302 -0.0540702 0.0403437 -0.0771132 0.0556405 -0.0198674 -0.0457224 -0.010774 -0.138198 0.0989 0.011258 -0.0761573 -0.0396218 -0.0642525 -0.00316611 0.09084 0.0196368 -0.0348642 -0.0406555 -0.0242547 -0.042888 0.0156058 -0.029577 -0.0236339 0.0453468 -0.00653189 0.0284375 0.0583334 0.0937491 -0.106283 -0.00944429 0.00548602 -0.0588242 0.0649861 -0.0301329 -0.00404023 -0.107164 -0.0826326 0.0452294 0.055578 -0.0211368 0.0313614 -0.120733 0.0360764 -0.0165773 -0.0244714 0.0899422 0.130895 0.108023 -0.0240024 -0.0913824 -0.0184489 0.0862514 -0.00806971 0.0121721 0.064861 -0.0955867 -0.0343438 0.0506126 0.0418356 0.075881 -0.0167643 -0.0402774 -0.0230467 -0.014744 -0.0149982 -0.0603072 -0.094307 0.0662685 0.0266285 -0.00714278 0.0486667 -0.0182229 0.0285254 0.0275018 0.00610618 -0.0234134 -0.0603466 0.0440562 -0.0144521 -0.0146463 -0.00803539 0.00114514 0.0322038 0.0439435 0.0750037 -0.0129028 -0.0605531 -0.000564419 0.0355336 0.0329441 0.0556157 -0.0221824 -0.00679642 -0.0159596 0.00564025 -0.0486228 0.0802033 0.0714221 -0.0151482 0.034082 -0.0361969 0.00599169 -0.0115407 -0.131498 -0.0444706 -0.0336248 -0.0301221 0.00700149 0.143266 0.129275 0.0312081 0.0573305 0.00176688 -0.0240087 -0.0417167 0.137048 0.0694088 -0.0107804 -0.0145005 0.0461273 0.0380331 -0.0836922 -0.000493836 -0.0910385 -0.055244 -0.0687884 -0.053267 -0.0772912 -0.0146054 0.0573192 0.0317519 0.0520579 0.024088 0.0546325 0.0377475 -0.0195624 0.0316356 0.0526528 0.0925684 0.00251939 -0.0687466 -0.0665044 -0.108479 0.0116293 -0.0198237 0.0114218 0.0670483 0.0725945 -0.022186 0.0105018 -0.0487817 -0.148605 -0.0513324 0.045588 0.0355928 -0.0247662 0.04113 0.0707693 -0.0556264 -0.0177851 -0.00451364 -0.0352922 0.0214843 0.0136382 0.0396493 0.022341 0.0556885 0.0215051 -0.106446 0.00560956 0.153591 -0.0256704 -0.075663 0.0199323 0.0410346 -0.0565325 0.0328837 -0.0832887 0.0596851 0.10979 0.0264824 0.022433 -0.0332941 -0.0152022 -0.00393513 -0.011739 0.0595468 -0.0208687 -0.133745 -0.00137214 0.00114937 -0.0430047 -0.0569976 0.0548244 -0.00371143 0.0287983 0.0272914 -0.0593652 -0.0353951 -0.116183 0.0154115 0.0122649 -0.0929709 -0.00174353 0.057784 -0.0133487 0.0152741 0.0622709 -0.0048889 0.0656077 0.0615354 0.0955001 0.15979 -0.0966006 -0.0600643 0.0824063 -0.0670829 0.039467 0.0284348 -0.0585337 0.0931788 -0.0592979 -0.00928835 -0.0251966 -0.0191893 -0.0444655 -0.0245909 0.0804968 0.0388518 0.146287 -0.00327393 -0.0258712 0.0868391 -0.103073 -0.14633 -0.0205256 0.0257755 0.0524962 -0.030901 -0.00357654 0.0448708 0.02451 -0.0160897 -0.0433116 -0.0257971 -0.0869291 -0.00290925 0.0843114 0.020022 -0.000636939 -0.0328495 0.0274568 -0.00149716 0.109046 -0.0491168 0.0140808 0.0142514 -0.0159449 -0.0900862 -0.0424405 -0.0209851 -0.128951 -0.0904181 0.028887 -0.0510271 -0.00662667 -0.108198 -0.00299088 0.0510043 0.0824137
كندا 0.0332694 -0.0745391 0.0189933 0.0237151 -0.0393656 -0.0338312 0.00238489 -0.00451626 -0.0393894 0.0305108 -0.0334661 0.0605958 0.100759 -0.0490052 0.0684611 0.0338454 0.0910685 0.0944995 0.0338922 0.0703534 -0.111132 0.0494505 -0.0313093 0.00871559 0.0137395 0.0427232 0.0435344 -0.109254 0.116352 0.0349884 -0.0429345 0.0372548 -0.0997699 0.013335 -0.0781081 -0.0386825 0.016342 -0.0316232 0.143598 -0.0679957 -0.0933152 -0.074324 -0.0409289 -0.0488668 0.0154775 -0.0463501 0.0300315 -0.0717484 0.0417605 0.0576793 0.0147787 -0.0484454 0.0531209 -0.034075 -0.0340013 0.0294208 0.0861163 0.0685079 -0.0119096 0.0667505 -0.0577963 0.0174271 0.0862759 -0.0259266 0.0507934 0.0614109 -0.0896715 0.0509856 -0.035417 0.0225918 0.0206646 -0.0209861 0.102305 0.00478177 -0.0374715 -0.00351784 0.166594 0.0148981 -0.018101 0.00868414 0.0342912 0.0201984 0.0643703 -0.0285542 -0.0702018 -0.15882 0.0207443 0.0964957 0.0192048 0.0454604 0.000761239 -0.068652 0.0159916 0.016661 0.0473746 -0.0988609 -0.0347011 -0.0148563 0.00678515 -0.00143471 -0.0865678 -0.0938072 0.0154668 0.00211536 -0.0549445 -0.0414095 -0.039345 0.0526619 0.00140983 0.0552579 0.0505847 -0.0317255 -0.019039 -0.0303217 -0.0262209 0.0115662 0.0606038 -0.0478341 0.0619991 -0.056014 0.0105138 -0.0694845 0.0113062 0.0665474 0.0360501 0.0150785 0.102379 0.0859133 0.0149854 0.0313403 -0.0880869 0.0399111 -0.0322562 0.00529215 0.0783824 -0.0756288 -0.00764737 0.00769443 -0.0250251 0.109763 0.07585 0.0245248 0.0969353 0.0234308 -0.049407 0.151423 0.0961753 -0.0428788 -0.0219773 0.0520124 0.0425253 -0.0182265 0.0133427 -0.0495327 0.0388575 0.0288648 -0.0116995 -0.0163563 -0.00271714 0.00849408 0.04234 0.0805524 0.00895971 0.0481687 0.0536008 0.0054807 0.00176625 0.00557219 0.0616637 0.0157129 0.0124751 0.0144057 -0.0685243 -0.0305519 -0.019994 -0.0635206 -0.030549 0.0336623 -0.0231022 0.0387852 0.0112657 -0.0440507 -0.0582535 0.012698 -0.0413669 -0.0534556 0.0480837 -0.0502699 0.0055485 0.0232494 -0.0750274 0.0177375 0.0459924 0.0598482 -0.0391878 0.0351711 0.188586 0.0204622 -0.104801 -0.0167905 0.0585303 0.0448137 0.00486263 0.00304362 0.0788617 -0.108424 -0.00062397 -0.10419 0.129687 0.111843 0.114384 -0.0631899 -0.00971421 0.0747897 -0.0581584 -0.0761943 0.0221827 0.000659538 -0.0897483 0.0472134 0.0503726 -0.00278525 -0.00510773 0.0155903 0.07346 0.0453706 -0.0205945 -0.103541 0.0510958 0.0308029 -0.0224796 -0.0365657 0.0260124 0.051562 0.0338689 0.0706407 0.024684 0.0560521 -0.0437797 0.0185421 -0.0199095 0.00265783 -0.0535085 -0.0476427 0.0513879 0.121034 0.0284448 0.0577074 0.00515551 0.0608807 -0.0159555 -0.0405095 0.0384804 0.0127066 -0.112713 0.0422487 -0.0414822 0.0182353 0.0212725 0.116358 0.0454407 0.00067665 0.106978 -0.0880804 -0.0174938 -0.0607223 0.107373 0.11011 0.0341727 0.0200037 0.0695491 -0.00638254 0.0871696 -0.0857877 -0.058662 0.0326925 0.0191504 0.126253 0.0224424 -0.013533 -0.0500311 -0.0410297 0.00266404 -0.00569524 0.0298923 0.061814 -0.0668408 -0.019477 -0.169899 0.017523 0.0403196 -0.0583715 -0.014743 -0.0330666 0.0197484 -0.0151599 -0.0718104 0.0518624 0.0435355 -0.00867622
سويسرا 0.061476 -0.0606603 -0.0512474 -0.0384217 0.0125171 -0.0754125 0.0580659 0.00968562 -0.0352501 0.033024 -0.0153484 -0.0485319 0.0876539 -0.0177119 0.0821247 -0.150976 0.00742223 -0.0170089 0.0316556 0.0398215 -0.0728978 0.0775384 -0.0728329 0.0850984 -0.00810453 -0.061097 0.00260622 -0.11784 -0.0498664 0.00437642 -0.0681103 0.0117805 -0.0730183 -0.0017532 -0.0281348 -0.0449176 -0.101815 -0.0360805 0.107277 -0.0402824 -0.0628055 -0.0423483 -0.0586871 0.00869353 0.0463078 -0.0501612 -0.0114839 -0.0106356 -0.00886569 0.034237 0.0672895 -0.0542796 0.0152793 -0.0154204 -0.0847875 -0.00394689 0.142257 0.0607037 0.00725269 0.0261528 0.00435963 0.0279206 0.0549955 0.0126403 0.0313801 -0.087096 0.0136213 0.0570647 -0.0709658 -0.00540243 0.106566 -0.0499954 0.029647 0.0295339 -0.0367907 0.104119 0.131481 0.068432 -0.0320798 0.00378607 -0.0947396 -0.0132879 0.00801941 -0.0578151 -0.100591 -0.0467043 -0.0591379 -0.0229323 -0.00632188 -0.0178997 0.0258067 0.0544084 0.0481855 -0.0530654 -0.00809227 -0.0106246 0.0190763 0.0831002 -0.0893715 0.0158763 0.0468282 -0.068246 0.0334944 -0.0282972 0.0632228 -0.0315722 0.0575772 -0.0367371 -0.0201121 0.00930829 -0.127265 -0.0223601 0.052361 0.113642 0.05557 -0.0270879 -0.0161158 0.0101086 0.0966692 -0.00349107 0.0918192 -0.0400722 -0.0162726 0.0400657 0.0211184 0.00123449 0.0471559 0.0620896 -0.0341006 0.031794 -0.00333984 0.0266382 0.0117841 -0.116096 -0.0403624 -0.0837373 0.0287645 0.0434653 0.0264334 0.12178 -0.0174023 0.028121 0.0386664 0.0238431 0.067544 0.119153 -0.0110945 0.00686474 0.0219439 0.0853763 0.168982 -0.0413211 -0.0338033 -0.0669935 -0.101591 -0.0653452 0.00790076 -0.0766139 -0.0231522 0.0714009 -0.0537682 0.0823158 0.0141782 -0.00981858 0.0401371 0.0569562 0.093335 0.038924 0.0633959 0.0122692 0.00588596 0.0668318 0.00579615 0.0594211 0.0151256 -0.0247521 -0.0496429 0.0381739 -0.0382433 -0.0179852 -0.0135845 -0.152517 -0.0422533 0.00294297 0.0334924 -0.126155 -0.058637 0.0107046 0.00647092 -0.0548947 -0.015276 -0.0569919 0.032139 0.0342704 -0.0310609 0.00536634 0.0969232 -0.0576262 -0.138851 -0.0963832 0.0255448 0.0728529 0.122229 -0.00814362 -0.0130769 -0.107425 -0.0262333 -0.0725882 0.0811925 0.0488792 0.0814746 -0.0002687 -0.0816682 0.108566 -6.34439e-05 -0.00146399 -0.00285997 -0.127148 -0.111306 -0.0203889 0.0604108 -0.0255367 -0.0084669 -0.0162067 0.0895097 -0.038371 -0.0423608 -0.0394824 0.0992799 -0.0325788 0.0496199 -0.0420311 -0.0766472 0.0600581 -0.0535381 0.0212353 -0.0136942 -0.00286021 -0.00974671 -0.00195488 -0.00921653 0.0206274 0.0626096 -0.0246706 -0.0659105 0.0332684 0.0484813 0.0917703 -0.00305039 -0.00145153 0.014994 0.0104105 -0.0409184 -0.0414023 -0.0608299 0.00770452 0.0632697 -0.0420472 0.0676418 0.00208989 -0.03163 -0.0653163 0.0639172 -0.0780784 -0.053171 0.015161 0.0682931 0.00750343 0.0112977 0.0421082 -0.00142835 -0.0372819 0.0456438 -0.0536215 -0.0302352 -0.0410469 -0.00662983 0.151475 0.0129056 0.0581927 -0.0129483 0.0159465 0.0646394 0.0752611 0.0295771 0.0161267 -0.0905203 -0.124883 -0.0765616 0.0500556 -0.0159898 -0.0711581 0.0249608 0.0607803 0.0632409 -0.0590459 0.000925243 0.0243222 0.0290758 0.0516953
البرازيل -0.120901 -0.0449887 -0.0399584 0.0448734 -0.0237829 -0.0193977 0.0422246 -0.0741799 -0.0123794 0.0242249 -0.0183901 -0.0602281 -0.0101579 0.00301002 0.0167531 -0.143262 -0.00190977 0.130614 0.0335651 0.0754422 -0.0412307 0.0101163 -0.0125705 0.0241767 0.0135527 -0.0225419 0.0773369 -0.142422 0.106805 -0.0798916 -0.00694278 -0.0397581 -0.0351215 -0.0126037 -0.0520955 -0.0268159 0.0406354 -0.0270694 0.0695971 0.0298038 -0.0652824 -0.0568153 -0.0662255 0.00507946 -0.00206065 -0.0313071 -0.0098288 -0.0364182 -0.0352166 -0.032862 0.0223212 -0.0757261 -0.0467253 0.0690619 -0.0818162 0.0470837 0.038594 0.0688954 -0.0317065 0.11224 -0.0764318 -0.0904497 0.0804641 -0.0771568 -0.0202216 -0.0211954 -0.00602481 0.0644564 -0.047476 -0.0341221 0.0203762 -0.0619173 0.074917 -0.00775062 -0.0289458 0.103125 0.133838 0.108685 -0.0187808 -0.0332924 -0.0513876 0.0458311 0.0194293 -0.00576586 -0.000479456 -0.0720201 -0.0488671 0.00103005 0.0560056 -0.0596443 -0.0500011 -0.038737 -0.0231043 -0.0174966 0.0267402 0.0629981 0.0224736 0.125108 -0.0193354 -0.0497133 0.0364976 -0.0574149 -0.00759483 -0.0333653 0.0361919 -0.0397119 -0.0587361 -0.0199046 0.0148655 -0.0288724 0.0663144 -0.058303 0.0531729 -0.038739 -0.017036 0.0153384 0.0391577 -0.0608924 0.0790762 0.00501536 0.00349466 -0.0520167 0.0703395 -0.00307613 0.0247323 0.0205115 0.0567829 -0.0357526 0.00634533 0.0529705 0.0325356 0.0424933 0.0138673 -0.0965518 -0.0637308 -0.0160423 -0.0287702 -0.0039566 0.0325278 0.10028 0.0794605 -0.0212711 0.0524093 -0.0845386 0.0192829 0.0846618 -0.0222749 0.072796 -0.0225512 -0.0421242 0.0352613 0.000978975 -0.0256846 -0.0159659 -0.0370759 -0.000982315 0.0552596 -0.032372 0.0106099 0.0208307 0.0771195 0.00766404 0.0351835 -0.0566839 0.051369 -0.0575557 -0.0515454 0.0722718 0.142349 0.108198 0.0896935 0.0637609 -0.00670407 -0.026333 0.0839023 -0.00393502 0.0336864 0.0924247 -0.0406154 0.0137967 0.00546943 -0.0748027 -0.0530219 -0.0119361 -0.00253843 -0.0123853 -0.017786 0.0849944 0.00326314 0.00360887 0.00722816 -0.0630871 -0.00798715 0.0443303 -0.0739318 0.0424035 0.0297957 -0.0412317 -0.0638974 0.0251705 0.0544498 0.00598881 0.0441253 0.0431299 0.037057 -0.10659 -0.0890098 0.0390366 0.116573 0.0736976 0.226172 0.00187255 0.0129668 0.038568 0.00182185 0.0266471 0.00915691 -0.0803249 -0.0426369 0.0666475 0.0227333 -0.0390709 -0.020778 0.0745774 0.0821187 -0.00364905 -0.019805 -0.160993 0.0661713 -0.102814 -0.0855222 0.0251979 -0.0305113 0.0231285 -0.00953756 -0.0709511 -0.0660707 -0.0183603 -0.098949 0.00689017 -0.0484568 0.0173336 0.00337799 -0.0854406 0.0330572 -0.0268632 0.0230584 0.0189931 0.0123782 -0.00110333 0.0539239 -0.00361043 -0.0436137 -0.0581895 0.00868858 0.0608395 -0.0679311 0.0557048 0.102929 0.0955862 0.0842863 0.00588718 0.0885173 -0.0287559 -0.12703 -0.0596894 0.111275 0.141149 0.00667197 -0.0689788 0.0576407 -0.0550772 0.0338028 0.00904658 -0.101013 -0.0122751 0.0163001 0.0641122 0.0442291 -0.119219 0.0140748 -0.0926056 0.0789185 0.0529954 0.0271135 0.0010676 0.00567253 -0.014693 -0.0697637 0.0690027 -0.0325438 -0.0958228 0.0527603 0.0481318 0.0283152 -0.0395829 -0.0413395 0.0196056 0.00428252 -0.0868759
البرتغال -0.0611835 0.0173265 -0.0655883 0.0665048 -0.0275444 -0.0295587 -0.008761 -0.0546464 -0.00802467 0.0274603 -0.0127204 -0.0562218 -0.0217423 0.0305548 -0.0918501 -0.139205 -0.00663344 0.0965058 -0.0132751 0.0707002 -0.0529557 0.0661155 -0.038371 0.00454308 -0.0583843 -0.00738879 0.0224485 -0.158319 0.177515 -0.0777597 -0.0113218 -0.0223219 0.0176956 0.0560969 -0.0682845 0.0290859 0.0235704 -0.0627498 0.104699 -0.0196459 0.0209252 -0.0330836 -0.00967196 -0.0714218 0.0344898 -0.0171992 -0.0632019 0.0326135 0.048221 0.00208937 0.074738 -0.0743116 -0.119236 0.0772561 0.0160076 0.0195888 0.0415249 0.0793543 -0.120252 0.0662732 -0.07082 -0.0681171 0.0585516 -0.142322 0.0170551 -0.0432426 -0.0268998 -0.0230129 -0.0876466 -0.0075309 0.00779156 -0.0920518 0.105413 -0.0301052 -0.0262055 0.117096 0.152222 0.159462 0.0207113 -0.0484413 -0.0320727 0.0971585 -0.0400893 0.0168313 0.0473625 -0.0431635 -0.0307369 0.0598186 -0.0264735 -0.0281218 -0.0282457 -0.0950478 -0.0277561 -0.0241654 0.0891588 0.036427 -0.0483578 0.101499 0.0144909 -0.0749527 0.0299218 -0.0641183 0.0298897 -0.0506294 0.0599945 -0.0303637 0.00703839 -0.013078 0.012091 -0.043042 0.0467787 -0.0379151 0.0188992 0.0144806 0.0163556 0.0842828 0.0502342 -0.0470903 0.0352068 -0.004033 -0.0122528 -0.0137976 0.0417577 -0.0556749 -0.0461935 -0.0245892 0.0256081 -0.040386 -0.0252942 0.0442949 0.00116103 0.0422169 -0.0126228 -0.0444586 -0.0275537 0.0438667 0.0197208 0.00961873 0.137811 0.107362 0.0172059 0.011267 0.0738931 -0.0820985 0.00823769 0.105606 0.0400225 0.0135604 -0.00427587 0.029705 -0.0243675 -0.12647 -0.0454204 0.0299745 -0.102928 -0.0195911 -0.00875343 0.00468648 0.0342418 0.0618518 0.0170909 -0.0297714 0.0106092 0.00507244 -0.0249522 -0.063268 -0.0763204 0.0206426 0.0843089 0.100132 0.0221276 -0.0315366 -0.00829622 0.0330169 0.0769261 0.0381624 -0.00603826 0.0268543 -0.135728 0.0374695 0.0733135 -0.0665718 -0.00507524 0.0410521 0.0397394 -0.00950929 0.0319432 -0.0161369 0.0188934 -0.0347902 0.0154433 -0.0345967 0.0619505 0.0574688 -0.0529644 -0.000602882 0.006234 -0.00173148 -0.102131 0.0254938 0.0923218 -0.0384957 0.066724 0.0190966 0.0627349 -0.0922777 -0.0216431 0.0384953 0.0282978 0.0706923 0.133177 -0.000165123 0.0721343 -0.0358273 -0.0585486 -0.0316295 0.0627595 -0.0189007 -0.0602735 0.0169849 0.028071 -0.0754677 -0.0239815 0.0132182 0.129569 -0.00149653 -0.00508527 -0.0675454 0.0186842 -0.126104 0.00349382 -0.0186832 0.00518737 0.0538288 0.0196968 -0.000428899 -0.090125 0.00939987 -0.133848 0.00038034 0.00443561 0.0533167 0.0646394 -0.0253155 0.076363 -0.0588726 -0.0258231 0.0917625 -0.0051161 -0.0349486 0.00374358 0.00143831 -9.02471e-05 -0.0358687 -0.0187071 -0.0229378 -0.112283 0.0272151 0.13648 0.0894841 0.0557412 -0.00186074 -0.00839242 -0.112281 -0.129026 -0.0281884 0.0508029 0.0638979 -0.00976797 0.0264291 -0.00314063 -0.0090142 -0.0178766 -0.0635759 -0.127324 -0.112723 0.06529 0.0297038 0.0299122 -0.0535082 -0.0367515 -0.0652056 0.0671347 0.0445312 -0.0313002 0.0778336 0.0336604 -0.0171636 0.0224205 -0.00682328 -0.0181898 -0.0397083 -0.0188137 -0.00810966 0.0116642 -0.0178453 0.00622323 0.0187796 0.0125046 0.0091378
المكسيك 0.0192889 -0.0193236 -0.0208933 0.0356744 -0.0568288 0.0364846 0.0176524 -0.0760055 -0.0153282 0.0785748 -0.0365396 -0.0353078 0.0492891 -0.00391674 0.0491255 -0.0321382 -0.0866812 0.0624166 -0.00420516 0.0599571 -0.0129787 0.0580257 -0.0979839 0.0528314 -0.00890303 -0.0174683 0.0775889 -0.15109 0.0595962 -0.00646931 0.0464439 0.0172259 -0.106713 0.0639693 -0.0185387 -0.00799411 0.0136332 -0.116238 0.100488 0.0132489 -0.0202603 -0.0379463 -0.0779721 0.0204284 -0.0680438 -0.0424043 -0.0250812 -0.104452 0.0125788 -0.0802571 -0.00214448 -0.0505821 0.0301103 0.0818861 -0.124914 0.025897 0.0296549 0.0878837 0.013887 0.0784619 -0.0163171 -0.0995092 0.0571169 0.00557551 -0.0531242 0.0508416 -0.0918351 0.0142292 0.0113738 -0.0467232 -0.0100959 -0.0604314 0.110719 -0.00863839 -0.0403576 0.0554783 0.058545 0.0757272 0.0605529 -0.0856979 -0.170124 0.0639757 -0.0120947 -0.0286159 0.0299309 -0.0292496 0.0116366 0.0776302 -0.000706733 -0.0111682 -0.0643455 -0.1201 0.0175923 0.0209913 0.0379961 0.00690539 -0.0103024 0.105165 -0.0969736 -0.0479898 0.114153 -0.0606196 0.0495306 -0.0563783 0.0462136 0.00999868 -0.0214566 0.0906263 -0.0140209 0.0324336 -0.0150103 -0.108147 0.141003 0.0146207 0.0438367 -0.044701 0.0837272 0.00478104 0.058596 -0.0246376 0.0056684 -0.0629669 0.0407321 0.0275552 0.0271501 0.0166028 0.0285963 -0.0245784 0.0212733 0.0106677 -0.0312979 0.0266073 -0.0350377 -0.0266583 -0.0530898 -0.0322013 -0.021044 0.0221984 -0.0508385 0.0794873 0.0731865 0.101807 0.0592712 0.036536 -0.0803741 0.139904 0.00317835 0.0437721 0.0144875 -0.0289967 0.0556371 -0.0594639 -0.0111675 -0.0762796 -0.0207516 0.020902 -0.016927 -0.0340952 0.052647 0.0601369 0.100691 -0.0446951 0.0190662 -0.0378834 0.0194266 -0.000411142 -0.0851812 0.0610467 0.0647108 0.0759885 0.0270296 -0.0247933 0.00909094 0.000212314 0.0683499 -0.0745978 0.0119894 0.0939805 -0.0786352 0.0407371 -0.010773 -0.0211128 0.0064335 0.0161351 -0.00491645 -0.08717 -0.0328808 0.0133899 -0.00538517 0.107225 0.00530749 -0.0335144 0.0115817 -0.00988635 -0.0518561 0.0266178 0.0460595 0.0472813 -0.050598 0.0277259 0.0216435 0.00480723 0.0271127 0.0341353 0.0888676 -0.0820196 -0.0945202 -0.0658221 0.140001 0.0289436 0.157051 -0.0176598 0.0368956 0.00119969 -0.0484476 -0.00578476 0.081839 -0.0425233 -0.0957509 0.13425 -0.0660303 -0.0758195 -0.00322142 0.00705144 0.123804 0.040384 -0.0403904 -0.0880796 0.0413179 -0.0723201 -0.0305425 0.0488345 -0.0243264 -0.0250813 0.0369159 -0.0284986 0.00467974 0.0372161 0.0179089 -0.107971 -0.00435969 0.00823391 0.0439819 0.0219664 0.0292486 -0.0166408 0.06189 0.0355604 0.0145387 -0.0104674 0.048056 0.0427867 -0.0393932 -0.0242409 -0.103999 0.0455235 -0.0519603 0.013571 0.0796392 0.0915054 -0.0381695 0.01032 0.0837673 -0.119661 -0.102599 -0.0286297 0.0340098 0.0848543 0.0118952 -0.0169889 0.0242326 0.00632628 0.07869 -0.0785806 -0.0871701 -0.0368086 0.0349595 0.0909074 0.0375664 -0.0861857 -0.0223384 -0.0424057 -0.000522122 -0.0377271 0.06564 -0.00985218 -0.023386 -0.0559433 -0.0505907 0.0289964 -0.0839164 -0.0944633 0.0263359 -0.0328882 0.0568512 -0.086949 -0.00804474 0.0354644 0.0247561 -0.0710196
السويد -0.0575197 -0.0542598 -0.0755681 0.0353914 -0.015474 -0.0715094 -0.0171029 -0.0148567 -0.0179921 -0.0272125 -0.0433726 -0.033091 0.0474997 -0.0301556 -0.0169098 -0.00921887 -0.00516691 0.129009 0.0574527 0.0200467 -0.045176 0.0193504 0.0023018 -0.0465716 -0.108701 -0.0111097 -0.0188514 -0.0829079 0.0200387 0.0439133 -0.0945161 -0.0327636 -0.120234 0.0499668 -0.0692927 -0.0533225 -0.0237385 -0.0621628 0.121021 -0.00473392 -0.103453 0.0289653 -0.0999434 0.0357992 0.000736224 -0.0268181 -0.0113509 -0.029978 0.0187555 -0.0565806 0.043014 -0.074065 -0.0415236 -0.0249949 0.0062726 -0.0675192 0.0919216 0.0702824 -0.129706 0.104618 -0.00888653 -0.030885 0.0873194 -0.072845 -0.0533508 -0.0596078 -0.0172847 0.050266 -0.0523399 -0.00915551 0.109413 -0.0821124 -0.0320082 0.034337 -0.0900636 0.0314936 0.152171 0.0530834 -0.112383 -0.0119196 -0.00741848 0.00472539 -0.0322464 0.0058701 -0.0499693 -0.072042 0.0220761 0.00946201 0.0105407 0.0557693 0.052403 -0.0977457 0.0482454 -0.0124143 0.0603779 -0.00600009 -0.0654461 0.0214841 0.0239164 -0.00155569 0.0341231 -0.043471 0.00838343 0.02425 -0.0168985 -0.0843094 -0.0192618 0.0432179 0.0400379 -0.00568722 -0.0480622 -0.0524282 -0.0305551 -0.0163192 0.0945758 0.0329942 -0.0676097 0.0836031 0.024298 -0.00607811 0.0030224 -0.00472003 0.0085525 0.00989461 0.0253128 -0.0486372 0.0947832 0.0427219 0.00137481 0.0662459 0.0464669 0.0229796 -0.0581436 -0.0751974 0.0380611 -0.0566078 0.0489233 0.0367209 0.0165366 0.117828 0.000949014 -0.0915207 0.137468 -0.0275995 -0.052295 0.0882435 0.0364721 0.0114261 0.0404394 0.0626414 0.173446 -0.0312514 -0.103621 0.0138224 -0.0496245 -0.00923071 -0.0104852 -0.00170101 0.0264773 0.0526207 0.0452825 0.0573075 0.00759325 -0.0132516 -0.00430206 0.0166534 0.0452211 0.0690387 0.0586537 0.0557365 -0.0368251 0.00266276 -0.0690045 0.0953263 0.0286546 -0.0188816 0.11203 0.0751985 -0.0178169 0.0408981 0.0144482 -0.0123512 -0.119884 -0.00749625 0.0468308 -0.0433793 0.0465889 0.00437704 -0.0133655 -0.00803396 0.00497635 -0.0953965 0.0748568 0.0527599 -0.0264088 0.0331074 0.0856706 0.072186 -0.0484272 0.0948867 0.0727081 -0.00212788 0.00699465 0.064743 0.0688549 -0.109848 -0.0134331 -0.0690715 -0.00933108 0.11348 0.0951092 0.00474829 -0.0925982 0.0389178 -0.00323359 -0.00200486 -0.00413844 -0.102478 -0.120214 0.0301453 0.0377854 -0.118665 -0.0366916 -0.0570113 0.0564455 0.042465 -0.0350015 -0.108253 0.0616555 -0.0685087 0.0151187 -0.0332793 -0.12238 0.123036 0.0487701 -0.00623719 0.00123226 -0.0333624 -0.0565456 0.00795276 0.00487075 0.100914 0.00601159 -0.0513744 0.0273384 0.0189095 -0.00538047 0.0609031 0.00578337 0.00654467 0.00964888 -0.0269626 0.0460964 -0.0943078 -0.00567017 -0.00684565 -0.0615309 0.036263 0.0211808 0.076952 -0.0350601 0.0295875 0.0895129 -0.144855 -0.0310082 0.0282162 0.0723262 -0.019827 -0.0309386 -0.0274142 0.0371885 -0.00284754 0.00571141 0.0206979 -0.0974587 -0.118707 -0.0308182 0.0997276 0.0208115 0.0629512 -0.0919909 -0.0339943 -0.0192704 0.0401879 0.0230646 0.0559672 -0.0342229 -0.0495654 -0.033735 -0.0307409 0.0448814 -0.0536632 0.0344924 -0.01374 0.0090268 -0.0591152 -0.0810382 -0.0460069 0.107118 0.0330926
النمسا -0.0558311 0.000317678 -0.0346745 -0.0135011 0.0174231 -0.0722176 0.0386125 -0.0346129 0.00573028 0.0652177 -0.0537492 0.0563941 0.0745652 0.0837809 -0.039361 -0.167538 0.0384294 0.0611369 0.0764488 0.0144391 -0.0034207 0.0644851 -0.0685104 0.0510533 -0.0818917 0.00570217 0.0548919 -0.140064 0.0833384 0.00238302 -0.103242 0.0250605 -0.0136741 -0.0508218 -0.0535368 -0.0424441 -0.0327639 -0.130613 0.133621 0.033748 -0.0182944 0.00365207 -0.09865 0.0497255 0.0840014 -0.00529528 -0.0421495 0.00642882 0.0176928 -0.0373191 0.0733742 -0.0710382 -0.053192 -0.0307402 -0.00755768 -0.0556552 0.0496642 -0.0079912 -0.0296077 0.036215 -0.0151483 -0.0597705 0.0854826 -0.0846562 -0.000797924 -0.0486488 -0.065195 0.0732082 -0.0551432 -0.0637558 0.0737252 -0.0657767 0.0479223 0.0398579 -0.0602159 0.152713 0.0417287 0.124908 -0.0301041 -0.0487615 -0.0635296 0.0368817 0.0975997 -0.0194839 -0.077567 0.00447525 -0.0375289 -0.0547535 0.00831105 0.033747 0.0506139 -0.107873 0.0114207 -0.0109007 -0.0129922 0.00143619 -0.0294052 0.0932851 -0.0580843 0.0085755 -0.0294308 -0.0516708 -0.0487085 -0.0259023 -0.0211218 -0.0699129 0.0022733 0.0258734 0.0251903 0.0254038 -0.0168191 -0.0449863 0.00151669 0.0809179 0.100726 0.0606311 -0.00162798 0.0539215 0.0505839 -0.00626345 0.0552807 -0.0483817 -0.00753205 0.0399011 -0.0644952 0.0336108 0.0450304 -0.0029538 -0.0453687 0.0650912 -0.0256356 0.0568897 -0.0121785 -0.145356 -0.00561733 0.0348004 -0.0485542 0.0126981 0.0306713 0.127528 -0.0226529 0.0289614 0.0060611 0.00210572 0.0051242 0.151554 0.0252552 0.0110392 -0.0426066 -0.0234799 0.127536 -0.0555662 -0.0248743 -0.0532487 -0.104209 -0.0393339 0.0116126 -0.00775331 0.0924018 0.0632994 -0.00380788 0.0891534 0.0327967 0.00644562 0.0191413 -0.0191747 -0.0462447 0.0939209 0.1303 -0.0298007 -0.0214854 -0.0487324 0.00333543 0.0394452 -0.0401225 0.0169117 0.0455456 0.00960302 0.0242832 -0.00834027 -0.0166267 -0.182472 -0.0294962 0.0071693 -0.0212922 -0.0156829 0.029677 0.0373066 0.0108982 -0.0171857 -0.113164 -0.130042 0.0433268 -0.0242401 -0.0215207 0.00742465 0.0298356 -0.00331591 -0.075212 -0.0479685 0.182437 0.00913316 0.0547728 0.0118984 0.0795676 -0.0380088 -0.0521862 -0.0636313 0.018026 0.0550443 0.094937 0.0393219 -0.0783083 0.00809913 0.0196115 -0.0488875 0.0563691 -0.121451 -0.0571599 0.0166339 0.0252475 -0.0342416 -0.0148088 0.00638133 0.101747 -0.0568457 -0.0543361 -0.0961587 0.0260511 -0.120008 -0.0166053 0.0553014 -0.0241365 0.0391635 0.0489209 0.037903 -0.0113224 -0.00639293 -0.0702837 0.00334224 0.053944 -0.021309 0.0330926 -0.0343803 -0.0423854 -0.0946365 -0.0174345 0.105666 0.00185527 -0.0379657 0.0173487 0.0221093 -0.0450339 -0.0275643 0.0148733 -0.0107787 -0.0597375 0.0546028 0.0482665 0.0678561 0.00230511 -0.0173346 0.0725899 -0.0400903 -0.0240306 0.0201454 0.0405964 0.00530959 0.095796 0.0205766 -0.0478536 0.00660793 -0.0667682 -0.0745665 -0.0228853 -0.0433899 0.0256378 0.137777 0.0191464 0.0604649 -0.0300295 -0.0691919 0.0388198 0.106071 0.000428873 0.0885357 -0.0287469 -0.0409484 -0.0540651 0.0177773 0.00173217 -0.0484705 -0.025156 0.0920444 0.0500593 -0.052977 -0.0343144 0.0139621 -0.0341149 0.0352582
الصينية 0.0333247 0.0859647 -0.0645714 0.0469717 -0.0397485 0.0266582 -0.0317752 -0.0901167 -0.03888 -0.0981251 0.00989731 -0.020763 0.0412124 -0.137778 -0.0416267 -0.0401894 -0.0776176 0.0279824 0.0399096 0.0249286 -0.0609573 0.00368674 -0.0449558 -0.0734436 0.00195175 0.0454925 0.145044 -0.020649 0.0611562 0.0231629 -0.125143 -0.0195955 -0.0308365 0.0744894 -0.0883332 0.0286655 0.0640636 -0.00448304 0.00683064 0.0598154 -0.0560954 -0.0813791 0.0702133 0.0357409 -0.0255469 -0.0320392 0.00335452 -0.0057651 -0.0148738 -0.0662503 -0.0132981 -0.049952 -0.0330749 0.0879145 -0.0862975 0.0682598 0.0196474 0.0726308 0.0143185 0.00580489 0.123425 0.0355755 0.0582148 -0.0386463 0.0619674 -0.072397 -0.045969 -0.06065 -0.0519615 0.00636862 0.00331896 -0.026719 0.067934 0.00213915 -0.0413266 0.0499913 0.0686959 0.068096 -0.0533854 0.0530937 0.089971 -0.0554486 -0.0736535 -0.0544952 -0.0651269 0.0786381 -0.136692 0.0864876 -0.0307023 0.0242385 0.0247714 -0.0833861 0.063903 -0.121535 0.0870241 -0.00596277 -0.0276092 -0.00790778 0.0411066 -0.0541909 -0.0370663 -0.0107969 0.0305298 0.0490371 -0.0683899 0.0770937 0.00390745 -0.0552811 0.0294108 -0.0264473 0.0232743 -0.0429233 0.0832198 -0.0151104 0.0127442 -0.00385245 -0.0277979 0.0046134 0.00328647 -0.0564438 0.025921 0.00858596 -0.0677978 -0.0279097 0.0604802 -0.0365848 -0.0553299 0.0338083 -0.0904794 -0.00306542 0.106854 -0.0460457 -0.0141527 -0.0192757 -0.0129586 0.095882 -0.0602871 -0.0929324 -0.00272696 0.0269755 -0.0245091 -0.0728116 0.0830287 0.0801382 0.0404193 0.167206 -0.0509745 0.0466923 -0.030286 0.0224485 -0.00772766 -0.024715 -0.0341183 -0.055497 -0.0187923 -0.0118668 -0.0547405 -0.0062438 0.0216025 0.0387359 0.0879809 0.0530827 -0.0358697 0.0523347 0.0973811 -0.00832909 -0.0252077 -0.0165268 0.157255 0.0148768 -0.00391831 -0.0296403 0.0261336 -0.0189525 0.0572439 0.0206902 -0.0326079 -0.103233 0.0408074 0.0216897 -0.0507939 0.0289186 0.0358409 -0.0015124 0.0087199 0.0996006 -0.00240204 -0.0605578 0.0500117 0.00809239 0.0519269 -0.106995 -0.00456566 0.0167194 -0.0698798 -0.0212524 -0.071722 0.000742722 -0.0944122 0.00461728 0.0583052 -0.0302413 -0.0221228 0.0339985 -0.0124808 -0.151519 -0.112935 -0.0577795 0.11446 0.130021 0.11634 0.0814575 -0.00441707 -0.0105099 -0.068254 -0.0544434 0.0690555 -0.0439202 -0.0896112 0.0631984 -0.01913 -0.0989918 0.075783 0.0902302 -0.0799116 -0.0558142 0.00452631 0.0340272 0.0129368 0.0739733 0.0239477 0.0145257 -0.00390892 0.0794261 0.0873862 -0.0790828 0.00724332 -0.129481 -0.00353956 0.0401643 0.0770888 -0.00339947 0.03444 0.0105225 -0.071102 0.0830038 0.041903 0.0502224 -0.0276075 0.0657253 0.0908167 -0.0324228 0.00999873 0.0182651 0.0433358 0.109542 -0.0154201 0.0148787 0.0876453 0.0519153 -0.00442507 -0.0451851 0.0269294 -0.0521868 -0.0454547 -0.0817563 0.0171455 0.0586352 0.00541811 -0.0621999 -0.0648334 -0.0181213 -0.0141592 -0.0177248 0.0418421 0.0136942 -0.0364221 0.0727318 0.000155548 -0.0756472 -0.0315539 0.0781819 -0.000117 -0.0233095 0.0385455 0.00325764 -0.0499297 0.027381 -0.0217989 0.0413882 -0.13593 -0.0234068 -0.0208762 0.00693638 -0.0905449 -0.022573 -0.0042971 0.0257429 -0.0734444 -0.0185873
بولندا -0.102412 0.047641 -0.010083 -0.016081 -0.0111276 -0.0344798 0.0305501 -0.0520508 -0.0242747 0.0268005 -0.0227277 -0.0196475 0.0419432 0.0846809 -0.0414026 -0.0646884 -0.089891 0.0214253 0.0900621 0.0204614 0.0739916 0.0503333 -0.0592132 -0.0199216 -0.0798813 0.0184669 0.0527862 -0.1268 0.0686419 0.0812066 -0.0659041 0.0499136 -0.084177 0.00487701 -0.11199 -0.0224079 -0.0394976 -0.0741485 0.171016 -0.0108832 -0.0135502 0.0282563 -0.049744 -0.0354168 0.0279604 -0.0231202 -0.00897708 -0.032177 0.105371 -0.00115855 0.0607675 -0.056552 -0.0583167 -0.0376893 -0.0116753 -0.0123151 0.0294426 0.0675946 -0.0779073 0.0500285 -0.0103822 -0.0322497 0.126037 -0.0599413 -0.0225083 -0.0220893 -0.10881 0.00627878 0.0170684 -0.0645121 0.123092 -0.109656 0.0172651 0.126158 -0.0535995 0.0870014 0.0185391 0.100594 -0.0281789 -0.0633212 -0.0129606 0.140665 0.0365307 -0.0526233 -0.00930704 -0.0943429 -0.00761889 0.00626794 0.0603703 0.0481494 0.00501882 -0.120962 -0.0315227 0.00776566 0.0161686 0.00400259 -0.060425 0.0556369 -0.0147892 -0.0651744 0.0321098 -0.0555399 -0.0166243 0.0403922 -0.0215405 -0.0330654 -0.0241296 0.0162539 0.0929773 0.00670567 0.0103074 -0.0181061 -0.0143545 0.0543766 -0.0203776 -0.0155133 -0.00622032 -0.0118634 0.00416245 0.0738166 0.0116997 0.0100948 -0.0520503 0.0222517 0.0363661 0.00629293 0.0754392 0.0396663 -0.0135899 9.67803e-05 0.0148753 0.0623886 -0.0792403 -0.18732 -0.044302 -0.0185132 -0.00733701 0.000134184 0.0893958 0.103409 0.0437217 -0.0839895 0.0574405 0.0783503 0.00534841 0.166042 0.00489321 -0.0169975 0.0266139 0.0276219 0.0801072 -0.0372086 -0.0288556 0.0356695 -0.0919655 0.0405704 -0.0186906 0.0506343 0.0798482 0.0439886 0.0338908 0.0808915 -0.0598496 0.0962196 0.00486592 0.0114335 0.0325776 0.0810816 0.0873739 -0.000605316 -0.0846629 -0.0631628 -0.0610034 0.0185321 -0.0718101 -0.0477688 -0.000505121 -0.0263234 0.0449609 -0.00355799 0.0124933 -0.128675 -0.061864 0.0694133 -0.00847811 -0.0605129 0.0277538 -0.00724611 0.0611999 0.0623118 -0.0808241 -0.129733 0.00621961 -0.00410438 -0.0122287 -0.0145601 0.0042144 0.0124293 -0.00475149 -0.0244594 0.0889379 -0.0152386 0.0411315 0.0324479 0.100764 -0.0747265 -0.0348765 -0.0627021 0.0384123 0.0628606 0.163835 -0.00463914 -0.0159328 0.058968 0.0504472 0.0068365 0.054276 -0.120128 -0.127831 0.0222002 0.00744486 -0.0105632 -0.0544953 0.0065252 0.0692348 -0.0346034 0.00246601 -0.0973999 0.0419511 -0.0757402 0.00360507 -0.0481352 -0.0270985 0.0726145 0.013774 0.0401397 0.0111079 -0.00408198 -0.0391646 0.0636845 0.0566956 -0.0335322 0.0757629 -0.0286363 0.0326408 -0.0146105 -0.0162756 0.0327759 0.00797664 -0.00736381 0.01501 0.00903284 0.0369622 -0.00619349 0.0480016 0.0641163 -0.0201681 0.0557566 0.0907616 0.153575 -0.0248557 -0.00368766 0.0516508 -0.0855706 -0.093788 0.00962231 0.0353957 -0.0757102 -0.0155514 0.0164415 0.0467384 -0.0136377 -0.0581962 -0.0751518 0.036591 -0.0418362 -0.00021946 0.0610203 0.0229696 0.0670344 -0.0390062 -0.0819668 -0.0151113 0.0494319 -0.0471926 0.073164 -0.0181357 -0.0156616 -0.0216677 0.00760327 -0.0760959 0.00272776 -0.0975552 0.00812537 0.0500948 0.0541981 -0.0273014 0.0624909 -0.0243973 0.100371
فنلندا -0.0582008 -0.0230507 -0.0446869 0.0261913 -0.0643456 -0.0617917 -0.000636199 0.0314779 -0.0548577 -0.00670657 -0.0494058 0.0121407 0.0175774 0.0138939 -0.0188918 -0.0539347 -0.0862956 0.0754772 0.0635084 0.0535589 -0.0259538 0.0186634 -0.0519069 -0.0296421 -0.0556199 0.0345939 0.00480548 -0.0600548 0.0416495 0.108513 -0.0863895 -0.000467921 -0.115671 0.100409 -0.0338409 -0.0698209 -0.0759556 0.0277501 0.124904 0.00663485 -0.0992251 -0.000186219 -0.0253676 0.0588409 0.000476033 -0.000707822 -0.00661493 -0.00639202 0.00495966 -0.0221464 0.0776597 -0.0847029 -0.103648 -0.0174425 0.0619086 0.0148036 0.111432 0.129293 -0.0428193 0.136686 -0.0429663 -0.0135359 0.0747233 -0.0383302 -0.00694521 -0.0692306 -0.0389325 0.119396 0.0125784 -0.0406328 0.0386778 -0.039029 0.00196817 0.10092 -0.0959726 0.0497518 0.125619 0.104909 -0.10299 0.0193214 -0.0184978 -0.0138841 0.0135224 -0.0271014 -0.0362749 -0.0529154 0.0476252 0.126045 0.0333318 0.0604407 0.112053 -0.135554 0.046459 0.0327744 0.0309332 0.00103472 -0.0445723 0.0474448 0.0197122 -0.0161083 0.0109569 -0.0990013 0.104577 0.0080049 -0.128661 -0.00616138 -0.00998714 0.0486924 0.0180512 -0.012325 -0.05754 0.0363517 -0.0794766 -0.0166716 0.0650858 0.0394033 -0.120338 -0.012211 0.060711 -0.0126314 -0.00648145 0.100415 -0.0401645 -0.00583308 0.0486539 -0.0146436 0.116067 0.0543009 0.0309379 0.0144834 0.0322711 0.0496941 -0.0258439 -0.0678316 -0.0336526 -0.0656755 0.0306983 -0.120199 0.0449971 0.0996464 -0.0213962 -0.0744596 0.00511674 0.00397886 -0.0179646 0.127938 -0.0541366 0.0120117 -0.0150669 0.00749922 0.120291 -0.0541445 -0.10339 -0.0296197 -0.0499561 -0.0366771 0.00697541 -0.0131914 0.0279184 0.0161979 0.00231805 0.0554149 -0.00458023 -0.0208475 0.019033 -0.0482055 0.0481825 0.140087 0.0808892 0.0473715 -0.0438917 -0.0415178 -0.0997516 0.0864809 -0.0150644 -0.0469748 0.130528 0.0453927 0.0176805 0.0511165 -0.0314257 -0.00732547 -0.113352 -0.0277799 0.0303744 -0.0484866 -0.0165914 0.0382794 0.0269801 0.0130619 -0.0812707 -0.133982 0.0919317 -0.00774634 -0.00938117 -0.0242277 -0.0298973 0.0339801 -0.00846288 0.115571 0.00619075 -0.0748161 0.0240908 -0.0247238 0.0885937 -0.136582 0.00905009 -0.115546 0.0198542 0.0792013 0.118 -0.0455173 -0.0592665 0.0145409 0.0302768 -0.0381466 0.0249663 -0.123251 -0.0747809 0.0249797 0.0552964 -0.0450038 -0.0410832 -0.0333695 0.0252236 -0.0294154 -0.0669594 -0.102057 0.061449 -0.00609462 -0.00360141 -0.0170536 -0.0753073 0.0627668 0.0341812 0.0709265 -0.00241302 -0.00679887 -0.0526176 0.0482628 0.0404368 0.0143285 0.00464814 0.0111565 -0.000816111 0.0279831 0.103006 0.0774189 0.0122608 0.0188628 0.0177411 -0.0148211 0.028683 -0.02341 -0.0138494 0.00464116 -0.0368115 -0.0492551 0.0122053 0.0899088 -0.000605381 0.0101571 0.0243949 -0.057257 -0.0550739 -0.0156499 0.0887572 0.0238474 -0.042172 0.0182019 0.00218211 -0.0109456 -0.0184019 -0.0541935 -0.0435838 -0.0822768 -0.00643575 -0.00404343 0.0431491 0.0353451 -0.0500413 -0.0611272 -0.0801472 0.0537485 0.0166598 0.0997373 -0.020824 -0.0336032 -0.0311971 -0.0611199 0.0154234 0.00664683 0.00876463 0.0348344 0.00580178 -0.0402397 -0.0523176 -0.00887928 0.02572 -0.00561722
النرويج -0.0522632 -0.0252374 -0.163244 0.055373 -0.0500192 -0.0167419 -0.0334712 -0.0419131 -0.0247477 0.0535002 -0.0692411 -0.0350162 0.0562513 -0.043264 -0.0578141 -0.0179532 -0.0181858 0.122081 0.0471417 0.0138618 -0.0753855 0.0335508 0.00218354 0.0378862 -0.100118 0.0432313 0.0543907 -0.024857 0.0601565 0.0588887 -0.0737842 -0.0323005 -0.055597 0.0581052 -0.0340569 -0.037487 -0.0502501 -0.0218149 0.11587 0.0285061 -0.0894022 0.0180308 -0.0867147 0.0754622 0.0631224 -0.0876101 0.0192894 -0.0281515 0.0656276 -0.0843506 0.0380641 -0.0371185 0.00556202 -0.0402097 0.0480827 -0.0506551 0.121991 0.078498 -0.159837 0.0761859 -0.0586102 0.029763 0.142553 -0.0871151 -0.0498559 0.000943553 -0.0153743 0.0506302 0.00808018 -0.0169806 0.0495081 -0.0509801 0.047625 0.0403299 -0.0299275 0.0605976 0.182246 0.065069 -0.0672019 -0.0512491 0.0386319 0.0647327 -0.0324468 -0.0127735 -0.0314795 -0.02522 0.00695182 0.0662341 0.0328313 0.0915223 0.0647232 -0.0807768 -0.00666961 0.0364841 0.00128146 -0.0177843 -0.0399997 0.00992189 -0.0127583 0.0535967 0.0233804 -0.123736 -0.039619 0.0767677 -0.0306178 -0.0199691 0.0366636 0.0791596 -0.0120243 0.00611574 -0.0286106 -0.00724232 0.0134574 -0.0147153 0.10637 0.0125213 -0.0484627 0.0735089 0.0346825 -0.0115084 0.0939093 0.0171046 -0.0260163 -0.0292853 0.0288265 -0.0518516 0.0939291 0.0181322 -0.0106807 0.0383005 0.00919649 0.0969021 -0.0172342 -0.052775 0.0445405 0.00697268 0.0452487 0.0250487 0.0449161 0.0964842 -0.0143038 -0.0159757 0.122789 0.0373038 -0.0739934 0.134198 0.0629138 -0.0436247 0.0271977 0.0691673 0.0830812 -0.146242 -0.0586424 0.00216207 -0.105639 -0.0476628 0.032303 -0.0162947 -0.00229855 0.0144684 0.0806503 0.0980062 -0.000799571 -0.0064246 0.015364 -0.020371 0.0726099 0.0341424 0.0112721 0.0713372 -0.0213545 -0.0277118 -0.0387369 0.135575 0.0085939 -0.0163909 0.120528 0.0331306 -0.0502148 0.0563446 0.0174432 -0.0528264 -0.0736744 -0.00858086 0.0451606 -0.0121377 0.0160061 0.0116645 -0.0309849 0.00688099 -0.0280613 -0.0499729 0.0619303 0.0533602 -0.0637913 -0.00299062 0.0805129 0.00772052 -0.0508795 0.051045 0.0501342 0.0296918 0.00720795 0.0885259 0.000879525 -0.096527 0.0113946 -0.0527911 0.0069357 0.0955011 0.0393566 -0.0178574 -0.0257022 0.00275407 -0.012652 -0.0897143 0.0538397 -0.17556 -0.0127934 0.0329802 0.0539208 -0.0607569 -0.102732 -0.00494005 0.0323262 0.00700839 0.00601621 -0.0825456 0.0183906 -0.0264903 0.0350726 -0.0152004 -0.100126 0.0604466 0.0572069 -0.00642468 -0.0295527 0.0527796 -0.0182585 -0.0246989 0.0252523 0.118712 0.0517846 -0.0468899 0.0132474 0.0188815 -0.021391 0.0874225 -0.0148363 -0.00593188 -0.00205765 -0.0223531 0.0117419 -0.0797098 0.0238126 0.0327193 -0.0392897 -0.0212013 -0.0377468 0.0859084 -0.0319988 0.00311215 0.00591398 -0.176767 -0.0737416 -0.0131664 0.139141 -0.0147894 -0.0474778 -0.0602732 0.0201903 -0.00366879 0.0272724 -0.0615809 -0.0538139 -0.0579432 -0.00694961 0.0889976 0.0462992 0.0543194 -0.0834782 0.00231399 -0.0671139 -0.00455133 -0.0804977 0.0387802 0.0142681 -0.0086023 -0.0785697 -0.0592063 0.0711285 -0.00921045 0.0258505 0.00880014 -0.00932529 -0.0167433 -0.0462826 -0.0251578 0.0385375 0.0133854
وفرنسا -0.0331234 0.0783847 0.000373721 0.0225476 -0.0234211 -0.00921599 0.0361728 -0.104311 -0.0644661 0.0724449 -0.0861648 0.0399178 0.0188286 -0.027958 -0.00647728 -0.0619903 0.116562 0.0176653 0.0651427 0.0355195 -0.0505907 0.039769 -0.0183327 -0.0217805 -0.0548146 -0.0342104 -0.0532478 -0.0794821 -0.0271599 0.0491284 -0.0573929 0.0619831 -0.0537648 0.0742973 -0.00912347 -0.0537799 0.0646149 -0.119358 0.0638159 -0.0647844 -0.0414957 -0.205347 -0.0463937 -0.0216605 -0.0137323 0.00261847 -0.00659258 0.0125509 0.0102027 0.00694285 0.0306353 0.0135783 -0.066229 0.0525756 -0.0439229 0.0201842 -0.00561206 -0.0125067 -0.0941915 0.17105 -0.0486524 -0.00365902 0.0485262 -0.107852 0.0486626 0.00883547 -0.0476098 0.00822297 -0.143442 -0.00223062 0.0783803 -0.000421101 0.0344058 0.0855514 -0.0437289 0.0703884 0.0848293 0.0827818 0.0155575 -0.007748 -0.0388396 0.0137923 -0.0154722 -0.0103695 -0.118054 -0.0349453 0.0699095 0.096213 -0.0054394 -0.0337444 -0.0405144 -0.0875286 0.0399714 0.0652476 0.0154347 0.0143163 0.00874641 0.00534954 -0.0687785 -0.0491492 0.0105058 0.0439258 0.0689203 -0.046469 0.037776 -0.0819708 0.0243782 0.0666204 0.00803548 -0.0572026 0.0501954 -0.0300798 0.0219821 -0.0670466 -0.00514666 0.00580853 -0.00368546 0.0138225 0.0490553 0.0661367 0.0255421 0.0259547 -0.0237985 0.078797 0.0180942 -0.0825897 0.0453908 0.0952945 -0.0127537 0.11281 0.005265 -0.0477907 -0.0222864 -0.115143 -0.0572557 -0.0238901 0.0212714 0.034846 0.0571874 0.061723 -0.0171295 0.0183159 0.147826 0.0132864 -0.0388605 0.0750181 0.135504 -0.032358 -0.00996705 0.0382343 0.0834326 -0.109047 0.00677889 -0.00358917 0.010531 -0.00962171 -0.0243769 -0.11907 0.0839739 -0.0273765 -0.0574948 0.0876933 0.00144202 -0.0342785 -0.00896026 -0.0426482 0.0143938 0.019252 0.166743 -0.0549327 -0.0550666 -0.0584978 0.0200776 -0.00142952 -0.044383 0.0340647 0.00092884 0.000247007 -0.0553369 -0.00122801 0.0624934 -0.136452 -0.0762311 0.106311 -0.085131 0.0625474 -0.0472827 0.0846769 -0.0031938 0.0205924 -0.0519012 -0.0970558 0.00815662 -0.0311413 -0.0364037 0.0150879 -0.0156444 0.0106399 -0.0733209 0.011277 0.0959732 0.0178122 0.0498576 -0.0170535 0.016828 -0.115148 0.0154266 -0.0927664 0.0522196 0.0766851 0.07034 -0.0214798 0.0313783 0.0315651 -0.0062268 -0.0206783 0.00684569 -0.0412415 -0.014168 0.0253753 -0.0033998 -0.0142766 -0.0436924 -0.00842248 0.0748733 0.0465974 -0.100737 -0.000615695 -0.0782731 -0.145364 -0.0446995 -0.0156146 0.0837415 0.056017 0.00856469 0.0105222 0.00735608 0.0409005 -0.0308164 -0.029977 -0.00198457 -0.0810358 0.070392 -0.0708358 -0.112141 0.0370874 0.0267337 0.0233392 4.74669e-05 0.0294727 0.00443223 -0.0448655 0.0495194 -0.0824867 -0.0140188 0.012391 -0.0210781 0.0547085 0.0866672 0.0551585 0.0482065 -0.0302306 0.00269077 -0.0770452 -0.00839418 0.0190338 0.0677895 0.0900118 -0.0298403 -0.0116366 0.0376146 0.00570045 -0.0620708 -0.0748269 0.00888511 -0.0873024 -0.0588408 0.0769308 0.0519139 0.0759584 0.0187012 -0.0605252 -0.029728 0.0628245 -0.000639138 0.105787 8.01816e-05 -0.0357038 -0.0638274 0.016883 -0.00310706 -0.00979299 0.0860382 0.0600834 0.025114 0.0582838 -0.0206793 0.0419081 -0.053322 0.13712
egypt -0.0686775 -0.078593 0.0131806 0.132827 -0.0993312 -0.00547132 -0.0751155 -0.0446143 -0.0170775 -0.0238034 0.0122914 -0.0975152 -0.105151 0.0106702 0.00266455 -0.0750631 0.0179086 0.0172107 0.0143544 0.0461294 -0.0670014 0.0218284 -0.0367555 0.0259941 -0.118854 -0.12776 0.0223934 -0.0270402 0.0299578 0.180278 -0.0876446 -0.037557 -0.0394564 0.000829609 0.0899438 -0.125692 0.0498367 -0.0223876 -0.0320999 -0.0689067 -0.0203954 -0.00924676 0.0103764 -0.0291894 -0.0106934 -0.0817837 -0.0543738 -0.11351 0.107231 0.00787147 -0.0106078 -0.0995197 0.00317395 0.0171221 0.0327808 -0.135593 0.0398748 0.0267972 -0.00236447 0.0585521 0.0721326 0.0600529 0.0610266 -0.00494103 0.025769 -0.00487179 0.0974107 0.0448473 0.010607 -0.00364586 0.0316004 -0.0197095 0.0495599 0.0256591 -0.0708095 0.0956494 -0.00903609 0.0171676 -0.0322037 -0.0177987 0.0652961 -0.00534584 0.0518207 -0.0395802 -0.0415479 -0.0283701 0.108376 -0.0632042 -0.0394596 0.0108881 0.0284753 0.0129218 -0.0380979 -0.0333356 -0.0072644 0.0669996 0.0169589 0.0657432 -0.0384956 -0.0840373 0.0446378 -0.0183284 -0.0580717 -0.0531173 0.062958 0.0108544 -0.046041 0.109601 -0.0413886 0.00490683 -0.0446273 0.0277705 -0.033701 -0.0112297 -0.0278505 -0.035034 0.0589596 0.0339643 -0.131093 0.0562466 0.0229976 -0.050688 0.0319216 0.0613442 -0.0908773 -0.0236016 0.0437491 0.0592194 -0.0665609 0.067548 0.00778238 -0.0494885 0.0784375 0.00773605 -0.0582653 -0.0495766 0.00488702 -0.0182895 0.094401 -0.0264049 -0.125179 -0.0265998 0.0773677 0.140511 -0.10389 0.078676 0.022125 0.0605202 0.068219 0.00916878 -0.0260731 -0.0532314 -0.0184565 -0.0503545 -0.00644037 -0.150422 -0.0744624 0.0255374 0.035137 -0.054048 0.0194278 0.0257916 0.0399253 -0.0460699 0.0688555 -0.0497919 0.00382173 -0.00658796 0.0344231 0.045899 -0.0315207 0.0136477 0.04575 0.0130431 0.0145865 0.0726493 -0.00110264 0.0574582 -0.0934047 -0.035299 -0.122905 0.024611 -0.0393911 -0.0279564 -0.0251245 -0.00307823 0.0112722 -0.0947496 0.0220279 -0.108528 0.0411172 -0.00880088 -0.020613 0.112198 -0.0887104 -0.0311924 0.042507 -0.0351375 -0.178591 -0.142926 0.0513089 -0.00520814 -0.0422024 -0.100834 0.0475684 -0.0893767 0.0346873 -0.033639 0.0781873 0.10588 0.056295 0.0258935 0.0220558 -0.0630731 -0.00920445 0.0217788 0.0231575 -0.0408964 -0.0337666 0.00418991 -0.0381166 0.0802995 0.038771 0.0174902 0.000938938 -0.0010307 -0.0150379 0.0104571 0.0526749 -0.0206824 -0.00565327 0.051654 -0.0670521 0.0157793 -0.0723892 0.03183 -0.0387609 0.00323418 -0.0237865 -0.0679415 -0.0184223 0.00597006 -0.0476277 -0.0414876 -0.0746629 -0.0929999 -0.0286752 -0.0318228 -0.0188586 -0.0489148 0.0960688 -0.0103938 -0.0414299 0.0536091 0.0106667 0.007288 0.0126333 -0.00685638 -0.0389476 -0.0420704 0.0483906 -0.067805 -0.00404906 0.0292839 -0.103044 -0.0800699 0.000126819 -0.0643905 -0.0485794 0.0109499 -0.0607336 -0.0203407 -0.0252325 -0.0477657 0.0637779 0.00163107 0.12274 0.00842605 -0.0633503 0.10908 -0.0455527 0.0273855 -0.0377647 0.0349797 0.0860441 0.0134597 -0.0163947 0.100613 0.00744774 0.0290241 -0.0467359 -0.0950469 0.0139303 -0.0258253 -0.0113782 0.0168107 -0.0585772 0.100429 0.0446471 -0.075618
فرانس -0.0880498 -0.00265343 -0.131828 -0.0245086 0.00264856 -0.0232059 -0.0358747 -0.0991136 0.0795327 0.0285262 0.0834185 -0.0276518 -0.00727665 -0.0284203 -0.0386849 0.0195017 0.0391554 -0.0312813 0.0112596 0.0905175 -0.0140851 0.0749008 -0.0282979 -0.00206605 -0.024721 -0.119177 -0.0792187 -0.0920367 0.0989229 0.0442101 -0.0117664 -0.0176917 -0.013189 -0.0825582 -0.0135122 -0.037307 -0.0256538 0.032623 -0.0233069 0.041008 -0.025426 -0.01529 -0.0317573 -0.0110527 0.0803824 -0.000195716 -0.0700491 -0.109535 0.0714893 0.0336505 -0.0608419 0.0724779 0.0258366 -0.00268017 0.0013672 -0.0791888 -0.0359828 0.0191762 0.0315185 0.0872448 0.0172202 0.0783911 0.0856135 -0.0443702 -0.0358586 -0.0843293 0.0343073 0.00544565 0.018148 0.063298 0.0224887 -0.0128399 0.00150005 0.0531739 -0.0967572 0.066464 0.135541 -0.00381391 -0.0216502 0.0109192 0.0272302 0.0170833 -0.0161515 8.76056e-05 0.0125404 0.031039 -0.0766098 -0.0361049 0.018034 -0.0689162 0.0365782 -0.0260537 0.0295845 -0.00728002 0.0588171 0.0885528 -0.0402736 0.0504167 0.0705708 -0.0139985 -0.177291 -0.0451822 0.00633084 -0.0517478 -0.00341839 -0.0178025 -0.0289698 -0.0511369 0.013567 0.0374575 -0.0263069 0.0321863 0.0433879 0.00420427 0.0158427 -0.0579638 0.0398195 -0.00980675 0.0175047 -0.0200992 0.0335178 0.10686 -0.000510314 0.0453661 -0.0818073 0.0615909 0.0258796 0.055624 0.0434518 0.021242 -0.0120938 0.0472313 0.0725637 -0.0471914 -0.000395649 0.012267 -0.0818064 0.0306583 0.0216003 0.0854211 -0.0147893 -0.0120653 0.048748 0.0598033 0.0378115 0.0228957 0.074468 -0.016518 0.048932 0.0534201 0.00651986 -0.169174 -0.0480583 -0.0513078 -0.0566627 0.0360797 0.00502758 -0.0253267 -0.0078769 0.161688 0.0264996 0.0224612 0.0570259 0.0125841 0.0943996 -0.0486583 0.0242108 0.0928207 0.0556652 -0.0891054 -0.0332217 0.030414 -0.0752231 -0.0146541 -0.0296507 0.0922561 -0.0541831 -0.057239 -0.0293426 -0.0777655 -0.010081 -0.0511008 -0.117334 0.0598937 -0.0653595 0.0357574 0.0723788 -0.0595418 0.0673362 0.0719617 0.0143822 -0.148873 -0.0384833 -0.00610535 -0.0756523 -0.0423317 -0.0421414 -0.0708396 -0.033243 -0.0846237 0.0868884 -0.0468082 -0.0606397 -0.0239741 0.0281874 -0.101682 0.0666697 -0.0516706 -0.0112351 -0.0210925 0.00559635 -0.0552189 0.031368 0.0603695 -0.133007 0.0879968 -0.00665724 -0.0136196 -0.00311944 0.0271192 0.0479771 0.0132592 -0.0962091 0.0851194 0.0532313 -0.142717 0.0344124 -0.0725853 -0.0279269 -0.00111244 -0.00895089 0.055513 0.00238684 0.0304124 -0.00890318 0.0666758 0.0830681 -0.0013774 -0.13265 -0.0341163 -0.0878371 -0.099068 0.137367 0.031634 -0.0940241 0.00852669 0.0349866 0.00576734 0.0264202 -0.0790889 -0.0235654 -0.0427923 0.00714283 0.0600195 -0.0295518 0.0221379 -0.0444134 -0.044929 0.0171773 0.0128787 0.0312866 0.0458896 -0.0187783 0.0445936 -0.0680791 0.0244376 -0.0905964 0.0748358 0.05466 -0.104082 -0.0683176 0.00518842 0.075897 0.00159572 -0.144968 -0.0997241 -0.0456229 0.138825 0.0207301 0.0276756 -0.0621765 -0.0293304 0.02151 0.070389 0.00980897 0.0619842 0.0026177 0.0504297 -0.00929034 -0.0364167 0.0206463 -0.032706 0.0253387 0.0220877 -0.104953 -0.0455788 -0.0452414 0.0734653 0.00892038 0.0390895
الفنلندية 0.0107536 0.0210434 -0.0281724 0.0186909 -0.00614564 -0.0761233 -0.0279438 0.107633 -0.0731131 -0.0404223 -0.0438894 0.0642509 0.00438994 -0.0272786 -0.0426555 -0.00636219 -0.0881779 0.0281399 0.0969524 0.0529441 -0.101569 -0.0148175 -0.0248073 -0.0754 0.0268887 0.0414012 0.0696271 0.0227868 0.0523541 0.128351 -0.102257 0.013286 -0.0925009 0.106055 -0.0327531 0.00745451 -0.140149 0.016274 0.0772798 0.0186 0.00638249 0.061343 0.0158159 0.0640777 -0.0381727 -0.0717577 0.00605458 -0.01133 -0.0282172 -0.0175534 0.0697963 -0.0965281 -0.0804427 -0.00773796 -0.0217479 0.0464047 0.132688 0.129985 -0.0125592 0.145861 0.030315 0.0269449 0.109536 -0.0211936 0.0430119 -0.0779522 0.005826 0.0679279 0.00011822 0.0162013 -0.0424767 -0.0577247 -0.0285184 0.081069 -0.0996197 0.0180604 0.102924 0.0376849 -0.159625 -0.0266227 0.0166275 -0.0284519 -0.0345683 0.0132494 -0.0571473 -0.0412177 0.036446 0.116957 -0.038719 0.116812 0.123178 -0.131444 0.0663184 0.0175981 0.0563518 0.0871949 -0.0618708 0.0139595 0.0424845 -0.011618 -0.00729467 -0.0942226 0.118885 0.0065459 -0.0772734 0.000347554 -0.0518422 0.00544058 0.00469448 -0.00281144 -0.0339468 -0.0273862 -0.0609473 -0.0208282 0.0269861 0.0426864 -0.108922 -0.0016183 -0.0184461 0.0166308 -0.00509595 0.0922651 -0.120551 -0.0226508 0.0568424 -0.0827917 0.039918 0.0341115 0.0339329 0.0377758 0.0372665 0.0540303 -0.0400516 -0.0444048 -0.00231554 -0.0119247 0.00325927 -0.109512 -0.00726814 0.0920148 -0.0360857 -0.111244 0.0672212 0.0359463 -0.00475284 0.126473 -0.075109 0.0461326 -0.0302817 -0.0629386 0.0268771 -0.0124223 -0.07903 0.00489388 -0.0347075 -0.0199886 -0.0242214 0.0611825 0.0306703 0.00337549 0.0252715 0.112818 0.029863 -0.0286483 0.0933198 -0.0179699 0.0311998 0.08961 0.0596392 0.0267229 -0.00960551 -0.0254072 -0.0707535 0.109789 -0.0526099 0.0167343 0.13209 0.00137344 -0.027248 -0.0154303 -0.0560788 0.0065954 -0.0339591 -0.011618 0.0356559 0.0194067 -0.0660941 0.00838856 0.0753385 -0.00838979 0.0305249 -0.143933 0.0522323 0.0087354 -0.0150284 -0.062386 -0.0294244 0.0710651 0.0378613 0.0717997 0.019119 -0.0556415 0.0811872 0.0378525 0.0382363 -0.100393 -0.0326683 -0.137937 0.0045256 0.0509098 0.0894306 0.0480683 -0.0316901 0.0640509 0.0214971 -0.0557591 0.00231519 -0.0885976 -0.119338 -0.0217897 0.05278 -0.0362664 -0.0268 0.0639166 -0.07164 0.0504662 -0.013894 -0.0876626 0.0751163 0.0308092 0.0312517 -0.0178547 -0.116702 0.0235725 0.0614139 0.069162 0.036562 -0.0239473 -0.0204347 0.021963 0.0655011 -0.0158399 0.066711 0.0281695 -0.0631626 0.0325977 0.0739459 0.0661356 -0.00741733 0.0194565 0.0233754 0.00732979 0.0370531 -0.036518 0.054518 0.0152254 -0.00632601 -0.0694797 -0.013025 0.0699753 -0.028478 0.0107987 -0.0129034 -0.0192931 -0.0118861 -0.0497227 0.049921 0.0152661 -0.0020252 -0.0589534 -0.0713389 -0.0184661 -0.0363509 -0.040809 0.019223 -0.0134846 -0.00272761 0.0580313 0.0221032 -0.0269169 -0.0526898 -0.0284684 -0.0687182 0.00372435 0.0166715 0.0164026 -0.0456192 0.0220708 0.0223896 -0.10427 0.0148641 0.0488697 0.0818972 -0.0180015 -0.0334859 -0.0620763 -0.0264109 0.0338409 -0.0108252 -0.0258172
واليابان -0.0635455 0.0961995 0.0214515 0.0967807 -0.023677 0.0627036 0.0162444 -0.106537 -0.0702767 -0.0776909 -0.0516311 0.0318362 0.0523925 -0.108973 0.0616843 -0.0180569 0.078449 0.0475726 0.083023 0.0223537 0.0130209 0.00756587 0.0275652 -0.028268 -0.0229275 0.00180056 0.0188669 -0.0453982 -0.0295682 0.0505689 -0.0953552 0.0118018 -0.0165484 0.152263 -0.0477456 0.000471877 0.0783141 -0.0383372 0.11752 0.024791 -0.12055 -0.162212 0.0154878 0.00532231 -0.00597542 -0.00303971 -0.00306263 0.0316191 -0.0188398 -0.0243244 -0.0682161 -0.0428379 -0.053974 0.0269733 -0.132208 0.0299867 -0.053899 0.0546825 -0.0720977 0.0790655 -0.0626082 -0.00744685 0.0748194 -0.0698863 -0.0161458 0.0127659 -0.066924 -0.0470479 -0.110391 -0.0096842 0.00735639 -0.0550144 0.0850006 0.0714987 -0.0125021 0.104926 0.070284 0.0688029 0.0377059 0.0248588 0.00625088 0.00104529 -0.0300126 -0.0342797 -0.0470663 -0.0597141 -0.000605907 0.0688218 0.0928327 0.0320538 0.00286501 -0.133938 0.0348366 -0.0112736 0.0339508 -0.0377015 0.013128 0.025707 -0.0968066 -0.0456889 0.11051 0.0782627 0.0601981 -0.0101909 -0.0184586 0.032707 -0.0394027 0.103347 0.0357391 -0.00181221 0.0104817 -0.117925 0.0706104 -0.044954 0.0464695 -0.0379119 0.026577 0.038413 0.0137055 0.0285818 0.0167698 -0.0574158 -0.0652386 0.0827481 0.0938621 0.0131775 -0.0114538 -0.0184514 -0.0708149 0.119155 0.0944302 -0.0250121 -0.0409288 -0.109394 -0.0781847 -0.082241 0.0214728 -0.0374488 0.0104391 0.0460787 -0.0431459 0.0633295 0.0624658 0.0301583 -0.0208275 0.11948 0.0946994 0.0457716 0.00697178 0.0304578 0.0698457 -0.100947 -0.0357847 0.00849342 0.0111658 0.0180503 -0.0932583 -0.0670867 0.0455445 0.0269031 0.01121 0.0655939 -0.0347954 0.0173738 0.0429878 -0.044696 -0.0523836 -9.18612e-05 0.15583 -0.0379125 0.00458479 -0.0101341 -0.000553348 0.0468296 0.0381838 -0.0529166 -0.00374588 -0.0212102 -0.0155788 0.0994809 0.000197917 -0.0996704 -0.0654727 0.02391 0.0346118 0.0944228 -0.0175923 -0.00713727 -0.0103903 -0.0191831 -0.0285459 -0.0907929 -0.0108158 0.0779269 -0.0704685 0.0168041 0.0135124 0.0331919 -0.0652374 0.0246568 0.0218159 0.00869034 0.0402145 0.023621 0.0668159 -0.106325 -0.0477462 -0.0418682 0.135789 0.0727934 0.199912 -0.109578 0.0097254 0.0228547 0.00815118 -0.0568377 0.00520753 -0.0391056 -0.0326286 0.041058 -0.0399133 -0.0404308 0.0183081 -0.0287395 0.00771457 -0.0430312 -0.0496376 -0.0281693 -0.0574832 -0.0679473 -0.102154 -0.0115103 0.0566241 0.0464216 0.0186292 -0.0968798 -0.0131054 -0.0561381 -0.0278687 0.012676 0.0216171 -0.016108 0.0631259 -0.00174089 -0.0543706 0.00911399 0.0325631 0.0219249 -0.0620889 0.051017 0.0318138 -0.00445019 -0.0209818 -0.0454186 0.0209278 0.0848618 -0.0425518 0.00119132 0.0686506 0.10956 0.0588884 0.0339487 0.0561663 -0.0540935 -0.0291525 -0.0318322 0.0765344 0.0194819 -0.0558972 -0.069469 0.00991233 0.0361447 0.0451393 0.0722825 0.00919051 -0.00774099 -0.0513798 0.0480613 0.0489924 -0.0520316 0.0308632 -0.00975743 0.013005 -0.0133475 0.0285949 0.0939509 -0.0325151 0.0313253 -0.0831711 0.0777868 -0.0297005 0.0116522 0.097141 0.0882356 -0.00837076 0.0293606 -0.0112789 0.0329426 -0.104718 -0.00992176
مكسيكو 0.00460009 -0.0966686 0.014796 -0.0313553 -0.0123959 0.012805 -0.0412895 -0.00678803 -0.0455096 0.0701916 -0.0757545 -0.0278409 0.101973 0.0111551 0.0265924 -0.00850139 -0.0482518 0.0277337 -0.0116026 0.0656576 -0.0787428 0.0644381 -0.137053 0.0510018 0.0681665 -0.0354693 0.0917795 -0.105121 0.025472 0.0612039 0.0252833 0.0157772 -0.0438842 0.0796477 -0.0322021 0.0352139 -0.0130963 -0.0957338 0.0233671 0.00459146 0.0344913 -0.0271952 -0.100501 -0.00545162 -0.0384072 -0.0287767 0.0441043 -0.110328 -0.0190587 -0.0558181 -0.00288416 -0.039409 -0.00288853 0.152594 -0.151149 -0.00964175 0.0898499 0.0964972 0.0273198 0.0868864 -0.0285855 -0.0719041 0.0284262 -0.0329453 0.00885801 0.00962572 -0.0245419 0.0722061 0.0224188 0.0304814 -0.0428661 0.0111047 0.051231 0.0261219 -0.0598343 0.0434663 0.0536979 0.0657161 0.0234446 -0.052507 -0.143489 0.15522 0.0253174 -0.0054899 0.00136146 -0.0261232 0.00385711 0.0584004 0.0616435 -0.0266205 -0.0512033 -0.0618203 0.0477039 -0.0255654 0.037132 0.00397771 0.0145671 0.0951067 -0.183904 -0.030943 0.0292231 -0.0421958 0.0830342 -0.0339871 0.000889302 0.0565218 -0.044878 0.0560486 0.0205476 0.0551107 0.00522358 -0.0512036 0.147159 0.00970092 0.0525364 -0.0777103 0.108793 0.051044 0.0248496 0.0578783 0.0459911 -0.0243467 0.00876968 0.1099 -0.066034 0.0205952 0.0422939 0.0215808 0.102094 0.0750644 -0.0297552 0.0680476 0.000732113 0.037359 -0.023661 -0.00656511 -0.086591 0.0362682 -0.0580323 0.0534149 0.0317327 0.063106 0.00542392 0.089671 0.0166419 0.0214576 0.0227858 0.0520332 -0.00802784 -0.0471633 -0.0267867 -0.0401416 -0.0141092 -0.033288 -0.00514892 0.00755189 0.0467559 -0.02734 -0.021853 0.0379925 0.150422 0.0165463 0.0117255 0.0224237 0.00920958 0.059275 -0.172739 0.11252 0.00751161 0.044003 0.0850299 -0.0202197 -0.022305 -0.0228318 0.0578978 0.011485 -0.0338127 0.0723185 -0.0510905 0.0207683 -0.0322961 0.032585 -0.00336082 0.059378 0.0467513 -0.0023924 -0.0265756 0.0928354 0.0792885 0.0377834 -0.0220518 -0.0539734 -0.0779212 0.00232001 -0.0642613 0.0121309 0.0637159 0.0898314 -0.100852 0.0101665 0.0782159 0.055957 0.00416759 -0.00563242 -0.0121214 -0.0632907 -0.062115 0.00783875 0.141453 -0.130997 0.184455 -0.0320162 0.0591201 -0.0289663 -0.0396049 -0.0690947 -0.00830581 -0.042944 -0.0917224 0.0673177 -0.0583578 -0.035181 0.0106901 0.0404551 0.0677309 0.0403745 0.0298914 -0.0429139 0.0371248 -0.0157197 0.0868139 0.0328169 0.000191476 0.0361241 -0.00967875 -0.114105 0.0130461 -0.00749474 -0.0184234 -0.0763432 -0.0103306 -0.0054645 0.0185426 0.0223793 -0.0239262 -0.0620968 -0.01541 -0.0472017 0.0354183 -0.0651773 0.0795796 -0.0219025 0.0480282 -0.0195809 -0.0819356 -0.000364253 -0.020374 0.032872 0.0486603 0.0567794 -0.0444665 0.0125947 0.068258 -0.0593523 -0.0913929 -0.0808224 0.0331295 0.0886801 -0.00267052 0.0862258 0.0107083 -0.0444594 0.0106489 -0.102041 -0.052183 -0.0544928 0.0345974 0.0126712 0.0651225 -0.036573 -0.045317 -0.0221663 -0.0161605 0.0107957 0.0535426 -0.00442935 -0.00626152 -0.045761 -0.0395524 0.0211382 -0.0650637 -0.0950802 -0.0130951 -0.0227397 0.0596012 -0.0359356 -0.0141728 0.0695091 -0.00252274 -0.0763921
انجلترا 0.0398864 0.0416743 -0.147705 0.0703092 -0.0219105 -0.0221432 -0.0754145 -0.0538135 -0.0338223 0.10048 -0.0493299 -0.00469236 0.0695239 0.0338736 0.010799 -0.0638707 -0.0374838 0.0743157 -0.0278183 -0.0290783 -0.0649711 -0.0217 -0.00876968 -0.087874 -0.0576264 -0.00930882 -0.0728394 -0.0423779 0.069499 0.140019 -0.0613023 0.00655307 -0.120161 0.133535 -0.0472469 -0.0803063 0.0395938 -0.0436728 0.0109296 -0.0834699 -0.0349149 -0.0384582 -0.0614533 -0.0348851 -0.0152489 -0.0388375 -0.0387479 -0.0281377 -0.0234137 0.0119401 0.035659 -0.0384421 -0.0526289 -0.01317 -0.0117293 -0.00719011 0.0148621 0.076231 -0.0288734 0.0531013 -0.0510772 -0.0419021 0.0690295 -0.0497265 0.0348432 -0.0487793 -0.0650586 -0.0175286 -0.0786095 -0.0625375 0.069358 -0.049762 0.00699685 -0.0310666 -0.0751468 0.047869 0.212933 0.0531613 -0.0252967 -0.043063 0.0364704 0.00267662 -0.0297065 -0.0695537 -0.0612599 -0.0446962 0.0847073 0.0651813 0.0395675 0.000695748 -0.0375281 -0.0970173 0.0246633 0.0135434 0.0348065 0.0162126 0.0605273 -0.00967296 -0.120866 -0.0486267 0.016464 0.0110118 0.0310245 0.076379 -0.102717 -0.0993362 -0.00723317 0.0083067 0.00930988 -0.0174794 -0.0274874 0.0492393 0.0366215 0.00897231 -0.0931794 0.0475712 0.0242893 0.0178042 -0.101846 0.121368 -0.0163699 -0.0362917 0.0438729 0.0964454 -0.01484 -0.0616882 0.0696298 -0.0230436 0.00996527 0.0424516 -0.0984932 -0.0479778 -0.0333947 -0.0287861 0.0113138 0.00766432 -0.0173362 -0.0153562 0.0627537 0.0856941 -0.025383 -0.0664846 0.0632283 -0.101505 -0.0854875 0.107519 0.0599333 -0.0828217 -0.0367781 0.0463512 0.0507302 -0.101788 -0.103914 -0.0179539 -0.0547717 -0.0584663 -0.058779 -0.0487734 0.0346596 -0.0112201 -0.00958717 0.114659 -0.00447564 -0.00359501 -0.0174761 0.00284722 -0.0317234 0.0263441 0.144173 -0.012586 0.00495555 0.0271298 0.0209645 -0.02959 0.0235079 0.0392277 -0.0577542 -0.0477465 -0.116373 -0.0179683 -0.0454781 -0.123714 -0.0774227 0.061298 -0.0573768 -0.00414671 0.026414 0.0271612 -0.0467894 0.00304608 0.0342714 -0.0588849 0.0581842 0.0918819 -0.0320627 0.131121 6.07604e-05 0.0160888 -0.0795273 0.00595525 0.0301857 0.0294212 0.0235365 0.0549372 0.0377405 -0.120042 -0.04926 -0.0136916 0.0135592 0.058868 0.0918275 -0.0363466 -0.044977 0.0282769 -0.0187862 0.00401685 -0.00763191 -0.0435358 -0.0492157 -0.0567098 0.0372095 0.0376403 -0.0616932 -0.0607265 0.154717 0.080577 -0.0153344 -0.0553724 0.00215701 -0.0623722 -0.0798253 -0.00528709 0.0401508 -0.0194625 -0.0315067 -0.0657277 -0.0455766 0.0389511 -0.106867 -0.0250469 0.0537774 0.0333831 0.0333406 -0.0353504 -0.0324593 0.0154312 -0.10332 0.0419114 -0.00839216 0.0350389 0.012548 -0.0152574 0.066474 -0.0461186 -0.033039 0.0379492 -0.0259401 0.0551674 0.0816315 0.102993 0.0404942 -0.0242712 0.0615806 -0.0711286 0.00217005 -0.0878383 0.00199479 0.122215 0.0157392 -0.0378325 0.0335479 -0.00400302 -0.0149241 -0.0583901 0.000805393 -0.0964584 -0.00559197 -0.016052 0.0499268 0.0245388 -0.0163608 -0.00486975 0.0166813 0.0538311 -0.0978382 0.076649 -0.029604 0.00301705 -0.0543305 -0.0155799 -0.00523298 -0.0877346 0.0332507 -0.0437407 0.0130194 -0.110368 -0.0812479 0.0131624 -0.0417828 0.107024
الفنلندي -0.0457225 0.0198446 0.0186823 -0.011392 -0.0410161 -0.0700933 0.0241917 0.0654787 -0.0494504 0.0133592 -0.0480878 0.0381204 0.0137045 -0.042818 -0.0330923 -0.0201602 -0.0755159 0.0716036 0.0357596 0.0708321 -0.042541 -0.0264567 -0.012942 -0.0946013 -0.00390776 0.0646792 0.0225267 -0.0636652 0.037779 0.0677786 -0.0411958 0.00806746 -0.030595 0.0942893 0.0111691 -0.0435145 -0.126455 0.0155703 0.0666991 -0.0120677 -0.0396358 0.0435453 -0.0131963 0.0624385 0.0173149 -0.100937 -0.0681423 0.0196145 -0.033781 0.0283 0.101066 -0.111555 -0.134018 -0.0678098 -7.7595e-05 0.0441302 0.140511 0.0678896 -0.0150435 0.121983 -0.00628931 0.0259989 0.0661251 -0.0314845 0.0164771 -0.0540541 0.0429244 0.0585948 0.031089 -0.00974772 -0.0876703 -0.0557891 -0.00612984 0.0400268 -0.0450003 -0.0410656 0.111142 0.0525366 -0.141058 -0.0232063 0.00205996 0.00986353 -0.0140855 -0.017118 -0.0757183 -0.0342515 -0.0755993 0.0675761 0.0117008 0.073948 0.0931819 -0.126553 0.0211905 -0.0182245 0.0133239 0.0379029 -0.0587544 -0.00549819 0.00246349 -0.0400176 -0.00834764 -0.0648976 0.0573023 0.047869 -0.105212 0.0181073 -0.0699395 0.0140999 -0.0234094 -0.0285168 -0.0066702 0.0161649 -0.0532178 0.014574 0.0169988 0.0640266 -0.117497 0.0267365 0.00920824 -0.0283205 -0.0250631 0.0385378 -0.112118 -0.00760494 0.0144283 -0.0412579 0.100653 0.0858754 0.0162185 0.0341515 0.0848699 0.0641116 -0.0866312 -0.0798327 -0.0228471 -0.021913 0.00698377 -0.164472 -0.00110462 0.0378085 -0.0500129 -0.0793275 0.0430583 0.0430307 -0.0518823 0.133286 -0.0641641 -4.81772e-05 0.0179301 -0.0595078 0.0803067 -0.00745469 -0.0904664 0.0397336 -0.0750503 -0.00267085 0.0193304 0.0321425 0.0186506 0.0413796 0.0348791 0.0773067 0.0335677 0.00746405 0.08601 -0.00874386 0.0310672 0.0767556 0.0789921 -0.0164074 -0.0382741 0.0153085 -0.0724476 0.136395 -0.0773986 0.0276322 0.119933 0.0172419 0.0150877 -0.0311038 -0.0751614 -0.00952322 -0.0324416 -0.0461578 0.0334644 -0.0048257 -0.0163428 -0.0279609 0.0485277 -0.00297953 0.0408933 -0.148628 0.0145433 0.0779961 0.0108615 -0.0559692 -0.0415806 0.115362 0.0594369 0.103732 0.0110438 -0.0773896 0.0817022 -0.0470108 0.0241866 -0.16877 -0.0339487 -0.116788 0.0246504 0.0632597 0.0659413 0.00171047 -0.0285414 0.0632361 0.0557658 -0.0913891 -0.0356136 -0.141222 -0.083578 -0.0411006 0.0164857 -0.049698 0.0429583 0.0207302 -0.0308759 0.0221416 -0.0252478 -0.0711502 0.0755151 0.00352799 -0.00917452 -0.025347 -0.111924 0.0148844 0.0197967 -0.0319668 0.0654342 0.0654792 -0.0313396 0.00334192 0.0179088 0.0046292 0.0446414 0.0122971 -0.0198127 0.0470299 0.0761965 -0.0281458 0.000290279 -0.0276471 0.0137465 0.0288911 -0.0243556 -0.0673355 0.0209139 0.00282355 -0.0190521 -0.136 -0.0377764 0.0306323 -0.0489417 0.109734 0.0620573 -0.0293836 0.00869999 -0.0263847 0.0829157 -0.00784892 0.00930997 -0.0862861 -0.0138033 0.00362388 0.00692967 0.0269935 0.00499527 -0.00792216 -0.0147159 0.132943 0.0585924 -0.0153798 -0.0312582 -0.0303609 -0.0929204 0.0384637 -0.0196049 0.0492889 0.00322587 0.0201984 0.0133626 -0.091783 -0.0314312 0.0741266 0.0922599 0.00480594 0.00412613 -0.0657307 -0.010022 0.00661331 0.00296173 -0.0724323
انكلترا -0.0132431 0.0271868 -0.0346846 0.0827041 -0.027541 0.0161932 -0.0430991 -0.0991573 0.0256574 0.123752 -0.0320044 -0.0692267 0.0404709 -0.00971992 -0.00218764 -0.0257757 -0.0527334 0.0660143 0.0169444 -0.00618936 -0.0630273 0.0516796 0.0243399 -0.16909 -0.0594932 0.0991072 -0.069133 -0.0568608 0.0985656 0.168129 -0.0727374 0.0085753 -0.0995836 0.104702 0.032726 -0.0534128 -0.0666715 -0.0325885 0.0313265 0.00977256 0.0119775 -0.067996 -0.010674 0.00499187 -0.0130565 -0.0270414 -0.0436447 -0.0249395 0.0452865 0.00499467 0.0186214 -0.0241481 -0.0247067 -0.0338563 -0.0156386 -0.0653091 0.0365781 -0.00037573 -0.10559 0.0716573 -0.0437238 -0.0922576 0.0640233 -0.0632133 -0.0403821 -0.0279871 -0.0566666 -0.0210907 -0.0885199 0.0015172 0.0151777 -0.0272645 0.0108273 0.0074751 -0.0492317 0.0277938 0.233223 0.0632552 -0.0411109 -0.0526125 0.0881135 0.0116788 -0.0485868 -0.0379081 -0.0593366 -0.0570268 0.011371 0.105748 0.0258569 -0.0399731 -0.119064 -0.121181 -0.0581581 -0.0327599 -0.0184453 -0.00305363 0.0860375 -0.0112776 -0.141143 -0.0440599 0.0129572 -0.00383432 0.053773 0.101862 -0.0786802 -0.0659565 -0.0695006 0.00490768 -0.00332072 -0.0076626 -0.0785146 0.0398246 -0.00570294 -0.0169027 -0.0216851 -0.0105833 -0.00837079 0.0111606 -0.0677843 0.131798 0.0273212 -0.0649333 -0.0319275 0.0752236 0.0094619 -0.0665325 0.0951876 0.0323593 0.00718829 0.0514583 -0.0732281 -0.0381061 0.00977179 0.00306401 0.037307 -0.0266397 0.00960138 0.0146711 0.0826041 0.0196851 0.0213305 -0.014364 0.0670678 -0.0686523 -0.0522794 0.0935768 0.0822904 -0.0644825 -0.070244 0.0484806 0.0844579 -0.135969 -0.0327737 0.00762054 -0.0278674 -0.00993176 -0.0569972 -0.0679995 -0.0251469 0.0319785 0.020629 0.103925 0.0112385 0.033681 0.0366593 0.015819 -0.0242646 0.0375483 0.10031 -0.0190252 0.0135323 -0.00601699 -0.0353957 -0.0600371 0.0218925 0.0610341 -0.0319354 0.0250959 -0.0424902 -0.00812237 0.108217 -0.0951963 -0.0357557 0.0406339 -0.00366442 -0.0140244 0.045833 0.0581573 -0.0776487 -0.0313553 0.0451201 -0.0745306 -0.0114022 0.0684564 -0.0297041 0.0645397 0.0103647 0.0307573 -0.0162109 -0.00914103 0.0608979 0.0822934 0.0204018 0.0359359 0.0531838 -0.0924352 0.00367468 -0.0388379 -0.0533628 0.0613612 0.0754594 -0.0138424 0.000561604 0.054117 -0.0475587 0.000969461 0.0146238 -0.0747107 -0.0590992 -0.0310294 0.0911371 0.0263143 -0.0883137 -0.0953365 0.088636 0.0786898 -0.0322652 -0.00157248 -0.0166772 -0.0440867 -0.0100217 -0.0314787 -0.00376627 0.0644075 -0.0379198 -0.0170082 -0.0172458 0.0475782 -0.127521 -0.0181961 0.067938 -0.00469679 -0.0078426 -0.0769392 -0.0987262 0.0146426 -0.0824944 0.0259638 -0.0298735 0.0345828 0.0511221 -0.000453552 0.0308976 -0.00110443 -0.00418188 0.00479966 -0.0365916 0.0276575 0.064127 0.0981659 0.00847743 0.0238245 0.0686363 -0.0721 0.036407 -0.0445814 0.0334189 0.063212 0.052715 -0.0494762 -0.0071406 0.0290555 -0.0422297 -0.0889819 0.00752921 -0.124427 -0.0094722 -0.000315714 -0.0281475 -0.00319719 -0.00840698 0.00981671 0.0406105 0.0609067 -0.0522822 0.0457471 0.0173837 0.0754678 0.0205026 0.0496359 -0.0242445 -0.0767026 0.093113 0.0615711 0.0197519 -0.108269 -0.127977 0.027007 -0.0765295 0.108683
عراق -0.0277525 -0.128139 -0.00866714 0.0958386 -0.0589545 -0.107127 -0.0465731 -0.0558461 -0.00525028 0.058248 0.0483109 0.033801 0.058166 -0.0960099 0.0553014 -0.0357178 -0.0318921 -0.0459521 0.0412404 0.105712 -0.0408033 -0.00246238 -0.0787815 -0.0458115 -0.0240693 -0.00565014 0.0124527 0.0391396 -0.0527234 0.144846 -0.030514 -0.12517 -0.0828142 -0.12066 0.00926648 0.0159945 -0.0181222 -0.0769048 -0.00267557 -0.0167512 0.0666026 0.100763 -0.0232145 -0.048113 0.00645848 0.0454089 0.0182435 0.0396958 -0.00828155 0.021092 -0.0206647 -0.0192379 -0.040818 -0.0686453 0.025153 -0.0902136 -0.0743246 -0.00441746 -0.0378231 0.0902335 -0.0412975 0.0329107 0.100194 -0.0224832 -0.0364224 -0.110644 -0.0512438 0.0256947 0.0466618 0.0920371 0.0134184 0.0084427 -0.0510112 0.0361552 0.0226816 0.091415 0.0339607 -0.103013 -0.0934068 -0.0345673 0.0111902 0.0724244 0.0130067 0.0601508 -0.08325 0.0733843 -0.0158568 0.020543 0.0229621 0.103427 0.0113779 0.0352514 -0.0351749 0.0475535 0.028434 -0.00622491 0.0330692 0.0855393 -0.0363484 0.00981746 -0.0223388 0.158032 -0.00877632 -0.0137006 -0.0637251 0.0247762 -0.0111146 0.088309 -0.0982375 -0.0413489 -0.100183 0.0311933 -0.0986952 -0.0400062 -0.00718722 0.0532393 -0.0155139 0.0394547 -0.137476 0.0862406 0.131949 0.0170957 0.0857591 -0.00740462 0.03957 -0.0272744 0.0754285 0.00200613 0.0630447 0.0251562 0.00868901 -0.0297823 0.0516916 -0.0151786 0.047896 -0.0181471 0.0315604 0.0353439 0.00312468 0.0469252 0.00519087 0.0617597 0.105815 0.0120366 -0.0467426 0.0477904 0.0447292 -0.0463181 0.0139911 0.00931177 0.031736 -0.0563543 0.00367228 0.0226386 0.0533331 0.0657876 0.0213468 -0.0314948 -0.0906871 0.0937467 0.0858069 -0.020756 0.0169965 0.0118646 0.0449622 -0.0626286 -0.0422436 -0.0196312 0.0867012 -0.049831 -0.0539984 0.0405818 -0.0916979 -0.0764361 -0.0925393 0.0773346 0.00699877 0.0753309 0.0275407 0.0446668 0.0199804 0.00371655 -0.0190525 0.0507903 6.21721e-05 0.08168 -0.0199959 -0.1581 0.127578 0.0199234 0.0452109 -0.0780323 0.0595239 0.0568774 0.0262806 -0.0237767 -0.029196 -0.0617782 -0.0771289 -0.0849376 -0.0136573 -0.0602001 -0.0312561 0.115459 0.00864718 -0.0285378 -0.0297303 0.0305816 0.0979286 0.0303835 0.137701 0.105046 -0.000662033 -0.0165091 -0.00573154 0.0355765 -0.0365496 -0.0068221 -0.0436334 0.0103486 -0.0133404 0.0129811 -0.120797 -0.0164316 -0.00172156 0.0204379 0.0169293 -0.0360492 -0.0237445 -0.0410523 0.108152 -0.0450046 0.041649 0.0263773 0.025853 -0.0184094 -0.0724749 0.0633109 0.0382056 -0.0208499 0.042099 -0.0156776 -0.015168 0.0217808 0.0171177 0.0359626 -0.107967 0.0408467 -0.0172202 0.00483934 0.0401519 -0.0207658 -0.0148601 0.0311869 0.0640615 0.0346421 0.0098373 0.0247339 0.0471134 -0.00816173 0.0210175 0.0256127 0.0203644 0.0572309 -0.0633902 -0.0145172 -0.0174464 -0.0431468 0.0523808 0.0343243 -0.100478 0.000910009 0.10709 -0.0912829 -0.0663657 -0.0159297 0.104916 0.144771 0.0392698 0.116556 0.0527073 -0.0819838 -0.0387295 -0.0175677 -0.0574054 -0.0410031 -0.02827 0.0685389 -0.0411478 -0.011851 -0.0904808 0.0292614 -0.0927817 -0.034187 0.00423964 0.0635442 -0.0537903 0.00852608 0.0344623 -0.0604665
بالهند -0.0663664 -0.0129982 -0.0529967 0.0639841 0.0408759 0.105658 -0.0629271 -0.0928829 -0.071924 -0.000192895 0.0335322 -0.0130374 0.101689 -0.02494 0.0460345 -0.0413459 -0.0234674 -0.00618271 0.00487033 0.104625 -0.0732111 0.093664 -0.0566313 -0.0980202 -0.0233727 0.0733396 0.039021 -0.0541344 0.0701742 0.0697503 -0.0369102 -0.00626726 -0.080466 0.0988394 0.00408853 0.0430605 -0.0323211 -0.0271133 0.0555998 -0.0630293 0.00229309 -0.0311428 0.00273035 -0.0534501 0.0168902 -0.0240313 0.00322929 0.0158828 -0.0410412 -0.0244772 -0.0450548 -0.0504032 0.070251 0.0589234 -0.0454257 -0.0361229 -0.0527606 0.0546143 -0.0107033 -0.00353685 -0.0441282 0.0160596 -0.0493004 0.0156139 -0.0343562 -0.0578776 -0.0489186 -0.015676 -0.105242 0.0536927 -0.0660715 0.0350541 0.0990257 -0.0599033 0.0810588 0.049087 0.135222 0.0644267 0.00574854 -0.0302525 0.00215179 0.0876072 0.0406156 -0.0562978 -0.0227377 -0.0195825 -0.105674 0.0359867 0.0481752 0.0965132 -0.0314343 -0.0593147 -0.0300694 -0.0731997 0.0796188 -0.0364989 -0.0279487 0.0909861 -0.142001 -0.079854 -0.0208311 0.07535 -0.0175432 0.107033 -0.0237274 -0.0085524 -0.0785962 0.0169549 -0.0240352 0.0495513 0.0367576 -0.0483472 0.0644661 -0.0433795 0.0110563 -0.0798408 -0.0422039 0.0364466 -0.00791972 0.0634066 0.0900849 -0.0432861 -0.0310284 0.0806162 -0.0445166 0.0287881 -0.0937398 0.0548325 -0.102552 0.0509526 0.00263175 -0.0205341 -0.0443451 -0.0825196 -0.0219182 -0.0150222 -0.0755974 -0.0559433 -0.00445422 0.144873 -0.0444746 -0.000791876 0.00924296 -0.0243611 0.0896375 0.0956142 -0.0814667 0.000986772 0.0177178 0.0548473 0.0157768 -0.0707809 -0.0334853 -0.0149376 0.0641606 -0.0308628 -0.0305619 -0.0218347 0.0602386 0.0536595 0.0496342 0.102154 0.0339984 -0.00651984 0.0911155 0.0827048 0.0489365 -0.0821277 0.0582326 0.0555682 0.0242153 -0.00442188 0.00909778 -0.0659837 0.0154114 -0.00844323 0.00646301 0.054067 0.085353 0.0320074 -0.00378809 0.0210349 -0.0614286 0.0329291 0.00926919 0.0590864 -0.013238 -0.00636434 0.0799866 -0.0383491 -0.00548224 -0.00202191 0.108674 -0.0673124 -0.0204936 0.00375714 0.00416715 -0.0553043 -0.143427 0.112971 0.0710251 0.00955317 0.0065738 0.0441521 0.00237403 -0.010947 -0.0612962 0.0660261 0.107247 -0.0123301 0.113919 -0.0108901 0.0479801 0.0355263 -0.0224208 -0.111165 0.026453 0.00322033 -0.0835399 -0.0534642 -0.00454644 0.0676129 -0.0343142 0.0144703 0.0195157 0.0575898 -0.0261634 -0.0209496 -0.0271371 0.0202142 -0.0388083 0.0174565 0.0769151 -0.0196904 0.00578397 -0.0803002 -0.0877975 -0.0813367 -0.0716772 -0.0106156 -0.0457737 -0.0180777 -0.0857057 -0.0366088 -0.0975265 0.107016 0.0380421 -0.0107165 0.0741283 0.0544512 0.0779003 -0.110036 0.0214345 0.00662369 -0.107102 0.0827292 -0.025079 0.00290424 0.125745 -0.0601125 -0.0126037 -0.0272341 0.0438216 0.00711799 -0.0476622 -0.0629569 0.00890316 0.0186987 -0.0194003 -0.0576348 -0.0442844 -0.0205528 0.00170893 -0.0498478 0.0284077 0.0140285 -0.00318163 0.00251148 -0.0401886 -0.113608 -0.0286112 -0.0340962 -0.043866 0.00335503 -0.0325959 0.160402 -0.110162 -0.0797553 0.0782741 0.0663281 -0.119932 0.00266617 0.0541916 -0.0672946 0.0438202 0.0049127 -0.0604025 -0.0135739 -0.0111924 -0.0742072
