8 300
سمك -0.0450011 0.126548 -0.0370069 0.0518649 0.0710031 0.0404064 -0.0183102 -0.069505 0.0166438 -0.0192685 0.0411195 -0.0100422 0.0246638 -0.0925611 -0.0196063 -0.0816216 -0.00769215 0.0507474 -0.0303594 0.0172237 0.0562125 -0.0614352 0.0128601 -0.00575432 -0.0121967 -0.00466274 -0.0595957 -0.0338781 0.0291928 -0.00083604 0.0107996 -0.0714151 -0.0988372 -0.025087 -0.0102926 -0.0332923 0.10115 -0.0529377 -0.0126204 -0.0253024 0.00849052 0.139872 0.0527285 -0.0268072 0.0607983 -0.0363213 -0.0354604 -0.00536988 0.108483 -0.0187545 -0.0202861 0.0614169 -0.00679674 -0.0543266 0.000466719 0.0718807 0.068792 0.00427409 -0.0129073 0.000542236 0.0288177 -0.0124647 0.0376672 -0.105202 -0.00530252 0.0559366 -0.0262414 0.00209698 0.0619187 -0.0288212 -0.0068317 -0.0417201 -0.0474145 -0.0625839 -0.0170913 0.0543314 0.0427096 0.0432209 0.00343679 0.003991 0.0162139 0.0206114 0.0151645 -0.0336742 0.0188478 -0.00282379 0.139971 0.0590577 0.00787943 0.0084562 0.0476967 0.135438 0.0238013 -0.0794573 0.0366394 0.0430412 0.015794 0.0106094 -0.0149001 -0.0136484 0.0737183 -0.0135209 -0.053376 0.0205194 0.120972 0.0242394 0.00877691 0.0402438 -0.0702286 -0.0666198 0.044991 0.0833948 -0.0170966 0.0346454 0.0154292 -0.0676834 0.0581297 0.0514593 0.0707422 0.0601679 0.0651169 -0.0133671 -0.055798 0.0704418 0.0596639 0.0214073 0.0180689 0.00146988 0.054016 0.0723278 -0.0190651 -0.0274478 -0.052038 0.115863 -0.00178231 -0.0357678 -0.0429649 -0.0598414 -0.135944 0.0620092 0.00899106 0.0904142 0.0784897 -0.000124541 -0.0568627 0.0663482 0.00100673 -0.0367876 0.082466 0.0974288 -0.0251936 -0.0359543 -0.0470825 -0.00464132 0.0116736 0.0767535 -0.063265 0.0234204 0.02666 0.0186655 -9.99056e-06 -0.011404 0.00156402 0.0112367 0.0372788 0.0513971 -0.0551317 -0.0754926 0.0860036 0.0687383 -0.100704 -0.0092164 0.0298852 -0.108974 0.0561695 -0.0381448 0.0312366 -0.0139031 -0.0569949 -0.0396332 0.0836594 -0.0120413 0.0636732 0.0613134 -0.0620807 0.0859489 -0.0360974 0.0326694 0.0900777 0.136612 0.0572601 -0.0977051 0.0796409 0.0527093 -0.0341255 -0.000203768 0.0327734 0.113813 -0.09838 -0.0971019 -0.0299044 -0.000801224 -0.0360568 0.0728404 0.0797447 -0.0246957 -0.00213099 -0.0698336 0.0304988 -0.0886344 0.110166 0.0134566 0.196386 0.0304185 -0.0228802 0.0287174 -0.0466828 -0.107639 0.0045242 -0.07795 0.0375921 0.0131197 -0.0549966 0.100304 -0.0315935 -0.0388169 -0.0804784 0.00732879 -0.0435616 -0.0977667 0.0327309 -0.0250408 -0.0444973 0.0184441 0.132889 -0.0530424 -0.0375199 -0.0329345 0.00558975 0.0104053 -0.0414466 -0.0104572 0.0484033 -0.0323275 0.029825 0.0449059 0.0105938 -0.110443 -0.0774342 -0.0296561 0.0851894 -0.0988335 0.00338098 0.0510977 0.00391116 -0.0150916 0.0802192 -0.0387735 -0.0159811 0.0140876 0.00943202 0.179541 -0.0166489 -0.0737634 -0.0748621 -0.107072 0.0606545 0.0579097 -0.0452972 -0.00783123 0.0733256 0.0422036 0.019478 -0.00779005 -0.05724 -0.0428249 0.0503322 -0.0298369 0.0116442 -0.0330678 0.0774473 -0.0283302 -0.0665098 -0.0314288 0.0927175 0.148832 0.00400018 0.00425276 -0.0902219 -0.03421 -0.0369249 -0.0235637 0.0421966 0.0459857 -0.0713026 -0.0520562 -0.0217277 0.130581 0.00798977 0.0288135
السمك -0.0374524 0.124783 -0.0299006 0.0639236 -0.0539591 0.059064 0.0458951 -0.0341699 0.0181098 -0.0270774 0.0699622 0.0630567 -0.0101606 -0.0684132 -0.043156 -0.0351425 -0.0191386 0.0567747 0.034559 -0.0503779 0.0255477 -0.028991 -0.00828001 0.00696481 -0.00470754 0.0119917 0.011776 -0.0534977 0.0812985 -0.0252319 -0.00678167 -0.0418146 -0.114902 0.0215387 0.0385182 -0.0179754 0.080106 -0.0450596 -0.0131473 -0.0173419 0.00666176 0.102228 0.0338463 -0.0329302 0.0319686 -0.0355574 0.017155 -0.0112299 -0.0404849 -0.0416744 -0.000140349 0.0385415 -0.0185773 -0.0753524 -0.0457597 0.0574672 0.0688456 0.0398572 -0.0548506 0.0149762 0.0118549 -0.069531 0.0495095 -0.064371 -0.00411757 -0.0536156 -0.0621725 0.0345541 0.0636668 0.0348669 0.010291 -0.0307519 0.0328287 -0.11213 -0.0516958 -0.00478754 0.111848 0.0845388 -0.069044 0.00745438 0.0534914 0.00311214 0.0390669 -0.0621366 -0.0340242 -0.0466338 0.132508 0.119879 0.0893253 0.0351203 0.0403718 0.0735417 0.000128772 -0.0665876 0.0372337 0.0310074 0.010514 0.0441074 0.00624853 0.0238311 0.035729 0.0623303 -0.0886296 0.0662797 0.0233827 0.0800994 0.00980427 0.101257 -0.0470167 -0.00161386 -0.0509978 0.0667285 -0.0461974 0.0232276 -0.0254906 -0.100344 0.00137784 -0.05577 0.0301663 0.0444927 0.134307 -0.0146206 -0.0154716 0.0712176 0.0196825 -0.016285 0.00427758 -0.0292231 0.0282233 0.0526613 -0.00393374 -0.0582658 -0.0381613 0.103231 0.0573297 0.029409 0.032455 -0.0456706 -0.104828 0.0149092 0.0270346 0.0833606 0.020555 -0.0781088 -0.019975 0.149539 0.0164304 -0.0241725 0.107196 0.0359739 -0.0264735 -0.0905247 0.0274158 0.0224104 0.0337238 -0.00113507 -0.0499017 0.0393838 0.0371555 -0.000685037 0.0391435 -0.0405924 -0.0314678 0.0539525 0.0466799 0.0208064 -0.061685 -0.0917308 0.0928961 0.107838 -0.100711 -0.00178539 0.0197796 -0.0803384 0.0809138 0.0573121 0.0572126 -0.0433958 -0.0272173 0.0243146 0.0866066 -0.0360079 0.025367 0.0265727 -0.0521614 0.0609302 0.0358405 0.00590815 0.0294526 0.0982504 0.0676857 -0.0739152 0.128757 0.0271052 -0.116444 0.00599136 0.0198613 0.0875311 -0.0857216 -0.0729554 -0.0545029 -0.000971384 0.0147552 -0.0151365 -0.0461906 0.028064 -0.00826756 0.00553089 0.0107388 -0.0401615 0.0985119 -0.0104049 0.101162 0.0406557 -0.013535 -0.0235189 -0.0670446 -0.116666 0.0387812 -0.0277714 0.0430532 0.0506111 -0.0319241 0.0966801 -0.107992 -0.0157408 -0.0591018 0.0393354 -0.0381983 -0.100316 0.0105054 -0.0305647 -0.0861394 0.00499773 0.0346444 -0.00893357 0.0172824 0.0668716 -0.0240959 0.0110005 -0.0528763 0.0199552 0.0680828 -0.0358396 -0.0183217 0.0640715 0.0336068 -0.0402382 -0.0153176 -0.0215356 -0.00358756 -0.11547 0.0525926 0.00450828 -0.0059084 -0.0117474 0.0347769 -0.0954517 -0.0128328 -0.0116712 0.0320869 0.226361 -0.0372688 -0.145035 -0.122675 0.0312461 0.104425 0.0724609 -0.0561487 -0.0163224 -0.00764339 0.0427171 0.042462 0.0197648 0.0163119 -0.0526261 0.0720417 -0.0430446 -0.0178519 0.00491031 0.0517854 -0.044916 -0.00437858 -0.0224163 0.114329 0.124932 0.0530643 -0.00471266 -0.115976 -0.00592427 -0.0729835 -0.0141096 0.0290743 0.0377631 -0.0814402 0.017387 -0.0534619 0.09606 0.0328695 0.112187
سمكة -0.042481 0.127466 -0.10557 0.0718994 0.000887997 0.0874216 -0.0401291 -0.0492236 0.016985 -0.0180697 0.0340925 -0.032376 0.0196018 -0.0386284 0.0680264 -0.055547 -0.0348227 0.0417499 0.0245765 0.00894671 -0.0462847 -0.0332284 -0.0472066 0.0252464 -0.0159242 -0.0302854 -0.0173929 -0.0247992 0.0438818 -0.0203972 -0.0405134 -0.0335009 -0.0431497 0.0310004 0.0140017 0.0312484 0.0828369 0.0255606 -0.0334145 -0.00924377 -0.0437991 0.0306338 0.0435315 -0.0902339 0.0810162 -0.00771295 -0.0540401 -0.0195398 0.0448907 -0.0407172 0.0249991 0.040778 0.0388739 -0.0207285 0.0279605 0.0383938 0.134902 0.0114962 0.0995496 0.0155336 0.117597 -0.000803939 -0.0303134 -0.0748849 -0.0678196 0.0827528 -0.0365707 0.0242809 0.0824258 -0.0325483 0.0458248 0.0692743 0.0608467 -0.0670148 -0.0417373 0.0229875 0.0341892 0.0974247 -0.0017862 -0.00459572 0.00651934 -0.0513769 0.014547 0.0225193 -0.0159112 0.038331 0.0552627 0.0533843 -0.0287566 -0.0297531 0.0793763 0.110282 -0.0440179 -0.0331848 0.0556295 -0.0217294 -0.00670367 0.102365 -0.0605688 -0.0500102 0.0976431 0.0441888 -0.0432645 0.0306085 0.044705 0.00252293 -0.0554862 0.116476 -0.0659417 -0.0310589 0.0413472 0.0208884 0.00964987 0.00380058 0.0337968 -0.133645 0.0351887 -0.00536243 0.0411203 0.040685 -0.0672071 -0.0740342 -0.00767858 0.0781038 0.0587743 0.0119136 -0.0340467 0.0387836 0.00737398 0.0654227 -0.0213255 -0.08987 0.0669151 0.0753815 -0.00475071 0.0525847 0.020447 0.0429495 -0.115172 0.0781482 -0.0721379 0.0663239 0.00739259 0.0463555 -0.0524059 0.0368055 -0.00938063 -0.106168 0.146602 -0.000889242 0.030669 0.0131701 -0.0881704 -0.0332178 -0.0322735 0.0579141 -0.0547675 0.079022 0.057728 0.0281994 0.0191319 0.000786694 -0.0677567 0.0665285 0.0328552 0.000643761 -0.0877496 -0.0396523 0.125803 -0.00841265 -0.0847087 -0.0231945 -0.0789238 -0.157323 0.0210966 0.0221206 0.0508926 -0.0202221 0.0540581 0.00869938 0.0161387 -0.00187682 0.0295191 -0.0189307 0.0335873 0.0576292 -0.0281233 0.0438411 0.0864667 0.102703 0.0885829 -0.059472 0.0621928 0.112382 -0.0282127 -0.0989892 -0.00701132 0.0221924 -0.0319891 -0.107382 0.0466113 0.0289898 -0.0482265 0.0497383 0.0927016 -0.0932959 -0.0139402 -0.064206 0.0397451 -0.0572049 0.0897847 -0.005949 0.126698 -0.0542202 0.0352713 0.0511377 -0.0311085 -0.0354827 0.0620705 -0.0427101 -0.0437103 0.00288354 -0.0415896 0.0934781 -0.00147585 -0.0234242 -0.040751 -0.00868123 0.0203485 0.0115361 0.0723755 0.0085093 -0.0129565 -0.0232426 0.0522156 0.0259166 -0.030346 -0.0770714 0.0211177 -0.053578 -0.0289974 -0.0323102 0.147975 0.0290434 -0.0727335 0.0319143 -0.0339364 -0.091087 -0.0699744 -0.00765455 0.0773641 -0.0769749 -0.0108535 0.0137512 0.0634904 0.00278905 0.0312705 -0.0372188 -0.00739942 0.0197928 -0.0157497 0.160345 0.00268516 -0.0855837 -0.0993951 -0.0838115 0.0508164 0.0614946 0.0189713 -0.0323787 0.0135429 0.0172462 0.0798506 -0.0187244 -0.0537882 -0.0218032 0.0710401 -0.0538743 -0.0030291 -0.0260705 0.121925 -0.0414548 -0.0449322 -0.0310323 0.118678 0.106717 0.0614907 0.0282816 -0.0791712 -0.0349817 -0.094314 -0.0676271 0.0557241 0.0567552 -0.0452778 0.0066241 -0.0841328 0.106122 0.0347931 0.0904974
فيش -0.105495 0.0540155 -0.0410243 0.0765436 0.0478522 0.0268494 0.0470621 -0.0120193 0.0143821 -0.00483353 0.022824 -0.0221003 0.0564195 -0.0600514 0.0384744 -0.0333582 -0.0696942 -0.0212962 0.00783829 0.0398162 0.0284003 -0.015006 -0.00270974 -0.0203833 -0.0576332 0.0627467 0.0108104 -0.0699812 0.109686 -0.0407728 -0.0258589 0.00242518 -0.0100933 -0.00662085 0.0363791 0.0116639 0.0750965 -0.0296156 0.0766531 -0.0444926 0.0566985 0.0230594 0.0146722 -0.0329363 0.0495675 -0.0328251 0.0260064 0.0600113 0.0360653 0.0512043 0.0589205 -0.0363351 0.0456892 0.0173397 0.0150578 0.0140965 0.0556294 -0.0098335 -0.0153745 0.071063 0.117454 -0.0653242 0.0128033 0.0281323 -0.156484 0.108678 0.0156886 -0.0399018 -0.0484962 -0.0102691 0.0663709 -0.0600834 0.0363654 -0.0509049 -0.0395281 0.0553231 -0.0298584 0.0253563 -0.0557809 -0.0146104 -0.00131331 -0.0200698 0.0436204 -0.084485 -0.0800446 -0.0491225 -0.0197318 -0.072449 0.0871022 0.0301069 0.0172054 0.118226 0.0346068 0.0433068 0.014254 0.00390455 0.0423424 -0.00119542 0.0312771 -0.0377401 -0.014013 0.0585573 0.0236178 0.00687885 -0.0371827 0.04237 0.0592776 0.123102 0.0390903 -0.0402532 -0.0132817 0.00630128 0.00977136 -0.00175385 -0.0907023 1.72502e-05 -0.00906805 -0.0269094 -0.0212214 0.0333003 0.0767807 -0.0225157 -0.0585308 0.0662816 0.0289664 -0.103299 -0.041098 -0.0488998 0.0266248 -0.0502891 -0.0345226 -0.008396 0.0316528 0.0242097 -0.00718939 0.00513794 -0.0256791 -0.0201494 -0.00277875 0.118487 -0.0975067 0.0575992 -0.0524444 0.000835519 0.0150437 0.174975 -0.0190205 -0.0658311 0.0445249 0.0252133 0.0659697 -0.106135 -0.0390647 -0.0638422 -0.0107055 0.0270972 0.0119233 -0.0419982 0.0720895 0.0340703 0.0708561 -0.00974848 -0.0273656 0.060839 -0.0375046 0.0996391 -0.0588602 -0.000377153 0.128362 0.081356 -0.0661981 0.0202881 -0.0357973 -0.142858 -0.0252225 0.109171 -0.146279 -0.0173661 0.0235616 0.00606654 -0.00315599 -0.00904349 -0.0639081 0.063221 -0.0327969 0.139995 0.0394727 0.025842 -0.0283166 -0.0354167 -0.0297594 -0.0748859 0.0323098 0.0469815 -0.00757604 -0.0199539 -0.0150951 -0.0484294 -0.167275 -0.0117643 0.132243 0.108673 -0.0865139 0.0620092 0.0361486 -0.116997 -0.000129624 -0.0932409 0.0502053 -0.0730036 0.0555735 0.015427 -0.0120621 -0.0762537 -0.0475987 -0.00489644 0.0504098 -0.00847049 0.00106653 -0.0487274 0.0269694 -0.0410656 -0.00445496 0.0768067 0.0163763 -0.0266706 -0.0887095 0.0141117 -0.0210323 0.0435246 0.0119274 0.0548355 -0.00591393 -0.0412505 0.0463881 0.129137 -0.0776456 -0.0191057 -0.00610442 -0.0495243 -0.0837471 0.0431438 0.114509 0.103608 -0.0113763 0.0819917 0.0408691 0.0308547 -0.0858286 -0.0953354 0.104797 -0.0384273 -0.0445687 -0.0760196 0.0723522 0.0601221 0.0155797 -0.00437382 0.0526884 0.00544929 -0.115457 0.0203662 0.0294288 0.0243211 -0.0672705 -0.0422442 0.0252927 0.06315 0.0685486 -0.0391248 0.00297183 0.0311158 0.0685946 -0.0835946 0.0235889 0.0720357 0.118118 0.0149745 -0.0720178 -0.0603652 0.0974358 0.0262269 -0.0064893 0.0347426 0.0594906 0.0344127 -0.00174578 0.144555 -0.0207647 0.0414761 -0.0257311 -0.0332647 0.135331 0.0470234 0.0609238 0.0117771 0.0304708 0.0964941 0.0553274 -0.0310454
بايك 0.0755326 0.00218949 -0.108879 -0.0249808 -0.0619542 -0.0862888 -0.0402234 -0.100511 -0.0366798 0.0743703 0.0861113 -0.0562937 0.0595553 -0.116721 -0.00791146 0.0389316 0.00968995 0.00533866 -0.0501744 0.0188616 0.0253407 -0.0421688 -0.0659028 -0.08019 -0.00455811 -0.0242224 0.043149 -0.0548803 0.0685572 -0.0194499 0.0102973 0.0847602 -0.00521614 -0.0196481 -0.0156201 0.0355738 -0.0149695 -0.0595271 0.0856834 0.0726728 -0.0179962 0.0364333 0.00585489 0.0343041 0.0867593 0.0126815 -0.0913651 -0.0702867 0.000416921 0.0469207 0.0878428 -0.130345 -0.0422024 0.0510895 -0.0496155 0.0519211 0.0181549 0.0640394 0.0349216 0.00406445 0.0730538 -0.0213118 0.0776646 -0.0183874 0.00496203 0.0418217 -0.0286148 0.0251037 -0.0229447 -0.0136179 -0.00853864 0.0394162 0.0196637 0.00368945 -0.0493952 0.0524316 0.129162 -0.00601926 -0.0126242 0.0185541 0.0802205 0.024199 -0.0139567 -0.0243852 -0.0236231 -0.0534046 -0.0643247 -0.00756827 0.105791 0.0770362 0.00330862 -0.0844544 -0.000837178 0.0417638 0.181835 0.0326967 -0.0350025 -0.0385885 -0.00824258 -0.0438479 -0.0503624 -0.0281743 0.0807331 0.0363261 0.0851048 0.0319539 -0.0456122 0.0134181 0.12206 -0.0303581 -0.0150518 -0.121773 0.00271971 -0.0232472 0.0130231 -0.101453 0.122822 0.0666262 -0.0937662 0.0175123 0.0128732 0.0463554 -0.0230286 0.0621523 0.047699 0.0249738 -0.0187266 0.104193 0.0377521 -0.100816 0.017782 0.10903 -0.0443186 -0.0012803 0.0450995 0.0316634 -0.0538089 -0.0501706 -0.0187089 -0.000498764 0.0367963 0.110902 -0.0506318 0.0392199 0.0043399 0.12672 0.00579624 -0.0464069 0.0387228 -0.0554692 0.123526 -0.0678823 -0.0336608 -0.0389026 0.00615808 0.065488 0.0660726 -0.0503738 0.00998347 0.0193069 0.105943 -0.000726067 -0.0248191 0.0241725 0.0788036 0.0932995 0.0432558 -0.0659053 0.0313055 0.00751972 -0.103456 -0.0361345 -0.0683659 0.0402986 -0.0395086 0.121084 -0.0149635 0.137017 0.0179705 -0.0415457 0.11866 0.00887239 -0.0401001 -0.0191276 0.0143082 0.094739 0.0134521 -0.00458786 0.109823 -0.0377685 -0.0345185 -0.0511902 -0.00327351 -0.00851389 -0.0185055 0.170996 -0.0428833 -0.0631472 -0.0825292 -0.00691446 0.0881683 0.0483796 0.0167326 0.0584441 -0.00145473 -0.00560001 -0.0356165 -0.0446576 0.144994 0.0659169 0.164541 -0.0575457 -0.0609799 -0.0541764 0.0240598 0.00749781 -0.0341509 0.0413003 -0.00734953 0.0605878 0.0253507 0.0348159 0.0226337 0.0765902 0.00612424 -0.0908204 0.0419264 -0.0832838 0.0104306 -0.0417836 -0.0330468 -0.0117083 -0.0336911 0.0703613 -0.00972157 -0.0344913 0.0428647 -0.0733515 -0.0555106 -0.0361336 -0.00730465 0.0888226 0.00246092 0.0948337 -0.0163542 -0.0192624 -0.0360669 0.0140727 -0.0219992 -0.00707449 0.0552856 0.0656046 -0.0516642 0.0414711 -0.0474973 0.03952 0.0600258 0.0530806 0.0208532 -0.0249601 -0.0486306 0.0237282 0.0498087 -0.0825177 -0.0456225 -0.0423225 0.0400146 -0.0241049 -0.032704 -0.0498515 -0.0313463 0.0577938 0.0354315 -0.0227931 0.0154516 0.0214529 0.0739752 0.0319439 -0.0841017 0.117133 0.00689056 0.0784039 -0.000983284 0.0795106 -0.000348144 0.0388515 0.0355806 0.00933156 0.0115935 -0.0657684 -0.0573962 -0.00881567 0.112605 0.0242725 0.0352521 -0.0337741 -0.0927776 0.0101795 0.00506883 -0.0746916
الاسماك -0.00179591 0.0755704 -0.0848913 0.131445 -0.0414747 0.000683125 0.0924372 -0.0890486 0.00822307 -0.0288796 0.0731235 0.000644127 0.0531929 -0.0345218 -0.0120429 -0.0904899 0.067872 -0.0236577 0.0109972 -0.0759419 0.0191911 -0.0472321 0.021409 -0.0158531 -0.0689474 -0.0276529 -0.0479636 0.0442491 0.00611305 0.0394879 0.0315466 0.0206011 -0.0701968 -0.0535141 0.100345 -0.0284261 0.0036366 -0.0426555 -0.0563098 -0.00468823 0.0387704 0.0642945 0.0316115 0.000926993 0.00878213 0.0175654 0.0688554 -0.0280211 -0.034904 -0.00189265 0.00403998 0.00730974 -0.0718239 -0.0661531 -0.0609805 0.0630764 0.042538 0.0996275 -0.0576454 0.0367815 -0.0308391 -0.0783743 0.0318309 -0.0364254 -0.0151115 -0.0346009 -0.105527 0.0870956 0.0205127 -0.00332916 0.00652282 0.0117695 -0.0923233 -0.0996957 -0.0869994 0.0225154 0.022049 0.117019 -0.0635007 -0.0600386 0.0271747 -0.0342184 0.078342 0.0223411 -0.0203638 -0.0191218 0.063226 0.127242 0.0236152 0.0525544 0.054565 0.0938586 -0.0433629 -0.101587 0.0588579 0.0679664 0.0640666 0.0694372 -0.0430965 -0.022591 0.0381702 0.00586171 -0.0505934 -0.0828331 -0.0137192 0.0441717 -0.0142041 0.0733178 -0.127275 -0.0210406 -0.10735 0.0827951 -0.0108398 0.0181199 -0.0594651 -0.0250763 0.0752169 -0.00392153 -0.0115915 0.00153353 0.0730191 -0.0142228 -0.0577478 0.0451822 0.0340922 0.0571246 -0.00342141 0.0127009 0.0565855 -0.0382038 -0.0725124 -0.113769 0.0262526 0.0639471 0.00787751 -0.00213766 0.00977717 -0.0139636 -0.105362 0.0215935 0.00510241 0.0658268 0.0255484 -0.0106318 0.000591144 0.123657 -0.00828282 -0.115134 0.133713 -0.02195 -0.00808099 -0.0553836 -0.0749298 -0.0332346 0.062818 -0.000259127 -0.0111119 0.00609941 0.014023 -0.0319063 -0.00162172 0.0193819 -0.0394375 0.06444 0.0974988 0.0533267 -0.0884074 -0.121587 0.147119 0.0546853 0.0338341 -0.0477842 0.0147854 -0.0999875 0.0221085 0.0313616 0.0326732 -0.0749357 0.0653414 0.0069131 -0.00596981 0.0286915 0.00318414 -0.0396628 -0.00441884 0.0177569 -0.000828818 -0.0914763 -0.000960002 0.0441569 0.0739571 -0.0847526 0.102055 0.0689745 -0.0467039 0.0597048 -0.0336212 0.0265499 -0.0561176 -0.0201318 -0.00754567 0.015315 0.0453123 0.0444356 0.0728026 -0.0402172 -0.0150625 0.0321658 0.0473493 0.0215728 0.0442394 -0.049357 0.0817519 0.0227447 -0.0361682 -0.042712 -0.0915547 -0.0691309 0.0970742 -0.0329099 0.0170277 -0.0597173 0.0117677 0.0640891 -0.00137287 -0.000345332 0.0140191 -0.0392004 -0.048746 -0.0695841 -0.0485131 -0.0784358 -0.042574 -0.0406548 0.0446873 -0.059743 -0.036289 0.0294975 -0.027527 -0.0529218 0.0662436 0.0746913 0.0577852 0.0226089 -0.0839778 0.0522247 0.0623311 0.038471 -0.0616321 -0.0436508 -0.018002 -0.0945493 0.0239451 -0.00339665 -0.0106623 -0.000381594 0.0746503 -0.0771594 0.0158441 0.00691294 -0.031497 0.158708 -0.00811638 -0.100885 -0.123875 0.0151732 0.04113 0.0322774 -0.0424072 -0.00681867 0.0124252 -0.0195991 -0.00478696 0.0305056 -0.0475298 0.000795702 0.0404849 0.0309474 -0.0200122 -0.0428428 0.10551 0.016017 -0.067642 -0.00623948 0.0872601 0.130578 0.0103458 0.0155868 -0.192177 0.114158 -0.0079769 -0.0324238 0.0839304 -0.00158119 -0.0329883 0.0708477 -0.0531699 0.128464 0.0487603 0.0845294
البوري -0.0450606 0.0711209 -0.0864023 0.0442002 0.0749501 0.0529468 0.0777975 -0.135126 -0.0182388 -0.0430132 0.0406078 0.0880375 0.0196258 -0.121625 -0.0468232 -0.0715035 -0.0397979 0.0123316 -0.0495998 0.0639349 -0.0554623 0.00160951 -0.0474764 -0.00549565 -0.0779306 0.061906 -0.031709 -0.00775299 0.00575015 0.00143771 0.0101816 -0.0232185 -0.0979771 0.0255664 0.0375866 0.0541058 -0.0149995 0.0236847 -0.0360247 -0.0249805 -0.0308494 0.0522001 0.0217191 -0.0629064 0.02181 -0.0912921 -0.11764 -0.0561345 -0.0792897 -0.00639891 -0.0658722 -0.0601881 -0.0287036 -0.0445757 -0.0354122 0.0218217 0.0821559 0.0252287 0.0686599 0.0497399 0.0319605 0.00593807 0.0513226 -0.0198588 -0.0250401 -0.0470051 -0.0792884 -0.029929 -0.0239792 0.0681643 -0.0447029 0.0305537 0.0965341 -0.12904 -0.081241 -0.0219996 0.132987 0.0638359 -0.116375 0.0746425 0.0164271 0.00225692 -0.0431814 -0.0728854 -0.0169927 0.036739 0.0180331 -0.00873959 -0.0443269 -0.0392288 0.0274063 -0.0479377 -0.0243229 -0.0340771 0.0267148 0.0413016 -0.0104968 0.0628895 0.0397214 -0.0699473 -0.00856705 -0.0119818 -0.0161684 -0.0801032 -0.00545187 -0.061989 -0.0434853 0.0729254 -0.0481016 -0.0337682 -0.0174088 0.143706 -0.0686677 -0.0164584 0.0565903 -0.0157444 -2.72411e-05 -0.104047 0.0762672 0.0823613 0.118669 0.0893329 -0.0487054 0.0649847 0.0636414 -0.0279244 -0.0329395 0.0350481 0.03149 0.0509366 -0.000307687 0.0256895 -0.0230949 0.0315524 0.0570008 0.010432 -0.01195 -0.017566 -0.0502475 0.0250382 -0.0853734 0.123261 0.0916427 0.0250512 -0.0378023 0.19307 -0.104598 -0.0796292 0.0662032 0.0385647 0.0376932 0.0116235 -0.0614183 0.00610097 0.0276419 0.0895286 0.00846437 -0.0636945 0.0581989 0.0269974 0.0537811 -0.0196765 -0.0368705 0.0665206 0.0292749 -0.030436 -0.00416312 -0.120361 0.02304 -0.0679265 -0.00942136 -0.0379174 -0.0804951 -0.0325446 0.0356602 0.0315229 0.00700412 0.0217745 0.0667203 -0.00182016 0.0107264 0.00904554 -0.0129985 -0.0333238 0.0431777 0.0383523 -0.0245186 0.081758 0.0111912 -0.00616731 -0.00163984 -0.127729 -0.000400023 -0.018184 -0.0417317 0.0665358 0.0879888 0.0305189 -0.123283 0.00671171 -0.0190303 -0.0129812 -0.092555 0.0807205 0.0145067 -0.0142052 -0.0397535 0.00487578 0.0337357 0.00604385 0.0420512 -0.019818 0.0237278 -0.0671617 0.0212145 0.0210721 0.00445446 -0.0125451 -0.0489706 -0.0468056 0.0584377 0.142717 0.0730097 0.0823185 0.0374532 -0.0104508 -0.117283 0.0110768 -0.0349609 -0.0109659 0.0196839 -0.135798 -0.0367605 0.050275 0.0288703 -0.115159 -0.0301037 0.0360247 0.0288754 -0.0663101 -0.0928408 0.00134755 -0.08684 -0.0917129 -0.0501704 -0.0358015 0.107524 0.00712166 -0.042005 -0.066157 -0.0218323 -0.0321747 0.0991887 -0.0219636 0.011237 -0.0427585 0.0112782 -0.0391713 0.0417003 -0.00425828 0.0363201 0.192647 0.0427403 -0.089544 -0.0147846 -0.0420021 0.00806554 0.0180929 0.0235388 -0.0110796 0.0521762 -0.02761 0.0150886 -0.0733061 0.0706398 -0.0757637 0.0410982 0.0226114 0.0403499 0.0193424 0.0910371 0.153153 -0.00501863 0.0856615 -0.0123947 0.0329223 0.0361276 0.0383214 -0.00170248 0.0333481 -0.00765878 -0.0460604 0.101508 0.0107332 -0.0147307 0.0153332 0.00808989 0.0853055 -0.000253157 0.0603756
مكه -0.0186866 -0.0414108 -0.00962631 0.0423521 0.0293209 -0.0601995 0.0731123 0.00743876 -0.0127716 0.0449854 0.0552023 -0.0755141 0.01467 0.109746 0.044059 -0.0932453 0.0214721 -0.0150977 0.0864942 0.112533 -0.073746 -0.0276312 0.0182603 -0.101224 -0.0799005 -0.0324979 -0.0597306 -0.0346214 -0.0138929 0.121151 -0.047372 0.0512287 -0.0388447 -0.11093 -0.000138423 -0.0388466 0.0801215 -0.0273613 -0.0085043 -0.0128617 -0.0429216 0.0805988 -0.0186765 -0.0539458 0.101796 0.0240975 -0.0381528 -0.0481269 -0.0121415 0.0680638 0.0498254 -0.0204325 0.0126913 0.0146092 0.00268878 -0.0517957 -0.0781625 -0.0329681 -0.0309685 0.0393302 0.00586552 0.0394707 -0.00419086 -0.0336872 -0.0930717 -0.0560988 -0.153888 0.0885951 -0.0137314 -0.0774245 0.0266467 -0.0891585 0.0724563 -0.0738715 -0.0310637 0.00356419 -0.0016443 0.0813217 -0.0968931 -0.0703876 -0.0582855 -0.0449033 0.0524499 0.000434281 -0.0235793 0.0257245 0.0032282 0.00515022 4.14416e-05 0.110278 -0.0479701 -0.0155117 -0.00568589 -0.123305 -0.0458578 0.0321991 0.0346666 -0.0189526 -0.0749924 0.00880899 -0.0599553 0.107706 0.0240998 0.140831 0.0778482 0.0352128 0.050812 -0.0184592 0.0249475 0.0408394 -0.06069 0.00500021 0.0136664 0.0116035 -0.101913 -0.0110605 0.0255932 0.07539 -0.0388856 -0.0515473 0.149972 -0.0872041 -0.0648706 0.0822602 0.0499523 0.0512834 -0.0336613 0.0224164 0.133647 -0.0531618 -0.0842581 0.0127467 0.0923705 -0.00403383 0.0134943 0.0056081 -0.00993448 -0.0352901 0.0089149 0.0582186 -0.0307947 0.0562211 0.0550028 0.0429355 -0.03231 -0.0114566 0.0353482 -0.063806 -0.0584623 0.014873 0.131584 -0.0050584 -0.0752029 -0.0419533 -0.00662018 -0.0264248 -0.052485 -0.0269486 -0.0134499 0.0480689 0.000887522 0.0457087 -0.0544578 0.0202465 -0.0790861 0.0241729 0.0253079 -0.0113731 -0.0328625 0.0310692 -0.0110824 -0.137768 0.0248095 -0.0552984 -0.0407849 0.0988489 -0.0101505 0.0229696 0.00429655 -0.0721999 -0.0149175 -0.108835 -0.0533875 0.112152 -0.0692003 0.051669 0.00987691 -0.108994 0.106965 0.0358209 -0.0449152 -0.0437861 0.128557 -0.0397635 -0.0214984 0.0978881 -0.0948859 0.00565399 -0.0886949 -0.00360604 0.0868277 -0.0107727 -0.0299122 0.0846007 0.00107546 -0.0277308 -0.0357892 0.0466362 0.0791104 0.0440927 0.116111 -0.113238 -0.038822 0.0495012 -0.0274826 -0.0314588 0.0194983 -0.0831306 -0.0372551 0.0157234 0.0478849 -0.0394541 0.047693 -0.062847 0.0647677 -0.0128231 0.0382032 0.0976965 0.0537059 -0.0147086 0.0119063 -0.0185523 -0.0385296 -0.0589971 0.043637 0.033609 -0.0601278 0.00707076 0.0403392 0.0263042 0.0144576 0.0588475 -0.0193124 -0.0348827 -0.0489949 0.0638253 -0.0441167 0.0273733 -0.0646762 -0.0151623 -0.0293747 0.0867504 0.000227918 -0.103234 -0.0229753 0.0232846 0.0352695 -0.0677058 0.0626223 -0.0488517 -0.0183286 0.0523465 0.0189971 -0.0302549 -0.0449862 -0.0439501 0.103112 0.0430774 -0.04803 -0.0050266 -0.0223688 0.012239 0.0174362 -0.00106873 -0.0711333 -0.0675887 0.146198 -0.00216999 0.00284609 -0.00741975 -0.0310751 0.0198561 0.0527294 0.10432 -0.0881665 -0.0361359 -0.0524562 -0.0261273 0.072158 0.0695982 -0.0189251 0.0279221 0.0343648 -0.0554266 0.124276 -0.0340141 -0.0521006 0.0196551 0.0884499 -0.0645281
