10 300
bear -0.0385788 0.0372298 -0.121656 -0.00808572 -0.0707148 -0.00926253 -0.0266042 0.00101331 0.045686 0.11177 0.0736367 0.035375 0.0193221 -0.116355 -0.0387323 0.00511699 0.0286201 0.0586974 0.00229716 0.00200927 0.0103991 -0.0393338 -0.0754361 -0.0241446 -0.0123412 -0.0142514 -0.0234573 -0.0031756 0.0584936 0.0244519 -0.0455778 0.00655555 0.010003 0.0435493 0.0467556 -0.0277267 -0.105539 -0.0351661 0.0445057 -0.0479284 -0.0286101 0.0518545 0.0640102 0.052607 -0.0148257 0.0925599 0.0392759 -0.0131463 0.0465039 -0.115319 -0.0421953 0.0227338 -0.0392734 0.015774 0.00822615 0.0795963 0.0140174 0.0281898 -0.00999364 0.0390394 0.00558913 -0.0284389 0.0284163 0.093856 -0.0522949 -0.0487061 0.0765133 0.0759294 -0.125725 -0.00897437 0.0875365 -0.0560775 -0.0113049 -0.0915557 -0.0773967 -0.0960909 0.0539937 0.0603912 -0.115988 -0.04252 0.0400989 -0.0538603 0.0238067 0.00703071 -0.102524 -0.0112105 -0.0670731 0.111143 0.139039 -0.00632401 0.0226052 -0.0870886 0.0479485 -0.0450744 0.0465845 0.00662526 -0.00701485 -0.0330722 0.0193714 0.074958 -0.0342676 -0.0268408 -0.071193 -0.0572101 -0.0797523 0.0232633 0.00912487 0.0890692 -0.0493025 -0.0659884 0.103704 -0.0520483 -0.0848562 -0.0106852 0.0217633 -0.0507522 0.102093 -0.00590573 -0.0656335 0.0467078 0.0447146 -0.0666025 -0.0140886 0.0270875 0.0438287 0.0953459 -0.0521766 0.136351 0.0553225 0.0745276 -0.0498134 0.0438513 -0.0836935 0.102999 -0.0152262 -0.0461138 0.0296696 -0.0478353 -0.100842 0.0239141 0.0069776 -0.0234229 0.00698616 0.135485 0.148746 0.11443 -0.0478076 -0.0333239 0.00414604 0.105317 0.0141538 0.0242939 -0.0257561 0.0126855 -0.066761 0.0489275 -0.0274272 -0.0372047 0.0399051 0.0232203 0.0517161 0.0886464 -0.122645 -0.0486532 0.00454142 0.0106299 0.0102848 -0.0214908 -0.018442 -0.0168205 -0.15168 -0.0583552 -0.188673 -0.0380981 0.028293 0.0213599 0.0843101 0.0521565 0.0202853 -0.0162034 -0.0592536 -0.0630488 0.0659733 -0.0332886 0.0263123 0.000445233 -0.0147004 -0.00712131 0.0897059 -0.077228 -0.00584558 -0.0214452 -0.0160597 0.0292543 0.0283861 -0.0226293 -0.0260984 -0.015549 -0.071276 0.0172972 0.0542403 0.0619994 0.0180285 0.0858101 -0.0378917 -0.104361 -0.105237 -0.0620044 0.0143549 -0.058856 0.00401241 0.037484 0.0497203 -0.055476 0.0471331 -0.193282 -0.00804343 0.037484 0.0567898 -0.00462749 -0.00311016 -0.0328583 -0.0423841 0.126329 -0.0496222 -0.0452506 -0.0347685 0.0200691 0.0239204 -0.00214228 0.0486306 0.0652711 -0.0175795 0.0260279 -0.0737223 0.0374765 -0.0492119 -0.0295337 0.0137509 0.00459956 -0.0363188 -0.018323 0.0375847 0.0499393 -0.0129211 0.0262695 -0.0293122 0.00106462 -0.0170289 -0.0170226 -0.0140982 0.0252024 -0.0261839 0.0176055 -0.0285975 0.018131 -0.0391627 0.0310815 0.0100651 -0.0461315 0.0168806 0.129795 -0.00239735 -0.0259046 -0.0920666 -0.064871 0.0188097 0.0279079 -0.0759546 0.00508981 -0.0081514 0.040489 0.0579928 0.0049222 -0.0725067 -0.113079 0.0549324 -0.0496398 -0.0308525 0.0572 0.0463227 -0.0763145 -0.01825 0.070672 0.150799 0.0257863 0.00736619 0.0495794 -0.131541 -0.0554433 -0.00779126 -0.0177051 0.0821306 -0.0159074 0.00731862 0.00907151 0.0127198 0.0199218 0.000432347 0.0150842
lion -0.042193 0.00920031 -0.0709245 0.0352034 -0.0943807 0.0707766 -0.0599505 -0.0339417 0.0811613 0.0896859 0.0487725 -0.00772776 -0.0172086 -0.0757045 0.0493574 -0.0323395 -0.101496 -0.000962587 0.0215243 -0.0193165 0.0152341 0.0109615 -0.141363 -0.0560198 -0.0397369 -0.0101164 -0.0170067 -0.0866001 0.0206104 -0.0514751 0.0454693 0.0909677 0.0318352 -0.0335899 0.0425202 -0.0502426 0.0139305 0.00618284 0.0094755 -0.0615774 -0.069981 0.0344527 0.0147391 -0.0343406 0.0502134 0.0161422 -0.113754 0.00705099 0.00514034 -0.0594238 -0.0178879 0.108983 -0.0825058 0.03387 0.0881531 0.0907436 0.0259034 -0.0219826 -0.0387755 0.0469842 0.047103 0.0522415 0.0189082 0.0665479 0.00639035 -0.0276558 0.165709 0.0995148 -0.038473 -0.0267684 0.0783645 -0.0348404 0.00516006 -0.0422871 -0.060188 -0.0405369 0.072036 0.112893 -0.0290094 -0.053808 0.018722 -0.0638834 -0.0802424 -0.00430827 0.0264838 0.0323282 -0.10338 0.184705 0.0818963 0.0601387 0.0237319 -0.0858225 -0.0103038 -0.0177212 0.0138302 0.0566069 -0.0305758 0.058337 0.0670566 0.0566764 -0.104512 -0.000101733 -0.133125 0.0333591 -0.0721906 -0.00465472 0.0701446 0.0831916 0.0432037 0.023082 0.0244916 -0.0372158 -0.047466 -0.0599236 -0.0614519 -0.0762827 0.074593 -0.0242002 -0.0146295 0.0301231 0.0347306 0.00939662 0.0732775 0.0396943 0.0374601 0.0307887 -0.0222981 0.110287 0.0228982 0.0459713 -0.0939751 0.0279091 0.00311741 0.0412899 -0.00104644 0.000616222 0.0493843 -0.0624715 -0.0677602 0.0940692 0.0344348 -0.00659182 0.0448015 0.0402859 0.0363486 0.109274 -0.019942 -0.0275819 0.0395733 0.0484498 0.0889262 -0.0727061 -0.0801819 0.00995484 -0.085307 0.0703262 0.0628816 -0.000996358 -0.0273174 -0.0396181 0.0609679 0.0623752 -0.0254933 -0.0973411 0.0752653 -0.0401985 0.0502067 -0.00865485 0.0280682 -0.00158309 -0.0745168 -0.0735756 -0.0293298 0.0328392 0.00406131 0.0631147 0.016449 0.104689 -5.38035e-05 0.0568041 -0.0140823 -0.106417 0.120988 -0.0921353 -0.027797 0.026421 -0.0656313 -0.0363105 0.0285455 0.0283617 0.0417314 -0.0556187 0.012054 0.070678 -0.00783847 -0.0282407 0.0192775 -0.00569879 -0.0457853 -0.123953 0.0777169 0.0822817 -0.0121378 -0.0223568 -0.00633948 -0.0113675 -0.129909 -0.0150779 0.0826986 -0.0205531 0.0260558 0.0628973 -0.136919 -0.072352 0.0235705 -0.0556949 -0.00756216 -0.0600042 0.0700124 -0.0394837 -0.0169175 -0.0343967 -0.0861922 0.0995126 -0.0705256 0.0494448 -0.0582921 0.00422714 -0.0541822 -0.0163134 0.0463388 0.0784676 0.00203854 -0.0168494 0.0534449 0.0235324 -0.0184114 0.0278127 -0.0133871 0.0387554 -0.0250899 0.00185387 -0.0500028 -0.0248456 0.0283774 0.0165971 0.0232546 0.0602104 0.00226921 0.0399341 0.0192358 -0.046713 0.0266183 -0.00891615 -0.0714847 0.0203377 -0.051437 0.0704673 0.0541419 -0.0244131 -0.0396338 0.0819165 -0.0328101 -0.00306946 -0.168734 -0.00995932 -0.0300716 -0.00349367 -0.0652347 0.00503098 -0.0632447 0.062048 -0.052358 -0.00631819 -0.022366 -0.150486 0.074091 -0.011896 0.0622026 0.0227436 0.0134324 0.0198223 0.0131303 0.0600692 0.0447656 0.0137145 0.0115477 0.0740663 -0.132885 -0.0794155 0.0150127 -0.0954228 0.00880791 0.0700079 -0.0462178 0.00924445 -0.0264345 0.0676684 0.00613062 0.0725223
wolverine -0.0211399 -0.000996438 -0.0911038 -0.00995589 -0.0875326 0.0286884 -0.016456 -0.0239869 0.0433486 0.098821 -0.0140371 0.111795 -0.0598749 -0.111583 0.120704 0.0679207 -0.0224006 0.00782293 0.0219107 0.132001 -0.0732203 -0.00691719 -0.0699057 -0.180163 -0.00737441 -0.00417135 0.0371562 0.0528067 0.018727 -0.0191534 0.0718694 0.173473 -0.0849242 -0.00749019 0.018 -0.0586576 -0.0514792 -0.0413488 0.0969357 -0.0231025 -0.0682155 0.00929531 -0.00272718 0.103482 0.0515258 0.00117457 -0.0346517 -0.0156015 0.0262411 0.020556 -0.0216393 0.0294115 0.0129825 0.0837875 0.0606617 0.100204 0.0717379 -0.0736402 0.0140042 0.135538 0.00167736 0.0701517 0.0796989 0.0956336 -0.036344 0.0751755 -0.00740516 0.0525756 -0.0252381 0.0326222 -0.0128515 -0.0170801 0.00920306 -0.0238172 -0.0861118 0.0302195 0.124439 0.0402248 -0.0792642 0.0203327 -0.0457152 -0.0535914 0.00901283 0.118393 -0.00181239 0.0680564 0.0599788 0.0578433 0.0346771 -0.00941046 0.0453568 -0.0106949 0.0911526 0.0697572 0.0483067 -0.00267755 -0.0380872 -0.0174698 -0.000848288 -0.0189191 -0.0309299 0.00217538 -0.0618811 -0.141608 0.0270915 -0.056204 -0.00852529 0.0753473 -0.0253929 -0.0245128 0.00546644 -0.0429774 0.00607932 -0.012906 -0.00720857 -0.0551543 0.0434164 0.0180691 -0.031072 0.0317697 0.0260312 -0.101762 -0.00420825 0.0542085 0.0167535 -0.0174463 -0.0361383 0.0409755 0.0662645 0.0676811 -0.100954 0.093795 -0.0757566 0.0197621 -0.0355127 -0.017649 0.0353897 -0.0786322 -0.109991 -0.0250938 0.0199398 -0.00795611 0.0579175 -0.0367448 0.0545478 0.0638724 0.066818 0.0292334 -0.013814 0.0944672 0.0594274 -0.0303595 -0.0275178 0.00902471 -0.0491104 -0.0218641 0.00211534 -0.0246994 -0.0169072 0.0346262 -0.0414824 -0.00871 -0.00298781 0.0795823 -0.0341958 0.0468667 0.0669494 0.0263132 0.044534 0.113191 0.0340664 -0.0294455 -0.017321 0.0437918 -0.0126952 0.0470788 0.0161272 -0.00593341 0.0339625 -0.0794423 0.0560132 -0.0107113 -0.00486502 -0.0589482 -0.161694 0.0183913 -0.0428375 -0.0235861 -0.00791454 0.0364521 -0.0888347 -0.11915 -0.0360556 -0.00649242 -0.0252741 0.107694 -0.0521069 0.0669282 0.0371859 -0.045465 0.0805069 0.0836539 -0.00677108 0.0342721 -0.0124055 -0.119347 -0.0709808 -0.070896 0.0360937 -0.0640844 0.0966473 -0.00307263 -0.00331609 -0.0425406 0.124163 0.000617793 -0.0133485 -0.00857598 0.0147564 -0.00488432 -0.046203 0.00926922 -0.0253674 0.137362 0.00426657 -0.079243 0.0527177 -0.0503828 0.0163461 -0.0428905 0.0998813 0.0528809 -0.0959199 0.0709554 0.0195392 0.0634291 -0.0241692 -0.0681858 0.00124364 0.0315258 0.063796 0.0483024 0.084218 0.0771923 0.0456516 -0.0129878 -0.0173748 0.025412 -0.0689132 0.0506606 -0.0394677 -0.0828078 -0.0498166 0.0641459 0.00979642 0.0368529 0.00677998 -0.0247567 0.052039 -0.00261711 0.0456643 0.0841311 0.0371392 -0.0113568 -0.0788909 0.0193827 -0.0437557 0.0536274 0.0661563 -0.040386 0.000619044 0.000709257 0.0484021 -0.00402821 -0.104008 -0.0471085 0.0174429 0.0556548 -0.00965179 -0.0234228 0.025993 -0.0401188 0.0340834 -0.0583056 0.083953 0.0060176 0.118647 0.14081 -0.108716 -0.00736105 0.00521536 -0.0608525 0.0638448 -0.093831 0.0119644 0.0309214 -0.0151437 0.00937526 -0.0209246 0.0416287
puma -0.148912 -0.0298257 -0.0770198 -0.00511086 -0.0780015 -0.0133357 -0.0634403 0.0177898 -0.00301516 -0.00219759 -0.029504 -0.0484171 0.00610808 -0.0275817 0.0407797 -0.00394947 -0.0464412 -0.0471342 0.0221574 0.015688 -0.0304362 -0.000611798 0.0133808 -0.103279 0.00447025 -0.0644983 0.0325194 0.0303641 0.0018316 -0.0601444 0.11823 0.0532887 -0.00110494 0.0211488 0.041947 -0.0127008 0.0228215 0.0364855 0.00145695 -0.0163861 -0.0596886 0.0101974 -0.00681531 0.0375869 -0.0365392 0.0068974 0.00171334 -0.0567805 0.059967 -0.0252635 0.0358173 0.0226173 -0.00468186 0.0418686 -0.0269816 -0.0748809 0.107986 0.0158371 0.0351903 0.0627741 0.0735424 -0.0961783 0.00427576 0.0804992 0.0030065 -0.0254739 0.106823 0.0706961 -0.0601547 -0.0372218 0.0423306 -0.0543818 0.0446592 0.00390554 -0.132208 -0.0751944 0.110218 0.0393998 -0.026567 0.0179788 -0.00654368 0.0202265 -0.0565804 -0.0766155 0.011491 0.00317377 -0.124874 0.0987172 0.0794535 -0.0192909 0.0182281 -0.0482026 -0.0045872 0.145674 0.059736 0.0622812 -0.0544045 0.0294607 0.0409364 -0.0482706 -0.0652615 0.0201962 0.0111503 -0.0279674 -0.0319893 0.0513561 0.0228421 0.0184769 -0.0044389 -0.0221718 0.0131917 -0.0790987 -0.0431928 -0.035875 -0.0292565 -0.00545159 0.115095 -0.0350377 -0.0450758 0.0421801 0.064158 -0.0769022 -0.0127301 -0.00285841 0.119955 -0.0292256 0.0101543 0.00447376 0.0255976 0.0828442 -0.0904713 0.0970569 0.0330907 0.00320821 -0.0594143 -0.0156215 -0.000529814 -0.0124307 -0.117057 -0.0146767 0.0247355 0.106202 0.0950006 0.00711478 0.00208106 0.0952976 -0.0133528 0.0683367 -0.0365969 0.0514386 0.0411612 -0.0389873 -0.0357781 -0.00833021 -0.0703125 0.000511808 0.044783 -0.00247829 0.0189376 -0.0390183 0.0536001 -0.0755121 0.0286707 0.0515211 0.0272208 -0.143343 0.0331422 0.0735321 0.0610581 0.100885 0.0282521 -0.105926 -0.00590657 0.0115285 -0.0930412 0.0803136 0.0773394 -0.0442694 0.0181914 -0.0569331 -0.105672 -0.104078 0.0335238 -0.0215077 -0.00909189 -0.0155848 -0.00482191 0.0382717 -0.00942911 0.0549634 -0.0689533 -0.0135628 0.0517769 0.0788409 0.0457977 -0.0223513 0.0236403 -0.00431391 -0.00829144 -0.120132 0.0337857 0.035444 0.058482 -0.0297639 0.067095 -0.111754 -0.0450614 -0.12685 0.0381809 -0.0451109 0.0184465 0.00530866 -0.0166639 -0.00915294 -0.108122 0.0069504 0.0329937 -0.0209694 -0.0340105 -0.0068116 -0.0988884 -0.0771126 -0.0814438 0.0868537 0.0385295 -0.0627122 -0.0703146 -0.0416913 0.0266681 0.0459648 0.089471 -0.0280994 -0.0295576 -0.0445313 -0.0471899 0.0550975 -0.0290028 -0.0036931 0.0474518 0.0384428 0.0275384 0.0488749 0.0285222 -0.0069799 -0.0653935 -0.0364402 0.0281551 -0.0187382 0.000773993 0.0746252 0.0184257 0.060792 -0.0152057 0.0234774 -0.0847376 -0.0306507 -0.0622977 -0.0268661 0.0440219 0.0102114 -0.00829061 0.118028 0.00799196 -0.0259627 -0.117991 -0.0400289 0.0267712 -0.0298381 0.0182661 -0.0778179 -0.133728 0.0196791 0.0983521 -0.00624771 -0.0399856 -0.00788182 0.123556 -0.038942 0.0344272 -0.0647273 0.0404909 0.0756874 -0.0493452 -0.0349387 0.0528226 -0.0319522 0.0262019 0.0307745 -0.0912138 0.0224729 0.0919708 -0.102991 0.123084 0.119897 0.092507 -0.107937 -0.0359101 0.178666 0.0506281 -0.0217511
canine 0.104878 0.000509906 -0.106231 0.0317824 -0.0479432 0.00812481 -0.0409202 -0.0258953 0.0127896 0.00955217 -0.0296587 0.0520071 -0.00234003 -0.0359325 -0.00268654 0.00022839 0.0259815 -0.0513309 -0.00916743 0.0513375 0.0654078 0.0797565 -0.0224921 -0.0898666 0.0571981 -0.0483277 -0.0416384 0.00537463 0.0590301 0.0930864 -0.00392274 0.0732462 -0.0467012 -0.0592754 0.0481553 0.00357911 -0.0349071 0.0575141 -0.0553993 0.045035 -0.0529264 -0.00170326 0.00148864 0.0631471 -0.00692949 0.0492448 -0.0882291 -0.0589107 0.0283571 -0.0466062 -0.0656199 0.0637658 -0.0723733 -0.0399191 -0.0388385 0.0572423 0.0440648 -0.0629018 -0.0153184 0.117457 -0.0283725 -0.0824216 0.0284322 0.0399257 0.00888059 -0.0767068 -0.0618057 0.100715 -0.0141706 0.0345049 0.0194654 -0.12421 0.0547915 -0.0580776 -0.0835972 -0.0330287 0.00473178 0.158488 0.00864899 -0.0391854 0.00116206 -0.0543385 -0.00992409 -0.0278444 -0.0137914 0.062736 -0.0141467 0.0548181 -0.00832768 -0.00370463 0.0263174 -0.0301338 0.0312719 -0.0495807 0.0341049 -0.0812548 0.00870048 -0.0307084 -0.137611 0.00350552 0.0441753 -0.118062 -0.0333381 -0.00606367 -0.000422704 -0.00195483 0.00755025 0.0535673 0.0518922 0.0288388 -0.0429842 -0.0771378 0.0128884 -0.0113612 0.0350684 0.0249804 0.0261008 -0.0491166 0.0964808 0.0843441 -0.0130528 -0.137087 0.0554965 0.0889164 -0.0206579 0.0186162 0.0657879 0.0878048 0.09264 0.0387015 -0.0348762 -0.0169813 -0.0707667 0.0509397 -0.0225628 0.00886048 -0.0533883 -0.0050763 -0.0917008 0.0734893 -0.0485663 -0.0521242 0.0495343 0.056734 -0.0176794 0.0667359 0.0173561 0.0158057 0.0576069 0.117362 0.0612112 0.00761102 -0.0255925 0.0114421 -0.0390595 0.0316829 0.0204334 0.0880678 0.104319 -0.0830823 0.0133494 -0.00276168 -0.0346861 0.000297382 0.0565108 -0.0537971 0.0622698 -0.0835508 0.0500271 0.0320056 -0.00242688 -0.149149 -0.0490569 0.047552 0.0414925 0.0752174 -0.0924035 -0.0355369 -0.0133717 -0.0523938 -0.0951151 -0.114283 0.0933803 -0.110874 0.0294996 -0.0405003 -0.0899815 -0.0490547 0.0210448 0.0450438 -0.0836127 -0.06779 -0.00491078 -0.00453841 -0.052248 -0.0454327 -0.0514259 0.0346883 0.00577594 -0.0554302 -0.000257605 0.0245539 -0.0481796 0.0507011 0.0534457 -0.0537507 0.0025882 -0.0798647 0.00300653 -0.0346928 0.119883 0.0317293 0.0111128 -0.0227197 -0.0720816 -0.0889805 0.0295482 -0.0120093 0.0132758 -0.00484161 -0.0572688 -0.0190283 -0.0422969 0.0733125 -0.0393313 0.0256411 -0.0154258 0.0484713 -0.0483409 0.124237 -0.0126179 -0.0169844 -0.0958753 -0.104401 0.0321382 0.138265 -0.0508292 -0.0452118 0.00486592 0.00142002 0.0220251 0.0531032 -0.00225009 0.00855861 -0.056597 0.0839331 -0.0284167 -0.0652442 -0.0530988 0.0819774 0.00620885 -0.0552711 -0.0313249 0.0814625 -0.00371037 -0.0481774 0.0385821 -0.0994928 0.0932897 -0.0856634 0.133326 0.111353 0.0546965 0.0362154 -0.0769588 0.0611847 -0.0222534 0.0186354 0.030167 -0.0485354 -0.0211825 0.0214413 -0.0486459 0.00554324 -0.022976 0.0183397 -0.0440626 -0.0300056 0.0695137 0.0168752 0.0410019 -0.0356032 -0.00042319 0.0594831 0.0501663 -0.0144508 0.0723445 0.0477885 -0.127428 0.0665679 0.0473354 -0.178768 0.066895 0.009384 -0.0619825 -0.00758317 -0.0111307 0.120297 0.0474106 0.0107848
feline 0.054519 0.0029362 -0.171846 0.0463253 -0.00814167 0.043947 -0.00460186 -0.0885426 -0.0146508 0.031171 -0.0413548 0.0448824 -0.0253909 -0.0830603 -0.00935661 0.0280868 0.0496566 -0.0992845 0.0464003 0.0832655 0.00688128 0.140474 -0.0404083 -0.0317954 0.0449685 -0.0444522 -0.0075374 0.00666508 0.0470732 0.0718441 0.0463914 0.142554 -0.0923262 -0.0459965 0.0324903 -0.00124453 0.00820168 -0.00854584 -0.030957 0.0463606 -0.032958 -0.0249474 0.0460649 0.119275 -0.00233832 -0.0031502 -0.0744584 -0.0738495 0.0357092 -0.0925755 0.000965775 0.00824955 -0.0427071 -0.103328 0.0429167 0.0855974 0.0174983 -0.0935131 0.0110161 0.106369 0.0366026 -0.0396361 0.0389964 0.0425748 0.0106077 -0.0554346 -0.0120706 0.103964 -0.0543447 -0.0148901 -0.0178914 -0.0624568 0.0220816 -0.0345796 -0.115176 -0.0479887 -0.0173869 0.132604 -0.0199054 -0.0689981 0.0451935 -0.0802474 0.0206822 0.0704917 0.0249805 0.0662514 -0.0667919 0.0226265 0.0153625 0.00254747 0.0898862 -0.0466694 0.00411496 0.00273632 0.0157428 -0.0397817 0.0408054 0.0462392 -0.120049 0.0614971 0.0112504 0.0227788 -0.068537 -0.0271514 0.0260704 -0.0275154 0.0522908 0.0320866 0.0626841 -0.0206928 -0.0449552 -0.0381139 -0.0139827 -0.0322212 0.0399229 -0.0247489 -0.00528533 0.00257461 0.0770771 0.042032 -0.0264631 -0.139404 0.0537954 0.115648 0.0091735 0.0282126 0.00793672 0.025307 0.0913798 0.0813637 -0.0963194 0.035387 -0.0983601 0.0430226 0.0616008 -0.0724022 -0.00984792 0.027511 -0.108985 0.00719654 -0.0259843 0.0420012 0.0599484 -0.0272441 -0.0537733 0.0161611 0.0222802 -0.0279942 0.0307342 0.0639239 0.0730619 -0.109737 0.0107209 -0.0563501 -0.0574995 0.0117459 0.0482777 0.0670236 -0.00946802 -0.0119513 -0.0476865 -0.0341339 0.0113175 0.0143187 0.0745511 -0.0742334 0.0663397 -0.0723978 0.118456 0.0503427 0.0355216 -0.149137 -0.0111677 0.0435455 0.00674803 0.0185217 -0.0602793 -0.0649983 -0.0338339 -0.0290774 -0.0639725 -0.0362254 0.128737 -0.132024 0.00954634 0.0300018 -0.0111211 -0.0521385 0.00107915 0.0443198 -0.0164106 -0.0713058 0.0239855 0.0573958 -0.0599991 -0.0350958 -0.0863034 0.0199778 -0.0334081 -0.049789 0.0291568 0.00855687 -0.00995051 0.00374101 0.0804062 -0.112504 -0.0838964 -0.0887677 -0.0203453 -0.0545102 0.0962289 -0.00383676 0.000495022 -0.0218275 -0.0219455 -0.102521 0.0374145 -0.00798503 0.027211 -0.0115087 -0.0937514 -0.00242922 -0.0852003 0.0691658 -0.0707322 0.0203996 -0.0269926 -0.00789811 0.00957943 0.01952 0.0372711 0.0228449 -0.0854827 -0.0822352 0.00566502 0.0842979 -0.027853 -0.0256424 0.0216132 0.0719191 -0.0398568 0.0738429 -0.0484719 -0.0389919 -0.00607382 0.0387029 -0.0785575 -0.0378094 -0.0380058 0.120499 0.00541373 -0.0250048 -0.00719787 0.0652609 -0.0198172 -0.0604183 -0.00389566 -0.0645946 0.135351 -0.0276522 0.140683 0.0281706 0.0230611 0.0487653 -0.110893 0.0317711 -0.0374498 0.0499699 0.0278044 -0.0315748 -0.0748621 0.0589975 0.0223199 -0.00303481 -0.0231604 -0.0314446 -0.00473931 -0.0755725 0.0187028 0.0643563 0.0606588 0.026355 0.00758373 0.0461333 0.13686 -0.0574973 0.0657683 0.0418269 -0.0623421 0.00750739 0.0214897 -0.0810394 0.076241 -0.0116482 -0.0355304 0.00384978 0.021876 0.10414 0.0558736 0.0355591
hyena -0.0373437 0.0225242 -0.102367 0.0840355 -0.0158634 0.0812881 0.0624407 -0.0442238 0.0711931 0.0473398 -0.00715035 0.129006 0.0143707 -0.0358012 0.0560456 -0.0172524 -0.0725745 0.0277318 0.00320915 0.0229782 -0.0221284 0.00593693 -0.0870234 -0.0108552 -0.0215948 -0.0352735 0.036554 0.0503666 0.0614938 -0.0461019 -0.0499843 0.044183 -0.114451 -0.0508924 0.0399533 -0.087914 0.0742955 0.00245226 -0.0189747 -0.0748911 -0.0648582 0.0460088 -0.0119447 0.0231684 0.0490162 0.00869206 -0.0679956 -0.0963773 0.0262087 0.0316297 -0.0103915 -0.00348253 0.0144051 0.0345789 0.000241792 0.0277318 0.0908108 -0.0404714 0.00310535 0.104804 -0.00692819 -0.0244431 0.0246643 0.067169 -0.0228269 -0.00898581 0.0731993 0.0612377 -0.0187355 0.0698756 0.0901686 -0.117283 -0.0832477 0.0431179 -0.0434749 -0.0272933 0.00342917 0.146868 0.00696661 -0.0391889 -0.0364706 -0.0944856 0.0545245 0.0176627 0.0335816 0.0358866 -0.0523902 0.0653433 0.124938 0.0364512 -0.0128141 -0.098595 -0.0176734 0.0272448 -0.00397845 0.00187312 -0.0251493 0.0745943 -0.0164561 0.112223 -0.0454849 -0.0106606 -0.050611 -0.00127105 0.0141977 -0.0219809 0.0403045 0.0114196 -0.00480907 0.0174505 0.0250019 0.0540162 -0.0599009 -0.123739 -0.0382013 -0.0192438 0.0903606 0.0224737 -0.00793576 -0.0304035 -0.0556789 0.00731682 0.0259992 0.0670739 -0.0397671 0.0608109 -0.064022 -0.0279142 -0.0237931 0.0848368 -0.0493344 -0.0329782 -0.0117702 0.058989 -0.0668275 -0.0266705 0.0357275 -0.00995865 -0.116356 -0.000685485 -0.0115217 -0.0176963 0.0727355 0.0641985 -0.0603685 0.0633312 0.0356596 0.0136872 0.0539754 0.0187124 0.0785776 -0.0813192 -0.00361932 0.00113189 -0.0549067 0.076973 0.0621942 -0.00911736 0.0174447 -0.115985 0.0617111 -0.0118917 -0.0847087 -0.00138267 0.0747126 -0.10078 0.0680111 0.0184528 0.0421186 0.091226 -0.0756071 -0.00886009 -0.0989986 0.0085805 -0.071261 0.0607604 -0.0353453 -0.0752132 -0.0269964 -0.0599416 -0.0795012 -0.0646312 0.0678733 -0.0355238 -0.0778636 -0.0354578 -0.0399436 -0.0414687 0.0107615 0.0464395 -0.0226755 -0.0559292 0.0722156 0.025582 0.0260593 -0.0774406 -0.101148 -0.0217442 -0.0759505 -0.0964045 -0.0210904 0.0289076 0.0132751 0.0398214 0.0432905 -0.14409 -0.0316375 -0.00815985 0.0385176 -0.0801938 0.114662 0.0526619 0.0244373 -0.167283 0.0298932 -0.0319945 0.00689695 -0.00759234 0.0234089 -0.12 -0.0718527 -0.0023116 0.0130731 0.0812512 -0.0791694 -0.0177334 0.00104639 0.0399785 0.0203919 0.026133 0.0390162 0.0574484 -0.0263775 0.0133618 0.0167328 0.156459 0.0320197 -0.0711057 0.0268781 0.0402773 0.0338416 0.00908011 0.0356926 -0.00887988 -0.0976947 0.116276 -0.0717557 0.0573146 -0.0135991 0.0206422 -0.0123186 -0.0471283 0.0209313 0.0817169 -0.0532207 -0.0242335 -0.0183496 -0.0243053 0.0619168 0.00975046 0.0632982 0.133292 -0.0450076 0.060774 -0.132543 -0.00423049 0.0260593 -0.000224602 0.00446739 0.00164957 -0.0655043 0.0357799 0.0191247 -0.0724581 -0.0477259 -0.00880207 0.0208731 -0.086063 0.0199689 0.0394857 0.160483 -0.0508904 0.0372079 0.01505 0.00530325 0.00761445 0.120966 0.0466064 -0.0750697 -0.00602268 -0.0477783 -0.0727433 0.0399727 0.0175355 -0.0247128 0.00864938 -0.0780751 0.127922 -0.0454481 0.0765035
scavenger -0.00701278 0.0405492 -0.103778 0.0332431 -0.0965718 0.0571685 0.0496309 -0.0815337 0.0391626 0.0698314 -0.0128463 -0.00998938 0.0451167 -0.038269 0.00914974 0.0105059 0.00326135 0.0704148 0.09281 0.0693129 -0.0187926 -0.0119784 0.00757671 -0.0732067 -0.0946689 -0.0436953 -0.0209017 0.119673 0.0715561 0.0203214 -0.0113744 0.056724 0.0165121 -0.0234438 -0.0482141 -0.0130509 0.0961806 5.19575e-05 -0.080691 -0.129945 -0.0514134 -0.00353428 -0.0430124 0.0412322 -0.0108323 -0.0247541 0.0472071 -0.0435587 -0.0366161 -0.0917983 -0.0735863 0.00970881 0.0726465 0.0330811 -0.0158734 0.0192785 0.138091 -0.0629583 0.0096426 0.186722 -0.0438435 0.00682434 0.0209254 0.068211 -0.0665696 0.0258838 -0.024224 0.081235 0.0581732 -0.0372434 -0.0141999 0.0230725 -0.00174608 -0.0366855 -0.10789 -0.0117872 0.00393547 0.0303818 -0.0225111 -0.124738 0.0341414 0.00108526 0.00941202 0.0166482 0.0390375 0.0264001 0.019779 -0.0287775 0.0352965 -0.00551475 -0.0330996 -0.0218025 0.0040577 -0.0222766 0.0276571 0.0543187 0.0361762 -0.0181965 0.0532932 0.0379657 -0.0341622 0.0243629 0.0558258 0.0498439 0.00631296 -0.0364448 -0.088511 0.0456283 0.0239138 0.0101 -0.0581014 0.0764129 -0.0727159 -0.0517399 0.0178853 -0.0717714 0.0853881 0.0672109 -0.0864067 -0.0169887 -0.0119499 -0.0445889 0.0022444 0.0415285 -0.109941 0.0130509 0.0217405 0.00698847 0.0776052 0.0225123 -0.0273631 0.0482211 -0.0287567 0.0613123 -0.0441074 0.00124139 -0.0624883 -0.0288979 -0.0556962 0.11005 0.0669632 0.0918168 0.013163 -0.0784038 -0.0239022 0.167843 0.0730655 -0.0183115 0.0655325 -0.0463552 0.0949814 -0.110906 -0.0349724 -0.0457417 0.0560388 -0.0276455 -0.0313078 0.0358521 0.0610762 -0.0826703 0.0439847 0.00420077 -0.0907913 -0.0453065 0.00957616 -0.00866058 -0.0524506 -0.0593284 0.0320116 0.0661738 -0.0389079 -0.0212376 -0.0307175 -0.0727483 0.044619 0.10185 -0.00347595 -0.0226998 0.0416303 0.0244323 -0.0394635 -0.0571477 0.043186 -0.0666669 0.0022538 0.015831 0.0803137 0.0361809 -0.00562078 0.00160072 -0.0674586 -0.112006 0.0336321 0.009037 0.0416141 -0.0387991 -0.0293725 0.0916224 0.0609072 -0.0310948 -0.00442555 0.0755309 -0.00415748 0.0664029 -0.0255759 -0.0523834 -0.0617406 0.0618355 0.00434962 -0.0692272 0.172487 -0.02565 0.0151002 0.0528858 -0.0179763 0.0561267 0.00394936 0.0765356 -0.0218611 -0.0479988 -0.138371 0.0552586 0.103575 0.151698 -0.0528788 -0.0279326 -0.0269418 0.0486401 -0.00814619 0.0038857 0.0885596 0.00173982 -0.04667 -0.0215692 0.00737831 0.0294512 -0.0357225 -0.0162195 0.0614049 0.022175 0.0475544 0.111304 0.0139188 -0.0080448 0.0348544 0.0227641 -0.00364262 0.0408039 -0.00439152 -0.0104873 -0.0951921 -0.0525432 -0.0414937 0.0034815 0.0355003 -0.0254787 -0.0910783 -0.12031 -0.00368152 0.00208235 0.0579857 0.0543998 -0.0336876 -0.0488971 -0.158986 -0.0317986 -0.0796053 -0.00669447 0.0952754 -0.0606178 -0.0137383 -0.0355836 -0.0121173 0.0243791 -0.0286386 0.00225146 0.0649144 -0.0974283 0.00572842 0.0952222 0.165926 0.0946018 0.0514505 0.0360096 0.0279164 0.027671 0.0635578 0.0607822 -0.10638 0.0712505 -0.0890111 -0.0590205 -0.0126157 -0.0157162 -0.00748665 -0.0359933 -0.0021608 0.0725261 -0.0280252 0.0531867
carnivore -0.0550582 0.0547193 -0.0913887 0.0670106 -0.0642266 0.118236 0.0659997 -0.0954203 0.0144656 0.0638876 0.0305117 0.043132 0.030277 -0.0594729 -0.0367135 0.00465117 0.0617475 0.0446263 -0.0111872 0.0438561 -0.036515 0.0445581 -0.0050441 -0.07096 -0.0287205 -0.0554474 -0.0676304 0.0180031 0.133385 -0.00492857 -0.0613884 0.0436113 -0.0697485 -0.0371127 0.0782068 -0.0357126 0.0940583 0.00232027 -0.0364889 -0.0849181 -0.0712468 0.0394253 0.0393812 0.00136033 0.0431119 0.00423698 -0.0778818 0.015313 0.00192305 -0.0294827 -0.0450976 -6.44914e-05 0.0586827 -0.0332496 -0.00327481 0.0638535 0.0132451 -0.090472 0.0171355 0.149271 -0.0505754 -0.0456091 -0.00623913 0.0192792 -0.024344 -0.0575013 0.104101 0.171459 0.021588 0.0822905 -0.0336106 -0.127609 0.0100252 -0.060189 -0.136059 0.0217987 -0.0239488 0.0544124 0.058785 -0.0343487 0.00152534 -0.0348161 0.0639197 0.0348321 0.0762993 0.0199335 -0.0127986 0.102202 0.102148 0.0698668 -0.00319538 -0.00148731 0.00884221 0.0565385 0.0362863 -0.10358 0.0569256 -0.0111739 0.040019 0.0131388 -0.0312278 -0.0161787 -0.0239208 -0.0231686 0.0311856 0.009463 -0.0409016 0.105808 -0.043144 -0.00474484 0.00423076 0.0435572 -0.0591079 -0.000931718 -0.0474745 -0.0295991 0.0527797 -0.0123138 0.0561053 0.0315366 -0.0959638 -0.0725305 0.0529662 0.120637 0.00325977 0.0732666 0.0426526 0.0625077 -0.00695339 -0.0335946 -0.00396058 0.00536041 -0.0253549 0.0170105 0.0107216 -0.00139986 -0.0351691 -0.00292521 -0.10024 0.0194543 -0.0362121 -0.0348141 0.000811192 0.012606 0.0342043 0.130577 0.0159671 -0.0350748 0.197883 0.0765701 0.0649928 -0.110903 -0.0245827 -0.0805315 -0.090109 0.0241073 -0.0224505 0.0562737 0.021578 -0.0549941 0.0467163 0.0324633 -0.0737399 0.0361479 0.0558305 -0.0116852 -0.0099845 -0.0635426 0.0505232 -0.00953701 -0.0406167 -0.0917557 -0.0834418 -0.00208519 0.0420067 0.0547072 -0.0412626 -0.0707112 0.00177809 0.053223 -0.0902374 -0.0512934 -0.00700714 -0.0543763 -0.0648183 -0.0663427 -0.0492135 -0.00136306 0.0454627 -0.000340639 -0.0134697 -0.145404 0.0346496 0.0301948 0.0411723 -0.0475126 -0.0821983 0.0670307 -0.0625317 -0.0602692 0.0227975 0.0646298 -0.0365992 0.10991 -0.0168875 -0.105694 -0.0213634 -0.00554815 0.0418804 -0.136877 0.0845871 0.0148403 0.0329306 0.0181967 -0.00436795 -0.0230663 -0.0186903 -0.0512453 0.0447145 -0.080379 -0.0101275 0.0232388 0.040693 0.100804 -0.0221456 -0.0241394 -0.0226692 -0.0280988 -0.0959217 -0.0347699 -0.0293122 -0.042105 -0.0681178 -0.0457756 0.131083 0.0503427 -0.0204548 0.0561614 -0.018509 -0.0336327 0.0342986 0.0885264 0.10175 -0.0500799 -0.0649707 0.0797693 -0.0135852 -0.0575374 -0.0593466 0.0280386 0.00977931 -0.0266847 -0.0540233 0.0209542 0.0437959 -0.028183 -0.0127771 0.00637853 0.0398626 0.0438982 0.068894 0.0822464 -0.0318054 -0.0361439 -0.0823326 0.000969527 -0.0622509 -0.0183355 0.0426907 -0.0272804 0.00867092 0.0302951 0.0419807 -0.0134936 0.0221176 -0.00245506 0.0344791 -0.0621386 0.0317693 0.0329908 0.0722456 0.0454887 0.00363445 -0.0327983 0.068882 -0.0401995 0.0734732 0.0240612 -0.0540092 0.0427388 0.0367035 -0.0803148 0.0591159 0.00523364 0.00395035 -0.0661561 0.0168356 0.218689 -0.0599463 0.00944755
insectivore -0.0159542 -0.00539267 0.0280892 0.0555892 -0.0517149 0.000109544 0.0985102 -0.081896 -0.0125157 0.0371826 0.0326043 0.134869 -0.0157088 0.0036477 -0.00172832 -0.0698851 0.011573 0.0200559 -0.0327907 -0.00878657 -0.0169154 0.0469751 -0.00580107 -0.013322 -0.138233 -0.0576779 0.0174646 -0.016519 0.040155 -0.0174796 -0.0531628 0.0588595 -0.0222943 -0.0290911 0.0543144 -0.0421438 0.105643 0.0116704 -0.0237289 -0.117303 -0.0442141 0.0351489 0.0526552 0.0825235 0.00165065 0.0593654 0.000357614 0.0093852 0.0361908 -0.0132018 -0.0471998 0.0411086 0.0655165 -0.0479104 -0.0296403 0.0821756 0.0465041 -0.0439761 0.0857804 0.147895 -0.0439412 -0.0533042 -0.0197413 0.0364337 0.00322315 -0.0680345 0.0281175 0.106081 0.0493417 0.0729191 0.0245227 -0.120272 0.0563082 -0.0282822 -0.0520444 0.037369 -0.048423 0.116411 0.0483048 0.0274135 -0.00160054 0.0114166 0.0604672 0.104886 0.0311714 -0.00956411 -0.0140852 0.0867024 0.0510442 0.0604688 -0.0140394 0.0278612 0.0236157 0.0824386 0.0491885 -0.102103 0.0586248 0.0432139 -0.0400102 -0.00354119 0.117406 -0.0621763 0.0242598 -0.00993024 0.0834638 0.0345448 -0.0760129 0.0127368 0.0150436 -0.044284 -0.0620449 -0.000263001 -0.0469651 -0.0898761 0.0303975 -0.0476608 0.0140712 0.0116206 0.0433237 -0.0317406 -0.0414215 -0.0467055 0.0309767 0.0268909 0.042014 0.0525021 0.00589294 -0.00967045 -0.0311581 0.0442341 -0.043337 0.017448 -0.0396374 0.017701 -0.0287665 0.0074352 0.00685471 0.0373557 -0.123504 -0.0205801 -0.0255961 0.0194767 -0.0174746 -0.0116616 0.0128374 0.0804431 -0.0102826 -0.022028 0.0746449 0.00128087 0.113776 -0.122625 -0.0626124 -0.0266463 -0.0769233 0.0434319 -0.0580623 -0.000796743 0.0878524 -0.0741706 0.00811837 0.0838049 -0.0570837 -0.0487009 0.0548869 -0.00735099 -0.0245926 -0.0655731 0.0649556 -0.0437248 -0.0490155 -0.0108632 -0.110438 -0.0392263 0.0913706 0.113931 -0.0978096 -0.0947989 0.0177941 0.0649623 -0.00851912 0.0118749 -0.0489872 0.00868555 0.0517199 -0.142999 -0.0313478 0.112021 -0.0180538 -0.0585732 0.00313345 -0.0521892 -0.0177808 0.00296769 -0.0428294 -0.0485545 -0.0198362 0.0588412 -0.0512422 -0.0492252 0.0429326 0.0379748 -0.0371128 0.0358413 0.0541879 -0.127115 0.037602 0.0184299 0.0170386 -0.0847086 0.0976348 -0.019738 0.0560369 -0.0157262 -0.0349825 0.0138718 0.00501172 -0.0692977 0.0457386 -0.0919065 -0.0228718 0.0863229 -0.00198428 0.0904602 0.00828746 -0.0550117 -0.0202423 0.0398005 -0.0660124 -0.0678531 -0.0264749 0.00392863 -0.127913 -0.0094496 0.0874097 0.103927 0.014322 -0.0258192 0.0263767 -0.0321882 0.0109131 0.100061 0.100263 -0.0927902 -0.0528549 0.0386855 -0.0249787 -0.0422287 -0.0426381 -0.0323264 0.0409339 -0.035768 0.00240534 -0.0876909 0.0549219 0.00551898 0.00225755 0.00554544 0.0404013 0.0402316 0.0572651 0.11039 -0.128582 -0.0158743 -0.173265 -0.0369646 -0.0478472 0.0378067 0.0697204 -0.0355101 -0.0376586 0.0276032 0.104593 -0.0934176 -0.0127878 0.011734 -0.0461463 -0.036487 -0.0335346 0.0427895 0.0536853 0.114445 -0.0544875 -0.0623744 0.0554744 -0.0618668 0.058723 0.0555277 -0.0325261 0.014694 -0.0432372 -0.0921262 -0.00615223 -0.0168405 0.017701 0.0168089 0.0532393 0.168289 0.0355184 0.0580806
