14 300
produce 0.0389169 0.0625362 -0.0423337 0.0131841 -0.0190881 0.0382721 0.129151 -0.0988457 0.0936992 0.0690886 -0.00367498 0.0316033 0.0117586 0.00604203 0.0109357 -0.045972 0.0448274 -0.0248466 0.0557537 -0.00893054 0.0292459 -0.117259 0.0181928 -0.0533566 -0.0294305 0.0490167 0.0173436 0.00164103 -0.0175376 0.0742777 -0.00699805 0.0330915 -0.056069 0.0217857 0.0177716 0.00783705 -0.0252159 -0.0336937 -0.0733035 -0.0379313 -0.0253019 -0.0770583 -0.0183973 -0.0265851 -0.0308875 0.00616302 0.0837215 -0.0547341 -0.0146962 0.115152 -0.0155537 -0.0685604 0.009934 0.00306376 -0.112794 0.039198 0.0779161 0.0693954 -0.0177296 -0.102791 -0.152461 0.0662711 0.015876 0.025094 0.0216852 -0.110726 -0.0127194 -0.00373689 -0.0541632 -0.044461 0.0145923 0.0264962 0.0326399 -0.00790635 0.0139191 -0.0363152 0.0588638 -0.0092921 0.000101638 -0.0283736 0.0800207 -0.0503857 0.0628856 -0.10965 -0.0859937 -0.00473467 0.0563672 0.0782455 0.0123482 -0.0284733 0.016644 0.0296151 0.00554072 -0.0784358 -0.0769618 0.0109443 0.0353069 0.0493774 0.0531805 0.0248415 0.103191 -0.106301 0.0378717 -0.0945229 -0.0519933 -0.0859028 -0.0553419 0.0347133 -0.0470967 0.0631384 0.0463441 0.0669443 0.0491729 -0.0718834 -0.0189648 -0.0118469 0.0598721 0.0442281 0.0426063 0.0539246 0.0272523 0.0224844 -0.0794612 0.110363 -0.076388 -0.0676202 -0.0369656 0.0198867 0.0164867 0.0996808 0.0284364 0.0047287 -0.0782569 0.120965 0.0409107 -0.0453074 0.0316345 0.00318759 -0.0482868 -0.0170919 -0.00209731 0.0313079 -0.0354347 -0.0395957 0.0190861 0.11109 -0.0333159 0.00423905 -0.0389282 -0.0658678 0.00253144 -0.0951336 -0.0761523 -0.0835312 0.00875047 -0.00637178 0.0826195 0.00647885 0.059855 -0.0526579 -0.00649533 0.0481192 -0.0220802 -0.0537656 0.108821 -0.0403398 -0.0302399 -0.0330376 0.0630134 -0.00792311 -0.00884988 -0.148215 -0.00335147 0.0861243 -0.0242246 0.139944 -0.0616671 0.00695147 -0.0752377 0.0520472 0.050309 -0.00184419 0.0414418 -0.0124263 0.0192653 0.0123542 -0.00177949 -0.00226971 0.10608 0.00398598 -0.00599687 -0.0704548 0.134681 0.0136504 0.0813499 -0.0240732 0.0433079 0.0606105 0.00845281 0.0908931 0.0259129 -0.00100104 0.0231797 0.0561656 0.0322736 -0.0347985 -0.0781092 0.0237193 0.181917 0.00552567 0.0667028 0.031004 0.0523455 0.0248685 -0.0097596 -0.0204272 0.0381188 -0.0777031 0.00519535 -0.00294617 -0.0762403 -0.0821935 -0.00277579 0.0593495 -0.0497268 0.010564 -0.0915293 -0.185478 -0.0815516 0.0188248 -0.0413027 -0.0171928 0.0133934 0.0820713 -0.00876211 0.00766777 -0.0129472 -0.0632718 0.0248594 -0.0224864 0.0237818 0.00616302 0.0762659 0.0482243 0.000922649 0.0633485 0.00601703 0.00760671 -0.128577 0.0845821 -0.086752 0.0108968 -0.0755615 0.0674782 -0.0469434 0.067572 -0.0203148 0.0417003 -0.0436174 -0.0095517 -0.0203196 0.0490451 0.0142381 0.050505 -0.0908675 -0.072193 -0.0602356 0.0372241 0.0442821 -0.0413311 -0.092992 -0.030862 -0.0394821 0.0177966 -0.0507606 -0.143429 0.0448217 0.068228 -0.0670607 0.0302598 0.104302 -0.0137007 -0.106202 0.0284904 0.0163157 0.0390163 -0.00675918 0.0315663 -0.0821338 0.0299758 0.0450631 -0.0438049 0.0483777 0.0654901 0.00579663 -0.0813556 -0.0167943 -0.0436941 0.116699 -0.0480652
feed -0.100241 0.0672257 -0.0674211 0.0491697 -0.0641447 -0.0822788 0.0866039 -0.0456393 0.0966633 0.0403133 0.155643 -0.0284953 0.0705868 0.0202491 0.0227263 -0.118271 0.0254924 0.0613569 0.0893918 -0.0031218 -0.0536533 0.035415 -0.0190725 -0.031129 -0.0909573 -0.0133559 -0.0240855 -0.0385155 0.00659512 0.0177474 0.0138099 0.0817968 -0.0704739 -0.0185712 0.00689866 0.0368002 0.0371693 0.0390084 0.0603277 -0.055171 0.0435831 -0.0589772 0.0802553 0.0682266 -0.0471049 0.0262958 0.0610681 0.019553 0.00363529 -0.0461322 0.0161731 -0.02919 0.106034 -0.0617173 -0.16898 0.0383678 0.00181634 -0.0428666 -0.0112298 -0.028365 -0.0539052 0.0417745 0.0153443 -0.0329333 -0.0490677 -0.0544806 -0.0737654 -0.0248715 0.0164944 0.024016 0.00491024 -0.0447426 0.0568689 -0.0371997 -0.0829194 0.117896 0.100821 0.077222 -0.0529868 -0.0794476 0.0366309 -0.01006 -0.00706128 0.0663094 0.00988367 -0.0243851 0.0253774 -0.0371737 0.0569037 0.0718765 0.0339993 0.0248953 0.0105522 -0.00466685 -0.0180861 -0.000173705 0.0107255 -0.0138023 0.0692319 0.0271187 0.0161672 -0.0353976 -0.0333393 -0.0356647 0.052368 0.00249279 -0.0995727 0.103229 -0.0566648 -0.0360967 -0.0112722 0.0261308 0.00883431 -0.0295288 -0.113608 -0.00368892 0.0339212 -0.0417854 -0.0910398 -0.00962898 0.0287015 0.0806244 -0.0437199 0.0326336 -0.0611072 0.00744906 -0.0446796 -0.0613438 0.00669869 0.0859178 0.0304993 0.0354302 -0.0723476 0.157019 0.00997399 0.0526242 -0.0873682 -0.0406346 -0.0197306 0.0587883 0.0234537 0.0810847 -0.0143584 0.0203325 0.0406433 0.0831169 -0.0082648 -0.0313287 0.0558376 0.0314047 -0.028543 -0.108599 -0.0584756 -0.000938146 0.1039 -0.0121993 0.0505463 0.0164449 0.129929 -0.129725 0.0878633 0.0327639 -0.0439153 0.0666851 -0.0475522 0.0314633 -0.0502206 -0.0426278 0.0311963 0.0282608 -0.0870621 0.0306578 -0.0279372 0.0498102 -0.0205459 0.0618628 -0.11876 -0.0425475 0.00478583 0.0287384 0.0181157 0.0359078 -0.0177583 -0.100778 0.126136 -0.0740803 0.0113056 0.0515972 0.066583 0.0103893 0.0170956 -0.079085 0.0191073 0.0154372 -0.00618302 -0.0397922 -0.017514 -0.0459302 -0.0418223 -0.067547 -0.0439696 -0.0242027 -0.0184887 -0.0117518 0.0383982 -0.118035 -0.0397032 -0.0623838 0.0708017 -0.019515 0.159073 0.0547129 0.0440956 0.123391 0.0640166 0.0571903 -0.00694469 -0.0692667 0.0306969 -0.0130927 0.0108955 -0.01866 0.130565 0.0510478 -0.0215469 -0.108902 -0.0902169 -0.0235535 -0.0748836 -0.0518295 -0.0854944 0.06728 0.0271426 0.080785 0.0657797 -0.0591205 -0.0384721 0.0274075 0.0621624 -0.0858809 0.000671996 0.085045 0.01112 -0.0421284 0.0522247 0.151131 0.0601562 -0.037026 -0.0359122 0.0104836 -0.0154692 -0.0747468 -0.027034 0.0194532 0.0705911 0.0312484 -0.0214216 -0.0503031 -0.00917433 0.002075 0.0584843 0.0542374 -0.043416 -0.018797 -0.123775 0.0579437 -0.0397336 0.0524222 0.0546847 0.0375536 -0.0966937 -0.0526567 -0.0175887 0.0948546 -0.0318737 -0.00150184 0.0467727 -0.00163301 -0.0479213 -0.0316305 0.00742062 -0.0037254 -0.0440152 -0.00474675 -0.0346702 -0.0211411 0.0491893 -0.0348331 -0.0465295 0.0346008 0.0669934 -0.032994 0.0856421 -0.0031802 0.0241007 -0.0030534 0.0528869 0.0611832 0.0901713 -0.0903602
eggs 0.0242495 -0.00132346 -0.0696927 0.0599834 -0.031146 0.102088 0.0256154 -0.053245 -0.0219922 0.0139336 0.00504717 0.0939679 0.0198554 0.0556644 -0.0086251 -0.131809 -0.00479416 -0.0519641 0.0315611 0.00244057 -0.0297802 -0.0417626 0.0560656 0.0140605 -0.116448 -0.0267104 -0.0433103 0.0231802 -0.0123964 0.0105241 0.00577893 0.00310927 -0.0830548 -0.0464769 0.0519898 0.0747964 0.140022 0.00852845 0.0436049 -0.0593212 0.0182328 -0.0010546 -0.0630076 0.0708806 0.0249334 0.0163172 -0.0261412 -0.055273 0.0744248 -0.0122576 0.0541819 -0.0596888 -0.0048845 -0.0399204 -0.0756048 0.0315532 0.025228 0.0914753 0.0424189 0.0780539 0.026408 -0.066959 0.044609 -0.00772039 -0.0499914 -0.11753 -0.0810287 -0.000437887 0.0349234 0.0385545 -0.0161579 -0.0549765 0.00010127 -0.0617643 -0.0530374 0.050114 0.0317489 0.120384 -0.0267184 -0.0437096 -0.058495 -0.0534703 -0.0226049 -0.030138 -0.0011765 0.0230023 -0.0265642 0.0303139 0.0957983 0.0683525 0.032757 -0.0206599 -0.103729 -0.0270267 0.019264 0.0187546 0.0314129 -0.029883 0.00661643 0.0120058 0.066959 -0.0576391 -0.0227334 -0.0675104 0.0270821 0.0452455 -0.0900106 0.00864981 -0.0903664 0.0370167 -0.11154 -0.0487422 -0.108445 -0.00316837 -0.0322925 -0.0466785 -0.00884926 -0.0721398 -0.000931733 0.0722307 0.0360145 0.0240934 -0.04605 0.0354433 0.0760594 0.0253209 -0.0492521 -0.0980081 0.0173868 0.025392 -0.0254493 0.0318774 -0.101602 0.109036 0.0321304 -0.0101337 -0.095905 0.00333797 -0.0754645 -0.00503215 0.0222867 0.0974725 0.0395606 0.0878462 -0.0100631 0.0799791 -0.0490486 -0.0851362 0.0356073 0.0692479 0.0222155 -0.0418377 0.0576648 -0.0257063 0.0827899 -0.0557672 0.0223974 0.042913 0.0981287 0.0106672 -0.00442829 0.0110931 -0.0553303 0.0164313 -0.0324823 0.0097176 -0.0710447 -0.0366866 0.142576 -0.0377777 -0.0545673 -0.0919062 0.0101606 0.0405351 0.104966 0.0337453 -0.105002 -0.0418041 -0.0075164 0.0532094 -0.0261768 -0.0301162 -0.015774 -0.0266729 -0.0633358 -0.0269476 -0.00655951 -0.00864052 0.0599933 -0.0590069 -0.0285487 -0.0769391 0.0317707 0.10391 0.0147513 -0.0649309 0.0395824 0.0247061 0.0249077 0.015627 -0.0281989 0.0643854 0.000240459 -0.0267263 0.0865278 -0.0832821 0.023528 -0.0426422 0.0176977 -0.00447513 0.151751 0.0465896 0.0903565 0.0124191 0.00202804 0.049859 -0.0834996 -0.104573 0.0974231 -0.0460045 -0.0376749 -0.00469652 0.0151579 0.061964 -0.0809793 0.0927503 -0.0894927 0.0074909 0.121649 -0.145078 -0.0483053 -0.0679374 -0.0455163 0.0515589 0.0562159 -0.0559214 -0.0134042 -0.0851441 0.00249967 -0.0411716 0.0171012 0.0358169 0.0592164 -0.0481571 -0.0685363 0.102552 0.100963 0.0187882 -0.0503492 0.01334 -0.0475127 -0.0480879 -0.0536561 0.0502148 0.141475 0.0853655 -0.000947744 -0.00554865 -0.00861285 0.00145365 -0.00317153 0.164532 -0.0256193 -0.0597699 -0.0725548 -0.0031745 -0.0629543 0.0650673 0.0418792 0.0633437 -0.0847646 -0.0407723 0.0513316 0.0319604 -0.0533003 -0.000115899 0.0488707 -0.0816672 0.00203318 0.0188681 0.075081 0.0821119 -0.0401872 0.0542946 -0.0182575 0.0357694 0.056546 0.0557533 -0.0104774 -0.0114594 -0.0516498 -0.134037 -0.0745868 0.00610765 -0.0435475 0.0268073 0.0365976 0.106201 0.00575343 0.0690087
cheese 0.0425227 0.0100085 0.0160671 -0.0500444 -0.0508173 0.0732185 0.0264932 -0.078026 0.0839548 0.0626565 -0.0429307 0.0357739 0.014411 -0.0802892 0.0615023 -0.0930981 -0.0290332 -0.0353023 0.0500116 -0.0373729 -0.0312842 0.00948427 0.0767467 0.0175005 0.00167379 0.00763162 -0.0136568 -0.0524205 0.0852176 -0.0184443 0.0572341 0.001383 -0.0694648 -0.00888483 0.0796189 0.039054 -0.0471989 -0.0228563 -0.0197039 -0.0309049 0.0130233 0.0848363 -0.0668223 0.047285 0.0550425 0.0475126 0.0530991 -0.0344393 -0.0506021 0.0567092 0.0751763 -0.0299311 -0.0276268 0.00899533 -0.03267 0.0599586 0.0428282 0.0705985 0.045399 0.0421926 -0.00908799 -0.0339349 0.060754 -0.0306343 0.00822225 -0.158715 -0.00053958 -0.0671995 0.0018849 0.0138212 -0.0116551 -0.0187508 0.0762916 -0.00728065 0.0581299 0.0421393 -0.0320284 0.0646041 -0.0819969 -0.0210707 0.00992176 -0.0714698 -0.0161345 -0.0380392 0.0282829 0.0262635 0.0149766 0.0970691 0.14854 0.0237645 -0.0142251 -0.0251319 -0.0193372 -0.0645446 0.0676505 0.0180284 -0.0688785 -0.0133821 0.046506 -0.0339616 0.0300275 -0.0879524 -0.0773043 -0.0192607 -0.00968006 0.0508604 -0.00563997 -0.00986272 -0.0682307 -0.0238486 -0.0445912 -0.0349764 -0.00647845 0.0318418 -0.0341051 0.00113236 0.0808899 -0.076839 0.0784524 0.068856 0.0967965 -0.0598315 0.0233463 0.0252201 -0.0597393 -0.0598377 0.0403435 -0.0998839 0.0248469 0.0251832 -0.0690425 0.0210481 -0.0509649 0.0783048 0.0135225 -0.0675255 0.00854985 -0.0319894 -0.126018 0.0207673 -0.00563423 0.110901 0.0849286 0.072585 -0.0419589 0.135203 -0.0734215 -0.0356652 -0.0300357 0.0880221 0.0806275 -0.0324589 -0.011791 0.00329324 -0.0692004 0.0107197 0.0210051 -0.0538432 0.00851295 0.0120758 -0.0906298 0.0651822 -0.106397 0.00506923 0.0612666 0.0371987 -0.0378403 -0.0532385 0.137706 -0.0609365 -0.142997 -0.144547 -0.0110518 0.0260483 -0.0726547 0.0794241 -0.00338427 -0.0722058 -0.00254948 -0.0621973 0.049329 -0.0257633 0.00659756 0.0604199 -0.0448864 -0.0347263 -0.0911075 -0.0304621 0.010471 0.0484208 -0.0102986 -0.0384615 0.0196568 0.0385599 -0.0157838 -0.0158385 0.0176758 0.0305339 -0.0836104 0.0364401 -0.0871201 0.0579024 0.0836698 -0.0979302 -0.0574473 0.0789833 -0.0890103 -0.0751599 0.000956853 -0.0129489 0.0887048 -0.0366328 -0.0348083 0.0726281 -0.0102254 0.051582 -0.0253021 -0.0360834 -0.0249125 0.0781715 0.0539252 0.0173998 -0.121389 0.032668 -0.0291685 0.024277 -0.109437 -0.0103328 0.0527608 -0.0794077 -0.0147181 -0.0769538 -0.0967083 -0.0361285 0.034388 0.00433735 -0.0497082 -0.00151521 -0.00556699 -0.0638087 -0.0260339 0.0123111 -0.0122367 -0.029966 -0.0954496 0.0663815 0.151367 0.0156817 -0.0638476 0.00233299 -0.0294842 0.0415284 0.00201693 -0.0146872 0.052605 0.0477914 0.07418 -0.0823045 0.0703771 -0.0683414 0.0605962 0.105271 0.0363048 -0.0519961 -0.137825 -0.000413357 0.00711377 0.0463748 0.00314215 0.0517481 -0.0985616 0.00118513 0.0197263 0.0872513 -0.0378526 -0.069799 0.0539006 0.0123368 0.0599115 -0.00384041 0.145076 0.0710147 0.0536034 0.00958944 -0.0233709 0.0401098 0.0100905 -0.047037 -0.0338488 0.00601431 0.0472338 -0.106774 0.0586609 -0.0231946 -0.0475864 0.102861 0.0926881 0.114202 0.0231638 0.0560122
chocolate -0.0295746 -0.0695674 -0.0420336 -0.142233 0.0286172 0.0155976 0.0632108 -0.0182869 0.061851 0.0220814 0.0480985 0.0588639 0.055627 -0.0146942 0.0592376 -0.0781794 -0.0654461 -0.0698195 -0.00664145 0.0565843 -0.0651719 -0.0286481 0.00256124 0.0386198 -0.0244981 -0.029694 -0.0397276 -0.028427 0.0717762 0.0126253 -0.0631842 -0.0522198 -0.0252321 0.0593791 -0.0197497 0.0234699 -0.0307398 -0.0146548 0.0313257 0.0311974 -0.019992 0.00900392 -0.0388387 0.0462169 0.00140886 0.0464137 0.0137421 -0.0411669 -0.005568 0.0318143 0.00128582 -0.00916931 -0.00397673 0.00642101 0.0236601 0.0686609 -0.056036 0.0446272 0.0661448 0.0300964 0.054475 -0.045998 -0.0112574 -0.0270827 0.0186002 -0.0902427 -0.0109067 0.00848478 -0.0229526 -0.00209306 -0.0517024 -0.0964025 -0.0153571 -0.0014971 0.0147017 0.0115764 -0.0226121 0.0482687 -0.0565733 -0.0592597 -0.00457305 -0.0325174 -0.0123656 -0.0673011 0.0853563 0.000330945 -0.0544927 0.0484456 0.115893 0.00947421 -0.00958653 -0.0493234 -0.0756566 -0.0634761 0.0760811 0.00139305 -0.0193902 -0.0520761 0.0872777 0.0167405 0.0213374 -0.0452374 -0.0464269 0.0424935 0.0298355 0.0781064 -0.0683248 -0.0289488 -0.0541412 -0.0693795 -0.0661337 -0.043316 -0.00211092 -0.0260436 -0.0893008 -0.0180899 0.0410741 -0.060049 -0.0676903 0.0298598 0.200221 -0.035646 0.00712721 0.0877862 0.0651808 -0.0698681 -0.013148 -0.0396457 0.0584173 0.11377 -0.0358229 -0.00745621 -0.0677544 0.0314119 0.0103498 -0.0455116 0.0781794 -0.0221721 -0.0728287 0.0453126 0.00982465 0.103305 0.0168166 0.0881024 -0.0474462 0.129822 -0.0765498 -0.0643848 -0.0266052 -0.0188365 0.0439926 -0.0472583 -0.0743432 -0.0218608 0.0450871 -0.00254554 -0.00402206 -0.0636331 0.092845 0.0376846 -0.00949941 0.0136652 -0.0260613 0.00562748 0.0308503 0.0417153 -0.0399177 -0.0180446 0.226828 0.0256832 -0.103577 -0.0732996 -0.0315424 0.0268838 -0.0338175 0.0407579 0.0194687 -0.0814693 -0.0506456 -0.00235562 0.0203131 -0.0637414 0.0551229 -0.0402958 -0.0496904 -0.0748208 -0.0504399 0.00533806 0.00828291 0.0337932 -0.0731095 -0.0346533 0.0635424 0.0279804 -0.059085 -0.0166613 0.0591823 0.07234 -0.0405744 0.0472959 -0.0325926 0.044143 0.120383 -0.0657866 -0.00219987 -0.0621207 -0.0959117 -0.0221654 0.0583111 0.0429645 0.141215 -0.020447 0.0456265 -0.0227005 0.0171451 -0.115311 -0.0530401 -0.0103224 0.040057 0.024372 -0.0871362 -0.068725 -0.0368997 0.0269147 0.02894 0.0641151 -0.0982731 0.00182272 0.0221721 -0.0203807 -0.0395794 -0.0552135 -0.03573 -0.0732886 0.00365658 0.0163005 -0.0721322 0.0698748 0.0467542 -0.0757981 -0.0288648 -0.00172274 0.0758025 -0.0086223 -0.115572 -0.0135109 0.0574356 0.00824267 -0.0147963 0.0142869 -0.00934044 0.128599 0.0524475 -0.0394445 0.0445807 0.0318829 0.0887303 0.0143148 0.0678804 -0.0910629 0.0267069 0.141016 0.0647032 -0.0501967 -0.0852303 -0.0757273 0.000701666 0.0858339 -0.0391549 -0.0368378 -0.0764857 -0.0428451 0.120414 0.0889183 -0.0563765 -0.0677743 0.102041 0.068966 0.00483549 0.0663305 0.127162 -0.0101198 0.0203699 0.0533585 0.00752696 0.059965 0.0189436 -0.0394799 -0.0950185 0.0278256 0.0841203 -0.144459 0.0454165 -0.0945652 -0.00312461 0.0293269 0.0906185 0.0842508 0.0658109 0.0203575
soup -0.00627771 0.0458664 -0.027326 0.013105 -0.00929465 -0.0709794 -0.00181619 -0.0827907 0.0455898 0.0510494 -0.038955 0.0358778 0.0277634 -0.066073 0.100557 -0.0362509 -0.011512 0.0108759 0.025291 0.0355283 -0.0347949 0.00642631 0.0245726 0.0541695 0.0917006 -0.00339779 -0.0631866 -0.0201328 -0.028158 0.00824047 -0.0187038 -0.0886427 -0.0242809 0.00279178 0.0839594 -0.0208904 0.00949858 -0.0400701 -0.00224711 0.00328864 -0.00517334 -0.0400701 0.0102703 0.0110983 0.0243581 -0.0434153 0.0322752 -0.00321294 -0.0732353 0.11025 0.0451373 0.0266076 0.0780516 0.0384103 0.0086003 -0.0383889 0.033489 0.0207088 0.0740651 0.0395426 0.0778671 -0.0613768 0.108605 -0.0150101 -0.00168832 -0.0662403 -0.0889279 -0.0745197 0.0748243 0.0453582 0.0153538 0.0206672 0.0733339 -0.134531 -0.0366262 0.0211902 0.0228935 0.017263 -0.0632853 -0.027341 -0.0335662 -0.0110374 -0.0197619 -0.0324018 0.0635576 -0.0459457 -0.0356183 0.0646534 0.0856148 0.0143443 0.0330343 -0.0630901 0.00860694 -0.1132 0.0461795 0.0695533 -0.0124287 -0.042371 0.0719722 0.0355176 -0.0372266 -0.0209185 -0.0507942 0.0207987 -0.00180418 -0.0185906 -0.0346426 0.0792696 -0.0171253 -0.0531595 -0.115591 -0.013372 0.025366 -0.0104329 -0.025529 -0.0729994 -0.0181128 -0.0578728 0.0490036 0.0396991 0.100034 0.0679665 0.0236097 0.0695533 -0.051845 0.025158 -0.0610959 -0.139591 -0.114148 0.0861316 0.0655841 -0.00456048 -0.0840451 0.0982732 0.0500179 -0.0844504 -0.0952217 0.0253489 -0.0241351 0.0135242 0.0705012 -0.0292516 0.0121671 0.0633861 -0.0295261 0.121711 -0.0164561 -0.0131889 0.0381058 0.0616148 0.0498056 -0.053479 -0.00157686 -0.0672567 0.0443632 -0.00778757 0.0488128 0.0740051 0.017424 0.0111631 0.0245468 0.0972975 -0.139969 0.0132652 -0.00112598 -0.0170842 -0.0805648 -0.0946449 0.187062 0.026569 -0.114922 -0.0827542 0.0368771 -0.0143511 0.0126577 0.0445261 0.0162412 -0.0499429 -0.0279436 -0.00424589 -0.0191436 -0.0292988 0.0273067 -0.0013672 -0.0444296 0.00740759 -0.00858207 -0.00782596 0.0426627 0.056346 0.0781716 -0.0884111 0.0165296 0.139756 -0.100259 0.00349707 -0.0174974 0.030088 -0.0511266 0.0270108 -0.0600494 0.0903604 0.0630044 -0.0536891 0.0252867 -0.00710373 -0.0337892 -0.0460658 -0.00444961 -0.00864168 0.204489 0.0051103 0.0375268 -0.0361995 0.0188142 0.0316319 -0.0332788 -0.074018 0.0684747 0.0338321 0.00367206 0.0512896 -0.0889086 -0.00728836 -0.192819 0.0122136 -0.0934011 0.0377799 0.000780408 -0.00343317 -0.0139135 0.0100885 -0.0428407 -0.0439064 0.0150656 0.0212709 -0.0109894 0.0303496 -0.0239636 -0.0125342 0.062241 0.0936027 0.115675 0.0718843 -0.0779937 0.0107962 0.116089 0.0118231 -0.114058 -0.0748478 0.00908021 -0.00380758 -0.0979301 -0.0508928 0.04387 -0.00721545 0.063326 -0.056331 0.0188531 -0.00365705 0.0289343 0.010922 0.0673489 -0.0021772 -0.0520744 -0.0398406 -0.0283103 -0.00779465 0.0249714 0.000696563 -0.10384 -0.102671 0.0505862 0.0833997 -0.0140546 0.00502259 0.076825 0.0619129 0.0345955 0.0148274 0.133098 0.0585547 0.0984876 -0.0272574 0.0188962 0.0186637 0.013461 -0.0212303 -0.00976492 -0.0260029 -0.0706277 -0.105526 0.0368235 -0.0190581 -0.126704 0.0787592 0.0806334 0.0567084 -0.0179799 0.0321401
hamburger -0.00934665 0.048336 0.0193197 -0.0144794 -0.0186855 0.0367988 0.0424541 -0.0922847 -0.0553578 0.0683854 -0.0238468 0.033268 0.0848389 0.00380751 -0.0168863 -0.103897 -0.00530445 -0.0438437 0.104846 -0.0334821 0.00426619 0.0181242 0.0165181 0.00317902 0.0342798 -0.0161835 -0.0468561 -0.0301633 0.0268256 -0.0269137 -0.0499755 -0.000729595 -0.0582169 -0.00237817 0.00804117 0.026137 -0.0200712 -0.0705643 -0.0349411 -0.0201059 0.0354826 0.0775211 -0.0228623 0.0146807 0.0662505 0.0114448 0.0372439 0.0559078 0.0577887 0.034431 0.0715426 -0.0493772 -0.0402772 0.0229127 -0.0305495 0.0259712 0.00679488 0.0268088 0.0266115 0.0404325 0.0492156 -0.16948 0.0630702 -0.0379618 -0.0709254 -0.0172757 0.111801 0.0952613 0.0562353 -0.143165 0.00446876 -0.100891 0.0659167 -0.06789 -0.0203674 0.0801388 0.0627574 0.0108465 -0.0829475 -0.100543 0.0761293 0.0621718 0.0119534 0.0271635 0.0698737 0.00398595 0.0582169 -0.00614014 0.0407978 0.0435205 0.0509432 -0.0703943 0.0237356 -0.0461025 0.0323653 0.00931433 -0.0680684 -0.0858759 -0.0996151 0.024825 -0.0619556 -0.0338495 -0.0339859 -0.0307175 0.0162238 0.0674617 -0.000588865 0.0299555 0.088059 -0.0202387 -0.0968588 -0.0831763 0.0218967 0.0321932 -0.0185424 -0.0714355 0.00369794 -0.0497551 -0.00833673 0.055425 0.0229925 0.0240903 0.0135505 0.0237146 -0.0200299 0.0100125 -0.0350082 -0.00762028 -0.00224782 0.103104 0.00898496 0.0257466 -0.00756654 -0.0162049 -0.0530781 0.013972 -0.0520747 -0.0233178 -0.0612355 -0.00300373 -0.012629 0.0283244 0.0625475 0.043321 -0.0723214 0.134264 0.024697 0.0225453 0.076589 0.00837767 0.00229358 0.0400526 -0.106116 -0.0656501 -0.0883487 -0.00130333 -0.00121323 -0.0761251 -0.126059 0.117011 0.0163378 -0.0147011 -0.0455 0.0864804 0.00309358 -0.0305726 -0.0445742 0.0291158 0.211452 -0.0291263 -0.141706 -0.0915311 -0.0555509 0.0276002 0.0573583 0.0729343 0.0346367 -0.0496354 -0.0232674 -0.0420636 -0.09189 -0.0711542 -0.00393745 -0.0531306 -0.109223 0.0233577 0.0463984 -0.0014763 -0.0233766 0.0520432 0.0165106 -0.0456343 0.0181866 -0.0537078 -0.0552633 -0.0726342 0.00412386 0.0192563 -0.0935967 -0.0682573 0.0880548 0.101378 0.0432245 -0.00310198 0.0410287 0.0532943 0.0239581 -0.0315991 0.075615 -0.00070027 0.087148 -0.028549 0.0430985 0.0662001 0.022474 0.0461214 -0.0852041 -0.104324 -0.0314963 -0.0016299 -0.0182311 0.0352433 -0.105117 0.0422798 -0.0479938 0.00220478 -0.00214411 0.00615546 0.0825612 0.00523602 0.0707869 -0.0485711 0.0136219 -0.0138301 0.00227489 -0.0412176 -0.010374 0.111121 -0.0495052 -0.00823702 0.0199992 0.0912813 0.124453 0.00902086 -0.0937289 0.0126575 0.11513 0.0355939 -0.0589411 -0.117502 0.0412953 0.0319707 0.00485144 -0.0479539 0.0516401 0.00582295 0.0422609 -0.0481282 -0.0798638 0.020431 0.0211557 0.123854 0.055721 0.0566908 -0.0407747 -0.00154958 -0.0239959 0.0347332 -0.0192391 -0.0424541 -0.125255 0.0966615 -0.00323737 0.103929 -0.018416 -0.0902065 0.0558805 0.0645397 0.0812933 0.036992 0.0806573 -0.0288408 0.0275498 0.0835457 -0.0335325 0.00122584 0.0465034 -0.0544929 -0.0625622 0.0927066 -0.0393703 -0.101271 0.0529794 0.0467217 -0.118766 0.00117815 0.0317125 -0.0120863 0.030285 -0.0399854
seafood -0.0359485 0.0224307 -0.0071854 -0.0147241 -0.0986139 0.0844231 0.0327011 -0.118196 0.0128563 0.0231095 -0.0421049 0.0526786 -0.000642597 -0.0993455 -0.00896444 -0.0481029 0.0355905 -0.0448985 0.010989 -0.0581405 -0.0043488 0.0186005 0.0859979 0.0126606 0.0613058 0.00561138 -0.0534963 -0.0113969 0.0678065 -0.00894566 -0.0221822 -0.00334464 -0.0611864 0.0483435 0.0832356 0.0705237 0.0351112 -0.0339003 -0.0844544 -0.0170466 -0.0144172 0.0814319 -0.00108583 -0.021742 0.0679473 -0.03973 0.0346359 -0.0550124 -0.0626634 -0.0293461 0.0401995 -0.020402 0.0405106 0.0563036 -0.0363672 0.0328146 -0.00535511 0.0466083 0.000198542 0.0467393 -0.063264 -0.0681097 0.063712 -0.0777796 -0.0820677 -0.0358527 0.00669046 -0.00907125 0.0423749 0.0358527 -0.0733095 0.0323509 0.141312 -0.105968 0.013637 -0.00667207 0.0769305 0.00135938 -0.00519117 -0.0493646 0.0811815 -0.017171 0.0313845 -0.050689 0.0364669 -0.0327383 0.0692248 0.16037 0.0751014 -0.00562155 0.0470582 -0.00622428 0.0168944 -0.0848241 0.0758937 0.0549792 0.0538347 -0.00714784 0.104809 -0.00358546 -0.0233677 -0.0732566 -0.085591 -0.0428483 -0.0285068 0.125935 0.0623093 0.101177 -0.0823885 0.0505071 -0.0968493 0.0280178 -0.0442157 0.0668303 0.00380867 -0.004474 0.028947 -0.010417 0.0780084 -0.0465946 0.0774744 -0.00724448 0.0110792 0.0204137 0.0204568 0.010963 0.0583029 -0.0227026 -0.0549185 -0.0181329 0.0338846 0.0126839 -0.0248447 0.0557167 0.0372749 -0.0427564 -0.081295 0.00381102 -0.0707507 0.0148168 0.00844876 0.0909296 0.0144035 -0.00452213 -0.0633285 0.140402 0.0208695 -0.00120563 0.100437 -0.000424062 0.0637609 -0.124996 -0.0352521 -0.0194734 0.0425764 -0.0349567 -0.0882417 0.00160113 0.0357861 0.00151476 0.0319088 0.0183984 -0.0419249 0.0423827 0.0562194 -0.0253944 -0.10668 -0.151349 0.187675 0.0388712 -0.0825861 -0.11309 0.0391979 -0.0613644 0.0201966 0.049662 0.0796791 -0.0252066 0.00243458 0.0282075 -0.055928 0.0115084 0.00999226 0.00297843 -0.0326561 0.0515361 -0.0254061 -0.0652516 -0.0619728 0.0669809 0.0580877 -0.0691915 0.0604059 0.0659656 -0.0821499 -0.00860742 0.0387264 0.0401095 -0.046886 0.0492649 -0.0728986 0.014255 0.0591402 -0.0167084 -0.0528781 -0.0467374 -0.0158182 0.047647 0.0173833 -0.0297393 0.107221 -0.0829343 0.0386521 0.00620511 -0.0664468 0.0100643 -0.0714158 -0.0641384 0.0290898 0.0571898 0.0523949 0.059418 -0.00609047 0.02926 -0.128516 0.0611864 -0.0673174 0.0464126 0.00575673 -0.0721729 0.00512798 -0.098027 -0.0806827 -0.070467 0.0361852 -0.029307 -0.074939 0.0339668 -0.0357685 -0.0031183 0.077314 0.0369971 0.0142178 -0.0129124 -0.0996077 0.00915537 0.0657622 0.0292678 -0.0249171 -0.0776172 0.0583968 -0.0447654 0.0819503 -0.0158789 -0.00604098 0.0293969 0.0652966 -0.0635163 0.00372357 0.0671042 0.0415376 0.105365 0.0239096 -0.0913111 -0.147274 0.0261671 0.0678143 0.0386619 -0.0458766 0.019094 -0.0101229 -0.00736968 0.0186967 0.0929133 0.000822536 -0.0558282 0.0965559 0.0860037 0.0468528 -0.0170624 0.111465 0.0827387 0.0157394 -0.00870816 0.0622428 0.0546818 -0.0120857 -0.0297823 -0.0493079 -0.00455949 -0.0151126 -0.0954838 0.132702 -0.0299193 -0.0426488 0.0700347 0.0851156 0.0497168 0.0361578 0.0193836
salad -0.0243637 -0.0175547 -0.0345669 -0.01274 -0.0802349 -0.00934672 0.052822 -0.114128 0.0653842 0.0337233 0.0138518 0.0406633 0.0837766 -0.0713031 0.0238693 -0.0526989 -0.0489373 -0.0777104 0.0283856 0.0155663 -0.0350411 -0.00124569 0.0806426 0.12111 0.023835 0.0476417 -0.051932 -0.0037382 -0.00304804 0.0218129 0.0118452 -0.0642521 -0.107192 -0.0793127 0.0119532 -0.0154105 -0.00203175 -0.0379128 -0.0770545 -0.0610757 -0.0299476 0.00913119 -0.026971 -0.0185546 0.0596046 0.00362015 0.0668756 -0.0487617 -0.0141823 -0.00263757 0.0193955 0.0188769 -0.0260669 0.0114681 0.0153691 -0.0515506 -0.0457488 0.011973 0.0643227 0.0625449 0.0793087 0.030327 0.0929122 -0.0486588 -0.015485 -0.0102978 -0.0406674 -0.0367988 0.0636043 -0.000251588 -0.0390186 0.00333742 0.0948435 -0.0298366 0.0491875 0.0401851 -0.0368049 0.0220914 -0.0956527 0.0157963 0.0109991 -0.0484348 -0.0386029 -0.0468506 0.0651925 0.0657071 0.0924279 0.0673054 0.137589 -0.018666 0.042417 -0.120686 0.0161679 -0.0785761 0.0989562 -0.0120912 -0.0691902 -0.00357757 0.0288357 0.0112858 0.0131673 -0.048907 -0.0488344 0.00528523 0.0370955 0.0340644 -0.0203256 0.0326598 0.0176461 -0.0337031 -0.0325993 -0.0167551 0.0594835 0.0514033 -0.0460273 -0.0765056 0.0157733 -0.0813812 0.0213851 0.0514114 0.120696 0.0643732 0.0239964 0.104647 0.0169949 -0.0457064 -0.0380359 -0.0445299 -0.0704737 0.0808908 0.0156418 0.047111 -0.0989905 0.0719368 -0.0199862 -0.0344639 -0.0557522 -0.045101 -0.0323712 -0.0659715 -0.0466085 0.114725 0.0293664 0.075995 -0.00736985 0.105006 -0.0127489 -0.0244 -0.00231307 -0.0224264 0.0498192 -0.00122763 -0.0622805 -0.0962985 -0.00441646 -0.00907408 0.0305167 -0.0186787 0.0429619 0.025629 -0.0365183 0.0810119 -0.112899 0.0634893 -0.0464753 0.0115324 -0.0789797 -0.0675395 0.205093 0.0345891 -0.108721 -0.114021 0.00412667 -0.063005 0.0742959 0.00714403 -0.0544021 0.00140136 -0.00623814 -0.00211328 -0.00788768 0.0535202 0.00610434 0.00195279 -0.0860186 0.0374264 -0.111135 -0.0668796 0.0796436 0.0342944 0.0115742 -0.0463502 0.0557602 0.0938889 -0.0224466 -0.0204205 -0.025627 0.00901071 -0.10092 -0.0260084 -0.0633662 0.0225071 0.0474964 -0.102276 -0.0137918 0.0185154 -0.00972389 -0.00642158 -0.00588014 -0.0387603 0.122153 0.0455954 -0.0198015 0.0132829 -0.0148979 0.0881214 0.0210037 -0.0687099 -0.0360098 0.0846726 0.0296469 -0.000617598 -0.14947 0.00695918 -0.109563 0.0330796 -0.0556815 0.0721628 0.0517666 -0.113395 0.0216676 0.0108346 -0.0387987 -0.0360542 -0.0221862 -0.0099382 -0.0451414 0.0399934 -0.0292211 -0.0682761 0.038724 0.0411517 0.0352833 0.049579 -0.158242 0.0840551 0.137474 0.0201198 -0.0582121 -0.056854 0.115425 0.0337496 -0.034137 -0.0454885 0.0499261 0.0482653 0.0537462 -0.0319979 0.0297458 -0.0139884 0.0797244 0.0573585 -0.00506042 9.94789e-05 -0.0881315 -0.00946679 -0.085278 0.0264039 0.0409136 0.040853 -0.0870256 -0.102264 0.025518 0.0419912 0.0134627 -0.0827837 0.0223174 0.0883979 0.0182238 -0.00318567 0.120485 0.0263636 0.0676222 -0.00425421 0.0147108 0.0144374 0.035699 -0.0129983 -0.00382599 0.00727359 -0.0616448 -0.0580527 0.109963 -0.0938183 -0.0897217 0.0666374 0.1027 0.0478738 0.00229733 0.0576168
spaghetti -0.0442033 -0.00310586 -0.0722783 0.0713375 -0.0020816 0.00196923 0.128465 0.0328566 -0.0394646 -0.1079 0.00777762 0.0933085 -0.0183791 -0.0715579 -0.000369504 -0.0309382 0.0070762 0.0200496 0.050897 -0.0369708 -0.0693559 0.00767252 0.0171364 0.0544602 0.0293831 0.0508317 -0.0502277 -0.0390911 0.0169246 -0.04464 -0.0484359 -0.0425156 -0.131994 0.0256383 0.0989452 0.0366116 0.0383728 -0.0843271 -0.08057 -0.076419 -0.0246587 0.027473 -0.0632356 -0.0698579 -0.0455808 0.0223465 -0.0859127 -0.09118 -0.0423645 -0.030377 0.0581173 -0.109823 0.00347851 0.0531011 0.0194456 0.158344 0.013664 0.00531807 -0.0110206 0.049093 0.0285117 -0.0759823 0.0230914 0.0153993 0.0233424 -0.0347014 0.041436 0.0249791 -0.0501032 0.0151087 0.0386422 0.0146436 0.0325586 -0.0422972 -0.0281546 0.0504154 -0.0532031 0.00237771 0.00116671 -0.0353647 -0.0506807 0.0305831 0.0118692 -0.0178493 -0.0357075 0.10858 0.068162 0.0535745 0.00980738 -0.0326464 0.0240281 -0.0687192 0.0495746 -0.137744 0.0662784 0.0254751 -0.0800169 0.0243955 -0.0385054 -0.0256832 0.00174493 -0.0355279 0.0155979 0.0719518 -0.0114208 -0.00808679 -0.0748538 0.0711967 0.0146503 -0.0740089 -0.0974166 -0.0487746 -0.0361993 0.00641417 -0.0250485 -0.0336157 0.0822761 -0.0541215 0.0281281 0.0749701 0.10381 -0.0237322 0.0616601 0.0249853 0.0140302 -0.0467032 0.0116533 0.00556521 -0.0865556 -0.0596867 0.0609622 0.0871719 -0.137159 0.0970207 0.024524 0.0215261 -0.103092 -0.0162256 -0.0199164 0.0365279 0.0223098 0.0379952 -0.0318341 0.0472236 -0.0999839 0.153416 -0.10209 0.0446278 -0.118218 0.0606152 -0.0185295 -0.118665 -0.0310096 -0.0334586 -0.0456278 -0.0275791 0.0693294 -0.100161 0.00168081 0.113947 -0.0200186 0.00896229 -0.0558643 -0.0134263 0.0131626 -0.0141204 -0.0322321 -0.0879862 0.096433 0.0227812 -0.123249 -0.0411033 -0.0041585 -0.00322178 0.0820842 0.0885025 0.0341749 -0.0329851 0.0143677 -0.0138165 0.00949554 -0.0142004 -0.0134996 0.0227649 -0.023469 -0.104125 -0.105216 -0.0298689 0.0421911 0.075815 -0.0177697 -0.114837 -0.00347524 0.0268607 -0.120904 0.0179042 -0.143508 -0.00382932 -0.098788 -0.0108682 0.0121716 0.0922045 0.0318607 -0.00863495 0.0183258 0.00178593 -0.00273097 -0.109876 0.0117106 -0.0115396 0.127116 0.0389197 -0.00961248 0.0233077 0.141669 -0.0220894 -0.079168 -0.0483236 0.0195909 0.0333667 -0.0927392 -0.0201843 -0.0582867 0.0505624 0.0153634 0.0198207 -0.0116986 0.0303178 0.0226894 0.0173507 -0.0397115 -0.0298362 0.0619724 -0.0149203 -0.0398768 0.0212119 -0.0817026 0.0265607 -0.0964717 -0.0612765 0.0382503 -0.0144379 0.059452 0.066907 -0.0276566 0.0499562 0.0940881 0.0384687 0.0241179 -0.0684661 0.0278873 -0.0302301 -0.069162 0.00905637 0.0305137 0.0555296 0.0292872 -0.017087 -0.0532154 0.0175781 0.0293893 -0.00379952 0.0441461 -0.00363851 -0.0987023 -0.00745803 -0.0571888 -0.0207262 0.0256322 0.0149573 -0.132528 -0.0713763 -0.00254791 0.103978 0.050344 -0.0430931 0.110384 0.0105419 0.0313403 -0.0268261 0.0301933 0.0907759 0.0732028 -0.0631662 0.076615 -0.027422 0.0473951 0.0542296 0.0633703 0.0257077 -0.0577439 -0.0799884 0.103176 0.0500481 -0.0186588 -0.0127573 0.0427747 0.0403605 -0.0301627 -0.016064
pasta -0.0625711 0.0876581 -0.0548758 -0.000524942 0.000728465 0.041073 0.0899497 -0.0820457 -0.00323792 -0.0290236 0.0250849 0.0341797 0.0172337 -0.00262225 -0.0426975 -0.104739 -0.0122904 -0.0283627 0.00677927 -0.00536482 -0.0835311 0.0149871 0.0791832 0.0555633 0.0368048 -0.0297725 -0.0312477 -0.0311229 -0.0231555 0.00223432 0.00792548 -0.0707083 -0.0775013 -0.0349818 0.0136011 -0.0399517 -0.0374575 -0.0522691 -0.108542 -0.0829071 -0.0173055 0.0432786 -0.0074156 -0.0750624 0.0556062 -0.0542088 0.0569587 -0.0602918 -0.00869419 0.04343 0.0268138 -0.116993 0.0144598 0.0117623 -0.0415088 -0.0276118 -0.0372366 -0.00137116 0.0335905 0.06332 0.0106353 -0.098267 -4.8803e-05 -0.0519929 -0.0319679 -0.0991059 -0.0678991 0.0378156 -0.0759688 -0.0204915 -0.0357 -0.00820927 0.115569 -0.0360908 -0.00931272 0.0492123 -0.0514404 0.0129343 -0.0586467 -0.00483816 -0.0479028 0.0646151 -0.00833981 -0.0322237 -0.0239616 0.0607644 0.0454577 0.077663 0.104782 0.0119759 0.0678234 -0.077751 -0.0732578 -0.0951283 0.113287 -0.0350882 0.0575009 -0.0182338 0.0591153 0.0011403 0.0273663 -0.0668167 -0.0325879 0.0631788 -0.00751749 -0.00623358 -0.0599992 -0.0598846 -0.08224 -0.0329807 -0.0490527 -0.0554876 0.0439109 0.0374228 -0.0100716 0.0211155 0.0465749 -0.0632852 0.0595409 0.0929717 0.0583521 -0.00708045 0.00509719 0.01689 0.015435 -0.0234562 0.0387159 -0.0856345 -0.0778246 0.0118654 0.0807157 0.0187687 -0.059547 0.0424377 0.0361583 -0.0160108 -0.0833163 -0.021494 -0.0843639 0.0235258 -0.0179173 0.0481012 -0.0195969 0.0753918 -0.0547367 0.0732312 -0.0494598 0.0619041 -0.0444715 0.0691861 0.0748128 -0.0437738 0.0337378 -0.002984 0.0175332 0.00875128 0.0762021 -0.0397798 0.0261632 0.0581618 -0.0381184 0.00582764 -0.113445 -0.0107534 0.0498097 -0.0164744 -0.0967938 -0.0318554 0.100018 0.0248639 -0.171071 -0.10951 0.00577976 -0.0575971 0.0195955 0.0441544 0.032236 -0.0667533 0.0567582 0.0217191 0.0628842 -0.0593669 0.00930454 -0.0273438 -0.0707431 -0.0577362 -0.0968102 -0.0144257 0.00312047 0.0398965 -0.0264926 -0.0443508 0.0659655 0.0535213 -0.108968 -0.0492736 0.000519458 0.0259033 -0.0660208 -0.0108477 -0.0296518 0.03144 0.110584 -0.0957012 -0.0298993 0.0107869 -0.020222 0.0191887 0.0587511 -0.0400683 0.196964 -0.00201404 0.0313111 0.0096446 0.0805377 -0.000411446 -0.0547387 -0.000682653 -0.0316651 0.0175697 0.0269693 0.0184978 -0.0840795 0.0495601 -0.0705447 0.0673282 -0.108708 0.0109784 0.0556083 -0.084904 0.00763964 -0.0616319 -0.0426628 -0.0500982 0.00344703 -0.00980317 -0.0215472 0.0530425 -0.0246962 -0.0958014 0.100198 0.0448337 0.051733 0.0607153 -0.148218 0.100485 0.147772 0.00701559 -0.0301981 -0.0780006 0.0191335 0.0170117 -0.0122797 0.0129846 -0.0680832 -0.00133331 0.0866268 -0.00428674 0.0442157 0.0589905 0.0238102 0.0829071 0.0728833 -0.0481606 -0.0985084 0.000899926 -0.0327986 -0.00919364 0.0547674 0.0465953 -0.0963416 -0.0899067 0.01286 0.0958628 -0.0317306 -0.0592749 0.107505 0.0737918 0.0390207 0.00249315 0.147303 0.0864161 0.0400642 -0.00780292 0.024244 -0.0267832 -0.0299975 0.0209641 0.00504154 0.0710419 -0.00161689 -0.071713 0.0957708 -0.0517146 -0.0491672 -0.0186572 0.0879772 0.103415 0.022556 0.0746327
steak -0.0222464 0.069585 -0.0520491 -0.00588061 -0.03951 0.0397645 0.0498033 -0.0315965 0.0650145 0.0288535 -0.046415 0.0437232 0.0165411 -0.111234 0.002332 -0.112262 -0.00630569 0.00457105 0.0347461 -0.0032974 -0.0875944 -0.0170346 0.0156789 0.0422451 0.0122137 -0.0306887 -0.0923879 -0.0028143 -0.0180707 -0.0112162 -0.110119 -0.0200796 0.010976 -0.0825425 -0.00307973 0.00250428 -0.0140597 -0.0312156 -0.0970531 -0.00198013 0.0282673 0.070621 -0.0496928 0.00527576 0.0551474 -0.0210367 -0.00361532 0.00523826 -0.0725056 0.023389 0.0246895 -0.0606828 0.0565978 0.034752 -0.0234818 0.0247329 -0.0436778 -0.0118581 0.00387147 0.0529154 -0.0153167 -0.0957644 0.119834 0.0468254 -0.0345961 0.000551059 -0.0070031 -0.00262189 0.0117107 -0.0115169 0.017777 -0.0364728 0.0618018 -0.101904 0.0629977 0.057405 -0.00729161 0.0900967 -0.0388785 -0.0296626 0.0453848 -0.0358236 0.0378424 -0.0475971 0.0185123 0.0453888 0.010235 0.0521951 0.111317 -0.0140839 0.0283542 -0.0864597 0.000918116 -0.0111055 0.0529036 0.0193581 -0.0215616 -0.00948409 -0.0245948 -0.014762 0.00389495 -0.0427326 -0.0613005 0.0563255 0.0427483 0.115935 0.0674655 0.0161028 0.0260433 -0.0350105 -0.0464327 -0.033043 -0.0479108 0.0286956 0.0289837 0.00858006 0.0855066 -0.141891 -0.0139318 -0.00316241 0.0768472 -0.0308052 0.0279792 0.127868 -0.0173796 0.00848751 0.0121518 -0.083243 -0.0316735 0.0464683 0.0288436 0.0901895 -0.0539554 0.0947481 0.000517334 -0.0642133 -0.0598283 -0.0625596 -0.142221 -0.0636647 0.00761032 0.0594968 0.0431726 0.100128 -0.0646948 0.0970077 -0.0223885 0.00431332 0.0132634 0.0724227 0.0368577 0.0559506 -0.0785798 -0.0688173 -0.0475536 -0.0151565 0.0258144 -0.030815 0.0842968 -0.00298915 -0.0273734 0.0270537 -0.0832588 0.0498468 -0.0246224 0.0380595 -0.113539 -0.0261183 0.188525 -0.00547487 -0.0583364 -0.14855 -0.00165111 -0.0563255 -0.0424661 0.140577 -0.0488502 0.000147298 -0.0716117 -0.0367728 0.0347481 0.00677556 0.00999145 0.0145151 -0.091711 0.000892205 -0.053245 0.00512321 0.00146706 0.111323 0.0152631 -0.0273319 0.0115666 -0.0154505 -0.0936825 0.0271662 -0.00211512 0.0546836 -0.0591001 -0.0294317 -0.0650145 0.0376766 0.0571583 -0.0408696 0.0166277 -0.0428293 0.0226155 -0.0386634 0.0114147 -0.144944 0.146665 0.0153219 0.00190353 -0.000211512 0.0338817 0.0235449 -0.0941344 -0.0598796 -0.00241093 0.0438594 -0.0107293 0.0187006 -0.0869373 -0.0523234 -0.0619103 0.0612808 -0.0489094 0.0446369 0.00561795 -0.063122 0.0579575 -0.0458308 -0.000357308 -0.0177454 -0.0158215 -0.00656677 -0.114628 0.0840521 -0.0930707 0.00259032 0.049977 0.0844488 0.0518971 0.0431864 -0.103394 0.0176641 0.147466 0.0368044 -0.0225898 -0.124344 0.0317307 -0.0139036 0.00526747 -0.0450336 0.000244172 -0.0273319 0.0595185 -0.111327 -0.0375701 0.0394843 0.0652671 0.110536 0.0394448 0.0310301 -0.120272 0.0466972 -0.00479641 0.0432595 0.0148149 0.0779996 -0.101811 -0.0249263 0.0339646 0.0529885 0.00426753 -0.0796376 0.0813821 0.124945 0.0776898 0.0286778 0.0980911 0.0370708 0.0161789 -0.0422708 0.067724 -0.0208769 0.0378898 -0.00586877 -0.0479562 0.0396284 0.0232627 0.00631891 0.0321866 -0.0439581 -0.0984601 0.0677911 0.141818 0.0792311 -0.0209459 -0.00345705
carrots -0.0669324 0.016859 -0.0583867 0.0105243 -0.0388078 -0.00768548 0.0423587 -0.0797811 0.0500334 0.0285309 0.0197289 0.0807904 0.0332771 -0.0630551 0.0777431 -0.0807451 -0.00287708 -0.0624564 0.0673884 -0.00374872 0.0115412 -0.0814626 0.0589162 0.0558407 0.0416434 0.099265 0.0203568 -0.0483952 -0.00173961 0.0101482 0.0367351 -0.0164306 -0.113253 0.0311288 0.0993947 0.0230932 0.0167189 0.000569019 -0.00657934 -0.0352633 0.00395167 0.0146592 0.00777279 -0.0361429 -0.00146655 0.0506775 0.0329572 -0.0536211 -0.00680778 0.00519807 0.0474204 -0.00432254 -0.0342972 -0.0212956 -0.0390952 0.0418724 -0.0134913 0.0341697 -0.042845 0.10442 -0.0268041 -0.0101757 0.0849747 -0.0543797 -0.0237697 -0.0336704 -0.00889276 0.031226 0.0549784 0.0451619 -0.0223454 0.0122434 0.13141 -0.0120912 -0.00530246 0.0523957 0.0251918 0.0609997 -0.0789987 -0.0111176 -0.00680195 -0.0303594 -0.0319112 0.0164866 -0.0466489 -0.033249 0.0838746 0.0719098 0.17409 -0.0303075 0.0962846 -0.0216451 -0.0809352 -0.0725776 0.0250902 0.00318982 0.00223519 -0.00584343 0.0385722 -0.028853 0.0628649 0.0162757 -0.0806132 -0.0192513 -0.000320927 -0.0188601 -0.0463268 0.0185085 0.0206475 -0.0225442 -0.105805 0.055201 -0.0130074 0.0936284 -0.0745422 -0.0232898 0.0391644 -0.0415331 -0.0210642 0.0903476 0.0241327 -0.0275389 -0.0104586 0.0849941 0.0108107 -0.0727721 -0.0538394 -0.0911062 -0.0510773 0.0758238 0.0257904 0.0405346 -0.124448 0.0704898 -0.0286217 -0.0107484 -0.0189146 -0.0451295 -0.116894 0.014854 -0.0044775 0.0604226 0.0231667 0.00846699 0.0241716 0.0558062 -0.0313903 -0.0472324 0.005173 0.0859451 0.112397 -0.058793 -0.0104417 0.0443752 0.0374289 -0.0309624 0.03211 0.0542933 0.0390931 0.0137277 0.00324861 0.0582008 -0.10102 0.0346884 -0.0207497 -0.0328729 -0.0790333 -0.0957183 0.220082 -0.0592404 -0.119322 -0.150161 -0.0294127 -0.00561801 0.0602303 0.11297 -0.0908987 -0.0887915 -0.00659663 -0.0265944 0.0335969 -0.0188467 0.0220406 -0.0283343 -0.0725884 -0.0159158 -0.0349715 -0.0851432 0.0486524 -0.0511789 -0.0151047 -0.0950635 0.0188076 0.0902395 -0.0450279 0.0105537 0.00196805 0.03471 -0.0868614 0.056662 -0.0682724 0.0449004 0.0639822 -0.0287924 0.11533 -0.0130558 -0.0899672 -0.055255 -0.0369577 -0.0436577 0.135708 0.0109957 -0.00727073 0.128122 -0.0547925 -0.0355615 0.00691412 -0.0348678 -0.0413991 -0.0024444 -0.033504 0.0115885 0.0217121 0.0420691 -0.129974 0.0127995 -0.0153078 -0.00340789 0.00973847 -0.0420929 0.0145252 0.0240247 0.00993925 -0.0631696 0.0389007 -0.0385333 -0.0165357 0.0574617 -0.0451597 0.00257494 0.011817 0.0476387 0.017194 0.00102833 -0.113194 0.0395945 0.187942 -0.0451986 -0.00647063 -0.0360997 -0.00263934 -0.0933539 0.00132086 -0.0585683 0.108139 0.0484665 0.0440597 -0.0417557 0.0510427 -0.0168456 -0.028049 0.0382674 0.0178785 0.0137749 -0.111141 -0.0445892 -0.0818711 0.0543992 0.0399597 -0.0215275 -0.0412349 -0.0822558 0.0988111 0.0192035 -0.0579328 -0.0756099 0.0434848 0.021432 0.0221055 0.0450668 0.165188 0.0169381 0.0488944 0.0495579 0.00711577 -0.0268322 -0.00358987 -0.00586742 -0.0396031 -0.0445092 0.0123348 -0.100758 0.0469298 -0.0790247 -0.0813027 0.110517 0.0259871 0.0578291 0.0695 0.0574206
gnocchi -0.0358243 -0.0627871 -0.026743 0.00186444 -0.0243529 -0.0282777 0.117917 -0.0433017 0.0473572 -0.0215647 0.040565 -0.0176127 -0.0635337 0.005028 0.0181803 0.0222736 0.0197666 -0.052488 -0.033353 -0.0277232 -0.0469096 -0.0257964 0.039058 0.00651198 0.00694783 -0.0403155 0.012904 -0.0918074 -0.00910549 -0.0528266 -0.0593593 -0.0325213 0.00607772 -0.0633515 0.0528979 -0.0425492 -0.0546068 0.0279173 -0.105871 -0.0578266 -0.0413155 0.0208736 -0.0134519 -0.0594584 0.00689694 0.0158822 -0.0114364 -0.00106117 -0.158476 0.0948431 0.0527573 -0.0861004 -0.0485275 -0.0162339 -0.0757794 0.0398481 0.00483552 0.0114041 -0.023741 0.0391452 0.0159284 -0.0674407 0.0426997 -0.0570167 0.0882944 -0.0821617 0.00279232 0.0165424 0.0476641 -0.0241271 -0.0663278 0.0344698 0.112984 0.0502424 -0.0495334 0.0218023 -0.0290282 0.00893598 -0.0343431 -0.0329154 -0.0311945 0.0861221 0.0336183 -0.0178896 -0.103821 0.0500958 0.0215964 -0.00162401 0.107871 -0.0244162 0.0899974 -0.0734685 -0.0405531 -0.0323391 0.157391 -0.0362877 -0.0146182 -0.0566009 0.00708764 0.00734586 0.00562009 -0.0558147 0.00709496 0.0458977 -0.000184476 0.0684842 -0.0393788 -0.0599356 -0.0363887 0.0263509 -0.0487156 0.0240816 -0.0141218 0.0456284 -0.0640347 0.012063 -0.0865835 0.00146297 0.055991 0.0619792 -0.0332797 -0.00751873 0.00464661 0.0242974 -0.0198835 -0.0324183 0.00947104 -0.0932213 -0.056086 -0.00581851 -0.0271034 -0.0335471 -0.10458 0.0541632 0.0475196 -0.064601 -0.0444819 -0.0615475 -0.0613673 0.0409076 0.0105693 0.0701932 0.0177706 0.0471493 -0.0720487 0.127489 -0.0853201 -0.0459096 -0.0339649 0.0703813 0.0594049 -0.0440819 0.0628465 0.0521988 -0.0132054 0.00244538 0.0685753 -0.0880093 0.0569791 0.0666902 -0.0726011 -0.00994134 -0.0932609 0.0360679 0.0761477 -0.0301747 -0.031149 0.00148757 0.118277 0.0576306 -0.0900806 -0.0536919 0.0254875 -0.0322064 0.0361491 0.089437 -0.0367867 -0.0362164 0.00411016 -0.0026747 -0.00814666 -0.0393095 0.0780646 -0.0122144 0.0197171 -0.0614128 -0.100926 -0.0137905 0.0999105 0.029648 0.0034357 -0.10775 0.0439274 0.129297 -0.127432 -0.068203 0.0420165 0.0912311 -0.0243449 0.067912 -0.0670268 0.0951995 0.0329154 -0.0874311 0.0241251 -0.0528682 -0.00841637 -0.0889875 0.0316302 -0.0295213 0.20028 -0.0105479 0.0636208 0.045575 0.0826765 -0.0166933 -0.0414363 -0.0349293 -0.0496384 0.0555118 0.0601495 -0.00899559 -0.0669357 0.00923678 -0.052783 0.00648287 -0.11978 -0.0481988 0.0397887 -0.0402541 -0.00513038 -0.0401472 -0.0582643 0.00846964 -0.00320144 0.043064 -0.0449255 -8.55835e-06 -0.0841498 -0.00980352 0.0666704 -0.00177015 0.0700466 0.0477928 -0.155719 0.0297589 0.125766 0.0328995 0.0049373 -0.0288024 -0.0413016 -0.00856548 -0.0415888 -0.0143347 0.0716764 0.0306223 0.016666 -0.0393947 0.0486384 0.0144272 0.0974946 0.0743517 0.169626 0.0189518 -0.0868528 0.0660664 -0.00488958 0.0699951 0.0500008 0.0394937 -0.0970174 -0.0382461 0.0262143 0.00904212 0.00314203 -0.049278 0.0717081 -0.0251786 0.0450403 -0.0513592 0.0904628 0.0246241 0.0884786 0.113186 0.0198498 -0.0803973 0.0356065 0.0597197 0.0261568 0.0358105 -0.0616029 -0.114897 0.0945777 -0.00293549 0.0250519 0.0025838 0.0201171 0.0701714 0.00701377 0.0697258
