15 300
flower -0.0149877 0.00171249 -0.0196836 0.00571607 0.034386 0.0281637 0.0154356 -0.0425362 0.0322551 0.00131175 0.0850257 0.0485041 0.0812027 -0.0184816 -0.0389699 -0.0907508 -0.070861 -0.0561991 -0.0261192 0.0740795 0.010422 -0.0217176 0.00450312 -0.0123249 -0.0190312 0.0349182 -0.0312772 -0.0314779 0.0483757 -0.0917871 -0.124777 0.0313566 -0.0339729 -0.0648767 -0.00967491 0.00675794 0.0140228 -0.01349 0.035546 0.0365449 0.0152958 -0.139171 0.00337699 0.021122 0.00799913 0.0375579 0.013128 0.0399338 0.0058351 -0.079849 -0.0214854 0.0549108 -0.0542082 -0.0368927 -0.0192158 0.0731482 -0.0191675 0.0118058 0.147377 0.063495 0.00354993 0.057044 0.0528732 -0.0180633 -0.00765161 -0.00467933 -0.0319447 0.00172647 0.0116702 0.0345191 -0.0576695 -0.0285605 0.0357234 -0.0408697 -0.0479836 0.0491973 0.105189 0.0261192 0.008117 0.0183691 -0.0470057 -0.0230001 -0.0889887 -0.0482077 -0.0173113 0.0750247 0.0266653 0.0642442 0.124598 0.0163502 0.0245438 -0.039425 -0.0141778 -0.010879 0.0500421 -0.125774 0.0840314 0.0919225 0.0400482 0.00130552 0.0974493 -0.00536668 -0.0130048 0.0150694 0.0402069 -0.0581666 -0.175844 0.0440579 0.0346544 -0.0464946 0.0664358 -0.0195382 0.0874553 -0.00738694 -0.0873946 -0.0891918 0.00569203 -0.0439716 -0.0929027 0.117421 0.0992417 0.0461561 -0.0357514 -0.024252 0.023072 0.00636374 -0.0476685 -0.0123951 -0.0313636 0.0517763 0.00591375 0.0324209 -0.0741051 0.0616955 0.0537415 0.0203485 -0.0239953 -0.109959 -0.0968821 0.0398195 0.0462051 0.026768 0.0577068 0.0326286 0.0417076 0.0435748 -0.00814921 -0.0224213 -0.0391403 0.0600571 0.0142074 -0.0772069 0.026705 0.0026558 -0.0177417 0.0062216 -0.0478366 -0.0667789 0.0859079 -0.0109411 0.00574454 0.0623771 0.000172409 -0.0414322 0.0881135 0.059546 -0.0566029 -0.0519233 0.0899526 0.0479649 -0.0517156 -0.0995498 -0.0986793 -0.127823 0.0550975 0.0188025 0.0285652 -0.0435188 -0.0315503 0.0112027 -0.0270668 -0.007467 -0.0358144 -0.0333684 0.0142119 -0.11599 -0.00818235 -0.0662794 0.0948142 -0.0366033 0.0538862 0.00294357 0.104316 0.115024 -0.108318 -0.0734049 0.0127142 -0.0353546 -0.0874716 -0.00373875 -0.139358 -0.0413295 0.0163049 0.10489 0.027816 -0.100523 -0.0274052 0.00811 0.0508427 0.00168226 0.0815201 -0.00127398 -0.087656 -0.0979744 0.0337045 -0.0233791 0.0745019 -0.0326052 -0.0197148 -0.0556646 -0.00305817 0.038195 -0.0156893 0.0770459 -0.134631 0.0350582 -0.0873619 0.105287 -0.022457 -0.0666855 0.0349065 0.0389629 -0.00144938 -0.0112232 -0.050775 -0.163703 -0.0353593 -0.00371611 0.0205523 -0.0254937 0.0200059 0.0461655 0.0597304 -0.0190455 -0.0320824 0.0602998 -0.0114529 -0.0607153 -0.051998 -0.0342647 0.0308991 -0.0547894 0.0393363 -0.071134 0.0781242 0.00752301 -0.0643166 -0.0203772 -0.00387832 -0.01972 -0.0294334 -2.63689e-05 -0.0364119 0.00791931 -0.00949379 -0.0417963 -0.0811233 0.0381927 0.0078731 -0.00747073 -0.0763037 0.0581013 -0.0353149 0.0210816 -0.064676 -0.161521 0.0262639 -0.0161644 -0.0925223 0.0680532 0.119419 0.0777064 -0.0919458 0.0333241 -0.0236639 0.0896936 -0.0135037 0.120555 -0.0376396 0.00138914 -0.0606056 -0.119398 0.0745603 -0.0104586 -0.00544953 -0.0493396 -0.0435841 0.0388999 0.058372 0.0846639
composite -0.0508891 0.0264576 0.0559638 0.0979705 -0.000653089 0.0765021 -0.0424171 0.00480137 0.00285762 -0.0765781 0.0646494 0.111145 -0.00331289 -0.039824 0.0569579 0.0177436 -0.04348 -0.0499212 0.109311 0.0949171 0.0282227 -0.101532 0.0374065 -0.11793 -0.0552782 0.0153979 0.0500398 -0.044996 -0.132352 0.000947202 0.0488464 0.0679803 -0.00263224 -0.0209352 -0.0147014 0.00446709 -0.0451241 0.0139816 0.035378 -0.0860228 -0.0650906 -0.0150304 0.00614205 0.015351 -0.046856 -0.0060545 -0.0425144 -0.0338193 0.112298 -0.0423175 0.0201742 -0.044716 0.0616601 0.0133469 -0.0322322 -0.00087814 0.0470197 -0.0407564 0.0142091 0.00280139 -0.0415132 0.0809979 0.0243271 -0.0416413 0.0802696 -0.0848532 -0.0573114 -0.148686 -0.0395654 -0.00893561 -0.0627229 0.0289677 0.0849884 -0.0694773 0.0548037 0.0797073 0.0688391 -0.0219331 0.00223627 0.012271 0.0247494 0.0363128 -0.0810193 0.0470861 -0.0577526 0.0128414 0.0404669 -0.101989 0.00896669 -0.102037 -0.0154959 0.00885376 0.0555012 -0.0176171 0.0127598 -0.0863027 -0.132001 0.0334943 -0.0335109 -0.0706801 -0.0750146 -0.0431953 0.0740063 -0.0153578 -0.0218387 -0.122801 -0.0837263 0.0580445 -0.00759043 0.00627016 -0.0519022 0.0262227 -0.0449343 0.0140395 0.0754583 -0.0538974 0.00590694 0.0396508 -0.0314374 0.0598309 0.0342084 -0.0517812 -0.0809315 0.0733302 0.0426116 0.0304006 -0.00441751 -0.000500279 0.04492 0.112573 0.0202508 0.00198484 0.0308277 0.0479046 -0.0326426 -0.0102034 0.0102077 0.0304243 -0.0279451 0.0317885 0.0649696 -0.0247067 0.0974272 -0.0122355 0.0526495 0.0617289 0.0280139 -0.026161 -0.0861723 0.0305833 0.0292974 -0.0854297 -0.0959207 0.0272192 -0.0300851 0.0625094 0.0908199 0.000171471 0.0340186 -0.053608 -0.0666327 0.00823882 0.0151239 -0.010197 -0.0195298 0.0632306 0.0634726 -0.0708842 0.0769268 0.0447611 -0.0901888 -0.0773491 -0.058946 0.0215654 -0.0270483 0.0394088 -0.0956882 0.0124124 0.0313757 0.0121977 0.050799 0.028868 0.0513731 -0.0227684 0.0605901 -0.0327565 -0.0574751 -0.0180537 0.0313496 -0.0398074 -0.0317316 -0.0224738 0.0537954 -0.0282369 0.00430577 0.0250958 0.0860845 0.09026 -0.106718 -0.0717145 0.00828864 -0.0142667 0.0201846 0.0434017 -0.0588345 -0.046977 -0.0851711 0.000682294 0.121318 -0.00289273 0.109591 -0.01448 0.0490505 0.0504763 0.0311361 -0.0694014 0.0422937 -0.0799683 -0.0520303 -0.0760751 0.0426947 0.110689 -0.0754796 0.152947 -0.0214662 -0.00242987 -0.150539 0.0442581 -0.0275062 0.0335821 0.0251575 -0.00550623 -0.138267 -0.0706706 -0.0610598 0.0798639 -0.0220745 -0.00331954 0.0124146 -0.0215986 0.04306 -0.0534016 -0.0626304 -0.00116651 0.00976763 -0.097171 -0.0164072 0.0100924 -0.0395464 0.0132853 0.0104122 -0.0543624 -0.0481157 0.129833 -0.0585996 0.0701653 0.0132836 0.0309154 -0.037983 -0.050417 -0.0962386 -0.0327114 0.0585854 0.066303 -0.100768 -0.0788414 0.0366449 0.0211013 -0.0402131 0.074189 -0.00824309 -0.0176632 0.0356722 -0.0497314 -0.0933039 0.00213089 0.0644026 0.120509 -0.0181018 0.0400921 -0.0041117 0.0479117 -0.0342653 -0.144869 0.0854748 -0.0501798 -0.0236154 0.00739162 -0.112433 -0.026403 0.0230377 0.0402653 -0.0171948 0.0458714 0.0116523 -0.01348 -0.045888 0.109842 -0.0603362 -0.0537788
lily -0.0248115 -0.0162435 -0.0285848 0.0567021 -0.0670391 -0.063961 0.0657877 -0.00196479 0.0707644 0.0654976 0.0257153 0.0105287 0.0522337 -0.0838198 0.0173024 -0.0956646 -0.023541 -0.0879958 -0.0303899 0.0968608 0.0328303 -0.0122128 -0.0424481 -0.0457539 -0.00884129 0.0893023 -0.0290858 0.0706733 0.0369728 -0.029467 0.0132088 0.0127864 -0.0544128 -0.0725887 0.054034 -0.0148421 -0.0429036 0.0448669 0.0515217 0.041796 0.101885 -0.141864 -0.0555994 0.0541946 0.0510183 -0.000972995 0.0248882 -0.0246509 0.0148754 -0.0930324 0.00862338 0.0508672 0.0322214 -0.0664565 0.0171269 0.0643829 0.0481871 -0.0276523 0.0514282 0.035067 0.0909133 0.0567333 0.0248691 -0.105824 -0.0338444 0.103365 0.00161256 0.0297379 -0.0378741 0.0251447 0.00539525 -0.0540747 0.092378 -0.0622302 -0.0486522 -0.00364166 0.0754199 0.079452 0.00550265 0.0041343 -0.00943893 -0.0512963 -0.0755757 -0.0123664 -0.0353307 0.012541 0.0225773 -0.0242098 0.0407436 0.0129749 0.0720469 -0.0314927 0.0334272 0.141814 0.0475255 0.0248235 -0.00185945 0.140146 0.0102986 -0.0493522 0.0599768 0.0955687 -0.0222407 -0.0475734 0.0293639 -0.0938787 -0.0805116 0.0015743 0.0562155 -0.0112556 0.0715723 -0.044246 0.0721572 0.0199708 -0.0726223 -0.0557097 0.0276211 -0.0526364 0.00611586 0.0109346 0.0451714 0.0462525 -0.0105776 0.0114809 0.15153 0.0205557 -0.0725527 0.0159458 -0.0319026 0.0725791 -0.0774695 0.0285129 -0.006451 0.0201266 0.0441453 0.036407 -0.0107871 -0.000654904 -0.0094303 0.00892664 0.0435964 0.140086 0.0177538 0.00759281 0.0274006 0.00922102 -0.0253365 -0.0407484 0.0245934 0.0305649 0.0693069 0.00247947 -0.0734277 -0.063798 -0.0175776 0.0302413 0.00116787 -0.087526 0.109444 0.019628 0.0677846 0.0985869 -0.0566254 0.0567381 0.0082415 0.048247 0.000190471 -0.0202949 0.0356159 0.080653 -0.0594494 -0.0154011 -0.178698 -0.0734301 0.0221825 0.0379221 -0.0642918 0.0102212 0.0420238 -0.001741 -0.00668137 0.0170392 0.0286112 -0.0669863 -0.0193976 0.0169008 -0.0435652 -0.0549977 -0.00349375 -0.0810318 0.0438888 -0.13333 0.0211622 0.214796 -0.130058 0.0229932 -0.0143936 0.00707932 -0.00236999 -0.0757938 0.0593823 0.0329046 -0.00124448 0.0652651 0.0866006 -0.0444618 -0.112795 -0.0769733 0.0863657 0.0354218 0.0386796 -0.0251903 -0.0993468 -0.0513275 0.0501552 -0.0705894 0.00591953 0.0854811 -0.0148502 -0.0672812 -0.0034693 -0.0567021 0.00511285 0.096204 -0.0532549 0.011252 -0.0608398 0.0429539 -0.0795839 0.0200702 -0.0103626 0.0778291 -0.0179185 0.0180134 -0.0470652 0.0347937 0.014886 -0.0243537 -0.0450731 -0.0251328 -0.0438888 -0.0615853 0.0373995 0.0541826 -0.0652004 0.0663007 -0.0248571 -0.0231421 -0.0480481 -0.0142735 0.0951756 -0.0174803 -0.0240084 -0.0691678 0.0403601 0.02143 0.0076024 0.0312985 0.113469 -0.0311331 -0.0713014 -0.0176035 0.0472066 -0.0820962 0.0146932 -0.0699469 -0.10756 -0.00473121 0.105409 -0.0144815 0.0500186 -0.0469166 0.049285 0.0733031 -0.0397584 -0.0818972 0.104506 0.0322694 -0.00862075 0.0746983 0.0727349 0.0313081 -0.0738928 0.131096 0.0480025 0.0223946 0.0411248 0.0760647 0.0787544 -0.03383 -0.0251687 -0.0519076 0.0774 0.0480672 -0.00211938 0.00154138 -0.00980834 0.0250489 0.0879095 0.0897866
iris -0.017499 0.0718743 0.0237986 -0.0489584 -0.142438 -0.031282 0.0649222 0.108935 0.0029563 0.0745162 0.0705808 -0.00836106 0.0316355 0.0222257 0.0293619 -0.10095 -0.00939497 -0.0651064 0.0186369 0.0163199 0.0203516 -0.00845039 -0.10137 -0.0330263 -0.0473665 0.0286485 0.0127702 -0.0175174 0.0450188 0.0272619 -0.024457 0.0627714 -0.00239976 -0.0313772 0.117299 -0.0157991 -0.0799313 -0.0247047 0.0808035 -0.00786844 -0.00471654 -0.095711 -0.005688 0.0215864 0.00134953 0.061967 0.085954 -0.0159363 -0.0330242 -0.0077156 0.0974257 -0.010685 0.0273445 -0.0794487 0.0367881 0.0317668 -0.0963439 -0.0636246 -0.00121701 0.0223739 0.0588149 0.0473284 -0.0362653 -0.0551039 0.039845 0.0545852 -0.0272111 -0.140501 -0.0429675 0.13599 -0.0938883 -0.101986 -0.0183972 0.0258986 -0.010725 0.0433803 0.0767834 0.102481 0.0341335 -0.0291777 0.0213133 0.0867119 -0.0344659 -0.0294847 -0.0220543 -0.0464202 0.121859 -0.0132501 0.00666433 -0.0325797 0.0336508 0.0110559 0.0129294 0.111929 0.0278017 -0.0795736 -0.0582031 0.0645221 0.0133293 0.018584 0.0360282 0.0388416 0.00715863 0.0160555 0.0137567 0.0123123 0.00173458 0.00040859 0.0230492 -0.0617997 0.0102305 -0.0096996 0.0689804 -0.00292709 -0.0386151 -0.0534569 0.0249862 -0.056935 0.0105851 0.0226999 0.0716139 -0.0116199 0.0320652 -0.00388987 -7.06337e-05 -0.0159369 -0.116421 -0.0326813 0.0541449 0.074296 -0.015794 0.0688703 -0.028314 -0.0192952 -0.0153165 0.0663914 -0.0292518 0.012838 -0.10014 0.0757779 -0.063741 0.0691582 0.0549388 0.0297768 -0.0785934 0.0467187 -0.0335535 0.0329904 0.0904292 0.0900079 0.0903848 -0.0493924 -0.0363542 0.0243702 -0.0782632 0.0111472 -0.00415851 -0.0533828 0.0917904 0.0495956 0.0918327 0.0739129 -0.0160972 0.0205182 0.105703 0.0900842 -0.0168197 -0.0210767 -0.00151234 0.0660061 -0.0338519 -0.0155654 -0.113241 -0.0624751 -0.0274165 -0.0505821 0.0197476 -0.0406029 -0.00678732 0.0167606 -0.0617828 -0.0159484 -0.0130333 0.00950166 0.0784262 0.0338985 0.0333375 -0.0777869 0.107608 -0.0283119 0.0125992 -0.0960518 0.0670286 0.117776 -0.0313222 0.00897433 -0.036333 0.0323383 -0.105148 -0.0572695 -0.0153798 -0.00849146 -0.0615563 0.0719886 0.0261738 -0.0269846 0.00750539 -0.0285173 0.0600342 -0.0566217 0.0528366 -0.00177713 -0.0137465 -0.020323 0.0232778 -0.0480566 0.0503725 0.00241987 -0.0617045 0.00782335 -0.083274 -0.015529 -0.00783203 0.119939 -0.0273635 0.0362166 -0.0489732 -0.0102119 0.0111704 -0.0106935 0.0892204 0.0279796 -0.0787734 0.0467145 -0.0618061 -0.00903318 -0.0144064 0.0096382 -0.0856026 0.0467018 0.0491045 -0.077789 0.070928 0.0341017 -0.059088 0.0323087 -0.085175 -0.052011 -0.102426 0.0186784 0.0715356 -0.0273508 -0.00705363 -0.027444 0.0347305 -0.0521359 0.0542254 -0.0663004 0.0802277 -0.0137802 -0.0548266 -0.00115744 0.0334328 -0.0364515 -0.00133795 -0.0389051 -0.129984 0.112416 0.102722 -0.0141219 -0.0485689 0.0671831 0.0538379 0.0202127 -0.116531 0.0163718 -0.0189644 0.0867415 0.0711376 0.197263 0.112831 -0.050019 -0.147368 -0.00373745 0.010974 0.00365256 -0.0117378 0.11995 0.0375608 -0.0158241 -0.0137294 0.0130384 0.0986535 0.102195 0.0127533 -0.0830242 0.0739446 -0.00869532 0.0571065 0.0978512
violet -0.027916 0.0450316 -0.0035205 -0.0340067 -0.00293271 -0.00616058 0.107516 -0.00801209 0.0935793 0.0853257 0.0244346 0.10184 -0.0617655 0.048247 0.0875695 -0.0794408 -0.0665585 -0.106672 0.00201015 0.0981618 -0.0417144 -0.0046822 -0.106249 0.00635189 -0.0828921 0.0578006 0.066378 0.0189638 0.0434401 0.0124026 -0.112127 0.0934821 0.0195461 -0.0171267 -0.00802713 -0.0165206 -0.041224 -0.00557765 0.0608957 -0.0386332 -0.0044097 -0.109443 -0.0146941 0.0824018 0.0384227 -0.0398846 0.0862949 -0.0383972 -0.0216088 0.0535049 -0.0493157 -0.0722768 0.0242287 0.0210663 0.0132291 -0.00698687 -0.0176807 -0.0537709 0.0822583 0.0294474 0.0492602 0.0844119 -0.0309463 -0.0371065 -0.131019 0.0533291 -0.0504306 -0.0190901 -0.0669309 0.0464033 -0.0705974 -0.0169666 0.021817 -0.0064037 0.0237059 -0.0744442 0.0648906 0.140959 -0.0551219 0.0227982 0.0118109 -0.00686681 -0.0316496 -0.0286401 0.0567851 0.00591261 0.0825729 -0.0614948 -0.00232988 -0.0604955 -0.0115192 -0.0518417 0.00324777 0.0257439 0.0342774 0.0117422 0.0335256 0.101016 -0.0277009 -0.00275598 -0.0142795 0.0230152 -0.0393156 0.0650919 0.00719159 -0.0703452 -0.017256 -0.0646246 0.0687329 -0.0643216 0.0285591 0.0434054 0.0141593 0.0710276 -0.0688277 -0.0520152 0.0414993 -0.0795634 -0.0188105 0.0027074 0.0990431 -0.0765932 0.0395677 -0.045094 0.0623692 0.00686357 -0.0339836 -0.0811595 0.0325957 0.00415178 -0.023359 0.0604955 -0.0530608 0.0300766 0.014432 0.0270416 0.0374141 -0.0345342 -0.0801672 0.00656239 -0.0264564 0.102272 0.0552769 -0.0375876 -0.0175095 0.0888649 -0.00433082 -0.0162308 -0.00658969 0.0289015 0.0986684 -0.121713 -0.0818581 -0.029607 -0.00150845 -0.0325679 -0.061208 0.0048816 0.147457 0.0232919 0.0724479 0.0608795 -0.054421 -0.0434632 0.0559963 0.0138319 -0.00589433 0.0757836 0.0536854 0.0590705 -0.0372476 -0.0582123 -0.136809 -0.0265165 0.0683073 0.063889 -0.0356653 -0.0588947 0.0240737 -0.0516405 -0.0143115 -0.0403195 -0.00748653 -0.0208898 0.0105455 -0.0359776 0.0571274 -0.0309116 0.0172835 -0.0522928 -0.029725 -0.0987424 0.0505509 0.0359082 -0.102441 0.0398939 0.136908 0.0548142 0.006431 -0.00449622 -0.00827765 0.0153968 -0.037738 0.0609119 0.100961 -0.0846965 -0.0149599 -0.0103929 0.0347192 0.0151789 0.0284434 0.0532597 -0.0155965 -0.0251031 0.0440508 -0.119635 -0.0262921 -0.031749 -0.0500143 -0.0614416 0.00543377 0.0488923 -0.0150658 0.0234469 -0.045906 0.0547009 -0.0944421 0.0244161 -0.0344671 -0.00901441 0.0358851 0.0364125 -0.0035707 -0.0360725 0.00211066 0.0251078 0.022108 0.00288945 -0.114347 0.0521332 0.04437 -0.0338564 0.083179 0.0532643 0.00601508 0.0146936 -0.123272 -0.0209287 -0.0595008 -0.0486541 0.0385129 -0.0321469 -0.0394498 -0.0630493 0.134711 -0.00642475 0.0568915 -0.0334146 0.0292022 0.0113896 -0.0555359 -0.00414484 -0.0140741 -0.0332943 0.062161 -0.106496 -0.19337 0.151944 0.0346406 -0.108657 -0.0278027 -0.0949672 0.0273123 0.0684067 -0.113103 -0.0291999 0.0698664 -0.0182918 -0.00272498 0.110841 0.0871115 0.0379161 0.0172076 0.120346 0.0563109 0.0127662 0.0275274 0.100114 -0.0248279 0.0319248 0.049658 -0.0398731 0.0782865 0.0398962 0.00639468 -0.053343 0.0682448 -0.00679279 0.0813562 0.0633153
daisy -0.0366668 0.048448 -0.051928 0.00159305 -0.0735357 -0.0518682 0.035392 -0.0680367 0.117847 0.102721 0.00449704 -0.013662 -0.0179611 -0.014539 0.0453953 -0.0661647 -0.0169093 0.0688659 -0.0557708 0.0554607 -0.0581436 -0.0341148 -0.152586 0.0253197 -0.054705 -0.00957728 -0.0175804 0.12505 0.0739377 -0.0785041 -0.0314044 -0.00957361 -0.0268931 -0.0808838 0.0171985 0.0235257 0.0305545 0.0022454 0.0114415 -0.0257171 0.0352978 -0.116476 -0.000401306 0.0266841 0.0689716 0.0890702 0.0369654 -0.113657 -0.0523943 -0.0218436 0.068526 0.0687235 0.0384722 0.0316341 -0.0138171 0.0631304 0.0211546 -0.049422 0.042299 0.117659 0.101164 0.028014 0.0720266 -0.0571605 -0.0677519 0.0781412 0.0582676 -0.0301732 -0.0999993 0.0126828 0.0140256 -0.00716568 0.0832267 0.0332764 -0.044171 0.00773143 0.010658 0.0560878 -0.0544317 -0.0168603 0.01603 -0.048595 -0.0114254 0.0311173 -0.0526837 0.0184765 0.0403718 -0.0514548 0.0615133 -0.0983891 0.0602867 -0.0399836 0.00575257 0.0863115 0.0648761 -0.0283517 -0.0510252 0.00953066 -0.0551162 0.00322727 0.0264544 0.0281381 0.0171335 -0.0331111 -0.0275225 -0.0576268 -0.101157 0.0233397 0.0708574 -0.0772408 0.0391958 -0.0283747 -0.000163327 0.0557456 -0.0882066 -0.0310507 0.078635 -0.0163192 0.0204372 0.0485055 0.000222176 0.074025 -0.0470997 0.0212666 0.12166 0.0449773 -0.0466495 0.0409323 -0.0129587 0.0757914 -0.0423541 0.0523116 -0.0272813 0.00504051 0.0576314 0.0320361 -0.102096 0.00552333 -0.0874899 -0.00136524 0.00846485 0.120484 0.0744867 0.0434475 -0.0214527 0.0464474 -0.0105857 -0.0713076 -0.00969305 0.0037813 0.0189097 -0.0479312 -0.022405 -0.00871591 -0.0444352 0.0867595 0.0206049 -0.10785 0.111831 -0.0504786 0.0611894 0.0934896 -0.0310438 0.00234224 0.0217357 0.0817291 -0.038888 -0.014839 -0.0264682 0.0622277 -0.0663714 -0.0237439 -0.157628 -0.0703659 0.0421887 0.0429376 -0.0101426 0.0265669 -0.0235809 0.0276304 -0.00781412 0.0280324 -0.0347718 -0.0759889 0.0150898 -0.00443893 -0.00952491 0.0247018 0.0131041 0.0346225 -0.034085 -0.0364647 0.0321211 0.0536806 -0.076485 0.0311816 0.00250165 -0.00719761 0.0149334 -0.0258503 -0.0214601 0.0661923 -0.00559753 0.0733451 0.046406 0.0201866 -0.0461579 0.0141189 0.105494 0.0011838 0.110062 -0.0404867 -0.0176287 -0.00989886 -0.0242723 -0.13535 0.00486777 -0.0825376 -0.0585892 -0.0591267 -0.0286985 0.0381024 0.00804083 0.0951228 0.0120316 -0.0428273 -0.0956189 0.088326 -0.0720174 0.0232294 -0.0200699 -0.0267185 -0.0188431 -0.0715764 -0.143651 0.0633348 -0.0409484 0.00334992 -0.0910755 -0.0720473 0.0632314 0.0175205 0.086849 0.0406888 -0.0746957 0.0396506 -0.0826203 0.0150953 0.0448647 0.038277 0.0348246 -0.00883719 -0.00263418 -0.0558443 0.0116464 0.0302904 0.0104267 0.0531844 0.114041 0.0135249 -0.106934 -0.0531293 -0.00286021 -0.0872143 0.0199061 -0.0686087 -0.103842 0.0109465 0.127843 -0.045903 -0.0192115 -0.0520956 0.0629834 0.059191 -0.036421 -0.0834771 0.0321601 -0.0316111 0.0204751 -0.0322864 0.0970523 -0.0222415 0.0640515 0.145523 0.0313102 0.0548107 0.00564186 0.0685834 0.110777 0.0526423 0.106576 -0.0505245 0.164581 0.0339357 -0.0266496 -0.055973 0.000999442 0.00121529 0.0663944 0.0661854
anemone -0.0360368 0.090528 -0.105179 0.0543923 -0.145981 0.0160681 0.0845183 -0.032281 0.0181984 0.030606 -0.0518296 0.0205105 0.00186291 -0.00408516 0.0217142 -0.0354826 0.0742022 0.0337777 -0.0293829 0.105405 0.00639795 -0.0307684 0.0178348 0.070787 -0.146188 -0.00116801 -0.0577034 0.0299548 0.0166474 -0.00430648 -0.0575039 0.0143706 -0.080323 -0.064389 -0.0117869 -0.0271414 0.0830887 0.0704057 0.00185108 -0.100475 0.011658 -0.0969594 -0.0148842 0.0527597 0.0646132 0.0323834 0.0288817 0.0171831 0.004624 -0.0169801 -0.0547912 -0.0768337 -0.0517767 -0.0591171 -0.0157561 0.128743 0.0546147 -0.134172 0.0548706 0.0461641 -0.0818303 0.0407086 0.00876529 -0.0635489 -0.0110368 0.0171793 0.0234474 0.000707799 0.00161608 0.0377647 0.0127931 0.0301242 0.0156463 0.00365222 -0.0259713 0.0526327 0.0966135 0.0823898 -0.0874552 -0.039182 -0.022482 -0.125042 0.0292135 -0.0226567 -0.0559243 -0.0538275 0.138898 0.0862656 -0.0199087 -0.0124542 0.0951115 -0.0299495 -0.00312185 0.089386 0.0339524 -0.00621334 0.130126 0.0848025 0.0324575 -0.0420359 -0.0168061 0.0211988 -0.0727214 -0.00678448 0.110029 0.024134 -0.136505 0.0798288 -0.00410563 -0.0561414 0.0420588 -0.0164014 -0.00753105 0.00271009 -0.0258972 -0.00305072 0.0336382 -0.040225 0.00302654 -0.0248347 0.00388837 0.0849684 0.010095 0.0123118 0.0445439 0.0479555 -0.0280592 -0.0080473 -0.0364322 0.0524544 -0.0040135 -0.0247023 -0.0229267 0.045947 0.0777056 -0.0157483 -0.0694121 -0.0236751 -0.0523238 0.078874 0.0654956 0.133672 0.0671882 0.0561908 -0.0185532 0.0233027 0.00340354 0.0332605 0.0878682 0.0647173 0.0366387 -0.22542 -0.0265131 -0.0466583 -0.0291094 -0.0352338 0.0279551 0.00332129 0.106751 0.0141682 0.00167658 0.0439738 -0.02125 0.0542882 -0.0190774 0.0287387 -0.048538 -0.0797723 0.0301454 -0.0115897 -0.0738756 -0.0401368 -0.0208547 -0.0239398 0.126185 0.0358939 -0.000436261 -0.0338747 0.0212783 0.0024201 -0.121085 -0.0315821 -0.0594524 0.00144647 -0.0543817 -0.0929301 -0.0526574 -0.0567221 0.104351 -0.068902 0.0365328 -0.0369934 0.114032 0.118455 -0.0760748 -0.066154 0.00484215 0.00294182 -0.0156933 -0.0867916 -0.0231791 -0.104116 -0.0406027 0.07135 0.0109591 -0.0398721 -0.0347678 -0.106287 -0.0161498 0.0575569 -0.00026289 -0.0141246 0.0520891 -0.0198398 -0.0331564 -0.0176742 -0.0128524 -0.0181349 0.011666 -0.0920405 0.045534 -0.00949757 -0.0352373 0.0958405 -0.0749593 0.0287881 -0.0479802 -0.0110858 0.0416988 -0.0698251 0.0142271 -0.0328017 -0.0869522 -0.0868622 0.024637 -0.0346425 -0.00994057 0.0694968 0.0484268 0.045534 -0.0056978 -0.0365645 0.0567697 -0.0195751 -0.0824621 0.0785475 -0.040368 -0.0467395 -0.0611591 0.00379041 0.0454069 -0.145437 0.0320992 0.0148598 0.0650315 0.044888 -0.0246282 -0.0568809 0.036381 -8.64174e-05 -0.0501847 0.00960417 -0.0552801 -0.105673 -0.0428725 -0.00146029 -0.0555325 0.0600472 -0.0219719 0.0125834 0.038919 -0.0300113 -0.016724 0.0137942 -0.0134218 -0.0773897 0.0205441 0.0148888 0.0364992 0.0564626 0.0992786 0.0904079 -0.072506 0.0306643 0.0663463 -0.0481656 0.0823986 0.0644278 -0.0124021 0.0344448 -0.031185 -0.111301 0.0632506 0.103596 -0.0214865 -0.0428919 0.0135908 0.0365857 0.00557937 0.0370411
columbine 0.0111303 -0.0478692 -0.088012 -0.0292634 -0.0155396 0.0987464 -0.0418027 -0.041537 0.0883282 0.126519 0.0755891 -0.0283215 0.0190015 -0.0224569 0.0787903 0.0513186 -0.0427424 0.00381799 0.0129569 0.12772 -0.0207312 0.0731695 -0.0201043 0.0182152 0.0335493 0.0427841 0.0148728 0.149237 0.0730597 0.0596356 -0.0674235 0.028855 -0.159535 0.0642245 0.0768142 -0.00229356 -0.0630608 -0.0470524 0.0756835 -0.0253881 0.00673115 -0.0431706 -0.0474498 0.0668219 0.147533 0.0963861 -0.0276716 0.0314283 -0.00169448 -0.0214476 0.00165691 -0.0917731 0.0158648 -0.0305237 -0.0253376 0.11104 -0.0430739 -0.024523 0.0318301 0.134202 0.0186295 0.0658976 0.0381645 -0.0480075 0.013991 0.041357 0.0153244 0.0360479 0.0272105 0.0396795 -0.0161465 0.0504359 0.00712659 -0.00623582 -0.0399342 0.0572116 -0.00427995 -0.000577276 -0.033468 0.0292217 0.0413811 0.0132735 0.0162525 0.0102292 -0.0249424 -0.00434252 0.0140837 0.0851335 0.00486179 -0.0949568 0.0339247 -0.0432803 0.049079 0.0316457 -0.0335076 -0.00411945 0.0517577 0.0167165 -0.0283237 0.000668417 -0.0112814 -0.0120321 -0.0530663 0.0449556 0.047979 -0.0215945 -0.158832 0.0927963 0.0716567 -0.0275903 -0.065599 -0.0705369 0.057339 -0.0731541 -0.133352 -0.0142677 0.0460073 -0.100387 0.0340653 0.100944 0.0774049 0.0580482 0.0182664 -0.0268328 0.0897114 -0.0113538 -0.0575849 -0.0154797 -0.0242661 0.0958087 -0.00350269 0.125406 0.00506159 0.103129 0.0795456 0.0413965 -0.103788 -0.0591745 0.0596268 -0.0165092 0.0934111 0.0970009 0.0760326 0.0019786 0.0332375 0.178435 0.0583819 -0.0565156 -0.0474059 0.010274 -0.00853728 -0.134961 0.0045757 -0.0119697 -0.019111 0.0204455 0.0829467 -0.128065 0.135962 0.0901593 0.00455199 0.0587288 0.0760941 -0.0427951 -0.044433 0.0966452 0.00989287 0.0159926 -0.0216424 0.0309255 -0.0533144 -0.0440642 -0.127735 -0.0790033 0.0827249 0.0459612 -0.0836075 0.0353585 0.0259524 -0.0471381 -0.0808125 0.0773983 -0.0250983 -0.0689736 -0.0250346 -0.0581997 -0.0445275 0.000153216 0.0127485 -0.0462401 -0.0618708 -0.0621782 0.0041515 -0.0301461 -0.0113192 0.0260139 -0.0394951 0.0150851 -0.00215453 -0.0555078 -0.0207716 0.0954442 -0.00692942 0.0923549 0.00657724 -0.0186321 -0.00660337 -0.04606 0.0905721 0.0311758 0.0833968 0.0450895 0.036184 0.011513 -0.0327369 0.0473796 -0.00199465 0.0237085 -0.127487 0.0112124 -0.0637854 0.079752 0.00458953 0.0471095 0.0730575 -0.0521353 -0.0372555 -0.00385356 -0.00196364 -0.0845758 0.0248194 0.102268 0.0685806 -0.0656912 -0.0306093 -0.000209334 -0.058652 0.00541926 -0.0517752 0.05551 0.0538545 -0.103605 0.0249139 0.105704 0.0387859 -0.0414294 0.0504293 -0.065386 -0.0821694 -0.00806083 0.0257987 -0.0117073 -0.0311978 -0.0505698 0.0625734 0.00379559 -0.0322934 -0.0454167 0.0275969 -0.0455001 0.0706928 0.0129367 -0.0261324 -0.0928007 -0.0522056 0.027845 -0.029292 0.0428324 -0.0196953 -0.0453486 0.00362126 -0.01622 0.00313998 0.0269492 -0.0359272 0.00946274 0.0603931 0.040437 -0.068282 0.0266221 -0.0334307 0.0329521 -0.0286662 0.0583621 0.0443013 -0.0492129 0.0212531 0.0382545 -0.0071009 -0.00722847 0.0769416 0.0124798 -0.0204763 0.00965179 0.0085566 -0.0341663 -0.0711583 0.0150853 0.0237721 -0.0664377
hibiscus -0.0671499 0.056145 -0.019352 0.0522437 -0.0106535 -0.00413969 0.0575981 -0.11373 -0.0500272 0.0210755 0.0643614 0.00209081 0.0549126 -0.045381 0.0204832 -0.0834339 -0.0895995 -0.06321 0.0831249 0.0181105 -0.0636514 0.0587918 -0.012275 -0.0186236 -0.160868 0.0240112 0.0083169 -0.0719341 0.0237849 -0.00946853 -0.1474 0.0250853 -0.0385827 -0.0323122 0.05792 0.0587366 0.0344386 0.0591487 0.0380253 -0.0265035 0.0191276 -0.0682388 -0.00321062 -0.0145408 -0.064126 0.0319113 -0.0159385 0.0126435 0.00757306 -0.0190614 0.00451474 0.0592793 -0.0206525 -0.0657134 0.007347 0.0381283 0.0191497 -0.0889281 0.062638 0.0496943 -0.00860366 0.0574638 0.0637545 -0.0374165 -0.0333239 0.00881243 -0.0478733 -0.0417684 0.0187781 0.0514178 -0.0448972 0.0300093 0.125601 -0.023853 -0.0540334 0.0166949 0.1042 0.113561 0.0170854 -0.042896 -0.0349205 -0.0421474 -0.0372859 0.0622131 -0.0158878 -0.0644828 0.104936 0.10517 0.087383 -0.0368812 0.0206984 0.0125475 0.00105034 0.0230308 0.0110563 -0.0868349 0.0413711 0.0765491 0.0518261 -0.0604785 -0.030116 -0.00893328 -0.0557753 0.047877 0.0465214 -0.0167852 0.0246936 0.119372 -0.00519843 0.0127242 -0.0242098 -0.0682572 0.0537244 0.0621156 0.0145917 -0.0653768 0.0420333 -0.00920017 -0.0177994 0.0253502 0.0514803 0.104879 0.00788557 0.0300369 -0.00170506 -0.0333791 -0.0467715 -0.0372914 -0.0175463 0.00925829 0.051495 0.0109411 -0.0108063 0.0619629 0.0470143 -0.0690684 -0.0471744 -0.102516 -0.0882438 -0.043858 0.0320989 0.0762015 -0.0131898 0.0667342 0.00511143 0.0427452 -0.0106474 -0.0460008 -0.00844547 -0.0365078 0.0156301 -0.172169 -0.0669366 -0.00820341 -0.0484215 -0.0406409 -0.0801396 -0.0775976 0.072852 0.120001 0.134646 -0.0126812 -0.00823597 -0.0587863 0.0794424 -0.0463246 -0.0476489 -0.0359395 0.0895443 0.0257199 -0.0271786 -0.0635503 -0.0100363 -0.122901 0.0346703 0.000379168 -0.0255066 -0.108543 -0.0277727 -0.0425998 -0.070104 0.0498874 0.0345655 -0.0322718 -0.019352 -0.008144 -0.0926565 -0.0490395 0.0423037 -0.00294998 0.100781 0.0213882 0.0296875 0.118084 -0.0440787 -0.0630481 -0.081326 0.0416066 -0.0296378 -0.0799759 -0.0905357 -0.0107259 0.0303036 -0.0208235 0.0309732 -0.0595073 0.0141383 0.0250026 0.150988 0.045679 0.0630904 -0.0205862 -0.132385 0.00107291 -0.038899 -0.0310339 0.0401332 -0.0116785 0.00799593 -0.0472884 -0.0718091 -0.05737 0.120707 0.104675 -0.0464864 0.0200694 -0.077684 0.0139548 -0.0244489 -0.0466906 0.0510922 -0.0276347 -0.025891 -0.0599488 0.00873793 -0.06992 -0.126161 0.040365 0.0205035 -0.00958533 -0.0414668 -0.0653124 -0.0495214 -0.0152841 -0.0459806 -0.00144483 0.0561854 -0.0290345 0.0601603 -0.0187524 0.131828 -0.0665908 0.0891782 -0.0780298 0.0277359 0.0128578 -0.00880985 -0.0972715 0.0433981 -0.052687 -0.0669642 0.0328567 0.0400155 0.0106198 -0.0134773 -0.0711064 -0.0691273 0.0773584 -0.0311994 -0.0397028 -0.0642824 -0.0815136 0.0392816 -0.0163207 0.0136969 -0.0645068 0.0150998 0.0122476 -0.0801764 0.0652646 0.0813995 0.0973727 -0.142897 -0.0240222 -0.00895075 0.0240001 -0.0123733 -0.0162759 0.0456587 -0.0475496 -0.00294189 -0.120677 0.0828324 -0.0491793 -0.0444502 -0.0307157 -0.0372675 0.0230032 0.114768 -0.0060462
carnation -0.0535356 0.0115815 -0.0864399 0.00290154 0.0297509 0.00717889 0.0472076 -0.0749376 0.0622745 0.0266632 -0.00525252 0.0771253 0.0398621 -0.0668614 0.0318516 -0.121121 -0.0928855 -0.0786292 0.0211694 0.164933 -0.0178223 0.0322135 -0.0403203 -0.0376885 0.0336986 -0.0222947 -0.0297062 -0.0343001 0.119927 -0.0314498 0.00490874 -0.00945914 0.0162715 0.0098767 -0.0239516 -0.0205772 -0.0333578 -0.0347137 0.0283857 0.0319339 0.00534299 -0.0713847 -0.0290248 -0.0267643 0.00363538 -0.0445782 0.0478796 0.00746909 0.0253521 -0.101321 0.130788 -0.0286183 -0.0663327 0.0520529 0.0316354 0.0337197 -0.0394344 -0.0325895 0.143693 0.0234431 -0.00348711 0.0941168 -0.00476846 -0.0228514 0.0911772 0.0014686 -0.0101488 -0.0698409 -0.0440401 0.0499992 -0.0223492 0.00317929 0.0651366 -0.104016 -0.0478115 0.0215926 0.165189 -0.0220567 -0.0399725 0.0416503 -0.018152 -0.0825369 -0.071803 -0.0252393 -0.0135346 -0.00128849 0.0475131 0.139038 0.0267525 -0.0344223 -0.037705 -0.0175263 -0.0589872 -0.00328033 0.024875 0.0351695 -0.0168676 0.134129 -0.0407127 0.0237988 0.0387365 0.0843792 -0.0230676 -0.0489676 0.0473862 -0.0181647 -0.180545 0.0159338 0.025822 -0.0143105 -0.0280755 -0.0380387 0.0720286 0.0196014 -0.0736217 0.131173 0.0853238 -0.112941 0.00588603 0.123987 0.105455 0.110869 0.00396177 -0.0533523 0.0205812 -0.0469327 -0.0342108 0.0553379 0.045981 0.04408 0.0159813 0.0800626 0.00881788 0.0356066 0.0135917 0.0223723 -0.00266797 -0.0553497 -0.0340087 -0.0120644 0.0793858 -0.0267314 0.0969835 -0.00050025 0.0116729 0.172156 0.0142567 0.0499146 0.0250348 0.0151471 0.00335999 -0.0737064 -0.0243863 0.00956864 -0.0512117 0.0615931 -0.042797 0.0248633 0.119459 0.00345163 0.0220515 0.101025 -0.0226932 -0.000184493 0.0301809 0.0612782 -0.0321195 -0.0331182 0.0402945 -0.0381984 0.0252228 -0.105401 -0.0298801 -0.0703532 0.0306767 -0.0163389 -0.0324273 0.0073274 -0.133596 -0.00746087 0.00608576 -0.0114248 0.00337362 -0.135365 0.00337456 -0.0307308 -0.0754898 -0.0392136 0.0335952 -0.0179699 -0.0188412 -0.0909821 0.0646008 0.046035 -0.015681 -0.0142234 0.0161523 0.0129688 -0.0354656 -0.00950966 -0.0682548 0.0289191 -0.00338795 0.0336727 0.0918421 -0.0714482 -0.13682 -0.0684522 0.053545 -0.00970399 0.107419 -0.00480747 -0.0397752 -0.0381303 0.0516323 -0.00882775 0.0371316 -0.111909 -0.0769773 -0.0880096 -0.0040043 -0.0713871 -0.0111451 0.118508 -0.0271849 -0.0292269 -0.0312195 -0.0444771 -0.00683817 -0.099096 0.0154159 0.0419111 0.0114038 0.017237 -0.0247482 -0.0542899 -0.0366264 -0.0229146 -0.0258761 -0.0153846 -0.012207 -0.103269 0.0593561 0.00431518 0.030477 -0.0482768 0.049071 -0.0286488 -0.0353928 -0.0489347 0.103847 0.0690185 -0.0694555 -0.0564893 0.0598683 0.0146137 -0.0370917 -0.0961282 0.064192 -0.000567079 0.0921335 -0.0482227 -0.0124089 -0.0314145 -0.0224298 -0.00171559 -0.0157122 0.128595 -0.00132966 -0.0702145 -0.0445124 -0.0867713 0.0353505 0.0502106 -0.013083 -0.115321 0.0366852 0.00659943 0.00276948 -0.0114727 -0.00264377 -0.0866397 0.00399443 0.0578381 -0.0366264 0.0618657 -0.0324743 0.100367 -0.0199609 0.022036 -0.0659026 -0.121633 -0.00880026 -0.0244897 -0.0449071 0.01597 -0.0334236 0.0158602 0.0390984 -0.00205013
dandelion -0.0450672 0.0667745 -0.0228965 -0.0609295 -0.050611 -0.0610892 0.0205468 -0.0370151 0.105823 0.000314598 -0.012059 0.0696823 0.000765202 -0.132449 0.0268175 -0.0065113 0.00346095 -0.0372205 0.0149069 0.00922569 0.0575402 -0.0686118 -0.0737836 0.015443 -0.0850059 0.0987114 -0.0333473 -0.000567939 0.000630132 -0.0145025 -0.0491708 0.0715675 -0.0663546 -0.0273699 0.0176101 -0.0303164 -0.00511953 -0.00551757 0.0144333 -0.0289401 0.0357643 -0.0165735 -0.0112506 -0.011236 0.017876 0.0696914 0.0494835 -0.0142555 -0.0663386 0.00309349 -0.0292779 -0.00752078 -0.0359538 0.00562963 -0.019567 0.129669 0.0224738 -0.00849489 0.104273 0.146335 0.0418787 0.0382772 0.114375 -0.0503554 0.0199155 -0.0479155 -0.040838 -0.0212158 0.0107873 0.0839127 0.0610322 0.0881624 0.0896003 0.00357803 -0.0369534 0.0875439 0.0500746 0.0373232 -0.0286092 -0.00975474 -0.0162033 -0.0129512 0.00616689 0.0047329 0.0229284 -0.00974607 0.0747331 0.0214634 0.123089 0.016363 0.0716291 -0.0589461 -0.039076 0.0140204 0.046998 -0.0822762 0.0491708 0.00480137 -0.00532174 0.0123445 0.119456 -0.000586768 -0.00514235 0.0270207 0.0117659 -0.0479269 -0.157155 0.0346072 0.0629608 -0.000929074 0.00929485 -0.00442729 0.0343356 0.037702 -0.117577 0.0417167 -0.0292026 -0.0115199 -0.00360816 0.018932 0.0297116 0.0337604 -0.00099298 0.110438 0.0362254 0.0122897 -0.0132196 0.00148368 -0.115254 0.0771158 0.0921405 0.0235561 -0.0764768 0.0995536 0.00406828 -0.0706523 -0.0168791 -0.0305606 -0.11113 -0.0164484 0.0985859 0.108991 0.084077 0.0334683 0.0525807 0.0312681 -0.0367549 -0.0526856 0.0220933 0.0398566 0.0670576 -0.14222 -0.0469159 0.0447842 -0.0551551 0.0973876 -0.0237136 0.00696594 -0.00248912 -0.00637185 0.0705427 0.0961438 -0.0672219 0.016804 -0.0304465 0.108569 -0.0806489 0.0458888 0.061904 0.000732633 -0.0740735 -0.0766206 -0.070173 -0.0514646 -0.0386401 0.0815208 -0.0304579 -0.0728342 0.0104737 -0.0133147 -0.0476439 0.0417646 0.0103025 -0.0780995 -0.0501249 -0.0805896 0.0652614 -0.0607651 0.102591 0.034856 0.0123333 -0.120852 0.122226 0.0465781 -0.0531375 -0.0373734 -0.0865853 0.00284426 -0.0392495 -0.013592 -0.0978487 0.00088701 0.00199899 -0.000909811 0.0582317 0.00915106 -0.0176745 -0.00178824 0.0362984 0.0634469 0.10305 0.0194905 -0.041299 0.0295221 -1.25645e-05 -0.0360816 0.0676464 0.017928 -0.0522132 -0.079154 0.0163831 -0.0131308 -0.0592976 0.0616644 -0.0849489 0.0254596 -0.0903192 -0.0217818 -0.0130379 -0.0207693 0.0100261 0.0862681 0.0200643 -0.00688446 -0.0376815 -0.0684178 -0.0440264 0.076454 -0.0707687 -0.0531695 -0.0202702 -0.0404568 0.0151769 -0.057579 -0.015501 0.0151258 -0.000836548 -0.0612513 -0.100763 0.00751279 -0.0156774 -0.0321126 0.0148412 -0.0643393 0.0820959 0.0571704 -0.0905589 -0.0486208 0.0931836 -0.0168485 -0.0283125 0.022901 -0.0321514 -0.107382 -0.0238185 -0.02653 -0.14767 0.0155334 0.0405915 -0.0640152 -0.0729734 0.00921519 0.0507342 -0.0153985 -0.0375035 -0.0961346 0.0482168 -0.0410731 0.075694 0.165363 0.100035 -0.0505745 -0.0370356 0.0667289 0.0341005 0.03172 0.0328498 0.119435 0.0111223 -0.00962533 0.0146846 -0.0831823 0.0867816 -0.0964359 -0.0842824 0.0485272 0.0558604 0.00526195 0.0559266 0.0374533
valerian -0.0201874 0.0152664 -0.0330455 -0.0103038 -0.0803574 -0.0610372 0.0464499 -0.0451794 0.0456022 0.0699027 0.0516957 0.0248479 0.0658642 -0.0606572 0.0350902 -0.0108801 -0.0488052 0.0177819 -0.0409284 0.135287 0.0135489 0.0264086 -0.157111 -0.0431366 -0.00429037 0.0165867 0.0847166 -0.00412777 0.0209769 0.0578403 0.0254219 0.0901074 -0.055822 -0.00912902 0.0737573 0.018545 -0.069249 0.0466889 0.0691121 -0.0191646 0.0707647 0.00510175 0.0217287 0.0226949 0.0288333 0.0729382 -0.0515731 -0.0082915 0.0208237 -0.00685279 -0.0270847 0.00370227 0.0235304 -0.0285473 -0.00790072 0.00107109 0.0636049 -0.140355 0.0479554 0.017404 0.00226949 0.0550621 0.0796793 -0.0966647 0.0598749 0.0191591 -0.0853111 0.0335275 -0.0345979 0.0732793 -0.0385241 -0.0334315 0.00571886 -0.00567454 -0.0276404 0.06165 -0.0531032 0.0832622 -0.0592743 -0.0585695 0.0495937 0.0784699 -0.0145223 0.0565962 -0.0795567 0.0894374 0.09147 -0.0200377 0.0576483 -0.0721579 0.0657314 -0.142549 0.00970528 0.0560202 0.0106672 -0.026333 0.0257324 -0.0467523 0.0750095 -0.0182922 0.0637581 -0.0127959 0.0492853 -0.0569435 0.0833889 -0.0129784 -0.0919275 -0.0814115 0.025998 -0.04062 -0.0526374 0.0468238 -0.0180342 0.0479023 -0.0771279 -0.0031448 -0.0693042 0.0468381 -0.0272768 0.0747235 -0.0145411 0.0883323 0.0324898 0.0254485 -0.0432919 -0.0539141 -0.0343978 0.0157716 -0.0427587 0.0830743 0.084829 0.0191899 -0.033597 0.0215816 0.0255792 -0.00644077 0.0815933 -0.0697066 -0.0747705 0.0361463 0.0170067 0.0188257 0.013889 0.0764619 0.0768276 0.0963746 -0.0924178 0.0183128 0.0035319 0.0410367 0.0794484 -0.0429099 -0.0652105 0.0674269 -0.0541593 -0.0204195 -0.0212384 0.0398233 0.156268 -0.0140422 -0.0256426 0.0533462 -0.0622077 0.0371391 -0.0270766 0.1019 0.0308209 0.0407119 0.122256 -0.00907407 -0.0955473 -0.041102 -0.0612006 -0.0264413 0.110645 -0.0296239 0.0336215 0.0344161 -0.0279795 -0.0752342 0.0134171 0.0796547 -0.0275219 -0.0675331 0.00784352 0.0801429 -0.0227153 -0.0374149 0.0542083 -0.085499 -0.0182215 -0.162484 0.00394331 0.116304 -0.00785435 -0.0815831 -0.0141815 -0.108511 -0.0294441 0.0792707 -0.000360605 -0.0664892 -0.0259204 0.0511605 -0.0341771 -0.0797834 -0.0253627 0.0428465 0.0417618 0.0172405 0.158229 -0.0994101 0.0133177 0.0203588 -0.087983 0.00443888 0.0423971 0.0769849 -0.0197427 -0.00797303 0.00127492 -0.013514 -0.110978 0.0908878 0.0189949 0.115915 0.00733815 -0.101361 0.0725705 -0.0117842 0.0489993 0.0614968 -0.0660766 0.0722212 -0.000458637 0.0772749 -0.00176744 0.0307862 -0.00434818 -0.0360013 0.048554 -0.160603 -0.0324592 -0.00250175 -0.0616602 -0.0475714 -0.0219084 -0.0191509 0.0492751 0.0551908 0.0212833 0.0574624 0.066332 0.0221188 0.0554891 0.0674841 -0.0850946 -0.0170463 0.0526231 -0.0785067 -0.0358604 0.0302551 0.0967627 -0.00397865 0.103156 -0.0530603 0.0489339 -0.01388 -0.0125163 0.0390552 0.026284 -0.0913413 -0.0411919 -0.0598667 -0.00977861 -0.0145051 0.0663054 -0.030537 -0.0462048 0.0471812 0.0211363 -0.113865 -0.0525332 -0.0408733 0.0575911 0.0107798 0.0042058 0.0429058 0.00601322 0.0262983 0.00813686 0.0293277 0.0510829 -0.101639 -0.00338442 -0.0352475 0.0573459 0.02514 -0.0638868 0.0308802
bloomer 0.0581907 0.0344345 -0.076335 0.0454698 0.017428 -0.0386186 0.086535 -0.0279923 0.00983114 0.0861508 0.109629 -0.011916 -0.00250525 0.0517733 -0.0681998 -0.0581684 -0.065845 -0.0177309 -0.0433282 0.103613 -0.0560491 0.00649552 0.077562 -0.0623252 -0.0595366 -0.00729342 -0.0704406 0.0166306 0.0595292 -0.0216582 -0.0476412 -0.0192999 -0.0698531 -0.0184851 0.00164466 -0.0964995 -4.38636e-05 -0.0418856 0.0455963 -0.105468 0.0152524 -0.0488409 -0.0448601 -0.0406785 0.0211793 -0.0966333 0.0166526 -0.0100232 0.0456087 -0.0376842 0.0282526 -0.0951635 0.0580296 0.0379246 0.0258011 0.126777 0.00648709 0.0411841 0.103157 0.0683213 0.0365762 -0.00884535 0.061651 -0.0524797 -0.00401133 0.0101452 -0.118362 -0.0322632 -0.138217 -0.0574446 -0.00701853 -0.0191822 0.0551716 -0.0933317 -0.0199404 -0.00191477 0.0587385 -0.0217377 -0.0317649 -0.0100463 0.0592194 0.123352 -0.000483551 -0.0313758 -0.110747 -0.0494457 0.0307759 0.00614601 0.0762805 0.0934011 -0.0506132 -0.0492673 0.0922856 -0.0528614 0.0483749 -0.0902308 0.0468257 -0.00110693 -0.158178 -0.00862648 0.0575884 0.0483675 0.0476784 -0.0397663 0.00441685 -0.0338248 0.00813544 -0.00393251 0.063515 -0.11687 0.00740224 -0.0352302 0.0238419 0.0677239 -0.076568 0.0155119 0.0445255 0.0117425 -0.0686039 0.0170267 0.0352922 0.00273305 -0.0796069 -0.042359 0.0464093 -0.0882503 0.0386583 -0.0854914 -0.02739 -0.0295911 -0.0687947 0.076506 -0.0599754 0.0561656 0.0523037 -0.00990179 -0.0773339 -0.0724037 -0.0125986 0.0347345 0.00685667 0.0236989 0.0583072 0.0347469 -0.0181049 -0.0253822 0.081699 0.0292168 -0.026282 -0.0254987 0.049768 0.0509478 -0.051109 -0.00230839 -0.070158 0.111791 -0.024304 -0.0309891 0.0156772 -0.0020575 0.0654806 0.0671216 -0.0429118 -0.0219464 0.0919932 0.131298 0.0589046 -0.0042892 0.000458218 0.0387327 -0.0838852 -0.0223316 -0.0894326 -0.0647469 -0.0100612 0.0887584 0.0163757 -0.0574248 0.0887163 -0.0818948 0.0717618 -0.00456062 0.0446395 -0.0269512 -0.0166895 -0.0920626 -0.0807595 -0.00271719 -0.0299877 -0.0198546 -0.0412734 -0.0380783 0.0285327 0.0572166 0.0042887 0.0401034 0.0568918 0.00613536 -0.0945314 -0.0522789 0.0358945 0.0666308 0.00524648 -0.000820758 0.0343478 -0.018529 -0.0246418 -0.0265869 0.0939885 -0.0037176 0.16809 -0.107738 0.00933069 -0.00101511 0.082284 0.00853948 -0.0331158 -0.0775521 -0.134845 -0.00471083 -0.0423962 -0.0329324 -0.0498225 -0.0205705 0.0048831 -0.0208288 0.0343304 -0.0231727 -0.0175992 -0.0268447 0.0376371 -0.056929 0.0878661 -0.049064 -0.0570877 0.0178159 -0.0922856 0.00282699 -0.0252137 -0.0376544 -0.0571224 -0.0684105 0.0611379 0.0289615 0.0125585 -0.0115045 -0.0386633 -0.0246376 -0.0441983 -0.124574 -0.00299679 -0.0668861 0.0626103 -0.0724756 0.0213659 0.0455219 0.0173595 -0.00879305 -0.0549336 0.0408173 0.0271173 0.023689 0.0533101 0.0655798 0.0424755 -0.00757922 0.00344792 0.135019 -0.0430754 -0.126212 -0.0534266 -0.0614899 0.0163373 0.00751998 -0.0158108 -0.100337 0.104833 -0.0545346 -0.0532258 0.0152789 0.024946 0.0959839 -0.0172644 0.0558756 2.0246e-05 -0.034851 0.0329473 0.206565 -0.00168539 0.0130535 -0.0384476 -0.0911281 0.0646602 -0.0205333 0.00241813 -0.0234604 0.0239532 -0.0471504 0.00535282 0.0986337
silene -0.00671009 0.0203194 -0.0317564 -0.0388689 -0.100999 -0.0161518 0.10194 -0.00994917 0.0239345 0.079367 0.0422892 0.0116641 -0.016002 -0.0485264 -0.0249544 -0.151446 -0.0765232 0.0542314 0.0554422 0.0510887 0.0186897 -0.0262192 -0.0673882 -0.00844088 -0.115236 -0.0197198 0.0301388 -0.0487346 0.0343516 0.0470264 -0.00713426 0.0487886 -0.0725804 0.0335881 0.0752989 0.0421813 -0.00351035 0.0279737 0.0779364 -0.135245 0.0151741 -0.0762937 -0.0169377 0.00679955 -0.0118325 0.0771768 -0.0012435 0.0226234 0.058716 -0.0300019 0.00640682 -0.0981652 0.0716144 -0.0153122 -0.0812218 0.0413117 -0.00471054 -0.0908503 0.0326877 0.08309 0.0190323 0.0334878 0.0285097 0.0164318 0.0710033 -0.026036 -0.00727847 -0.0336941 0.0315135 0.0567224 0.0049984 -0.0537532 0.158543 0.0238612 0.00475026 0.0708413 0.0780945 0.041867 -0.0167528 0.000909968 0.039457 -0.021964 -0.0600097 0.0123413 -0.0703458 -0.0133936 0.150449 0.0642783 -0.00696536 -0.0287931 0.0256408 -0.03616 -0.0426671 0.0620688 -0.00956588 -0.0385045 0.00898169 0.138555 0.0600289 0.0680245 0.0247192 -0.00708799 0.0247423 -0.00982308 0.181288 -0.00413349 -0.0836781 0.0439203 0.135634 -0.0439126 0.050705 -0.0519409 0.0665553 -0.0668329 -0.0256253 -0.0112508 0.0258798 -0.00613901 -0.036457 0.00296125 0.0171104 0.0854634 -0.0236086 -0.0397307 0.0519698 0.0405829 -0.0918008 -0.0364762 -0.0164186 0.0868419 0.00210501 0.0219274 -0.029169 0.124851 0.0486151 -0.0414081 -0.0493708 0.025635 -0.0626703 0.00639448 0.0508188 0.142471 0.029732 0.063939 0.0554673 0.0412307 -0.0335804 0.023705 -0.00732648 0.048241 0.0570039 -0.100494 -0.0204467 -0.00676716 -0.08625 0.000697462 0.0702899 -0.00766871 0.132044 0.0182732 0.0445527 0.0468606 0.00643882 -0.0940875 -0.03466 0.0601215 -0.150619 -0.0528644 -0.0102584 0.00681401 -0.121278 -0.0451948 -0.0658419 -0.0177168 0.00566067 0.0787346 -0.0604473 -0.0563522 -0.044948 -0.0480984 -0.0916755 -0.0106327 -0.010559 -0.132031 0.0231536 -0.0850238 0.0302198 -0.0104098 0.0503117 -0.0705772 0.0307963 -0.134651 -0.00915849 0.120893 -0.0559859 -0.0819428 -0.0120978 -0.108465 -0.0326491 -0.0085955 -0.0721601 -0.0654544 0.00824846 0.055234 -0.0400874 -0.0942995 -0.0637597 -0.0411131 0.00706292 -0.00459891 0.114343 -0.00634512 0.0495771 0.0584846 -0.00227391 0.00241292 -0.0904435 -0.00604531 -0.076286 -0.0900733 0.0885386 0.0294467 -0.0420154 0.108837 -0.00492282 0.021536 -0.0260225 0.0006327 0.0613207 -0.0326491 0.0207397 0.0222841 -0.0896491 -0.0351671 0.01732 -0.0276459 -0.04018 -0.00158809 0.00138093 0.00143506 6.27455e-05 -0.00532153 0.0305264 -0.097822 -0.0351305 0.0230418 0.00160059 -0.0575727 -0.0370546 -0.00273374 0.00637751 -0.0497005 -0.0122391 0.0178568 0.0599788 0.082126 -0.0317969 -0.0424223 0.0995245 -0.0347873 -0.0329615 -0.0149987 -0.030858 -0.0197989 -0.0305495 0.0401028 -0.00161132 0.0641684 -0.0169913 0.124967 0.0392314 0.0348837 0.068009 -0.0344017 -0.0145999 -0.0710399 0.0214704 -0.0296607 -0.0257526 0.041734 0.0665784 0.0384178 -0.048 0.019446 0.0720675 -0.0707179 -0.020412 0.0890399 0.0555444 -0.0101549 -0.0113665 -0.0530669 0.150307 0.0425861 -0.030831 -0.0639795 0.0772751 0.0347314 0.0313612 0.00344788
petunia 0.0404719 0.0134966 -0.120855 -0.029192 0.0148307 0.0349707 -0.00307044 -0.0457834 0.0701124 0.0404323 0.0669394 0.0398565 0.03907 0.00611126 0.0979192 -0.132504 0.0198913 -0.00860196 0.0205825 0.0824042 0.0269723 -0.0441269 -0.0159351 -0.0393621 -0.0435178 0.0249341 -0.00507506 0.0366688 0.0379498 -0.0599986 0.0298282 0.0335521 -0.00110691 -0.037351 0.0449218 -0.0428711 -0.015419 0.0394685 0.0413273 -0.0228959 0.0149296 -0.134041 -0.0631195 0.0864118 -0.0565815 0.0986431 0.027112 -0.00828048 -0.0610542 0.0378267 0.0233423 -0.046647 -0.03689 -0.0672502 -0.00309715 0.154017 -0.0370548 -0.0483723 0.0284347 0.14073 0.01405 0.04086 0.0861656 -0.0137986 0.0200858 0.046476 -0.00931543 0.0336188 -0.0104935 0.0898957 0.0254181 -0.0797506 0.0864702 0.0282386 -0.0304979 0.106397 0.0051923 0.0853833 0.00922176 -0.0377265 0.0034616 -0.0683392 -0.0204955 0.0140446 -0.0253742 -0.0431297 0.0601551 0.0824021 0.058459 -0.0648469 0.124679 -0.0178231 -0.00193064 0.0897309 0.0208702 -0.0354797 -0.0555717 0.0639895 0.0226372 -0.0226998 0.0395123 0.0994504 -0.0899583 -0.0217318 0.0456332 -0.0635243 -0.113518 0.0304395 0.0608644 -0.103819 -0.0637371 -0.0911912 -0.0193093 0.0673712 -0.0534355 -0.117485 0.101136 -0.0115439 -0.0017157 0.0738843 0.00903463 0.00190696 0.0566691 0.0376118 0.0110286 -0.00884959 -0.0406201 -0.0383712 0.0297698 0.0658212 0.0248944 0.0671897 -0.0797756 0.0697703 0.0304332 -0.000311863 -0.102181 -0.0440518 -0.122784 -0.0041271 -0.00157695 0.147113 0.120133 0.0907907 0.0375409 0.036552 -0.0704441 -0.04091 0.0348539 0.0854438 0.0922823 -0.0281489 0.022633 0.0944019 -0.0420658 0.00971473 -0.0512972 -0.0175204 0.100873 -0.00440518 0.0412084 0.0603783 -0.048704 0.0233486 0.0224786 0.0845551 -0.0276795 -0.024715 0.0406555 0.137767 -0.0937238 -0.0121716 -0.113643 -0.0451846 0.0110136 -0.00933671 -0.0212603 -0.0485496 -0.0460963 -0.0588658 0.0587469 0.0183736 0.0362704 -0.159729 0.0373573 -0.0580147 -0.0483494 -0.0773077 0.0507819 -0.0448759 0.030596 -0.0792353 -0.0310966 0.0374845 -0.0152072 -0.0779148 -0.000404824 -0.0357113 -0.0705464 0.0235363 0.0329095 0.0758578 0.0468035 -0.0138723 0.0122734 -0.0241559 -0.0350604 -0.0989685 0.00734566 -0.0397293 0.0789495 -0.00864243 -0.00787158 7.77124e-05 -0.0582504 -0.096246 0.00948149 -0.0134031 -0.0402133 -0.0249487 -0.0217026 0.0184796 -0.028927 0.0888338 -0.0667996 -0.0580209 -0.060443 -0.00436513 0.0542971 0.0245711 0.0503876 0.0270745 0.0516289 -0.0323296 -0.083875 0.0648344 -0.0182985 -0.0010022 -0.0336564 -0.0125705 -0.0316641 -0.0130432 0.0149283 -0.00560432 -0.0527763 0.0202458 -0.00925952 -0.0191551 0.068116 0.012796 0.0286871 -0.0229751 0.0440915 -0.0519814 0.00779461 -0.032484 0.00367502 -0.00606224 0.117784 0.00908449 0.000129627 0.047542 -0.0520711 0.0102455 -0.00739677 -0.053085 -0.0747521 0.0177941 0.00918797 -0.0793229 -0.0608978 -0.173996 0.00458355 0.0295925 -0.0545391 -0.08385 -0.00517415 -0.00720317 0.0653372 0.0633699 0.12298 -0.00488042 0.00578978 0.109414 0.0462987 0.114867 0.0560307 0.0995276 -0.026386 -0.0103176 -0.0213896 -0.107576 0.115476 0.0414295 0.00892448 -0.0639394 -0.0207565 -0.0360805 0.0121516 0.0263777
