23 300
ship -0.119995 0.0527622 -0.070612 0.118269 -0.0341513 0.0835427 -0.134486 -0.0811793 0.00786456 -0.0555562 0.0372498 -0.0248719 -0.071992 -0.030494 0.0452774 -0.0357576 0.0312872 0.00262479 -0.0355734 0.0401199 -0.0383113 -0.0241268 -0.120646 -0.0127188 -0.081724 0.0079611 0.0668986 0.043633 0.0558707 0.0723265 0.0396573 0.0529925 0.0211505 0.0337227 -0.0272834 -0.0882515 0.00756232 -0.108841 0.00651441 -0.0520011 -0.0426196 0.0167514 0.0488886 -0.0212046 0.0208081 0.000817961 0.00790922 0.0452033 0.0239105 -0.0662036 0.0511539 0.0194926 -0.0589431 0.0328935 -0.0350847 -0.0228911 0.025613 0.000208441 0.0276079 0.0459564 0.0155026 -0.0300133 0.0121109 -0.0932988 -0.0183163 -0.0174266 -0.119076 0.0114289 -0.0471501 -0.0351788 0.0510277 0.0594819 -0.0130306 -0.00797812 -0.0279263 0.0400919 0.116102 0.0400899 -0.0718197 -0.062278 0.0540861 -0.00783191 -0.084434 0.0397734 -0.119457 -0.0952636 0.0494815 0.153404 0.0336786 -0.0655747 0.0476268 -0.0198148 0.0698909 0.00838791 0.12706 0.0920369 -0.00494775 -0.00998182 -0.0240007 -0.0109214 0.0153193 -0.0344417 -0.0315756 -0.0709745 0.0384856 0.0244553 -0.13038 -0.060962 -0.120546 0.0369594 0.0541122 -0.0501624 -0.0278022 -0.00663058 0.0571806 -0.122351 -0.0395151 0.0213809 -0.000542824 0.0354993 -0.0275318 -0.0290439 -0.0368512 -0.0268007 -0.0167388 -0.0448127 -0.0841936 -0.0129717 0.0716335 0.0761119 0.0142051 0.0814376 -0.0360461 0.118673 0.00609641 0.00696666 0.0192168 -0.0722363 0.00317278 0.0255189 -0.00552017 0.0418725 0.108709 -0.0281747 -0.0793606 -0.00324849 0.0259615 -0.0149185 -0.00348023 -0.0423972 0.0943142 -0.0673232 -0.0341153 0.00524417 -0.0331098 -0.0484059 -0.00329436 -0.0801798 0.0520131 -0.0621738 -0.131654 -0.0215451 -0.0258573 0.000202893 0.0480394 -0.046413 -0.105436 -0.0701553 -0.00180935 0.0404004 0.00494034 -0.00888684 0.0316758 -0.0445003 0.0216533 0.0302377 0.0851149 -0.0334103 0.0306483 -0.0799955 0.0693101 0.0539479 0.00139185 -0.102184 -0.0436791 0.0777243 0.0205577 0.0255429 0.0777283 -0.00960047 0.0139253 -0.0847885 -0.0166504 0.00708123 -0.00631132 -0.0501665 0.0536655 -0.041552 -0.0661876 -0.0623461 0.0246596 0.0565757 -0.0592997 0.0858981 -0.054687 -0.0202332 -0.0201471 -0.00176265 0.0565417 0.00483218 0.0848325 0.0170765 0.132561 -0.0593838 -0.0504248 0.0425334 -0.0780908 -0.0581099 0.0413798 0.013401 0.0409772 0.0225726 -0.047755 0.00996279 0.00338509 0.074079 0.0356695 -0.0576292 0.0165068 0.00703075 0.0329616 -0.0392046 -0.0243952 -0.0462488 -0.0340011 0.00624822 -0.0732338 0.0698208 0.00387119 -0.0970021 0.0264943 0.0529525 0.100996 -0.0382993 -0.117942 -0.096263 -0.0905688 -0.0618834 -0.00563614 0.0442559 0.0850348 -0.0709264 -0.0395571 0.0681304 0.0496397 -0.0107237 -0.0220298 -0.108427 -0.00345739 -0.0140098 -0.0280125 -0.0174356 -0.0846282 -0.146137 -0.039465 0.0514443 0.0298351 -0.00248779 0.0305661 -0.0601328 0.0357576 -0.0375763 0.0148839 0.0890306 -0.162084 -0.0473223 0.0473223 0.113212 0.120312 0.0622179 -0.046393 -0.0686592 -0.0278162 0.0433646 0.0146772 0.0516846 0.00659292 0.0108419 -0.0310268 -0.0285192 0.0269029 -0.112462 -0.0486222 0.0210224 -0.0693281 -0.0719519 -0.0718938 -0.0139658 -0.068531 0.0713871
coach -0.0752253 -0.0537224 -0.040346 0.0103468 -0.0153841 -0.0775659 0.062788 -0.00480061 -0.0773245 0.0222947 0.0715692 0.00729952 0.00874948 -0.0112392 0.0328804 -0.0492295 -0.0467642 -0.0145043 0.0315853 0.0775966 -0.0915929 -0.0505451 -0.0933135 0.0213085 -0.0343596 -0.0353294 -0.0055261 -0.016879 -0.10758 0.0276591 0.0345192 0.0101147 -0.0623522 -0.0418969 0.0998892 0.00089864 -0.0215397 0.0226241 -0.0185404 -0.0121701 0.0663807 0.0253636 -0.0662477 0.0287967 0.0498658 0.0383308 -0.0164537 0.134707 -0.0186717 0.144618 0.0364956 -0.0511016 -0.10965 0.0374265 0.0187447 -0.0984038 0.0353437 0.0313787 0.0823268 0.035849 0.00559157 0.0285327 -0.0710066 0.00716838 -0.0527322 0.0423367 0.0780405 -0.0425352 -0.053438 0.00188468 -0.0649178 0.0410171 0.0219653 -0.0851829 -0.0163827 0.0559914 0.0892809 0.0261022 -0.00875071 -0.0383492 0.040835 0.0642018 -0.0797919 -0.0422344 -0.0375022 -0.0798471 -0.00750985 -0.0243038 0.0204615 -0.109757 0.0208605 -0.123859 0.163931 0.0498474 0.0355565 -0.00594245 0.0625016 -0.115195 -0.0502239 -0.0484643 0.0482025 -0.0713421 -0.0178668 0.0203555 0.0454507 0.0403849 0.0973195 0.106944 -0.0187513 -0.040565 0.0399512 -0.0438692 0.0157505 -0.0255048 -0.0410989 -0.0654559 0.00620249 0.101366 -0.0852525 -0.0142766 0.0406979 0.0318165 -0.0728254 0.0508397 0.00773265 0.00464 0.0124653 -0.0730014 0.0237268 -0.0252183 -0.0221392 0.0806798 -0.0374592 0.0179223 -0.00697544 0.0326042 0.0843768 -0.123315 0.0413445 0.010875 -0.00589089 0.0959057 0.0338747 -0.00647173 0.0315403 0.0710802 0.0380239 -0.0742883 0.0589744 -0.0136935 0.00154277 0.0529695 0.0559791 0.0233688 -0.104403 0.052902 -0.005415 -0.0226016 0.0382449 0.21822 -0.0138071 -0.0718577 -0.154074 0.00715856 0.124496 0.025159 -0.0365672 0.056732 0.0672666 0.0551362 0.0851768 -0.0343555 -0.0946168 -0.00779935 -0.00414815 0.153233 -0.113298 0.0468624 0.0105665 -0.0386213 0.0105777 -0.0343146 0.00499497 -0.0399348 0.0315485 0.0232583 0.0326922 -0.110917 0.00828383 -0.0306421 -0.0116482 0.046936 -0.0115391 0.0491661 0.0208789 0.0508581 -0.0840126 0.0522064 0.032461 -0.00872821 0.0778953 -0.00464859 -0.0661434 -0.00721421 0.0249708 -0.013539 -0.0772447 -0.0610653 0.0731855 -0.0460747 0.145051 -0.0423736 -0.0648114 -0.0489124 0.0287312 -0.0249421 -0.0560568 -0.0807125 0.0769193 0.00837733 -0.00259139 0.0451867 -0.0214456 0.0575729 0.0333796 -0.0166202 0.0583299 -0.0864923 0.0390857 0.0411071 0.025828 -0.0709902 0.0606357 -0.0574133 -0.0646355 0.0414263 0.0935856 -0.00624873 -0.00946188 0.00919182 -0.0122924 0.0847656 0.0278371 0.00195486 -0.0175127 0.0774145 0.00269962 0.0197824 -0.0219509 -0.0502361 0.0690527 -0.0151799 0.00130771 -0.0763281 -0.0317858 -0.0942035 -0.0178028 -0.00254843 0.0335187 0.0975486 -0.00215786 0.0622233 0.116355 -0.0884933 -0.133259 0.0398427 0.0458885 0.0353417 0.000169482 0.0201311 -0.0142293 0.036561 -0.112056 0.0212451 -0.0635839 -0.0401558 0.0729359 0.0677535 -0.0397057 -0.0575381 -0.0188966 0.0863737 0.00704276 0.0195228 0.0383308 0.035845 0.036602 -0.0273236 0.030593 -0.024449 0.00403399 -0.0622336 0.0803381 -0.00359186 -0.00867031 -0.0280826 -0.01611 -0.0132743 -0.098324 -0.0358838
car -0.022172 -0.0356954 -0.0353134 0.0031238 -0.0968499 -0.0745003 0.0245579 -0.101132 -0.0551423 0.0308848 -0.0838284 0.017432 0.0195396 -0.031894 -0.00280109 0.0433103 -0.035806 -0.0217015 -0.0302648 0.0842345 -0.022755 -0.022669 -0.114161 -0.0898309 0.0152852 0.0134847 -0.0784243 0.0536429 -0.055075 0.0581003 0.00410107 0.0598472 -0.0494594 0.0340807 -0.0488779 0.043714 -0.0533113 -0.024147 0.00705258 0.00947497 -0.0951366 -0.0656864 -0.00661621 -0.0358108 0.0107281 0.0699491 -0.0157608 -0.0507305 0.124779 -0.034482 0.0231567 -0.0394488 0.0279052 0.0389106 -0.0375217 0.00924429 0.0816394 0.144769 0.0452495 0.0637015 0.0524607 -0.00116676 0.0714486 0.0137839 -0.0575308 -0.0520281 -0.0743945 0.0478783 0.0554283 -0.0329417 -0.0673972 0.0757738 0.0331916 -0.0596911 0.00697329 0.0295896 -0.0316081 0.0795296 -0.00846214 0.0863755 0.0267037 0.0461842 -0.0889851 -0.0524991 -0.0694133 0.0178996 -0.0347655 -0.0528067 0.0698002 0.000280301 0.000575284 -0.0431998 -0.0320718 0.0423251 0.0617143 -0.0588236 -0.048491 0.00380191 -0.0442162 -0.0815913 -0.061772 -0.070497 -0.00120829 -0.0468787 0.0724121 0.00171201 -0.0161868 -0.0287774 -0.0152963 0.0949708 0.0302961 0.0522828 -0.100572 -0.029282 0.0864332 -0.00825957 0.0920608 0.0301879 -0.100051 -0.0358636 0.101163 0.0210977 0.107778 0.0170387 0.0365893 0.0246156 0.0657825 -0.00879711 0.135338 0.0747886 0.0555772 -6.15701e-05 0.0234888 0.04369 -0.0341744 0.0608757 -0.0183629 0.035347 -0.0767326 0.0514875 -0.0107495 0.0433127 0.0316826 0.0229616 0.0769008 0.00709199 -0.0181901 -0.0285275 -0.00121569 0.0192176 0.0600683 0.024195 -0.0223143 -0.0321655 0.000926808 0.0540274 -0.0266388 -0.180916 -0.036289 -0.0605585 0.0291066 -0.0139495 -0.102727 0.0346478 0.0359333 -0.0158636 -0.0744114 0.0642013 0.0844412 -0.0141369 0.0549477 -0.0520017 -0.0768912 -0.0414096 -0.0941874 0.0657416 0.0323698 0.0802216 0.0355801 -0.0689735 -0.0245771 -0.0739044 -0.0274847 -0.0295728 -0.0123842 0.0173376 0.0189343 0.00641941 0.0693772 -0.043416 -0.0328528 -0.00509804 0.0991543 0.0937885 -0.0199683 -0.0473713 0.0380023 0.020663 0.000696584 -0.0510309 0.0127881 0.0605273 0.0569806 -0.0449876 -0.0738034 -0.0782753 -0.0603086 -0.0908017 0.109475 -0.0471093 0.117207 -0.00425678 -0.0755888 0.0136623 -0.0674189 0.0622574 -0.131 -0.113012 0.0212656 0.0234309 -0.0320814 0.00738587 -0.0115754 0.074296 -0.0308295 0.025656 0.0402658 0.0385958 -0.010521 0.0121035 -0.0562453 -0.112611 0.0275808 -0.0743513 -0.0791932 -0.0104241 -0.0102475 0.0810482 -0.0277898 0.000944542 0.0539385 -0.00259804 0.0998992 0.0847199 -0.0479912 0.0081029 -0.0342801 -0.119442 0.0261606 -0.0657248 -0.0245459 -0.0518888 -0.106683 -0.0610295 0.0563077 -0.0856042 0.0222194 -0.127641 -0.022933 0.0658786 0.00862746 -0.0435866 -0.0135849 -0.101836 -0.0830066 -0.00143378 -0.0771387 -0.0513721 0.0612145 -0.0214007 -0.121576 -0.00901289 -0.00163935 0.0366278 -0.139372 -0.128061 0.01469 0.105717 0.0450548 0.0149563 0.0255094 0.00391941 0.0332733 -0.0156168 0.10409 0.090833 0.0179638 -0.00936252 -0.0326101 -0.0120838 0.0231527 0.00752788 0.0764563 -0.0452182 0.0360391 -0.0436419 -0.0854576 0.0678706 -0.0445911 -0.01463
van 0.00934011 0.00799979 -0.067531 0.119341 -0.0553953 -0.0592022 0.0424476 0.0123648 0.020513 0.0701948 0.0971026 0.0405663 -0.05189 -0.143138 0.0346482 -0.0220506 -0.00750984 -0.0328807 -0.0263046 0.031784 0.0117945 0.0268762 -0.00724979 -0.0124875 -0.0429622 0.053436 0.0194152 -0.00605141 -0.044061 0.0119043 0.0281247 0.0179104 0.00334734 0.0246068 0.0412306 -0.00370589 -0.0679655 -0.116162 0.0218987 -0.046961 0.0286773 -0.0573757 -0.03797 0.00542754 0.0982837 -0.0125236 -0.0704458 0.0100606 0.0463262 0.00658965 -0.0412517 -0.0093669 -0.0288271 0.0431478 -0.0258385 -0.0530352 0.0630914 0.0114387 0.0576541 0.0454868 0.00550705 -0.05158 0.0808014 0.0314381 0.0579895 -0.020946 -0.111953 0.0814806 0.0401192 -0.014275 -0.0113161 -0.0771485 -0.0114395 -0.0822757 -0.00641185 0.0909799 0.0350447 0.045917 -0.00559669 -0.0973009 -0.0339458 0.0269247 -0.10634 -0.00991505 0.0179792 -0.0506541 -0.0537966 -0.0385247 0.0988173 0.0863315 -0.0249084 0.0131428 -0.0677947 0.09539 0.0253429 0.0031649 -0.0379679 0.0140478 0.0483404 -0.0215971 0.0148638 0.0734154 0.045046 -0.0689905 -0.0135311 0.0313242 -0.0696718 0.0376431 -0.0197419 0.00318157 -0.00942363 0.00987604 -0.0317587 0.00668899 0.106011 -0.0113054 -0.0654367 0.0269373 -0.0867849 -0.000136578 0.0394906 0.0495194 -0.0255601 0.013231 -0.0586517 -0.0290317 0.0503525 0.0290612 0.0579262 -0.116764 -0.0571395 0.060609 0.043287 -0.0321911 0.0811473 0.0460668 -0.00929308 -0.0322037 0.0851757 0.0859793 0.0363776 0.0682228 -0.0422451 0.0249253 -0.0955334 0.0830075 0.0152861 -0.000499201 -0.0280952 0.0696696 0.00310564 -0.080213 -0.0276207 -0.0910284 -0.0351122 0.0153171 -0.029928 -0.182677 -0.0978766 0.0225673 -0.0433629 0.00874324 -0.0310163 0.0974063 0.0697076 0.120975 -0.00492684 0.115749 0.059991 0.0656434 -0.0173281 -0.0438122 -0.122243 -0.0462461 -0.0423126 0.076172 0.0760496 -0.0222108 0.0151338 -0.125847 -0.0178718 -0.0599003 -0.0388938 -0.0192615 -0.0603137 0.00855659 0.00874113 -0.0803923 0.00280425 -0.0354454 0.0427682 0.0487791 -0.0176094 0.0850513 -0.0158338 0.0402541 0.0342685 0.0353062 -0.172486 0.0302802 0.0650908 0.0302486 -0.0629121 0.00829295 0.000444048 -0.115945 -0.0241533 -0.0342327 0.114701 -0.014009 0.0532778 0.0606912 0.0227634 -0.0300651 -0.0716227 0.0116521 0.00654008 0.0534592 -0.109797 0.00746787 -0.0182363 -0.103613 -0.0277599 0.0629395 0.0321594 -0.0630661 0.0324378 -0.00401192 0.0208583 -0.0258364 0.0473554 0.0512341 -0.0328133 0.0246026 0.0834083 0.04756 0.0895478 0.0636651 -0.0364535 -0.0512762 0.0250497 0.0199862 0.156052 0.0418212 -0.0757101 0.0146266 0.014561 -0.0600311 -0.0314972 -0.0148406 0.109808 0.00129214 -0.0625198 0.0121024 0.0170678 -0.0324821 0.0388432 0.0383855 -0.0323029 -0.0780765 -0.0615539 -0.0107956 0.0763006 0.110301 -0.0268213 -0.0752967 -0.077739 -0.0258638 -0.00237505 -0.0446769 -0.0467417 -0.0127482 -0.0647555 0.0125734 -0.0714603 -0.138717 -0.00593077 0.0508038 -0.0905813 -0.103679 -0.00187268 0.145028 0.0456661 0.0759294 -0.0215148 0.0803754 0.00614969 0.117791 -0.0177313 0.00664575 -0.0275785 -0.0947425 0.00863673 0.0428757 -0.0863779 -0.0637051 -0.0895478 0.0497218 0.0456597 -0.0117938
vehicle -0.0211953 0.0106313 0.0281083 0.14134 -0.108935 -0.0454914 -0.0287719 -0.112929 -0.0679396 -0.00856119 -0.132689 0.0173182 0.015631 -0.0413198 0.0376578 0.0176983 -0.0440693 -0.0291227 0.0436308 0.0778921 0.0841068 -0.00825211 -0.0676078 -0.0969628 -0.0555339 -0.0181852 -0.0086733 -0.0143715 -0.00255864 0.00636827 0.0200335 0.0544365 -0.0624075 0.0661928 -0.0386533 0.0530974 -0.0379399 -0.0885746 -0.0173492 0.0298859 -0.0588665 -0.032889 -0.0302107 -0.0304524 0.0539151 0.0928031 0.0101104 -0.0490822 0.159667 -0.0484328 0.0645526 -0.00424125 0.0300969 0.00522631 -0.0319741 -0.0281107 0.133426 0.0406325 0.0159401 0.0219346 0.022059 -0.0464466 0.0182902 -0.0354488 -0.0656239 -0.014682 -0.0586318 0.0375749 0.0449486 -0.0587906 0.00523271 0.0470889 0.0213321 0.0200648 -0.0510614 -0.000759177 0.00390871 0.0659273 0.0382694 0.046193 -0.0223399 0.0509808 -0.126325 -0.0677784 -0.0997004 0.0501014 -0.0261315 0.0745241 0.0192134 0.0899778 0.0136289 -0.0436284 -0.0139212 0.0427467 0.095453 -0.0370771 -0.0706843 0.0139584 -0.066162 -0.0612722 -0.0486485 -0.0842348 0.0782808 -0.116524 0.100575 -0.0102606 0.0601061 0.0641686 -0.0744838 0.0641141 -0.00514667 0.025603 -0.100502 -0.0335313 0.0203098 0.0774821 0.121817 0.0884253 -0.0445314 0.0109717 0.0797338 -0.0389567 0.0381722 0.0568376 0.0298243 -0.0658396 -0.0256693 0.0629669 0.144879 0.0272503 0.0367761 0.0284449 0.0181845 0.0335218 -0.0526328 0.0689944 0.00329506 0.0339627 0.00901342 0.00760196 0.00810634 0.0829406 0.0311824 -0.0440076 0.0050182 -0.0283477 -0.0128332 -0.0493856 -0.0019361 0.0461456 0.0588831 0.101011 -0.0123803 -0.0725876 -0.0499545 0.0176801 -0.00347472 -0.158382 -0.00802457 -0.0822059 -0.0626943 -0.0405637 -0.110167 0.0337043 0.0868633 -0.00304595 0.0207621 -0.0141146 -0.000145242 0.0232624 0.00673921 -0.0618742 -0.0121997 -0.0406514 -0.0929406 0.111248 0.0209941 -0.0323652 0.0815778 -0.0425002 -0.082879 -0.0318959 0.0246928 -0.0196241 0.0394663 -0.0210394 0.0688142 -0.0135308 0.0686649 -0.0502863 -0.0272266 -0.0063851 0.0573116 -0.00860361 -0.00401442 -0.0635381 0.014148 0.0104848 -0.0074588 -0.0461977 0.00144341 0.0831611 -0.013601 0.0340528 -0.0408624 -0.0859769 -0.0247521 -0.0379209 0.117074 0.0146005 0.0793356 0.0671456 -0.00766857 -0.0224181 -0.105752 -0.0416137 -0.113282 -0.157266 -0.0433203 0.0138121 -0.0205267 -0.00151139 -0.0805444 0.0707886 -0.0402627 0.0518601 0.003182 0.0263188 0.0206104 0.0399949 -0.00165718 -0.0574017 -0.0165765 -0.00365676 -0.0523223 0.0588001 0.00866595 0.0160051 -0.0382931 0.0207237 0.0789563 0.107724 0.0190221 0.0259727 -0.11418 -0.0353374 0.01953 -0.11312 -0.0335527 0.0210199 0.00832654 -0.0394545 -0.0904329 -0.00495871 0.00372597 -0.022037 -0.0135374 -0.0659368 -0.0150032 0.00144267 0.0118039 -0.118619 -0.0495373 -0.0190441 -0.0883755 -0.0510306 -0.0534197 -0.0753275 0.051872 -0.0608266 -0.0835782 -0.0424789 -0.0727274 0.0270464 -0.128209 -0.0801959 0.00193736 0.113047 0.0325429 0.00424907 0.0105052 0.0020334 0.0434032 -0.0824998 0.0997217 0.0487315 0.00201688 -0.0193264 -0.115204 0.00848866 0.0172366 0.000624147 -0.0281723 -0.0636448 0.0838769 -0.0487718 -0.0673684 0.0965362 -0.0451287 0.0443324
boat 0.00481125 -0.00566652 -0.0877457 0.105735 -0.0415165 -0.0376398 -0.0747857 -0.0472099 -0.0761591 0.0176123 -0.0743907 -0.0207013 -0.0692508 0.0607923 0.0583509 -0.0503333 -0.0368244 -0.0267582 -0.0160543 -0.028421 0.0288482 -0.0546694 -0.0428233 -0.0787222 0.0627214 -0.0598529 -0.00225845 -0.00470629 0.0420309 0.000408252 -0.00600183 0.019041 -0.108046 0.0352834 0.0564631 -0.100798 -0.0396241 -0.134324 0.00880994 -0.00950376 0.00912274 -0.0660746 -0.0467574 0.00966315 0.0160212 -0.0287816 -0.0374422 0.0491689 0.00317259 -0.0213616 0.0522327 0.107106 -0.0305408 0.0278193 -0.0630016 -0.00377293 0.0680175 0.00313309 -0.0187666 0.0297324 0.0677649 -0.0156785 0.0332095 -0.072101 -0.0526667 0.0550323 -0.0763819 0.0122928 -0.0236693 -0.0465852 -0.0283521 0.0289837 -0.00750315 -0.0782468 -0.0269236 0.00356715 0.0876263 0.0357427 -0.0793262 -0.0196014 0.0813518 -0.0217623 0.0127765 -0.0412409 -0.0843972 -0.032973 0.000320451 0.0506732 0.0514679 -0.0594694 -0.0262162 0.0332417 0.0378786 -0.0156762 0.152592 0.073348 -0.064793 -0.036496 -0.0135635 -0.0669817 0.00677626 0.00902881 -0.0668623 -0.0153058 -0.00480688 -0.0208972 -0.0958345 -0.0116497 -0.011729 0.00220664 0.0341075 -0.105841 -0.0543823 -0.100008 0.0816688 -0.128716 0.024976 0.0678292 -0.0419758 0.0363146 0.0686675 0.048581 0.0373596 -0.0131274 0.0290319 0.00814598 0.03456 0.0301068 0.086269 0.0454415 0.0719103 0.00517159 0.0459651 0.0877572 -0.0352742 -0.00556707 0.0753369 0.00130043 -0.0374285 0.0672321 0.0530916 0.0478024 0.0707413 -0.0203315 0.00905453 0.00498717 -0.00649262 0.0540057 0.0248015 -0.0843237 0.089629 -0.095784 -0.0317695 0.0101971 -0.0226856 -0.0199753 -0.0232007 -0.0473247 0.0195858 -0.0515276 -0.0121578 -0.0275391 -0.0602617 0.00875987 0.0663249 -0.00955268 -0.036875 -0.0368038 -0.000145346 0.0487073 -0.0124398 -0.0406989 -0.0110763 -0.0727325 0.0273508 0.0323598 0.138734 -0.0321071 0.130569 -0.142316 -0.00941419 -0.0675237 -0.00485902 -0.0525404 0.0498717 0.0425247 -0.0221397 0.00327433 -0.0578755 0.045678 0.0408964 -0.0616466 0.106107 0.0563574 -0.0994678 -0.0670414 0.0516378 0.0336688 -0.0432918 -0.078899 -0.0557282 0.102888 0.0175296 0.0655142 -0.175648 -0.121419 -0.0538679 -0.051082 0.0491299 0.00228583 0.052816 -0.0385263 0.0453909 -0.0182363 -0.0151808 -0.0206342 -0.0352444 -0.125491 0.086331 0.0309818 0.0172373 0.0871601 -0.0838621 0.0300447 -0.105503 0.0757549 -0.08109 -0.0199259 -0.0473959 -0.0360413 -0.00499039 -0.065234 0.0225721 -0.000988799 -0.0188339 0.0245672 -0.0867329 0.120689 0.00509396 -0.104532 -0.0114178 0.00979589 0.142454 -0.0395712 -0.108716 -3.3097e-05 -0.0357175 -0.0130489 0.0287448 -0.0727348 0.0756539 -0.14067 0.0169247 0.0192884 0.0435973 0.0213097 0.0185615 -0.132278 -0.0451016 0.0385354 -0.00042047 0.0574897 0.0128736 -0.17624 -0.0404049 0.0443483 0.069701 -0.0488061 0.0370059 -0.0654682 -0.0410273 0.0236693 0.00857752 -0.0149732 -0.102979 -0.0280237 0.0393944 0.0542422 0.0255089 0.00610839 0.0510591 -0.0163016 -0.0614445 -0.0469595 0.0470514 0.0934827 0.0152178 0.007101 -0.0199935 -0.0548118 -0.0802104 -0.032176 -0.0380532 -0.00362411 -0.00403544 0.00323437 -0.113739 0.0944818 -0.006446 0.052963
glass 0.024437 -0.011608 0.0181712 0.0081689 -0.0434637 0.0967675 -0.0180122 -0.0308978 -0.0189848 0.0744753 0.0370609 0.0467171 -0.0419507 0.0368842 0.00503264 -0.00529044 -0.109779 -0.0471335 -0.0204186 0.0578693 0.0071234 0.0446353 -0.0383439 -0.0669711 -0.0298836 0.0640203 -0.025824 0.00368552 0.0721006 0.000355286 0.00747561 -0.0270683 -0.0270416 -0.00181654 0.0234508 0.041331 -0.0308058 -0.132279 0.0561409 0.0322244 -0.0289637 -0.0144172 -0.0725411 -0.0444223 0.0251559 -0.0732262 -0.0159452 0.00774431 0.0206793 0.0445191 -0.0513842 -0.00491983 0.0098692 -0.0215597 0.0840879 0.0309971 -0.115634 0.0799098 0.00320767 0.0247517 -0.0167389 0.0524445 0.0138459 -0.0216035 -0.0105896 -0.102679 -0.0775544 0.017704 0.00363783 -0.0251414 -0.0899581 0.00287821 0.00490507 -0.0127244 0.0703214 0.0141882 -0.0424083 0.0532336 -0.0472497 -0.0328997 -0.027124 0.0329143 -0.0639937 -0.0246113 0.0315345 0.0230422 0.099089 -0.0415005 -0.0235563 0.0442359 -0.0467704 0.0209669 0.0471432 -0.00555841 -0.0539889 -2.30201e-05 -0.0164056 0.000611832 -0.0210097 -0.0400118 0.0218439 0.0388014 -0.0220274 -0.0284505 0.0777699 -0.087472 -0.056579 0.0305468 0.0783242 0.0708491 -0.0531199 -0.0302636 0.0421202 -0.0735094 0.0101805 -0.0451582 -0.0229269 -0.00526745 -0.0460708 0.0747367 0.0810959 -0.0232562 -0.0212971 0.00467171 0.0171877 0.0439599 0.0400263 -0.021239 0.0499923 0.113478 0.0736886 -0.0393775 -0.11463 -0.0115654 -0.0144981 0.0576151 0.0608685 0.0222387 -0.0252092 0.0925313 0.0449427 0.0576756 0.0812823 -0.0158883 0.0473804 0.0498059 -0.0268262 -0.0754218 -0.0539066 -0.0766878 0.0602924 -0.0708588 -0.0149861 0.00859349 -0.021461 0.0110144 -0.00192874 -0.0585253 -0.048598 -0.00284263 0.0485326 0.0264437 -0.0280293 -0.0135353 0.0345386 0.0619191 0.00608467 -0.00662086 0.173969 -0.00112258 -0.162911 -0.0867724 -0.00965182 -0.00546885 -0.120498 0.00541995 0.0435315 -0.0482155 0.0985685 -0.0216265 0.0597792 0.0251414 0.0322365 -0.0126109 0.0658479 0.0131381 0.0142371 -0.00993625 0.0221509 -0.0104482 0.0397479 0.0149449 0.0744317 -0.0110207 -0.050278 -0.0550032 0.0534249 0.119902 -0.0727953 -0.0301668 0.0249381 -0.0329893 0.0215956 -0.0965932 0.0195254 -0.113325 -0.13813 -0.0123327 -0.00926814 0.0131899 0.163785 -0.0151918 -0.0190194 -0.0219306 0.0295543 0.00848456 0.0460684 -0.166622 -0.0150023 0.0181545 0.0314376 0.0049956 -0.0387893 0.00436598 -0.0652742 0.0427496 -0.0946639 0.0197258 -0.0408033 0.00630351 -0.0353519 -0.088525 -0.0842041 0.0263469 0.0164567 -0.0272305 -0.0779563 -0.0615633 -0.0117583 0.0607015 -0.00493024 0.0122178 -0.0418975 0.00591111 0.0732649 -0.0416603 0.0615487 -0.0635846 -0.108343 -0.0344563 -0.0155615 -0.0487747 -0.0118643 0.0199688 0.016302 -0.0133114 0.0625751 0.0021978 0.000257175 -0.0493194 -0.131928 0.0957024 0.0513455 -0.0256376 -0.064686 -0.0849787 -0.100481 0.0617061 -0.0189829 0.0583583 -0.0323164 -0.0572472 0.0683654 0.0433475 -0.0993456 -0.14034 0.180451 0.137198 0.0226619 0.158345 0.022957 0.0493024 -0.0378089 0.0194895 0.137462 0.0642139 0.0772373 0.0627518 -0.105572 0.0516214 0.0153083 -0.0571455 0.0136085 0.0366639 -0.112688 -0.0566299 0.102427 0.109048 0.0128111 0.0753298
plane -0.0404519 -0.0512158 -0.0906099 -0.0152672 -0.0827874 0.00289586 -0.0215644 0.0250391 -0.0276075 -0.0797733 0.0402619 0.052968 -0.0718077 -0.0541994 0.081244 0.0125371 -0.0371845 -0.0144282 0.0677756 0.128006 -0.0350782 0.0760415 -0.184079 0.0185951 -0.0430907 0.0744042 0.0559257 0.102469 -0.0859234 0.0286935 0.0722416 0.120436 0.0783683 0.0145654 -0.0116697 0.0321345 0.0133945 -0.0373112 0.00103119 0.0177852 0.0250086 -0.0331877 -0.053559 -0.0268124 0.00585927 0.0217288 0.0422791 -0.0275254 0.0305653 0.022956 -0.0216575 0.0641892 0.0389601 -0.074362 -0.0513214 0.0405856 0.0402854 0.0779039 -0.0201141 0.0161651 0.00596458 -0.108474 0.0787342 -0.000849523 -0.0176024 -0.0248163 -0.071416 -0.0616701 0.0429711 -0.0172297 0.0283909 -0.0191346 0.0247037 -0.056796 0.0409938 0.0479367 0.0497146 0.00477701 0.0539508 -0.0507303 -0.0630751 -0.0348483 -0.0359766 -0.0404824 -0.0306474 0.00156375 -0.008552 -0.0575254 0.0567303 -0.10694 -0.0157628 -0.00813331 0.0399734 -0.0218064 0.108183 0.019021 0.0307506 -0.0212845 -0.0379844 -0.00545794 -0.0452088 0.00232414 0.0062294 -0.0811173 -0.0089226 -0.0803573 -0.0426662 -0.0238288 -0.0330821 0.0529586 0.0697014 -0.13955 -0.0172046 -0.0316959 0.0506482 -0.146948 0.0708085 0.052853 -0.00656247 -0.00446294 0.100332 -0.0153988 -0.0225891 0.0434613 0.0793675 -0.0503268 -0.032871 0.0101301 0.0992885 -0.00962276 0.0876146 -0.0774277 -0.0478218 0.0910063 -0.0296036 -0.0164639 0.0383081 0.0108497 -0.0300094 0.00062871 -0.0351063 -0.0998444 0.073154 -0.0269789 -0.049011 0.0767264 -0.00116081 -0.0142133 0.0125167 0.00552268 0.085581 -0.0160853 -0.0314238 0.0174434 -0.0402385 -0.0569672 0.0641799 -0.0747795 0.0744042 0.0263198 -0.0700344 0.0420211 -0.0397905 0.0502729 0.0638351 0.00452064 -0.0228483 -0.0242651 -0.0533925 2.46615e-06 0.0374777 0.0640438 0.0484128 -0.0667295 -0.0454832 0.11913 -0.0288038 -0.0379117 0.0292799 -0.0856091 0.0371869 0.000974473 0.0628077 -0.00581071 0.107339 0.0190905 -0.0768038 -0.0361056 0.0606146 0.0127417 0.043914 -0.0446927 0.0877412 -0.0912995 -0.0718335 -0.00322776 -0.0378319 0.0210814 -0.0556466 -0.0800923 0.00551001 -0.0312291 0.0135305 0.0382729 0.010816 -0.134756 -0.0775145 0.0107876 0.108251 -0.0620196 0.0819289 0.0556654 0.000705716 0.0853323 0.0123303 -0.0245489 0.0442987 -0.191498 0.0309078 -0.00388945 -0.114776 0.0773785 -0.0482745 0.00668186 0.0877647 0.0438272 -0.0822619 -0.00911306 0.000899132 -0.0542111 0.0321251 -0.0329343 -0.0607623 -0.0558061 0.0668397 0.0225162 -0.101235 0.155188 -0.0802096 0.0188972 -0.0504934 0.00525059 0.0169189 -0.0437451 -0.11707 0.0300328 0.0108488 -0.140081 -0.0501533 -0.101934 -0.0299977 -0.0910462 -0.0233327 0.018718 0.0920641 0.00384652 0.00354816 -0.105959 -0.0252127 0.0153859 0.0371587 0.0450258 0.047036 0.0168727 -0.0286536 -0.0996357 -0.0236622 -0.0346912 0.00406841 -0.0717186 -0.0699101 -0.0666263 0.0628968 0.0263151 -0.12411 -0.112579 0.0275794 0.00181344 0.0114966 0.00345082 -0.0181056 -0.0346232 -0.0437827 -0.0575137 0.0623315 -0.0313675 0.0013041 -0.0521329 -0.0369734 0.0197843 -0.00360375 0.116076 -0.0499023 -0.0133217 0.00453988 -0.0268452 -0.030828 0.0743456 0.0432385 0.0256654
rocket -0.0169031 -0.0441931 -0.0216166 0.097298 -0.0548417 -0.0811047 -0.0606247 -0.0526388 -0.112523 0.0659076 0.0207978 0.0101251 -0.0104716 -0.0388123 -0.030654 0.070554 0.0153106 0.0219082 -0.0593796 0.0415346 0.0499654 -0.054846 -0.039072 -0.0423881 -0.144407 -0.0183632 0.00895313 0.0505146 -0.022353 0.0696345 -0.041905 0.0562955 -0.0359198 0.017037 -0.0805045 0.0589433 0.0814176 -0.0552057 0.0243346 -0.0475475 -0.0215825 -0.00189366 -0.095774 0.00656436 0.024788 -0.0180591 -0.0247816 0.0134725 0.13173 0.0494461 0.0525111 0.0157652 0.0425818 0.0148115 -0.0750493 0.039187 0.077614 -0.00836546 0.0178494 -0.0314415 0.00089395 -0.0337083 0.0462385 0.0155694 0.0182615 -0.044142 -0.0550822 0.0743469 -0.104439 -0.00641303 0.041209 0.0198285 0.0192838 -0.0263971 -0.00883947 0.0937562 -0.000597095 0.0573661 -0.0819646 -0.034349 0.0190003 0.0345938 -0.100769 0.0193436 -0.0539818 0.0592221 -0.00898761 0.106853 0.102983 -0.0225467 0.000803619 -0.0142477 -0.0304475 0.0708881 0.0654499 -0.0145912 0.0835993 -0.0155775 -0.0414878 -0.0454446 0.000720034 -0.0638387 -0.0449849 -0.0185141 -0.0137089 0.00298814 -0.0651477 0.0195511 0.0295387 -0.120796 0.0389464 -0.0147274 -0.0367648 -0.0741574 -0.13936 0.0196716 0.103364 0.0752238 -0.0706668 0.0274762 0.0715927 -0.0392274 -0.0540776 0.0463407 -0.00175708 -0.0745533 -0.0272314 0.0414559 0.0380972 0.0580536 0.048948 0.0878477 0.0287809 0.0829373 0.0339212 0.0695366 0.0138173 -0.0452211 0.011318 -0.0264609 0.00214591 0.0699282 0.0819582 -0.049444 -0.0114362 -0.0285936 -0.0120792 -0.0370074 -0.0534497 0.0260714 0.0554952 0.00179369 -0.0722716 -0.0758091 0.00710712 -0.00193155 0.0871836 -0.0703092 0.00376758 -0.0183266 0.00599777 -0.0522088 -0.0377566 0.0674315 0.0158902 0.0727016 0.00372309 0.0184786 -0.047058 0.00614953 -0.116907 0.00361603 0.0426414 -0.191561 0.0354962 0.043893 0.00768712 -0.0974789 0.0150416 -0.0255393 -0.0966637 0.0662034 0.0140916 -0.0237578 0.023894 0.0689768 -0.00655053 0.00424201 0.0864386 -0.084423 0.00838994 -0.0531326 0.0107491 -0.00133258 -0.0703454 -0.065103 -0.0961316 0.0134893 -0.0141527 -0.118227 0.0218486 0.0934285 0.0445975 0.0490906 0.0268355 -0.0502187 -0.0399085 -0.0474858 0.0782398 0.0277699 0.170442 0.0908211 -0.0198832 0.0549481 -0.0593242 -0.0151644 0.0287852 -0.144648 -0.0195315 0.00959783 -0.0803598 0.0240302 -0.150001 0.0138169 -0.0519172 -0.0714351 -0.0622147 0.0680594 0.00394637 0.0522386 0.0564487 0.0380567 -0.0203031 -0.00709286 -0.0173841 0.0366584 -0.0527601 -0.0962061 -0.0338701 0.0714926 0.0252371 0.0377737 0.0539201 0.0262523 -0.0672527 -0.0391763 0.0738552 -0.0859406 0.0112157 0.0216847 -0.0181768 -0.0496228 -0.149134 -0.0423541 0.0187476 0.00431288 0.0389677 -0.0250859 -0.00900932 0.0286703 -0.0100629 0.00525983 0.00741596 -0.020385 -0.0912532 -0.0106261 0.0418496 -0.0844102 0.0889353 -0.111118 -0.0642197 -0.111548 -0.0526877 0.0612909 -0.0890566 0.00720673 -0.0226744 0.122867 0.026727 0.0553568 0.0795829 -0.114455 -0.0324781 -0.0934093 0.0195266 0.0322737 0.0229213 -0.0728037 -0.113704 0.0160717 0.0338573 0.0274038 -0.0847848 -0.032178 -0.0248433 -0.0201894 -0.0174497 0.0871538 0.0323163 0.0323525
truck -0.0114997 -0.057518 0.0178757 0.0879283 -0.116753 -0.0479336 -0.00436302 -0.135769 -0.016293 0.0170492 -0.0134933 0.123955 0.0181588 -0.057756 0.0277825 0.0311638 -0.0292062 0.0240823 -0.0315174 0.0913604 -0.00502494 -0.0820718 -0.0675253 -0.067701 0.0105022 0.0252934 -0.0536445 0.00967477 -0.0440624 0.0237449 0.0172494 0.0187295 -0.0768902 0.0138508 -0.0275953 0.0509913 -0.030757 -0.120946 0.0528564 0.0201767 -0.04348 -0.0097203 -0.0244128 0.0413791 0.057243 0.136414 0.0326267 -0.0182476 0.0909906 -0.0459136 0.05168 0.00113645 -0.0176488 0.0296915 -0.028744 0.0470253 0.146814 0.0731484 0.089382 0.0945567 0.027801 -0.011744 0.0652789 -0.0184812 -0.0369232 -0.019451 -0.059984 0.0457773 0.00358346 -0.00144124 -0.0245538 0.0420447 0.016364 0.0115813 -0.0737239 0.00375472 -0.0682788 0.0194002 -0.085497 0.0506631 -0.0244221 0.0163471 -0.108861 -0.0769156 -0.0660023 0.00319773 -0.0275491 0.0781451 0.115447 -0.00215639 -0.0469167 -0.0463134 -0.0106145 0.0512177 0.0135756 0.0317462 -0.0392228 -0.0317993 -0.05835 -0.0525952 -0.0468635 -0.0396226 0.0118107 -0.0629608 0.0828853 0.00794394 -0.0587937 0.0524126 -0.0585164 0.0529557 -0.0298695 -0.0422574 -0.110485 0.0032183 0.0829824 0.0154471 0.137953 0.0299088 -0.136213 0.0114833 0.0602405 0.0572776 0.0399023 0.0297216 0.0342445 -0.0560758 0.0308772 -0.0178235 0.0719697 0.0263704 0.0861025 0.0662796 -0.049214 0.0886193 -0.0569494 0.122099 -0.00785195 -0.00900453 -0.0618144 0.0588076 0.015434 0.0363454 0.0295621 -0.0373299 -0.0409585 0.0534896 -0.0135335 -0.0504366 -0.0194064 0.0157825 -0.0111296 -0.0234237 -0.0545435 -0.0832713 0.0313718 0.0822729 0.0269759 -0.140623 -0.0242834 -0.0819539 -0.0457819 -0.0424677 -0.09317 0.0804517 0.0504435 -0.0305559 -0.0765967 0.00588839 -0.00544904 -0.0148245 -0.0196902 0.0119811 -0.0606103 -0.0986521 -0.0844315 0.120465 0.0634184 -0.0240546 0.0391743 -0.0551814 0.000686925 -0.0331028 -0.0322616 -0.0410948 -0.0312192 -0.0552715 0.0147434 -0.0315751 0.012732 0.0453566 0.0400109 -0.0390171 0.0204261 0.0469259 -0.0033297 -0.0386173 0.006349 -0.0400086 -0.0717132 -0.0345149 -0.0193888 0.0841264 0.0577422 -0.113779 -0.0738209 -0.0726677 -0.0870801 0.0068563 0.131813 -0.000394909 0.107837 0.0243019 -0.072462 0.0471709 -0.127239 -0.0502447 -0.117414 -0.0909929 0.0130606 0.0869368 -0.0422042 -0.00891671 0.00352915 0.0947046 -0.0164758 -0.0171722 0.0351898 0.053515 0.00515506 0.0274982 -0.0321529 -0.0473951 0.0299111 -0.0258804 -0.0405378 0.0273295 0.0300521 0.021229 0.019314 0.0115759 0.00999764 0.138106 0.0829223 0.0746183 -0.0913303 0.0112817 -0.0406627 -0.0320073 -0.0532192 -0.0179603 0.00782422 0.00461655 -0.063007 -0.0367614 0.00169226 -0.0630001 0.0124512 -0.128607 -0.00110763 0.006089 0.0312701 0.0379378 0.000595402 -0.0303248 -0.0832366 -0.04657 -0.028878 -0.0855686 0.0495606 -0.0147947 -0.0467503 -0.0128046 -0.0396827 0.0929482 -0.168912 -0.0748471 0.0850555 0.0608553 0.0442796 -0.0357329 0.0123141 8.1427e-05 0.010914 -0.0588122 0.0210436 0.139003 -0.0643567 -0.00237634 -0.0742161 0.0176233 0.0407251 -0.0565727 0.0627135 -0.010807 0.0380741 0.0203246 -0.00555512 0.106921 -0.0776922 0.0263427
craft -0.0538218 0.0103928 -0.0474865 0.096405 -0.0744279 0.104143 -0.0374506 -0.0404877 0.00576176 0.0892257 -0.0183142 0.0525338 -0.0375677 -0.0512677 0.0767966 -0.0014427 0.0310568 0.00221293 0.0548561 0.0088145 0.0751158 -0.00330669 0.0388362 -0.125825 -0.0220022 -0.084315 -0.0146687 0.0107065 0.0856372 0.0618281 0.0376165 0.0401535 -0.0529729 0.00989347 0.0306591 -0.00735521 -0.0064431 -0.162446 -0.0227106 -0.014958 0.00757964 0.0524142 0.0263681 0.029093 -0.0632332 -0.0250996 -0.0210406 0.0148112 -0.000110915 -0.0543048 0.00553391 0.0213136 0.0162839 0.0655044 -0.0881181 0.0765039 0.0801484 0.0898063 -0.0321033 -0.0453447 -0.00227267 -0.0686976 0.117148 -0.0436883 -0.0304762 -0.00938558 -0.153927 -0.0377214 0.0109288 -0.0679389 -0.0813218 0.115279 0.0138242 0.0578542 -0.0488014 0.0354405 0.0826708 0.0265633 0.00662142 -0.0918529 0.000358527 -6.68948e-05 -0.00113586 0.0544292 -0.104985 -0.0291247 0.00763673 0.0468742 0.00642188 0.0461692 0.0495283 0.0281148 0.0117667 -0.0128162 0.0990933 0.0313446 -0.0676974 -0.119065 0.037897 -0.0373579 0.0182879 -0.0818512 -0.0310226 -0.00579518 0.0188034 0.0195227 -0.0861031 0.0179315 -0.0129891 0.0414732 0.105368 -0.0135407 -0.00670754 -0.103521 0.010606 0.0149997 0.0689342 -0.00059757 0.0519776 -0.0127933 0.043154 0.0168881 0.0411122 0.0219876 0.0314202 0.0170372 -0.0563027 0.0426515 0.053451 0.0771284 0.0363553 -0.0148053 0.02058 -0.00911284 0.0374384 -0.0329547 0.0152993 -0.0877278 -0.024117 -0.00974515 0.026173 0.0211299 0.000520605 -0.0435102 0.0539413 0.0712395 0.0567272 -0.0602498 -0.00687293 -0.113554 0.0425515 -0.0889646 -0.024258 0.0429613 -0.0198765 0.0124483 0.00240038 -0.0756964 0.0365211 0.0448104 -0.0520215 0.0273366 0.004503 -0.0891574 0.151917 0.091309 -0.0130179 -0.0554001 -0.0216831 0.0369846 -0.0438054 -0.091104 0.0338109 -0.0998276 -0.0257192 0.0524508 0.0486111 -0.0265682 0.0459984 -0.0615988 0.0436297 0.0765088 0.0914017 -0.0534461 0.094812 0.00695026 0.0410512 -0.0162997 0.00384654 0.0171065 0.0810535 -0.000132931 0.120051 -0.0194618 -0.0968612 -0.110842 -0.0192429 0.125432 -0.0749695 0.0395119 -0.0469986 0.0669656 -0.0472255 0.0409488 -0.0833758 -0.0602742 -0.101813 -0.0605742 0.0905747 0.0761624 0.133602 -0.01799 0.0479549 -0.0284221 -0.0951267 0.0279245 0.0629844 -0.0883182 -0.0162114 0.0379629 0.0436541 0.00360576 -0.104824 0.0306518 -0.111483 0.0534827 0.00807729 -0.0286783 0.0107544 0.0294077 0.119304 -0.0400779 -0.0105699 -0.019612 -0.0850152 0.0341646 -0.0317057 -0.0207669 -0.0379946 -0.0976101 0.0235735 0.0678682 0.0234525 -0.0466278 -0.0898892 -0.0520971 -0.0559124 -0.0408585 -0.0410829 0.0124237 0.0139178 -0.0322399 -0.0567443 0.0358161 -0.0462741 0.0305225 0.0855884 -0.105973 -0.0551806 0.0862885 -0.0945583 0.0807241 -0.0545829 -0.0826172 -0.0676682 0.0263462 0.0437005 0.0390435 0.0818121 -0.091226 0.0225094 -0.0428076 -0.00870716 0.0417001 -0.0418855 -0.0326497 -0.0170569 0.0491917 0.0194371 0.0264218 0.0755696 -0.0548268 -0.0830245 -0.0164768 0.0634259 0.0797971 -0.0066002 0.0049282 -0.0600912 -0.0306152 0.0261388 -0.00639577 -0.115904 -0.0537706 0.0568028 0.0119599 0.00310665 0.0703394 0.0556245 0.102323
bicycle 0.0134168 0.00687046 -0.00416277 0.0416762 -0.0235321 -0.0797633 0.0125795 -0.0618071 -0.0289791 0.0599766 -0.0561173 0.074177 0.0582961 -0.0700917 0.0152883 0.0402258 -0.0205649 0.00333326 -0.0651788 0.0340525 0.0316351 -0.0167163 0.0296927 0.0128726 -0.0402997 -0.054519 -0.0826157 0.0673006 -0.0122814 0.0228649 -0.0562672 0.079396 -0.0794973 -0.0188956 -0.0362693 0.050438 -0.075222 -0.0220225 -0.040059 0.0938117 0.0350638 -0.0816318 -0.0125516 -0.0830379 0.0186399 0.105352 -0.069718 -0.0198724 0.0141644 -0.0250585 0.0896483 -0.00804622 -0.0329589 0.0352073 -0.121951 0.0125483 0.0572489 -0.00448621 0.0406903 0.0455779 0.0215454 0.0319201 0.0570272 -0.0201807 0.0176307 0.00183622 -0.0775592 0.0538793 -0.0272141 0.0517026 0.015022 0.0370441 0.0404032 -0.055866 0.00294732 0.00489326 0.0217206 0.0397001 -0.0422167 0.0568013 0.0103281 0.0779793 -0.0430612 -0.102464 -0.0649106 0.0385431 -0.0885399 0.0149247 0.0762502 -0.0437305 0.0562144 -0.0755408 -0.0658016 -0.0859514 0.0619971 0.00685737 -0.0268341 -0.0871042 -0.0172226 -0.0280438 -0.0497983 -0.0284577 0.0554269 0.0164993 0.0024024 0.0197259 -0.00286751 -0.0150182 -0.0762207 -0.0353108 0.0249171 -0.0152621 0.0417375 0.062546 -0.0394636 -0.0297413 0.0889959 0.042601 -0.0645813 -0.0777555 0.11063 -0.052583 0.0343079 -0.00683478 -0.0124068 -0.0566493 0.138524 0.0497497 0.10805 0.0689263 0.0472605 0.0647396 0.00287173 -0.117635 -0.0116083 -0.023416 -0.0549751 -0.0214715 -0.0692978 0.161015 0.0378042 0.0714302 0.0503071 0.0299609 0.00873998 -0.0470684 -0.0024991 -0.00534444 -0.0352116 -0.028806 -0.00832849 0.00630422 -0.0990539 -0.0488355 -0.0554902 0.0904041 0.0378992 -0.139276 -0.0328512 0.0195329 0.0646911 -0.0533051 -0.0672267 -0.0042033 0.0851154 0.0292262 -0.0713289 0.0306977 -0.0339533 -0.0492641 -0.0196983 -0.0712761 -0.00858311 -0.0232386 -0.0815431 0.118359 0.0544684 0.0676468 0.109355 -0.00383911 -0.0160164 -0.142041 -0.0030001 0.0015595 0.0271402 -0.0783572 0.0312508 0.0233759 0.0137375 -0.0338456 -0.103405 -0.0287638 0.0679973 0.0544895 -0.0551081 -0.0254069 0.0206523 0.0760222 -0.140726 -0.0761468 -0.116147 0.0605319 -0.0315443 -0.060819 -0.159607 -0.0646383 -0.0277757 0.0764592 0.0719834 -0.0804305 0.048977 -0.0464604 0.0377219 0.0709805 -0.0337569 -0.0287152 -0.0329399 -0.180969 -0.0560645 0.0191284 -0.0560877 -0.0207239 -0.0742656 0.123447 -0.0892049 0.0532333 0.14206 0.00975085 0.0184887 0.00863821 -0.0470135 -0.0987246 -0.0304106 -0.0661035 -0.030514 0.0212899 0.0366979 0.0298659 -0.0843891 -0.0420204 -0.0317196 0.00543121 0.0933282 -0.0347598 -0.0670641 0.0122882 0.0148269 -0.0299271 0.00411147 -0.0875349 -0.0177994 -0.0472225 -0.00244948 -0.0458185 0.000600906 0.0166241 -0.0547977 -0.0671148 0.0162563 0.029849 0.0691226 -0.0137076 -0.0332671 -0.105278 -0.0668847 0.00905181 -0.0258397 0.012311 -0.0251578 0.00174086 -0.0968202 -0.0211101 -0.0445687 0.0723739 -0.0839204 -0.0636312 0.132279 -0.0033493 -0.0572151 0.0268362 0.0080061 0.112317 0.00825249 -0.0195973 0.0651534 0.0172849 -0.0261057 0.0131094 0.0122185 -0.0126008 -0.00744324 -0.0618367 -0.0539743 0.0177168 0.00138116 -0.0435278 -0.0311347 0.0952579 0.0377303 0.00909425
bmw -0.0123215 0.0159961 0.00653081 -0.026915 -0.0250314 -0.0196556 -6.35175e-05 -0.092889 -0.0516695 0.0230529 -0.106759 -0.013931 0.00273304 -0.0194564 -0.0886855 -0.0327195 -0.0274651 0.0785523 0.0375945 0.0608523 0.0361415 0.0426554 -0.0793148 -0.142521 0.0184173 -0.0285046 -0.030318 0.0208981 -0.0198548 -0.00376382 -0.0338633 0.106964 -0.00382793 0.0472915 -0.0615826 0.0079108 0.0336774 0.0338614 -0.0752365 -0.045533 -0.0686429 0.0437556 0.0699859 -0.0235765 0.0274499 -0.0300221 -0.0688496 0.0420712 0.134634 -0.0900721 -0.0585078 -0.0590465 0.0336262 -0.00433933 -0.0317787 -0.00500742 0.0619336 0.0949186 0.0180188 0.0175715 0.019942 -0.00342143 -0.02182 -0.00140992 0.0129364 -0.0102466 -0.036684 -0.0396792 -0.0675256 -0.118027 0.0678765 0.023328 0.0309307 0.0506034 0.0111169 0.109132 0.0799446 0.0617875 0.0818566 0.0389698 -0.00551882 0.0194413 0.00706289 -0.01705 -0.0523258 -0.0306007 -0.0509923 -0.0110839 0.0869896 0.0127437 0.00712378 -0.0813995 -0.0709514 0.0454249 -0.045865 -0.0913411 -0.124563 0.0137022 0.0768507 -0.0991222 0.0227039 -9.58216e-05 -0.00363502 -0.0767028 -0.019134 0.0800204 0.00421262 -0.0770708 -0.0450569 0.112454 -0.0308644 0.0473787 -0.0253368 -0.0140803 0.0318621 -0.02182 0.0546704 0.0953417 -0.0255018 -0.03433 0.112935 -0.0195114 0.0205699 -0.028645 0.0193995 0.000870181 0.0503473 -0.0237207 0.0324767 0.0976786 0.0821165 0.0657634 -0.010454 -0.0547747 -0.0825737 -0.000711942 0.0125654 0.0296446 -0.0497309 0.0669395 -0.012595 0.00833514 -0.00771542 0.0525269 0.0272128 0.0530125 0.00118584 0.0495165 -0.0538604 0.0158393 0.0415458 0.00923066 0.0164779 -0.0750771 -0.0442792 0.0547026 0.0521722 -0.0527052 -0.0525193 -0.0176276 0.0859274 -0.00840001 -0.033429 -0.000662357 -0.0145826 0.0569865 -0.0649667 0.0961877 0.139221 0.0270156 -0.04121 -0.0830137 -0.0225901 -0.00859672 -0.151315 0.0753598 -0.0125855 -0.024284 -0.00548487 -0.117818 -0.0749975 -0.0854038 -0.0132743 -0.039848 -0.0770442 0.0296143 -0.0198662 -0.0635345 0.0329566 -0.00112704 -0.0400965 -0.0674213 0.0790113 0.0782146 -0.00536555 -0.0927012 0.00401914 0.0537011 0.0734781 -0.0731423 0.0900626 0.0627113 0.0877237 -0.056296 -0.0106258 -0.0475115 0.0185296 -0.0425796 0.044816 0.0583257 0.0867772 0.0292311 -0.0718297 0.0285027 -0.075815 0.0979764 -0.045368 -0.0677665 0.0789639 -0.0416899 -0.133469 0.0392202 -0.0388996 0.0854475 0.081777 -0.0193806 0.0186091 0.0013389 0.0154783 0.0419043 -0.0604085 -0.0802708 0.019409 -0.107186 -0.0322339 -0.0329035 0.0152135 0.0566336 -0.0704184 0.0131056 0.0390874 0.0835069 0.083249 0.0877958 -0.0129406 0.0248322 -0.00826837 0.0122634 -0.0429893 -0.00490081 -0.0249878 -0.0271559 -0.0755419 -0.0462159 0.0390665 -0.043731 0.0247431 -0.189689 0.0109107 0.076221 -0.022812 -0.0150039 -0.031037 -0.0163569 -0.055156 0.00844307 -0.0128962 0.00531794 -0.00854437 -0.0726491 -0.123562 -0.051237 0.0680909 0.0107692 -0.0745289 -0.145071 0.00277098 0.123512 -0.00595378 0.000584983 0.0468969 0.00884673 0.0233697 -0.0868094 0.105061 0.0437556 -0.0054511 0.0153301 0.00584281 -0.01303 0.0449621 -0.0611483 0.109422 0.0347169 0.073736 -0.126415 -0.0789942 0.0676603 0.0413428 0.00291742
airplane 0.0173851 -0.0399457 -0.0729706 -0.0190439 -0.0769237 -0.0325692 -0.0762676 -0.0298305 -0.0209815 0.00321541 0.0246297 0.0685619 -0.00927718 -0.0578836 -0.0155818 0.0438129 -0.0294535 -0.050333 -0.0205411 0.0504379 -0.0322448 0.0548872 -0.0855813 0.00825348 0.0462105 0.0453183 0.104593 0.0771575 -0.0539019 0.050259 0.0539163 0.073276 -0.0378201 0.032803 -0.0177129 0.0757022 0.0534654 -0.077835 0.000242766 0.0118239 0.0251617 -0.0707687 -0.0669778 -0.0156388 0.0352149 0.0149002 0.0248062 -0.0786295 0.0630606 0.0128242 0.0428205 0.0688124 -0.00517477 0.0458694 -0.0756331 0.0510177 0.101332 0.0534009 0.0685214 0.0674907 -0.0108396 -0.0713388 -0.00444928 -0.0245653 0.0134409 -0.06902 -0.0212158 0.0194936 -0.000740347 -0.0459481 -0.0063113 -0.00658518 0.0287331 -0.0169016 -0.000482789 0.0488658 0.0549922 -0.00641556 -0.0541238 0.0179069 -0.0276261 -0.00534868 -0.0318655 0.00751535 -0.026605 -0.065346 -0.0864092 0.0161117 0.122967 -0.0879479 0.00462463 -0.0299927 0.0497771 -0.016062 0.139789 0.0615433 -0.0156429 -0.0290361 -0.103159 0.0373573 0.0314671 0.0126393 0.00994707 -0.0594009 0.00696903 -0.0723432 -0.0420308 0.0312309 -0.0188671 0.125522 -0.00445239 -0.0929865 -0.0780832 -0.129442 -0.0173784 -0.0768688 0.133765 0.0517214 -0.0776012 -0.0506479 0.146884 -0.0828187 -0.0341915 0.0571059 0.0863829 -0.0843169 0.00374933 -0.00296229 0.0614717 -0.0363243 0.0519147 0.0108131 -0.0382949 0.0365104 -0.0480069 0.0219272 -0.0071847 0.00624093 0.00493191 0.0153564 0.0246273 -0.0981562 -0.00778827 0.00935709 -0.0262758 0.087633 0.0976624 0.0114479 0.0174054 -0.0309541 0.0976886 -0.0473318 -0.0472364 -0.0236621 -0.0305605 0.0324166 0.0777873 -0.0409143 0.00790994 -0.0263522 -0.0166191 0.0727702 -0.05655 0.0306726 0.0603313 0.0213151 -0.0242146 -0.0421358 0.0138949 0.0265144 -0.0081311 -0.0345064 0.102069 -0.0741826 -0.0566622 0.122108 -0.0557699 -0.0601858 0.0560324 -0.112425 0.0119112 -0.027984 0.0664768 -0.0153626 0.0700053 0.027774 -0.103865 -0.0296492 0.0565811 -0.018672 -0.000393135 -0.0111848 0.0915932 -0.0395903 -0.0164848 -0.10026 0.0148005 -0.00617031 -0.0583345 -0.0688506 -0.0845125 0.103751 0.0052721 -0.033743 -0.0531815 -0.130394 -0.110128 -0.0699575 0.10247 -0.0306965 0.0864187 -0.0797388 -0.0395306 0.0482908 0.0522177 0.0649786 -0.0352579 -0.202451 -0.0420213 0.0714796 -0.0594582 0.038135 -0.110101 0.0215479 0.066608 0.0718303 -0.0647687 -0.0525421 -0.0119396 0.018133 -0.0141375 -0.00490638 -0.0543361 -0.0341867 -0.0179009 -0.00720641 -0.0554502 0.101114 -0.0509342 0.00488252 -0.0538208 0.0175839 0.100306 0.0171707 -0.0903574 -0.0515759 0.0381636 -0.147182 0.0624737 -0.11728 0.014914 -0.0768354 -0.0679989 0.0239045 0.0839614 -0.00419497 0.0093423 -0.0284492 -0.0549779 -0.00553214 -0.0156376 -0.011576 -0.0299211 -0.071952 -0.0690605 -0.0130659 -0.0791806 -0.0422885 0.00515998 -0.0984974 -0.0130756 -0.0842954 0.0226119 0.0331895 -0.123848 -0.0975693 0.0514471 -0.00120181 -0.0211986 0.0296969 0.00564403 -0.041809 -3.82281e-05 -0.0704347 0.0843718 -0.0110905 -0.0286066 -0.0412626 -0.0100492 -0.0370018 0.0261375 0.0534964 -0.063249 0.0252476 -0.0262901 -0.0587067 -0.00936616 0.102839 -0.00167544 -0.0112606
canoe 0.0133648 0.00233484 -0.00943244 0.146159 0.043242 -0.121082 -0.0265944 0.00744118 -0.124801 0.0222411 -0.0108615 -0.0220816 -0.0466266 -0.0206628 0.0358346 -0.0591052 0.0241461 0.0917565 -0.099143 0.0130429 0.00218575 -0.00859236 0.0586664 0.0452154 0.0560909 -0.136087 -0.0300511 -0.0363816 0.00330407 0.0237796 0.0700453 0.0743055 -0.041318 0.0717869 -0.0578231 0.0178869 -0.0237169 0.0134795 0.112241 0.0179251 0.00369115 -0.0352648 0.0524822 0.0279828 0.0413161 0.00853443 0.0109899 -0.0110558 0.00139836 -0.00845257 0.00378726 0.0650956 -0.0511698 0.0636616 -0.0152486 -0.000286456 0.0368526 0.0817318 0.0360891 0.0120322 -0.0058372 -0.0320454 0.0855571 -0.0947688 0.0404519 0.0445544 -0.0373465 0.0262658 -0.0735932 -0.0402353 -0.00441821 0.0842769 0.110839 -0.0221556 -0.0217701 -0.0874127 0.117449 0.0114362 -0.10524 -0.0201481 -0.0388317 -0.014286 0.0617965 -0.00821307 -0.0345715 -0.0388659 0.024714 0.0531716 -0.00699047 -0.0192725 0.0258631 0.00684555 -0.00694489 -0.0522201 0.123944 -0.0166901 -0.0745847 -0.0391432 -0.00236504 -0.0645106 -0.070125 0.0452629 -0.0667594 0.0141526 0.030281 -0.0165353 -0.0252155 0.0485221 -0.0441726 -0.011762 -0.00346095 -0.0906966 0.00647689 -0.0672058 -0.0141952 -0.12308 0.0534148 0.132193 -0.0167148 0.0105272 0.109935 0.0631165 0.0494889 0.0816198 0.0346817 0.0601973 0.0637965 0.00695552 -0.00173486 0.0360074 0.0320663 0.0237568 0.0358745 0.0514964 -0.0533521 0.0432249 0.0900357 -0.0308014 -0.0698838 0.145052 0.0673539 0.00533996 0.0320188 0.0655724 0.0371223 -0.0127217 0.030469 -0.00760357 0.12859 -0.0730234 -0.0658155 -0.101756 0.00537433 -0.0335516 -0.0470083 -0.0312933 -0.0245355 -0.0212288 0.0265849 0.058391 0.00365468 0.0175475 -0.0714698 0.052317 0.0604214 -0.0116545 -0.00587139 0.0484632 0.0253047 -0.0396124 -0.0515705 -0.160768 -0.0917337 -0.107849 -0.0583492 0.0462999 0.023299 0.04611 0.138127 -0.222411 0.036205 -0.0338555 0.0955703 -0.0513882 -0.042317 0.0146638 -0.0513901 0.092332 -0.00214244 -0.00567899 0.0648506 -0.0259581 0.0999616 0.0595819 -0.0813861 -0.033166 0.0193655 0.0715343 -0.0457719 -0.0502429 -0.040733 0.0725277 -0.00601251 -0.0523739 -0.101454 -0.0782618 -0.00179353 -0.0504936 0.00937622 -0.0609874 0.0951278 -0.039411 0.00744422 0.068598 -0.0195023 -0.0501536 -0.00920623 -0.0455174 0.014998 0.0755552 0.0214111 0.0267292 -0.0216523 0.0345545 0.00337206 -0.0465468 0.0439618 -0.0725353 -0.0506 0.038374 -0.0225583 -0.0340549 0.0298213 0.0434072 -0.00752475 0.040412 -0.0805694 0.0583283 0.00613274 -0.0443911 -0.0181843 -0.0618345 0.0510767 -0.0268622 -0.0371565 0.023451 0.013251 -0.00704498 0.00570254 -0.0200892 -0.0153954 -0.103225 0.0232497 -0.0279144 0.0104165 0.0227027 0.0393237 -0.15388 -0.0135618 0.114495 -0.0476427 0.112271 0.0156085 -0.0575268 -0.0985561 0.00325279 0.0804403 0.0302335 0.0440568 0.0633349 -0.00288508 0.0455781 0.0379182 -0.0517073 -0.112776 0.05143 -8.2275e-05 -0.0644461 -0.0738781 0.0975608 0.0094689 0.0454794 -0.00661384 -0.0745752 0.109878 0.0962161 0.0235953 0.0225621 -0.0532229 -0.0362278 -0.0389077 -0.0216637 0.00378194 -0.0997868 -0.0222582 -0.00314946 -0.0128015 0.0407406 0.0128731 0.0533141
tractor -0.000997831 -0.0711003 0.0390968 0.117751 -0.0794155 -0.104981 -0.00895784 -0.132383 -0.0708387 -0.0190657 -0.0434867 0.0528 -0.0049222 0.0128027 0.0760677 -0.010424 -0.0699118 0.00158833 -0.0284045 0.0809472 -0.0606633 -0.0592049 -0.0287142 -0.0825395 -0.0364415 0.00300094 0.00974103 0.0445705 -0.0161522 0.0229622 0.0856844 0.0835041 -0.0732743 -0.0386532 0.0128981 0.0508708 0.00988332 -0.0448781 0.00689409 -0.0237238 -0.0306978 -0.0287414 -0.0139499 -0.00551456 0.0446877 0.144419 0.00627725 0.0118414 0.0952321 -0.00695163 0.0786121 -0.0437378 -0.0132289 0.0389064 -0.0737367 0.0474895 0.151039 -0.00280279 0.0230542 0.00181622 0.0370755 -0.0813552 -0.0317085 -0.0505925 -0.0467257 -0.108743 -0.0541308 0.00745005 0.0159624 -0.0580959 0.0288879 0.0113296 0.0955795 0.00725399 -0.000596234 0.0634127 -0.0268352 -0.00461566 -0.0968475 0.0393604 0.0730023 0.0364457 -0.0547815 -0.050695 -0.153832 0.0225667 -0.0257869 0.0106301 0.155529 0.00450706 -0.0109182 -0.0363055 -0.00898483 0.101662 0.0795516 0.0145898 -0.0170019 -0.0801897 -0.0935875 -0.0328007 0.0447233 -0.00541308 0.0029524 -0.0463512 -0.0503163 -0.0017904 -0.0236882 0.0614501 0.0184997 -0.0332841 0.0366989 0.0515697 -0.072657 0.0088302 0.0913235 -0.0512495 0.142763 -0.0396806 -0.0628164 0.109906 0.0386134 0.0189209 0.0480523 0.0440391 0.00946211 -0.0791561 0.0382452 0.00838326 0.0602909 0.0148304 0.0650846 0.0278605 -0.000274734 0.0573657 -0.0441207 0.0842909 0.0213615 -0.0375463 0.0163895 0.0258895 -0.0231107 0.00341524 0.116167 0.0200054 -0.0140901 0.0918508 -0.00127131 -0.0327589 0.0183785 0.0151893 0.0695184 0.0739355 -0.0501866 -0.048203 0.0142278 0.0914888 0.115891 -0.0680914 0.0158883 -0.0383812 0.0153891 -0.018141 -0.0559177 0.0496342 0.0729479 -0.0234058 0.0590605 -0.063193 0.0429134 -0.0148202 -0.0328572 -0.0461859 0.00401995 -0.0806815 -0.0562086 0.112944 0.00185309 0.00382452 0.0974835 -0.0387515 -0.043857 -0.016736 -0.0399819 -0.0674699 0.0402058 -0.0213322 -0.0197265 -0.105194 0.0400154 0.0735819 0.051463 0.000970776 0.128338 0.059366 0.0404569 -0.0311079 0.116401 -0.0110685 -0.0656307 -0.0459202 -0.0927861 0.0696272 -0.0088189 -0.00876597 -0.0535554 -0.0437461 -0.173704 0.00334828 0.0931774 0.0633939 0.101371 0.0585228 -0.0776161 0.0512621 -0.0525552 0.0359038 -0.099804 -0.0792398 -0.00394065 0.0156222 -0.0362385 0.0341273 -0.059479 0.0811606 -0.051712 -0.00849918 0.069395 -0.0539111 0.0242364 -0.00683425 0.0205534 -0.00375442 -0.0293524 -0.0612555 0.0256426 0.024408 0.0229684 0.00895679 -0.0052233 -0.0549636 -0.00640781 0.107414 0.119274 0.00574138 -0.0976593 -0.0369918 0.0204647 -0.0532792 -0.0104206 0.0118648 -0.0781057 -0.0667564 -0.0223156 -0.0231505 -0.0590187 -0.022483 -0.0528251 0.000933845 -0.0518773 0.00599854 0.00436499 -0.0316896 -0.0295596 0.0413922 -0.123097 0.0026061 -0.0644004 -0.0577758 -0.0409883 0.0351358 0.0276429 -0.0484666 -0.0574326 -0.00340206 -0.118291 -0.124566 0.0357113 0.0553339 0.0591317 0.0368077 0.0400823 -0.023797 -0.116422 -0.0580415 0.0412185 0.0538902 -0.0694536 0.0336188 -0.0593137 -0.0381447 0.00282309 -0.0319324 0.0724415 -0.000303861 0.045192 0.0440956 0.00290239 0.107125 -0.0122955 0.0408502
cart -0.0342897 0.011782 0.0106672 0.0539104 -0.0900424 0.00348463 0.0370124 -0.105603 0.0254785 0.0584848 -0.00695343 -0.0642611 -0.0336585 0.0121286 0.0656609 -0.048926 0.039868 0.0943141 0.016785 0.0686492 -0.0233357 -0.00598497 -0.0791513 -0.0749402 0.0464012 0.0841683 -0.0746211 -0.0122648 -0.0112863 0.0348533 0.0870751 0.00964173 -0.0639373 0.0260608 0.000436225 0.0561766 -0.00248077 -0.00739084 0.0424533 -0.0447359 -0.017395 -0.0727765 -0.0243815 -0.0454742 0.0143676 0.045982 -0.0455581 -0.106228 -0.019123 0.0635391 0.0430123 -0.0280615 -0.0400007 0.0498949 -0.0165539 0.0401801 0.131625 0.0616012 0.0573156 0.053575 0.0610935 -0.106759 0.0629894 0.0206905 0.0164859 -0.0125187 -0.0148096 -0.0142648 0.0231454 -0.00154678 -0.00552403 0.0385241 0.125408 -0.0934895 -0.0351491 0.0681694 -0.0285949 0.0509035 -0.122608 0.0514974 0.0171309 -0.0212977 -0.00264544 -0.0767337 -0.167554 0.12702 -0.0399029 0.0110518 0.161603 0.0345831 -0.0310102 -0.0509058 0.00247891 -0.0554662 0.0619366 0.0321934 -0.0465643 -0.0248124 -0.0452297 0.0800923 -0.014668 -0.0342361 0.000851279 0.0550493 -0.0468787 0.0635833 -0.058599 0.00657681 -0.0224718 0.0609956 -0.0260724 0.0262658 -0.0864672 0.00952364 -0.0356476 -0.0411467 0.0185859 -0.0157234 -0.016045 0.0283969 0.0952643 0.0442281 0.0159425 0.0857265 0.0288907 0.0351258 0.0980151 -0.0416544 0.0714255 0.070042 0.0516697 0.0465223 -0.0377974 0.0690917 -0.0564305 0.0723409 -0.0331903 -0.0540385 -0.0681624 0.120459 -0.11379 0.113101 0.0615966 -0.0284342 0.0586898 0.0265359 -0.00895719 0.0421435 -0.0703961 0.0112929 0.0327711 0.0200942 -0.0785434 0.0428959 0.0641889 0.0407414 -0.0276097 -0.0507078 -0.0406249 -0.0671329 0.0154616 -0.0845782 -0.0414588 0.063921 0.0685933 0.0186341 -0.0210462 0.0663364 0.0359597 -0.00982992 -0.0823376 0.0151075 -0.0587154 -0.00917194 -0.0538638 0.0417662 -0.00821256 0.123405 0.080819 -0.0297176 0.0154734 -0.133728 0.0697276 -0.0745117 0.0172266 0.000342734 0.159043 -0.0835534 0.00144109 0.0211542 0.0258442 0.00389386 0.0322889 0.102634 -0.106097 -0.0373222 0.0474866 0.0424324 -0.0457141 -0.0171758 -0.0650623 0.0458655 0.0780124 -0.0680017 -0.178976 -0.0407274 -0.0355381 -0.0294218 0.0223379 0.001336 0.110162 -0.00617503 0.00133192 0.0384518 -0.0563443 0.0362555 -0.0545229 -0.0457374 0.0238411 -0.0314085 -0.117333 -0.00698883 -0.0224129 0.110234 -0.0210145 -0.029268 0.0811055 0.0554965 -0.0109945 -0.0370777 -0.0864788 -0.0881302 0.0929795 0.00939274 -0.0207541 -0.016508 0.000940369 0.023713 -0.0258535 -0.0100768 -0.0221804 0.109099 0.0433663 0.0381211 -0.0677455 0.0552659 0.0796661 -0.00385939 -0.0491869 0.040802 -0.00898304 -0.0419735 -0.0697765 -0.0584685 -0.0379581 0.0368284 -0.0568102 -0.146033 0.000937155 0.0194053 -0.00648737 0.010235 -0.047079 -0.00207119 -0.0955834 -0.0469439 -0.0573109 -0.0777701 0.0689869 0.0201366 -0.0702027 -0.0576067 -0.0111834 0.0306329 -0.0721825 -0.071202 0.0217409 0.0183565 -0.0010722 0.0226123 0.0746141 -0.0438951 0.115358 0.0223146 0.0562978 -0.00260934 -9.70275e-05 0.0556572 -0.00155675 -0.0308751 0.045805 -0.0316228 -0.024852 -0.0790395 -0.0104767 0.0222974 -0.0272836 0.0860223 -0.0309194 0.0649156
kayak 0.00517931 0.0462039 -0.0535484 0.102949 -0.000546436 -0.153297 -0.0125125 0.0217604 -0.172509 0.0264393 -0.034038 -0.0124228 -0.0107197 -0.0570302 0.0230788 0.0322268 -0.0181245 0.0395733 -0.0684897 -0.0228729 0.0641534 -0.0488041 0.0900808 -0.0111393 0.00117236 -0.148393 0.0119773 0.0370578 -0.0312087 0.0757458 0.0256598 0.0676044 -0.0292859 -0.0161866 -0.0273035 -0.00408994 -0.00441464 0.00916301 0.0239007 -0.0438173 0.0261679 -0.0082359 -0.00867569 0.0221319 0.0392173 0.00750259 -0.0250516 0.0554827 0.0351389 0.00282716 0.0592705 0.0994905 0.00428145 0.0381876 0.0182442 -0.0506306 0.0716 0.0460229 0.0392981 0.0582677 -0.0068253 -0.0461403 0.0767581 -0.113804 0.00213004 0.121436 -0.0354468 0.0849303 0.0200744 -0.0502399 -0.0225361 0.0307371 0.057519 -0.0416886 -0.0380066 -0.109127 0.0616205 0.00296574 -0.100715 -0.0199493 0.0196895 -0.0484249 0.0262026 -0.0480323 -0.0499801 0.00617976 -0.0410707 0.0333759 0.050877 0.0126902 0.0117377 -0.0413556 0.0370154 -0.0529094 0.11575 -0.02407 -0.0749509 0.0163311 0.0168906 0.00801879 -0.0428896 -0.0325309 -0.0725296 0.00243838 0.0188553 0.0322903 -0.0652158 0.121778 -0.0278501 0.0654545 -0.0242298 -0.0591762 -0.00248938 -0.119294 0.0113088 -0.108009 0.0135798 0.0983319 0.0313126 0.00391672 0.0939744 0.0269821 -0.014346 -0.0126707 0.0534714 0.012946 0.0571303 -0.0129394 -0.0536832 0.063882 0.0521954 0.0268454 0.069606 0.068201 -0.0777744 0.0119365 0.0285257 -0.00640784 -0.00130312 0.147912 0.0992961 0.0512696 0.0353236 0.0331988 -0.00895534 0.0161209 0.0429223 0.0275903 0.121384 -0.0899364 -0.0115983 -0.0854346 0.00189777 -0.0802572 -0.0802803 -0.0502669 -0.0192468 -0.0286123 -0.0374138 0.0372291 -0.0192018 0.00986129 -0.0223301 -5.01956e-05 0.063984 0.0339148 -0.0550824 0.0505382 0.0184989 0.0100006 -0.0091609 -0.156936 -0.0809212 -0.0724796 -0.0909161 0.0873689 0.0891473 0.0552133 0.133494 -0.0935317 0.0203496 -0.10533 0.0535022 -0.0256483 -0.0507711 0.0328524 -0.0961358 0.00763655 -0.0168346 -0.00922865 0.0329524 -0.0104924 0.149322 0.0329601 -0.00681837 -0.0322653 -0.0124003 0.0543356 -0.0467081 -0.0736286 -0.0282466 0.0785019 -0.00207403 0.0125868 -0.133563 -0.103804 -0.000647809 -0.00111297 0.0155033 -0.0146995 0.12808 -0.0986591 0.0243087 0.0222185 -0.01345 0.000533733 0.0841374 -0.109986 0.0381664 0.067562 0.0397235 0.000282254 -0.0702874 0.0682722 0.0320478 0.00218451 0.0641284 -0.0629062 0.0412882 0.0308815 -0.0299114 -0.0352755 -0.0116755 -0.0214698 0.0350869 0.0771238 -0.0906505 0.0215795 -0.0283063 -0.0701911 0.0326734 0.0032096 0.0903445 -0.0340322 -0.0539738 0.0216122 0.00382261 -0.0600269 0.00669731 0.00906871 0.028083 -0.148316 -0.0349156 -0.054505 0.00845069 0.050569 0.0412978 -0.12517 -0.032758 0.0970385 -0.0583505 0.0840007 -0.0198877 -0.0729434 -0.0770699 0.0439347 0.0122286 0.044666 -0.0258542 0.0103586 -0.0452454 0.0479495 0.0193199 0.00511772 -0.0631507 0.041371 0.0879598 0.00791428 -0.0661551 0.0223917 0.0581831 0.0459652 0.014682 -0.0821088 0.0900327 0.135925 0.0170121 0.00908583 -0.0273632 -0.0385725 -0.0915243 -0.0254539 -0.0177775 -0.0780073 0.02499 0.0292705 0.017837 0.0707012 0.0473125 0.031276
sled 0.00712722 -0.0642794 -0.131152 0.0863056 -0.00323367 -0.0166651 -0.0971803 0.0273646 -0.0436202 0.0320833 -0.0505322 0.0259741 0.0379965 -0.104991 0.0333886 -0.0327604 0.0664556 0.059056 -0.0221263 0.0411054 0.0245815 -0.109075 -0.0232698 -0.00959112 -0.057295 -0.0109984 -0.00971441 0.061179 0.0389675 0.04918 0.102172 0.0874704 -0.0645243 -0.0796535 -0.00593669 0.0318938 -0.0700734 -0.0473125 0.0264064 0.039781 0.0543757 -0.0361397 -0.0413993 0.110883 0.00363037 0.0216238 -0.00663215 -0.0310377 0.134368 0.00934688 0.0852707 -0.033576 -0.077226 0.050826 0.043337 0.0414887 0.0596842 0.00285144 0.0227438 0.0339252 0.00445635 -0.0443463 0.0793873 -0.0154373 0.00161366 0.0430538 -0.00174168 0.140715 -0.0073589 0.016532 0.0650651 -0.0206083 0.129888 -0.101228 -0.0636874 0.0309994 0.0601378 0.00177015 -0.1748 0.00180863 -0.0157612 0.0189401 0.0830903 -0.115563 -0.124321 0.0279736 0.0120237 0.0305118 0.117137 0.0282653 -0.0173273 -0.0700521 0.0605019 -0.0531172 0.103298 -0.00650055 -0.0435499 -0.0473956 -0.0353625 0.0470293 -0.0509261 -0.122916 0.00530895 0.0212456 -0.0329137 -0.0336292 0.0512263 0.0382968 0.0165963 0.0945186 0.0363399 -0.0640132 -0.061145 -0.0140192 0.03802 -0.0315807 0.0413418 0.0457687 -0.00376771 -0.0225458 0.0473871 0.0133795 -0.0554574 0.0906985 0.0765361 0.0559365 0.118591 0.0481856 0.0592903 0.0714128 0.00693878 0.0880027 -0.0571098 0.0230334 0.030054 0.0287849 0.0350729 -0.0480663 -0.0793298 0.134495 0.0130152 0.0550528 0.113161 0.0211966 -0.0211598 0.05099 -0.0113755 -0.0675011 0.0244665 -0.000657636 0.00258612 0.0727181 -0.0547866 -0.00668197 -0.0213959 0.0292576 0.0308844 -0.0225139 -0.000758057 -0.0712893 -0.0190291 0.020399 -0.0187551 0.0393615 0.0557065 0.0895061 -0.0403708 0.0309121 0.000351325 -0.00222008 -0.031091 -0.100038 -0.00972378 -0.01354 0.00288402 0.0824451 -0.0383883 -0.026581 0.0654612 -0.0480812 -0.0316361 -0.108311 0.0246262 -0.0146218 0.0264617 -0.0676119 0.0587473 -0.00577571 -0.0339124 0.00118434 -0.0881688 -0.0555106 -0.0096961 0.0187545 -0.087743 -0.069524 0.0322877 0.000833969 -0.00091678 -0.0403963 -0.0760676 0.0850408 -0.0598375 0.0133748 -0.122339 -0.0833224 -0.0584172 -0.0409372 0.0422915 -0.0431794 0.16805 -0.0410309 0.0482388 0.0662192 0.00295301 -0.0970398 -0.104275 -0.0833032 0.050662 0.0298602 -0.0714618 0.0295089 -0.0526913 0.0811781 -0.0341296 -0.0379965 0.00343063 -0.029396 -0.0445145 0.102103 -0.0436841 0.00232528 0.00595032 -0.00204767 0.0304479 0.0922785 -0.0618327 0.0176325 0.0289254 0.0113351 0.0279331 0.0995695 -0.00376558 0.0215301 -0.0133405 -0.0225032 0.0323047 -0.0863567 -0.0366912 0.0186271 -0.0257612 -0.118272 -0.00814379 0.0325347 0.0790104 0.0383351 0.0326433 -0.189088 -0.0421318 0.00919889 -0.0562027 0.064124 0.00699968 -0.0331245 -0.105112 -0.0167592 0.0360098 -0.0359374 -0.0554915 0.0177632 -0.0758611 0.0214939 0.0456559 0.0339784 -0.072173 -0.0369957 0.00187462 -0.0384011 0.00640473 -0.0255227 0.0236552 -0.155259 0.0519823 0.0516458 0.0804264 -0.0234252 0.00297857 0.0172579 -0.0497762 0.0189314 -0.0413056 -0.0213321 0.0331714 -0.0287785 0.0102348 0.0365571 0.0243579 0.0618902 -0.00558535 0.0689065
lorry 0.0401717 -0.016538 -0.0606143 0.0937959 -0.0948671 -0.105375 -0.0218311 -0.0835746 -0.0263063 0.0359379 -0.0197829 0.0911213 -0.0586354 -0.00967996 0.0811783 -0.0402557 -0.0442134 -0.0739673 -0.0131677 0.0966538 -0.00109936 -0.096921 -0.108567 -0.055994 0.00931444 0.0204472 -0.0796279 0.056259 -0.0266067 -0.0136958 -0.0217423 0.0561198 -0.0552298 0.0101009 0.0569525 -0.00102069 0.00831638 -0.0768628 0.118514 0.0465413 -0.109457 4.0704e-05 -0.055793 -0.0357745 0.0688567 0.0732385 -0.038226 -0.0697291 0.0726687 0.0493704 0.0625689 -0.0363222 -0.0096709 0.00712287 0.0382547 0.00207705 0.127881 0.102438 -0.0235058 0.155824 0.0822826 -0.0185522 0.0270749 -0.0410066 -0.0446021 -0.127243 -0.0327929 0.0435685 -0.0147199 -0.0136684 0.000900546 -0.046157 0.0190085 -0.0114598 -0.0412782 -0.0349352 -0.0130286 0.0796964 -0.0710388 0.0165899 0.0354189 -0.0372056 -0.144558 -0.0456645 -0.0328437 -0.00296722 0.0220385 0.0612415 0.0903837 -0.00652501 0.0537081 -0.0407703 -0.0813307 -0.00717786 0.0292106 0.097376 -0.02125 -0.0176268 -0.0981512 -0.0217957 -0.0238703 -0.0526325 -0.0204481 -0.0507265 0.0571005 -0.0675956 -0.0188636 0.0369362 -0.0776512 0.051738 -0.0155238 0.0688236 -0.0604222 -0.00891115 0.00764166 -0.00459538 0.0437695 -0.000376186 -0.0418304 -0.018596 0.0443967 -0.00933321 0.0127536 0.0363929 -0.0135712 -0.11586 0.0254737 0.0128336 0.0791089 0.0552386 0.0356177 0.0653605 -0.0173941 0.0854276 -0.0606099 0.039041 -0.0107319 -0.0758711 0.0706346 0.0127391 -0.0435398 0.0718118 0.0526701 -0.10919 0.0238813 -0.0133385 -0.0561022 -0.096921 -0.0446529 0.00846038 0.0163949 -0.0498254 -0.0439528 -0.000943127 -0.0235346 0.0127987 -0.0756944 -0.151742 -0.00775452 -0.00974864 0.0218183 -0.0249635 -0.0681853 0.0330403 0.0786694 -0.0710145 0.0125851 0.0154817 0.133049 -0.0510755 -0.00543088 0.00311806 -0.0645853 -0.082181 -0.0782475 0.0982837 0.0168457 -0.0447369 0.07569 -0.0238592 0.0675205 -0.0746078 -0.0670567 0.0221233 0.02912 -0.0670147 -0.0550465 -0.123269 0.0232651 0.0235898 0.121995 -0.0236008 0.0163821 0.080052 0.0063057 -0.0724942 0.00906134 -0.0335173 -0.0741065 -0.0709305 -0.047809 0.0660165 0.0380603 -0.0608572 -0.0759815 -0.0376672 -0.130624 0.0549493 0.0438115 -0.0189379 0.0376716 0.0518507 -0.0649166 0.0547196 -0.0524602 -0.0747072 -0.160137 -0.0548919 -0.0225363 -0.0359026 0.0497371 -0.00633242 -0.00704557 0.0184637 0.0291819 0.00481381 -0.0148215 0.00504416 -0.0464043 0.0195114 -0.0650535 -0.146422 0.0326935 -0.0237952 0.00679136 -0.0332302 0.0485974 0.100168 -0.0236317 -0.0151601 0.0539886 0.0840936 0.0940676 -0.022618 -0.117428 0.0640155 -0.0462718 -0.00504615 -0.0145658 0.0456247 0.0118967 -0.0119161 -0.0517933 -0.0750186 0.023497 -0.0570408 -0.0451675 -0.0695789 -0.0209227 -0.000612791 0.0227638 0.0360837 -0.0725229 -0.0424179 -0.0449864 -0.0732451 -0.0368766 -0.084405 0.0418458 -0.019918 -0.0529771 -0.0511991 -0.0364216 -0.00393214 -0.0780267 -0.0988491 0.0900347 0.0336079 0.0346525 0.017262 -0.00230001 0.00388819 -0.00279981 -0.021106 0.0129736 0.139337 -0.00565571 -0.00741308 0.0162297 0.017357 0.0312359 -0.0501214 0.021205 -0.0466892 0.0952602 -0.00621956 -0.0782939 0.0457948 -0.0325632 0.0846458
sailboat -0.0140884 -0.0177501 -0.00477235 0.117863 -0.0912411 -0.00991682 -0.0293342 -0.033421 -0.0615513 -0.00675651 -0.0545202 -0.0472745 -0.11086 0.00598744 0.0410342 0.0253886 0.0426911 0.0325806 0.0487149 0.00773578 0.0273594 -0.0154755 0.0930987 -0.00754108 0.0337408 -0.014409 -0.0168154 0.114166 0.0640148 0.0302481 -0.0123218 0.0143266 -0.058742 -0.0221204 -0.0325846 0.0264614 -0.0473679 -0.0835524 -0.0634585 0.051542 -0.0226588 -0.0441394 0.0165883 -0.0292111 0.0720333 -0.0245323 -0.0078371 -0.00799425 -0.00380044 -0.096053 0.117975 -0.00613526 0.043009 0.00175688 0.0436726 0.00655943 0.0501076 -0.00194212 0.0405275 0.0254045 0.0319647 -0.0177347 0.0192587 -0.121682 0.0362561 0.015372 -0.0368282 0.0395461 0.0364726 -0.0772465 -0.00547029 0.071034 -0.00151404 -0.0383401 0.0217469 0.0461977 0.092457 -0.0227601 -0.0757247 -0.0527559 0.0142811 -0.0191291 0.0410103 -0.0156965 -0.0674439 -0.0704081 -0.0261733 0.0709525 0.0609811 -0.0942689 0.0291753 -0.0298905 0.0780571 0.0324316 0.147426 -0.113952 -0.0731638 0.0134141 0.0200383 -0.0723909 0.0336713 -0.0220548 -0.0867094 0.0232647 -0.0191905 -0.0198491 -0.0417673 -0.0628208 -0.0608539 0.0395819 -0.0162988 -0.0247071 -0.00965437 -0.102889 0.077318 -0.102562 0.0361806 0.062642 -0.030713 0.00347143 0.0838922 0.00796167 0.004285 -0.017838 0.0395898 0.00469189 0.0470997 0.0158997 0.0460427 0.0649386 0.0975212 0.0485679 0.00618294 0.0755439 0.0124104 -0.0341143 0.0555751 -0.0111613 -0.0702691 0.0721008 0.0466328 0.0803915 0.0665559 -0.0249813 -0.0351733 -0.0067736 0.0564692 0.00976841 -0.00220628 -0.087512 0.0685327 -0.0643327 -0.0606513 -0.0143969 -0.115328 -0.0260521 0.0614678 -0.090508 0.0340428 -0.0204078 -0.0389362 -0.0114454 0.00126544 0.0509619 0.0519275 0.0597711 -0.0309952 0.00475864 0.00504911 0.0748545 -0.0523665 -0.0706724 0.00482659 -0.0822134 0.000716618 0.0645175 0.118136 0.00781147 0.0902497 -0.088859 -0.0123524 -0.0662817 0.0429037 -0.0306952 0.0660274 0.0319408 -0.0510414 0.0189935 -0.0340985 0.0108258 0.0652665 -0.0453295 0.114526 0.110701 -0.0169702 -0.0570851 0.0772346 0.0669214 -0.0037311 -0.0486195 -0.0463785 0.0246773 -0.0234892 0.0392997 -0.191351 -0.124171 -0.0506421 -0.0499705 0.0761955 -0.0202409 0.0725677 -0.0462911 0.0428123 0.00604029 0.0274091 -0.00180148 -0.0397805 -0.071624 0.0326879 0.0809458 -0.024274 0.0533897 -0.0977278 0.0942252 -0.0454646 0.140647 -0.0196026 -0.0716061 -0.00243634 -0.0125572 0.0057987 -0.0456037 -0.0362024 -0.0658804 0.00272283 -0.0152335 -0.0863835 0.0511785 0.0102524 -0.0934007 -0.0407342 0.0539142 0.140534 -0.041066 -0.028329 -0.0245482 -0.0361269 -0.0221263 0.107542 -0.0104519 0.0853385 -0.198513 -0.0169233 -0.00726134 0.0539837 -0.0308422 0.0934504 -0.103555 -0.034617 0.0226727 -0.0297574 0.0435673 0.0686101 -0.144486 -0.0969153 0.0130718 -0.0178694 0.0748425 0.0117236 -0.0243495 0.000389719 -0.0183823 0.0121197 -0.0311481 -0.121525 -0.0574884 0.0341422 0.0565129 0.0289468 0.0725002 0.0736982 0.0167532 -0.046154 -0.00710101 0.104087 0.109307 -0.00550049 0.000551023 0.0163461 -0.0695519 -0.0521182 0.0347084 -0.0606274 0.0308859 -0.0233939 0.0241866 0.0374322 0.0643247 0.040315 0.0394706
moped 0.0885116 0.027123 -0.0533064 0.0479555 -0.0687309 -0.00875126 0.0436806 -0.0908478 -0.0133799 -0.0415398 -0.0732035 0.07882 -0.0426244 -0.0428264 -0.0411336 -0.0356971 -0.0175638 -0.0109302 0.00334861 -0.00923277 0.0136171 -0.0115843 0.00915526 -0.0628575 -0.0366369 0.010063 -0.12918 0.00948769 -0.00133848 -0.0873611 -0.0543383 0.105392 -0.108347 0.0194532 0.00678285 0.0845682 -0.0075476 -0.0953687 -0.0666318 0.038165 0.0027257 -0.0813582 -0.0607562 -0.0256673 0.0689197 0.0859361 -0.0062515 -0.0198879 0.0779703 -0.0876905 0.0732693 -0.0796082 -0.00649587 -0.0280913 -0.00988862 0.0116331 0.102939 0.0457533 0.0369355 0.0122042 0.0327549 -0.0290135 0.0407823 -0.033003 0.0512227 -0.0292594 -0.00776673 0.0655033 0.0112938 -0.0217232 0.0556755 -0.0719058 -0.00866124 0.0228678 -0.0113839 -0.00997666 -0.0344983 0.0802999 -0.0516794 0.0466886 0.0100083 0.119528 -0.0466711 -0.0702305 -0.0515059 -0.0411226 -0.0868407 0.0630266 0.0952941 -0.0209758 0.0574298 -0.101681 -0.129239 0.0716775 0.0749205 -0.0440143 -0.0469323 -0.022084 -0.0283943 -0.0200736 -0.00333521 -0.111272 -0.00308008 0.0430702 -0.00361516 -0.0775706 0.0243367 -0.0167433 0.0097841 -0.0351987 -0.0225341 -0.0258364 -0.0141021 -0.0366171 0.0358464 0.025507 0.112657 0.0242621 -0.0343292 -0.0665857 0.111731 0.040499 -0.0260384 0.0896753 -0.013486 -0.16341 0.0971692 0.0735218 0.11226 0.0957595 0.0395439 0.0337693 -0.00547884 -0.0530099 -0.0482432 -0.0229271 0.0470575 -0.0310796 -0.0172726 0.0652881 0.037054 -0.018944 0.0797773 -0.00226351 -0.0159721 -0.0338088 0.0153921 -0.042945 -0.0319645 -0.0432744 0.0736953 -0.00514181 -0.0246595 -0.0253094 -0.0704413 0.0391136 0.0116041 -0.140373 -0.103844 -0.0592983 0.0358442 -0.0395527 -0.0563144 0.00203347 0.0682962 0.0271077 -0.00999994 0.00885885 0.0550607 0.0513193 0.000360309 -0.0897522 -0.0287456 -0.0035965 -0.115536 0.0468752 0.0114561 0.0319513 0.08773 -0.0116058 -0.0111845 -0.139794 0.045088 -0.0425674 0.0461682 -0.0789012 0.00321094 -0.00316329 0.0592083 0.00173763 -0.0647326 -0.029591 0.116941 0.0362856 -0.0566965 -0.0899147 -0.0598143 0.00215941 -0.0600888 0.0135277 -0.0514225 0.117977 0.0518353 -0.0594366 -0.0467611 -0.043046 0.0190579 0.0347903 0.0460343 0.000104716 0.0649719 0.00113452 -0.00795182 0.0548872 -0.0273909 -0.0440955 -0.0567645 -0.103739 -0.0545491 0.0106084 -0.0445127 0.0248088 -0.0732144 0.00508648 -0.0407493 -0.00206177 0.0662608 -0.0288027 0.0168028 0.0113617 -0.00851413 -0.065736 0.0111678 -0.0936956 -0.0509109 0.0775575 0.0373065 0.0695499 -0.121657 -0.0681029 0.0252963 0.0405144 0.110571 0.0835407 -0.104959 0.084296 -0.0262865 0.00411709 0.0237988 -0.0769251 -0.00389072 -0.0385229 0.0149992 -0.0605103 -0.0404661 -0.0475932 -0.015677 -0.12368 0.00657733 0.0268662 0.114761 -0.0359782 -0.0748107 -0.0734867 -0.119745 -0.0260582 -0.0497494 -0.0498065 -0.0588263 -0.0586177 -0.0612525 -0.0504344 -0.0284822 0.085576 -0.00486801 -0.042732 0.0725426 0.0206568 0.0027369 -0.00789429 0.12032 -0.0211469 0.00166945 -0.0895151 0.0667438 0.0965522 -0.00670402 0.0138039 0.0535193 -0.0113735 0.0121291 0.0115316 0.0263919 -0.0446862 0.0670885 -0.121023 -0.0571773 0.0893482 0.0497186 -0.0339472
unicycle -0.00547608 -0.0242632 -0.0461594 0.0624102 0.000301309 -0.129149 0.0167787 -0.0504416 -0.0374617 0.0723896 -0.00379377 0.0347186 0.00109979 -0.118384 0.0284547 0.0296586 0.00681389 0.0522993 0.0238743 0.0460094 -0.0242003 -0.0300771 0.110935 0.00275323 -0.0131838 -0.00911056 -0.060271 -0.0139545 -0.0260469 0.030429 0.0834118 0.0997089 0.000800149 -0.00043396 -0.063866 0.0441832 -0.00982142 -0.0150504 -0.0464483 0.0550757 -0.0481542 -0.0674444 -0.0322997 -0.0245022 -0.0443313 0.0535884 -0.118116 -0.0707708 0.030166 -0.0888349 0.0548275 -0.0490617 0.0463316 0.00294826 -0.00877847 0.0791407 0.144653 0.0187568 0.0779572 0.0525975 0.0537106 -0.0850991 0.0930819 -0.0190013 0.0187197 0.083684 0.0508657 0.0767533 0.00482986 -0.019292 0.064831 0.0212961 -0.00050825 -0.0175436 -0.0329017 -0.00044824 0.00399269 0.0165403 -0.140538 0.0134494 0.0783499 0.0518974 0.0311495 -0.0920928 -0.026584 0.0788296 -0.0653737 0.0349094 0.0959546 -0.116312 0.110207 -0.0370449 -0.00191124 -0.0424014 0.124354 -0.0328869 0.043007 -0.107382 -0.0749252 -0.0147348 0.0919076 -0.0296178 -0.0274526 0.044335 0.0183887 -0.0624232 0.0133748 0.0161578 -0.0197569 -0.02736 0.0285454 -0.0453 0.0251634 0.0274823 -0.0287417 0.00835192 0.16639 0.0111635 -0.0152555 0.00650329 0.0142807 -0.0446073 0.00387452 0.101391 0.0313477 0.00451944 0.0373061 0.0175332 0.0216424 0.0696114 0.0800223 -0.0521604 0.0172032 -0.0787388 0.00525123 -0.0109661 -0.00936209 -0.0266377 -0.0496396 0.120627 0.0497692 0.0341352 0.0954989 0.00833562 0.0337518 -0.0321571 0.0883904 -0.0326627 -0.0104441 0.0130888 -0.0150614 0.00243707 -0.111542 -0.0236854 -0.0294659 0.000187031 0.0735528 -0.0880237 0.00020733 0.0121672 0.0757883 0.0241743 0.0091865 0.0238002 0.0577687 0.053029 -0.0425996 -0.0176371 -0.0122061 0.00859585 -0.0893591 -0.0598653 0.00388934 0.026408 -0.0499341 0.0684871 0.000603358 0.0143385 0.0727119 -0.0701467 -0.0508861 -0.0672425 0.0746955 -0.0981364 -0.0335759 -0.0642253 -0.0248781 0.0212683 0.036756 -0.0468391 -0.0436738 0.0221314 0.151232 0.020833 -0.053042 -0.00584188 -0.047404 0.194291 -0.116313 -0.0334833 -0.0418013 0.121775 -0.0446129 -0.0676722 -0.125306 -0.135726 -0.0579298 0.019468 0.0490488 -0.0551183 0.134177 0.0733305 0.0439257 0.0202552 -0.0172463 -0.0986402 0.0640864 -0.161899 -0.0123402 0.0314385 -0.0866808 -0.0313551 -0.0505138 0.018866 -0.10794 0.0249282 0.110635 0.0448925 0.0462187 -0.0367134 0.0454315 0.0281768 -0.0483264 -0.0482357 -0.00645383 0.0464632 0.025556 0.0126684 -0.0714487 -0.113809 -0.0545571 0.0741918 0.060221 -0.00573464 -0.0310014 -0.0444536 0.0224166 -0.0806928 -0.0136967 0.035591 -0.0312922 -0.0684556 -0.0353113 -0.0549831 -0.0313273 0.0503249 -0.0316607 -0.0186142 0.0626806 0.0234353 -0.0124448 0.0285917 -0.0868586 -0.115754 -0.0687409 0.0240187 -0.051664 -0.0139973 -0.000126889 0.0525938 -0.0118693 -0.035065 -0.00112535 0.0172104 -0.01702 -0.0654885 0.043107 -0.0477041 -0.0497896 -0.0315237 0.0552998 0.030329 0.00889294 -0.0238595 -0.00981642 -0.0200811 0.111768 0.07454 0.0229778 -0.015118 0.00982105 -0.0299697 0.00679796 0.0360448 0.0414772 0.0392823 -0.00766959 0.0188216 0.0344204 0.06136
