14 300
lion -0.076326 -0.0225165 -0.0317293 0.118851 -0.0693166 0.0892511 -0.0104374 -0.0166625 0.0489363 0.0266487 0.057832 -0.0164846 0.0518654 -0.042819 -0.0182601 -0.0692743 -0.123292 -0.018966 -0.0188609 -0.0361683 -0.0146724 -0.000961039 -0.123577 -0.0903629 -0.02039 -0.00136904 -0.0306492 0.0215259 0.0461681 -0.0882289 -0.0392343 0.108755 0.0414061 -0.0797209 -0.0202945 0.0126342 -0.00491041 -0.0348267 0.0061395 -0.0151526 -0.0439631 0.0231805 0.0792789 -0.0754316 0.112188 0.0217737 -0.13522 -0.0595419 0.0274962 -0.0336809 -0.0221359 0.0639348 -0.127919 -0.0246997 0.084748 0.0553412 0.0329071 0.0233805 -0.0584588 0.0497433 0.0619049 0.0474058 -0.0103197 0.126855 -0.0515991 0.047034 0.0193117 0.0205266 0.0129144 -0.0238701 0.136294 -0.052369 -0.0201964 -0.0494554 0.00207363 -5.31224e-05 0.080931 0.0922894 -0.0580355 -0.0772426 0.0177279 -0.00310824 -0.0246128 -0.0242657 0.00966063 0.00966447 -0.0570961 0.108589 0.154061 0.126861 0.0447402 -0.0272574 -0.0123073 -0.0711431 0.0107452 0.0679184 0.022489 0.0649081 0.0552806 0.0604732 -0.0919246 -0.0466931 -0.0767482 0.00282428 -0.0715262 -0.0499781 0.0968385 0.0611348 0.0505997 0.00577435 0.04387 -0.0121054 0.0441886 -0.0496508 -0.00251501 -0.0055694 0.055991 -0.0142648 -0.0182831 0.0393956 0.0427579 -0.00364121 -0.00776777 0.0977594 -0.0034503 -0.0473661 -0.044674 0.0977891 -0.00852761 0.0714661 -0.137653 0.0339098 -0.0463342 0.043695 0.0944079 -0.0232108 -0.0493757 -0.104599 0.0157488 0.0869331 -0.0368667 -0.0260062 0.0474666 0.0422368 0.0482251 0.097056 0.0327617 0.00430468 -0.0367011 0.0715105 0.0373125 -0.153264 -0.0126768 -0.0303205 -0.0790725 0.0786383 -0.00926951 -0.0489038 -0.0854369 -0.0406572 0.0467667 0.0425139 -0.0359319 -0.0386566 0.00753068 -0.0166943 0.0822226 -0.034471 0.0453827 -0.0226096 -0.0880072 -0.056132 -0.0565962 -0.00638756 0.0201144 0.0888693 -0.0186006 0.124189 -0.0377851 -0.016617 -0.000568803 -0.0487849 0.087204 -0.10484 -0.0492296 0.0142408 -0.0648423 0.00060199 -0.0163944 0.0439918 0.0205343 -0.0482029 0.0317373 0.0797961 -0.0533273 -0.00360953 -0.0155966 -0.0344508 0.0733342 -0.100665 0.0748523 0.0588161 -0.074201 0.0459906 -0.0433255 -0.062561 -0.0867208 0.038691 0.115597 -0.00531451 -0.0506964 0.0620496 -0.0738027 -0.059132 0.0356675 -0.0237246 -0.0221798 -0.00598759 -0.00736714 -0.0302921 -6.71395e-05 0.00200628 -0.0513343 0.072534 -0.0245137 0.0548984 -0.0947924 0.111766 -0.0483156 -0.0559852 0.0316534 0.106843 0.0323898 -0.0715864 0.0201908 -0.0168451 -0.0156022 -0.0239585 -0.0262915 0.0582722 0.0246141 -0.0167498 -0.0179104 -0.0756559 0.0950304 0.0013028 -0.00348254 0.00390426 0.0496468 0.00800715 -0.00890386 0.0071123 0.0445699 0.0482867 0.00416926 -0.0268718 -0.064459 -0.020149 0.0416896 0.00977292 0.00373223 0.0930784 0.0581479 -0.0442795 -0.14721 -0.00352615 -0.0248906 0.0131816 0.0536875 0.0066083 -0.0580303 0.0883934 -0.0459511 0.0167159 0.0212701 -0.102007 0.102737 0.0532566 -0.0101604 0.052987 0.0721376 -0.0464916 0.0422859 0.042446 0.0362635 -0.0232054 0.132915 0.0853604 -0.0571211 -0.0208674 0.0271035 -0.0193343 0.0402193 0.0801335 -0.0292068 -0.0034805 -0.0670236 0.0352457 -0.00195635 0.033879
ours -0.0768436 -0.0201854 -0.094101 -0.0884494 -0.0612863 0.0806333 -0.00623066 -0.0388772 0.0840333 0.0873233 0.124879 -0.0297948 0.0674262 -0.0632894 0.00208191 -0.032112 0.0130516 -0.0111889 -0.0560236 -0.0321959 -0.0522526 0.0552165 -0.0744949 0.0267903 -0.0248578 -0.00290339 0.0223491 0.0725639 0.0248572 -0.0144392 0.0170476 0.0436508 -0.0448116 -0.0327119 0.115514 0.0356276 -0.0167555 0.0922519 0.0576423 -0.0645231 -0.0460364 -0.0240747 0.0749867 -0.00225001 0.025799 0.0695276 -0.055174 -0.0420231 0.0725622 -0.0373564 0.0190957 0.013136 -0.0304922 -0.0142345 -0.0042804 0.0395912 0.104381 0.0212362 0.0265479 0.0533621 -0.0148915 -0.0745535 0.0239259 0.0176993 0.0321322 -0.0222005 0.119617 0.0602672 -0.0660205 0.068817 0.0730099 -0.0369136 0.0471372 -0.107741 -0.0776661 -0.0215381 0.0367844 0.00307775 -0.090597 -0.00701527 0.0226596 -0.0563136 0.00521351 0.0694064 0.00441572 0.069749 -0.0503525 0.018197 0.123556 0.0317014 0.0201853 -0.0963652 -0.0031095 0.0014707 0.0734459 0.0607924 0.0136443 -0.0192863 -0.0108234 0.0578955 -0.126414 -0.0338926 -0.0306421 -0.0494221 -0.0456455 -0.028061 0.00325174 0.093698 0.0108535 -0.0335383 0.0427795 -0.0396358 -0.0825282 -0.0215877 -0.018485 -0.119678 0.00771956 -0.111456 0.00197552 -0.00485559 0.0167277 -0.0707665 0.0133658 0.0848592 0.0609236 0.0347384 0.0518275 0.108804 -7.5004e-05 0.0752083 -0.18374 0.0546011 -0.0792563 0.0750506 0.0173461 -0.0471586 0.107124 -0.0172429 -0.116294 0.112757 0.00610834 -0.0147917 0.0288498 0.12386 0.0952434 0.0978469 0.0231848 -0.00962558 0.0490573 0.042118 0.0780782 -0.103963 -0.0762467 -0.0551258 -0.0683536 0.02433 -0.00967249 -0.00906074 -0.0188092 0.0121269 0.0739078 0.0488534 -0.074557 -0.00765717 0.0439479 0.0271907 0.00429525 -0.0515914 0.1513 -0.0575542 -0.0651307 0.00183749 -0.121401 0.0153094 0.0244919 0.0306371 -0.00731018 0.00742702 0.0440512 -0.071281 0.00320609 -0.0848299 0.079001 -0.0599691 -0.00477136 -0.0404865 -0.00999419 -0.00409024 0.0120119 0.0274877 -0.0709218 -0.103877 0.00622922 0.0273574 -0.00948551 -0.0306626 -0.0879563 -0.0508699 -0.00562825 -0.111947 0.000185217 0.0687451 -0.00303915 0.0488742 -0.0413569 -0.0242022 -0.123876 -0.0064944 -0.0172498 -0.0404205 0.0644436 -0.0128948 0.0237844 -0.00139758 -0.00665608 -0.0543362 -0.0884788 -0.0179696 0.0060476 -0.0577524 0.0104625 -0.0284427 -0.0310328 0.137619 -0.0205629 0.0197093 0.00756409 -0.00892172 0.000734379 0.00900898 0.0797827 0.0608208 -0.0487548 0.00976059 0.0359411 0.066272 0.0277941 -0.0301396 0.0435 0.042519 -0.042963 0.0535951 -0.0499399 0.0450433 0.024881 0.00348941 0.0766633 0.045612 0.00718616 -0.0298851 -0.0475564 -0.0393149 0.044223 0.0534065 0.00964174 0.107838 -0.0186797 -0.00373952 0.00935765 0.0228524 -0.0156097 0.15019 0.00139907 -0.00757445 -0.0985782 -0.0260887 0.0263936 0.0296801 -0.0260812 -0.0345181 0.00822118 0.122957 0.0612952 -0.0175292 -0.0110845 -0.0220499 0.0226603 -0.120473 0.0364756 0.0945599 0.0524174 -0.0680053 0.000413207 0.0466081 0.114675 -0.00589513 0.0645232 -0.00521575 -0.0990301 -0.0907504 0.00470659 0.0112683 0.1168 -0.0255596 -0.0144675 -0.0135187 -0.0194791 0.0711022 -0.0443441 0.10071
bear -0.00446472 -0.0302794 0.00675959 0.061183 -0.0569821 -0.0168734 -0.0496223 0.0387274 0.04141 0.00834039 -0.0293609 0.108448 0.00447173 -0.075688 0.0483648 0.0804604 0.00711333 0.0169342 -0.0605273 -0.0154583 -0.0476143 0.0849521 -0.0458755 0.0674007 0.0358896 -0.0481437 -0.0706078 0.0383111 0.0510465 -0.0149662 -0.0257277 0.0729296 -0.00927948 0.030921 0.0283676 0.0873538 -0.0231383 0.00518989 0.0678875 -0.146618 -0.0193204 0.0200065 -0.064976 0.0545165 0.0526416 0.0416788 -0.0187354 -0.0161994 0.0304946 -0.027043 0.0567015 -0.047363 -0.0360346 0.0143567 -0.0378155 0.0321975 0.104463 0.0365196 0.105088 0.0464577 0.00452482 -0.0541194 0.00909824 0.0494977 -0.110947 0.0282736 0.00229519 -0.016304 -0.0890352 -0.0648202 0.110096 -0.0371231 0.0500409 0.0154551 -0.0198074 0.0102084 0.0879818 -0.0841016 -0.0196806 -0.0564745 0.0049682 -0.0133892 0.0675864 -0.00473616 -0.0447182 -0.0343141 -0.05295 0.0514332 0.0278565 0.0700504 0.0404631 -0.0710901 0.00902024 0.0424562 0.0935217 0.0480339 0.00178059 -0.0331245 -0.000881222 0.0410111 -0.00203808 0.00441819 0.0158142 0.00529608 -0.0999411 -0.00504372 -0.0418817 0.0561397 0.0207164 0.0424974 0.121858 -0.0625356 -0.0279158 0.0746715 0.0192108 0.0166506 -0.00620279 -0.0241213 -0.0863009 0.0152767 0.0735662 -0.0999476 -0.0432306 0.0571749 0.040123 0.0959534 0.0431575 0.0388873 -0.015345 0.0745665 -0.0753071 0.0692194 0.0237544 0.115378 -0.0415045 -0.0653168 -0.0735031 -0.0401325 -0.0885114 0.0409623 0.0550313 0.0843525 0.0430986 0.0739704 0.112542 0.0745319 0.0088941 -0.0229552 -0.0371225 0.0660543 0.0764372 -0.0326392 -0.0660212 -0.0538777 -0.0957492 -0.0238642 -0.0144449 -0.0236353 0.0646074 0.0316584 0.0666203 0.069385 -0.110887 0.0214414 0.0467053 -0.0070943 -0.0855246 -0.0148758 0.020295 -0.0494567 0.00580634 -0.0638872 -0.0785998 -0.0309434 -0.0466874 0.0650545 -0.0778642 0.04637 0.0253242 -0.126007 0.0650026 -0.0731967 0.00392617 -0.104279 -0.0336103 0.0392038 -0.0354943 0.0643622 0.0313549 0.0432397 -0.125294 -0.113576 -0.033991 -0.00221673 0.00232153 -0.049239 -0.0166872 -0.0218914 -0.0170842 -0.112877 0.104551 0.108428 -0.0242694 -0.0213685 -0.0379097 -0.106776 -0.0334211 -0.0617857 0.0572942 -0.0821123 0.0375171 0.0369176 -0.012578 -0.0770043 0.00296591 -0.079481 0.0114087 -0.0186999 -0.030567 0.0694417 -0.0420856 -0.0201991 -0.0390639 0.160363 -0.0304121 -0.0890581 0.00672348 -0.0343917 0.019867 0.0947193 0.113016 0.018047 -0.02962 -0.0133933 0.0284527 0.0194969 -0.0265586 -0.0173129 0.010332 -0.0195374 -0.044447 -0.0168254 -0.043984 0.117607 -0.0951514 -0.0609987 0.0212663 0.0161355 0.0587272 0.0144866 0.00728196 0.0266359 -0.00957064 0.0315671 0.0141865 0.0382555 0.00811109 0.0389905 0.0301787 0.117129 0.0472437 0.0904146 0.0523899 -0.0219379 -0.0523526 -0.0771196 0.0428104 0.0350654 -0.07632 -0.0619577 0.0329341 0.0819469 0.106719 -0.0399266 0.0709701 -0.0661751 0.117228 -0.0998698 0.115362 0.0727699 0.070131 0.0559444 -0.0647112 0.0993669 0.105292 -0.0324205 0.0378192 0.058803 -0.0658512 -0.0774891 0.00060509 -0.00835651 0.0462726 -0.0538663 -0.0024139 -0.0479734 -0.032418 0.0143379 -0.0290227 0.0290649
puma -0.125256 0.0302705 -0.101848 0.0277493 -0.0854585 -0.0282892 -0.0498032 0.0161467 -0.00691146 0.0122745 0.0383013 0.0449173 0.0263155 -0.01932 0.0584238 0.0160746 0.00860168 -0.019568 0.0214321 0.0234363 -0.0183753 -0.0127118 -0.0490361 -0.0542836 -0.0273223 -0.00914812 -0.025824 0.0131366 0.000541658 -0.0120983 0.0918494 0.0391901 -0.0126842 0.0352345 0.00703577 0.0493974 0.128605 0.0373168 0.0422418 0.0367842 -0.0800708 0.0580897 0.0425949 0.0134706 0.0181588 0.0293079 -0.0594437 -0.0303341 0.0907658 -0.0646811 0.0438516 -0.00385045 -0.0725829 0.111519 -0.125605 -0.0193089 0.0776927 -0.0222602 0.0355758 0.117459 0.0789059 -0.0712718 -0.0767762 0.046088 -0.00209019 -0.0231602 0.0377142 0.000292831 -0.0455671 0.0284133 0.0307994 -0.090606 0.0760458 -0.0284114 -0.0912971 0.0210215 0.0501595 -0.0431236 0.0224752 -0.0332349 0.0183727 0.0264333 -0.0236714 0.00134415 0.0322703 -0.0286478 0.00397029 0.132362 0.114852 0.0618404 0.0175621 -0.0594787 -0.0268241 0.122602 0.0549 0.0625458 0.0128901 0.034772 -0.0124025 -0.0213187 -0.0849217 -0.0618003 -0.00104135 0.040241 -0.091887 -0.0136528 0.0371758 0.0433975 -0.0039888 0.00626274 0.0299836 -0.0249033 -0.024744 -0.119858 0.022699 -0.0272017 0.0192284 -0.0461039 0.0198753 0.0221234 0.0921173 -0.120116 -0.0766116 -0.0220752 0.066799 -0.0893595 0.049565 0.0221763 0.0564483 0.0702205 -0.113898 0.0473486 0.0302954 -0.0324236 0.0189991 -0.0551791 -0.00718534 -0.00756205 -0.0939983 -0.00290392 0.0486361 0.0209221 0.0209465 0.0175909 0.016974 0.116937 0.00988803 -0.0143875 -0.0326809 -0.00947427 0.0873282 -0.115966 -0.0524952 -0.0476031 -0.0825729 0.00535621 0.0352852 0.0247561 0.122013 -0.0675278 0.0899936 -0.0564978 -0.0542216 0.0531362 0.0262509 -0.110019 0.0401328 0.0324373 0.0548875 0.0326108 0.0576294 -0.055042 0.0647193 -0.0332001 -0.0875458 0.0952503 0.0068747 -0.0456476 -0.053132 -0.0897117 -0.0974934 -0.00758709 0.0231596 -0.0408596 0.000410804 -0.0826642 -0.0115214 0.00767096 -0.050532 0.0799316 -0.050277 -0.0154639 0.0539849 0.0551309 -0.0104102 -0.0444761 -0.0324491 -0.0433015 0.0306864 -0.162458 0.0742657 0.0294732 -0.0146344 -0.0396596 0.0311686 -0.112762 -0.0762743 -0.0332368 0.0952096 -0.0278984 0.120539 -0.00811307 0.00697616 -0.100986 0.00183798 -0.0395524 -0.0113248 -0.00217364 -0.00363288 -0.0267859 -0.0449553 -0.00596406 -0.00290605 0.0176473 0.0841854 -0.0863194 -0.119151 0.00477317 0.0484086 0.0650813 0.0773086 0.0302396 -0.022529 0.00695719 0.00640252 0.0456744 -0.028446 -0.0627707 0.0207005 -0.00960934 0.0184977 0.0259264 0.0170144 0.0567917 0.0088671 -0.0444907 0.0433432 0.0345811 -0.0160475 -0.0203273 0.0385686 -0.0234401 0.0104074 0.0356485 -0.000125986 -0.048012 -0.0363888 -0.0868814 0.0124187 0.0379309 0.0348872 0.126607 -0.0125393 -0.0143364 -0.141499 -0.0121357 -0.00813528 0.0258925 0.0506033 -0.0545506 -0.0897531 0.0217277 0.0937455 -0.0128797 -0.0278876 0.0383197 0.0305385 -0.0924399 0.0579356 0.0326388 0.101128 0.052698 -0.0323299 -0.0912369 0.157793 -0.0501098 -0.00795783 0.0347689 -0.0459655 0.0439309 0.0905571 -0.0542612 0.136034 0.0842191 0.0381117 -0.0967757 -0.0780141 0.129046 0.0437554 -0.0496691
carnivore -0.061077 -0.00457761 -0.0762115 0.0589551 -0.100279 -0.0142351 0.0125328 -0.100865 0.0092952 0.0672357 0.0707011 0.0143918 0.00945042 -0.0624318 -0.0286515 -0.0246814 -0.0251507 0.0208162 -0.0159175 0.00298365 -0.0511302 -0.01852 -0.0494136 -0.012863 -0.0236634 0.0378206 -0.0959713 -0.017019 0.0751516 -0.00110039 -0.0302442 0.00292497 -0.0642227 0.0464556 0.133887 0.0770325 0.0899119 0.0208915 -0.00879062 -0.144567 -0.0283078 0.0058049 0.0681447 0.0101744 0.0466109 0.0863788 -0.0560973 -0.00232812 0.112829 -0.062889 -0.0601488 0.058233 0.0559142 -0.0542578 0.0324459 0.0767039 0.0375285 -0.0345577 0.05843 0.0795054 0.0023676 -0.00455034 -0.0225227 -0.0278126 -0.0182926 -0.0462925 0.0384896 0.144156 0.0601796 0.00589016 -0.019588 -0.0899257 0.0495657 -0.0276783 -0.0584505 0.120387 0.0460183 0.096726 0.00327834 -0.0271286 -0.070753 -0.0367428 0.077956 0.00105496 0.0902644 -0.0212782 -0.0186854 0.0342982 0.023962 0.0305768 0.00268444 -0.0253126 0.0338376 0.0148628 0.0181215 -0.0843043 0.0557083 0.0230068 0.0101634 0.045525 0.0156128 -0.00965271 -0.0140884 0.0703535 0.0552404 0.0136547 -0.0586037 0.0478302 -0.0521918 -0.0129017 -0.00066142 0.032539 -0.0380352 0.0286428 -0.00237112 -0.0242027 0.107178 -0.0597997 0.0420431 0.0773457 -0.023498 -0.016266 -0.0421604 0.0687288 0.0600025 -0.0105211 -0.0172585 0.0824073 -0.0334198 -0.00141037 -0.0211428 -0.0194639 -0.0183042 0.0517872 0.0236487 -0.064236 0.0165384 0.000800501 -0.0799038 0.0775414 0.0387355 0.0280704 0.0631786 0.0130497 0.0261007 0.171386 -0.0541286 -0.0192386 0.0998172 0.0377331 0.106014 -0.0641567 -0.0260271 -0.0597292 -0.110274 0.0540077 -0.0246584 0.0409192 0.0489984 0.00628504 0.0883576 0.10052 -0.0680522 0.0403882 0.00966945 0.0136431 0.0129751 -0.0889789 0.0689484 0.0213248 0.0457955 -0.0778105 -0.00532214 0.0026661 0.0303125 0.087166 -0.0693933 -0.0283093 0.0140334 0.0372195 -0.108911 0.00801677 -0.0542338 -0.10418 -0.00592275 -0.0447481 0.0075453 0.000936245 0.0452405 -0.0126978 0.00329855 -0.0820276 0.0631826 0.106926 -0.0161213 -0.00820792 -0.0529067 0.0417087 -0.0683776 -0.0397339 -0.0560401 0.0214838 -0.0177489 0.0927037 0.0274302 -0.069768 -0.0148975 -0.031695 -0.0203541 -0.0940028 0.114982 0.0191969 0.100538 -0.0133192 -0.0212731 -0.0886011 0.00104999 -0.00101883 0.0176107 -0.102347 -0.0504025 0.0511758 0.0141527 0.0535184 0.00660141 -0.0372824 -0.0642469 0.00829854 -0.047066 -0.0241618 -0.0145906 0.0100082 -0.102653 -0.0408552 0.166241 0.0245979 -0.0281507 -0.0119049 -0.0117459 -0.0266795 0.0402137 0.11986 0.110046 -0.0146635 0.0179232 -0.00322586 -0.0612624 -0.0338515 -0.0424501 0.0174296 -0.0198038 -0.113217 -0.0017022 0.0184762 0.0673465 -0.0561844 -0.0308874 0.00779252 0.120683 0.0282067 0.0428895 0.0863734 -0.0824567 -0.0922224 -0.129377 -0.0446876 -0.05503 0.0418541 0.0264757 -0.00179994 -0.0132488 0.00132065 0.0815179 -0.0103973 0.0814607 -0.0126404 0.0274778 -0.0884322 0.0169199 0.0564642 0.165944 -0.000745704 0.0158338 -0.00905965 0.0363406 -0.0327982 0.0574778 0.0983896 -0.0425479 0.0730931 0.0203209 -0.0733162 0.0545777 0.0198201 -0.00624536 -0.108504 -0.00703436 0.177943 -0.050591 0.0628415
félin -0.00844661 0.0233088 -0.107223 0.0629957 -0.0874737 0.0621206 0.0494877 -0.0610566 0.0403159 0.064676 0.0105349 0.0888323 -0.0199395 -0.0403218 0.033936 0.01156 -0.0652288 -0.0477267 0.0729806 0.0747543 -0.0130243 0.00628003 -0.108826 -0.071365 0.0051404 0.00277341 -0.0317456 0.0702179 0.0438564 0.0277734 0.0348084 0.0639189 -0.036312 0.0493097 0.0632849 0.0196374 0.0600124 0.0614598 -0.09779 0.0504046 -0.0625676 0.0100284 0.0247748 0.0839124 -0.074157 0.00599122 -0.0572761 -0.128775 0.0412249 -0.0901174 -0.0384304 0.0729817 0.00171771 0.0233191 -0.0641436 0.0280512 -0.00283536 -0.0960385 0.0461381 0.0777159 0.0508279 -0.0710034 -0.0499574 0.0276144 -0.00197816 -0.039513 0.0465364 0.0937297 0.0158876 -0.0158784 0.00663924 -0.0275216 0.0173206 -0.0204251 -0.0372106 0.00157912 0.0296895 0.0590957 -0.0194276 0.0148955 0.000322955 -0.0869551 0.0452282 -0.0459016 0.105693 0.061959 -0.0546919 0.0843976 0.0985229 0.113467 -0.0700369 -0.0327583 0.0438052 0.0743708 0.0568041 -0.0037648 0.0794767 0.0959321 -0.100888 0.00946592 -0.0214966 0.00409479 -0.0170379 0.0387487 0.00628278 0.044289 0.0526346 -0.017184 0.0329079 -0.061099 -0.00790186 0.0450779 -0.0308967 -0.0682573 0.070829 -0.0639967 0.0357784 -0.0406441 0.104735 0.00877212 -0.00722602 -0.0648189 -0.019278 -0.0390438 0.00190943 -0.0174648 -0.00253169 0.105109 -0.0115259 0.0736143 -0.0690546 0.0509274 -0.0556394 0.014831 0.143538 -0.0216776 -0.00960192 -0.0168741 -0.153629 0.0528953 -0.0163728 0.0374192 0.0503691 -0.0235577 -0.0518825 0.0733394 -0.00336719 -0.00143285 0.0157621 0.0592544 0.0570632 -0.0845906 -0.0286279 -0.00572412 -0.0214784 0.0413425 -0.0177497 0.0575986 -0.00285741 -0.0237137 -0.0511185 0.0134048 -0.0336416 -0.00906952 0.0564676 0.00481451 0.0882993 -0.0351703 0.111331 0.0051807 0.0136857 -0.062913 -0.00527921 -0.00949803 -0.0123315 0.0524298 -0.0756325 0.0134269 -0.0596959 2.10185e-06 -0.0968903 -0.100248 0.128523 -0.0932164 0.00572558 -0.00909619 -0.0449421 -0.0345737 0.0371751 0.0208649 0.0122478 -0.0455844 0.089789 0.0588415 -0.105576 -0.041373 -0.142748 0.00952981 -0.0923702 -0.0603467 0.0147056 0.0613464 -0.101783 0.0527647 0.0352178 -0.0925508 -0.0598369 -0.0169875 0.0122886 -0.0742884 0.116626 0.0151048 0.15394 0.0209096 -0.0699213 -0.0831362 -0.0421083 -0.0881824 0.0384077 0.0084429 -0.0556664 -0.0041955 -0.0235915 0.0173964 -0.0363614 -0.00617212 0.0231507 0.00652591 0.0515132 -0.0087866 -0.0228788 -0.026534 -0.0148692 -0.0412993 0.0207265 0.0957649 0.00252929 -0.0429794 0.089145 0.118433 -0.0331399 0.128607 0.0764541 0.0464415 0.0455727 0.068969 0.0155769 0.0072913 -0.00172806 0.0290593 -0.0351462 -0.101346 -0.0757485 0.0641892 0.0262393 -0.0482631 -0.0123918 -0.077706 0.120466 -0.0021692 0.0993837 0.0489549 0.0252646 0.0268706 -0.0280768 0.0160682 0.00318694 0.0566991 0.0875667 -0.0226494 -0.0456949 0.100135 0.0925205 -0.0773745 0.0320742 -0.043045 -0.0513946 -0.0199101 0.00985098 0.0671021 -0.0134196 0.0229307 -0.0153426 -0.027033 0.102618 -0.0561846 0.000730195 0.0951555 -0.0651084 0.0714507 0.0426934 -0.0421585 0.0867638 0.0496805 -0.00396357 -0.0310154 -0.0837981 0.075027 0.0346945 0.0536902
wolverine 0.0216754 -0.0332307 -0.0872661 0.0264987 -0.0977755 0.0327248 0.0313339 -0.0160539 0.0742235 0.0451835 -0.00147945 0.0784093 -0.10621 -0.0181942 0.138385 0.0913859 -0.0739425 -0.00882969 -0.0263706 0.06651 -0.0106194 -0.0429934 -0.12679 -0.125333 -0.0275156 -0.00786121 0.013453 0.0269797 0.0334292 0.0975006 0.12856 0.0760914 -0.0344114 0.0248359 0.0131563 -0.056592 -0.0255493 -0.0941821 0.014644 0.00465378 -0.0507167 0.0290795 -0.00595383 0.107549 0.0673339 -0.0516627 -0.0785722 0.031431 0.0285043 -0.00782408 0.00802322 0.0586019 -0.0315985 0.0341351 0.0310765 0.108699 0.0767197 -0.00835124 0.0276112 0.108143 0.018712 0.042719 0.0734528 0.0148049 0.0225121 0.0144989 0.0112761 0.049231 -0.00184074 -0.0166221 -0.0209831 -0.0780114 0.0399207 -0.0533951 -0.0201126 0.0684187 0.10064 -0.0459648 -0.00140779 0.00746632 -0.113694 -0.0496309 -0.0351893 0.0364396 0.00411408 -0.0185536 0.100794 -0.0160156 -0.0574799 0.00268362 0.0605708 -0.0484408 0.0517536 0.00318925 -0.00064714 0.0951918 -0.0152522 -0.0929836 -0.00883364 -0.041309 0.0169985 0.0110407 0.00747743 0.00853263 -0.0302656 -0.0678621 -0.0496604 0.046851 0.0696867 0.0467498 0.0498235 -0.0135548 0.0265929 -0.0462212 0.0747837 0.00491491 0.0712496 0.0759359 -0.0270633 0.0711828 0.0628325 -0.117917 -0.0491971 0.0777543 0.0223171 -0.0561424 -0.0776908 0.00202075 0.0186883 0.0673056 -0.0615923 0.13274 -0.0511557 0.0154768 -0.0401256 -0.0433859 -0.0295707 -0.126151 0.00691065 -0.0332319 0.0454594 -0.00369406 0.0227841 -0.0683956 -0.0406344 0.0482528 0.058043 -0.0364708 -0.0301851 0.0616116 0.065823 -0.0852929 -0.0266775 0.0530679 -0.0956581 -0.00586457 -0.0667716 0.0208696 -0.0172171 0.00966654 0.0288697 0.02751 -0.0469803 0.0733448 -0.00342127 0.0742258 0.0444227 0.0547984 -0.0161674 0.119912 0.12207 -0.051641 -0.049917 0.0204785 0.0524397 0.0627061 -0.0066086 -0.0192807 -0.012 -0.0696834 0.077138 -0.0292649 -0.040114 -0.0808419 -0.170198 0.0742535 -0.0495891 -0.0515787 0.0166345 0.0534244 -0.0682456 -0.139005 0.0156308 0.0133334 -0.00619484 0.0525219 -0.0871663 0.0698536 -0.00385108 -0.019891 0.0727469 0.0660527 0.0215568 -0.0085025 -0.0189442 -0.049638 -0.140041 -0.0331776 0.0396516 0.0208572 0.0758919 0.0195369 -0.0270704 -0.0367562 0.0541328 0.0037017 0.059699 -0.095757 -0.0060351 -0.0089495 -0.0523692 -0.0116219 -0.0330778 0.0933192 -0.0196115 -0.0358071 -0.000774357 -0.0299736 0.0478621 0.0485102 0.0302475 0.0201836 -0.0578636 -0.0195998 0.0926802 0.028096 -0.00527033 -0.0711522 -0.0131319 -0.030066 0.0688024 0.0528435 0.0256418 0.145824 0.0780316 0.0143802 -0.000698134 -0.00703903 -0.114364 0.0546767 -0.0795244 -0.0589807 -0.0295964 0.075983 0.0242028 0.00817488 0.0317598 -0.0410513 0.105052 -0.0187301 -0.000426559 -0.0162034 0.00991117 -0.0574137 -0.134624 0.0168106 0.0206824 0.0139629 0.033981 -0.0290642 -0.06877 -0.0745767 0.00357 -0.0950925 -0.064109 0.0161348 0.031777 -0.00299441 0.0750151 0.0279785 0.0918328 -0.0386054 0.0320935 -0.0264727 0.0437492 0.0207124 0.0428466 0.146124 -0.138937 0.037025 -0.00216959 -0.0588958 0.0664193 -0.0256426 0.0498502 0.0148751 -0.0124569 -0.0158746 -0.0792092 0.0465381
canine 0.0795668 -0.0113409 -0.0616884 0.0790473 -0.0558173 0.0375607 -0.0849175 0.0280213 0.0417541 0.00656794 -0.0507806 0.0884222 0.0150419 -0.0421731 0.0141264 -0.053785 -0.0329996 -0.00358499 -0.00469481 0.0656959 0.0681482 0.0578035 -0.122933 -0.0400229 0.022373 -0.0706877 -0.0227926 0.0419359 0.0324579 0.0886349 -0.0463231 -0.0177102 -0.00132693 -0.0613031 0.087084 -0.0288403 -0.0149122 -0.0319108 0.0137176 0.00326526 -0.0561749 -0.0346039 0.00486131 0.065414 -0.121748 -0.0128187 -0.0352262 -0.106421 0.0978476 -0.0827737 0.0084201 -0.019274 -0.080122 -0.00215869 0.0270013 0.0423023 -0.0172334 -0.0950998 -0.0524993 0.0762279 0.0137787 -0.0215458 -0.0308775 0.0193864 -0.0468327 -0.156633 -0.0315091 0.018308 0.0321507 -0.0956207 0.0598008 -0.0509656 -0.0106153 -0.000953706 -0.0508415 -0.00380665 0.0242389 0.0748573 -0.0715361 -0.0423436 -0.0100185 -0.0572731 -0.026062 0.0272891 -0.0861464 -0.0640506 -0.0538258 0.0489162 -0.0392733 0.0485058 -0.0133665 -0.00653881 0.114021 -0.0303477 -0.00878624 -0.0166573 0.0233608 0.0293952 -0.022389 0.0604632 0.0590651 -0.0472953 -0.103538 -0.042934 0.0205051 0.0200828 0.0377259 0.0260531 0.0191885 -0.0195112 -0.0973854 0.0113981 -0.0601779 -0.0427803 0.00229044 -0.00206084 -0.0138857 -0.0570629 -0.0285581 0.0419718 0.0596584 -0.155988 0.100229 0.0808937 -0.0303683 0.0579065 0.0272135 0.0375457 0.0830511 0.0115271 -0.0213891 0.0330553 -0.0386055 0.0242693 0.0582916 -0.0188595 -0.0306985 0.0507223 -0.111871 0.158787 -0.0875973 -0.0107224 0.0295501 0.124696 0.0118448 0.117406 0.00378829 0.0303549 -0.00369111 0.0785907 0.0808564 -0.0508239 -0.0447742 -0.062521 -0.0382302 0.0936261 -0.0170826 0.0903187 0.142438 0.0272514 0.0524764 0.0654385 -0.0955476 0.00425137 0.0748166 0.0216303 0.0448602 0.0196956 0.0628353 0.0425851 -0.00703984 -0.0855735 0.0294968 0.0370483 -0.0314642 0.0638947 -0.0792498 -0.0215515 -0.0795271 0.0154331 -0.151268 -0.0462857 0.00492446 -0.0792675 0.0849361 -0.0489011 -0.0771383 -0.0690529 -0.0220795 0.0596585 -0.05107 0.0220453 -0.0400134 0.0946779 -0.119221 -0.0235694 -0.0381496 -0.0154609 -0.0913863 -0.0218712 -0.044676 0.051699 -0.0400123 0.00919679 0.0316323 -0.0609663 -0.0603298 -0.0817308 -0.0072313 -0.0183877 0.151662 0.0273778 0.119365 0.0134691 -0.0559091 -0.111007 -0.0417695 -0.0156005 -0.0365511 0.0475304 -0.0693129 0.0200099 -0.061887 0.0479386 0.00413825 -0.00295036 -0.0478989 0.00458563 0.00424785 0.0585911 0.0408911 -0.0360679 -0.0434134 -0.082096 0.0388217 0.116192 -0.0590647 -0.0264986 0.0317011 -0.0103286 -0.0127255 0.0471997 0.043226 0.0523532 -0.020554 0.0178531 -0.0842026 0.01094 -0.0575825 0.0767536 -0.0867333 -0.0142839 0.036124 0.0635211 -0.0245296 0.0118585 -0.01352 -0.104727 0.0710131 0.041219 0.0982528 0.0579119 -0.00299992 -0.0365647 -0.0400294 0.15379 -0.0326585 0.0366513 -0.00728502 0.000110153 -0.0488627 0.0824353 -0.071485 0.015178 0.00741797 -0.0114308 -0.0673276 -0.0540905 0.0784026 0.000915688 0.0683131 -0.047446 -0.0127208 -0.0245176 0.0556703 -0.058527 0.0449675 0.094597 -0.0462541 0.0119197 0.034657 -0.0369221 0.0971398 0.00146588 0.00202026 -0.0112806 -0.0154874 0.0349968 -0.0141791 0.0534275
insectivore -0.0407272 -0.0184829 -0.0104055 0.0743712 0.0106476 -0.0108281 0.0685579 -0.0451347 0.0609876 0.0526885 0.0374778 0.0475115 0.0268133 0.0289513 -0.0381042 -0.0154236 0.0027773 0.0346712 -0.0105732 0.0455762 -0.0010715 0.0518648 -0.0510601 0.0580287 -0.0682409 0.0714645 -0.0116799 -0.0260791 0.0681334 0.0379257 -0.0493672 0.101636 -0.052799 -0.00448477 0.0740139 0.0463353 0.148403 0.0241659 -0.0280966 -0.119636 -0.0472412 0.00740771 0.0506794 0.0454263 0.0210777 0.0851781 -0.00509777 -0.014687 0.106784 -0.0604479 -0.0316896 0.0334173 0.0521239 -0.098051 -0.00570629 0.0528869 0.0351102 0.00912224 0.0561709 0.125404 0.0136218 0.00268063 0.0125432 -0.0119749 0.00799128 -0.0776562 0.0611174 0.119406 0.0315976 0.0716408 -0.0395421 -0.0346557 0.0230964 -0.0709791 -0.0347824 0.124563 0.023168 0.118869 -0.0475937 0.0441992 -0.0466631 0.0154897 0.0902817 0.0556086 0.0355449 -0.0591806 0.0282541 0.0710502 0.0288986 0.0193143 0.00449957 -0.0455942 -0.00731682 0.0152177 0.014728 -0.0619417 -0.00501206 0.0512414 -0.0353096 0.019814 0.0740412 0.0183144 0.0505299 -0.00263767 0.0609115 0.00774671 -0.0284964 0.066827 -0.0489079 -0.0688287 -0.026544 0.0568271 -0.0330344 -0.013199 -0.0278346 -0.0545436 0.0855695 -0.0312742 0.0652625 0.0396203 -0.0251507 -0.0209892 -0.0465223 0.0251149 0.0325081 -0.0220117 -0.0363732 -0.000991213 -0.0350848 0.0427824 0.0297903 -0.00804181 0.0634774 0.0188833 -0.0266672 -0.0109092 0.0377667 0.01219 -0.152857 0.0225206 0.0101849 0.0084274 0.0189189 -0.0031779 0.0313311 0.110758 -0.0691362 -0.101101 0.106465 0.0309117 0.0429366 -0.0871738 -0.035314 -0.0324629 -0.116636 0.0692453 0.033219 -0.00976036 0.030428 -0.0234993 0.10579 0.0532119 -0.0470249 0.0422151 0.049223 0.0231375 -0.0843018 -0.156484 0.0359575 -0.0382068 0.0262197 -0.0274118 -0.0446765 -0.0444352 0.0443615 0.0878164 -0.10718 -0.0702484 0.00320706 0.00339218 -0.0905902 -0.0340543 -0.0265024 -0.0907334 0.0237293 -0.0470971 -0.0215461 0.0666767 0.0795067 -0.0172944 0.0262176 -0.0932055 0.0864257 0.0904745 -0.0209316 -0.023435 0.0336079 0.0615254 -0.0175218 -0.0368198 -0.0354594 0.0369719 -0.0242676 0.0570182 0.0270917 -0.0937322 -0.000100566 -0.0155498 -0.0138336 -0.0343397 0.124696 -0.0398348 0.0820013 0.00479172 -0.0248458 -0.0464142 0.027488 -0.0959259 0.00130508 -0.13038 -0.0449051 0.0797845 -0.0140377 0.058982 -0.0031845 0.0111363 -0.0400356 -0.000664335 -0.110301 -0.0457181 0.0038018 0.0315243 -0.125558 -0.0457515 0.0973345 0.0328645 0.00442681 -0.0261606 -0.0252795 -0.0467586 -0.0492057 0.0735351 0.0554884 -0.101565 -0.00795531 0.0468229 -0.0254946 -0.0876696 -0.0312223 -0.0472727 -0.0632766 -0.101542 -0.00636091 -0.010844 0.0979253 -0.0344931 0.0369019 0.0420514 0.0626115 0.0345126 0.0400288 0.0601116 -0.0643168 -0.065317 -0.163092 -0.0305968 -0.00556595 0.0873832 0.0456952 -0.058986 -0.102871 -0.00307985 0.088609 -0.0777774 -0.00508068 -0.0147247 -0.0218832 -0.0663623 -0.00693962 0.0573885 0.0695413 0.131058 0.0599662 -0.0225868 0.0396633 -0.0101859 0.0168139 0.0538011 -0.0507678 0.0834058 -0.0585696 -0.0213432 0.0424022 -0.0202396 0.0102437 -0.0773781 0.0269066 0.208935 0.0251142 0.0574824
lionne 0.00575418 0.0133736 -0.00890093 0.155534 -0.0889344 0.100912 0.0280801 0.000900178 0.0534165 0.0627667 0.038292 0.0424728 -0.056991 -0.0168372 0.00435348 -0.000399593 -0.12161 -0.00610862 0.0326023 0.0388814 -0.00636196 0.03466 -0.100583 -0.0439779 -0.0431865 -0.0242103 0.00447092 -0.0198492 -0.0134488 -0.0593898 0.039774 0.060891 -0.0455263 -0.0916078 0.0403146 -0.0424101 -0.00792763 0.0208988 -0.0969187 -0.000119224 -0.0639702 -0.0158697 0.0427021 -0.117627 0.0971916 0.00665614 -0.0664213 -0.0995634 0.0120039 0.0164504 0.0453796 0.0481737 -0.0664291 0.054634 0.00392458 0.0232733 0.0503788 -0.0329688 -0.0587343 0.0175973 0.0827207 -0.0985586 -0.0516599 0.0299935 -0.0193531 0.0541598 0.0591679 0.0808951 -0.0595323 -0.00238146 0.0900851 -0.050874 -0.0209536 -0.0608002 -0.0653604 -0.0308973 0.074639 0.161299 -0.0131691 -0.00820814 0.0186709 -0.006465 -0.0539159 -0.00115918 -0.0433769 0.0771303 -0.103854 0.0884837 0.0942517 0.0412296 0.072441 -0.0460433 -0.00491742 -0.0694466 -0.0334032 0.0743785 -0.0026541 0.136442 -0.0116706 0.0216014 -0.0410892 -0.00451933 -0.0233493 0.0575443 0.0494086 -0.012538 0.0147279 0.00811038 0.00263541 -0.0749637 0.0949226 -0.0937544 -0.056292 -0.0192062 -0.0846305 -0.0605334 0.0173749 -0.00825256 -0.0592025 0.0197898 0.031365 0.0152286 0.0945945 0.130768 -0.00120297 -0.0550898 0.0186939 0.0256771 0.0582449 0.0581146 -0.12266 0.0245421 0.00487776 0.0635426 0.122355 -0.0219313 -0.0399101 0.0548032 -0.0524057 0.0836482 -0.0200755 -0.00704966 0.0676144 0.0137356 -0.0274659 0.0549981 0.0222137 0.0277168 0.0437589 0.0895816 0.0625661 -0.0689518 -0.0426651 -0.034907 -0.0159137 0.0693147 -0.0515686 0.0143751 0.0573012 -0.0506206 -0.0193515 0.0329182 0.0611202 0.0191415 -0.0147746 -0.0747289 0.0283296 0.005797 0.11476 0.0189554 -0.0311978 -0.0611512 -0.0718336 -0.0975141 0.0564229 0.0621394 -0.0462883 0.0483949 -0.0201274 -0.0253902 -0.050029 -0.0298006 0.0659127 -0.0708482 -0.0429557 0.00442775 -0.1557 0.030608 0.132143 0.0364845 0.126357 -0.0771635 0.0108355 0.0755783 -0.0872858 0.0450804 -0.0525809 -0.0651477 0.10682 -0.0873856 0.0595607 0.0900724 -0.068418 -0.0109573 0.00353944 -0.0871665 -0.0380217 0.00257829 0.041712 0.00417344 0.0293321 0.0542992 0.0678553 -0.0408329 -0.0120605 0.0216903 0.0609414 -0.00868082 -0.00169583 -0.0304787 -0.0660361 -0.0272396 0.0427333 -0.000602668 -0.0699007 0.0258038 -0.113163 0.0703756 -0.00127296 -0.08341 0.086845 0.0259566 -0.0472336 0.0592557 0.0281689 0.0339856 -0.0401528 -0.0627081 -0.022332 -0.0607117 -0.0487981 0.00637104 0.019639 0.120215 -0.0321604 0.0488069 -0.0488187 0.0227667 -0.0575599 -0.0132059 -0.068203 -0.0343684 0.063457 0.0314324 -0.0474217 0.0282138 -0.00477592 -0.1137 0.0669133 0.0121996 0.0753215 -0.000688574 -0.0103384 0.0702985 -0.0652201 -0.0574985 -0.0211497 0.0304298 0.0389313 -0.0403485 -0.0813154 -0.0165356 -0.04308 -0.00359634 -0.00961379 -0.107815 0.0435558 -0.0624371 -0.036901 0.0150622 0.0588023 -0.0276127 0.0775258 0.00952428 -0.0470938 0.0778211 0.0691381 0.0679736 0.000265461 0.0554039 0.0162332 -0.103165 0.0417428 0.0852585 -0.0103084 -0.0402442 0.00253065 0.0710449 0.0752729 0.0612381
féline 0.0234708 0.00674637 -0.0876117 0.036252 -0.0477462 -0.0126253 0.00828357 -0.00551078 -0.05029 0.0457235 -0.021507 0.101054 -0.0131393 -0.062085 0.0217864 0.00190306 -0.0181608 -0.129994 0.0384877 0.061532 0.0495164 0.0723996 -0.0708726 -0.0354968 -0.00182704 -0.0567624 -0.0125999 0.0336291 0.0635244 0.0106197 0.0545657 0.079128 0.000562843 -0.0153577 0.0156635 0.0492813 -0.0130831 0.042048 -0.0421611 0.0143285 -0.0413204 -0.0134753 0.0229583 0.0980032 -0.0230596 0.0652249 -0.0829507 -0.100194 0.0278189 -0.0958431 0.0808729 -0.0417833 -0.00366873 0.043643 0.0859973 0.0377275 -0.0010864 -0.122375 0.0821212 0.0609629 0.0522827 -0.0130431 -0.00631793 -0.021251 -0.0386841 -0.0943619 0.0163965 0.0989192 -0.0172006 -0.00590875 0.0308302 -0.0436797 0.0210496 -0.0524317 -0.0269479 -0.0223885 -0.00254598 0.0537885 -0.0985008 0.028802 0.0710531 -0.0513973 -0.013882 0.0685563 0.0113794 0.0546994 -0.0139888 0.103456 -0.00946314 0.102026 0.0571158 0.055136 0.0462262 -0.0385694 0.0361808 0.0199991 0.0511515 0.0827386 -0.0932339 0.00198957 -0.00507595 0.0438657 -0.0622397 -0.0593464 -0.0939267 0.0110291 -0.011592 -0.0028252 0.0835354 -0.103195 -0.0918757 0.111723 -0.0120319 -0.0763033 0.0420237 -0.108897 0.0211299 -0.0113295 -0.00769988 -0.0222205 0.0328323 -0.098739 -0.0145453 0.0520887 -0.0131394 -0.0209289 0.0445182 0.0617891 0.0331912 0.00379305 -0.0739293 0.0535815 -0.125318 0.0501738 0.178163 -0.00889167 -0.0745243 0.0445748 -0.145703 0.0429723 -0.0166307 0.0657633 -0.0105582 -0.000555196 0.042421 0.0121224 0.0294764 0.0554329 -0.0283206 0.043409 0.0586532 -0.0831926 0.04363 -0.0260758 -0.0192944 0.084707 0.01081 0.0151789 0.0265514 0.0225072 -0.0662366 -0.00446843 -0.0597355 0.0407595 0.0655893 -0.0161277 0.0039284 0.0327798 0.167919 0.0314853 0.0533234 -0.0730254 -0.0525464 -0.0377426 -0.0171447 0.0207504 -0.0788497 -0.0486036 -0.106717 -0.0807938 -0.0739306 -0.1554 0.0577487 -0.0609383 0.00504318 -0.0515303 -0.0445663 0.0126278 -0.0152655 0.0133711 -0.0332982 -0.0651069 0.0379313 0.0963316 -0.0672459 -0.0441157 -0.067395 -0.0364958 -0.00480684 -0.0150987 -0.0138867 0.0871643 -0.114363 0.0204839 0.0760843 -0.0210792 -0.0996028 -0.0794616 -0.00199743 -0.0172618 0.109629 0.0192238 0.0591298 0.00494499 -0.0938594 -0.0710847 -0.0272269 0.00828785 0.0017274 -0.0212449 -0.110515 -0.0434156 -0.0682842 -0.030716 -0.0360827 0.00190835 -0.0904001 -0.0513778 0.0199773 0.0254259 0.0204805 0.0166799 0.0264144 -0.106234 -0.0056531 0.147458 -0.00895391 -0.00661095 0.0133183 0.0422384 -0.020667 0.0445446 0.0814347 0.0345976 -0.0535918 0.0929375 -0.0634619 0.0251857 -0.00116431 0.0774517 -0.0453209 0.0174091 0.0147721 0.0521755 0.0381527 -0.0076114 0.049035 -0.102173 0.0978145 0.00568039 0.0489707 0.0494586 0.0281815 -0.00800046 -0.0741333 0.0572667 -0.0792819 0.0862345 -0.000136492 -0.0707743 -0.0876187 0.0945935 -0.0336999 -0.117099 0.0561157 -0.0365422 -0.00184705 -0.0195558 -0.0106467 0.122866 -0.0650327 0.00778384 -0.0222596 0.0573025 0.059515 -0.035195 0.0155085 0.0683888 -0.0153932 -0.0390665 0.056373 -0.0613385 0.0682516 0.0156088 -0.0431344 -0.0310121 0.0156573 0.0269835 0.00177875 0.0538266
hyène -0.0278131 0.0525067 -0.0940633 0.0644005 -0.076829 0.0559902 -0.00780664 -0.0986203 0.0901283 0.00335878 0.0702757 0.0246112 -0.0611521 -0.0517689 0.0469106 0.0196382 -0.0657081 0.0877482 -0.0740323 -0.0102633 -0.0509214 -0.0760056 -0.0763566 0.000748261 -0.0319087 -0.11185 0.0385952 0.0378824 -0.00180089 0.0308396 -0.0113433 0.0540979 -0.00451607 0.0106685 0.123977 -0.073309 0.0649877 0.00692789 -0.00364634 -0.0616961 -0.0893646 0.0436723 0.0943024 0.0162083 0.00941325 0.0437147 -0.0542317 -0.0381112 0.0285189 -0.0517524 -0.0433987 -0.00722239 -0.0593491 0.0205285 -0.0312839 -0.00325294 0.0140899 -0.0220169 0.0107166 0.135477 0.0808935 0.0401345 -0.0491194 0.0126682 -0.0221531 0.0311498 0.0789125 0.0425843 0.0321401 -0.000169069 0.0378282 -0.0457395 -0.036382 -0.0772806 -0.029353 -0.0216505 0.0236733 0.0979607 -0.036856 0.0624235 0.040538 -0.028933 0.0117084 0.094383 0.0322791 0.067612 -0.0243566 -0.00964637 0.01163 0.0144829 0.109889 -0.06119 -0.00813399 -0.0407657 0.00349525 0.0469063 -0.0284698 0.116419 -0.0624083 0.0767417 -0.0761243 -0.0039887 -0.0897421 -0.00123706 0.0432423 -0.0544192 0.0520572 0.0387964 0.024743 -0.0973032 0.0225242 0.0368209 -0.072698 -0.0359453 -0.030062 -0.0758012 0.0924699 -0.0753266 -0.0550126 -0.0304774 -0.0559182 0.0426486 0.0387751 0.0727994 -0.00258209 0.0336072 -0.0457142 0.0286485 0.00106725 0.00448803 -0.100654 0.00634551 -0.0937606 0.0498552 0.0401863 -0.0261899 -0.0282306 0.0515685 -0.16233 0.0666896 -0.0468525 0.0153403 0.0207327 0.0536989 -0.0463496 0.0250274 0.0205811 0.00640183 0.0408822 -0.027742 0.0687157 -0.104595 -0.00806602 -0.0912014 -0.0370953 0.0664418 -0.0199697 -0.0089685 0.0327455 -0.0716022 0.0858183 0.0126667 -0.064338 0.0103427 -0.000316328 -0.0983233 0.0100123 -0.0670762 0.141019 0.0275132 -0.0280638 -0.0338068 -0.0246921 0.00878686 0.00197105 0.0586255 -0.0396426 -0.0452956 0.000362053 -0.0758774 -0.0439417 -0.0271507 0.0403752 -0.0501766 0.00844101 -0.0479266 -0.0385967 -0.0721487 0.0139545 0.0239152 0.0273828 -0.0800736 0.0243408 -0.0189573 -0.0744457 -0.0168236 -0.0749145 -0.0791355 -0.0663312 -0.173323 0.0392315 0.115878 -0.0781896 0.0402523 0.0233451 -0.0927136 -0.0462688 -0.031462 0.0764259 0.00457051 0.084869 0.087904 0.11645 -0.161012 0.00753867 -0.0670003 0.0221503 -0.00177777 0.0442644 -0.0387548 -0.0756245 0.0469525 -0.00278779 0.0374432 0.054315 -0.0343747 -0.0863876 0.0727436 -0.00954011 -0.0279337 0.0623742 0.0940946 -0.00117896 0.022237 0.0512657 0.0662899 0.0315338 -0.0939945 -0.0498408 -0.00318746 0.0994534 -0.00711547 0.0163006 -0.00965894 -0.0114272 0.0101238 0.0101135 0.0627523 -0.0791779 0.021321 -0.0337406 -0.0556705 -0.0176287 0.0312149 0.0776693 0.0107631 -0.0105561 0.00499547 0.013288 0.0436395 0.0659102 0.106874 -0.0701685 0.000215335 -0.155067 -0.068667 0.0508862 0.0278713 -0.0133414 -0.0559652 -0.0331793 0.0598034 0.0366858 0.010502 0.0420766 -0.0738652 0.00533308 -0.0996222 0.0138193 0.0539404 0.126884 -0.0434604 0.00012043 0.00651687 0.027292 -0.00371827 0.128798 0.107027 -0.046917 0.0431093 0.0186972 -0.060996 0.0514947 -0.00420617 -0.0345177 -0.0172855 -0.101428 0.0840058 -0.0985147 0.02246
canin 0.0608541 -0.0421252 -0.0794615 0.0651516 -0.0462132 -0.0017037 -0.0587842 0.0420211 0.035497 0.0436599 -0.0832629 0.0950501 0.0550772 -0.0943756 -0.00247724 0.0168976 0.0363081 -0.00882866 -0.062083 0.0201956 0.0249921 0.0424129 -0.0645427 -0.0220469 0.0438611 -0.0794225 -0.0192535 0.027552 0.00667358 0.00638888 0.0133833 -0.0269459 0.0386707 -0.0397372 -0.0138471 -0.0333336 0.00751518 0.0177326 -0.0258175 0.0671214 -0.0850929 -0.0188941 0.0132597 0.0346433 -0.10276 0.0288117 -0.00840435 -0.0926458 0.077594 -0.0760173 0.0449383 0.00738406 -0.0131553 0.0404864 -0.0365745 0.0182342 0.0413543 -0.102544 0.0250667 0.101036 0.0336761 -0.0824478 -0.0254387 -0.0401674 -0.0148024 -0.130287 -0.0398752 0.0395395 0.0543048 -0.0339574 -0.0133616 -0.0496588 0.0566816 -0.0542161 -0.0444698 0.0421914 0.109848 0.0936406 -0.0280609 -0.0661541 0.0332548 -0.0210583 0.0627212 -0.0476439 -0.0561995 -0.0205538 -0.0611028 0.0832112 0.036102 0.0456098 -0.0139637 -0.108079 0.0910005 -0.060365 0.0859628 -0.0348062 0.0261394 0.058922 -0.0519009 0.00991213 0.0765334 -0.0810828 -0.0977698 0.0422817 0.054988 0.0785988 0.00865355 -0.0400997 -0.00249545 0.0477211 -0.114664 0.0659454 -0.0491276 0.0120978 0.0227965 -0.0132242 0.0729031 -0.0763824 0.0103907 0.0757595 0.0141809 -0.137753 0.070887 0.106845 -0.0334698 0.011841 0.0358983 0.0440011 0.0473209 0.0462266 0.0380851 -0.0176981 0.0137899 0.0194298 0.0404276 0.0495634 -0.069101 -0.0387947 -0.0693609 0.0919867 -0.00343128 0.070903 0.0271553 0.0922257 -0.063716 0.156725 -0.0338701 -0.0480157 -0.0224118 0.0226925 0.0343896 -0.0412509 -0.0513077 0.00543248 -0.0801335 0.0510042 -0.062723 -0.0376523 0.180573 0.0149249 0.0277974 0.0311865 -0.0918729 -0.0329389 0.0807453 -0.0501131 0.075056 0.0109045 0.0637225 0.0435273 -0.0588509 -0.0190902 0.0682243 0.0565995 -0.02472 0.144747 -0.0436266 -0.0283445 -0.0474499 -0.0533597 -0.0993679 -0.082409 0.0817548 -0.0649538 0.0629912 -0.130668 -0.0643332 -0.0666637 0.018935 0.0290811 -0.0857551 -0.00474115 -0.0528708 0.108029 -0.0885466 0.0057758 0.00798653 0.0454045 -0.122503 -0.0456125 -0.0742455 0.0218349 0.0239582 0.00187682 0.00452489 -0.0253991 -0.0661645 -0.0893249 0.00140125 -0.0283548 0.0639509 0.00993728 0.0762208 0.0180046 -0.0113058 -0.0662611 0.0184528 0.00780713 0.00435015 0.0115222 0.000823913 -0.0602763 -0.0298451 0.0264088 -0.0340658 -0.0101765 0.0314011 0.0435735 -0.0337887 0.0408976 0.0451496 -0.0720792 0.0569049 -0.0648694 0.0228544 0.155519 -0.0252454 -0.0122218 0.0257867 -0.00171235 -0.0574778 0.0236537 -0.0488243 0.0791119 0.0125338 0.0202862 -0.06245 0.0374814 -0.0247314 0.0945368 -0.0729498 -0.0397744 0.00706192 0.0289589 -0.0193465 -0.0537049 -0.0314436 -0.0876439 0.0831292 0.0564334 0.102894 0.0349268 0.0203329 -0.0711522 -0.0362829 0.0773394 0.0112602 0.0101365 0.00124647 0.0226473 -0.106352 0.00895647 -0.0396228 0.000816495 -0.0315253 0.00816683 -0.00816028 -0.0712044 0.101755 0.0483657 0.0754157 0.0224566 -0.0270349 -0.018217 0.0438509 -0.0721788 0.0774196 0.110415 -0.0798371 -0.0431792 0.0568798 -0.0343578 0.128972 -0.0201058 0.0186803 0.0437945 -0.00806819 0.0904002 0.0403189 0.032913
charognard -0.0474958 -0.0789945 -0.0985029 0.0446429 -0.0181654 0.0607339 0.0504022 -0.00573309 -0.00212156 0.128194 0.0636513 0.0777882 0.0768981 -0.0248091 0.000323463 0.00933467 -0.021811 0.0425909 0.0267424 0.0312648 -0.0409836 -0.0634307 -0.0669334 -0.0345522 -0.0177536 -0.0508435 -0.00457896 0.018577 -0.000518621 0.0763236 0.00170618 -0.0163706 -0.0867491 0.0448261 0.0830517 0.0502813 0.0306715 -0.022887 -0.0449822 -0.118432 -0.0701351 0.0926373 0.00773577 0.064679 -0.0331151 0.0283576 -0.0664899 -0.100247 0.0436735 -0.0705164 -0.0344861 0.0163033 0.0900475 -0.0647465 -0.0534454 0.0871803 0.0313876 0.00163794 0.0313048 0.129038 0.0405909 -0.0147292 0.0216782 0.0303908 -0.0275669 0.0397348 -0.00338144 0.127137 0.0471051 0.05747 -0.0133402 0.00989861 -0.0129085 -0.0692532 -0.0124532 0.0503933 0.0571268 0.108069 0.0715594 -0.0908161 -0.0355448 -0.0856492 0.0467956 -0.0167428 0.0780238 -0.0154185 -0.0557955 0.0324759 0.0219247 0.0529722 0.0424045 -0.03969 0.036933 0.0109957 0.00276218 0.0754159 0.0486416 -0.0293606 -0.0471028 0.113423 0.0103658 -0.0504754 -0.0461077 -0.0428006 0.0263616 0.00764609 -0.0633522 0.0785496 -0.0160941 0.0249546 -0.0522207 0.0808945 -0.0911303 -0.00288827 0.0119108 0.0268344 0.0484548 -0.0341052 -0.0291902 0.0410664 0.0554177 -0.077331 -0.00412434 0.0308063 0.0086635 -0.0321174 0.00845562 0.0512489 0.010808 -0.0217345 -0.0517203 0.0355156 0.0175571 0.123819 0.0208969 0.0139357 -0.0244964 -0.0479165 -0.0296003 0.0498773 0.033543 -0.0649638 0.0311142 0.00314466 -0.00860422 0.154241 -0.0377829 -0.0369945 0.0676864 -0.0660349 0.068699 -0.0898923 -0.0276744 -0.0694007 -5.81472e-05 0.0767877 -0.0523413 -0.0192638 0.047754 -0.0569239 0.0967752 -0.000957174 -0.0586244 0.0295983 -0.0627808 0.0156199 -0.0339835 -0.0345377 0.0927911 0.0125875 -0.0168453 -0.0151091 0.0319698 -0.0565112 -0.00611168 0.0749349 -0.107092 0.0310082 5.26852e-05 0.0297168 -0.0974877 -0.0277424 0.0372315 -0.0322356 0.0149445 -0.018427 -0.0724328 0.017564 0.0208119 0.026947 0.00472468 -0.142895 0.0657284 0.134361 -0.0147026 0.00195577 -0.0557498 0.014362 -0.07951 -0.06824 0.0644159 0.107954 -0.0122685 0.0271185 0.0460516 -0.0783625 -0.0287117 -0.109504 -0.0572669 -0.0839766 0.105546 0.0135742 0.0463012 0.0273512 0.0413076 -0.0515404 -0.0434393 -0.066973 0.0123332 -0.0623047 -0.101168 0.0228608 -0.00668436 0.0486713 0.049629 0.034491 -0.0997896 -0.0113135 -0.0136507 -0.047988 -0.00983263 0.0421495 -0.0435593 -0.0305289 0.132511 0.0532215 0.0120572 -0.0114072 -0.0439125 -0.0204333 0.0430427 0.00400507 0.0443715 0.0161012 -0.0380899 0.0246617 -0.021167 -0.0752863 -0.00868854 -0.0232773 -0.0211287 -0.136616 -0.0902269 0.0380255 0.0874268 -0.00878249 -0.0396489 -0.0481605 0.00116471 -0.0211546 0.0581408 0.0999197 -0.0848551 -0.0497316 -0.186087 -0.104363 -0.004074 0.0746536 -0.0561608 -0.0403012 -0.0300471 -0.0376999 0.0482709 0.0198973 0.00446787 -0.0404645 0.0254608 -0.0876397 -0.0257985 0.0748061 0.0552848 0.00353901 0.0175178 -0.0804476 0.0308855 -0.0182874 0.103689 0.0710663 -0.13173 0.0322326 -0.0462321 -0.00182058 -0.0434933 0.0814749 0.028881 -0.0252458 -0.0270469 0.202641 0.0228598 0.0361539
