22 300
couleur 0.0155922 0.0143992 0.000964195 0.0814325 0.00502998 -0.0472354 -0.0164419 -0.0548256 -0.00663633 0.0488503 0.022545 0.0266564 0.0401905 -0.10342 -0.0169668 -0.0125917 -0.0975234 -0.0314403 -0.00332131 0.102056 0.0188436 -0.00367308 -0.10007 -0.0530796 -0.105465 -0.00167588 0.0192886 -0.0791583 0.0157968 -0.0226555 0.0489085 0.0849042 -0.03295 0.0440868 -0.0270887 -0.0496145 -0.0241997 -0.0636043 0.0450423 0.0178938 0.00169697 0.00245871 -0.012261 -0.00443266 -0.0421846 -0.0216534 -0.0512411 -0.00678853 -0.0245652 0.0257877 0.00549446 -0.011089 0.0206348 0.035791 -0.0631718 -0.0752187 0.0730975 -0.00157763 0.0636784 0.0973169 -0.0384161 -0.0160286 0.0583935 -0.0458372 -0.0460853 -0.023573 -0.050252 -0.0431699 -0.0273819 0.0764163 -0.0577243 -0.0229842 0.0700079 -0.075138 -0.0707052 -0.0415293 0.096971 0.105 0.0507717 0.0291454 0.0637433 0.0767079 -0.028713 0.000139358 -0.107029 0.0140436 0.0425744 0.0222938 0.0425537 -0.0445618 0.0568243 -0.0502723 0.0887374 -0.108313 0.0583118 0.0670242 -0.0171562 0.0513022 -0.0804362 0.0200589 -0.156693 -0.0331912 0.0535225 0.047912 -0.119677 -0.0465475 -0.0455761 -0.00727913 -0.0241463 0.00765998 -0.04455 0.0907783 -0.00651078 -0.013448 0.00694201 -0.0808658 0.120521 0.0298993 -0.0273079 0.0237333 0.0521766 -0.0092699 -0.104309 0.163085 -0.00244822 -0.0487755 0.0531354 0.0408789 0.0295702 0.0558732 0.000211626 0.0607944 -0.01772 -0.00483454 -0.0291383 0.0178003 0.0397359 -0.00477465 -0.0338167 0.0209591 0.101142 0.0935618 0.0995432 0.0132043 -0.00690776 0.189219 0.0902556 0.0260831 0.0633005 0.0629556 0.00365794 -0.0256437 -0.0172094 0.0366098 -0.0352666 -0.104265 -0.0401639 -0.123922 0.0493394 -0.0294063 -0.00115307 0.000979459 -0.0792182 0.0365049 0.0672183 -0.00345354 -0.0213364 0.0169691 0.0972132 -0.116687 -0.149607 0.0132318 -0.0547589 -0.045411 -0.0124272 -0.00794405 0.0196856 0.0934479 -0.0918641 -0.0550205 -0.00618965 -0.0222878 -0.0489492 0.107805 0.00779314 0.0760222 -0.0182397 -0.0989486 0.0174373 -0.0334571 0.0168872 -0.111055 0.0551324 0.0841569 -0.052484 0.0881102 -0.00671369 0.0520026 -0.154458 -0.108217 0.0541128 0.00464354 -0.0468304 0.0551123 -0.0578387 -0.0788415 -0.0114177 -0.00744606 0.0654279 0.0445991 0.0738278 -0.0342053 -0.0210343 -0.0617791 0.0339294 0.0056604 -0.0259188 -0.126117 -0.0644535 -0.0413445 -0.00589811 -0.037736 0.0388669 -0.00969423 -0.0146263 0.0322048 -0.0328247 0.0212309 0.00103862 -0.0503675 -0.0211163 0.0243007 -0.0191014 0.0567489 -0.043264 0.0568567 -0.0228579 -0.0283925 0.033612 0.0515101 -0.0414714 0.0132683 -0.00172606 0.0437305 0.0496663 0.0219529 0.00353095 -0.0158963 0.0906741 0.0702407 0.116513 0.0357111 -0.0814845 -0.0250231 -0.0351731 -0.0433493 -0.0937363 0.0301959 -0.0273607 0.0168359 0.052862 0.0723538 0.0169678 -0.0622831 0.0123741 -0.0231882 -0.0429889 -0.0191416 -0.0494621 -0.0614717 -0.186345 -0.0195057 -0.0121781 0.0129757 -0.074193 -0.0148256 0.0139371 0.0378752 0.104065 -0.0227193 -0.000346468 0.00911299 -0.0931044 0.012937 0.0222918 -0.0998681 0.133553 0.0363983 -0.0492157 -0.00794455 0.0159889 -0.0303941 -0.0918622 0.0159547 -0.040207 0.0590923 -0.0179378 -0.0183298 0.0270132 0.0520181
rouge 0.0556691 -0.0312265 -0.0798224 -0.0174613 0.0807917 -0.0302532 0.0194987 -0.00661602 0.120395 0.0740029 0.0438159 0.0189852 0.0389258 -0.00571714 0.137915 -0.025469 -0.0505803 -0.0658776 -0.0130203 0.103803 -0.0135445 -0.0208819 -0.110857 0.0425554 -0.01177 -0.0692621 -0.00947481 -0.0909893 -0.127453 0.117336 -0.0230217 0.10347 -0.0308407 0.0254262 0.0954092 -0.0650817 -0.034314 -0.0438241 0.0672083 -0.0701946 -0.00859846 -0.105579 0.023466 0.0245983 -0.00124549 -0.0727916 0.0549865 -0.0164597 -0.0301678 0.0306599 0.0323084 -0.0965756 -0.05407 0.0335904 0.051658 0.022754 -0.0122264 0.0294223 0.0456128 0.0444421 -0.0106082 -0.00363873 0.0550891 -0.0322967 -0.0850328 -0.0499377 -0.0160785 0.0128977 0.00125252 0.0285292 -0.0895861 -0.00853089 -0.00608519 -0.0833707 0.0139089 -0.0205395 0.00742958 -0.0127148 0.112733 -0.015933 0.0276089 -0.01817 -0.0477175 0.00610525 -0.0423444 -0.00131604 -0.0200734 0.0590379 0.0681975 -0.0815415 -0.0321974 0.0626849 -0.104269 0.0640005 0.0319775 -0.0434585 -0.0148914 0.0974128 -0.0299601 -0.021156 -0.0633527 -0.0868987 -0.0954217 0.0390025 -0.00889467 -0.0511185 0.0267436 0.0232173 -0.0360504 -0.0676172 -0.0433302 -0.0381096 0.0786476 0.0137624 -0.0389633 0.0475863 0.0727748 -0.00782188 0.0232595 -0.0596088 0.0986357 -0.00529832 -0.0545354 0.0316148 0.023203 -0.00295155 -0.0279403 0.0788672 -0.0225572 0.0255329 -0.0036477 0.0311041 0.00440143 0.0597088 0.0171716 -0.00352044 0.0118823 -0.125515 -0.0664252 0.0520795 -0.0606437 0.121929 0.0386562 -0.0274688 -0.0600113 0.120001 -0.0858786 0.0534674 -0.0590104 0.040038 -0.00381104 -0.0779153 -0.0944103 -0.0255839 -0.000453846 -0.0126304 -0.000780135 0.0252568 0.0441261 -0.0362555 0.103414 0.0289332 -0.108232 -0.0362442 0.0933976 -0.00347036 -0.0357801 -0.0342811 0.143922 -0.0316849 -0.0051128 -0.0671198 -0.0390896 0.0252484 -0.0646592 -0.00648607 0.0267354 -0.0417019 0.0132522 -0.0300739 -0.0243386 0.00464724 0.015983 0.0482187 0.0686647 0.00406052 -0.0525757 -0.0671329 -0.016251 0.027175 0.057188 -0.143367 0.0870132 0.0902996 -0.108869 -0.0194011 -0.0599101 0.0577218 -0.0947854 -0.0213107 0.048468 -0.0637599 -0.000225304 0.11005 0.0695376 -0.060198 -0.0838927 0.0434275 -0.0553712 0.00671477 0.0091049 0.0732566 -0.12423 -0.0500791 0.117524 0.0709888 0.00106667 -0.0477672 -0.0379267 -0.0136627 5.72902e-05 0.0667937 -0.0641533 0.0852283 -0.00133707 -0.0562633 -0.0744407 7.23697e-05 0.0197061 -0.00959424 0.0293829 0.100725 0.0646947 -0.0367455 0.0704999 -0.142315 0.0173148 -0.066439 -0.0678267 0.0662223 0.0304497 0.0148981 -0.0269696 0.0154102 -0.0116782 -0.0180678 0.0778054 0.0518541 -0.0451901 0.0606889 0.0284027 0.0385438 0.00158637 -0.0325935 0.0623078 -0.0258027 0.0096497 -0.0364964 0.0220448 0.026417 0.0718126 0.100734 -0.00336048 -0.0352196 -0.0286352 -0.0283779 -0.0829242 0.102869 -0.043 -0.113004 -0.0538686 -0.0813493 0.00355719 0.0361103 0.0352506 0.0271946 0.0817286 0.0170068 -0.09728 0.0742283 -0.00132339 -0.0363145 0.0227091 0.0306449 0.135259 -0.0195017 0.0487157 0.0770009 -0.0997147 -0.0744276 -0.0614867 -0.0407843 -0.0758862 0.030598 -0.0184753 -0.0364511 -0.0402393 -0.0650076 0.0181116 -0.0255195
blanc -0.0466164 -0.0176916 -0.024502 -0.0475502 0.0929013 -0.00601853 0.0199906 -0.0134746 0.144927 0.0785457 0.101184 -0.00740293 -0.0244916 -0.026909 0.117952 -0.141266 -0.0703012 -0.137874 -0.0277887 0.0094596 0.0171087 -0.137014 -0.121724 0.157832 -0.111396 0.0270137 0.0154824 -0.103439 -0.0287722 0.0714659 -0.0463218 -0.0222907 -0.0380495 -0.0277007 0.0427104 -0.0444597 -0.0786151 -0.0372643 0.0298092 -0.00990447 -0.0120831 -0.0579198 0.0407077 -0.0573496 -0.0762178 -0.0700656 0.0328484 -0.0447582 0.0188677 -0.0168774 0.0536401 -0.0185772 0.00707834 -0.00958983 0.00758303 0.0470594 0.0271834 0.00781157 0.0199707 0.0906366 0.0668882 0.0259468 0.0141438 -0.0169528 -0.0524715 0.00746853 -0.0182062 0.0284883 -0.0905385 0.132684 -0.04171 -0.0341656 -0.00403378 -0.0889133 -0.0136447 -0.0306194 0.015932 -0.0684842 0.0452227 -0.0413833 0.040301 -0.0360135 -0.0208921 -0.00319577 -0.0283174 -0.0492786 0.0216679 0.0457831 0.115888 -0.0424835 -0.0581682 -0.0366615 -0.0186673 -0.0484781 0.0525665 0.0231933 0.0247744 0.120701 -0.0653198 0.0223706 -0.0833571 -0.0312185 -0.0372391 0.105066 0.000305605 -0.0251835 0.0156651 -0.0366484 0.0252546 -0.0311017 -0.00963998 0.0357422 -0.0263318 -0.00587826 0.0163555 0.0680227 0.0631994 -0.0571963 0.021097 -0.0527403 0.0987811 -0.0262769 -0.000738576 0.00714438 0.0692106 0.0234645 -0.0308703 0.0160294 0.0631899 0.052296 -0.0617736 0.0852741 0.0303922 0.0744627 0.09768 0.0236645 0.042058 -0.145108 -0.0351835 0.0213461 0.0885087 0.0889182 0.0417931 0.0413856 -0.0428877 0.0890196 0.00402823 -0.00498206 -0.0257786 0.0373118 0.0343617 -0.0200303 -0.0356773 -0.0434043 -0.0788811 0.0506247 -0.0105985 -0.0188372 0.0788487 0.0636215 0.0606274 0.125283 0.043443 0.0343819 0.0620695 -0.00648928 0.0126508 -0.0434517 0.107185 0.00749466 0.0422685 -0.0483112 -0.0622248 -0.000908194 -0.0553516 -0.00122039 0.00338804 -0.0969711 0.0543226 -0.0913906 -0.015464 -0.0926545 -0.00161521 0.0488404 0.0205413 0.0134437 0.0227862 -0.0452672 0.0234787 -0.0152407 0.0166894 -0.0648375 0.0968194 -0.0394886 -0.0948546 0.034657 0.0350469 -0.0279232 -0.0936193 -0.0402183 0.0803706 -0.0125595 -0.0151906 0.0430376 0.0387878 -0.0890531 -0.0804832 0.0735016 0.0293011 -0.00768329 -0.00788197 0.0363123 -0.075121 -0.00654888 0.067815 -0.0802296 -0.0951378 -0.164819 -0.0493104 -0.000217262 -0.0120907 -0.0466443 -0.0114647 0.116999 0.071367 -0.0187816 -0.0275016 0.00218448 -0.0203451 -0.0407806 -0.00365765 0.0398628 0.0189076 -0.061745 0.0403108 -0.0486389 -0.060141 0.0467913 -0.0138622 0.0941854 -0.0419085 -0.0444956 -0.0694262 0.0579903 0.00430199 -0.0635267 0.0744983 0.0377854 -0.0585379 0.0335468 0.00916587 -0.0294171 -0.0535705 -0.00875958 0.0719151 0.0449109 0.0615087 -0.0898013 -0.0244154 -0.0383027 0.0170984 0.0277139 0.0460785 -0.0296022 -0.10799 -0.0911413 -0.0389045 0.0750563 -6.84372e-06 -0.0558871 -0.0621432 -0.0380349 0.0475098 0.147305 0.00574054 -0.0379241 0.0190017 0.0213103 -0.056537 0.107175 0.0226604 0.0371466 0.0119477 -0.011118 0.072145 -0.0296054 0.0950649 0.142689 -0.0908824 -0.0181025 -0.05031 -0.0607597 -0.0151016 0.0647421 -0.0311969 0.0213551 0.0566807 -0.00895417 -0.0605844 0.00329441
blanche -0.0368636 0.0381045 -0.0134904 -0.0604232 0.082881 0.0595819 0.0356542 -0.0403211 0.0708158 0.0609508 0.0467359 0.0356346 -0.02513 -0.00347758 0.110678 -0.0890518 -0.0678022 -0.0388138 0.0233742 0.0565334 -0.0453335 -0.0477539 -0.0479678 -0.0431707 -0.0752893 -0.0757899 0.0166758 -0.0325727 -0.00611465 0.134514 -0.00770223 -0.0203133 -0.0161549 -0.0958793 0.0128631 -0.0952009 -0.147885 -0.125339 0.104687 -0.0252 0.0442669 -0.0318169 -0.00472245 0.106882 0.0517956 -0.0245353 -0.0034333 -0.105713 0.0233191 0.0581207 0.0393553 -0.0351847 0.00399025 -0.00935187 0.0367972 0.0299035 -0.100338 -0.00886795 0.0442388 0.0578568 -0.00859125 0.0899737 0.102211 -0.0330137 -0.0289784 -0.0335597 -0.0680398 0.0337956 0.0240824 0.0284168 -0.0181542 -0.0604215 0.00436401 -0.0597326 -0.0419966 -0.0554712 0.0366343 0.0686015 -0.0200849 0.056781 0.00346402 0.00834191 -0.0614569 -0.0368498 -0.0202221 -0.0203039 0.000494061 0.026565 0.0638879 0.0522416 0.0190842 0.0719327 -0.012077 -0.140751 0.0832665 0.0132785 0.0223198 0.0458102 -0.0269147 0.0353775 -0.068875 0.00403576 0.0389486 -0.0307714 -0.0505791 -0.00896641 0.00793922 -0.0194462 -0.019864 -0.0621079 -0.0175214 -0.0245035 0.043983 -0.102904 -0.0423239 0.0365122 0.0639652 -0.0226722 0.0199579 0.0253069 0.0807488 -0.0132443 0.0231414 0.0421759 0.070241 0.0524864 -0.139399 0.125447 0.0187598 0.0979845 -0.0494288 -0.0176398 0.030501 0.068903 0.0296794 -0.0327792 0.0899471 -0.0324903 -0.0401569 0.0213773 -0.0332332 0.0358667 0.105052 0.0539533 0.0551381 -0.000296042 -0.0655881 -0.0384592 -0.10244 0.0727208 0.0695048 -0.12436 -0.112035 -0.024023 -0.00475334 0.0687657 0.00583834 -0.0543391 0.114611 0.00390841 0.00928659 0.0112962 -0.0670848 0.0193695 -0.00150758 0.029392 0.0188851 0.0389028 0.0680662 0.0672166 0.00699486 -0.138688 -0.105348 -0.0499845 -0.00649631 0.0123141 0.01828 -0.055699 0.0119552 -0.027407 -0.0417118 -0.0213084 0.0215658 0.0147537 0.0315749 0.000306497 -0.0806025 -0.0362509 0.0253428 0.055584 0.0402523 -0.0679048 0.0589136 0.0792199 -0.0290945 0.0487534 0.0180204 0.00732275 0.00197427 0.052604 0.0358548 0.0566478 -0.0774858 0.00195009 0.0850076 -0.141951 -0.0432954 0.00167682 -0.0283425 -0.059361 -0.0627787 0.0381984 -0.0359846 -0.066486 0.0656388 -0.0993929 -0.12044 -0.0659034 -0.0651084 0.114308 -0.0607138 -0.0254269 -0.0839344 0.0967738 0.021519 -0.093703 -0.137105 0.0692443 0.0563667 0.00146846 0.0588592 0.127579 0.014936 -0.0410532 0.00219096 0.0238354 -0.0237557 0.0605053 -0.0461708 0.0526519 0.0236014 -0.00970319 0.0115152 -0.0295005 -0.00299279 -0.0319154 0.0107555 -0.00471636 -0.0587328 0.0543272 0.03216 0.051068 0.026676 -0.0130366 0.0551297 -0.01221 0.0616827 -0.0626225 0.0105806 0.0344594 0.0712451 0.0375441 0.0783097 -0.0451036 -0.0389442 -0.096131 -0.0834015 0.0602028 0.00910301 -0.0471401 -0.0263464 -0.0893077 0.0243939 0.0610778 -0.0755499 -0.0233151 0.0875705 0.0156473 -0.0791771 0.0697685 0.0111494 -0.0237398 0.0386909 0.0555107 0.0796535 0.0956643 0.0792713 0.0166627 -0.0637148 -0.0219675 0.0228907 -0.128697 -0.0870398 0.062433 -0.0473348 -0.0413437 0.045979 0.0345109 -0.0511124 -0.0186683
bleu -0.0436836 -0.0260769 8.29525e-05 0.0335736 0.00195926 -0.0146688 -0.0160931 0.124851 0.122341 0.0135589 0.0404854 -0.0684928 -0.0455876 -0.0331429 0.125078 -0.0645854 -0.0823425 -0.0599943 -0.0235084 0.0269186 0.0196176 -0.0272343 -0.0856113 0.0368497 -0.0763811 -0.0475074 0.0328843 -0.0301912 -0.0858693 0.0994474 -0.07234 0.0873291 0.109496 -0.00908702 0.00736967 -0.018374 0.00207623 0.0170698 0.0458592 0.0048921 -0.0393834 -0.0810465 0.00022155 0.0313829 -0.0362181 -0.0360184 0.0534486 -0.0584622 0.00907035 0.0456911 -0.00921502 -0.0930152 0.0133942 0.001097 0.102126 -0.0166366 0.00633678 0.00382649 0.122987 0.00497827 -0.0148165 0.0903604 0.0218888 -0.12226 -0.0525347 0.0245241 -0.0204218 -0.0767521 -0.06402 0.0261131 -0.128579 0.0756403 -0.0307155 -0.0525973 0.056822 0.0377703 0.062633 0.0091647 0.0614092 0.0245655 0.00779512 -0.0788385 -0.0544466 0.0341217 -0.0364133 0.0202389 -0.0272587 0.0857922 0.041492 -0.0672787 -0.0365118 -0.0415503 -0.0648961 0.0465915 0.0978087 0.00897545 0.123436 0.107126 0.0366266 0.0909623 -0.0495916 -0.0282049 -0.0160674 0.0762211 0.00672285 -0.11666 -0.0396467 0.0156598 -0.0153989 -0.0478991 -0.00439723 -0.0145428 0.0509871 0.0005464 -0.00501792 0.0138073 0.104815 -0.0431413 -0.0115653 -0.0308934 0.0653631 0.0223201 0.0198742 0.00493406 0.0343092 0.0171363 0.0197705 0.00199387 0.000619658 0.0391281 0.0480796 0.0616745 0.0462417 0.0312017 0.0068606 -0.0598668 0.045008 -0.117091 -0.014888 0.0151489 -0.00758935 0.161923 0.042686 -0.0320134 -0.0575308 0.0700909 0.00344281 0.00926001 -0.103356 0.013494 0.00627155 -0.0957692 -0.0441404 -0.0850101 0.0204411 0.00832284 0.0073549 0.0360178 0.055063 0.0190567 0.0307586 0.0739274 -0.0499791 -0.0658871 0.0962119 0.0238007 0.0361076 -0.0104968 0.172504 -0.00530499 0.00944521 -0.0828032 -0.0335881 -0.0235738 -0.0694308 0.0576565 0.0347663 -0.0228043 -0.0144205 0.00992966 -0.0825944 -0.0521967 0.0279966 0.0317688 0.0302397 0.0263742 0.0664721 -0.044635 0.00708818 0.0465677 0.0178075 -0.141174 0.0657919 0.0376565 -0.135196 -0.0277735 0.0255943 0.0562034 -0.0706253 -0.0330611 0.0477975 0.00678796 0.000223712 0.0392533 0.171885 -0.0530575 -0.0501003 -0.00563149 -0.0152769 0.0424564 0.0119621 0.0494394 -0.091521 -0.0338751 0.0289875 -0.024339 -0.0166689 -0.074003 -0.0165218 0.0101482 0.00906219 0.0949739 -0.0358207 0.0345948 -0.00722278 -0.0668533 -0.0548199 0.015472 -0.0219401 -0.0301849 -0.0112853 0.0179499 0.0146068 -0.0110416 0.00188561 -0.085609 0.0155776 0.0492501 -0.0284715 0.078802 -0.0333574 -0.0163773 -0.0383673 0.0124499 0.00771103 0.0103264 0.114172 0.0184384 0.0125921 -0.0612666 0.0664487 -0.0727444 -0.0451803 0.0174122 0.0821021 0.0395593 0.0244277 -0.0272178 0.0060909 -0.0320796 0.070187 0.0967737 0.0245131 -0.0796007 -0.0730071 -0.0197089 -0.101288 0.100035 -0.0280466 -0.0757676 -0.122701 -0.06115 0.0920982 0.0764505 0.00242304 -0.0483723 0.0419013 0.0280907 -0.0542833 0.100064 0.0138601 0.0114191 0.0602411 0.106577 0.0846467 -0.0428583 0.0657332 0.0779902 -0.166057 -0.0692837 -0.0270371 -0.0655846 -0.0154309 0.0692215 0.0326979 0.026032 -0.0217473 0.0455406 0.0949355 0.0642794
vert -0.00635498 -0.0573932 0.00837345 0.0215007 0.0535344 -0.0205763 0.0156925 0.0119401 0.151038 0.101868 -0.0199777 -0.0621437 -0.0221684 0.0104071 0.131263 -0.0965407 -0.121933 0.037622 -0.00569787 0.0636473 -0.0340376 -0.0423601 -0.0365663 0.0462268 -0.0616213 0.0199025 0.0302033 -0.0301025 -0.0840116 -0.0194889 -0.0469198 0.00324189 0.0722576 0.0691775 0.0376519 0.00937521 -0.012763 0.0406709 0.0210178 -0.0315979 -0.0243501 -0.0938205 0.0304793 -0.0219214 -0.0522381 -0.0390964 0.0535151 -0.0518614 0.0258575 0.0485237 -0.0148085 -0.0105337 -0.0213121 -0.0170305 0.087682 -0.0427542 -0.0529417 0.0423465 0.0578176 0.029422 -0.00828702 -0.0186257 0.103305 -0.0678562 -0.01297 0.0402759 0.0119274 -0.0545227 -0.0751578 0.0931667 -0.109836 0.0394797 -0.0174325 -0.0386128 0.0331714 -0.00377239 0.0524805 -0.0378236 0.0511522 0.0496748 -0.0101924 -0.016716 0.00996478 0.0165333 -0.0638496 0.000872419 0.0289532 0.00924717 0.0403006 -0.0202867 -0.0416988 0.000941379 -0.09646 0.0176658 0.053791 0.110197 -0.000942728 0.0552823 0.0565513 -0.0571856 0.00698736 -0.0595229 0.0348817 -0.0227367 0.0116369 -0.0392599 0.0304261 0.0398108 0.0635355 -0.0934422 -0.0479722 0.0145943 0.0543816 0.0500151 -0.0586908 0.00797187 0.100221 -0.0958525 0.00689935 -0.0165743 0.0631543 0.00195797 0.0155558 0.00712523 0.0826005 -0.110795 -0.00424743 0.0179496 0.10269 0.00263452 0.0109826 0.0641821 0.00559064 -0.0153834 0.0152094 -0.00414406 0.0200947 -0.0975638 -0.109324 -0.039091 -0.0138818 0.143901 0.0475532 -0.0334296 -0.0717475 0.0772664 -0.00537646 0.0179973 -0.0607376 -0.0150679 0.0120358 -0.106689 -0.0969069 -0.0132307 -0.00930326 -0.00659505 0.0336046 -0.0141433 0.0682961 0.0300566 0.112815 0.0893522 -0.0815987 0.0340766 0.0768814 -0.0410424 -0.00476388 -0.0442394 0.140703 0.00248536 0.0251551 -0.0303508 -0.0248053 -0.00815613 -0.010459 0.037331 0.022842 0.00286534 -0.0515637 -0.0127307 -0.0301768 -0.0878184 0.0198098 -0.0201101 0.0316222 0.0657032 0.0129091 -0.0323007 0.0384578 -0.0939981 -0.00866635 -0.156464 0.0710252 0.0416712 -0.0885869 -0.0159345 0.0760023 0.140743 -0.0423421 0.0449676 -0.00779574 0.046253 -0.0453317 0.0739835 0.116341 -0.11453 -0.0305238 0.0496533 0.00308027 0.036523 0.0391272 0.0201065 -0.119537 0.00506472 -0.0221067 -0.0393981 0.0169255 -0.108772 -0.0310371 -0.0545151 0.0344438 0.0806642 -0.0255694 0.126415 0.0618404 9.97085e-05 -0.0525932 0.0617973 -0.0198765 -0.102613 0.0141088 0.0826268 -0.0068216 -0.0427056 0.0477639 -0.11434 -0.0354236 0.0188181 -0.0442714 0.0528689 -0.0670802 0.0652895 -0.0938029 0.022174 -0.012386 0.0312972 0.0812422 0.00341622 0.0105161 0.0411212 0.0573741 -0.00678009 -0.0363434 -0.0631224 0.0782887 -0.0477687 0.0218514 -0.010377 0.0758137 0.0113083 0.060048 0.0466579 -0.0598047 -0.000733402 -0.023246 0.018006 -0.0308561 0.127606 -0.014378 -0.0761302 -0.1073 -0.035785 0.137725 0.0432677 -0.0599284 -0.0817748 0.0718185 0.0459648 -0.0631574 0.0396286 0.0577716 0.0314298 0.0687629 0.047753 -0.0111721 -0.0526769 0.0486323 0.0163577 -0.164889 -0.0485589 -0.103277 -0.0573562 -0.0381069 -0.00335083 -0.0467491 -0.0601713 -0.0468253 -0.0809542 0.0698944 0.0720498
jaune -0.0359405 -0.0257825 0.00138061 -0.0364763 0.0513502 -0.0249788 0.0282265 0.0881899 0.0723309 0.0493658 0.0129449 0.000764809 -0.0291499 0.0108431 0.136482 -0.102465 -0.0762595 -0.0232855 -0.0224189 0.0687383 0.0103713 -0.0804332 -0.0231827 0.0529581 -0.0499167 -0.032426 0.0407555 -0.0730399 -0.137321 0.0196266 -0.119623 0.064271 -0.0513629 0.0879557 0.012467 -0.0182397 -0.018927 -0.027263 0.038181 -0.0477371 0.0393937 -0.135512 -0.013084 0.0519293 -0.0424386 -0.0496776 0.0386555 -0.00338915 0.023164 0.0266254 0.0255725 -0.068432 -0.00437918 0.0322793 0.0201415 -0.0125154 -0.0192906 0.0223374 0.0804663 0.0384017 0.0438092 0.00081876 0.061789 -0.0915528 -0.037058 0.0577756 -0.0377069 -0.0446974 -0.0410152 0.0369325 -0.0886269 -0.0398418 0.0421486 -0.0682176 0.0426866 -0.0374792 0.0278003 0.0895307 0.00633106 -0.0751802 0.0328588 -0.00411357 -0.0680647 -0.0123764 -0.0122595 0.10883 -0.068577 0.0292871 0.101532 -0.0278653 -0.0337879 -0.00699605 -0.0903442 0.0300198 0.0405298 -0.0319421 0.0867237 0.0400823 -0.0431919 0.0102557 0.0346525 -0.0387961 -0.0443764 0.0598298 -0.00417788 -0.0482069 0.0564462 0.0374639 0.00741029 -0.146217 -0.011705 0.042302 0.0831161 0.0577396 -0.0349405 -0.0214415 0.0686224 -0.0379403 -0.0125346 -0.067843 0.0508714 0.0432992 0.0175134 0.0241055 0.0202065 -0.0144711 -0.0775859 0.0713923 0.0571083 0.0451733 0.00082397 0.0266199 0.0408411 0.0235131 -0.0276627 -0.0540605 0.0199586 -0.108644 -0.0287593 -0.00237307 -0.0544339 0.129183 0.106596 -0.0404317 -0.0194662 0.044906 -0.0990989 -0.0513904 -0.0273411 -0.0192839 -0.0209097 -0.0269432 -0.0527834 -0.0052732 -0.0820891 0.00726862 0.0376784 -0.00963159 0.065121 -0.00421292 0.0305664 -0.0245795 -0.0573969 0.0170644 0.0710169 0.027152 -0.00497021 -0.0933323 0.148752 0.0267217 0.0516075 -0.0753165 0.0186115 0.0152823 -0.0251697 0.0679097 -0.0242815 -0.0865963 0.0936426 -0.0478224 -0.115703 -0.0131997 -0.0181448 -0.0232379 0.09155 0.0269431 0.0141018 -0.0386392 -0.0281194 -0.0229832 0.0409922 -0.134703 0.043134 0.0509204 -0.0871424 -0.0431913 0.0311813 0.0222087 -0.102192 0.00329294 0.0397076 0.0390497 -0.0259624 0.04793 0.128686 -0.0546939 -0.0314791 -0.023535 -0.0929001 0.054551 0.0326393 0.0464246 -0.0554634 -0.0450966 0.019954 0.053439 -0.058334 -0.074877 -0.0965938 -0.00374074 -0.0271365 0.0423774 0.0038105 0.108663 0.0886834 -0.0504417 -0.133498 -0.00745573 0.0357808 -0.0207787 -0.0152442 0.0996904 0.0115522 -0.00541604 0.0529877 -0.121603 0.00640592 -0.0596636 -0.0340857 0.0853945 0.0160948 -0.0335064 -0.00594292 -0.0167861 0.0250858 -0.0131411 0.0384404 0.00763168 -0.053785 -0.0255705 0.0409328 0.0465472 -0.0674691 -0.0472278 0.0614071 -0.0393687 -0.0243143 -0.08813 0.00824276 -0.0254539 0.0637494 0.140456 -0.023119 -0.0911371 -0.0890378 -0.0300165 -0.0724589 0.105098 -0.0641922 -0.0792243 -0.105969 -0.0801908 0.0806689 0.0813628 0.00758434 -0.023728 0.0501603 0.00515344 -0.0103816 0.0825593 0.0968771 -0.0130002 0.02866 0.0754924 0.077636 -0.0112618 0.0743239 0.0181923 -0.134653 -0.0283225 -0.049246 -0.136025 -0.0554339 0.0679934 -0.0461703 -0.0416693 -0.0282375 -0.0403755 0.0648009 -0.0335989
rouges 0.0849233 -0.0194849 -0.055337 0.0904143 0.0368469 0.0212413 0.00954972 -0.0494404 0.139963 0.0682325 0.0720157 0.0487783 0.0598429 0.0437765 0.127913 -0.0324928 -0.0702538 -0.112035 0.029989 -0.0182901 -0.0125209 -0.0593145 -0.0789696 0.0386845 0.00646224 -0.0409267 0.0134332 -0.0725922 -0.0320417 0.042902 -0.0178827 -0.0585567 -0.0168586 0.040473 0.0296668 0.0298282 -0.0379218 0.0596307 -0.0204406 -0.101009 -0.0978563 -0.012626 -0.0366656 -0.000886708 -0.0640839 0.0266837 0.0222815 -0.0193211 -0.0337947 -0.00264238 0.0827908 -0.143198 -0.0393784 -0.0347718 -0.0167003 0.013158 -0.110698 -0.0041601 -0.0579008 -0.0652184 0.0359363 0.00896534 0.182099 0.0211844 0.00694337 -0.0574767 -0.0659599 0.138869 -0.0193753 0.046935 -0.0720557 0.0559738 0.0720573 -0.116275 0.0140364 -0.0292613 -0.0299598 -0.0659252 0.0767315 0.0282801 0.00547278 0.0141641 -0.139804 0.0155118 -0.0841454 0.0397153 -0.0211961 0.0558643 0.0763834 -0.163499 -0.0269069 -0.0587568 -0.131579 0.0260718 0.0351958 0.00211306 0.042334 0.0388002 -0.0014107 -0.0249774 -0.00740318 0.0100995 -0.0314306 -0.0447741 0.0304352 -0.0541732 -0.0313653 -0.025594 0.00979312 0.0200011 -0.0352519 -0.0705713 -0.005596 0.0420474 0.00465091 0.0479229 0.0342974 0.0193325 0.0344102 -0.0123863 0.00268901 -0.0306356 0.00167485 -0.00185334 0.0756545 -0.00960207 0.053311 0.0379731 -0.119774 0.0077853 0.0232254 0.0573825 -0.00576313 0.0938419 0.0152336 0.0256798 0.0433546 -0.0391225 -0.100641 0.050256 0.00303735 0.0482801 0.110376 0.00907974 0.0283347 0.097324 -0.00263079 0.0102607 -0.0741787 0.0872747 0.0564746 -0.0969232 -0.0300683 0.00167724 -0.0530799 0.0206401 0.0395486 0.0519952 0.0844593 -0.0417553 0.101196 0.0397116 -0.080763 0.057824 0.0882029 0.0449878 -0.082697 -0.0144302 0.154372 -0.0482723 0.0229539 -0.049361 -0.118841 -0.00371249 -0.00259675 -0.0157001 0.0136416 -0.0640367 -0.0281478 0.0437438 -0.0629297 -0.015088 -0.019149 0.0604123 -0.0789541 0.0018972 0.0336716 -0.0118575 0.0493189 -0.00724008 0.086413 -0.137562 0.0505924 0.0802441 0.0302016 0.00238844 -0.0667348 0.0775412 -0.130297 0.0061311 0.00183086 -0.0187802 0.00176515 0.105792 0.0946606 -0.105931 -0.0745064 0.0387571 -0.00750962 0.00741352 -0.00409548 0.0835793 -0.0856666 -0.0414525 0.055465 0.0426594 0.0242814 -0.0676755 -0.0470611 0.0373182 -0.0625439 0.0631995 0.0264702 0.0442164 -0.0427487 -0.0285131 -0.0327368 -0.0266053 0.0131555 0.00495069 -0.0243577 -0.0427375 -0.0159179 -0.0833881 -0.0135919 -0.0316716 0.0433172 0.00683062 -0.0402313 0.0211766 -0.0622017 0.00612002 -0.000868591 -0.0243506 -0.0311194 0.0177678 0.0501005 0.0736403 -0.0640358 -0.00394092 0.0767021 -0.00686995 0.0230111 -0.00140785 0.117072 0.0361279 -0.0149411 -0.0907381 -0.0108481 0.0295981 0.0397755 0.0905949 0.0162802 -0.0455218 0.0241898 -0.0651849 -0.00131189 0.090535 -0.075714 0.00236411 0.0159251 0.0507504 0.0267174 -0.0175533 0.0262524 -0.0515766 0.0687082 -0.004717 -0.126777 0.0589375 0.000531457 -0.0230916 -0.043958 0.0619618 0.134963 0.0392526 0.0479244 0.048479 -0.0610491 0.0132943 0.0389817 -0.0975063 -0.0646536 -0.0122919 -0.0118187 -0.0813276 -0.00910052 0.0778401 0.0678804 -0.00952284
orange -0.0201951 0.0284052 0.00211528 -0.0110491 -0.049516 -0.057227 -0.0552242 0.0205855 0.0458231 0.0456279 0.0584041 0.0146635 -0.00432434 -0.00889571 0.0600415 0.094658 -0.0553056 -0.0647194 -0.0819506 0.11493 -0.0304555 0.0141485 -0.108107 -0.00358331 -0.0957433 -0.0360478 -0.0335204 -0.132193 -0.0297983 0.0101839 -0.151872 0.0343527 0.0513326 0.0261667 0.00404181 -0.00591005 0.00558199 -0.0535589 0.0083203 -0.0866723 -0.0246359 -0.073072 0.0270746 -0.0513064 0.0178429 0.0646267 -0.00159125 -0.079359 0.00431625 0.0191078 0.000246326 0.0523558 -0.054814 0.0561429 -0.0539514 0.0415876 0.016807 0.0198694 0.129735 0.000540391 0.0570264 0.109253 0.0713891 -0.10738 -0.0380564 -0.00329306 -0.0084607 0.00721129 -0.0557779 -0.036332 -0.0595182 -0.0575437 -0.0171433 -0.00552015 0.0541639 -0.00730886 0.0564152 0.00473666 -0.00059118 -0.025682 -0.0382041 -0.00797685 -0.0692751 -0.0105454 0.0341915 0.0399042 0.100221 0.0912893 0.0792019 -0.0726155 -0.0104324 0.0269967 -0.0538781 0.0105207 0.0336466 -0.00387121 0.0383728 -0.00294806 0.044515 0.0355859 -0.0448077 0.0372233 0.0256073 0.0132444 -0.0236914 0.0217684 0.0486152 -0.0144247 -0.00728718 -0.0221985 -0.0871248 0.0133499 0.0104729 -0.024079 0.04196 0.011392 -1.04507e-05 -0.054712 -0.0235253 0.0816189 0.119742 0.0221801 0.0260225 0.0889732 -0.0165065 -0.0206025 -0.00609433 -0.0271655 0.0308955 0.000262072 -0.0604147 0.0712676 -0.00645934 0.0259683 -0.0716687 -0.0543272 -0.0391211 -0.0850654 0.039305 0.00617733 -0.0331339 0.0410014 0.002825 -0.0349604 0.0141609 0.0791263 -0.105623 0.0406034 -0.0529075 0.0816546 -0.0373608 -0.104673 -0.0974686 -0.113865 -0.0115555 -0.023917 -0.0229547 0.0221719 0.145307 0.132505 0.04188 0.0098631 -0.103796 0.00321423 0.0611751 0.122898 -0.0618427 -0.0119726 0.0961409 -0.0765286 -0.0062498 -0.0749788 -0.153744 -0.0401898 -0.0238382 0.0533117 0.04826 -0.0295497 0.0100332 0.0444862 -0.114855 0.021615 0.0446463 -0.071671 0.0364642 0.054855 0.0681572 0.0270585 0.0536136 -0.0213391 0.00890281 -0.0616016 0.0849301 -0.0518147 -0.0127781 -0.00728649 0.0400166 0.0123014 -0.031167 0.0158567 0.124904 -0.00614416 -0.107867 -0.00742981 0.174954 -0.0101625 -0.0480376 -0.0194875 0.0386568 0.00393865 -0.0181775 0.0129941 -0.0949781 -0.0355642 -0.0869887 0.00831172 -0.0336749 0.0534356 -0.0494504 -0.000534611 0.0046181 -0.0688577 -0.0779247 0.0254445 0.0302381 0.00822335 -0.0729564 -0.0825727 0.0283872 -0.0781768 0.00208761 0.0451849 -0.0336858 -0.00739977 0.0673818 -0.0645541 0.0247673 0.0608753 -0.111826 0.0831675 0.00821243 -0.00363258 0.00986399 0.0297908 -0.00187481 -0.023937 0.0504721 0.0296887 0.0481071 0.0118493 0.0543256 0.00176807 0.00812182 -0.0926719 -0.0442465 -0.04368 -0.00461625 0.00934061 0.0186407 0.0691539 0.0675424 0.0166994 0.0531546 -0.0586051 -0.0999417 -0.11388 -0.0415715 0.158925 -0.0279904 -0.00995808 -0.109251 -0.0875803 0.0784022 -0.0136141 -0.0275175 -0.0359106 0.102431 0.00921416 -0.0504929 0.0971726 0.085065 -0.00654308 0.0288949 -0.00654504 0.0564352 0.0162542 0.0217321 0.0075993 -0.12346 -0.122887 0.0237053 -0.131489 0.00459079 0.0308485 0.00232562 0.0114146 -0.10193 -0.0286404 0.0472609 -0.0843401
blancs -0.0045074 -0.00116374 -0.0443148 0.0145928 0.10029 0.0521732 0.00142293 -0.0400429 0.0952076 0.0460922 0.026406 0.0364114 -0.00861239 0.0488356 0.0218453 -0.104631 -0.0909301 -0.154724 0.0228 -0.0165723 -0.0304433 -0.0295288 -0.0845345 0.0633566 -0.0410485 -0.0203703 0.0801849 -0.0812005 -0.0481453 0.0888673 -0.0066459 -0.0854158 -0.115982 0.0169749 0.0372466 0.0515691 0.0410394 0.0265178 0.0510816 -0.0474442 0.0689875 -0.0390269 -0.0773301 -0.0422053 -0.065818 0.0147256 0.0371013 -0.0334339 -0.0251236 -0.0482938 0.0152244 -0.123744 0.0316154 -0.0507372 -0.0917374 0.00972101 -0.0691773 0.0535451 -0.00564187 0.000784773 0.0100999 0.0721789 0.117295 -0.110353 -0.00880721 0.00317921 -0.0398755 0.0610046 0.00426343 0.105957 -0.0772104 -0.0281412 0.00823811 -0.0929198 0.0323792 -0.0851 -0.0123402 -0.0604904 0.0127149 -0.0189366 -0.0100406 -0.0310271 -0.0322613 0.0230242 -0.0587798 -0.0925056 0.0295799 0.117648 0.0658791 -0.020904 -0.0888047 -0.0687461 -0.0475324 -0.0896847 0.0201107 0.0537603 0.0370568 -0.00780426 -0.0319263 0.028007 -0.0524017 0.0550832 0.0499639 -0.0793804 -0.0207301 0.0351605 -0.0011661 -0.0229568 0.0070982 0.00580152 -0.0282692 0.0300958 -0.0680237 -0.0304647 -0.00904892 0.0607293 0.0369941 -0.019193 0.0256565 0.000841272 0.0341418 -0.0120666 0.0373774 -0.0234096 0.0399535 0.0407314 0.0465793 0.00853268 -0.039903 0.0550132 -0.0195218 0.0728797 -0.0185833 0.0359044 -0.0379486 -0.081941 0.0588272 -0.0042002 -0.110143 -0.00206603 0.0638673 0.0339086 0.0513689 0.0184609 0.0988834 0.0146509 -0.0254854 -0.0183821 -0.0460173 0.0146929 0.0578658 -0.0723814 -0.062291 0.0432363 -0.0262577 0.0216793 0.0752739 -0.0159117 0.124867 0.026839 0.0731425 0.0293382 -0.0203896 0.133943 0.0857403 -0.0049191 -0.0941172 -0.0449835 0.179746 0.0489601 0.0242095 -0.00796123 -0.184074 -0.0241329 -0.0570887 -0.0114645 -0.0993647 -0.0698589 -0.0568983 -0.0131769 0.0280704 -0.022896 0.029752 0.0605307 -0.115929 0.0324851 0.0189577 -0.0188029 0.0495392 -0.016945 0.0535472 -0.115478 -0.023264 0.0293771 0.0304067 0.00746619 -0.0590921 0.0169545 -0.0795441 0.0737148 0.073941 0.0519135 -0.0601836 0.0134556 0.1059 -0.130246 -0.0955116 0.02884 -0.00720942 -0.00895215 -0.0203334 0.0638148 -0.003259 -0.0447802 0.0442813 -0.0576221 -0.0251027 -0.0959227 -0.0640371 0.0463999 -0.129606 -0.0599654 -0.0317898 0.0749499 0.0361287 0.0505367 0.000109989 -0.0148113 -0.00526362 -0.0476474 0.00498458 -0.0585137 -0.00497884 -0.095993 -0.000542456 -0.015431 0.0183469 -0.00786975 -0.0917752 0.010902 -0.0708157 -0.0564619 0.00460349 0.0450734 -0.0335019 -0.0318123 0.0219366 -0.00957185 -0.00984059 0.107434 -0.0316527 -0.0589852 0.0384889 0.00539141 0.0275094 0.0992712 0.0749114 -0.12808 -0.0337837 -0.0153262 -0.0100034 0.00728746 0.0275351 0.0241489 -0.0259316 -0.098799 0.0517203 0.0852498 0.0164167 0.000149051 -0.0527554 -0.00719999 0.0473028 -0.0061393 -0.0102798 -0.011 0.0389473 -0.0295716 -0.150918 0.00331629 0.0218223 -0.0838491 0.0429996 0.102695 0.109552 0.0670678 0.023968 0.0467914 -0.0870668 0.000944773 0.0337551 -0.0648822 -0.0598596 0.00573467 -0.102393 0.0377747 -0.0564542 0.0761138 -0.00435954 -0.0186488
verte 0.0144757 0.0169629 0.0661618 -0.0170081 -0.00805198 0.010358 0.0401303 -0.0274889 0.11781 0.0256331 -0.0449107 0.000598608 0.0310116 -0.0482834 0.103424 -0.0905751 -0.0896614 0.0677052 0.0489369 0.070506 -0.0890455 -0.0509124 0.0659918 -0.0219054 -0.00627777 -0.11314 -0.0185818 0.0817914 0.00583667 0.0345699 -0.0906471 0.0535052 -0.0162327 0.076764 0.0763514 -0.0282025 -0.0382209 -0.0182287 0.0145736 -0.0594361 -0.0324869 -0.0368931 -0.0120917 0.0164168 0.0476501 -0.0425632 0.0951871 -0.105027 -0.0347977 0.0894053 0.100176 0.0123374 -0.010717 0.0116601 0.126133 -0.0059642 -0.129581 0.0488848 0.050024 0.0606046 -0.0338084 0.0971092 0.12178 -0.0683112 0.0071267 -0.0678548 0.00215428 0.0260832 -0.0874115 -0.0305626 -0.0894823 0.0585334 0.0630772 -0.104319 -0.0264884 -0.0388146 0.0396139 -0.056955 -0.0281037 0.0719979 -0.0712819 -0.0279115 -0.121706 0.0397152 -0.0467146 -2.21523e-06 0.0568118 -0.0292725 -0.0290478 -0.0295132 0.0624896 0.0327893 -0.0102693 0.013764 0.0258095 0.0422342 0.079436 0.0481996 0.00303305 0.00193387 -0.026553 0.00597253 0.0705554 -0.0137102 -0.0278227 0.0212275 -0.0295274 0.0552082 -0.00978744 -0.0290467 -0.0633999 -0.0341348 0.0284688 0.0390416 -0.108626 0.0398928 0.0154793 -0.0495293 0.0339247 -0.0147885 0.0813051 -0.0167583 -0.0582504 0.0298393 0.0476394 -0.0164548 -0.0864111 0.0858572 0.0619129 -0.0132888 -0.0061118 0.0683121 0.0390947 0.025198 0.00182085 0.109755 0.0662195 -0.0717967 -0.100268 0.0561354 -0.0571378 0.0495173 0.0787642 0.0223299 -0.0266796 0.0146394 -0.0745704 -0.0586486 -0.0952633 0.111541 -0.0166951 -0.0669767 -0.0740777 -0.0156199 -0.0208118 0.065985 -0.0190984 0.0537876 0.013254 0.0290241 0.0726948 0.0188542 -0.0701301 -0.018001 0.0500511 -0.0250672 0.000908187 0.010252 0.126048 0.025623 0.101642 -0.0952735 -0.0917946 -0.0336247 0.0353594 0.0630468 0.105502 0.0271922 0.0189965 -0.0485947 -0.103686 0.0117456 0.0684956 -0.0215059 0.102694 0.0413466 -0.0448205 0.0092501 0.0779017 -0.0419629 -0.0340015 -0.161454 0.131584 0.0237278 -0.0136802 0.0128847 0.0624058 0.140839 -0.0316191 -0.0300111 -0.0850276 0.0875228 -0.0344737 0.0533191 0.117372 -0.0825291 0.0211235 0.00208762 0.0375656 -0.0253768 0.0284046 -0.0281077 -0.0124608 0.0326565 -0.00811366 -0.0924125 -0.0486359 -0.0296452 0.031302 -0.0259179 0.015785 0.0174043 -0.0043856 0.0734606 -0.0205253 -0.072407 -0.105499 0.103906 0.0381951 -0.0669391 0.0174623 -0.0420393 0.0293489 -0.0085713 0.0658775 -0.0137093 -0.0197615 -0.0130191 -0.08401 0.00590236 0.00541147 0.0165826 -0.055014 -0.0164616 0.00664479 0.0626165 0.0389746 0.0380126 0.026584 -0.0189878 0.0107683 0.0285571 -0.000376946 -0.0442223 0.0609218 0.0117819 -0.0216773 0.0106091 0.0220366 0.0221916 0.06447 0.0117471 -0.042604 -0.0413101 -0.0919538 -0.0289167 -0.07985 0.126797 0.0198746 -0.113774 -0.0783921 -0.0733559 0.0413563 0.0788578 0.0165549 -0.113418 0.035996 0.0668582 -0.0371748 0.0574065 0.0469574 -0.00331654 0.00113043 0.0727572 -0.0232185 0.0773811 0.00782027 -0.0102481 -0.0651719 -0.024419 -0.0574247 -0.105882 -0.0649035 0.0329447 -0.0534094 -0.0580892 -0.0130836 0.0723117 0.0693777 0.0486177
bleue -0.0205115 0.0795747 0.035792 0.00725366 0.0196762 -0.0147914 0.057938 0.0854958 0.0445771 -0.00596166 0.0123596 0.0594058 -0.000587086 -0.0931885 0.114659 -0.0243427 -0.0154157 0.0431208 0.0388824 0.0409868 -0.0832948 -0.0677878 -0.0574677 -0.0454985 -0.0326586 -0.132018 0.0337102 0.0228077 -0.0774079 0.125772 -0.116796 0.0699285 -0.0202969 0.0539927 0.0132886 -0.0720494 -0.0917557 -0.0332328 0.0853416 -0.000403875 0.0074385 -0.0451681 -0.037968 0.0261633 0.0274468 -0.0854082 0.0758728 -0.0505613 0.0398383 0.148818 0.0729709 -0.0251991 -0.00444603 0.0293831 0.125711 0.0278997 -0.147657 0.0111069 0.0762063 0.0255698 -0.0471194 0.118603 0.073962 -0.059101 -0.0480536 -0.0308777 0.00125389 0.0504116 -0.0149977 0.031701 -0.0900251 0.0512227 -0.0361593 -0.0813422 0.00370159 -0.0215078 0.0618177 0.038599 0.0275247 -0.00349403 -0.0228634 -0.0765878 -0.141136 0.0504836 -0.0427935 -0.0379204 -0.0442464 -0.00953651 -0.00444424 -0.0401074 0.0406613 0.04864 -0.0273883 0.0112382 0.054794 -0.0604981 0.0768764 0.0702891 -0.0384978 0.00675442 -0.0617871 0.0394209 0.0194031 0.018037 -0.0290151 -0.0447876 0.0126036 0.0365006 -0.00292436 -0.012396 -0.0698557 -0.00758809 0.0252767 0.0139367 -0.0294604 -0.0556067 -0.00601071 0.00268279 0.00727616 0.00910934 0.0685879 0.0176552 0.0484352 -0.019779 0.019842 0.0642051 -0.105017 0.0694417 -0.000510276 0.0797588 0.0561494 0.0276316 0.0238349 0.0499013 0.0446811 -0.0103534 0.0828846 -0.0341238 -0.0664574 0.11084 -0.020811 0.0901789 0.0454612 0.0277981 0.033241 0.0733865 -0.0666075 -0.0524048 -0.133109 0.0409831 0.011834 -0.0980145 -0.0468279 -0.0321911 0.00757701 0.0684931 -0.0671886 0.0434251 0.0216288 0.00944747 0.0704297 -0.0513217 -0.064777 -0.0607375 0.0637026 0.0460819 -0.0123112 0.0405438 0.105666 0.0504954 0.0734797 -0.0871059 -0.0537373 -0.0415286 0.00721226 0.104118 0.0622819 -0.0212849 0.0207468 -0.0343442 -0.147419 0.0890626 0.071453 -0.00984924 0.00549004 0.00752153 -0.0374859 -0.0158623 -0.00322542 0.0246176 0.0249406 -0.150611 0.0994222 0.0364332 -0.0464563 -0.057907 0.00573742 0.0958605 -0.0754865 -0.0438979 0.0236733 0.0308354 0.0100038 0.0455101 0.129577 -0.153978 -0.0289662 -0.0681223 -0.0155259 -0.0435388 -0.00526348 0.047709 -0.0178517 -0.0129338 0.0637031 -0.126814 -0.0743311 -0.00466915 -0.0239361 0.0368113 0.0342793 0.0135829 -0.0297111 0.0680297 -0.0176417 -0.0871481 -0.132873 0.0647339 -0.0288242 -0.0336343 0.0237166 0.041094 0.0338818 -0.0246949 0.014696 0.0217422 -0.0150768 0.0280916 -0.0631457 0.0276404 -0.053933 0.00548816 -0.0213516 -0.0437843 0.0200138 0.0135254 0.0342537 -0.0135175 0.00514265 -0.0289794 0.00325653 0.0230945 0.0143314 0.00889866 0.0342133 0.0250282 -0.0192079 -0.038458 -0.0107284 -0.0167331 0.104501 0.063654 0.00995428 -0.0470647 -0.0362826 -0.0176154 -0.0760732 0.0442425 -0.0829714 -0.136627 -0.0512933 -0.0602413 0.0209658 0.0433548 -0.00630018 -0.0470716 0.138542 0.106364 -0.0417892 0.10779 0.0324422 0.00501903 0.0142866 0.0442315 0.0598637 0.0599949 -0.0123639 0.037187 -0.124444 -0.0617947 0.00775468 -0.0456773 -0.0682118 0.0693242 -0.00435875 -0.0882449 -0.00791273 0.0513055 0.046569 0.0249395
roux -0.10027 -0.020724 -0.0698195 -0.0484796 0.00799447 -0.0837294 0.0546342 -0.00764261 0.0848796 0.140833 0.105898 0.00446918 -0.0699582 -0.106928 0.0944983 -0.0144071 -0.0429705 -0.0319617 -0.0593697 0.0831132 0.00831329 0.0230525 -0.0461141 -0.0416372 -0.0651762 -0.00394977 0.0410473 -0.0435249 -0.0245646 0.0456051 0.00633246 0.0141962 -0.0334301 0.0381254 0.0321501 -0.0315921 0.0194776 -0.0475873 0.01395 -0.00101194 -0.0571121 -0.0211936 0.0466368 0.0522213 -0.0551147 -0.0320592 0.0240204 -0.0641801 0.064595 -0.000876784 0.00854981 -0.0365673 -0.0465956 0.0319683 0.0520853 -0.0243447 0.0242597 -0.0682598 -0.0045449 0.0449534 -0.00312042 -0.0664942 -0.0310239 0.0609652 -0.0252635 0.0423424 -0.0631538 0.0157706 -0.0820341 0.0521242 -0.010862 -0.123827 0.00562299 -0.0400676 0.0536087 -0.0365564 0.0119674 0.0466239 0.0743609 -0.0827494 -0.0459618 -0.0129472 -0.138617 0.0605575 -0.00884235 -0.00294978 -0.00728808 0.0864217 0.0886822 0.00673203 -0.0630157 -0.0783862 -0.0200851 0.0401168 0.0721973 0.00657264 0.0848849 0.022722 -0.0197443 0.027193 -0.0884096 0.00229153 -0.01453 0.0363843 -0.0344431 0.0194808 -0.0143981 -0.0331102 0.0377087 -0.0675979 -0.00674441 0.0732535 -0.0481151 -0.102453 -0.00181566 0.0932535 -0.116946 -0.179448 0.032441 -0.0116127 0.0346577 -0.00899664 0.0851465 0.0153203 -0.0034593 0.0140176 -0.0108965 -0.0538288 -0.00926386 0.0798402 -0.093763 0.0518506 -0.0452883 -0.0253623 0.0639062 -0.0156834 0.00266196 0.00304715 -0.0922131 -0.0167466 -0.0604356 0.110023 0.0446201 0.0232057 0.0161673 0.0602276 -0.0905743 -0.062138 -0.0023826 -0.0408258 0.0932208 -0.149153 -0.0947395 -0.0407266 -0.0855586 0.0867091 -0.0259612 -0.0632709 0.0791001 -0.0102183 0.0547974 0.0299301 0.00357415 -0.00330007 0.139368 -0.00503941 -0.0292791 0.0203443 0.177955 -0.0552735 -0.0418794 -0.0175848 -0.0798384 0.0439829 0.058547 0.00309474 -0.106722 -0.0320689 -0.0239918 -0.142715 -0.104806 -0.0380766 0.105173 -0.0122706 -0.0543089 -0.0172032 0.0209867 0.0106043 0.0313141 -0.094358 -0.0360889 -0.0393292 -0.0155642 0.0655795 -0.0291862 0.0611027 0.0432667 0.033398 -0.114244 -0.0508104 0.09791 0.110565 0.0120266 0.0579889 0.0447263 -0.0914586 -0.0458976 0.00230601 0.0474155 0.00825332 -0.0287592 -0.0906988 0.0934685 0.0064868 -0.0269583 0.082533 -0.0291057 0.00940076 0.00134161 -0.0254773 -0.0326761 0.0263222 -0.0581226 -0.0501318 0.0371068 -0.0482402 -0.0176645 0.0254984 -0.00139229 0.00452584 0.00866477 -0.0110159 -0.0142126 0.0415964 -0.0422554 0.0823711 0.0325169 0.0341829 0.0215579 0.0308439 -0.043497 -0.0114553 0.0625228 0.0221756 0.0522314 -0.0219527 0.00570531 0.035503 -0.0325892 0.0302914 0.0306894 -0.11631 0.0146668 0.0477403 0.0192435 0.0873903 0.00412825 -0.0329335 0.0541478 -0.0654037 0.0717044 0.163267 0.0762178 0.0741449 0.0416251 -0.018387 0.0182661 0.0985558 0.0455154 -0.135336 -0.0601818 0.057653 0.0553729 -0.0276518 -0.0361716 -0.0316793 0.0213569 -0.017194 -0.0261732 0.0768026 -0.0174044 0.0571526 0.0724824 0.0876965 0.0220849 0.0413186 0.0932697 0.0452197 -0.0621797 0.0035374 0.0357556 -0.112957 -0.0220302 0.0353819 0.000628686 -0.0409461 -0.0182637 0.0546254 -0.0345607 -0.0230539
blanches 0.00102181 0.0425248 -0.0126031 0.0613115 0.0641814 0.0551975 0.0386958 -0.0359997 0.0895481 0.0692654 0.0426709 0.0278885 -0.00747451 0.0337936 0.0780695 -0.0800566 -0.0852712 -0.0771437 0.0200968 -0.0231791 -0.0806191 -0.0322007 -0.00360891 -0.0134819 -0.0686322 0.00464295 0.00461608 -0.0947677 0.0180801 0.178228 -0.027611 -0.0378206 0.0183511 -0.0971696 -0.0424515 0.0304064 -0.0393584 0.02212 0.0320414 -0.0906451 0.0544763 -0.0611877 0.00103966 0.0308471 -0.0127938 0.0105319 -0.0212421 -0.0332469 0.000718485 0.0404568 0.00117276 -0.090861 -0.0167378 -0.0452223 -0.0504884 0.0399659 -0.107198 -0.0472547 0.0269106 0.0567988 0.0208978 0.0539083 0.0551428 -0.0219343 -0.0181238 0.00163142 -0.0590243 0.0869164 -0.0140036 0.0447756 -0.0384536 -0.0236648 -0.0335465 -0.0380219 -0.0401548 -0.00734047 -0.00360793 -0.021131 -0.00223392 0.0126666 -0.00280562 0.0153489 -0.134958 -0.0183596 -0.0591407 0.0433196 -0.0214614 0.0462293 0.0869798 -0.0535891 -0.089838 0.0248928 -0.0263425 -0.0889951 0.0336768 0.00990904 0.116154 0.0332283 -0.000643423 0.025985 -0.0523303 0.0163511 -0.00524492 -0.00161842 0.00124949 -0.039882 -0.0209436 -0.00377611 0.022187 -0.0274415 -0.0621985 -0.0372368 -0.00824679 -0.0917924 -0.0280833 0.0683307 0.0206547 -0.0466784 0.0231074 0.0896821 0.0908547 0.0431664 0.00604514 -0.0130667 0.0404477 0.0602468 -0.106087 0.146699 -0.0221379 0.0621631 0.0486431 0.0402543 0.0359564 0.0510044 0.030843 -0.0582447 0.0329202 -0.00619299 -0.0785888 0.000428462 -0.0277912 0.0095374 0.140899 0.00143862 0.0218068 0.10442 -0.0256103 -0.058565 -0.104819 0.0242503 0.0610236 -0.170109 -0.112609 -0.0170892 -0.061821 0.0731598 0.00609115 -0.00906103 0.158718 0.0226079 0.0373498 0.0550539 -0.11161 0.00840595 -0.0324962 0.0503823 -0.113656 -0.064153 0.174217 -0.0334728 0.0438227 -0.0991005 -0.092908 -0.0172505 -0.00426182 0.0625433 0.00881453 -0.0450343 0.0566642 0.00856241 -0.0540985 -0.0271926 -0.000802787 -0.0321703 0.0813745 -0.0258858 -0.0240936 -0.0386281 0.0549155 0.0169421 0.031417 -0.102205 0.00770204 0.0116536 0.0796576 0.0657498 -0.00538167 0.0785047 -0.0821717 0.0285061 0.0248738 0.0373976 -0.0168071 0.0953047 0.143746 -0.109306 -0.0865907 0.00278614 0.0684811 0.00679088 -0.0182627 0.00300572 -0.038903 -0.0948583 0.0634192 -0.0484207 -0.077172 -0.0869556 -0.0096279 -0.00994207 -0.057244 -0.0194245 -0.0332474 0.0514208 0.015061 -0.0340697 -0.0786136 -0.0410466 0.0683998 0.0326308 -0.0410932 0.0348739 -0.0614302 -0.0690214 0.0306908 -0.0653483 0.0056864 -0.0189285 -0.040297 -0.0187918 -0.0255191 0.00647961 0.0108037 -0.0103445 -0.0326889 0.0180387 -0.00686709 -0.0360366 -0.06495 0.119587 0.0905811 0.0040945 -0.00400684 -0.0435 0.072549 0.0128656 -0.0288121 -0.04594 -0.0326098 0.0161167 0.0138921 0.00354659 0.0215023 0.0374596 0.0324072 -0.0853798 -0.0757425 0.128233 -0.085983 0.0567651 -0.0403515 0.0421801 -0.00826298 -0.020395 -0.0183197 0.0462664 0.0737437 0.00301969 -0.104173 0.0488496 0.00541399 -0.058521 -0.00262407 0.0724846 0.113248 0.0372024 0.0495806 0.0730164 -0.119603 -0.0193669 0.0652904 -0.127293 -0.0556716 0.017917 0.0465927 0.0408678 0.0223013 0.128184 0.0267826 0.0137009
bleus 0.0494689 0.00427581 -0.0171392 0.0407871 0.0357779 0.0307586 0.0235619 0.0478261 0.0744423 0.0737201 0.100073 -0.0333929 0.023123 -0.00453368 0.0754714 -0.00390755 -0.0920719 -0.107999 0.0521999 0.00178838 -0.064199 -0.0481643 -0.142363 0.00807927 -0.03982 -0.0215812 0.0271204 0.0335008 -0.0482928 0.0493205 -0.0549482 -0.0125755 0.0332468 -0.028402 0.0379788 -0.00249292 -0.0432753 0.0384753 0.0796639 -0.0040092 -0.0831585 -0.0109051 -0.0554601 -0.00805646 -0.0159026 0.00823646 0.0712512 0.00299489 -0.0250261 0.0320006 -0.00826916 -0.0978758 -0.0700225 0.050741 0.0344533 0.0415553 -0.0359137 -0.0197801 0.0029799 0.0199785 -0.0193324 0.106663 0.0982328 -0.00113268 0.001265 -0.0109255 -0.0531516 0.0321086 -0.0719345 0.0364718 -0.0698422 0.0751318 -0.00747085 -0.140556 0.0472411 0.0192927 0.0564052 -0.0174746 0.0159054 -0.0214722 -0.0885127 0.0657994 -0.075968 0.0469255 -0.023244 -0.0242904 0.0160233 0.116852 -0.0501421 -0.0905132 -0.0409923 -0.0616263 -0.0661852 -0.0153489 0.0834 0.0551816 0.0841132 0.0162677 -0.0335559 0.0234514 0.0160065 0.0240245 -0.0306532 -0.0741202 -0.0216307 -0.0431965 -0.0467096 0.0243463 -0.0214036 -0.0109362 -0.0164913 -0.0781402 -0.0110139 0.000345935 -0.040231 -0.00341069 -0.0196489 -0.0442592 -0.000743093 -0.0199813 0.0326648 -0.0581783 0.0797295 0.0147956 0.0993894 -0.0292898 0.0680529 -0.0256533 -0.0176016 0.046347 -0.0295878 0.0247897 0.00879461 -0.00599125 -0.0109972 -0.0530898 0.0683445 0.0577942 -0.0441852 0.0628082 0.012228 0.0405584 0.153993 -0.0317826 0.0234592 -0.0199559 -0.00140151 -0.110142 -0.080552 0.0452517 0.0236472 -0.0694643 -0.0559518 -0.019459 -0.032654 0.0812297 0.0970742 0.0773744 0.0567796 0.0408364 0.113161 -0.00645432 -0.0186189 -0.0298666 0.134616 0.0101962 0.0103993 0.0810768 0.181061 -0.00482219 0.0260151 -0.0124541 -0.0527607 -0.0467824 0.0186905 0.0680023 0.0231477 -0.040093 -0.0812612 0.0219172 -0.0314978 -0.0642594 0.0326282 0.0493073 -0.121587 -0.00543286 0.0150222 0.00395845 -0.0114407 0.00227867 -0.00773514 -0.0968865 -0.0104011 0.123874 -0.00966493 -0.00526633 -0.0392642 0.0079468 -0.0912278 -0.0167674 0.0592231 0.0889218 -0.0679405 0.0306374 0.208178 -0.155087 -0.0571237 0.00504148 -0.00680236 0.0102989 0.0500212 0.0623055 -0.0191124 -0.0276732 0.0224249 -0.0131979 0.0202945 -0.0245282 -0.012723 0.0181557 -0.0447975 0.0825175 0.0173548 0.0254211 0.0218974 -0.0207887 -0.0359632 -0.0260911 -0.0814911 -0.0277565 -0.0399808 -0.0929828 0.0137902 -0.10973 -0.0625215 0.0203742 -0.0160414 0.0405132 -0.00917282 -0.00415803 -0.0623296 -0.0380413 0.0100297 0.0138302 -0.0889207 0.0630317 0.0932982 0.100049 -0.0253901 0.0300223 0.103853 -0.00479709 -0.0309128 0.0243183 0.0914305 0.0990368 -0.054883 -0.114449 0.0274833 -0.012698 0.0752201 0.0445131 -0.0270378 -0.0660466 0.0180004 -0.0476854 0.00179089 0.0864794 0.000176666 -0.0182343 -0.0486675 0.0432986 0.101837 -0.0133065 -0.0799095 -0.0632432 0.0109205 -0.0160504 -0.139933 0.0717139 -0.00281178 -0.00706117 0.0555288 0.124467 0.113773 0.00557 0.108 0.0846581 -0.0849321 -0.0632991 0.0444793 -0.0207746 0.00928118 0.0165723 -0.0107276 -0.0517779 -0.0504014 0.0357543 0.0893683 0.111505
jaunes -0.0402131 -0.0264502 -0.017324 0.0385808 0.077841 -0.0416993 0.0674879 -0.0331524 0.100349 0.0664001 0.00958155 0.0313665 -0.0168755 0.0892343 0.077665 -0.0796195 -0.059813 -0.0351141 0.000857827 -0.0122842 -0.0408532 -0.100082 -0.0908702 0.050162 -0.0523072 -0.0734685 -0.0267185 -0.0746704 -0.0881714 0.011298 -0.116978 -0.0554499 0.0259315 0.00156087 0.00950308 0.0582378 -0.01224 0.0220288 0.0158264 -0.101789 -0.058162 -0.0943006 -0.0628142 0.0302478 -0.0158268 0.0281194 0.0264783 -0.0583856 0.0174583 0.00781573 -0.0205732 -0.100564 -0.0101678 0.0223582 -0.0464668 0.0663547 -0.0611505 -0.0184442 0.0572103 -0.0244828 0.0399699 0.00904029 0.102264 -0.0219233 0.00540122 -0.00459428 -0.0629622 0.0288591 -0.0646025 0.00645449 -0.0435753 0.031938 0.0377888 -0.110101 0.00937264 -0.0173424 0.0295718 -0.0391221 0.0172176 0.0146748 -0.0580372 -0.00395005 -0.156632 0.0305655 -0.08686 0.0689829 -0.0563934 0.0868231 0.0794418 -0.0758216 -0.0574253 -0.0661465 -0.0908608 -0.0398967 0.0331806 -0.0498103 0.0386598 0.0327358 0.0287048 -0.00816553 0.0547271 0.00793907 -0.000236498 -0.0720686 0.0253378 -0.0415587 -0.0541352 -0.0547845 0.00287145 -0.0818296 -0.0500126 -0.0361596 0.0436112 0.0425439 -0.0113174 0.00993677 0.00281216 -0.0146818 0.0268292 0.0121896 0.0857111 0.00727389 -0.00324986 0.0140006 0.0983499 0.0193211 -0.0528148 0.0155106 -0.0278395 0.0517173 -0.00873426 0.00081894 -0.0224417 0.0232659 -0.0204477 -0.050722 -0.0153529 -0.0396762 -0.0683469 0.0442339 -0.0501106 0.0567729 0.147409 -0.0392469 -0.0116107 0.0320348 -0.0632766 -0.0479365 -0.0469901 0.0461617 0.016091 -0.0578553 -0.0576655 0.00323215 -0.0475666 0.0849566 0.0429825 0.0164775 0.0927282 0.0144562 0.104986 -0.00847228 -0.108212 0.0806683 0.026669 0.101378 -0.0327769 -0.128486 0.176657 -0.0379632 0.0482367 -0.0450243 -0.046598 0.0249361 0.039845 0.0633176 -0.0155019 -0.0903862 0.0476813 0.0490917 -0.119728 -0.0145694 0.0265747 0.0069874 -0.0235864 -0.017217 0.0800614 0.00335424 0.0179486 -0.0458304 0.0754077 -0.140731 -0.0114749 0.0829311 -0.00760159 -0.010393 -0.0228564 0.068682 -0.0755383 -0.00910504 0.0322016 0.0554604 0.0134553 0.0680637 0.152815 -0.134623 -0.0567022 0.0555362 0.0108529 0.0583425 0.00436993 0.0441154 -0.0652071 -0.0603891 0.0226276 0.0201249 0.0175137 -0.0636804 -0.0575489 -0.0197625 -0.00785394 0.0875373 -0.0271642 0.0946932 0.0343829 -0.017143 -0.0169742 -0.0249572 0.0414006 -0.00277556 -0.0709169 -0.0432875 -0.0215633 -0.0316414 -0.0437123 -0.0466926 0.0339003 -0.0671872 0.0362674 -0.0157063 -0.0365462 -0.0207422 0.0401231 0.0200581 -0.0213833 0.0231378 0.0184562 -0.0113927 -0.101811 0.018446 0.100554 -0.037881 -0.0304942 -0.0949864 0.0889616 0.0182213 -0.0484016 -0.0810403 -0.0115402 -0.0667091 0.0419062 0.113407 -0.0262689 -0.0363591 0.00745871 -0.0751288 -0.0430104 0.119542 -0.0697299 -0.0563493 -0.0410095 0.0891452 0.0391011 -0.00874654 -0.0673586 -0.073227 0.0899768 -0.00981294 -0.136648 0.0677739 0.0462091 -0.00484154 -0.0347038 0.105987 0.0619207 0.00778002 0.0569391 0.0835965 -0.119086 -0.0161176 0.0255019 -0.152608 -0.0334755 0.0332192 0.0172203 -0.0641084 -0.0625621 0.0484621 0.0634179 -0.0389585
vertes 0.0474257 0.000742996 0.0328065 0.0812361 -0.000934561 0.0800419 0.0413238 -0.0448968 0.0923144 0.0457427 -0.0505716 0.102817 0.0303265 -0.0060532 0.0274949 -0.124177 -0.114245 -0.0195928 -0.0290352 -0.0055246 -0.0372415 -0.0797957 0.083504 0.0425181 -0.0500967 -0.0348705 -0.049508 -0.0162928 -0.0145553 0.0350674 -0.0374632 -0.0558943 0.072863 0.034338 -0.0114659 -0.000213573 -0.0234844 0.0940215 -0.0593568 -0.148342 0.0313504 -0.0608925 -0.0382442 -0.0249338 0.00358619 0.0540683 0.0536111 -0.0576498 -0.026248 0.102029 0.0810072 -0.0435545 -0.057422 -0.0352784 0.0331614 0.00319431 -0.101325 -0.00717241 0.0271419 0.0799941 0.0039093 0.063709 0.105645 -0.0379289 -0.0943481 -0.0560637 0.00599138 0.0271915 -0.0679192 0.00690902 -0.0904981 0.0371857 0.0623523 -0.0696183 -0.0374958 -0.0343087 0.0142979 -0.0827234 -0.0224588 0.0587963 -0.0481054 0.0444568 -0.122195 0.00985009 -0.098622 0.0211805 -0.0051584 0.0317662 0.0622374 -0.0471659 0.00795526 0.00905945 -0.0277843 0.0114678 0.0072854 0.0375135 0.0953573 0.0489343 0.0851969 -0.0378396 0.00892454 -0.0489879 0.0405166 -0.00790057 -0.0449007 0.0146764 -0.0721625 0.0218223 0.00998523 0.0260138 -0.0620952 -0.0398683 0.0249045 -0.025269 -0.0980396 0.0898607 0.0575754 -0.0140357 0.0587328 0.105245 0.0557742 -0.00591834 -0.0259057 -0.018538 0.0771413 -0.0205704 -0.0175067 0.0724793 0.0252001 0.0136005 0.0434146 0.0702859 0.00117028 0.122878 0.0425087 0.0108537 -0.0240257 -0.0299342 -0.148592 0.0246083 -0.0132965 0.0280336 0.0598437 -0.0207152 -0.0312809 0.101223 -0.0777766 -0.0423256 -0.00382518 0.0403716 0.0545925 -0.153089 -0.0645343 -0.0126537 -0.0890563 0.0776143 0.0019504 0.0834493 0.103317 0.0232463 0.0833888 0.056263 -0.0847958 0.0209051 0.0424435 0.0496303 -0.034612 -0.0948843 0.131315 -0.0562196 0.00883289 -0.0724226 -0.0581454 -0.0136188 0.0611695 0.074724 0.00221247 0.0515035 0.0226866 -0.0459826 -0.0295684 0.00724983 0.0549206 -0.0295906 0.0775898 0.0426271 0.0706694 0.030063 0.0828624 -0.105436 -0.0467605 -0.165498 0.0634194 -0.0185424 0.0562627 0.0425317 0.0565904 0.13054 -0.0385907 -0.0562065 0.0183073 0.0572113 0.0363665 0.101571 0.127482 -0.0339657 -0.0309593 -0.0283701 0.0856133 0.0276353 -0.00828731 -0.031538 -0.0434699 -0.00108642 -0.0203584 -0.101329 -0.0237235 -0.110416 0.030499 -0.0359583 -0.00983914 0.0538525 0.0254385 0.0446537 -0.0443379 -0.0622493 -0.0214121 0.0495036 -0.00259259 -0.032293 -0.0445982 -0.0247206 -0.0181233 -0.0323629 -0.00094046 -0.0937297 -0.0453713 0.0382404 -0.0203908 -0.0349991 -0.0119075 -0.0111076 -0.0215984 -0.0619533 0.0276871 0.105849 0.048408 -0.0452066 -0.0413881 -0.00926207 0.0915365 0.021459 -0.00133347 -0.0640709 0.0833418 0.0071409 -0.0440897 -0.00562381 -0.00516771 0.0522475 0.0106496 -0.00655735 -0.0791421 -0.0322753 -0.05464 -0.031773 -0.0340138 0.098473 -0.0247154 -0.0233338 -0.0302982 0.0311224 0.0810804 -0.0269441 -0.0355958 -0.0256064 -0.0161409 0.00386346 -0.119157 0.0917375 0.080264 -0.0252178 -0.0313321 0.0956333 0.0516676 0.0832632 0.0349744 -0.00287961 -0.0803851 -0.0022324 -0.0493996 -0.101208 -0.0092002 -0.0208021 0.0258594 0.013624 -0.0267674 0.149785 0.0633274 0.00242076
bleues 0.0442329 -0.0444859 0.00571159 0.109635 -0.00591305 0.0811891 0.0302023 0.0503536 0.0330833 0.0355902 0.0125165 0.043402 0.0437182 -0.0669301 0.0681602 -0.00860593 -0.0167113 -0.063089 0.041951 0.0070147 -0.0935961 -0.11799 0.0159672 0.0689237 -0.122665 -0.0479973 0.0285517 -0.0415685 0.0189798 0.131179 -0.0727021 -0.0121268 -0.0111975 0.0162462 0.0122292 0.0545297 -0.0213574 0.0504354 0.00921669 -0.126386 -0.0407849 -0.0390286 -0.0197318 0.0452423 0.0124566 -0.0514521 0.0418325 -0.00631156 0.00472314 0.117605 0.0229826 -0.0683069 -0.0422498 0.0645156 0.0560088 0.0528592 0.018384 -0.00441478 0.00182339 0.0321022 -0.0067048 -0.0160802 0.0812935 0.0665392 -0.0311613 -0.0202982 -0.0433563 0.08642 -0.0851571 0.0393035 -0.0675967 0.0778111 -0.0487047 -0.0650098 -0.042946 -0.0646438 0.0359975 -0.00186557 -0.0192105 0.0410171 -0.0577463 0.004972 -0.153225 0.0696758 -0.126621 0.0517922 -0.0399751 -0.0631518 0.0427434 -0.111054 -0.0659764 -0.0467412 0.0249378 0.0468645 0.000270036 -0.0312995 0.142007 0.0983952 -0.00661127 0.0259447 -0.0200746 -0.05141 -0.00841404 -0.0373298 -0.00278863 -0.0866218 -0.0229126 -0.0347911 0.0435621 0.0605362 0.028588 -0.0970005 -0.0378419 -0.0291203 -0.0332845 -0.00666781 0.00735016 0.0330053 -0.0176464 0.0616659 0.0238017 -0.0566643 0.0416704 -0.0544568 0.120076 0.0383013 -0.0745643 0.0811265 -0.0561346 0.0982971 0.0849188 0.0467311 0.0125802 0.0619747 0.0564498 -0.0464813 0.0699417 -0.0492733 -0.0789452 0.0986616 0.0498575 0.0480523 0.131796 0.00810169 0.0353227 0.117862 -0.0304153 -0.0363658 -0.0546471 0.0191376 0.058201 -0.108366 -0.0627216 -0.0177698 -0.056937 0.0549284 -0.025487 0.0766042 0.117191 0.0564569 0.0809482 0.0478976 -0.0916959 0.00978672 0.023172 0.0789169 -0.0144829 -0.0357451 0.12816 -0.0776819 0.0460019 -0.0762877 -0.0745134 -0.063234 -0.00897746 0.0400326 0.0323916 -0.022211 0.040925 0.03804 -0.0829859 -0.024614 -0.0271983 -0.00959403 -0.0110238 -0.0480559 0.012524 0.000111043 0.0702289 -0.071137 0.0145537 -0.0617253 0.0882303 0.0123664 0.0185641 0.0188116 -0.0212069 0.15223 -0.0852813 -0.0937005 0.0235686 0.070393 0.0219205 0.0588088 0.0940566 -0.0417922 -0.0447739 -0.0409962 0.0315744 0.0552444 -0.0357787 0.0261353 -0.0518857 -0.0249712 0.0213903 -0.153957 -0.0323327 -0.033532 -0.0479787 -0.0253956 0.00414838 0.0439197 0.0843201 0.0599624 0.00100851 -0.00150013 -0.0818467 -0.0499193 0.00821693 0.0128596 -0.0475088 -0.0335073 -0.0421511 -0.078537 0.0261709 -0.0845897 -0.00692655 0.0251803 -0.0174636 0.0217756 -0.0907858 -0.0504336 -0.0275715 0.0351421 0.046496 0.0478557 0.0318005 0.0292111 -0.063793 0.0161699 0.110278 0.0204008 0.00322499 -0.0235848 0.00695988 0.0241017 -0.0295803 -0.105056 -0.0366123 0.0172867 0.0358502 0.0317905 -0.0134811 -0.0173848 -0.0124301 -0.0492544 -0.0895206 0.0357396 -0.0429098 -0.0394027 -0.0538639 0.0563702 0.0305357 -0.0204688 -0.0258169 -0.0709294 0.0621117 -0.0173152 -0.173191 0.0552198 -0.0146679 -0.0347236 -0.0281903 0.0475677 0.122849 0.0121478 0.0411235 0.0252378 -0.0784277 -0.0723968 0.00849375 -0.0476051 -0.042549 0.0356914 0.0729674 -0.0550136 -0.0250259 0.0886573 0.0212277 0.0328035
beige -0.0204059 -0.0198028 -0.0249958 0.038356 0.0460229 0.022904 -0.0409366 -0.0481904 0.0744728 0.0574694 -0.0248034 0.078997 -0.0901092 -0.0359043 0.117918 -0.0813905 -0.159724 0.0320758 -0.0362643 0.10234 0.0163406 -0.0908152 -0.00310165 0.0440029 -0.00850913 -0.0495802 0.00786939 -0.0479235 -0.0121168 0.0595366 0.0102511 0.0429354 0.0721417 0.0110041 -0.0342775 -0.0177302 0.059742 0.0305821 -0.00411491 -0.0140851 0.00815827 0.00605015 -0.0122886 0.0519297 0.00145556 0.0142369 0.018587 -0.0357231 0.086844 0.0285079 -0.0154288 -0.0943763 0.0222039 0.0256918 0.0325008 0.0620569 -0.0616186 0.00483054 0.0544168 0.0955679 0.0832839 0.0847271 -0.0300089 -0.0376052 -0.0406817 -0.036032 -0.0487364 0.0109329 -0.0684082 -9.41928e-05 -0.107886 -0.0154357 -0.0235422 0.0566352 0.038246 -0.000182569 -0.0424191 0.056288 -0.0344545 0.000310331 -0.105815 0.0276547 -0.0615321 0.0198064 -0.0735647 0.0639044 0.0680952 0.040377 0.103501 -0.011593 -0.0921469 -0.0165997 -0.106552 0.0344877 0.0557618 0.0418318 0.0788345 0.0334777 0.013564 0.0439967 -0.0197947 -0.0431323 0.0310693 0.0871197 0.0544319 -0.0361352 -0.0418537 0.066016 0.0264818 -0.0362136 -0.0157079 0.0327155 -0.0113816 -0.0423649 -0.00440853 -0.0195505 0.059456 0.048487 0.00895914 -0.0161991 0.106999 0.0370656 0.0366308 0.106511 0.0119011 0.0851325 -0.040187 -0.118974 0.0391005 0.0466782 -0.000228089 0.0467075 0.0136631 0.0339219 0.0587912 -0.0700512 0.0617641 -0.0819429 -0.00851003 -0.0611109 -0.105822 0.100219 0.0935079 0.0126604 -0.0193858 0.0433992 0.0383212 -0.00803198 -0.110278 0.025632 0.0116764 -0.0705818 -0.104277 -0.110738 0.00600621 0.0467567 0.0277292 0.00640104 0.0885232 0.0386388 0.0500756 0.109675 -0.086011 0.0422182 0.132782 0.0685879 0.00522944 -0.0643825 0.138755 -0.000924524 0.00701555 -0.118744 -0.0810296 -0.0301532 0.0455658 0.02656 -0.0587297 -0.097525 0.0421717 -0.0410169 -0.025761 -0.0693548 0.0672646 0.0265657 0.0513199 0.0158338 0.0177194 0.00294458 0.0280006 0.08735 0.0160629 -0.0164294 0.0502804 -0.0120743 -0.0368452 0.0156281 0.00474009 0.0220124 -0.0273465 -0.0152499 0.0599172 0.0096961 -0.0620634 -0.0499188 0.139641 -0.126947 -0.0405205 -0.0458732 0.0284529 0.00633209 0.0216199 0.0368485 0.0631279 -0.0433885 0.0118307 -0.0321427 0.0166909 -0.0361096 -0.0506091 -0.00362935 -0.0574991 -0.094707 -0.0303858 0.0103283 0.101948 -0.0215597 -0.0651595 0.0587479 0.0072165 -0.0903102 0.0539332 -0.0309568 -0.0286973 -0.0436192 -0.014809 -0.0236129 0.026968 0.00368258 0.00709888 0.112299 -0.0430389 -0.00920274 -0.0310672 -0.0414904 -0.00915283 0.0565517 0.00382771 -0.0387793 -0.0734603 0.0446895 0.0965012 -0.0545873 -0.0642186 -0.0505193 0.00404744 0.0337588 0.00329643 -0.046221 0.0494261 0.0044676 0.0307742 0.0745811 0.00295525 -0.00757118 -0.116906 -0.0498153 -0.0890599 0.144858 -0.0464886 -0.0333628 -0.100291 0.000477875 0.0845946 0.0489543 -0.0554509 -0.0382146 0.0565374 0.0491679 -0.063235 0.131986 0.0596273 -0.0143841 0.0641638 0.0748557 0.15398 0.0720885 0.0061481 -0.000820199 -0.136488 -0.0265039 -0.00691488 -0.106623 -0.0246444 0.0585538 0.0343465 0.0124992 1.68275e-05 0.0978456 0.0433539 -0.0425475
orang -0.0763296 -0.0534302 -0.0418915 0.0118524 0.076248 0.0068545 0.0165157 0.0287377 0.0656182 0.0833935 0.00216506 0.068026 -0.110664 -0.0284981 0.107117 -0.112135 -0.0774159 -0.0607659 -0.0439892 0.062825 -0.0390342 -0.0926905 -0.0778438 -0.00522082 -0.108504 -0.0186946 0.0511032 -0.0493324 -0.0746715 0.0661325 -0.0992445 0.0736922 0.0259124 0.0569254 -0.0345893 0.00844208 0.0092204 -0.00496849 0.0132004 -0.0767169 -0.0249062 -0.0836823 -0.0498169 0.0411827 -0.0386042 0.000209282 0.0451626 -0.0265712 -0.00652208 -6.58416e-05 -0.0551165 -0.0427693 -0.0316888 -0.0293114 -0.0323293 0.0355234 -0.015388 0.0193713 0.106691 0.0629065 -0.0113521 0.0866639 -0.0100712 -0.0120591 -0.0390913 -0.0303026 -0.0394314 0.0274833 -0.0168069 0.0567704 -0.081055 -0.0300554 -0.00910551 0.0228927 0.043097 0.0296596 0.000874018 0.0546381 -0.0280134 -0.00740323 -0.0905301 0.00952417 -0.095077 0.0533747 -0.0704057 0.00909111 0.0476573 0.0325776 0.102265 -0.0176568 -0.0149811 0.0149619 -0.0858889 0.0456981 0.0561155 -0.0538401 0.060777 0.122957 0.0135594 0.0303559 -0.0525028 -0.0361523 0.0051822 -0.0157794 0.0740421 -0.00194498 -0.00929792 0.0692186 0.0391847 -0.0434666 -0.0040816 0.024616 -0.0241949 0.0166238 0.0134724 0.0243889 -0.0121697 -0.0248752 0.0305079 -0.0348362 0.06548 -0.0161852 0.0134505 0.0905614 0.0441391 0.0494191 -0.117159 -0.0160537 0.0121466 0.0494028 -0.0260558 0.0129227 -0.0196865 0.0455456 -0.00191621 -0.0706899 0.0592617 -0.10364 -0.0843374 0.00177947 -0.0633625 0.0980463 0.106431 -0.0402582 0.00238955 -0.0340888 -0.103645 -0.0160226 -0.0692774 0.000384981 0.0271505 -0.0759019 -0.0137728 -0.114584 -0.0376738 -0.0191219 0.0390931 0.0159008 0.131588 0.0156395 0.0972173 0.0569695 -0.0586009 -0.00205265 0.0817144 0.11559 -0.0319026 -0.123341 0.113872 -0.00602077 -0.0515799 -0.0557532 -0.0594967 -0.0163839 0.0553593 0.0347974 -0.0561933 -0.0953436 0.0512948 -0.0422809 -0.0662685 -0.00199038 0.0636265 -0.0251955 0.0481086 0.00531512 0.0363495 0.00415294 0.00858664 -0.0434222 0.0727252 -0.0357254 0.0781714 0.0169197 -0.0803187 0.00975559 0.0567465 0.0803792 -0.0417523 0.0732495 0.0558653 -0.00519441 -0.0196183 0.0548764 0.151543 -0.132049 -0.0311286 0.0151963 0.0120969 -0.0155342 0.0178324 0.0804549 -0.0172638 0.00132587 0.0123581 0.0150448 -0.00938884 -0.0691189 -0.0448985 -0.0388806 0.00863406 0.0427777 -0.000340235 0.06851 0.0661676 0.077189 -0.0964314 -0.054057 0.0283433 -0.0732485 -0.0368776 0.0493363 -0.0482717 0.0176733 0.0818685 -0.0220797 0.0109635 -0.0657162 -0.00844636 0.051132 -0.0275366 -0.0108064 -0.0359061 0.000912295 -0.0234844 0.0356106 0.0393161 -0.0223644 -0.100513 -0.00089662 0.0938596 -0.0117882 -0.0824442 -0.108442 0.00468857 0.019301 0.0201933 -0.0680049 0.0135481 -0.000432398 -0.00437136 0.138097 -0.00832703 -0.031913 -0.150386 -0.073981 -0.0646938 0.175655 -0.0714857 -0.0263069 -0.131924 -0.0451008 0.087441 0.0395131 -0.0389657 -0.0345375 0.0539037 0.031662 -0.0778966 0.097119 0.047331 -0.00377694 -0.0310928 0.042811 0.0779103 -0.0130151 0.0778112 0.0441306 -0.16093 -0.0487464 -0.0367781 -0.0898834 0.0251242 0.0547248 -0.00556817 0.00497824 -0.0197981 0.0476461 0.0621308 -0.0422922
magenta 0.00880656 -0.0257275 0.0095546 -0.0272618 -0.00416211 0.00699791 0.044014 0.0296341 0.0128043 0.00600624 -0.0480304 -0.0141674 -0.0156821 0.130112 0.0278226 0.00830364 -0.107241 -0.0928946 -0.000235524 -0.0258185 -0.00194389 -0.0487454 -0.131531 0.0732595 -0.0837034 -0.0927613 0.0399827 -0.0666996 -0.000323668 -0.0146394 -0.131537 0.0375914 0.0227154 0.0536935 -0.032631 -0.0290222 0.0010854 0.0358428 0.0670644 -0.0174419 -0.0275258 -0.085157 -0.0137401 -0.0240702 -0.0325761 -0.0277929 0.00414805 -0.0286026 -0.0343704 0.0417404 0.0785591 -0.0252277 -0.00845431 0.0232831 0.0448303 0.0646026 0.0261495 0.00685318 0.0622329 0.0662462 0.00822442 0.0128277 -0.0309501 0.0275259 -0.0541424 0.00171455 -0.0826643 0.041985 -0.0365934 0.0210097 -0.0635563 0.0149597 0.0442267 -0.0745479 0.0520233 0.0887182 0.0404581 0.0515337 0.0978213 0.0453 -0.0934514 0.0248858 -0.0541706 -0.0214416 -0.0484074 -0.0458014 0.046604 0.00559678 0.00700865 -0.0319536 -0.00305573 -0.0369307 0.0639157 0.0657423 0.0512258 -0.0381297 0.0209113 0.0033339 0.0731165 -0.0134225 -0.115716 -0.0578073 0.0320212 -0.0323085 -0.0176754 -0.011487 -0.096119 -0.0703923 0.0654434 0.0214251 -0.034113 0.0921922 0.00251076 -0.00376717 -0.042871 0.0325264 0.0160781 0.000463095 -0.051676 0.0462459 0.151392 0.0180767 0.0858217 0.0163534 -0.0288449 -0.00412726 0.0306845 0.0967448 0.0677697 0.0317988 0.0393394 0.0184328 0.0281052 -0.0421934 0.0154815 0.080863 -0.00125413 -0.0831733 0.00114432 -0.0761869 -0.0864522 0.0797884 -0.0644303 -0.0217768 -0.0196123 0.061621 -0.104006 -0.0242304 -0.0889962 0.00549341 0.0660255 -0.17585 -0.054344 0.017841 0.0218918 -0.0533469 -0.00950913 -0.0600242 0.110253 0.11887 0.0240739 -0.0571841 -0.0123922 0.0355347 0.144751 -0.0884859 0.0262285 -0.0665059 0.0113239 0.0296647 0.0448366 -0.0662232 0.0610615 -0.0339522 -0.0350889 0.0242527 -0.113972 -0.0935424 0.056101 -0.0471451 0.0500061 -0.135699 0.00293232 -0.014174 0.0228834 0.108807 -0.0464136 0.0351481 0.0130404 -0.0747351 0.0119542 -0.0975336 0.0167441 0.061002 -0.0903521 -0.0266833 0.0779358 0.017377 -0.032009 -0.0346273 0.0542026 0.0737501 -0.0809713 0.010182 0.0235125 -0.0436238 -0.0260342 -0.0445336 0.00749507 0.026148 -0.0179833 -0.0790467 -0.0318596 0.00252433 0.0362314 -0.0491462 -0.0243436 -0.0169483 -0.0477991 -0.0192172 0.0621682 0.0432025 -0.0143155 0.0907319 0.0506023 -0.0206351 0.0389087 -0.13437 0.010048 -0.0508757 0.105776 0.0530278 0.0629564 -0.0494192 -0.0436186 -0.0338943 -0.0534306 -0.0477445 -0.0042052 0.0396785 0.0207658 -0.0665371 -0.0307499 0.0877782 -0.0795991 0.0332252 0.00559139 0.052519 0.0164928 -0.0922412 0.0585219 -0.0222864 -0.0213687 -0.00288618 0.157937 -0.0321496 -0.0585888 -0.0429808 -0.0540638 -0.00329285 -0.103885 0.0746117 0.0211758 -0.0257615 0.0296232 -0.0134598 -0.0946942 0.0465756 0.0411079 0.00606948 -0.173732 -0.0512928 0.11527 0.00494021 0.0132434 0.0045323 0.139049 0.00187619 -0.0407169 0.0759735 0.0380125 -0.0224976 0.0460853 0.117363 -0.0229424 -0.0518114 0.0255694 0.011868 -0.125683 0.0217355 0.0534752 -0.0755398 -0.0156919 0.0629886 0.0159023 -0.0315956 0.020648 0.014661 0.0906635 -0.0940354
oranges 0.0339985 0.0221594 -0.0495556 0.0142169 0.00950842 0.059997 0.0620368 -0.0203319 0.0579841 0.00987765 0.059044 0.034248 0.0250242 0.0502644 -0.0144016 -0.00217518 -0.042646 -0.129434 -0.0269453 -0.0121568 -0.0109254 -0.0124565 -0.0208878 0.00518287 -0.0189534 0.0272991 -0.0304174 -0.123778 0.0168378 -0.0616095 -0.0564386 0.0248982 -0.0453817 -0.0401375 0.0669692 0.0379105 0.0308723 0.0283815 0.0124944 -0.156487 -0.0363571 -0.106437 0.0180748 -0.0358313 0.0409042 0.0477633 -0.0148696 -0.0947331 -0.0900597 0.0787543 0.0395156 -0.0189452 -0.130097 -0.0626656 -0.0230697 0.0698025 -0.0518821 0.0753824 0.0259433 0.0369848 0.00873028 0.0165678 0.0611989 -8.93444e-05 -0.0327537 -0.0683251 0.00839543 -0.0557415 -0.0308849 0.0627265 0.040308 0.00302857 0.0311572 -0.0403182 0.0305396 -0.0108188 0.047447 -0.076351 0.0106109 -0.00453726 0.0196548 -0.0594022 -0.0622151 -0.0344596 -0.0421142 0.0660217 0.0696741 0.0901359 0.083178 -0.0725112 0.0328811 -0.0799318 -0.0977973 0.000825357 0.03225 0.0549041 0.0187943 0.0546314 0.0663245 -0.0153849 0.0423318 0.0271662 -0.0795762 -0.0515272 0.00655587 0.00547612 0.0108083 0.00742251 -0.021364 -0.0204687 0.0624629 0.0328263 -0.00829894 0.00343303 -0.0291185 0.0107605 0.0141925 -0.0557764 0.00255977 0.0537921 0.111619 0.0481321 0.0321881 0.0318338 0.0101133 -0.0227216 -0.020039 0.0111421 -0.071106 0.0390165 -0.0209133 0.0682418 -0.0532756 0.0599028 -0.0220888 -0.0179878 -0.0395556 -0.107882 -0.0432992 0.0326359 -0.0109856 0.0633788 0.0465152 -0.0542021 0.0288565 0.105261 -0.0771345 0.0435108 -0.00960273 -0.0199807 -0.008747 -0.187169 -0.0191462 -0.0476282 0.0425508 -0.00763534 0.0395259 -0.00847585 0.0812144 0.129521 0.0350748 0.00754411 -0.115743 0.0348955 0.0306426 0.0819546 -0.104122 -0.0990742 0.160359 -0.00381111 -0.0206086 -0.111762 -0.0696553 -0.131248 0.0690625 0.0778099 0.0347228 0.0310265 0.0447322 0.0448143 -0.0317024 0.0593531 0.0757787 -0.0978744 -0.0568738 -0.00507643 -0.00793071 -0.0435074 0.0324911 -0.0488801 0.0247266 -0.0370312 0.0210899 0.0222064 0.0296065 -0.0336152 -0.0503225 0.0195843 -0.107507 0.0477227 0.0402425 0.0889097 0.0325118 -0.0348862 0.104829 -0.0310729 -0.134027 0.0190681 0.0818746 0.077484 0.0953765 0.0387199 -0.120084 -0.0390292 -0.054815 -0.0463683 0.0433956 0.00959103 -0.141918 0.0162637 -0.00130586 -0.0369513 -0.0256443 -0.0477859 -0.0353087 0.084934 -0.0346682 -0.0765038 0.0860585 -0.0552318 -0.0308301 0.0398874 -0.00938036 -0.106804 -0.00475536 -0.103169 0.00970011 0.039938 -0.0115189 -0.00299265 -0.036871 0.0255975 0.0195688 0.00791857 -0.0463154 0.0263193 0.0805218 -0.029797 0.0114367 0.00710521 -0.0186712 0.0215993 0.0466035 -0.071485 0.00273816 -0.00685245 -0.0371164 -0.0142676 0.0245596 0.0168563 0.05649 0.0369874 0.048466 -0.053614 -0.0452544 -0.051234 -0.0450901 0.0522109 -0.0527528 0.0328999 -0.055404 -0.0725167 0.103007 6.72956e-05 -0.111477 -0.109889 0.11861 0.0568934 0.0218036 0.132311 0.117397 -0.0409115 -0.019516 0.0452682 0.0652797 0.0522257 0.0057796 -0.0391478 -0.118279 -0.0681923 0.0386544 -0.113862 0.0669315 -0.0560741 0.0213717 0.015846 -0.048255 0.0533278 0.0750559 0.00682437
cyan -0.0134788 -0.00490462 0.0371419 -0.031988 -0.0984989 0.0525848 0.0132003 0.00514687 0.0639394 0.0384584 0.0359466 0.0829318 -0.0515482 0.0417269 0.125213 0.00280451 -0.0300744 0.0436167 0.0156837 0.0842715 -0.00422012 -0.0356378 -0.0985197 -0.0738396 -0.112479 -0.0743355 -0.00503562 -0.0226601 -0.0238012 0.0377467 -0.091089 0.0705882 0.096526 0.0832048 -0.0386109 0.0245138 -0.0775976 0.0578839 -0.0214659 -0.0380679 0.030177 -0.0329404 -0.0356255 -0.00635605 -0.0195254 -0.0450999 0.0454867 0.024234 0.0617746 0.0735633 0.0348414 -0.0329237 -0.0125818 -0.0684953 0.0333301 0.0454139 0.000686007 0.0337211 0.0248655 -0.0650815 0.0121865 0.0804417 -0.0605272 -0.055665 -0.0553136 0.00790633 -0.0336259 -0.0629475 -0.0633544 0.0572747 -0.018508 0.0876179 0.0201134 -0.0159037 -0.000158479 0.0471357 -0.0693232 -0.0983075 0.00305871 -0.0333983 -0.052816 -0.0301728 -0.0823497 0.070158 0.0122172 -0.0663109 -0.0177052 0.0630348 0.0580255 -0.0239016 0.119162 -0.0553556 -0.0301442 0.075246 -0.000272825 0.0190288 0.0559242 0.0568985 0.0559797 0.0832975 0.0213063 -0.0239853 0.0930273 -0.00189484 0.0417527 -0.0737093 -0.0715349 -0.0596249 0.0728415 -0.017204 -0.0558821 -0.00916366 0.0626922 -0.0272849 0.0281034 -0.0641884 0.0267447 0.0808835 -0.0994812 -0.00926776 0.0872309 0.0534271 0.052567 0.0400697 0.0569277 -0.101492 -0.016702 0.0743427 -0.0566817 -0.00579316 0.0642024 -0.0283139 0.0195276 -0.0718469 0.093175 0.00674574 0.0644851 -0.101779 -0.0574697 0.002413 -0.0243944 0.0540022 0.0304219 -0.0938404 -0.0252668 0.00329019 -0.0566432 -0.00590772 -0.0191345 -0.0394904 0.108207 -0.126072 0.0331912 -0.031878 0.0374687 -0.0567769 0.116013 0.0900335 0.0919725 0.020071 0.102201 0.0541258 -0.0149814 -0.0239744 0.134298 0.0821928 0.0372614 0.00946389 0.0408487 0.0269176 -0.0224651 -0.0210622 -0.0253047 0.0132244 -0.0689422 0.0239795 0.0268094 -0.0560334 -0.0108255 -0.0325997 -0.022399 -0.0539182 0.00264523 -0.00476847 0.0148067 0.130087 0.0702749 -0.0246046 0.0354708 -0.0441811 -0.042422 -0.140201 0.0614527 -0.000832165 -0.0566159 0.0198075 0.0692047 0.10701 -0.0857887 0.0289659 0.104939 -0.0277575 0.00371962 0.0203644 0.101322 0.0843441 -0.00498645 0.0299776 0.0554265 0.00849057 0.0329788 0.0228229 -0.00522686 0.0023941 -0.00312253 -0.0141331 -0.00120841 -0.00526436 -0.0324553 -0.0432162 -0.0179005 -0.0626199 0.0524717 0.0601249 0.0342537 -0.00696335 0.00794346 -0.0994903 0.0204432 -0.0575719 0.0793689 0.118385 -0.023591 -0.0642387 0.122667 -0.0573623 -0.0300487 -0.00170994 -0.0189253 0.0450104 0.0476311 -0.0275574 -0.0363155 0.0759393 0.068334 0.0123213 -0.0291189 -0.0584453 -0.0651926 0.00421751 0.0842084 -0.00784006 -0.0602379 -0.0370522 0.0817865 0.0594502 0.0555796 0.00252004 0.00510856 0.00657059 0.0591054 0.0645019 0.0875625 -0.067235 0.0162916 -0.05312 -0.0431961 0.0947993 0.000565854 -0.069251 -0.0198976 -0.110669 0.0670096 -0.0101201 -0.00187725 -0.0321977 0.157244 0.00870147 -0.0536998 -0.00300104 0.159554 -0.00489258 0.0336604 0.062991 0.110824 -0.0355788 0.0544661 0.0221621 -0.163665 -0.0662425 0.0219788 -0.0210836 -0.016746 0.066015 0.00363064 -0.0382027 0.0176725 -0.0240959 0.118195 -0.0271204
