13 300
viande -0.0338657 0.0522479 -0.00971027 0.0468413 -0.0182089 0.0480183 0.0189374 -0.153588 -0.00373289 -0.00262581 -0.0349152 0.0651282 0.0122988 -0.036908 -0.00206507 -0.0979335 -0.0622672 -0.0158957 0.0392863 0.0146343 -0.0201627 -0.0428722 0.0432969 -0.00476586 0.0117343 -0.00677831 -0.0740058 -0.0246012 0.0752022 0.056311 0.020607 0.0421259 -0.0901287 0.0375647 0.0587366 -0.0365693 0.0224089 -0.0921648 0.000153044 0.0120303 -0.0214169 0.0489876 -0.00649151 0.025196 0.0225269 0.0526317 0.0100466 -0.0667477 -0.0161557 0.033701 0.0618871 -0.0144455 0.012753 -0.00305864 -0.0742328 -0.0198693 -0.0112995 0.00467322 0.0354867 0.0223879 -0.000495268 -0.0312351 0.0601715 -0.0629581 -0.00382307 -0.0774427 -0.0423587 -0.025932 0.0522261 0.0183991 -0.0563879 -0.0474735 0.0820623 -0.0702656 0.0093781 0.0227655 0.0227988 0.077728 -0.0455932 -0.0120463 0.0796179 -0.0124451 -0.00281916 -0.0354348 0.0389329 0.0662697 -0.000159552 0.108362 0.17731 0.0850217 0.00571549 -0.0153793 -0.0570426 -0.124069 -0.00441327 0.0599108 -0.0673377 0.0296234 0.0278273 0.0518086 -0.0669575 -0.0533335 -0.0841667 -0.0310844 -0.0142728 0.100878 0.0510106 0.0538223 -0.0584129 -0.0110295 -0.110407 0.0355482 -0.106929 0.00658489 -0.00936047 -0.0570163 0.0102241 -0.0232764 0.0427071 -0.039792 0.0469121 0.00482394 0.0244575 0.0594476 -0.0305859 -0.0394721 -0.00534386 -0.0850789 -0.0441647 -0.000157653 -0.0597009 0.0155699 -0.0181379 0.117594 0.0200719 0.00177862 -0.0243428 -0.0247066 -0.153851 0.0304732 -0.047965 0.0184451 -0.00211585 0.00305952 0.0042246 0.154594 -0.00425162 0.0178923 0.0366913 0.0634565 0.0189337 -0.0462242 0.00689241 -0.0281983 0.00463142 0.0477484 -0.0493004 0.0491292 0.0609668 -0.0444644 0.0197695 0.0975881 -0.132383 0.012023 0.0256287 0.0017789 -0.037981 -0.0883169 0.169815 -0.0075481 -0.0680825 -0.18695 0.0288019 0.089427 -0.0215098 0.0703795 -0.078716 -0.000839849 0.0151531 -0.0138903 0.0472838 -0.0362445 0.0193493 -0.015034 -0.0660689 -0.0412532 0.0284704 -0.050279 0.0129742 0.00506685 -0.0220008 -0.0319068 0.00146704 0.0764874 -0.0859851 -0.0143442 0.0134195 -0.0220239 -0.0515403 0.0449369 -0.0546815 0.0855205 0.0502065 -0.00952551 0.00212371 -0.0396824 -0.0649984 0.0255079 0.0223402 -0.0478599 0.198818 0.0120349 0.0834424 0.0663119 0.0288175 0.0291361 -0.0580057 -0.0632244 0.0282535 -0.0162522 -0.0388053 -0.00256738 -0.0369738 0.00228052 -0.100841 0.0862909 -0.0459585 0.0388841 -0.0202582 -0.00202204 -0.0273708 -0.0761672 -0.035421 -0.02141 0.0740222 -0.0320538 -0.0303154 -0.0501744 0.0424123 -0.036042 0.061886 0.0874005 0.0218913 0.00382203 -0.134791 0.0663287 0.14056 0.0163872 -0.0866448 -0.025929 -0.0338263 -0.010478 0.057747 0.0694102 -0.0235285 0.0477156 0.112747 -0.104281 0.0244959 0.0398038 0.0254482 0.120788 0.00872492 -0.0288034 -0.178362 0.000681131 0.0266053 -0.0103956 -0.00630781 0.0161967 -0.043053 -0.0246387 0.0390169 0.0365398 0.0214767 -0.0923268 0.0323735 0.0625175 -0.00917444 -0.00282945 0.100521 0.0326539 0.0550845 0.0165155 -0.00879595 -0.0491507 -0.0289182 -0.0177211 -0.114563 0.0581969 0.0245198 -0.0110709 0.0931771 -0.0543513 -0.0752334 0.126922 0.0841924 0.132912 -0.0227997 0.0445108
maïs -0.0496307 0.0490933 -0.0337803 0.0141524 -0.0412318 -0.0232076 0.061078 -0.10985 0.0420894 -0.000315354 0.0319738 0.156806 0.0283187 0.0237723 -0.00258649 -0.0673447 -0.0242788 -0.0594618 0.0317777 0.0486833 -0.0144037 0.00300204 0.0226524 -0.00761934 0.020939 -0.016367 -0.00685389 -0.138717 0.0425276 0.0283361 0.0157236 0.0752598 -0.10021 0.0635255 0.0752128 -0.0373765 -0.0474957 -0.0186648 0.00455552 -0.0231172 0.0588858 -0.0602394 -0.0620142 0.0623246 0.011632 0.0496561 0.0483445 -0.0201607 0.0676217 -0.00397539 0.0257925 -0.0278588 -0.0765519 -0.0229307 -0.11344 0.00745142 0.023189 0.0601421 -0.0404642 0.0371518 -0.023607 -0.0442354 -0.0184189 -0.0486597 0.038842 -0.0616474 0.0168569 -0.0569138 0.0292921 0.0202028 -0.0167327 -0.0151817 0.178331 0.00117557 -0.0768932 0.0225002 -0.0289462 -0.0366469 -0.0322246 -0.0489121 0.01203 0.0161996 0.018243 0.00409995 0.00673761 -0.091423 0.0292809 0.0632245 0.126674 0.0079038 0.0826355 -0.0677376 -0.0421031 -0.0247714 -0.0184802 -0.021187 0.0552755 0.0397875 0.0811778 -0.0211757 0.0322252 -0.072772 -0.0522266 -0.103914 0.00467674 0.0141761 -0.0315854 0.0219274 -0.0529918 0.0141381 -0.0216328 0.0074538 -0.0255567 0.0417295 -0.0618034 -0.0244025 0.0880643 0.0354316 0.104323 0.0426653 0.0841079 0.0192417 -0.0306365 0.0562704 -0.0180945 -0.0809886 -0.0885346 -0.0491864 -0.0413277 0.0245327 -0.0189297 -0.0327111 -0.0480091 0.0412956 0.00797437 0.00215825 -0.0151994 -0.0541958 -0.112012 -0.0637139 0.0224947 0.136668 -0.0550612 0.0260891 -0.0795727 0.057019 0.0388626 -0.00247272 -0.0241761 0.0226002 0.0425744 -0.0676951 -0.0801127 0.0696434 0.0919085 -0.00476144 0.0820527 0.0307103 0.0927271 -0.0248161 0.0229901 0.073575 -0.0721708 0.0655933 0.000190283 0.0578922 -0.0323364 -0.049554 0.155116 -0.0306061 -0.0343318 -0.164019 0.0495412 -0.0511343 -0.0372256 0.0250586 0.000952527 -0.0263932 0.0191122 -0.0951442 -0.0221491 -0.055315 0.0535828 -0.0429166 -0.0605712 -0.0756638 0.00260158 -0.0538824 0.073281 0.0429613 0.0622586 -0.0762914 0.0727532 0.072943 -0.0884667 0.0041161 0.0169182 0.0539862 -0.0434088 0.0334239 -0.152931 0.0402638 -0.0101702 -0.00653759 0.0529931 0.000962571 -0.0734296 -0.00588826 0.100757 0.0453933 0.161187 -0.043917 -0.0349792 0.0614363 -0.028935 -0.0795344 -0.000981885 -0.0640697 -0.0188079 0.0704538 -0.0446095 -0.0502065 0.0715929 0.00153424 -0.0441314 0.0225116 -0.0186533 -0.0434074 -0.0307851 -0.0154431 -0.048025 -0.0849601 -0.0338112 -0.00133595 0.0633789 -0.102943 -0.0278505 0.038944 0.0626014 -0.0728312 -0.0491687 0.0567436 -0.0104497 -0.0183013 -0.0247429 0.0307764 0.0898394 0.0210759 -0.0368968 -0.0403152 -0.00766323 -0.0413416 0.0820026 -0.053616 -0.0507588 0.0529002 0.0295583 -0.0554554 0.119859 0.00761578 -0.0109414 0.116863 -0.0236228 0.0548173 -0.1011 -0.0206543 -0.0487458 0.0339821 0.0512143 0.0662274 -0.0445 -0.0984582 0.0987469 -0.0420677 0.0226542 -0.0817922 0.0303184 -0.0477464 0.0286758 0.0123611 0.165106 -0.0253001 -0.0318113 -0.0366496 -0.0178089 -0.0454241 0.0650557 -0.0256834 -0.0573923 0.0287393 0.015618 -0.070194 0.156638 -0.0835128 -0.0144577 0.0592984 -0.0240137 0.090035 0.00144085 -0.0661239
nourrir -0.0357828 -0.036373 -0.0448179 0.0996682 -0.0871956 0.0299471 0.106441 -0.0900119 0.0735447 0.0839038 0.0556144 0.0369025 -0.0301898 0.0113882 -0.0877798 -0.0376424 -0.0072528 -0.0149499 0.054151 -0.106643 0.00342953 -0.0276306 -0.0310314 -0.0117861 -0.111423 -0.0248678 -0.100047 0.000897521 0.0546201 0.0121296 -0.0645589 -0.00847843 -0.153558 0.0598634 0.0490963 -0.0612914 0.062789 0.000459179 -0.0359833 -0.0447636 0.0509679 0.000405254 -0.00798651 0.0215325 -0.0207109 0.0835655 0.0743339 0.000749543 -0.0125204 -0.0200576 -0.0287871 0.0214293 0.0408239 -0.0760467 -0.165586 0.0443165 0.08527 0.0406788 -0.0419448 0.0232966 -0.0624896 -0.0542081 0.0617512 -0.0348702 -0.064913 -0.0890562 -0.0202682 0.115283 -0.0243297 0.0689587 -0.0645994 0.0473295 0.0307537 -0.0574748 -0.0404638 0.0328815 0.113766 0.0566953 -0.0354627 -0.0660271 0.027486 -0.0333507 0.0135165 -0.0628313 -0.0225623 -0.0449861 -0.0628408 0.0380889 0.036929 0.0328015 0.106048 -0.0447196 -0.0763624 -0.101957 0.0647087 0.0343926 0.0401668 -0.0341386 -0.0192219 0.0578875 -0.0326883 -0.0493247 -0.0136248 -0.167483 -0.0347826 0.0155008 -0.0635818 0.00903947 -0.0871218 0.000481707 -0.0316083 -0.0462676 -0.0133274 0.00121327 -0.00417796 -0.0547695 0.0457183 -0.0497119 -0.0101798 -0.00331136 0.0498387 0.0695585 -0.0339106 -0.0199689 0.000421179 0.0456968 -0.0819974 -0.0771227 -0.000158016 0.00340829 0.0140862 0.0513896 -0.0858938 0.119236 0.0363185 0.00704786 -0.0510705 -0.0231214 -0.0875391 0.0337482 -0.0281998 0.0445501 0.031318 0.0358536 0.0337628 0.101159 -0.0463433 -0.0860833 0.0955406 0.0181811 0.0153403 -0.0458061 -0.0287101 -0.00442745 0.00122309 0.0258152 -0.0790834 0.0640475 0.00742037 -0.018746 0.00649592 0.0476152 -0.027025 0.0543825 -0.0929583 0.0197636 -0.0853812 -0.0937864 0.0972341 0.0345705 0.00398362 -0.0678214 -0.0385428 0.0175526 0.00829905 0.182998 -0.0846077 -0.00534017 -0.0432633 -0.0163518 -0.0247768 -0.0707517 -0.00638762 -0.047762 -0.0253315 -0.0396756 0.00495309 0.0100821 0.100629 -0.0628789 -0.00443776 -0.13024 0.0341021 0.11207 -0.0154779 0.0327813 0.0298013 0.00120708 -0.0388191 0.0351952 0.0464675 0.0215004 0.00384425 -0.00441902 0.0704079 -0.123658 -0.0754985 -0.0823851 -0.0658277 0.0552995 0.196335 0.0251861 0.106359 0.0232182 0.0882237 0.0156028 -0.0148856 -0.0197202 0.0800245 -0.0365686 -0.0546275 -0.0547793 0.0356181 0.00849643 -0.0776647 -0.0372355 -0.0773424 -0.00117888 -0.0734839 -0.0256575 -0.0241083 0.0531939 0.0200229 0.0547275 0.0847532 -0.0086314 0.0105599 0.0253873 0.0412661 -0.06471 0.00875392 0.0696507 0.0793284 0.0206218 0.0358923 0.0863083 -0.0422007 -0.0231462 -0.0991573 0.0965481 0.0242828 -0.0657053 -0.0431933 0.0509921 0.0460096 0.0951641 -0.0441178 -0.045467 -0.00798047 0.0021937 -0.00741181 0.102463 -0.0108116 0.00705489 -0.078242 0.00405339 -0.0131937 0.0493634 0.0102092 0.0137537 -0.00814094 -0.0527676 0.0301833 0.0281525 0.00186679 -0.0341932 0.0275864 -0.0760734 -0.00301858 0.0268813 0.0674974 0.0518935 -0.0270392 -0.0192471 0.00321216 0.049325 0.0315099 0.0311224 -0.0626649 0.092528 -0.0290868 0.0077749 -0.0363513 -0.010007 0.00111579 0.0404713 -0.00257356 0.145023 0.123215 0.0176516
poulet 0.0320857 0.0929306 -0.0971815 -0.0644527 0.00389152 0.0666729 0.0643281 -0.051949 -0.0308565 0.0565705 -0.00547094 0.0656983 0.0222472 -0.073817 -0.0058993 -0.062933 -0.0219711 -0.10976 -0.00123609 -0.00571604 0.00219092 -0.0681322 0.0307334 0.0213871 0.00459386 0.0181703 -0.0416239 -0.0605757 -0.0308058 0.068546 0.0225898 -0.0426138 -0.0580276 -0.0425228 0.0695975 -0.012954 0.0141958 -0.0654603 -0.0492451 0.00960685 -0.0378816 0.012967 -0.0581972 0.0479215 -0.000138722 0.0283504 -0.0305842 -0.0520271 -0.0074094 0.108027 0.0181211 0.00202474 -0.0277203 -0.0152813 -0.014886 -0.0233126 -0.0637148 0.0144507 0.0590666 0.0345982 0.0704588 -0.0925065 0.0350413 0.0450777 -0.0516365 0.0300955 -0.050338 0.0284269 0.0329094 -0.000727853 -0.0361259 -0.0415471 0.0787768 -0.0210695 0.0298264 0.0513209 0.0179375 0.0121504 0.00763079 -0.0386662 0.0710412 -0.00130323 -0.0206611 -0.00727997 0.0756013 0.0267439 -0.0382219 0.128221 0.156023 0.0295191 -0.00632687 0.00906445 -0.0222314 -0.0429947 0.0782693 -0.0386458 0.00764741 -0.0176409 0.00755674 0.0223922 -0.00626148 -0.0306808 -0.0963573 -0.0642569 0.037143 0.0769304 -0.00208399 0.0313676 0.0132644 0.00715564 -0.107108 0.0828272 -0.0454774 -0.00915614 -0.0658822 -0.0522141 0.014765 -0.0589634 0.0670665 0.00131978 0.0457968 -0.0262966 -0.0905986 0.105349 0.0138184 -0.00859118 -0.0207709 -0.0406456 -0.0548752 0.0234628 -0.035716 0.0165714 -0.00990919 0.0480114 0.0597579 0.0407465 -0.117866 -0.13343 -0.0847951 -0.0635493 0.019816 0.0386098 0.0409053 0.0590543 -0.0060447 0.142737 -0.0048823 -0.0252412 0.0776159 0.125904 0.0633704 -0.059994 0.0307639 0.0043138 0.0613889 -0.0114866 -0.00517245 -0.0311752 0.0202633 -0.0908278 -0.0115139 0.0663002 -0.0688731 0.0962415 -0.0295726 0.0357537 -0.0385075 -0.0827097 0.185222 -0.0834474 -0.0658328 -0.088119 0.000271069 0.00797922 0.0280111 0.0726919 -0.0366587 -0.00358224 0.0353704 -0.0358543 0.0746384 -0.0860998 0.0952427 0.0247275 -0.0265979 -0.00197151 -0.0523452 -0.0911834 -0.00912054 0.0299526 0.03087 -0.0185509 0.014349 0.00397016 -0.137368 -0.0528634 -0.0395332 0.0438067 -0.117802 -0.0397482 -0.00378511 0.18936 0.00235215 0.00685906 0.0386284 -0.0669173 -0.0594213 0.00251495 0.0341178 -0.0586392 0.161398 -0.0481957 0.0769106 0.025443 -0.0224075 -0.00108702 0.0180737 -0.00653626 -0.0426068 0.0030473 -0.0184031 0.0739026 -0.104097 -0.0699941 -0.11999 0.00255618 -0.0855037 0.0642797 0.00663087 0.0494732 -0.0740088 -0.1129 -0.0142513 -0.0707111 0.00883808 0.00269073 -0.084931 0.00479425 0.0146722 0.00362102 0.022975 0.0409468 -0.02152 0.101002 -0.0756744 0.0658711 0.155587 0.0546731 -0.0271708 -0.0336851 0.0723513 -0.0497391 -0.00939725 0.0427196 0.0141947 0.0762839 0.0586175 -0.0110873 0.0240955 -0.0434405 0.043033 0.123461 0.0748205 0.0674454 -0.0865251 -0.048136 -0.0367375 0.0728514 0.036777 -0.0113299 -0.0797318 -0.0259834 -0.0282062 -0.0254244 0.008976 -0.150659 0.0138738 0.067815 0.0110765 0.0560246 0.0522436 0.033604 0.0613842 0.00486678 -0.0300849 0.0322935 0.0450086 0.0604243 -0.0374695 0.0299599 -0.0718232 -0.0514156 0.0206141 -0.0343378 -0.0872641 0.0758725 -0.00788853 0.0699695 0.0196516 -0.0603846
saumon -0.0530496 0.0426923 -0.104806 0.0478284 -0.0047918 0.035497 0.04413 -0.0111576 -0.0240323 0.0697669 0.0455461 0.084762 0.035276 -0.129126 0.0517816 -0.0575142 0.00147991 -0.0423277 0.062119 -0.038034 0.0381039 -0.0281922 0.0550702 -0.0393493 -0.0590796 -0.00338852 -0.0229052 -0.00861922 0.0316747 0.0260213 -0.0716703 0.0301023 -0.0908951 0.0536598 0.103495 -0.0288212 0.00153175 0.00660888 0.020697 0.0356979 -0.0267515 -0.00382946 -0.0664323 0.0306291 0.00991344 0.0239373 0.0232059 0.0119147 -0.0234535 0.019902 0.00838717 -0.0766969 -0.0564113 0.031395 -0.0299177 0.111016 -0.0176469 0.0393053 0.0515872 0.084612 -0.0195499 -0.0573445 0.00581885 -0.114458 -0.049038 0.0326995 0.0147526 -0.066221 -0.0705843 0.0150429 -0.0610465 -0.00520737 0.0782464 -0.0902819 -0.0290577 -0.0203579 0.0995034 0.10155 -0.0331365 -0.0404568 0.0989598 0.00163199 0.0139646 -0.00905332 -0.02795 0.0331523 -0.0179067 0.16166 0.0598551 0.0770213 -0.056733 0.0485494 -0.0481157 -0.0415322 0.0806841 -0.0182196 0.0585273 0.116928 -0.0211536 0.0619736 -0.0393726 -0.042344 -0.134244 -0.029335 0.0525782 0.0575407 -0.0255834 0.0929405 -0.0967057 0.0508116 -0.0569793 -0.00799495 -0.082181 0.0203211 -0.0136535 0.0173675 -0.0106964 0.0480534 0.0270174 0.052494 0.0804629 0.0404158 -0.0149623 0.0608843 0.094646 -0.00518949 -0.0432865 0.0278421 0.0115302 0.0514532 -0.0408057 0.00637028 0.00879897 0.0507548 0.0287866 -0.00387075 0.0323616 -0.0714588 -0.107973 0.0707548 0.0648693 0.109446 0.060931 0.0429594 -0.0419478 0.0521218 0.0933749 -0.0286573 0.0644917 0.0522095 0.0159699 -0.110844 0.0367607 -0.0398744 0.0766052 -0.0391411 0.0295761 0.0209893 -0.00808364 0.0299174 0.0228668 0.0505554 -0.0442605 0.0419967 0.0693379 0.0281347 -0.0177874 -0.056237 0.101353 0.0518498 -0.070747 -0.145013 -0.0119446 -0.0518703 -0.0771219 -0.0744725 0.0134996 -0.0256466 0.0946299 -0.0519234 -0.0293674 0.00391702 -0.0424771 -0.0534731 -0.0147166 0.0923695 -0.0127365 -0.0781086 -0.0224111 0.0923931 0.00112728 -0.110115 0.116983 0.059195 -0.0735312 -0.0375711 0.0515822 0.107565 0.0687789 0.0351937 -0.0271814 0.0697582 -0.0281841 0.00445816 -0.00151922 -0.0305867 -0.0200944 -0.0515039 -0.0475882 -0.0455151 0.0408762 0.0390922 0.01627 0.0242031 -0.0314015 0.0283457 -0.0986627 -0.0279985 0.0291358 -0.0242242 -0.00993304 0.0116149 -0.0552633 0.0440575 -0.0348396 -0.00379914 -0.0518474 0.00674955 0.0618076 -0.00529538 -0.0763387 -0.0757864 -0.0456963 0.00767798 0.0795275 -0.00924874 0.00336287 0.109761 0.0476978 0.0239624 -0.0409588 -0.0198547 -0.0740215 0.0261384 -0.0553947 0.0703057 0.14195 0.0457228 -0.047984 -0.0448055 0.036126 -0.108823 0.0485922 0.0622377 0.0411935 0.0642853 0.0746678 -0.00672125 0.00836408 0.0579447 0.0162693 0.194496 -0.00585472 -0.0771447 -0.0781455 0.0290298 0.0344223 0.0858827 0.0220537 0.00188917 -0.10213 -0.0143964 0.110184 0.0411588 0.00938967 -0.012188 0.0456886 -0.00125214 -0.0175976 0.00323553 0.0653044 0.0254492 0.00992882 0.0306735 0.0920367 0.0639398 0.047569 0.0355456 -0.132677 -0.056974 -0.153541 -0.0336433 0.116656 -0.0197769 -0.000418718 -0.00469148 0.0294277 0.0449169 0.0527371 0.00251442
salade -0.0721505 0.0579775 0.0168676 -0.0323298 -0.068034 -0.0337706 -0.00738458 -0.107231 0.132333 0.038329 0.0180833 0.0885072 0.0582631 -0.0714643 0.0582353 -0.11043 -0.0234708 0.0523995 0.0176816 -0.0541361 -0.00436987 -0.0714067 0.135616 0.0259038 0.0260286 -0.0259744 -0.0778247 -0.00903977 0.043565 -0.0554903 0.000727195 -0.015512 -0.118228 -0.0675505 0.0436175 0.0180613 -0.0271427 -0.0186337 -0.0475521 -0.0302562 0.00452159 0.00736185 -0.0218666 -0.0142026 0.037543 -0.0253905 0.0151015 0.00896384 0.00230581 0.050988 0.0283399 -0.0169694 -0.0155726 0.0513025 0.0183816 -0.020933 -0.0355918 -0.0370649 0.109171 0.0843828 0.0215458 0.00899423 0.0296986 -0.082807 -0.0515595 -0.0279523 -0.0544288 -0.0320296 0.0757125 -0.00618292 -0.0200136 0.00834392 0.05469 -0.0355202 0.0340194 0.051575 -0.0134274 -0.0272664 -0.030893 0.00885286 0.028481 -0.0163192 -0.0136059 -0.00182632 -0.0533304 0.0559874 0.0226183 0.0490658 0.0865728 0.000483238 0.0340418 -0.0938922 -0.0312884 -0.0373766 0.0542465 -0.0160465 0.0270314 0.024469 0.101231 -0.0611448 -0.00592354 -0.0314071 -0.0563355 -0.0445329 0.0201732 0.0442812 -0.0305993 0.029693 0.028019 -0.0192284 -0.0342021 0.00465652 -0.12248 0.0441543 -0.0316411 -0.0765926 -0.0235584 -0.0275213 0.067573 0.0640484 0.0486225 0.0444852 0.029405 0.0804242 0.0621978 -0.0394432 -0.0321076 -0.0505833 -0.0800726 -0.0237971 -5.10078e-05 0.0690192 -0.0422659 0.141936 0.0415375 -0.0292409 -0.0799959 -0.0277591 -0.0145217 -0.0238421 0.00404155 0.0156371 0.0664438 0.0961437 0.0479169 0.0730755 -0.078909 -0.0177707 0.0843106 0.0515716 0.03718 -0.0351449 0.0575762 -0.0676094 -0.00348447 -0.0570168 -0.00590089 -0.101573 0.0606184 1.61664e-05 0.041866 0.0570822 -0.153774 0.0253953 -0.00860864 -0.0175076 -0.0790493 -0.130653 0.13632 -0.0444514 -0.0648288 -0.181803 -0.0186268 -0.00880185 0.0269622 0.172945 -0.0129157 0.032023 0.0186651 0.0345154 -0.0162744 -0.0170856 0.0112015 -0.0310396 -0.0384623 0.0812099 -0.0855215 -0.0410739 0.0197651 0.00997857 0.0486515 -0.0644421 -0.00783041 0.111388 -0.0653726 -0.0641509 -0.0419861 0.0836823 -0.0645873 -0.0575596 -0.051025 0.0752569 0.136218 -0.0624398 0.113333 -0.0295828 -0.0133613 -0.0158177 0.0157118 0.0234476 0.176614 0.0283017 0.0238609 0.00491152 -0.0117009 0.0362381 0.0152948 0.00356683 -0.00446913 0.0305664 0.0475962 0.0560692 -0.099998 0.00703868 -0.103353 0.0305682 -0.0389627 0.0971171 0.00185631 -0.0473283 -0.0658534 -0.0219954 -0.074279 -0.0605544 -0.00163531 -0.0109852 -0.0318723 0.0949632 -0.012527 -0.0596632 0.0564208 -0.0141838 0.0736631 0.0372948 -0.11139 0.0716574 0.109928 0.0299017 0.0110243 -0.0854265 0.0317061 0.0762653 0.0146939 -0.0136485 0.0432723 0.00392117 0.0581136 -0.0659349 0.0450211 -0.0845434 0.00322158 0.104984 0.0746966 -0.0255291 -0.138714 -0.0363922 -0.135146 -0.00758608 0.0316677 0.0536671 -0.0220097 -0.0495324 0.016159 -0.00714851 0.00626641 -0.122064 0.0568677 0.0792717 0.00424909 0.0157691 0.0962153 0.0489987 0.0359952 -0.0221049 -0.000735625 -0.0171088 -0.00652181 0.0163943 0.00184178 0.0124471 -0.0335184 -0.0750795 0.0211451 -0.0652923 -0.0856174 0.0744882 -0.00773444 0.069028 0.00989841 0.0352926
jambon 0.017597 0.0727985 -0.00355949 -0.0951058 0.0364852 0.0372569 0.0281097 -0.0322981 0.0573061 0.00951712 0.0338924 -0.0545637 0.0440439 -0.0460139 -0.0104761 -0.108588 -0.0637181 -0.0360116 -0.0618244 0.039286 0.0585041 -0.0695761 0.0745066 0.0386248 -0.0149229 0.0245123 -0.096926 -0.0649386 0.00338024 0.0219737 0.073256 -0.0462408 -0.0370041 -0.0344097 0.0640975 -0.0075411 0.0567169 -0.0205044 -0.0477156 -0.0338356 -0.0283204 0.0616658 -0.040578 0.0275202 0.0918381 0.0613385 -0.0721709 -0.0698797 -0.0108174 0.0410629 0.0484555 -0.0296009 0.0352002 0.0111364 -0.0280034 -0.0224674 -0.0454589 0.0273911 0.0654465 0.107994 0.0598436 -0.0508034 0.0616031 -0.0166133 0.0353231 -0.0617311 -0.0107597 -0.0339017 0.0277489 0.0107388 -0.0134748 0.0173832 0.0854399 0.00108295 0.0151385 0.0759157 0.00937517 0.0266032 -0.0192153 -0.0331622 0.00190984 -0.00099145 -0.0311435 -0.0391938 -0.0191138 0.0575788 0.0273962 0.0428779 0.10477 0.0341185 -0.03825 0.0183448 -0.0824554 -0.0607338 0.0408166 0.0546063 0.0230388 0.0119619 -0.0183273 -0.0426898 -0.0157185 -0.0441832 -0.0639784 -0.0627582 -0.000928973 0.0320027 0.0085337 0.0250751 -0.0264225 -0.0209883 0.0491218 0.00333777 -0.10954 0.081094 -0.0689239 -0.0435431 -0.0285054 0.0176149 0.0677762 -0.0148348 0.00662044 -0.00917662 0.0157209 0.0772668 -0.0456044 -0.0674614 0.0184902 -0.0212901 0.000835364 0.0400089 -0.0305837 0.0385484 -0.0356041 0.0660415 -0.0071582 0.0269371 -0.0223646 -0.0161441 -0.0692305 0.0141092 0.0738973 0.0584492 0.0186854 0.0835657 0.0311465 0.133561 -0.0371513 -0.00218296 -0.0171283 -0.00715497 0.0211024 -0.0161698 0.000954922 -0.00928657 -0.063892 0.0343951 -0.0235283 -0.0729877 0.0882308 -0.0173169 -0.0186608 0.0709733 -0.0765074 0.0270616 0.0262599 0.0157264 -0.0871749 -0.080931 0.169044 -0.0867062 -0.097679 -0.196948 0.0259657 0.0571189 -0.0528602 0.0915266 0.046296 0.0458749 -0.00494133 -0.0464996 -0.00705394 -0.0138068 0.0469579 0.0503165 -0.0243218 -0.00122494 -0.0722279 -0.0309343 -0.109552 0.118885 0.0490333 -0.0400977 0.0384886 -0.0154077 -0.103415 -0.090635 -0.0782407 0.0882159 -0.135472 -0.0142972 -0.0199624 0.0784002 0.0841503 -0.094774 -0.0174187 0.0102668 -0.060308 0.0447407 0.0541633 -0.0738695 0.1461 0.0121136 0.028473 0.0162178 -0.000747272 0.0737409 -0.0269313 -0.135182 0.0129952 -0.0619632 0.0110617 0.0321554 -0.113457 0.0182736 -0.0493677 -5.46713e-05 -0.0964959 0.0239653 0.0340905 -0.00399471 -0.0685605 -0.0105272 -0.096448 -0.00988482 0.0529252 -0.00111531 -0.0481057 0.0303477 0.0600744 -0.0170022 0.0748011 0.00337426 -0.0314195 0.0441618 -0.115493 0.0406592 0.195198 0.0455949 -0.111736 0.00799512 -0.0385013 0.0580529 0.0613688 0.0450428 -0.0231688 -0.0220989 0.0868682 -0.0103788 0.0200914 0.0203533 0.00495781 0.128675 0.133148 -0.0488526 -0.088834 -0.0763115 -0.0126181 0.0604714 -0.0258669 -0.0299953 -0.134957 -0.0274822 0.0921038 0.0548767 0.0677786 -0.110154 0.0359192 0.0634288 0.0378868 0.00235361 0.05643 0.0650619 -0.0311895 0.051633 0.0162769 -0.0110582 0.00281544 -0.0320503 -0.0379693 -0.0383281 0.0209728 -0.0129784 0.0793507 -0.0223588 -0.0383866 0.109149 0.0109635 0.144305 0.020286 0.00196365
volaille 0.00986648 0.096502 -0.0518916 0.0366567 0.025573 0.0755606 0.067372 -0.130944 -0.0127087 0.00812081 0.0147766 0.0484901 0.057625 -0.0672584 -0.0495795 -0.0365336 -0.0437652 -0.0628147 0.0367243 -0.00478368 0.0442926 -0.0716646 0.0683209 -0.0375649 0.0159875 0.00520297 -0.0269029 -0.0488736 0.113773 0.0962465 -0.01536 0.0188551 -0.0575578 -0.00673134 0.0742523 -0.00968838 0.0528416 -0.0611762 -0.038949 0.0516189 0.0563988 -0.0172487 -0.0169888 0.0192826 0.0193302 0.0210104 0.00329045 -0.0230518 0.00960835 0.0515546 0.0680138 -0.027292 -0.0502631 -0.0596387 -0.0644139 0.00270715 -0.031361 -0.0366207 0.0382056 0.0394161 0.0328388 -0.0695513 0.00952648 -0.0491816 -0.0459173 -0.06926 -0.0418055 0.0116632 0.0383463 -0.00636911 -0.0637936 -0.0635217 0.0922583 -0.0524916 0.00767613 0.078643 0.0128688 0.1382 -0.0657144 -0.121081 0.083794 -0.0229154 0.0461701 0.0093079 0.00367216 0.0288776 -0.0238094 0.136434 0.158472 0.0997728 0.0125734 0.0464058 -0.0543288 -0.079754 0.0043297 0.018596 0.00740987 0.0515486 -0.0059078 0.0557658 0.032665 -0.0365862 -0.116166 -0.0891396 0.00512476 0.10225 0.0460373 -0.00627909 -0.0663158 0.015395 -0.153126 0.0524598 -0.125216 -0.0399541 -0.0144363 0.00573556 0.0498174 -0.0463688 0.0370184 -0.00971905 0.029975 -0.0258476 -0.00348145 0.101756 0.00516177 -0.0027011 -0.00666656 -0.00775192 -0.0351146 0.00212315 -0.079205 0.0151404 -0.00147283 0.128717 0.0486381 0.0479877 -0.0344127 0.0147469 -0.10847 0.0192691 -0.0840406 0.105913 -0.0186702 0.0155954 0.0209317 0.126908 -0.0219176 -0.0384503 0.0923284 0.0479109 0.00807313 -0.0342343 0.000206435 -0.0589817 0.0282214 -0.00762827 -0.0278904 -0.00167826 0.0707547 -0.0566843 -0.00839245 0.0343577 -0.0858035 0.0311609 0.0337386 0.0218033 -0.0405462 -0.0979313 0.192656 -0.0552131 -0.0860519 -0.12106 0.00830737 0.00677243 -0.0692073 0.0578672 -0.0402807 -0.0867465 -0.00332203 0.0211533 0.00227612 -0.0647849 0.0895499 0.00920165 0.0150149 -0.0354907 -0.0623383 -0.0696078 0.0329471 0.062031 0.0795136 0.00932651 -0.0244891 0.0445353 -0.0903566 -0.0283677 0.0218487 0.0123568 -0.0902242 0.00808598 -0.0378546 0.140265 0.00509791 -0.0291099 0.0955217 -0.0431751 -0.0939836 -0.0170447 0.0340798 -0.0189797 0.13585 0.0274055 -0.0123 0.0546366 -0.012931 0.0267922 -0.0308855 -0.0613195 -0.0538411 -0.0111198 -0.0500619 0.085449 -0.0570129 -0.00723765 -0.107867 0.0271519 0.0211695 -0.000783778 -0.0247341 -0.0689584 -0.00383936 -0.0788084 -0.0525687 -0.0185432 0.0414413 -0.019473 -0.000700896 -0.027361 0.034506 0.0141577 0.0516269 0.0754304 0.0766585 0.0147268 -0.0968594 0.0577166 0.140287 -0.0025127 -0.121233 -0.0282987 0.0339808 -0.0199275 0.0555111 0.0568369 0.0187538 0.0081613 0.0667158 -0.0501558 0.063582 0.048385 0.0237991 0.0829868 0.0539963 0.00710874 -0.0778622 -0.00923571 -0.00728365 -0.0288315 0.0407551 0.0193308 -0.0796809 -0.00195491 -0.011711 0.0323713 -0.0222914 -0.092036 -0.0319297 0.0521439 -0.0239529 0.0122382 0.0191866 0.0487251 0.00363604 0.0388865 -0.0385761 0.0203775 0.00970864 0.0498132 -0.105987 0.0509312 0.0098994 -0.0262957 0.0471577 0.0306356 -0.10529 0.0885457 0.0519344 0.157212 0.0265208 0.0281725
spaghetti 0.0484585 0.00397939 -0.00184412 0.0222739 -0.0595174 0.132868 0.0995533 -0.000197052 0.0269573 -0.0211876 -0.0730659 0.0443433 -0.0564415 -0.111272 -0.0222301 -0.0348446 0.0291844 0.0198022 -0.0250553 -0.0261854 -0.063183 -0.00270985 0.0103582 0.0759319 0.0183211 0.0397652 -0.0675647 0.0226797 0.0562385 -0.0327519 0.000696487 -0.00742814 -0.0979248 -0.0550022 -0.00161605 0.0541044 0.0547963 -0.0798691 -0.0555876 -0.100407 -0.0991394 0.0330055 -0.00610081 -0.0336426 0.0136682 -0.0512738 -0.119546 -0.0668552 -0.0251316 -0.00357505 0.0227398 -0.0791469 -0.0323727 0.0368906 -0.015818 0.109952 0.0176844 -0.0231089 -0.0560426 0.0635301 0.0495401 -0.0547764 0.0420014 0.0561071 -0.0253317 -0.0626569 0.00181503 0.0452221 -0.00603417 0.0207445 0.0408244 0.000681983 0.0678973 -0.0200243 -0.00780833 0.0785822 -0.0333458 -0.0325241 -0.0213632 0.087535 -0.0501219 0.0757877 -0.0117999 -0.0896557 -0.0204622 0.0143666 0.110674 0.0545863 0.0242783 -0.0743824 0.0552938 -0.0444168 -0.00842551 -0.0966938 0.0899954 0.0131111 -0.0475646 0.019174 -0.0275659 -0.0430169 -0.0645093 -0.038711 0.01737 0.00721328 -0.0427774 -0.0346302 -0.0947717 0.0307863 0.0243356 -0.023753 0.0221341 0.0289633 -0.134519 -0.00754808 -0.00527399 -0.0128874 0.0159337 0.00093619 0.0485466 -0.00785804 0.125173 -0.0330526 -0.0507201 0.0494172 0.014494 -0.137481 0.0454569 -0.00297685 -0.0683315 -0.0476858 0.0312969 0.0713078 -0.0522809 0.0238645 -0.0279189 -0.000232312 -0.0633887 -0.0556554 -0.0497807 -0.0440024 -0.00262615 -0.0587245 0.00995458 0.0797255 -0.0777524 0.076469 -0.16112 -0.00395233 -0.0576876 0.094813 0.0203268 -0.139381 0.0162215 -0.0621291 -0.0748593 -0.0226051 0.0737811 0.0167333 -0.0056385 0.0606455 0.00889362 0.0781257 -0.0462887 0.0353512 0.114016 0.0325564 -0.0411862 -0.110198 0.0716834 0.0805965 -0.111837 -0.00788092 0.0725104 -0.00762435 0.0518413 0.0418496 -0.0618306 0.0336593 0.108879 -0.0279516 0.00319898 -0.0549142 0.0111995 -0.020028 -0.0467498 -0.0145589 -0.0592677 -0.0440131 0.0344967 0.00407074 0.0241582 0.010925 0.0584784 0.0121891 -0.0332588 -0.0138357 -0.0655002 0.0566584 -0.109265 0.0185156 0.0328642 0.11234 0.0611434 -0.00182697 0.0414031 0.0153238 -0.0294261 -0.0862749 0.0759256 -0.0261237 0.148762 0.082107 -0.0165338 0.0337059 0.0511753 -0.0855516 -0.0694565 -0.0614334 -0.00631665 -0.0205527 -0.059404 -0.112828 -0.0022047 0.00122166 -0.0281303 0.00507412 -0.0875651 0.00549728 0.00110567 0.025122 -0.065663 0.034702 0.0461908 -0.0909157 0.0540672 -0.0153144 -0.0610388 0.139807 -0.0171084 -0.0680743 -0.00228844 0.0434217 -0.0251409 0.11343 0.0236507 -0.0123895 0.0388715 0.0336603 -0.0150306 -0.00494277 0.0165191 -0.0253046 -0.00148942 -0.031996 -0.0107986 0.00466688 -0.0220661 -0.131489 0.0144894 -0.00293036 0.0265576 0.0856211 0.0651215 -0.066435 -0.0974392 -0.0441987 -0.0823574 -0.0628509 0.0670377 -0.0937432 -0.0998314 -0.0452919 0.0247783 0.0395225 0.0539478 -0.0574611 0.0601272 0.0140187 -0.0517488 -0.116252 0.113465 0.0181346 0.0165887 -0.0103454 0.113936 -0.0539495 0.0779267 0.0628357 0.106174 0.0636747 -0.0710713 -0.0799005 0.0641535 0.0427467 0.0175791 -0.0482146 -0.00461007 0.0609619 0.0129146 -0.0209446
hamburger -0.00461834 0.00915426 -0.0622378 -0.0352637 0.0301618 0.0168306 -0.0690228 -0.02739 -0.0266881 0.0667077 -0.0314553 0.024718 0.0877059 -0.00597596 -0.0040903 -0.0743447 -0.0736848 -0.0332858 -0.00628845 0.0201868 0.047924 0.00495369 0.0445934 0.00705985 0.0958408 -0.0605554 -0.00635501 -0.044415 0.0329261 -0.0123862 -0.00845026 0.0752752 -0.0139328 0.0239482 -0.0196895 0.0203166 0.00110909 -0.0979045 -0.0633123 -0.00292518 0.00516293 0.0213719 -0.0735125 0.0902035 -0.0790695 -0.0401429 -0.00273777 0.0224083 0.0504404 0.0327404 0.0179328 -0.0295179 0.0287816 -0.00565518 0.0340633 0.0124131 0.00358729 0.0671644 -0.0129533 0.0911942 0.0855201 -0.0791683 0.0871681 -0.123198 -0.0613906 -0.00855054 0.0209377 0.0476189 0.0303718 -0.13171 -0.0145843 -0.0538523 0.0390068 -0.0773117 -0.0114043 0.0816788 0.0772519 -0.0537367 -0.0640646 -0.0677032 0.0737444 -0.0262113 0.0157832 -0.0364587 0.057884 -0.029408 0.0537088 0.0390949 0.0734622 0.0659699 0.0734685 -0.0465973 -0.0155825 -0.0451341 0.0268046 0.0678013 -0.0839822 -0.0030211 -0.0456721 0.0059638 -0.00361818 0.0119276 -0.0713759 -0.0212475 0.0456216 0.0880263 -0.0547023 -0.0102931 0.0919443 0.0446182 -0.0811093 -0.0353588 -0.0073243 -0.0254015 -0.0355108 -0.0502069 0.015484 -0.0457336 -0.0822077 0.021148 0.0412539 0.0610268 -0.0469385 0.039791 -0.115554 -0.0498959 -0.048945 -0.013091 0.00434423 0.0674149 0.0329933 0.0833224 -0.0380637 -0.0519332 0.0417622 -0.0293337 -0.117583 -0.0422396 0.0258296 0.0177541 -0.00818992 0.0375409 0.0390533 0.0396005 0.064003 0.0739369 0.0244335 0.0599472 0.0291138 0.0113642 0.0148636 0.0258765 -0.0752824 -0.0300771 -0.09942 0.0215755 0.0701388 -0.0824447 -0.0561404 0.0839259 0.0140596 0.102437 -0.0368487 0.0912011 0.0365817 -0.0463952 0.0091796 0.0443004 0.137141 -0.00721831 -0.123901 -0.0654366 -0.0525053 0.050108 0.011881 0.0313261 -0.0269897 -0.0689355 0.00675986 -0.0426131 -0.0822778 -0.0791189 0.00937523 -0.0430876 -0.13205 0.064644 0.0690502 -0.0234568 -0.0445356 0.051035 0.0324556 -0.0133325 -0.0323236 -0.036847 -0.0730273 -0.0217157 0.0552752 -0.0103907 -0.17034 -0.0823525 0.060415 0.145509 -0.00368473 -0.00205525 0.0212786 0.063292 -0.0125628 -0.0114783 0.0405367 0.0310134 0.107685 -0.0825125 0.00322878 0.0792246 -0.00245379 0.0378422 -0.00948845 -0.00596089 -0.0358234 0.0336353 -0.0502176 0.0172394 -0.0909586 0.0107163 -0.061834 0.0629975 -0.0687558 -0.00190033 0.105342 0.0355999 0.0201654 -0.035113 0.0014542 0.0214836 0.0549477 0.0169325 0.0734433 0.0915506 -0.0737167 -0.0637162 -0.0283765 0.0833209 0.0630599 0.0418881 -0.0496786 0.0143678 0.00333024 0.0107006 -0.0747436 -0.0801007 0.0586469 0.0280816 -0.100756 -0.0146964 0.0473525 0.0407675 0.00918824 -0.0563077 -0.0210774 0.0264627 0.0277526 0.203769 0.0969362 0.0961944 -0.109377 0.0933441 -0.0763451 0.0429591 0.0561701 -0.0922818 -0.0896647 0.0452345 -0.00321506 -0.00687396 9.81914e-05 -0.0118424 0.0443103 0.0824684 0.0294913 0.0397801 0.0717515 -0.0774742 -0.0546043 0.0619436 -0.0508702 -0.0317013 -0.0518878 -0.0287434 -0.0560602 0.0148158 -0.107864 -0.0821635 0.0854495 0.00877663 -0.144023 0.0418057 -0.0327791 -0.0287125 -0.0534539 -0.0588756
céréale -0.0877809 0.0473405 -0.0265373 0.0130845 -0.00590467 0.0264946 0.0840518 -0.177555 0.0854045 0.017529 0.0812232 0.0512874 0.0778881 0.0186631 0.0405869 -0.0841448 -0.0515612 -0.0133479 0.0485089 0.0419606 0.0255852 -0.0413268 0.0219706 -0.0267218 0.0110698 0.0147613 -0.00932773 -0.0913018 0.0456391 -0.0333701 0.0164327 0.0672395 -0.114605 0.123625 0.0735268 -0.0134542 -0.0300735 -0.0522959 -0.037872 0.00658535 0.0351659 -0.00389679 0.0185005 0.128846 0.0363763 0.0103775 0.0685275 0.0324987 0.0254331 0.0154416 0.063577 -0.0478111 -0.0153787 -0.0299394 -0.11234 0.0402817 0.0293898 0.0160225 0.00885297 0.00683695 0.00582964 -0.0337057 0.0428393 -0.0158555 -0.0176744 -0.151771 -0.0612031 -0.0454488 0.0145929 -0.0170073 0.0212148 0.0378689 0.121203 0.030818 -0.0592727 -0.0416578 -0.00120651 0.0882963 -0.0837232 -0.0491063 0.0398299 0.00264103 0.054177 0.0085961 -0.0206901 0.00407174 0.0570543 0.0727576 0.109103 0.0213002 0.0809477 -0.0662511 -0.0107391 -0.0407048 -0.04299 -0.061905 -0.035908 0.0393347 0.0435685 -0.0535056 0.0755675 -0.0808472 -0.0501042 -0.0676424 -0.0404025 0.0476706 0.000565848 0.0656782 -0.036872 -0.0956616 0.053504 -0.0187184 -0.0519237 0.0245324 -0.0603507 -0.0479165 0.0592494 0.0449337 0.0696393 0.00153251 0.0687289 0.0396831 0.013677 0.0883109 0.0252801 0.0207534 -0.0965448 -0.0580752 -0.0370424 -0.00706275 0.0185023 -0.0104202 -0.0325763 0.0485066 0.0185954 0.0341416 0.0223014 -0.0311944 -0.0247027 -0.0789635 -0.0568456 0.0353534 -0.0044613 0.00716081 -0.00121987 0.101471 -0.0328895 0.0300567 0.0301925 0.0490921 0.049433 -0.0113119 -0.0713174 -0.0469915 -0.00331419 -0.0341761 0.0235477 0.00310006 0.0724154 -0.0519784 -0.021542 0.0691663 -0.0762074 -0.0385885 0.0114947 0.0454753 -0.00626806 -0.0735782 0.1334 0.0457806 -0.0955809 -0.167694 0.0394379 -0.0852421 -0.0899905 0.078984 -0.0317496 -0.0537515 -0.0140563 -0.00621664 -0.00273763 -0.0253966 0.0249153 -0.030863 -0.0556388 -0.0782122 -0.0584093 -0.082661 0.071362 -0.0319185 -0.00330733 -0.0971282 0.00553254 0.0420361 -0.0894089 0.0151544 -0.014323 0.026216 -0.0201046 0.0406506 -0.16982 0.0425971 0.00920805 -0.0360135 -0.00760245 -0.0245055 -0.110323 -0.0479855 0.0405735 0.0350783 0.130981 -0.0378078 -0.0242821 0.018501 0.00418192 -0.0175067 0.0148967 -0.0436795 -0.0328803 -0.00319291 -0.0356959 0.0547601 0.0411063 0.0253085 -0.035188 2.55843e-05 -0.0158417 -0.0362305 0.0322471 -0.075096 0.0231613 -0.034178 -0.0440724 -0.0322392 0.0418807 -0.110454 0.0134162 0.0641394 0.0190117 -0.058899 0.0308611 0.0386373 -0.00258692 -0.0713865 -0.00491502 -0.00432387 0.0667847 0.00675153 -0.0359589 -0.0694413 0.0220114 0.0309542 0.0895568 -0.0248511 -0.0684078 0.0185127 0.081302 -0.118824 0.142835 -0.0207869 0.0160637 0.0826489 0.0498651 0.0442335 -0.140889 -0.054538 -0.0317138 0.00205116 0.041759 0.0108235 -0.124565 -0.0924902 0.0857556 0.0310437 0.0181199 -0.111666 -0.00950908 -0.0311626 0.0464841 -0.059721 0.125923 0.034554 -0.0369036 -0.0665491 -0.105502 -0.0225088 -0.00310863 0.0695957 -0.0714285 0.0205669 0.0248055 -0.0352085 0.0944973 -0.152647 -0.0903262 0.0495796 0.069899 0.0458513 -0.0232964 0.0411043
dinde -0.0382875 0.04197 -0.0339381 -0.0640613 0.0161433 0.0569237 0.017385 -0.0577189 0.0188306 0.0098967 0.0304889 0.0284577 0.031918 -0.0565468 0.00485063 -0.0560825 -0.0432992 0.0318508 0.0564613 0.032771 0.0381573 -0.0300934 0.113531 0.0480316 0.0408154 -0.00517494 -0.0471312 -0.0386653 0.0781235 0.0237377 0.00404947 -0.0162872 -0.0613247 -0.0728245 0.0457742 -0.00705417 0.0487354 -0.0452444 0.0576495 0.0376525 0.0217476 0.0719808 -0.0835966 0.0584846 0.0286665 -0.0175548 0.0113659 -0.07664 -0.0123207 0.010131 0.0183759 -0.031618 -0.00332694 -0.0356947 0.01986 -0.00837807 -0.0434726 0.0429233 0.0527575 0.0546212 0.0504586 -0.0163888 0.0178496 -0.0105924 0.0137976 -0.0344201 -0.0645574 -0.0515263 0.0492623 -0.0873971 0.0176039 -0.0522298 0.065386 -0.0456739 -0.0158314 0.0651217 -0.00682246 0.0502536 -0.0470777 -0.0183651 0.0115439 -0.0219911 0.0624053 0.033614 0.0653637 0.0484866 0.00220524 0.121403 0.124797 0.0231047 0.0158201 -0.0334132 -0.053977 -0.0304721 0.000254007 0.070197 0.0374743 0.0289876 -0.0614343 0.00864436 0.0670831 0.0805725 -0.0605997 -0.0258136 0.0142226 0.040551 0.0212845 0.0711011 0.0137574 -0.0324742 -0.0500734 -0.0149289 -0.160672 -0.0345467 -0.0503034 -0.103514 0.0421343 -0.0792075 0.0164109 0.00890226 0.0473061 -0.0458182 0.00533948 0.0472462 0.052836 -0.0526416 -0.0289425 -0.0888865 0.035936 0.0461217 -0.151584 -0.00471639 -0.0432283 0.126275 0.0225504 -0.0173288 -0.0541287 0.0271089 -0.0913738 0.0615772 0.0182475 0.0963945 0.0345073 0.0112641 0.0164854 0.129285 -0.0256861 -0.0630697 0.047603 0.0349963 0.0331434 -0.0149379 0.0387356 -0.0020875 0.0169887 0.0354591 0.0156986 -0.0391415 0.105717 -0.108547 0.0499028 0.0540793 -0.148976 0.0880537 -0.021039 0.0516576 -0.0208203 -0.0780983 0.123111 -0.0400005 -0.0677738 -0.0841926 -0.0322171 -0.0525465 -0.0159905 0.0777201 -0.0730795 -0.00897472 0.0240965 -0.114379 -0.00270454 -0.0837136 0.115904 -0.00519123 -0.101816 -0.071113 -0.00441884 -0.0618962 0.0469402 0.0579268 0.0107848 -0.0982683 -0.0281993 0.0671414 -0.13455 -0.00445088 0.024131 0.0468832 -0.0650342 -0.0376784 0.0426335 0.233864 0.132128 -0.0311114 0.103573 -0.0205824 -0.0929096 -0.0308658 -0.0225005 -0.0115579 0.141389 0.0761911 0.0437002 -0.00870548 0.0238987 -0.0211965 9.35771e-05 -0.0598607 0.00320801 0.0453816 -0.0185905 0.0218756 -0.0819991 0.0142385 -0.0884973 0.0148267 -0.0771865 0.0869387 -0.0679432 -0.0256334 -0.00406808 -0.0222994 -0.0144158 0.0395148 0.0425898 0.00970995 -0.0521322 -0.0238206 0.0524723 -0.0492815 0.025373 0.108972 0.0818941 0.0682792 -0.0427698 0.0751536 0.148702 -0.0442411 0.0287858 0.0124365 0.00111555 0.0391801 -0.0534907 0.045324 0.00632461 0.00701108 0.0653397 -0.0370301 0.0513964 0.0532919 0.105495 0.125349 0.0679515 0.0221578 -0.065541 -0.0199312 -0.0703638 0.0803811 0.0689394 -0.0225655 -0.020587 -0.0599943 0.0381339 -0.0342905 0.00275499 -0.11095 0.00243634 0.00268125 -0.0100933 0.0185212 0.043718 0.0246359 0.0273821 0.0294341 0.0392389 0.0214718 0.0291273 -0.012881 -0.0215045 0.0763746 -0.00178778 -0.0836355 0.0209216 -0.0451101 -0.0695512 0.0270481 0.0443165 0.0554413 0.0740501 0.076309
gnocchi 0.0545209 -0.0116183 0.0204505 -0.00993375 -0.0800068 -0.0296811 0.00787188 -0.0289923 0.0469061 -0.0397593 0.00466105 0.0799732 -0.0272165 -0.011782 -0.00549216 -0.0873507 -0.0665302 0.0188648 -0.0723134 -0.0259213 -0.0794885 0.0361929 0.049909 -0.00123977 0.0599138 -0.0508447 -0.00988307 -0.133249 -0.0138006 -0.115451 -0.0731058 -0.0382744 -0.0487053 -0.117505 0.042648 0.0104146 -0.0676011 0.0142664 -0.0132545 -0.0657476 -0.0131244 -0.000169464 -0.0235782 0.0353889 0.0621933 0.0126366 -0.0688518 -0.0711897 -0.118753 0.00928815 -0.017049 -0.0690839 -0.0448145 -0.0327436 -0.0445626 0.011963 0.0362886 0.0517282 -0.0462013 -0.00712289 -0.00105633 -0.00714474 0.03545 -0.00509843 0.0556457 -0.0179708 0.00914563 0.0298844 0.0223315 -0.013739 -0.0387904 -0.0228496 0.0553738 -0.0159502 -0.0358466 0.0441469 0.00907355 -0.0115157 0.0370051 -0.0284419 0.0105363 0.152717 0.0439258 -0.0488056 -0.111969 -0.0187721 0.0467377 -0.0213676 0.0795633 0.0249123 0.0541348 -0.121716 -0.0660361 -0.10983 0.0263094 0.00166721 0.0178957 -0.0112454 0.0290815 -0.0790074 -0.00961171 -0.0264287 0.015195 0.0830316 -0.0855646 0.0338351 -0.0595114 -0.090504 -0.0641096 -0.0755517 0.00219363 0.110082 -0.0136468 -0.00481116 -0.0521848 -0.0230542 -0.0237172 -0.0416965 0.0732505 0.0460231 0.0153533 -0.0080806 -0.0111657 0.0636118 0.00031076 -0.017016 0.0183285 -0.0964456 -0.0466059 0.018123 -0.00856666 -0.00463997 -0.117963 0.0397225 -0.0423756 -0.0845258 -0.0216235 0.0185609 0.01431 -0.0146705 0.0543975 -0.0650356 -0.010201 0.0895715 -0.0418083 0.178391 -0.0508036 0.0143685 -0.0214426 0.0213532 0.0287041 -0.0694063 0.084914 0.0390168 0.0118077 0.0618971 0.0430855 -0.0191329 0.0154932 0.00673634 -0.0694426 -0.034307 -0.10111 0.0242662 0.0168166 0.0350091 -0.0426303 -0.0570215 0.102275 0.0395013 -0.0819892 -0.0309976 0.0490706 0.000376659 0.0595513 0.0767527 -0.0221855 -0.0307878 0.0332421 -0.0199723 -0.0494402 -0.0632474 0.036489 -0.0225875 0.0170221 -0.0374738 -0.0248474 -0.0456456 0.0434428 0.0143615 0.0237696 -0.0854273 0.0377502 0.0594325 -0.128014 -0.0244788 -0.00873702 0.072726 -0.0750741 -0.0916398 -0.0242264 0.120004 0.0946537 -0.0462287 0.0428835 -0.0373125 0.0108513 -0.0571695 0.0434189 -0.0173511 0.166343 0.0446957 0.0791843 -0.00831297 0.0210639 -0.02035 -0.0595961 -0.115153 -0.0272952 0.0231385 0.0222757 -0.0559956 -0.131701 0.0718903 -0.116895 -0.00820436 -0.134901 -0.0049887 -0.0284849 -0.0120151 0.0203212 0.00940773 -0.131649 -0.00464097 0.04861 0.0588366 -0.0908112 -0.026254 0.0148067 -0.0490285 0.0776988 0.00998683 -0.0357393 0.0329505 -0.0838719 0.0454441 0.0767575 0.0158807 -0.060798 -0.0266994 -0.00916545 0.0556687 -0.0387013 -0.025162 0.0660075 0.0734718 0.00342396 -0.0946355 0.0176445 0.0565307 0.0323315 0.136717 0.116569 -0.0240019 -0.0258487 0.0625779 0.0339009 -0.0841649 0.0307119 0.0292371 -0.129852 -0.0536006 0.0760401 0.0187619 -0.0109493 -0.0293795 0.0891088 -0.0124663 0.0257612 -0.138784 0.0765838 0.0148365 0.0711011 0.0389807 0.0559074 -0.0677709 0.00806623 0.0354617 0.0917709 0.0288801 -0.048441 -0.0899391 0.0951843 0.00955967 0.010944 0.0131494 -0.0690446 0.0945247 -0.0513332 0.0936532
