17 300
voiture 0.0161958 -0.0558894 -0.0246878 -0.00492127 -0.134575 -0.0815104 -0.0211033 -0.159348 0.00357712 -0.012855 -0.0449477 0.0174483 -0.0134211 -0.00222604 -0.0160263 -0.0221947 -0.00902032 -0.0207582 -0.0454101 0.0752932 -0.042587 0.0101511 -0.100736 -0.0935125 0.0484041 0.0184072 0.0109959 0.0729095 -0.0272898 0.0270145 -0.0437989 0.0987917 -0.018951 0.00533457 -0.0192999 0.0315254 -0.0498063 -0.0961135 0.0358994 0.0594416 -0.0519323 -0.0170912 -0.0396939 -0.0408883 0.0807698 0.0371502 0.00525108 -0.0625554 0.0860909 0.00596721 0.055339 -0.0980649 0.00320631 0.0606845 -0.0374502 0.0485542 0.0743153 0.14071 0.0503991 0.1124 -0.0193518 -0.00325185 0.0570683 -0.0167862 -0.0941134 -0.0826667 -0.0424836 0.00118679 0.0767066 -0.0437042 -0.0472672 0.0249723 0.0349407 -0.050124 -0.0212852 0.00429592 -0.0184715 0.102444 -0.0394629 0.0425835 0.0171254 -0.0282829 -0.0280389 -0.0471477 -0.0571874 0.0482793 -0.0531382 -0.0447311 0.0502233 -0.0538502 -0.00436726 -0.0506532 -0.0601146 0.0579838 -0.00415707 -0.0248898 -0.0336565 -0.0359865 -0.0504978 -0.101734 -0.0677875 -0.060291 0.0453038 -0.0220025 0.000687192 -0.0074311 0.0305039 0.0196054 -0.0349674 0.0422526 0.00302674 -0.0160637 -0.134949 -0.0295842 0.0183873 -0.063672 0.0760401 0.0196337 -0.123601 -0.0464206 0.10922 0.0141179 0.0772609 0.0501599 0.0493036 -0.0505954 0.0781662 -0.0229315 0.121217 0.0324219 0.00246776 0.0307507 -0.00357098 -0.00601331 -0.061715 0.0275381 -0.0260248 0.00557923 -0.125522 0.0389465 -0.0299589 0.018302 0.0428998 -0.0450371 -0.0339325 0.0467373 -0.0224724 -0.0431554 -0.00366816 0.0215634 0.0885443 0.010741 0.0091356 -0.111606 -0.0499047 0.0527751 -0.0213444 -0.0893734 -0.0310121 -0.120043 -0.00331828 -0.00582939 -0.117108 0.00268935 0.0194164 0.0152525 -0.0538732 0.00518009 0.0164879 -0.00213531 0.0642208 -0.0154796 -0.0393227 -0.01792 -0.108065 0.128998 0.0384836 0.0812193 0.0462656 -0.0989874 -0.000984471 -0.0856838 -0.0343145 0.00156283 0.0362425 -0.0314251 -0.0647861 -0.0784253 0.0613083 -0.00464024 -0.0848697 -0.0106267 0.082072 0.0489605 -0.0782106 -0.0520109 -0.0168287 -0.00482668 -0.00118932 -0.0656779 -0.0133873 0.15154 0.0588368 -0.0429646 -0.01595 -0.0697442 -0.0372007 -0.0717948 0.115408 0.0118989 0.128633 0.0470457 -0.0431648 -0.024043 -0.00620332 0.0412531 -0.0919222 -0.0981737 -0.00145702 -0.0187393 -0.0666053 0.0161268 -0.00530211 0.0474553 0.0148098 0.0322336 -0.0352838 0.033198 -0.0239752 0.0065023 -0.0498409 -0.09338 0.0502316 -0.0469309 -0.0384936 -0.0170802 -0.000996215 0.0808156 -0.0830688 0.0148548 0.0866003 0.0350641 0.0551632 0.0938632 -0.023091 0.0642033 -0.0506509 -0.0856778 0.00478861 -0.0463432 0.0120836 -0.0413438 -0.110464 -0.0533158 0.0349745 -0.0473186 0.0315799 -0.0979475 -0.0425099 -0.00512849 0.0106825 -0.0711719 -0.0554157 -0.0853476 -0.0822395 0.000474396 -0.135039 -0.0384489 0.0481688 -0.0499769 -0.0876485 -0.0344828 0.0179321 0.036434 -0.155817 -0.120291 0.0571347 0.0840406 -0.0166578 0.026335 0.0316654 -0.00349609 0.0420261 -0.05754 0.0977829 0.105383 -0.0403093 -0.0132964 0.000408431 0.0126648 0.0166103 -0.0455606 0.00288245 -0.083991 0.0544912 -0.0730279 -0.0677137 0.0524766 -0.023229 0.0032294
bateau -0.0403089 0.00955 -0.0572856 0.147201 -0.135662 -0.0102939 -0.078213 -0.0587053 -0.0290622 0.0158998 0.00912222 -0.107036 -0.053966 -0.0245065 0.0938845 -0.0239503 0.0304658 -0.0408351 -0.0170124 0.0489248 -0.0389242 -0.0481193 -0.000935872 -0.0180245 0.00985501 -0.0169513 -0.0486436 -0.0225521 0.0580083 0.058277 0.0152524 0.0302655 0.0290059 -0.0281804 0.0116051 -0.0145307 -0.0347984 -0.0832762 0.0384908 -0.0197928 0.0203632 -0.0139181 0.0266422 -0.00416864 0.033461 -0.0115893 -0.0131218 0.0113508 0.00134653 -0.033318 0.0680767 0.0417723 -0.0252 0.00201468 -0.00424555 0.00279036 0.0121817 -0.00452161 -0.00455461 0.0333706 0.0112671 -0.0592939 0.04497 -0.0974014 -0.0093486 -0.0446335 -0.0641426 -0.00714797 0.0259718 -0.046499 -0.00368115 0.0723493 -0.0242163 -0.0502285 -0.0535105 0.0367079 0.105311 0.0300219 -0.0458857 -0.0208415 0.0364791 -0.0164933 -0.0268677 0.00325553 -0.150435 -0.00295969 0.0219593 0.130631 0.0304844 -0.0783482 0.0206057 -0.0738567 0.0685277 0.0187066 0.117281 0.0767116 -0.0404769 0.00877274 -0.0438173 0.00559713 0.00406432 -0.043825 -0.0934959 -0.0226151 0.043264 0.0273947 -0.0590761 0.0611851 -0.117579 0.0724375 0.0757037 -0.0620973 -0.0580819 -0.0963919 0.0121435 -0.13723 -8.04441e-05 0.049683 -0.0150418 -0.0367627 0.0841812 0.0670152 0.0361371 -0.0617117 -0.0520022 -0.0516788 0.00372804 -0.00265145 0.0975797 0.111586 0.0178833 -0.00978644 -0.0317606 0.0989836 -0.01674 -0.081737 0.0483057 -0.105234 -0.050624 0.0408186 0.0244285 0.0110964 0.151079 -0.0566905 -0.0775688 0.0492357 0.0555658 -0.0454208 0.0561119 -0.0701972 0.0885613 -0.0252004 -0.0815572 -0.0204297 -0.080701 -0.0540781 -0.0241166 -0.111364 -0.0195895 -0.0470534 -0.03138 0.0479296 0.0207803 -0.00856139 -0.01304 -0.030075 -0.0361121 -0.0555887 0.0199686 0.0473474 -0.00371946 0.0470418 -0.0215139 -0.0236001 -0.0547136 0.0506761 0.0667135 0.0272802 0.132834 -0.107363 0.0135776 -0.0490145 0.0173223 -0.0816497 0.0369517 0.0229626 -0.0188509 -0.0669274 0.00637242 0.00979481 0.0846905 -0.120366 0.0845668 0.0669376 -0.0489134 -0.0934678 0.0227027 0.0523406 -0.0793636 -0.0380617 -0.0827438 0.137062 -0.0379895 0.0890265 -0.171499 -0.054214 -0.0513139 -0.0138412 0.109433 0.00151455 0.0556197 -0.0295228 -0.0588807 -0.0153801 -0.0240971 -0.00773016 -0.0400923 -0.0640637 0.0433473 0.0327886 -0.00460681 0.0389736 -0.0831152 0.0294336 -0.0192208 0.0160888 -0.07029 -0.0576031 -0.0169534 -0.0101152 0.0460174 -0.051498 0.0158416 0.0122827 -0.0391084 -0.01788 -0.112031 0.110057 -0.0406435 -0.100743 0.00201915 0.005349 0.0764798 -0.0130368 -0.0734998 -0.010957 0.00247893 -0.0317951 -0.0206931 -0.0100422 0.0352228 -0.145528 -0.0431457 -0.0498187 0.04738 0.0377392 0.0606521 -0.0601315 -0.0065933 -0.00620887 -0.0215004 0.072522 0.00737245 -0.212512 -0.0822636 -0.0253743 -0.0291654 -0.00791963 0.0262429 0.0382091 0.0107052 -0.0303982 -1.35531e-05 0.0818482 -0.0287972 -0.0132596 0.0488698 0.0555347 0.076853 0.0126958 0.0537487 0.0415125 -0.0568123 -0.0114134 0.0797888 0.0628886 -0.0119048 0.0543574 -0.0189802 -0.063768 -0.0676451 -0.0292848 -0.0630598 -0.0437886 -0.0699637 -0.0370561 -0.119572 0.0533545 0.0608638 -0.0186225
voitures 0.00449617 -0.0199854 -0.0303352 0.0544158 -0.0764494 -0.0578131 0.05072 -0.166146 -0.0314428 0.0188987 -0.132858 0.0735289 0.0282338 -0.00243619 -0.0605296 -0.0432545 0.00572702 -0.0210161 -0.0152494 0.0130178 -0.0426816 -0.0634611 -0.0683755 -0.0348593 0.0602741 -0.029249 -0.0278287 0.0177579 0.0270932 0.0555518 -0.0507117 0.0751899 -0.00956577 -0.0046778 -0.0560981 0.0313842 -0.0210658 -0.0469638 0.0097571 -0.0192289 -0.118614 -0.0313533 0.00280057 -0.00538156 -0.011403 0.0734572 -0.0558173 -0.0468119 0.0807972 0.0317995 0.00826377 -0.105477 0.0255417 -0.00304217 -0.060339 0.0672287 0.104389 0.11466 -0.0690462 0.0614399 0.00683027 -0.0287204 0.070642 -0.00714454 -0.0115186 -0.104679 -0.014801 -0.0103429 -0.0148867 -0.0570084 -0.0535854 0.0580371 0.0395729 -0.0176965 -0.00387158 0.0185437 0.00248963 0.0705205 0.0244678 0.0467889 0.0480288 0.0515956 -0.0699598 -0.0483873 -0.100774 -0.0162747 -0.0399771 0.00164364 0.0524873 -0.0063199 -0.0563325 -0.0247753 -0.00555774 0.0474949 0.00320529 0.00938999 -0.0973841 -0.0441676 -0.00657512 -0.0615959 -0.0257895 -0.0468064 0.00546604 -0.0276762 -0.059842 -0.00722484 0.0302072 -0.0431095 -0.012244 0.0601669 -0.00179165 0.00426247 -0.0655684 -0.0827677 0.0508365 -0.016838 0.12216 -0.0277459 -0.106354 0.0248126 0.100805 -0.0105011 0.0748479 -0.00111193 0.067122 0.0189258 0.0715167 -0.0111728 0.133249 0.0995971 0.0783145 -0.0184373 0.0197712 0.0250974 -0.0782341 0.0366537 -0.0256884 -0.0146553 -0.112537 0.100596 0.00306823 0.0608659 -0.000124116 -0.0341239 0.0101435 0.0546873 0.00384485 -0.0454511 -0.0359222 -0.0220954 0.0717744 -0.0563297 -0.0589228 -0.0508989 -0.0467765 0.0601699 0.0209314 -0.0632631 -0.00775579 -0.0502982 -0.0333055 -0.0109276 -0.106205 0.0136497 0.0870582 0.010809 -0.0738294 0.00255685 0.109691 -0.00578594 0.0906541 -0.0212489 -0.0444846 0.00147169 -0.0773848 0.115374 0.0591685 0.0791042 0.0499295 -0.0716768 -0.0198834 -0.0798893 0.0182464 -0.0215633 -0.00359571 -0.0624753 0.011268 -0.0996251 0.0404399 -0.0289429 -0.0621496 -0.0170418 0.0521821 0.0152157 -0.0164258 -0.00445111 0.0145875 0.0174048 0.0361353 -0.036411 -0.00575592 0.0931547 0.0766411 -0.0400817 -0.0390707 -0.0409925 -0.0217635 -0.0588855 0.117478 0.0425542 0.126558 -0.0241626 -0.0488926 0.0221855 -0.0606401 -0.00619549 -0.136633 -0.144941 0.0467858 -0.0443302 -0.0036346 0.035396 0.00759839 0.0586554 -0.00147292 0.0200691 0.0976919 0.0182076 0.00790633 -0.0131378 -0.101487 -0.0985396 0.0806282 -0.120583 -0.0246791 -0.0709819 0.0238842 -0.0110046 -0.0614181 -0.00353483 0.0559487 0.0274026 0.0664411 0.0954101 -0.05912 0.0416675 -0.00517817 -0.0553447 0.0121498 -0.0551536 0.0407073 -0.046942 -0.0555569 -0.124794 0.0754164 -0.0667325 -0.0321288 -0.120253 -0.0716863 0.0125935 -0.0395713 -0.0520467 -0.0475926 -0.0430148 -0.086117 0.0137284 -0.118881 -0.0798056 -0.0688939 0.0637078 -0.0914591 0.0285633 -0.00308422 0.0152567 -0.154557 -0.0682537 0.00930793 0.0895002 -0.0230234 -0.0100677 0.010224 0.0404875 0.0527015 -0.0528411 0.108342 0.0959513 -0.0373799 0.007891 -0.099313 0.0529067 0.018581 -0.0682654 0.0226446 0.00415635 0.0526872 -0.0489816 -0.0873624 0.0469035 0.00640883 -0.00596689
véhicule 0.0102213 0.00752228 -0.00546713 0.109741 -0.0497361 -0.063524 -0.117195 -0.136735 0.00384735 -0.0204317 -0.102099 0.0256157 -0.0179311 -0.0489008 0.0319998 0.00917364 -0.00481354 0.0117203 0.009282 0.114546 0.0166824 -0.0336541 -0.105865 -0.0434175 -0.0202956 0.00718731 -0.00437791 0.0685932 -0.0080893 0.0277904 -0.00820175 0.0756555 -0.0232476 0.0468378 -0.0728903 0.0405896 0.0223679 -0.107505 -0.00731935 0.0763067 -0.0293743 -0.00698663 0.0159639 0.0369597 0.038328 0.115513 0.0235719 -0.0492914 0.184358 -0.0300467 0.0536338 -0.0172351 -0.0123763 0.0247797 -0.0603432 0.0262059 0.129743 0.0326328 0.0748693 0.0885489 -0.0038779 -0.0164102 0.00672685 -0.00992488 -0.0649526 -0.0730705 -0.0832994 -0.00320738 0.0542809 -0.0503949 -0.0572415 0.0100474 -0.0169167 0.0689784 -0.00357502 -0.0268097 -0.0406628 0.0194321 -0.0027939 -0.00123068 0.0508378 -0.00120893 -0.099271 -0.084184 -0.117369 0.0112216 -0.00464013 0.0162472 0.0651965 0.0161644 0.000128162 -0.0808004 -0.0227154 0.0644505 0.0807669 -0.00929884 -0.0262516 -0.00498929 -0.043583 -0.0612599 -0.0586768 -0.0987261 0.0843426 -0.0949514 0.0303222 0.0404188 -0.00346116 0.0393686 -0.0741874 0.0340471 0.0252274 -0.0127609 -0.0770504 -0.0780844 0.0780219 0.0988826 0.13833 0.0138572 -0.0408293 0.000826044 0.0938532 0.0122535 0.0307241 0.0110504 -0.0274073 -0.118198 0.00614503 0.0360449 0.109941 0.0736485 -0.0109965 0.0297261 -0.00784916 0.0154317 -0.0697885 -0.0294861 -0.0029327 -0.0276618 -0.0269483 0.0385583 0.0326889 0.0643606 0.0595911 -0.0408104 -0.0399349 0.060735 -0.030039 -0.0975832 -0.0210616 0.00577315 0.078121 0.0769306 0.0326391 -0.0502613 -0.0555074 0.043044 0.0287274 -0.113152 -0.0258567 -0.0833281 -0.0226605 -0.0392395 -0.065124 0.00784702 0.0350923 0.0170242 0.0199193 -0.0257659 -0.0217764 0.0497512 0.0765175 0.0301191 -0.00298154 0.0288457 -0.0643722 0.133879 -0.0257245 -0.0147189 0.0603135 -0.0993389 -0.0984744 -0.0160172 0.0277926 -0.0484118 0.0430932 0.0137656 0.018295 -0.0865984 0.0330039 -0.0187788 -0.0309712 -0.0754813 0.0762145 0.0576795 -0.112331 -0.0986767 -0.00521658 0.0293761 -0.0281214 -0.0334684 0.00358293 0.0819913 -0.0363127 0.020188 -0.0668402 -0.0674225 -0.074557 0.00971082 0.116432 0.0356144 0.0761004 0.0703421 0.0169686 -0.00742242 -0.0455558 0.000295183 -0.0314554 -0.114173 -0.0450861 0.0425942 -0.00100374 0.0296199 -0.0469551 0.0265759 0.0381197 0.0344187 0.0158021 0.0103306 -0.00984055 0.0388156 0.0138797 -0.056401 0.00608226 0.00488309 -0.0108292 0.0171032 -0.0468839 0.00959668 -0.0453485 0.0605769 0.0834502 0.112916 0.0184189 0.0176029 -0.129302 0.0450561 0.0112046 -0.0886665 -0.0319454 -0.011095 -0.00835121 -0.0486048 -0.145475 0.0277026 0.0290475 -0.00444615 0.00729518 -0.0644743 -0.00742831 -0.0223314 -0.0322544 -0.0757657 -0.06528 -0.0239437 -0.106816 -0.113504 -0.111569 -0.024759 0.083504 -0.087754 -0.095103 -0.0272054 -0.0464442 -0.00240946 -0.098797 -0.0343069 -0.00640156 0.0740906 0.0202166 -0.0235652 -0.00951045 0.0201354 0.00364816 -0.054103 0.0817245 0.00158475 -0.0262673 -5.3535e-05 -0.0918899 0.0253154 0.0509341 -0.00684117 -0.020599 -0.0802278 0.0648998 -0.0810126 -0.125522 0.154944 -0.0209921 0.0369887
camion -0.0177028 -0.0606674 -0.0646638 0.102706 -0.118405 -0.0240525 -0.0160122 -0.118481 0.052655 0.00508902 0.00331073 0.0673725 0.0196359 -0.0196608 0.0906159 -0.104741 -0.0128765 -0.0475842 -0.0386132 0.121026 -0.0286994 -0.0641363 -0.117016 0.0146814 0.0138023 0.0671688 -0.0588346 0.0505461 0.0139972 -0.0098629 0.00207816 0.0612414 -0.023726 -0.0462867 0.0410622 0.0263749 -0.0145574 -0.0953612 0.0508244 0.0636072 -0.0882123 0.0145077 -0.0625383 0.047262 0.05194 0.0656932 0.00578621 -0.100076 0.103338 0.0176413 0.0334364 -0.0357207 0.0166608 0.0368741 -0.06197 0.0589767 0.106411 0.0712406 -0.0169333 0.123289 0.0234192 -0.025048 0.00922603 0.0338303 -0.0708156 -0.0462726 -0.0827446 0.0363925 -0.0435901 -0.0121328 -0.023869 -0.0253969 0.018406 -0.00261682 -0.0691473 -0.00785904 -0.0884597 -0.0537494 -0.0544268 -0.0198501 0.0158632 -0.0025534 -0.0781187 -0.0429512 -0.0318679 -0.0158058 -0.0263486 0.00895114 0.111598 0.0249028 -0.0159358 -0.0879132 -0.0974685 0.0773993 -0.0182719 0.0175369 -0.0300172 -0.0773431 -0.0402613 -0.0520504 -0.0385976 -0.0436461 -0.00282673 0.0349433 0.0443566 0.00240875 -0.055327 0.0521989 -0.101334 0.02864 -0.00196267 0.0160525 -0.0756048 -0.0575975 0.0156043 0.0213888 0.0973109 -0.0663884 -0.0867259 -0.0351783 0.0951499 0.0350312 -0.00345051 0.0158866 0.00946457 -0.184693 0.0713345 0.0287053 0.0764362 0.0546905 -0.0198999 0.0546503 -0.0619202 0.0281065 -0.0202239 -0.0143045 -0.00809034 -0.0303688 -0.0722032 0.0595386 -0.000151702 0.0258779 0.0181435 -0.0915469 -0.0567971 0.0957459 -0.0198839 -0.072911 -0.0424979 -0.00676247 0.0441282 0.00588537 0.0628203 -0.0657159 0.0136936 0.00245604 0.0149212 -0.103797 -0.0265394 -0.0149833 -0.0271508 0.00778379 -0.0825394 0.0204367 0.0251028 -0.0257764 -0.0251343 0.000454123 0.00392007 -0.00750719 -0.00794281 0.00314287 0.0749665 -0.0310407 -0.130576 0.0911353 -0.00335613 0.0438527 0.0483374 -0.0971778 0.0248548 -0.0489442 -0.0154233 -0.0105799 0.0261782 -0.0299084 -0.0202234 -0.108813 0.0300944 0.0583623 0.0516503 -0.110268 0.0788769 0.0466569 -0.0663738 -0.0685437 -0.0338428 -0.0035857 -0.0806669 -0.0218559 0.00889595 0.139452 -0.00220489 0.002338 -0.0605259 -0.0650357 -0.135504 0.0127158 0.104251 -0.0341565 0.0670894 0.039731 -0.10419 -0.0280608 -0.0730368 -0.036476 -0.106881 -0.0671671 0.0228313 0.0813871 0.000859006 0.0390204 0.0326943 0.0751496 0.126817 0.0364517 0.062523 -0.0413429 -0.00308163 0.0537266 0.00979795 -0.0272743 0.00814897 -0.0199678 0.0359808 0.00505877 -0.0119836 0.0557483 -0.0196516 0.0752724 0.0630596 0.107335 0.0659808 0.0284938 -0.0794796 -0.00672009 0.01574 -0.0102948 -0.0251836 0.00990309 0.0480777 -0.00368016 -0.128232 0.0158486 0.018904 -0.0159726 -0.00400071 -0.0696433 -5.98326e-05 0.00229232 0.0161926 -0.0482677 -0.0262454 -0.0638841 -0.121501 -0.0729685 -0.068649 -0.110401 0.0922428 -0.0258438 -0.014396 -0.047237 -0.0863129 0.081545 -0.102694 -0.0751446 0.086795 0.0295164 0.0078824 0.0338823 0.04275 0.0182985 -0.0248654 -0.08214 0.0733525 0.0185376 -0.0373768 0.0185213 -0.0399448 0.0857071 0.090632 -0.0243633 0.0234946 -0.0663516 0.0367479 -0.0457621 -0.116511 0.0680665 -0.0210295 0.048323
canoë -0.0495998 -0.0285134 -0.113014 0.102126 0.119406 -0.032773 -0.0338583 -0.00531535 -0.0669033 0.0550873 -0.0207757 -0.0303299 -0.00579215 -0.105034 0.0215531 -0.0408157 0.059429 0.081819 0.0585442 0.00675413 0.0281576 -0.0042069 0.0179486 0.00621253 -0.0545691 -0.0959266 -0.0034802 0.0473285 0.0153181 0.0239796 0.0533531 0.15248 0.019814 -0.0144642 -0.0125091 -0.0701585 -0.0202479 0.0663909 0.0958551 0.00650467 0.041617 -0.0488821 -0.0240377 0.00350288 0.0375689 0.0171736 -0.0170473 -0.0336626 0.00478149 0.0352267 0.0102903 -0.0204918 -0.0410908 0.0226546 0.0484926 -0.0152295 0.0585921 0.0580714 0.0368042 0.0685685 -0.0425066 -0.0454528 0.00735273 -0.0809216 -0.0377432 0.0700485 0.00362149 -0.0126387 -0.041787 -0.0319887 0.00190605 0.0892679 0.0755241 -0.0340784 -0.013633 -0.0750732 0.0737731 0.00886541 -0.098845 -0.0637953 0.0186739 -0.0199813 0.0765619 0.000686996 -0.113278 -0.0298308 -0.0156571 -0.0685563 0.00788895 -0.0723323 -0.025618 -0.0142298 -0.0203716 -0.0249697 0.056028 -0.0251967 -0.0669648 0.0118667 0.0689954 -0.0709084 0.0194444 -0.0273373 -0.0695375 -0.0486604 0.0309069 -0.0348135 -0.035233 0.0617881 -0.0186232 -0.0177923 0.00362202 0.0421091 -0.0355575 -0.0755268 0.0068847 -0.0846831 -0.0376907 0.122356 -0.0316651 -0.0231593 0.0974235 0.0349731 0.000646062 0.0625352 -0.0525059 -0.0162845 0.155711 -0.0116673 -0.0333795 0.0920108 0.0118386 0.0396399 0.00753518 0.0292516 -0.0264241 0.0228131 -0.0541741 0.0272833 -0.0234901 0.135915 0.0692792 0.0870218 0.123289 0.0500362 0.00440155 0.0288681 0.079781 -0.0219187 0.0878413 -0.0618616 0.0282166 -0.0193607 0.0287511 -0.0595156 -0.0212705 -0.0605295 -0.0247154 0.0210768 -6.43399e-05 0.0650569 0.0077423 -0.0207354 -0.0311045 0.0561788 0.125134 -0.038153 -0.0431757 0.0867401 0.0522121 -0.0425125 -0.0319845 -0.0697131 -0.0795923 -0.0213722 -0.0409626 0.131231 0.0532903 -0.00287843 0.143341 -0.126674 0.0337604 -0.0561388 0.0399808 -0.05738 0.0603636 0.0125763 -0.0657069 0.110222 -0.0247993 0.0185897 0.011552 -0.0704309 0.105523 0.0141084 -0.13963 0.0938403 0.00241212 0.0838954 0.0309134 -0.0333118 -0.0537186 0.0189473 0.0055251 -0.0389445 -0.092864 -0.0529054 -0.0386344 0.0318073 0.0443911 -0.00969808 0.143633 -0.0647049 0.0307568 0.0139447 0.00505598 0.0185415 0.0186479 -0.0509097 0.118853 0.140575 0.0282656 0.016373 -0.0389297 0.0542006 0.0297737 -0.0916883 0.0607462 -0.0445634 0.0348395 0.00880782 0.0365689 0.0378338 0.0354693 -0.0657656 0.046973 0.0616407 -0.0261588 0.0139677 -0.0640172 -0.0586947 -0.000367428 -0.0136172 0.0466595 -0.0584662 0.0270604 -0.0187813 -0.0159949 0.0542403 0.0402981 -0.0241735 0.0449992 -0.112803 0.0684467 -0.0815121 0.00601729 0.0329198 0.0141916 -0.131812 0.00401843 0.0856024 -0.0300341 0.0761619 -0.0275706 -0.161446 -0.16123 -0.000523848 -5.75125e-05 0.0885146 -0.0104236 0.0136356 0.0570061 0.0420516 0.000428689 -0.0028054 -0.0359942 0.0302678 0.042212 -0.0290667 -0.0521642 0.0713136 0.0364879 0.0742464 0.00557644 -0.0529278 0.0687379 0.0480898 -0.00916708 0.00460681 -0.0412327 -0.114539 -0.0539317 0.0127632 -0.0076709 -0.118241 -0.0255272 0.0327259 0.0163581 0.0847618 -0.0222859 -0.0350695
voilier -0.0909987 0.0175614 -0.0393005 0.07889 -0.130071 -0.00119074 -0.0366176 0.00399664 -0.013278 0.051715 -0.0160516 -0.0667027 -0.0449328 -0.0321935 0.0373727 -0.033055 0.0160478 -0.0135766 0.0116786 0.0821438 -0.0771095 -0.0804713 0.0487119 -0.0158154 -0.0476746 -0.0131922 -0.00420642 0.0409553 0.0801908 0.0742463 -0.00352165 0.0848198 0.0256035 0.0173288 -0.0329258 -0.00251518 0.00765276 -0.0574711 -0.0841413 -0.0518916 0.0172138 0.0152105 0.0499101 -0.031947 0.0553805 -0.0248578 -0.0383243 0.0490488 -0.0170702 -0.105528 0.137018 -0.0117263 -0.0504537 -0.0094909 0.0229717 -0.0127343 0.0624544 -0.000194012 -0.0079443 0.0537211 0.0159255 -0.0252321 -0.024339 -0.101206 0.01659 -0.0287744 -0.0166339 -0.0155795 0.0486434 -0.0975734 -0.0191537 0.0298933 -0.0174806 0.00150032 0.0336039 -0.0115722 0.153754 0.046499 -0.0427528 -0.0283128 0.030176 -0.0228054 -0.0228363 -0.0368546 -0.057071 -0.0101834 0.0755 0.103157 0.0343234 -0.0568625 0.0414186 -0.047114 0.045801 -0.0102416 0.177994 0.0641361 -0.0479615 -0.0146351 -0.0321357 -0.01759 -0.018845 0.00413013 -0.0633739 0.00827998 -0.00930902 0.0382196 -0.0176473 0.0329244 -0.0903221 0.0997481 0.0357652 -0.0265967 -0.0821982 -0.0855286 0.079358 -0.0941871 -0.0129269 0.0524009 5.34513e-05 0.0324606 0.0107543 0.00846616 0.0218538 -0.0300251 -0.0225644 -0.0223313 -0.00893889 0.0125483 0.104926 0.101821 0.0974346 0.000556366 0.0257985 0.0409486 0.0124689 -0.0650484 0.0403862 -0.020007 -0.0739669 0.0452058 0.0100886 0.0249706 0.143485 -0.0236566 -0.110294 0.040454 0.0783305 -0.00500797 0.0459771 -0.0839445 0.0808392 -0.0644373 -0.0866719 -0.0134646 -0.0967826 -0.0366357 0.0361326 -0.0599482 0.0323024 0.0144289 0.00160713 -0.00761554 0.0460121 0.00241881 0.0759636 -0.0329002 -0.035629 -0.0312018 0.0168278 0.110805 -0.0084534 -0.0108636 0.0207519 -0.0777831 -0.05392 0.0099202 0.034494 -0.00816331 0.110694 -0.135943 0.00984279 -0.055265 0.07395 -0.0162462 0.034714 -0.0877004 -0.054095 0.00355677 0.0321103 0.0156845 0.101036 -0.07109 0.115814 0.0414494 -0.0471946 -0.0389741 0.0318687 0.070812 -0.0583283 -0.132209 -0.0205415 0.0741352 -0.0358167 0.0849249 -0.144945 -0.0373677 -0.0404624 0.0140997 0.0585695 -0.0485133 0.0648551 0.031973 -0.039735 0.00937727 -0.0439392 -0.0315402 0.0273442 -0.0413511 0.03612 -0.0182222 -0.00320757 0.0466807 -0.0976594 0.0172428 -0.00122 0.0612268 -0.054327 -0.103427 0.0637238 -0.0139179 0.0249139 -0.0502766 0.0368627 0.00576833 -0.0807881 -0.0839746 -0.121804 0.0869468 -6.27887e-05 -0.0984373 0.0444731 0.108229 0.0722574 -0.0777762 -0.062648 -0.0486458 -0.005701 -0.061684 0.0223545 0.0116292 0.0850632 -0.195707 -0.0556867 0.029538 0.0229004 0.0265338 0.0456251 -0.0761379 -0.0179438 -0.00911819 0.00394061 0.0590662 0.0767999 -0.138708 -0.0744285 0.00791558 -0.0516915 0.0752779 0.00373147 -0.0541708 -0.0152087 -0.0726201 0.0555821 0.0251442 -0.0616544 -0.0423725 0.0128146 0.00315447 0.042878 0.0238574 -0.012079 0.0460856 -0.0954819 -0.0595719 0.0719455 0.0590099 -0.00152199 0.0596804 -0.00740344 -0.126949 -0.0815352 0.00348757 -0.0398873 0.00178605 -0.0552432 -0.0709556 -0.0274509 0.0270304 0.0547118 0.00899417
panier -0.0528913 0.0640101 -0.0377307 0.167758 0.0362555 0.0161627 -0.102992 -0.070771 0.0388063 -0.0404415 0.0534168 0.00897852 0.0300366 0.00756323 0.0860381 -0.0596761 0.0104597 -0.0120477 -0.053421 0.0350181 -0.0308204 -0.0899817 -0.0380734 0.0272533 0.0195239 0.08485 -0.081312 0.0482826 0.0144602 -0.039119 -0.0178838 -0.0786299 -0.0616821 0.021912 0.0717098 -0.0461879 0.0207413 0.00163047 0.0244518 0.00748875 0.119142 -0.0510793 -0.043999 -0.0168872 -0.000467354 0.11929 0.0264162 0.0079643 0.00697203 -0.0766961 0.0135788 -0.0174668 -0.0336969 -0.00622932 -0.0355576 0.0925164 -0.00784418 0.104962 -0.00871945 0.00857418 0.041066 -0.0714679 0.0479413 -0.064212 -0.0284001 0.0058447 -0.0264425 -0.0184479 -0.00617629 -0.065573 0.0115468 0.0365774 0.023811 -0.0805894 -0.0321586 -0.0308641 0.0524178 -0.0210539 -0.000418069 -0.0615159 0.00875105 -0.109329 -0.0812838 -0.0143732 -0.110136 -0.0279334 0.0210021 -0.0471101 0.102556 -0.000618899 0.0326086 -0.0167008 0.000559957 -0.0144367 0.0581396 -0.0608459 0.0433876 -0.0154246 -0.0242085 0.063476 -0.0149795 -0.0391942 0.00645546 -0.00487642 0.104179 -0.0391684 0.00142445 0.0455382 -0.0409086 -0.00855911 -0.00874781 -0.0621967 -0.0992336 0.0731214 -0.0305719 -0.047489 -0.0408303 -0.106757 0.0187862 -0.0413262 0.0213474 -0.00633453 -0.000523023 0.0449715 -0.0241301 0.0344251 0.0421101 0.0214675 -0.0545081 0.0609769 0.0337737 -0.0353119 0.0474826 0.0658182 0.0403277 0.0488101 -0.0820147 0.0207317 -0.0413632 0.0731307 0.00823229 0.0608876 0.0217339 0.0116031 0.0332637 0.0993228 -0.0283056 -0.0918355 -0.0457008 0.0284595 0.0377361 -0.0281128 -0.012972 0.0397167 0.032137 -0.0272819 -0.0790139 -0.072953 0.036021 0.0233641 0.0916452 -0.0552263 -0.0688106 0.0230026 -0.00260974 0.116705 0.0255448 -0.0327676 0.0803733 -0.0364968 -0.134848 -0.0642989 -0.0330492 -0.0615619 -0.0207492 0.0820127 0.00178297 0.00913676 0.0589766 -0.0227837 -0.00948468 -0.0314084 0.0125219 -0.00329832 -0.0292513 -0.0105129 0.0417287 -0.0965175 -0.0593581 -0.0322287 0.0717003 0.0198983 0.118478 0.122048 -0.0821831 -0.0931473 0.111076 0.166874 -0.0464555 -0.0383749 0.0779528 0.0692053 0.0531625 -0.111888 0.0131304 -0.0703387 -0.0910612 -0.0850398 0.0429707 -0.0652425 0.170286 0.00575931 -0.0223943 -0.0713286 0.0149571 0.0532385 0.0106922 -0.0777851 -0.0267495 0.01542 0.00224483 0.013015 -0.0324815 0.0345408 -0.000174897 -0.0100886 -0.0259123 0.0232725 0.0051891 -0.127957 0.0287508 -0.0946598 -0.0812903 0.0302476 -0.0185316 -0.077782 -0.094605 0.032341 0.0406123 0.0202531 -0.0169089 0.0942518 0.000430856 0.0707847 -0.0502282 0.0268973 0.114851 -0.0370937 0.0219172 -0.0172331 0.0631329 -0.0612608 -0.0973338 -0.0287068 -0.0155888 -0.0141727 0.0137239 0.0347181 0.0593059 0.00501221 -0.068339 0.0288156 0.0848272 -0.0189715 -0.0648289 -0.0586964 -0.0552928 -0.0300921 -0.0216012 0.0110658 -0.127053 -0.0375744 0.0265842 -0.0778083 -0.0993115 -0.0443507 0.149349 0.0988998 -0.110361 0.0356336 0.0994854 -0.0428868 0.00801751 -0.0566947 0.00549909 0.0123921 0.0773824 0.126502 -0.00496237 0.0835984 -0.0212738 0.00490104 -0.0237374 -0.0659754 -0.0554539 -0.0428606 -0.0876233 -0.0328133 -0.0457511 0.0310844
chariot 0.0100555 0.00929191 0.028289 0.131294 -0.0719484 -0.0203379 -0.0804626 0.000302629 -0.0372877 0.00943053 -0.0226023 0.0722614 0.0492198 -0.00468929 0.0662878 -0.00736999 -0.0280424 0.0324717 0.0173812 -0.00854314 -0.00529857 -0.0298241 -0.142934 0.000455309 -0.0631186 -0.0148784 0.00782338 -0.0400656 0.0165462 -0.0409845 0.057614 0.10909 0.0115082 0.00976241 -0.0351275 0.0109935 -0.00779963 -0.0961605 0.0596873 0.0287354 0.0294039 -0.0248743 -0.014848 0.0217504 0.0379023 0.0861653 -0.00103583 -0.00791158 0.028736 0.0545567 0.0848545 0.00509111 -0.0567855 0.000288434 0.00598391 0.105482 0.0890083 -0.015718 0.0197428 0.0564847 0.103172 -0.0599606 0.0236095 0.00766081 -0.0201576 -0.0127493 -0.0469713 -0.00670102 0.0656426 -0.00420035 0.036298 -0.0156603 0.0865287 -0.00163307 -0.0101316 -0.0490651 0.00151209 0.00194841 -0.0516931 -0.0525752 0.0722177 -0.068373 -0.0846484 -0.00868677 -0.0954143 0.014698 0.0724027 0.0678544 0.119025 0.00897909 -0.0420873 -0.11859 0.0484043 0.0277044 -0.00316339 0.0453938 0.0314308 -0.0919923 -0.0875756 0.0784795 -0.0302851 -0.0491923 -0.0679576 0.0274655 0.00282462 0.0187942 -0.0814859 0.0475482 -0.0738253 0.00934389 0.0773478 -0.0990268 -0.00864699 -0.00560744 0.000796898 0.0309221 0.0506089 -0.0243701 -0.0474696 -0.0354596 0.0726531 0.0973519 0.0503227 0.121658 0.0300303 -0.0430186 0.0477121 -0.0227371 0.023112 0.0817133 0.0338574 0.0528296 -0.045029 0.0543042 0.0271526 0.0635224 -0.0939025 -0.0020119 0.00255097 0.0616781 0.0333334 0.0469105 0.0956174 -0.0667879 0.0092962 0.0419375 -0.0458081 -0.077615 -0.0835944 -0.00752972 -0.00675854 0.0500004 0.00605665 -0.0167719 -0.00911948 -0.0110434 0.0777441 -0.0753419 -0.0823144 -0.0660884 0.0300598 -0.0441883 0.00290852 0.0262068 0.0655414 0.0164819 0.00688748 -0.0411483 0.0562717 0.0141341 -0.10242 0.00284302 -0.0295802 -0.0394779 -0.0882957 0.0856626 -0.0498611 0.057901 0.12735 -0.0796984 0.0551261 -0.0549858 0.0619208 -0.114798 0.00923185 -0.0287625 0.0740894 -0.0715482 -0.0343378 0.109513 0.0806537 -0.056836 0.0541577 0.00100163 -0.126405 -0.0667232 0.0352887 -0.0309001 -0.135406 -0.0649585 -0.0679825 0.0518701 -0.00134703 0.0302653 -0.112519 -0.0914831 -0.139715 0.0131617 0.127775 -0.0223684 0.156923 0.0415255 -0.0236465 -0.050802 -0.0226983 0.0210053 0.0155244 0.0199449 -0.0510471 0.00454932 -0.125958 0.0297117 -0.0406119 0.0335537 -0.0225015 0.0670311 0.0348544 0.0118169 -0.0490141 -0.0277741 -0.0162455 -0.0430031 0.0196713 0.08579 0.00257864 -0.0259012 -0.0423282 -0.0243237 0.00390832 -5.24273e-05 0.0241386 0.117044 0.0402635 0.0624422 -0.118471 -0.0064346 -0.00300152 -0.0619046 0.0273809 0.00838353 0.0290136 -0.0493526 0.0199512 0.0075486 -0.0461933 0.0555973 -0.0619671 -0.108004 0.0574241 -0.0605625 -0.0357885 -0.0465477 0.0458915 -0.00427772 -0.0938069 -0.0663572 -0.130865 -0.0215747 0.0769817 -0.00877847 -0.0812241 -0.0150963 -0.00324835 0.0711385 -0.0947273 -0.0627558 0.105085 -0.0342587 -0.0359974 0.000741687 0.0278167 -0.146473 0.0295378 -0.0158718 0.0538959 0.0145733 0.000218363 0.0189516 -0.0442767 0.0719662 -0.0232033 0.019949 0.0336236 -0.0438428 0.0153322 -0.0251475 -0.127541 0.0525437 0.0569289 0.0707064
canot -0.0118892 -0.0456218 -0.109142 0.100442 -0.0435884 -0.0160203 -0.0989504 -0.0510675 0.0231874 0.0923719 0.00879586 -0.00743477 -0.0817255 -0.0409549 0.0254671 0.000742284 0.0307934 -0.0227006 -0.0607072 0.0900583 -0.0412408 -0.0669195 -0.0366431 -0.0212229 0.0171147 -0.0367988 -0.0298679 0.0572806 0.0712624 0.0480154 0.0940982 0.0101852 -0.0304285 -0.0212168 -0.0360351 -0.0881635 -0.0224033 -0.0215132 0.0419342 -0.024208 0.0484495 -0.0205477 -0.0431981 0.000642816 0.0376747 0.00705779 0.0303847 -0.0128403 -0.00987943 0.0717149 0.0298044 0.0390244 0.0388182 0.107794 0.026476 0.0632379 0.0100969 0.0371702 0.0348448 0.1458 -0.0140076 -0.0275866 0.0509282 -0.0913122 -0.0383632 -0.00258653 -0.0941255 -0.020888 0.0490998 -0.0540528 0.0465763 0.0263572 0.0280459 -0.0617419 -0.0325029 0.0449476 0.0559521 0.0593183 -0.101892 -0.035846 0.0832435 -0.0967441 -0.0335425 0.00508067 -0.164937 -0.0369209 0.0791816 0.105895 0.0372309 -0.0126575 0.0462912 -0.0538935 0.026945 -0.0288511 0.109544 0.0863946 -0.0290832 -0.000142859 -0.0298563 -0.00923102 -0.0477693 -0.046741 -0.0631215 -0.0791951 0.0491148 -0.0317536 -0.046312 0.0503483 -0.0621887 0.0107222 0.0817438 -0.0259539 -0.0505103 -0.0447304 -0.00455121 -0.0794396 0.0554239 -0.0416148 -0.018539 -0.0433039 0.0676901 0.0451963 -0.00394955 -0.0257249 -0.0150747 -2.45046e-05 0.0378026 0.0484046 0.0720332 0.0730847 -0.00468516 0.00390392 -0.0483045 0.0918309 0.0418858 0.0417741 0.00840923 0.0123229 -0.0166936 0.0847862 0.0852377 0.0945531 0.130641 -0.00438252 -0.0362247 0.0465856 0.0437676 -0.0309635 0.0292686 -0.0714425 0.042235 -0.0255079 0.0133899 -0.043648 -0.0481041 -0.00489148 -0.0314382 -0.0271032 -0.00860852 -0.0868781 0.00346893 0.0310839 0.000635326 0.0810449 0.0642466 0.0288628 -0.0214447 0.0277758 0.0745448 0.0583416 0.0350539 -0.0132423 -0.0605549 -0.0581467 -0.0782078 0.037706 0.0121589 0.0311974 0.132935 -0.141147 -0.0364804 -0.0190392 0.0187828 -0.0261421 0.0825415 -0.0209054 -0.0574007 -0.0588671 -0.0845555 0.00676122 0.0429196 -0.075772 0.104058 0.0504946 -0.104896 -0.070444 0.0836449 0.0735278 -0.0482429 -0.0994527 -0.068569 0.0375244 -0.0392708 -0.0140445 -0.126657 -0.0878986 0.0279773 -0.0316859 0.0775832 0.0448845 0.0452177 -0.0190332 0.0364957 -0.000937518 -0.0422213 -0.0273926 -0.0494539 -0.0105541 0.112206 0.0264313 0.0348081 0.0542663 -0.0662575 -0.0209478 0.0387093 -0.0208284 0.0141805 -0.103385 -0.008629 0.0322095 0.0405058 -0.0276792 -0.0235679 0.0569355 -0.015076 0.0150648 -0.0539867 0.040594 -0.0416991 -0.0940894 0.0654497 0.0191436 0.0481961 0.00481205 -0.0592105 -0.0388585 -0.0622172 -0.053844 0.013813 -0.0258298 0.0196119 -0.112599 -0.0551214 0.0197024 0.0408143 0.0729933 0.0461153 -0.16516 -0.0440117 0.0277757 -0.0700312 0.0967989 -0.000470151 -0.164125 -0.0456389 0.0108397 0.0191764 0.0104004 0.0738283 -0.102544 0.0270478 -0.0458242 0.0272872 0.0362579 -0.0617355 0.039448 -0.0103035 0.0426217 -0.0200715 0.0159595 0.00692559 -0.0188369 0.027443 -0.0587698 0.12201 0.12196 -0.00406354 0.0296694 -0.0875097 -0.0884808 -0.111337 -0.0199872 -0.0911684 -0.111296 0.018096 -0.0780851 -0.0914044 0.0346435 0.0102333 0.0481131
tracteur 0.0446615 -0.0311489 -0.047021 0.0819848 -0.0441302 -0.0630824 -0.0312062 -0.122829 0.0378206 -0.0117988 -0.100205 0.0484532 -0.0529728 -0.027404 0.068968 -0.0917467 -0.0496528 0.0485271 -0.00644556 0.093343 -0.0153747 -0.09593 -0.0451623 -0.0616532 -0.0907715 -0.0113666 -0.0848852 -0.0289056 -0.0304865 0.0377188 0.075825 0.079185 -0.0141396 -0.0280021 -0.0110599 0.0390314 0.0186323 -0.0522282 0.00175328 0.0119916 -0.0640113 -0.0329322 0.0166403 0.0413538 -0.0404082 0.138895 0.00768657 -0.0374646 0.0848738 0.0879241 0.0561288 -0.0489716 -0.0438727 -0.0332405 -0.0741653 0.0628248 0.170968 0.00877703 0.0349411 0.0604235 0.0286466 -0.0135852 0.0191007 -0.0148374 -0.0405038 -0.0921559 -0.0910691 0.012478 0.0396539 0.00780123 0.0163942 0.0309634 0.0605977 0.0265501 0.0141922 -0.0458672 0.0189032 0.0246459 -0.0529241 -0.0189444 0.0928314 -0.00552482 -0.029194 -0.074036 -0.109599 -0.0450238 0.0179688 -0.005585 0.123266 0.0483268 0.0416668 -0.0896532 0.0214803 0.139784 0.0613735 0.0269305 -0.0505059 -0.064803 -0.101544 -0.0469399 -0.0403436 -0.0459988 0.00344136 -0.0488748 0.0720406 0.0360602 -0.031768 -0.0236018 -0.0404615 -0.0301517 0.0243072 0.0399243 -0.042163 -0.0172042 -0.00320915 0.0292581 0.0761747 -0.00961637 -0.0173394 0.0428028 0.0566359 0.0584782 -0.0444593 0.0484605 -0.0136759 -0.10877 -0.0106574 0.0119504 0.0603969 0.0777195 0.0511344 0.0667975 0.03213 0.0522405 -0.0752174 -0.0278247 0.0273754 -0.0529221 -0.0378506 0.0332579 0.0397015 0.0549554 0.0145175 -0.028054 -0.0300909 0.121522 -0.092742 -0.00866476 -0.0653892 -0.0272307 0.0333915 0.105353 -0.0182919 0.00529595 0.0146738 0.0453484 0.103977 -0.0791119 -0.00839101 -0.0590209 -0.015754 -0.0571166 -0.0775077 0.0829165 0.0801674 0.0487236 -0.0555271 -0.0346859 -0.0616046 0.0228222 -0.00667707 -0.018168 -0.014779 -0.05146 -0.0629211 0.158304 -0.0604494 -0.0195283 0.0883759 -0.0820686 0.00760898 -0.079617 0.051579 -0.0168151 0.0790865 -0.0424599 -0.0524367 -0.150785 0.0642291 0.128485 -0.0269819 -0.096496 0.0639751 0.0240573 0.012887 -0.0597419 0.00223905 -0.0197649 -0.0374751 -0.016516 -0.0452245 0.141611 -0.00541124 0.013267 -0.0366904 -0.0394543 -0.121086 -0.00486701 0.103402 0.0377481 0.0965932 -0.0044934 -0.069152 0.0306161 -0.00158113 -0.0328439 -0.060731 -0.0901124 -0.0155523 -0.00807282 -0.00399102 0.022909 0.0133978 0.0635232 -0.0226741 0.0176863 0.0605719 -0.0151865 0.0149164 -0.0405794 -0.0276754 -0.0101697 -0.00312186 0.0104444 0.00806804 -0.00289711 0.00409234 -0.00975136 -0.0206491 0.00912528 -0.00502054 0.126967 0.0661345 0.0351544 -0.074017 -0.0761573 0.0277491 -0.0705406 -0.0317398 -0.0332349 -0.0640701 -0.0913099 -0.0775684 0.0635021 -0.0992144 -0.0220858 -0.00585875 -0.00807451 -0.000575 0.00794324 -0.0628144 -0.0310914 -0.083793 0.0340617 -0.145584 -0.0168731 -0.0279869 -0.0412928 0.0378473 0.0558309 -0.035744 0.00470601 -0.0731245 -0.00025193 -0.0637124 -0.147785 0.0264773 0.00438357 0.0138062 0.0127945 0.0856788 -0.0455581 0.00993749 -0.041637 0.0950295 0.0401879 -0.0263683 -0.00398953 -0.0699956 0.0678625 -0.00118973 -0.0448945 0.0755043 -0.0378334 0.0279459 -0.028943 -0.088914 0.116078 0.0396038 0.0737433
fourgon 0.0523189 -0.062508 -0.0711693 0.0945697 -0.0940182 -0.0575549 0.0684344 -0.133407 0.0141728 -0.0453328 -0.0737116 0.0882286 0.00565177 -0.0135529 0.0127777 -0.0986982 0.0282306 0.00798396 -0.0534069 0.046683 -0.000774919 0.0100096 -0.0909457 -0.00536602 0.0160727 -0.0114817 -0.0182386 0.0149322 0.0234109 0.0670777 -0.00731037 0.0346119 0.0180789 -0.0506121 -0.0361055 -0.0253412 0.0540881 -0.052678 0.038864 -0.0189972 -0.0832989 -0.00853321 -0.0591113 0.0205997 0.0366607 0.0704776 -0.0196479 -0.0880372 0.0993124 0.0399628 0.0789572 -0.056741 -0.0240838 0.0513998 -0.06928 0.0498171 0.053109 0.0484183 0.0288117 0.127926 0.0509431 0.0470355 0.016296 0.0132141 -0.08059 0.0056375 -0.106775 0.0357393 -0.00140605 -0.0886067 -0.0618052 -0.0492569 0.0375851 -0.0112833 -0.016047 0.0224139 -0.0263583 -0.00750204 0.00707595 -0.0227024 0.0638841 -0.0797599 -0.163305 -0.0809433 -0.0977307 -0.0613301 0.0107803 -0.0234385 0.0404679 0.0188044 -0.0108542 -0.0579882 -0.0565927 0.139301 -0.0399784 0.0589237 -0.0443364 -0.0443913 -0.0260909 -0.107784 -0.0641345 -0.0244848 0.0308106 -0.0110299 0.0910905 -0.0182654 -0.07285 0.0590612 -0.0952306 0.0278253 0.0182596 0.0208245 -0.0399395 -0.0572157 0.00114788 0.0134398 0.0414925 -0.05459 -0.0149841 0.0147279 0.0291284 0.0344215 -0.0118226 0.0671121 -0.07058 -0.104618 -0.0120643 -0.0505583 0.0557923 0.0448136 0.0651416 0.0210254 -0.0981335 0.0210175 -0.0409679 -0.0952937 -0.0512725 -0.0569479 -0.0754236 0.0250234 -0.0165851 0.0585119 0.0909368 -0.00290679 0.0854856 0.104116 -0.00374377 -0.0754615 0.0257506 -0.0164614 0.0715231 -0.00317457 0.0144962 -0.0242703 -0.00229871 -0.0535458 0.043323 -0.135019 -0.0744768 -0.0915116 -0.046205 0.0395924 -0.115253 0.0526294 0.0377207 -0.0134656 -0.0601132 -0.0125922 -0.00207381 -0.00451185 0.0455796 0.0382116 -0.0101925 -0.0064917 -0.098319 0.114082 -0.0360494 0.0434553 0.0235958 -0.125615 0.0118255 -0.0829563 -0.0236513 -0.0323816 -0.0230235 0.00633452 -0.0307792 -0.105938 0.0285411 -0.0286256 0.034228 -0.0662054 0.0297527 0.0409675 -0.0515168 -0.0889158 0.000648085 0.0211495 -0.0274758 -0.0638855 -0.0191299 0.206892 -0.0111439 0.00785542 -0.0164511 -0.0558196 -0.092968 -0.0175544 0.0543127 -0.071638 0.0473506 0.0481799 0.00303554 0.0133522 -0.0351123 -0.0405855 -0.0610661 -0.032765 -0.00418345 -0.00892174 0.0424147 0.0125261 0.00836378 0.0688675 0.0404398 0.0284561 0.0495416 0.0789949 -0.0116209 0.0394217 -0.0134534 -0.111606 -0.00033141 -0.029314 -0.0382169 -0.0795476 0.0316039 0.0463875 -0.0492338 0.0890066 0.038344 0.0504457 0.0963635 0.0320314 -0.00463578 -0.0095359 -0.0495952 0.0372937 -0.0308588 -0.0520946 -0.00390619 -0.00897369 -0.0452329 -0.0774042 0.0500326 -0.00662031 -0.0120956 -0.118397 0.0042952 -0.0611236 -0.0245938 -0.0173161 -0.0943796 0.0129527 -0.11942 0.0309459 -0.0725761 -0.0583117 0.0712438 -0.00934815 -0.0207635 -0.00642214 -0.0485247 -0.0184675 -0.150168 -0.101061 0.0212662 0.0525566 0.00497495 -0.0542709 -0.00908341 0.0563122 0.0817316 -0.0778834 0.117255 0.0999764 0.0144314 -0.0174186 -0.0678825 0.0392342 0.0778088 -0.0596067 0.000443785 0.0272521 -0.0246755 -0.0763092 -0.13333 0.0476613 0.0165283 0.0344695
tracteurs 0.0172024 -0.025496 -0.0479999 0.078992 -0.0524162 -0.0237832 -3.22568e-05 -0.192407 0.023425 0.0188306 -0.0966914 0.0454327 -0.0349469 -0.00600551 0.0258157 -0.0997104 -0.0387321 0.0373948 0.0056306 0.0560077 -0.0486754 -0.0842028 -0.0598499 -0.0900753 -0.0559625 -0.0293243 -0.0568743 -0.0187946 -0.0374565 0.0572689 0.0426444 0.0994646 -0.0724797 -0.0418038 0.0160347 0.0420657 0.0350924 -0.0425426 -0.00323572 0.0071927 -0.108454 -0.00561494 0.0220216 0.019286 -0.0267263 0.119099 0.00430364 -0.0268775 0.103788 0.0578594 0.0523911 -0.0984692 -0.0509119 0.0392463 -0.0873364 0.0270282 0.149468 0.0618854 -0.00995429 0.0474349 0.0403327 -0.00751313 0.015706 -0.00635831 -0.0327691 -0.0814285 -0.0767303 0.00661829 -0.0303085 0.0291597 0.0415798 0.061196 0.063445 -0.00597004 -0.00417138 -0.0491281 0.0206739 0.00957685 -0.00514288 -0.0454743 0.0560111 0.0454194 -0.0363841 -0.0435245 -0.126658 -0.0536888 0.014916 0.0285693 0.112557 0.0620062 0.0122538 -0.025741 -0.00469434 0.128922 0.0659615 0.0104182 -0.0528194 -0.0816849 -0.0371407 -0.0293436 0.00638208 0.0140301 -0.00837748 -0.068541 -0.0262559 0.0563754 -0.00101222 -0.0501372 -0.0367108 -0.0402048 -0.0314964 0.0554268 -0.0330927 0.0144637 -0.000915081 0.0797333 0.0938175 0.00375989 -0.0191101 0.0584264 0.0492109 0.0351235 -0.0710043 0.0467252 0.0132471 -0.0950267 -0.0126462 -0.049522 0.0881684 0.064638 0.0644063 0.0474878 0.02912 0.0169961 -0.0676254 -0.0369353 0.0582669 -0.030091 -0.0454661 0.0621004 0.0618174 0.0516086 -0.00802905 -0.0345748 0.0296602 0.122899 -0.0481521 0.0177181 -0.0898547 -0.0440196 0.0270853 0.0527817 -0.0416845 0.00483323 0.00469382 0.00957463 0.0840855 -0.0447278 0.0636984 -0.0454938 -0.018694 -0.0368856 -0.0741816 0.0700065 0.162775 0.0576598 -0.069924 -0.0103377 0.020692 -0.00269834 -0.0401708 -0.0358523 -0.0144723 -0.0332879 -0.0326276 0.193812 -0.0246474 -0.0643671 0.067334 -0.0453999 0.0113102 -0.053864 -0.017072 -0.00684991 0.105654 -0.0538136 -0.0545613 -0.131804 0.0698464 0.124612 -0.0122902 -0.0586707 0.0337452 -0.00933657 0.0252301 -0.0132354 0.00782672 -0.0430468 -0.0139698 -0.0113587 -0.0686635 0.141684 0.0143918 0.0162916 -0.0170413 -0.0467637 -0.113401 0.000161943 0.0861288 0.0972189 0.0976758 -0.0334697 -0.0540245 0.012478 -0.0190712 -0.0350234 -0.0175897 -0.0831657 -0.00534684 0.0216938 -0.0199342 0.000300171 0.0254036 0.0754631 -0.0355028 0.036569 0.122538 -0.0744239 0.0150463 -0.00350216 -0.0755501 -0.0531908 -0.0137031 -0.00382162 0.00874202 -0.0077101 0.0427604 -0.0333112 0.00928795 -0.000320471 0.00845257 0.0464166 0.0922876 0.0193452 -0.0816289 -0.0126283 0.0734474 -0.066363 -0.0173713 -0.0433187 -0.047422 -0.039083 -0.0372229 0.00912236 -0.0710478 -0.0190751 0.0145621 -0.0182396 -0.0237869 0.0541046 -0.0837399 -0.0288243 -0.0793822 0.0358315 -0.136672 0.0221031 0.0117901 -0.0504984 0.0336465 0.071344 0.0128852 0.0442616 -0.0773482 0.0217044 -0.0791933 -0.0962038 0.0239376 0.0292951 0.00155959 0.0282821 0.0457172 -0.0273215 -0.0188162 -0.00141399 0.12474 0.0712418 -0.0895273 -0.00193308 -0.0912359 0.118777 -0.0128474 -0.033718 0.0652154 -0.0137001 0.0377719 0.00749032 -0.0587277 0.132191 0.0845501 0.0903276
charrette 0.0266987 0.00376585 -0.0544332 0.142434 0.020408 -0.0405411 -0.0119816 -0.106035 0.0864539 0.0611806 0.0726053 -0.0311778 -0.066499 -0.038661 0.104592 -0.0389637 -0.108383 0.105891 -0.0338145 0.0377916 -0.0971119 -0.00920663 -0.0260341 -0.0195434 0.0155804 0.0253681 -0.048802 -0.0751804 0.0774779 0.0481341 0.0613491 0.0444558 -0.074292 -0.0396189 0.0462098 -0.141275 -0.095871 -0.114016 0.0305272 0.0714921 0.0415441 -0.0308983 -0.075953 -0.0301958 0.0187996 0.0345979 0.017582 -0.120739 -0.0110298 0.0484653 0.10016 -0.0558648 0.0175533 0.0385352 -0.0316548 0.0853296 0.0394926 -0.0373168 0.0533169 0.05409 0.0331822 -0.034375 0.0401254 -0.00407802 -0.0548856 -0.0122431 -0.0775078 0.0187482 0.0511852 0.0370166 0.0679821 -0.0471659 0.0660348 -0.0772804 -0.00503241 -0.0447924 0.0354351 0.0121612 -0.0646189 -0.014353 0.057086 -0.0912332 -0.0323495 -0.0184199 -0.0808347 0.0614592 0.067472 0.0313395 0.10139 0.0739413 -0.00721773 -0.111291 -0.00580526 -0.0034541 -0.0128426 0.091247 -0.0600621 -0.040402 -0.0378588 0.0010293 -0.0325862 -0.0337663 -0.0425424 0.0239448 0.00285902 0.0528761 -0.0289492 -0.0249123 -0.0434096 -0.0296073 0.0769092 0.025096 -0.0441896 -0.0420338 -0.00283062 0.0123908 0.0131664 0.0099206 -0.0115596 0.00640123 0.019969 0.0370804 -0.0396037 0.0738487 0.0573664 -0.0412117 0.0378496 -0.00139957 0.00828293 0.0334468 -0.0528664 0.062807 -0.0572548 0.0903242 0.0746479 0.0800903 -0.00893377 -0.103561 -0.124688 0.0928006 0.0428508 0.00191926 0.0111672 -0.0120573 0.0126508 0.0546476 -0.0377308 -0.0606751 0.0151795 -0.0271767 0.0696327 -0.0202064 0.013446 0.0249029 -0.00392978 0.0115076 -0.067632 -0.0398058 -0.026815 -0.106605 -0.0281469 -0.0170364 -0.0103884 -0.014591 0.0195463 0.056091 0.00454474 -0.0418018 0.0413178 -0.0309394 -0.0138881 -0.0106024 -0.0463337 -0.0262924 -0.0482345 0.162995 -0.0298633 0.0370873 0.149611 -0.0771495 0.0251993 -0.0904903 0.0558065 -0.0096367 -0.0156949 -0.0654482 -0.0238823 -0.127354 -0.035399 0.0909591 0.103524 -0.10952 0.0165411 0.0519403 -0.0728654 -0.0543866 -0.0131129 -0.0124655 -0.109504 0.00659855 -0.0462864 0.130153 0.00827849 -0.0234468 -0.0855007 -0.0806257 -0.0968296 -0.017244 0.0759366 0.111308 0.0872273 0.0775203 0.0296824 0.0113089 -0.138022 0.0198574 -0.00403134 -0.0257262 -0.017966 -0.0333029 -0.0132456 0.0630945 -0.0219005 -0.0205783 0.0013242 0.0526943 0.0792934 0.0495713 -0.0498718 -0.0236051 0.0320565 -0.000464085 0.0794596 0.024715 -0.0102107 -0.0733805 0.0624188 0.0318349 0.0201618 -0.0132201 0.0999093 0.0428025 0.0482208 0.0496303 -0.0367894 0.0304465 0.0052834 -0.0246499 -0.0613682 -0.0303588 0.0421292 -0.0376505 0.0366573 -0.0983727 -0.0336819 0.0161366 -0.0537612 -0.137558 -0.0139876 -0.065547 0.0264579 0.0421571 -0.014236 -0.0299592 -0.0055923 -0.0405809 -0.105831 -0.0559854 0.0723667 0.00494392 -0.0148465 -0.0506212 -0.0447956 0.0474242 -0.0921428 -0.114572 0.092516 0.017915 -0.0201706 0.0810473 0.0268997 -0.0960247 0.031454 0.00666767 0.0584158 0.124159 0.0415699 -0.0110787 -0.0327587 0.0510195 -0.0133613 -0.0117317 -0.0282077 -0.0215923 0.0643031 0.0207243 -0.0924203 0.0601417 0.0384099 0.0879368
camionnette -0.0177774 -0.0266058 -0.0547543 0.0620955 -0.111781 -0.0565238 0.00646144 -0.107145 0.0423458 -0.0187973 -0.0415313 0.0642431 0.0132514 0.0168846 0.0557882 -0.0413905 -0.0162484 -0.0496842 -0.0394078 0.109658 -0.0795105 -0.0242167 -0.0382173 -0.0317952 0.0445209 0.00851087 -0.0208755 0.0425659 0.0209871 -0.0310266 0.0680231 0.0578532 -0.0347112 -0.0478771 0.0350959 -0.0081025 -0.0124756 -0.11518 0.00817229 0.0542427 -0.0349832 -0.00542996 -0.0822104 0.0508643 0.105885 0.0882276 0.041551 -0.127358 0.136768 0.0168599 0.0647709 0.0226493 0.0118668 0.0923404 -0.114146 0.0767241 0.0716671 0.0779943 0.0164843 0.19569 0.0277039 0.00369446 0.0174891 0.000803607 -0.0676877 0.00168723 -0.101519 -0.000631951 0.0376016 -0.026468 -0.0585649 -0.0765267 0.0482872 -0.0442495 -0.0466149 0.0191506 -0.0619122 -0.0229304 -0.05222 -0.00482004 -0.00812597 -0.0584958 -0.0416199 -0.00291286 -0.0682021 0.0230913 -0.0274054 0.0251842 0.0105902 -0.0187472 0.00568855 -0.0331837 -0.0746413 0.0961459 -0.0576684 0.0302749 -0.0753065 -0.0447726 -0.112117 -0.06439 -0.0273629 -0.0434321 0.0342839 0.00280112 -0.000945899 -0.0478088 -0.0271273 0.0243373 0.00966939 -0.0276393 0.0013005 -0.005454 -0.032398 -0.0293596 0.0204 -0.00481792 0.0853664 -0.064436 -0.0776413 -0.0205343 0.089339 0.00177197 0.047427 0.00848692 0.0292631 -0.121898 0.044817 0.00931418 0.0818249 0.0833305 -0.0357419 0.0190106 -0.0586416 0.0237172 -0.0227802 0.00272999 -0.0314178 -0.0415694 -0.144446 0.0531414 -0.0315337 0.0585268 0.0401933 -0.031252 0.0161995 0.0522727 -0.0769068 -0.0891023 0.0201702 0.0414538 0.0221629 0.00241988 0.0409134 -0.0682489 -0.0265168 0.0471974 -0.0488404 -0.125668 -0.0188216 -0.0651671 0.00280325 0.00784248 -0.117888 0.00931858 0.0257275 -0.01026 -0.0213115 -0.0385369 0.00764578 -0.0149414 0.00819348 -0.0283258 0.0076239 -0.060991 -0.0845035 0.157532 0.0140696 -0.00318875 0.0306761 -0.0733204 0.0516552 -0.0683932 -0.053608 -0.0197186 0.0166875 -0.077396 -0.0766897 -0.0599527 0.0669741 0.0422876 0.0518311 -0.0668435 0.0331244 0.0835858 -0.0463703 -0.0533007 -0.0171538 0.014303 -0.0244042 -0.0285005 -0.0292943 0.157267 0.00850446 -0.0438063 -0.0446134 -0.0810018 -0.0958852 -0.0260258 0.0935195 -0.0189483 0.101342 0.0351603 -0.00180323 -0.0662921 -0.0699578 0.0248232 -0.0376576 -0.0619735 -0.0387122 0.0464321 -0.0412242 0.0450582 0.00782305 0.0440592 0.0718915 -0.0140918 0.0206179 0.00254191 -0.020975 0.0520992 0.0193563 -0.0275486 -0.00731395 0.0231943 -0.015619 0.00653685 0.0182826 0.0355801 -0.0590507 0.0233425 0.0967504 0.0511695 0.0895935 0.103418 -0.13556 0.0729036 -0.0670017 -0.00773294 -0.025233 0.0105915 -0.0470145 0.0114098 -0.0987189 -0.0439606 0.0630521 0.00017898 0.0274753 -0.118257 -0.0136733 0.0104261 0.0517965 -0.0279887 -0.0707389 -0.0709936 -0.122924 -0.00848885 -0.076646 -0.0746289 0.048181 -0.0659472 -0.0330824 -0.0497964 -0.0383977 0.0638496 -0.130037 -0.083582 0.115524 0.0376914 -0.00647655 -0.00379968 0.0118438 -0.0248754 0.0271243 -0.0782942 0.0999063 0.119866 -0.0425329 0.00647495 -0.0481849 0.0679618 0.0693838 -0.0849536 -0.0214899 -0.0464095 0.0354079 -0.0365757 -0.0978239 0.0612766 0.0349799 0.0149095
traîneau -0.00548998 -0.0838939 -0.0654212 0.0701565 -0.0141238 0.015144 -0.0856937 -0.0541071 -0.0364365 0.0487115 -0.0250529 0.0544157 0.006239 -0.049424 0.0522346 0.0332802 0.0208633 0.0434037 -0.0382139 0.00536918 -0.0433409 -0.111541 -0.0419318 0.0411939 -0.0460145 0.00688688 0.0782904 0.0869648 0.0172556 0.0483378 0.096751 0.0213746 -0.0636755 -0.0429526 -0.0162608 -0.0307476 -0.0626409 -0.0197663 0.0738862 0.0902146 0.0769768 0.0180783 -0.0410336 0.0517284 -0.0431995 0.022395 0.0526404 -0.0625409 0.101603 0.0230222 0.0810072 -0.0405925 -0.0606092 0.00630232 0.0111575 0.0314721 0.0629994 -0.00459615 0.063655 0.112473 0.0308482 -0.0153984 0.0791709 -0.0487465 0.0324196 -0.0620386 -0.0464699 0.0653028 0.0287664 -0.0550983 0.0353954 -0.013312 0.0124454 -0.0508652 -0.00555986 -0.021424 0.0964509 0.021739 -0.100185 -0.0466969 0.109018 -0.107943 0.016309 -0.0664273 -0.121596 0.0210063 0.0147909 0.0311949 0.127106 0.0105871 0.0595273 -0.152042 0.0299775 -0.016596 0.0592427 0.0362267 -0.0329146 -0.0188454 -0.0689134 -0.0269375 -0.0244173 -0.0762186 -0.0160146 0.0157454 -0.0241481 0.00467301 -0.0618151 0.0623167 0.0161497 -0.00157275 0.0707221 -0.0650263 -0.0486729 -0.0228413 0.0076441 -0.0808987 -0.0286447 0.00492843 -0.0179058 -0.0435388 0.11626 0.0280113 -0.0452742 -0.0023309 0.0176943 0.0110515 0.104249 -0.00922333 0.00563174 0.0629431 0.0132027 0.0532919 -0.0550687 0.0231813 0.0929974 -0.00659811 0.060828 -0.0582301 -0.0964674 0.167303 0.00415782 0.047175 0.0883224 0.038757 -0.0724536 0.045073 -0.0309492 -0.0897774 -0.0271307 2.25128e-05 0.0759502 0.0412381 -0.0250748 0.0263859 -0.0171234 -0.00977511 -0.00404328 -0.0108157 0.0347118 -0.0709896 -0.0157937 0.0427299 -0.0432986 0.0361028 0.125877 -0.0200688 -0.00262866 -0.0106014 0.0532469 0.0923269 -0.0138661 -0.145858 -0.020556 0.002366 -0.0730798 0.141263 -0.0342946 0.0202496 0.133306 -0.084296 0.0373963 -0.0698823 0.053894 -0.107892 0.0667392 -0.0793662 0.0210789 -0.0378799 -0.0163694 0.102235 -0.048248 -0.049908 -0.0138517 0.0613379 -0.0849557 0.0456429 0.0509728 0.0251541 -0.028873 -0.0723354 -0.110013 0.0822455 0.00971041 0.0591637 -0.143859 -0.116488 -0.0457612 -0.0093936 0.0371833 -0.0412572 0.11328 -0.00848956 0.0257372 0.0201809 -0.0223354 -0.055289 -0.0835377 -0.0270086 0.0457525 0.0235457 -0.0223223 -0.00222561 -0.0532525 0.0628363 -0.0292327 -0.0208105 0.116 -0.0105939 -0.0430425 0.0493968 0.00414403 0.0180926 -0.0038501 0.0248206 0.00965835 0.107466 -0.0485336 -0.00833083 -0.0371647 -0.0345577 -0.0139468 0.0666784 0.0134128 0.0634385 -0.0685854 -0.0251529 0.0427005 -0.0910286 0.0139477 -0.00410437 -0.0696193 -0.0835425 -0.0106352 0.0320288 -0.00902838 0.0235659 0.0161168 -0.156143 -0.0506632 0.0102227 0.00808114 0.0346692 0.0218488 -0.105199 -0.0705209 0.00196591 -0.0176587 -0.0596376 0.00272277 -0.00461362 -0.0424915 -0.0505378 0.0167448 0.0145281 -0.0660026 -0.0591065 0.024202 -0.00581851 -0.0372888 0.00481194 -0.0360247 -0.0913031 0.0487146 -0.039146 0.127424 -0.0492599 -0.0378362 0.0202881 -0.0506951 -0.0870243 -0.0260622 0.0163013 -0.0491088 -0.0693616 0.00897487 0.0119502 -0.00877211 0.134002 0.0311555 0.0988415
