9 50
pain 0.64035 0.095804 -0.73647 -0.91755 -0.27364 1.0466 1.2716 0.98912 0.60234 0.79581 0.47928 0.063985 -0.51816 -0.98327 0.48409 0.28025 -0.71426 -0.44759 0.039722 -0.2933 -1.0151 0.84366 0.23043 -0.25668 0.46176 -1.2682 -0.57063 0.15493 1.0007 0.04035 2.8465 1.3912 0.98054 -0.16955 -0.53801 0.43813 0.67893 -0.28859 1.4702 0.15673 -0.0026093 0.51677 -0.48815 0.73152 0.89485 0.38529 0.456 -0.19688 -0.65308 0.53455
steak 0.39594 -0.37412 -1.6884 -0.41113 0.85717 0.73081 0.11682 0.46436 -0.10232 -0.52428 -1.0331 0.051371 0.93981 0.96951 0.2395 0.43697 0.7754 -0.15809 -0.41777 -0.41647 0.34529 -0.6583 0.23803 1.0044 -1.5096 -0.36558 -0.29781 1.0855 1.0658 -0.62572 0.89317 0.29259 0.21173 2.4624 0.32407 0.41814 0.17463 0.7009 0.87018 -0.70176 0.56145 0.85559 0.056661 0.43719 1.0933 0.75693 0.20737 -0.26262 -0.30394 1.3945
spaghetti 0.27641 -0.75569 -1.4216 0.086128 -0.59157 0.014597 0.88348 -0.50365 -0.5231 0.18284 -0.63056 1.0057 0.20742 0.82835 0.61957 -0.27353 -0.18463 1.3742 0.2041 0.42602 0.545 -0.29847 1.253 0.84489 -0.33214 -0.43106 -0.34053 1.1514 1.1369 -0.99737 1.0316 -0.026007 -0.0811 2.1924 0.41586 1.5967 -0.42916 0.96886 -0.15935 0.11707 0.18876 1.2632 0.057719 -0.429 -0.062286 0.57442 0.63041 -0.58856 -0.23112 -0.084114
chocolat 0.76572 -0.50677 -1.095 -0.30256 -0.63529 0.32283 1.2786 -0.69611 0.6903 -0.057843 -0.81357 0.2158 -0.40371 0.075167 0.40852 -0.68624 0.5379 0.98059 0.091551 -0.99595 -0.073297 1.6692 0.91837 -0.19711 -0.29039 0.72901 -1.7687 0.762 -0.84198 0.2582 -0.60793 0.65887 -0.52068 1.4935 -0.42375 -0.74338 -0.056873 -0.3936 0.97504 -0.90622 0.21774 0.46971 0.65887 -0.63154 -0.81402 -0.10764 -0.13653 -0.27893 0.37425 1.2303
beurre 0.84649 0.22922 -1.2008 -0.67351 -0.94046 0.45628 0.69368 -0.31897 -0.77425 0.71552 -0.33713 0.54018 0.30569 -0.34136 -0.32454 -0.48985 0.91091 0.88131 -0.012025 -1.4734 -0.79937 -0.27004 0.70045 -0.15699 -0.61404 0.94863 0.33283 1.3131 0.25243 0.10676 -1.0448 -0.043823 -2.2252 1.5181 0.4577 -0.95586 -0.7476 -0.047622 0.10558 -0.07953 0.6414 0.28998 -0.2723 -1.0209 0.23039 -0.28841 0.77562 0.33763 -0.64741 0.81228
fromage 0.9559 -0.03481 -0.89223 -0.57647 -0.6016 0.40364 0.51439 -0.3324 -0.5501 0.42229 -0.0046314 0.50037 -0.22699 -0.68185 0.73887 -0.20233 0.49345 0.73593 -0.31744 -1.5093 -0.80592 -0.87613 -0.50575 0.35144 -0.70744 0.81269 -0.49451 1.6602 0.57931 0.3618 -1.4008 -0.32223 -1.2401 0.96958 0.72488 -0.14222 0.12828 -0.16176 -0.13131 0.082126 0.84059 0.076157 0.41287 -0.66987 0.20447 0.61912 0.26342 0.73565 0.64697 0.023849
salade 0.4813 -0.13566 -1.1841 0.13941 0.026387 0.4139 0.12177 0.65758 -0.44513 -0.22972 -0.69503 0.7511 -0.032473 0.29138 -0.59133 -0.99996 0.44907 0.46785 0.45192 -0.7257 -0.39107 -0.19562 -0.88806 0.24542 0.59756 1.2495 -0.19819 0.11196 1.1581 -0.35034 -1.0869 0.32654 -0.67677 1.7013 1.2722 0.076249 -0.52808 0.14802 -0.67347 0.24853 0.060449 -1.0376 0.94497 -0.74006 -0.079437 0.12257 0.26045 0.62161 1.1539 0.74779
soupe 0.93482 -0.28002 -0.9621 -0.52697 -0.50206 -0.4946 0.68931 0.57776 -0.13656 0.41692 -0.027098 0.30697 0.69496 0.8239 -0.47773 -0.98609 0.58841 0.10014 0.48283 -0.090052 -0.61296 0.040305 -0.26566 0.33356 -0.15023 1.5718 0.048451 0.23374 -0.40884 0.30448 -0.85356 0.095734 -0.66401 0.81735 -0.41299 -0.13398 -0.065255 -0.5684 0.9488 -0.50937 0.34517 -0.43398 -0.18702 -0.47733 -0.33228 -0.62202 0.75141 0.087524 0.23064 0.81291
jambon 0.37276 -0.25252 -0.19311 -0.59819 -0.32434 -0.46197 0.25341 0.74363 -0.17163 0.71843 0.26184 0.37301 0.1224 -0.36185 0.018214 -0.049707 0.81603 -0.72739 0.53019 0.27265 -0.88093 -0.38408 -0.081543 0.9731 -0.27829 0.80817 0.16083 0.10772 0.60373 -0.00041993 -1.1196 0.059398 -0.2733 0.49093 -0.0097586 -0.31666 0.35987 -0.088188 0.11692 0.033143 0.77053 -0.37021 0.28237 -0.13012 0.62857 -0.25731 -0.21148 0.12813 0.90303 0.64846
