10 50
football -1.8209 0.70094 -1.1403 0.34363 -0.42266 -0.92479 -1.3942 0.28512 -0.78416 -0.52579 0.89627 0.35899 -0.80087 -0.34636 1.0854 -0.087046 0.63411 1.1429 -1.6264 0.41326 -1.1283 -0.16645 0.17424 0.99585 -0.81838 -1.7724 0.078281 0.13382 -0.59779 -0.45068 2.5474 1.0693 -0.27017 -0.75646 0.24757 1.0261 0.11329 0.17668 -0.23257 -1.1561 -0.10665 -0.25377 -0.65102 0.32393 -0.58262 0.88137 -0.13465 0.96903 -0.076259 -0.59909
baseball -1.9327 1.0421 -0.78515 0.91033 0.22711 -0.62158 -1.6493 0.07686 -0.5868 0.058831 0.35628 0.68916 -0.50598 0.70473 1.2664 -0.40031 -0.020687 0.80863 -0.90566 -0.074054 -0.87675 -0.6291 -0.12685 0.11524 -0.55685 -1.6826 -0.26291 0.22632 0.713 -1.0828 2.1231 0.49869 0.066711 -0.48226 -0.17897 0.47699 0.16384 0.16537 -0.11506 -0.15962 -0.94926 -0.42833 -0.59457 1.3566 -0.27506 0.19918 -0.36008 0.55667 -0.70315 0.17157
golf -0.50695 1.2516 -0.97775 1.1732 -0.92008 -0.78049 -1.2378 -0.23536 0.089029 -0.34662 -0.75436 -0.41704 -0.91023 -0.23313 0.59862 0.72932 0.77085 1.2865 -0.67962 -0.45301 -0.34519 1.0711 -0.61766 0.59421 0.1466 -0.81916 -0.86074 0.14766 -0.46542 -0.66616 2.0837 0.41402 -0.053764 1.2341 0.95517 0.19039 -0.13464 1.0547 -0.12067 -0.85757 -0.25925 -0.71608 0.42513 1.3469 0.50054 0.017252 0.20064 -0.28727 -0.11569 0.12408
tennis -1.4273 1.3488 -1.012 1.7242 -0.86748 -1.103 0.37083 0.80612 -0.50163 -0.062832 0.30981 -0.69908 -1.197 -0.044018 1.4869 0.50192 0.030093 0.95681 -0.58884 -0.25068 -0.37019 0.63007 -0.71488 1.0407 -0.26764 -1.26 -0.44102 -0.48023 -0.5939 -0.20946 2.0527 0.69733 0.33643 0.53583 0.030302 0.64907 0.36372 1.4427 0.041119 -1.4665 0.41992 -0.38127 0.96818 0.85974 1.0575 0.33251 0.27124 -1.1438 -0.38746 -0.060124
hockey -1.9178 1.2468 -1.0141 0.74138 -0.50693 -0.074934 -1.1668 0.53555 -0.52722 -0.76031 1.3222 0.18061 -0.6563 1.0059 0.53147 0.25406 0.8661 1.2151 -1.8582 0.2757 -0.76282 -0.38983 0.0962 0.92528 -0.7233 -1.369 -0.46969 0.021974 -0.18952 -0.74589 1.5503 1.7448 0.091664 -0.25941 -0.084404 0.58326 0.10975 0.40191 0.17124 -0.068963 -0.35664 -0.32106 0.24118 0.26753 -0.47503 0.67868 -0.27539 0.70799 -0.36436 -0.201
badminton -1.7092 0.36399 -1.0464 2.1755 -0.3554 -1.043 0.64953 0.46436 0.33071 -0.75288 1.0315 -0.41413 -0.67024 0.45426 1.1102 0.61972 0.093198 0.65911 -0.70247 -0.32327 -0.086315 -0.010542 -0.073478 0.70835 -0.13883 -0.46317 -0.27915 -0.83961 -1.9688 -0.047392 1.1082 0.67673 0.31794 0.4553 0.098444 0.54616 0.5481 0.71717 -0.41543 -0.90274 -0.35898 -0.5958 0.3551 0.70041 1.2406 0.4635 0.51151 -0.54871 -0.065914 -0.87089
volley -0.28896 -1.0615 -0.17621 -0.3004 -0.4074 -0.38123 0.32945 0.85208 0.077032 0.99935 -0.79903 -1.1919 -0.81683 0.52946 -0.81093 -1.3954 0.6249 -0.92177 -1.9396 -0.34726 -0.58148 0.4229 -0.66903 -0.45794 0.53826 -1.3715 0.58138 0.84329 0.43734 -0.91142 1.6692 -0.46225 0.29929 1.1423 0.1141 0.8155 0.25111 1.2497 -0.095915 -0.45619 1.513 0.98519 0.013792 0.11401 0.14029 -0.38506 1.7294 0.04016 -0.059611 -0.56247
snowboard -0.95956 0.71175 -0.64498 1.3237 -0.85683 -0.23788 -0.54267 -0.8298 1.2267 -1.2879 0.28579 -0.9232 -0.88252 0.15279 0.32198 0.55995 0.45384 0.48735 -0.82129 -1.2836 0.28495 0.43984 -0.72057 0.57772 -0.066126 0.23926 -0.92395 -0.17317 -0.52453 -0.50996 -0.055135 0.83096 -0.88041 0.75316 -0.038494 -0.064468 -0.22616 0.56586 -0.12311 0.089935 0.12859 -0.66865 0.6661 0.6981 0.94682 -0.36517 1.4524 -0.1853 -0.17973 -0.29629
nager 0.13414 -0.95501 0.10493 -0.13605 -0.43964 0.82123 0.025045 0.016151 0.68782 -0.017204 -0.15663 -0.19181 -0.2195 -0.87115 -0.17046 -0.31916 -0.072889 -0.010457 0.6464 0.35602 -0.84942 0.87289 -0.089629 -0.1485 0.80153 0.66961 0.50994 0.12113 -0.0057039 -0.31469 -1.5042 -0.66387 0.30219 0.32448 0.42577 -0.1951 0.42031 -0.014435 0.19072 0.49173 0.17107 0.00546 0.10106 -0.29306 0.062255 -0.63669 0.14291 0.045466 0.11339 0.77987
cyclisme -1.4462 0.94074 -0.42003 -0.46489 -1.9177 -1.3986 0.82714 0.84695 0.15239 1.1334 1.4741 0.40643 1.6888 1.0912 -1.0512 -0.31985 1.5507 0.48425 -0.99724 0.369 -1.3036 -0.74994 0.44773 1.1785 0.013702 0.68029 0.17144 -0.10855 -0.73378 0.34778 -1.1304 -1.7139 -0.33602 0.032244 0.090169 -0.95575 0.40478 0.082935 -0.1832 0.46087 1.5675 -0.61996 1.6862 0.49125 -1.043 -0.92244 0.070061 -0.30959 0.054211 0.37949
