12 300
train -0.09872581 -0.10928094 0.04971698 -0.04241146 -0.04158887 0.09539591 0.30928805 -0.15271147 0.104713686 0.15005855 0.18554306 -0.027932948 -0.10443931 -0.07300417 -0.04083319 0.16296433 0.0509425 -0.18986873 0.061367024 0.045695126 -0.20283568 -0.07708871 0.056351267 0.7951843 0.09393651 -0.15306899 0.090091266 0.041121952 0.027112952 -0.03224656 -0.09096853 -0.09990563 0.19224979 -0.16699088 -0.102335945 0.26930895 -0.1741614 -0.12433534 0.02333739 0.047390576 0.1254369 -0.069640756 0.015909797 0.30019346 0.008751223 0.103256516 -0.09479867 -0.18000627 -0.9771902 -0.19530322 0.23634756 0.1580604 -0.24852787 0.026540255 -0.09699053 -0.123713195 -0.42655215 -0.2156453 0.12976888 -0.09483835 -0.022880264 -0.31417185 0.09888102 -0.1798192 0.042038392 -0.08105361 0.17858617 0.09841008 -0.16268486 -0.015457553 -0.12710363 -0.23396395 -0.05118854 -0.032984123 -0.084040724 0.26023167 0.10023235 0.121095344 -0.12240805 0.1506083 -0.2853023 0.0055976054 0.15561838 0.14384645 -0.000816073 0.1713629 -0.06161544 -0.11936576 -0.07338243 0.085292235 0.13518195 0.13048561 -0.08565842 -0.10149519 0.057908133 0.04194513 -0.023382654 -0.07031813 0.13178684 0.37829486 -0.050315276 -0.09788366 -0.13067317 -0.10053193 0.025574116 0.13321555 -0.09190331 -0.033112697 -0.08490512 -0.03965476 -0.2665362 0.1906973 -0.04076577 -0.013006498 -0.1861012 0.1458415 -0.6555047 0.034339193 -0.10216278 -0.036409207 -0.027887793 0.07719703 0.23222989 0.017498232 -0.11229376 -0.11487609 -0.012296053 -0.07073171 -0.08633703 -0.29532182 0.03920987 -0.18903421 0.08340793 -0.23558342 0.09336507 -0.028701233 0.11903666 0.18921836 0.06946175 -0.055186197 -0.12297054 0.06675061 0.05068806 0.05880658 0.1010889 -0.0235388 0.05893807 0.10173201 -1.1348774 0.0946428 -0.22573447 0.035513673 0.013475237 0.101836294 0.119975194 0.09885875 -0.045516957 0.09133054 -0.01266313 -0.0070467712 -0.18060572 0.0128162755 -0.111664236 0.022138892 -0.05902701 -0.039193023 -0.10986889 -0.050314825 -0.017009808 -0.31202322 -0.033842966 -0.49351454 -0.06569711 -0.052826103 -0.18675852 -0.19646688 -0.0010362916 0.18320966 -0.099887714 0.10121519 0.14008841 -0.08381647 -0.022954876 0.11987905 0.103013664 0.1331334 0.076258704 0.13581198 -0.18008205 -0.13668585 0.5418428 0.007054186 -0.027836157 -0.20708054 -0.16117066 0.011672515 0.3638267 0.10710443 -0.11143903 -0.054198753 -0.03008492 0.07347379 0.20572329 0.23389336 -0.022609718 -0.30320087 -0.23409086 0.35782197 0.020443238 0.020350957 0.22232716 -0.035832837 0.30648366 0.18034798 0.14457816 0.058209706 -0.024465656 -0.14027898 0.028923502 -0.007843463 -0.16560939 0.1368625 -0.040130723 0.044530638 0.07439722 -0.26130387 0.04965335 -0.06066508 0.083686024 -0.14220239 0.08288153 -0.13375399 -0.10533651 -0.16327149 -0.023484085 0.07267932 -0.040184554 -0.02086345 0.042670686 -0.022004688 -0.3591034 0.07210431 0.004867205 -0.002824063 -0.38317558 0.057739478 0.11067106 0.060294736 0.20164327 -0.041758146 -0.0132575715 -0.1812575 0.2517354 -0.051715434 -0.13173263 -0.2775211 -0.17408507 0.06243002 0.20733964 0.11758787 0.181216 0.036234055 0.015767744 -0.17591394 -0.023503384 0.15279323 0.28702056 -0.0070258006 -0.024493193 0.0086692795 -0.2666392 0.061395116 -0.2299006 -0.17705049 -0.008174686 0.016773794 -0.38403064 -0.21067962 -0.2209622 0.026216693 0.03890687 -0.003972758 0.022126282 -0.042384677 0.2977364 0.12719734 -0.21379377 -0.0071309987 -0.1379167 0.061019767 0.20702179 -0.22015813 0.066919655 -0.03468411 0.13809244 0.046356153 0.15121019 0.049575023 -0.27586132 -0.19452405
moto 0.47342274 0.010138379 -0.15026608 -0.10659417 0.37865487 -0.026243404 -0.12602192 -0.47429207 0.33824107 -0.48961568 0.12146814 0.22316864 -0.30170295 0.20616297 -0.4308938 -0.119089425 -0.57202417 0.4801178 0.31193745 0.056780424 -0.17520319 -0.02328521 0.2035488 0.07349128 0.07574695 1.3936491 0.22174896 -0.059554156 0.15310916 0.38826475 0.53933465 -0.28741226 -0.18750492 0.30317616 -0.47927532 -0.28341034 0.3008821 -0.07396545 0.2392922 0.35916284 0.15425093 -0.17835179 0.21314046 0.07336158 -0.37945902 0.14199963 0.18305066 -0.1311145 0.1264325 -0.3086506 -0.03842442 -0.08981938 0.28233662 0.23855864 -0.35252234 0.5483839 0.16164985 -0.109895974 -0.04948557 -0.29802468 -0.48115396 0.39598736 0.28427032 0.6652459 0.22163089 -0.55656993 -0.41483968 -0.184704 0.067643665 -0.16625652 -0.16911396 -0.04000517 -0.14414954 -0.09962636 -0.38397262 -0.8178337 0.43067473 0.31120592 0.024188861 0.06648497 -0.8618895 -0.06717121 0.31400457 1.6707499 0.3135374 0.477928 1.4176143 0.954696 0.2816879 -0.48589286 0.2099584 0.9825701 0.18392184 0.01838521 0.18880093 -0.15563014 -0.34418657 -0.15003806 0.36929703 0.61178684 0.13999625 0.02101101 -0.075106636 0.12695822 -0.20551425 0.20291314 0.24212724 0.12259907 -0.035677407 -0.1599137 0.11422724 -0.40043533 -0.013792967 0.30394962 -0.7738947 0.039132886 0.7595115 -0.241655 0.40667784 -0.0071454886 -0.2601682 0.17512724 0.26011503 -0.2404826 0.4280016 0.4920113 -0.024005754 -0.16493814 -0.5199408 -1.4537108 0.22293474 -0.37099728 -0.32209787 -0.1532553 -0.34725475 -0.30433047 0.27913776 -0.07654561 -0.008862793 -0.5965002 -0.90410215 -0.03946562 0.779578 0.08769437 0.5830459 -0.10832224 -0.005376656 0.22733667 0.5485358 0.036637977 -0.62484664 -0.11409329 0.18180954 0.10492799 0.21260785 -0.023642238 -0.21090193 -0.0047874036 -0.13783889 0.3526174 0.21365304 0.58027834 0.31881425 0.055486135 -0.015820652 -0.40510812 0.10483764 0.58074963 -0.10430399 0.14870064 0.3473445 -0.27554086 -0.018131368 0.4184684 -0.39101857 -0.2613094 0.009428384 0.09110265 -0.18678272 0.47939008 -0.23409131 0.20617157 -0.08161302 0.28002936 0.23182297 -0.025624206 -0.16872014 0.294857 -0.14404123 -0.1605648 -0.40431082 -0.27800366 0.19425136 -0.2051566 -0.18770152 -0.028473428 0.34818754 -0.008422237 0.019564636 0.07431357 -0.49854535 0.35407004 -0.45860028 0.087829225 0.18793845 0.27846748 0.076166764 -0.2822125 -0.08722045 -0.026706293 0.22961067 0.38777032 -0.14707382 0.120275095 0.05145928 0.5288207 -0.08381821 0.58281606 0.14619763 0.06688277 0.26117113 -0.3884336 0.33378574 -0.13953169 -0.2015168 -1.37516 0.13268365 0.23006243 0.14995568 -0.32748538 0.15634342 -0.16657883 -0.28528878 -0.11857945 -0.1417707 -0.15970345 0.32951 0.33376893 0.23671505 0.28608972 0.009999186 0.2126316 -0.1410017 -0.30773818 0.47358906 0.12156553 -0.0040966785 -0.03800251 -0.16403432 -0.33644655 0.13702823 -0.3489676 0.37910134 -0.011474315 -0.4572791 0.046441253 0.29380897 -0.4295391 -0.18042587 0.5066893 -0.094539635 -0.13072126 0.44686827 -0.5073589 0.23119274 -0.010328449 0.24463601 1.2967075 -0.36966905 -0.072375245 0.19879356 -0.132807 -0.03522398 0.13262847 0.10950298 0.076632455 0.17552312 0.023942119 -0.89128673 -0.10661551 -0.5413411 -1.1003417 1.2048255 0.028702574 0.09031836 -0.1463129 -0.4622846 -0.3541838 0.018121012 -0.71161413 -0.3305555 -0.09610589 0.13612023 -0.0067237522 -0.42898673 -1.3490299 0.35715374 -0.09237338 -0.567891 0.16023391
avion 1.029662 -0.05586242 0.044731487 0.4200768 0.39537272 0.21372567 -0.40754426 -0.03740056 -0.058219146 0.9282103 0.02561713 0.006861184 -0.105060115 0.19988903 -0.43814385 -0.33084542 -0.05489788 1.0712066 -0.069469534 0.017862491 0.27675575 0.80895966 -0.14769803 -0.56335974 0.18757088 -0.25503427 -0.11661927 -0.20089252 0.24926972 0.01357669 0.08217151 0.03921818 -0.27269632 0.4437808 0.13676557 -0.10176524 0.10905523 -0.89770293 -0.22202283 -0.15261415 0.76771003 0.10182426 -0.15751007 0.1567209 0.054774582 -0.121738315 -0.5713501 -0.30588478 0.77724546 0.44111878 -0.059369933 -0.2888112 -0.13211755 0.5010697 -0.44978696 0.20492852 0.033838443 -0.12063542 -0.042017445 -0.10181243 0.75714 0.46257338 0.26383024 0.3787145 0.1156961 -0.007320289 -0.16134009 0.009068433 -0.22630772 0.23074257 -0.092183135 0.09156848 -0.2750201 0.082004 -0.16122037 -0.44009402 0.030587494 0.030225389 -0.03452968 0.5967508 0.43037474 -0.16625032 -0.20256841 0.23988225 0.30627042 -0.008366272 1.028974 0.4403448 0.2520358 0.013577953 -0.17523625 0.54931307 0.08193801 -0.40536064 -0.47538513 -1.0794119 -0.34447846 0.2341928 -0.14696153 0.15777235 0.03863664 0.62942386 -0.28324494 -0.03491334 -0.33081427 -0.39769086 0.039610825 0.2886518 0.4226392 0.13232875 -0.17989191 -0.2178691 0.3824811 0.0070241624 -0.008712002 0.092939116 0.38233867 0.19825104 -0.78674644 0.17614946 -0.24092504 0.12261795 0.4044151 -0.38357982 -0.5679939 0.10537119 -0.21539922 0.12228827 -0.9170202 -0.35609537 0.077320494 -0.051855993 -0.39816988 -0.13892382 0.22001377 -1.3402051 -0.27573618 0.1625331 -0.07429561 -0.20460539 -1.0767335 -0.18362644 0.29737312 0.005220436 0.8084583 0.33232054 -0.054776814 -0.16061416 0.26847056 -0.17564164 -0.21062124 0.019458631 -0.24091578 0.20069216 -0.005285811 0.060186587 0.06979587 0.5245639 0.2035298 -0.030634766 -0.06556625 -0.2215859 0.10533882 -0.023228714 0.27652618 -0.29839876 -0.2266482 1.0847052 0.7862508 0.39951524 0.14433445 -0.004262795 0.28609225 0.07114977 0.23840645 -0.1998519 -0.019617613 -0.3296618 -0.08893194 -0.36955062 -1.3504823 -0.26067644 -0.1624315 -0.2015717 0.7745425 0.022087067 0.15620843 0.5287929 -0.17888568 -0.32120433 0.97448474 -0.18649346 -0.08043949 -0.23468636 -0.45286435 0.066825345 0.056941457 -0.13650751 -0.43632925 0.047956716 -0.017935047 0.25347278 0.1272105 0.7399616 0.42242676 -0.0747752 0.016642267 -0.13434139 0.22270279 1.5894303 0.13608119 0.047171675 0.111733966 -0.11722363 0.091973275 0.42183223 -0.17237124 0.2316733 0.1606515 -0.17072931 0.16273814 -0.03108503 0.012398781 0.21630625 0.0069405166 0.13232535 -0.33587188 0.62519 -0.9638019 0.57539684 0.42658806 -0.12901002 0.28626466 -0.20529214 0.18122722 -0.09987487 0.5907203 0.21804622 0.28952342 0.37480712 0.4854227 0.3761609 0.21749112 0.10885658 0.18977194 -0.30542463 -0.040531315 0.24582963 -0.2043123 -0.14914125 -0.0519977 -0.0029485635 0.0733188 -0.0019184913 0.1912268 0.050612293 0.47490177 -0.4163184 -0.12548313 0.10364415 -0.24754046 -0.29732436 0.19591786 -0.4092772 0.3033309 -0.62769276 0.171814 0.9401291 -0.21713552 0.02666784 0.40204802 -0.178237 0.31092143 -0.17182471 0.11475115 0.050277673 -0.43338984 -0.37445322 0.48199424 0.23461048 -0.17287128 -0.7432711 0.13395403 -0.098151594 0.23558894 0.066733114 0.00011432164 -0.026278993 0.06486033 0.004038739 -0.18263897 0.20366655 0.34290767 -0.22165595 -0.397166 -0.53158283 0.32050177 -0.17835358 -0.046086743 0.34673834
voiture 0.9795282 0.22325672 -0.33280683 0.007625337 0.41079453 -0.0051678014 -0.47406146 -0.2877377 0.17538306 0.95432603 -0.27618173 0.09571268 -0.21228231 -0.13851587 -0.7266975 -0.3610436 -0.39865693 0.94823945 0.17632933 -0.22920537 0.35908976 0.36318585 0.26167038 -0.3895589 -0.0771182 0.11800882 -0.083449125 -0.11040187 0.18440302 0.1126022 0.32721436 -0.30958298 -0.22884797 0.6005524 0.29888847 -0.3139 0.15373348 0.15439542 -0.2610611 -0.12818792 0.71426314 -0.013535397 0.13685161 0.0051712273 0.12592345 0.017868482 -0.06411532 -0.7698713 0.26495874 0.17814496 0.13427092 -0.10846489 -0.15684181 0.16998515 -0.22388357 0.47655264 -0.006513483 -0.333285 0.034904335 -0.43579197 0.57195646 -0.27055892 0.18939433 0.5084603 0.21678329 0.093998305 -0.31243452 0.11139666 0.22580394 0.37846017 -0.25287458 -0.14853302 0.24293275 1.131584 -0.45844942 -0.23995368 -0.021964336 -0.5445828 -0.3388711 0.16297369 0.3863945 0.32975817 0.010809949 -0.15443024 0.039042633 0.30769703 0.17788352 0.5230988 0.060967244 -0.05107766 -0.19739103 0.50511783 1.0488113 -0.39026 -0.25704157 0.11360846 0.81489164 0.17691952 0.4384305 -0.7547856 -0.09803756 0.19735189 -0.27707788 -0.2725436 0.036468107 0.092663184 0.39152634 0.4926239 0.20390108 0.11657368 -0.17299709 -0.08567826 0.7173702 -0.30500427 0.13786939 -0.16740438 0.6282181 0.39921674 -0.69869995 0.058435 0.023414046 -0.52134323 -0.04998647 -0.6208901 -0.36839983 0.055148702 -0.21427882 0.13809633 0.007225258 -0.3157719 0.01829666 0.060280126 -0.3125864 -0.17547294 -0.19728397 -0.22552785 -0.4067075 0.16633946 0.09611664 -0.45841435 -0.88472354 -0.32577804 0.64063466 0.12857892 0.005680712 -0.19967906 -0.14123352 0.121960156 0.52833897 0.06907894 -0.48965934 0.034065798 0.055881843 -0.031346124 -0.1288799 -0.23926753 0.024483288 0.4277546 -0.14429314 -0.21985859 -0.23829263 -0.008335597 0.39647514 0.040321823 0.27452275 -0.40376458 -0.25034413 1.1973375 0.51028794 0.06511793 -0.5222889 -0.049622763 -0.03894994 0.17587669 -0.41446394 -0.17442705 -0.03836297 0.34873772 0.028617604 -0.04571356 -0.050775718 -0.3546507 -0.6173081 -0.062929265 -0.29838926 0.0862134 -0.024917208 0.07996481 -0.24101661 0.03754888 0.7147573 -0.021050671 0.2345544 0.40956682 -0.045976665 -0.14411736 -0.034849387 0.028146377 -0.45676187 -0.14728193 -0.38571724 -0.13839085 0.025620978 -0.57565254 0.15184928 0.1831172 0.22872227 0.177113 0.26259091 0.19929735 -0.24915029 0.008079922 -0.019778047 0.32585242 0.1989358 0.38737535 -0.20677713 0.45601588 -0.26652247 -0.5084008 0.4747617 -0.65447426 -0.4868354 0.119581096 -0.16763577 -1.0890919 0.07206314 0.57401174 -0.63089967 -0.7747996 -0.18013391 0.1961851 -0.35513198 -0.14745547 -0.43652552 0.24374923 0.7998901 0.26851887 -0.17617998 0.4796847 -0.10479231 0.21104987 0.24586682 0.019716488 -0.076863684 -0.34086794 0.42714164 -0.38378838 -0.33084726 -0.41001213 -0.2655009 -0.38988546 0.29142037 0.0057682823 0.017251866 0.6426992 0.030795928 -0.26039863 0.2517048 -0.11964804 0.13234536 -0.012478562 0.32583654 -0.4079844 0.35467175 -0.51394993 -0.08809832 0.9609478 -0.36267415 -0.31265357 0.47053483 -0.33435398 0.25323987 -0.38542473 -0.11638715 -0.15705325 0.7556843 0.18267252 0.18230781 -0.057632286 -0.27357104 -0.64829576 -0.068748094 0.098727256 0.18849151 0.09478552 0.1463058 -0.42681515 -0.18237765 -0.41422874 -0.851299 -0.04790831 0.47787544 -0.54155684 0.8489855 -0.8562499 0.15286681 0.08825178 -0.14143705 0.244175
camionnette -0.26390672 0.78576076 0.40653792 -0.18195975 1.0508506 -0.6842705 -0.9611456 -0.6152502 2.3651214 0.39322308 -1.0879843 -1.363165 -1.0208445 -0.42838877 0.16109504 -0.7750088 0.5611118 0.30766934 0.5141162 -0.53198236 -0.27936912 -0.086236686 -0.7165809 1.4663205 1.9867378 -0.23890434 -0.051781554 1.2829276 0.6668138 -0.4316777 1.4508018 0.41070312 1.096562 -0.92639494 -0.177612 -0.64552003 0.22239318 -1.8016111 0.53205436 1.6415626 0.90708566 0.732359 0.2703837 -0.19592611 -0.16563407 -0.9520404 0.9926338 -0.33130917 -0.05222215 -0.43253368 0.890811 -0.1634177 -0.090524316 1.2517562 -1.022685 -1.1454704 0.63357854 1.5359415 -0.18744007 -1.2010015 1.4915955 3.1131608 1.2329373 -0.039505817 -0.70656925 -1.0151356 -1.8409622 0.88716984 -0.2097119 0.5292764 0.5914823 0.81707424 -0.7559365 1.210464 -0.2774271 0.16369332 0.10493661 2.4284227 0.040270206 -0.7894627 0.3745625 0.4394364 0.5122664 -0.030536301 -0.73381567 0.61508924 -0.9123833 3.2899997 -0.10883797 0.35092238 -0.8336303 -0.67211986 2.4307914 -2.6351397 -0.6719713 -1.6155113 0.07035001 1.779512 0.60910326 2.0388422 0.7313779 -0.71693265 -0.7678219 0.026086792 -3.047486 -0.46742943 1.2689523 0.22851226 1.2938149 -1.1161716 0.34373957 0.74705154 0.66881615 -0.27114093 -0.7823467 0.27264193 0.29151893 1.3072975 -1.0817373 2.0019917 0.71961826 1.0338014 0.13331258 0.2738735 -2.7750006 1.0023159 -0.118251555 0.21056512 0.37939218 0.7643408 -0.93828124 0.021328958 -0.6880234 1.0176415 -0.17415848 -1.1019899 -2.716919 -0.3978345 -1.2719892 -1.0596426 -0.7638433 -2.3845143 0.24868174 -1.6544225 0.517759 2.1373777 0.37929744 -1.6174437 0.076085076 0.5788537 -0.3562837 -1.6344359 0.23460746 0.9978854 -0.19387423 -1.564945 0.10977549 0.12518339 -0.062755115 -0.1592738 -0.19422081 -0.3181341 -0.3657812 3.1683974 -0.7084207 0.6874935 -0.08478766 3.0656066 -0.02998828 0.21746872 0.92535776 -0.83917665 -0.1190397 2.4337015 -0.3581731 -2.4521823 -1.467496 0.29996526 -0.59801924 -0.7080067 -1.1603104 -1.2726015 -0.11279316 0.068892226 -1.4213368 2.4721725 -1.4243213 -0.75918484 0.70136654 -2.209031 1.1052012 -1.9344711 0.832559 0.13638102 -1.6249434 0.68653667 0.72532314 1.2388797 -0.8712378 -1.6619797 0.9679726 0.31717232 -0.6356482 0.1250072 0.026619982 0.66869384 -0.050497454 -0.5160939 0.6744951 -0.29399306 -0.43046796 2.9448116 0.06911667 0.19611661 -0.4110909 0.08362436 -1.2175653 1.1182319 1.2924953 0.028361583 -1.900768 -0.718942 0.46709162 0.82472867 -2.6328762 1.5463058 -0.7729271 0.5252069 -0.3732664 -0.3938692 -1.1865772 -1.7293421 -0.12802257 -0.87679726 -0.36044645 -0.97033507 1.4875978 1.7968569 0.056651924 -0.26657572 1.9479076 0.66254395 0.24770825 -0.68574375 0.33077574 0.114793964 0.6897173 -0.59193265 -0.07143603 -3.0132732 -0.25840002 0.076302186 -0.9709679 0.38602668 0.048014738 0.35642672 0.09597227 -0.96363956 -0.13394964 0.4517513 -1.1248931 -1.2846112 -0.14213863 0.497904 -0.3061333 -0.21071644 -1.0477757 -0.26383296 -1.0113347 -2.264439 -0.8251353 -0.18094656 -0.5104652 0.5633724 -0.25565714 -0.62684375 -1.2727338 -0.66794145 2.4235523 -0.83781606 -0.7288029 1.0294585 0.16277824 -0.39800933 0.33087224 -0.47219062 0.17438054 0.8780746 0.542692 -0.73231316 -0.19696122 -1.0206741 -0.114086546 1.6876979 0.060937237 0.4577534 2.3131838 -2.0023067 -1.3432825 0.95278883
canoë 1.7154967 -1.1015263 -0.50439286 -0.10001199 0.02074949 -0.021029731 -0.18329912 0.077723 0.06954434 0.18467633 -0.6494749 -0.6465558 0.6482928 0.101389624 0.031104904 -0.45704764 -0.24333322 0.38519746 -0.3026073 -0.6368262 0.023096282 -0.08074449 -0.046981215 -0.65866387 -0.25410524 0.15210566 0.4708803 1.8578869 -1.288462 0.8531359 0.42137322 0.64877504 -0.5617642 0.29893726 -0.009995033 0.32279158 -0.87383014 -0.36273116 -0.42036918 -0.98871535 -0.36991012 0.6383743 -0.25206697 -0.9250244 1.2006644 -0.4678012 -0.19188802 -0.60741466 0.71616024 -0.15592554 1.5464633 0.81655526 -0.33906826 1.1093647 -1.1643827 0.47083992 -0.21282837 -0.4695141 -0.39681095 -0.46499023 1.0483857 -0.1603715 1.4947131 1.0469538 -1.5595601 0.5139275 0.022930378 -0.4282184 -0.023995113 0.296963 0.04862451 -0.64131236 0.42572284 1.3853004 0.41288957 -0.10018052 -0.8549221 -0.4328082 -1.4586853 -0.74654025 -0.5306287 0.17937787 -1.1931158 -0.32341966 1.0109694 -0.43782622 -0.32319248 1.4207519 -0.7187387 0.94737905 -0.51637006 -0.29410666 1.1975372 0.21028878 0.26026762 0.012035372 0.4195077 -0.86876476 1.9620456 0.25135928 0.037895016 -2.3836627 -1.4266644 -0.78559726 -0.31218764 -0.291164 -0.23457704 -0.0096218 0.20262489 -1.3805307 -0.13187416 0.63329256 0.3749516 -0.20650749 0.91836196 0.15000927 0.98054606 0.7412254 0.4419257 2.038182 0.28009832 -0.3695321 -0.1824495 -1.122384 0.6332027 -1.093609 -0.32819405 -0.0043439204 -1.4037732 0.5692656 -0.36607054 -1.0765437 -0.66841614 -1.3343086 -0.04276092 0.5238457 -1.3598394 0.4372559 0.6744767 0.23415872 -0.4479542 -0.37727845 -0.43156362 0.065376446 0.1268045 -0.2250523 1.5017568 0.62918204 -0.17730981 0.5932114 -0.5148171 0.590733 0.3961628 0.1877288 0.16501261 -1.1487522 -0.71551174 2.2617447 -0.25301862 0.32869786 -0.32820636 -0.1906462 -0.46607444 0.84324354 1.3499253 0.10245838 0.50657195 1.5852758 0.9382595 0.07517323 0.27087152 0.58944786 0.50323963 -0.202871 -0.030866854 1.0442992 0.02692319 0.033912323 -0.89625424 -0.5155761 -1.1187024 -0.6391085 -0.6541531 -0.5688589 1.0910481 1.1475723 -0.47230068 -0.4170551 -2.0198398 -1.20552 -0.16715375 -0.1730658 -0.24212216 0.8034569 -0.06641752 1.2908666 1.8081508 0.38536242 -0.40944606 1.205355 -0.667179 0.9485413 -1.0094095 0.11673755 0.8337721 0.15745467 -0.1297025 0.12695621 -0.4939103 0.9671279 0.68862647 0.24100271 0.054312885 0.14068301 -0.40570167 0.52196133 -0.23607323 0.58796 -0.20673814 0.27986097 1.1677258 -1.1345416 0.6263612 -1.3544525 -0.7898164 -1.6351507 1.4848137 0.6937148 0.33664766 0.030687865 0.05346477 -1.5257185 -0.22833477 0.48803914 -0.4517487 -0.641933 -0.49313748 -0.21775582 -1.0408908 0.3780811 -0.75383943 0.63146996 0.73612773 -0.9874447 0.9428293 -0.8551896 0.08258064 -1.101347 -0.7400222 -0.57723236 1.2031164 -1.2163643 0.13841939 -0.65009457 0.096752144 1.3304003 1.629065 -0.15048485 1.5562745 -0.50873417 0.97445 0.5923258 0.55999 -0.90226656 0.3806478 -0.9053079 1.8758203 0.07088236 -0.29486123 -0.7053228 0.75194854 -0.64406925 -0.59078014 -0.23471606 0.0525356 -0.05083791 0.9315657 0.6942957 -0.017573044 0.1139099 -0.41762495 0.62222713 -0.25340542 -0.27858818 1.381172 -1.2101023 0.53448486 -0.18643036 1.0451858 -0.2956942 0.12696682 -0.44657016 -0.08945426 -1.7225064 0.21829098 1.1098611 -0.08765684 1.1993932 -1.6960319 -0.038912103
tracteur 0.41259274 -0.10945938 -0.080127604 -0.35021448 1.039476 0.27794775 -0.3390503 -0.76172906 0.36128542 -0.26251456 -0.7038311 -0.47956216 -0.4756556 -0.022779197 -0.69763964 0.9821864 0.47695944 0.01412591 0.12419964 0.36458653 -0.27576628 -0.1189363 1.0453733 -0.95334584 0.9332183 0.5145694 0.1146459 2.0739768 0.39374354 0.93519807 -0.672099 -0.39659238 -0.8772529 0.87269163 0.29896757 -0.8016522 0.9745585 -0.2856368 0.72818583 0.10308816 -0.93393415 -0.37263703 0.13106155 0.44417495 0.20068224 -1.4393536 0.27397984 -0.58633685 -0.1008066 -1.0539902 -0.16254084 -0.8489895 1.464138 -0.2877667 0.27665907 0.19543105 -0.8301104 0.62799346 0.26532736 -0.5235693 0.6563481 0.8573429 0.31040087 1.0442723 0.35874322 0.27208665 -0.41251948 1.0477244 -0.70901716 0.40729183 -1.1645477 0.48095617 0.4635612 1.2429806 -0.11108183 0.8413451 0.78548384 1.2510524 -0.3970664 -0.42190677 0.25045118 0.01922676 -0.00810941 0.7677313 -0.5310844 0.72666013 1.2013057 0.92343575 -0.07606662 -0.23220773 -0.66460884 -0.3554368 0.88852274 -0.42767173 -0.41439638 0.50963616 0.1463596 0.40802932 0.06052534 -1.3025643 -0.6075733 1.053588 0.51185495 -0.9237146 -1.1473143 -0.19026145 0.29661766 0.66167563 0.054709554 -0.10369906 0.69559073 -0.22309648 1.3228041 -0.03401976 0.26300088 -0.46758142 1.3622986 0.3677111 0.35125563 0.2573976 -0.7973825 -0.20863491 0.8548833 -1.0707546 0.2928949 -0.42543206 0.022331048 -0.41301125 -0.62594336 0.043576267 -0.30034855 0.17800848 -1.0674108 0.86918706 -0.1108107 -0.05174564 0.41053966 0.59171194 -1.5466483 1.2919691 -1.6699582 -0.8730394 0.81352687 0.055986688 0.5150461 -0.75341207 -1.4093127 -1.0928681 -0.19468366 -0.1996028 -0.023007426 0.8173622 -0.0032671457 1.3818597 0.46994036 1.7948779 -0.7276657 0.9068881 1.2642751 -0.18158893 -0.0662603 -0.6507512 0.19387124 0.5051226 0.34751216 -0.27046496 -0.68896073 1.1974087 0.505098 -0.94022804 0.4501473 2.5870392 0.24463126 0.27297267 0.22877192 -1.229094 -0.61219144 0.07172809 -0.4865734 0.01559632 -1.3071749 0.31177092 -0.27668172 -0.949402 -0.20504181 0.6549797 -0.046210613 -0.3687313 0.3351692 -0.59359145 0.53293836 -0.21676508 1.14978 0.027088637 -0.28009298 0.17137986 0.28639805 -0.5079211 -1.0379596 -1.6394174 -0.4170623 0.15579328 0.2686762 0.06428905 -0.8821088 0.12677196 0.6106612 0.47840723 0.8578937 0.21871513 0.4894824 1.3019115 0.2743896 1.2792625 0.44208944 0.8755744 -0.62567425 0.7994667 -0.8584163 -0.06995015 0.9445923 -1.5785342 0.21053149 0.66826 0.13531078 0.019237718 0.6620892 0.5128113 -0.8670935 -0.6870605 0.5647199 -0.90435165 -0.31118938 -1.0060048 -0.82137424 0.44605032 -0.6420971 1.4724786 0.18452188 0.16591623 -0.6943705 0.7003942 -1.0043405 0.05192266 -0.16252689 -0.23514752 0.5425466 0.6180303 -0.81471866 0.65571886 0.5413704 -0.24114951 -1.0470608 0.12688619 0.17050564 0.33359304 0.47495613 1.0281191 0.3066057 0.51153183 -0.95504785 -0.3323121 -0.27550578 -0.5034426 0.30676964 -0.16670789 -0.40710416 1.0358431 -0.4540891 -0.59351665 0.7153814 -0.642887 0.24636267 -0.111439504 0.045834176 0.64621985 0.9878068 0.79815286 0.0071681277 -0.43560702 -0.43267044 0.8538477 -0.28286132 -0.3509227 0.6408156 0.35018447 -2.1245885 0.14124244 -0.44697016 -0.5199006 0.124288924 -1.3200738 -0.07955751 0.44096088 -0.6230823 -2.780947 1.7453079 0.5091596 -0.17554484 0.4877838
camion 1.2340006 0.31917843 -0.3737166 -0.05508417 0.6748945 0.1518255 -0.16331941 -0.59520406 0.17814147 1.3135833 -0.17682321 0.08034321 0.049171276 -0.084988974 -1.1049052 -0.50380075 -0.15137836 0.991764 -0.17494814 0.010780036 -0.9139368 -0.023886176 0.16975352 0.1720987 0.24933825 -0.37179384 0.30911613 0.22204617 0.13840628 -0.18150963 0.40482035 -0.048705928 -0.7177484 0.26419514 -0.18164578 -0.26703963 -0.004128951 0.05854648 0.06628234 0.2893926 0.56844294 0.041559007 0.1784834 -0.010986768 0.19368604 -0.009797388 -0.23554882 -0.67092395 -0.28803384 -0.28576466 0.28909776 -0.048265725 0.35720932 0.29557914 -1.4463311 0.8099192 -0.8338882 0.13283396 0.2420963 -0.19743454 0.1696571 0.34547377 0.273967 0.8130462 0.57063735 -0.34031984 0.21190909 -0.24650064 0.12542483 0.51662666 -0.28651947 0.14357471 0.6483491 1.2686535 -0.2107926 0.15288806 0.51506686 -0.17538132 0.08427423 0.17201108 -0.6513674 0.22692077 0.111494556 0.25305545 0.41624996 0.31828278 0.31847164 1.6881491 -0.0953017 0.32051513 -0.28020182 -0.029856687 1.2462476 -0.2202198 0.1311258 0.19942774 0.03684534 0.53184056 -0.12394289 -0.23255207 -0.3146546 0.13743895 -0.16522855 -0.17864469 -0.58106667 0.14770538 0.57834643 0.030852795 0.21652366 -1.0972881 -0.103897326 -0.17635232 0.94839424 -0.43593016 -0.065247625 0.025455477 0.7362091 0.17902844 0.57138723 1.070152 0.24304594 0.31528133 0.041900784 -0.31863397 -0.5336366 -0.13075821 -0.076755725 0.06612253 -1.2645333 0.05544177 0.108052306 -0.4044163 -0.5377334 -0.18265425 -0.264113 -0.24259305 0.1524407 0.0138760535 -0.22385949 -0.36901486 -1.0965041 -0.4389147 0.62908876 0.17598091 0.67196816 0.34400287 0.090043165 -0.3101313 0.23433544 0.3321179 -0.7752169 0.088632345 0.4828291 0.009410411 0.051443286 -0.17212346 0.1589075 0.37502465 -0.1192246 0.19830234 -0.24274145 0.30890164 -0.05345873 0.9823489 -0.012139123 -0.3030944 -0.07521967 1.1247941 0.532235 0.030102396 0.13320148 0.3900348 -0.29149777 0.3810229 -0.23665507 -0.20032696 -0.56912535 0.06984003 0.000399488 -0.16478673 0.061883483 -0.31093454 -0.8416971 -0.3213999 -0.08860999 0.21808147 0.11998547 -0.0940435 -0.059695207 -0.32507318 0.45644674 -1.2867107 0.57421565 0.009083344 -0.21484208 0.17251028 0.2414358 0.15311418 -0.30360982 -0.43007636 -0.44384852 0.60247165 -0.45360154 -0.43173692 0.2754927 -0.038516033 0.46376476 0.34499365 0.32592276 0.0027682676 -0.15212613 0.3105118 -0.31954116 0.6239942 0.34875023 0.44960567 -0.3540939 0.059155297 -0.0032937878 0.24296658 0.17518726 -0.19099867 0.379095 0.042630885 -0.08829813 -1.1825502 0.015503034 0.60722744 -1.1932601 -0.3671316 -0.37925434 0.091003604 0.024165567 -0.33749384 0.32391128 -0.31208414 0.060172122 0.13858494 0.036785588 0.34372687 0.24338898 0.63018644 -0.2262974 -0.10890565 0.26904947 -0.2182152 0.40190953 -0.61033666 -0.23940696 -0.31356397 -0.31022996 -0.40597773 0.02985792 0.095326245 0.09782162 0.35177395 0.42674547 -0.27660403 -0.09875875 0.16073413 0.03663559 -0.05956078 0.30949596 -1.0516406 0.16183946 -0.15910342 0.4163911 0.26238695 -0.6305349 -0.058232438 0.8759032 -0.31404233 0.048304684 -0.41485035 -0.093040295 -0.08833027 -0.44494015 0.46110585 0.8396208 -0.013458935 0.01597293 -0.14021231 0.03482112 0.26548055 0.2615803 -0.09084649 -0.1947563 -0.17896177 0.11954456 -0.48645282 -0.73305917 -0.41526356 0.3336882 -0.021176487 0.13767631 0.47301567 0.18026854 -0.11853684 -0.41645253 -0.06900855
taxi 0.9548876 -0.25765482 -0.41439515 -0.10685406 0.88839024 0.05693935 0.07102985 -1.0255041 0.7712586 0.6555416 -0.26011652 0.22327246 -0.37471896 0.12813742 -1.0678618 -0.4127804 0.056377564 0.30215335 0.5257813 -0.24824433 -0.94766206 -0.4860214 -0.16417348 0.24487905 0.28262612 0.11893347 0.16900669 0.2950849 0.62239474 0.009730789 0.7069299 -0.755403 -0.33140343 0.070610784 0.20442674 -0.33295813 0.10970334 -1.2983067 -0.35289374 0.63697493 0.16208415 -0.9296827 0.025655424 0.2689872 -0.74843687 -0.4321897 -0.06990946 -0.23265257 -0.8715603 -0.61524665 -0.08455834 -0.49566174 0.5335606 0.45383558 -0.3264701 0.41642928 -0.4387022 0.07640724 0.07118763 -0.36848187 -0.58588195 0.28724983 -0.11263595 0.027609972 0.12171927 0.054813273 -0.52951103 0.18852551 -0.159129 0.7416693 -0.3807887 0.17069118 -0.011438355 0.3086992 -0.29337075 -0.06799306 0.44259554 0.012584768 0.2130799 0.8333388 0.17336662 0.2934986 0.16826898 0.18985611 -0.20915994 0.89684945 1.2210269 0.5691783 -0.28905734 -0.8922792 -0.26386413 0.44337738 1.4041095 -0.8553521 -0.0111230025 -1.2365186 -0.260046 0.8401706 -0.103813194 -0.052931033 0.0592762 0.43926495 0.1095677 -0.25427973 -0.4871677 -0.13670987 -0.09134226 0.016561871 0.5794815 -0.15268853 -0.32894227 -0.34086573 1.1815971 0.04527713 -0.48384124 -0.35180733 0.72391146 0.0025435076 -0.84252137 0.86114854 -0.41810825 0.03065237 0.22885294 -0.04496639 -1.2235243 0.57860833 0.48891836 0.09543535 -1.5992036 -0.66071236 0.3161367 0.13991794 -0.35827646 0.20271803 -0.2348129 -0.10571832 0.70232844 -0.15786006 -1.1461868 0.2177833 -0.7047967 -0.423213 0.88107675 -0.5925918 0.42009288 0.74255365 0.20880193 -0.50465703 -0.06186595 -0.118169695 -0.7607041 -0.20186615 0.21671627 0.28279188 0.5097529 0.6820535 0.305346 0.30512732 0.83100873 0.29192102 -0.22560343 -0.36322072 0.16147651 1.2295476 0.7282124 -0.44496393 -0.41861406 1.1066859 0.098504566 -0.08315718 0.3348823 -0.013414611 0.15141453 0.74058175 0.16431025 -0.64810497 -0.92071015 -0.48970625 0.2769838 -0.5063814 -1.4615433 -0.2203149 -0.7422713 0.12957965 0.24361204 1.126887 0.05840729 0.35308746 -0.11654795 -0.65888023 0.28925708 -0.44113064 0.5564665 0.12906386 -0.2979287 -0.43476295 0.0080966465 0.33335888 -0.54618716 -0.36614135 0.0953993 0.19748197 -0.2751094 0.38145566 0.18176536 -0.17742044 0.51129764 1.2014651 0.32744357 1.6158974 0.1477782 0.4046694 -0.5060514 0.51784986 0.5302418 0.22894192 -0.25437555 0.5274057 0.4797302 1.1070098 -0.007984314 -0.3780457 -0.1276877 0.433116 0.2496972 -0.86942565 0.22374907 0.5625935 -1.6927487 -1.1228653 0.21966623 -0.38834465 0.45035377 -0.09608269 -0.09665153 0.007259133 1.1876856 0.1560518 0.08511993 0.7854639 0.5085061 0.62252533 -0.8446169 -0.26129156 -0.086045936 -0.58413315 0.53197706 -0.036467314 -0.2809945 -0.6191794 0.055738483 0.36263248 -0.25779447 0.19645321 -0.055225138 0.30736426 -0.18548366 -0.7215923 0.36305866 0.5156079 -0.5832517 0.09689395 -0.16135953 -0.48994324 -0.40861383 -0.6761025 0.116199814 1.2123463 -0.24156584 -0.12627293 0.015423832 -0.33186793 0.29794934 0.73175097 -0.05864366 0.6164771 0.5958067 -0.28928956 0.16508594 0.47601122 -0.20192035 -1.2909197 0.8842684 0.040087726 -0.092209846 0.27710718 -0.08414012 -0.55537015 0.133795 0.13127407 -0.51101047 -0.32604876 0.011868777 0.28851664 0.4385583 -0.6765241 0.31750602 -0.095197804 -0.16408855 0.36699376
bus 1.3875945 -0.096131615 -0.25517267 0.23010449 0.59007406 0.43441513 -0.3465058 -0.16298915 0.7497466 1.1058267 -0.35276118 -0.18640351 0.29580826 -0.043766934 -1.1416354 -0.18554883 0.049625162 1.0759816 0.12147867 -0.3723339 -0.62655854 0.08434966 -0.33077097 0.20378353 1.5288739 0.0018412807 0.031000996 -0.07675219 -0.106957816 0.24370843 0.3156397 -0.48316908 -0.5655916 0.27975377 0.18065259 0.08553986 0.0073928856 0.15411757 -0.001796629 0.25174776 -0.13672677 -0.11051811 -0.396069 0.06605233 -0.28475758 -0.34738883 0.009795391 -0.2895266 -0.5089574 0.18808958 0.23564374 -0.09158284 0.16154963 0.8061214 -0.3942779 0.75038445 -0.7885032 0.29490548 -0.41653755 -0.064456455 0.31115294 0.3531806 0.18402769 0.09818951 -0.039921597 0.30312753 -0.41936705 0.3900132 0.09717201 0.8994935 0.17340107 -0.3380553 0.7285884 -0.038740493 0.24805291 -0.36930385 0.40472108 -0.07830998 0.059442077 0.18556438 0.5633346 -0.11090173 -0.40723965 -0.16589972 0.30631194 0.2841583 0.26160634 1.4188503 -0.14674444 0.00068174995 -0.36269194 0.99138683 0.94202894 -0.7453508 0.014256968 -0.16029514 -0.12225072 0.25869134 0.28493565 0.76598096 0.88315743 0.05970522 -0.27004123 -0.5071132 -0.34845597 0.04430856 0.10820487 0.13825078 0.64261144 -0.12625398 -0.33980253 -0.2411589 1.0049195 0.040451407 0.120780565 -0.5156684 0.69992733 -0.31500113 -0.47158948 1.2016134 0.10850062 0.088720255 0.038216803 -0.48587197 -0.7452543 -0.019473163 0.22222447 0.0023891842 -0.836713 -0.21313961 -0.08005315 -0.16962154 -0.31969938 -0.14037395 -0.28570318 -0.34638327 0.030014062 0.4348652 -0.22277085 -0.57002527 -0.62320775 -0.31450313 0.3978628 -0.9712395 -0.2868286 0.2509807 0.02406902 -0.77322847 -0.17601192 -0.118561015 -0.8104886 0.24728206 0.13106483 -0.08918227 -0.37503266 -0.6748083 0.2994411 0.07432343 0.08150586 -0.31329793 -0.65251064 0.04022359 0.10281081 1.4234135 0.48153818 -0.5286427 -0.008308318 -0.12624638 0.51270473 0.136762 0.34534574 0.12145369 0.0969456 0.103220746 0.3112318 -0.05775237 -0.35272658 0.2625531 -0.15677105 -0.2700717 -0.4884208 -0.29397058 -0.79777455 -0.20645025 0.09867796 1.2156022 0.07152248 0.46618685 -0.13923578 -0.27164838 0.678478 0.12605236 -0.01170621 0.30723205 -0.29396337 0.011154439 0.3650006 0.040263873 -0.68270874 0.18030618 0.11089657 0.13201529 -0.53036505 -0.5463744 0.8470914 -0.0027108903 0.29715315 -0.3785944 -0.10999953 0.27765542 0.023046358 0.08188231 -0.64300364 0.2563839 -0.20995028 0.42006043 -0.58030474 0.49146724 0.20818122 0.7294069 -0.23469876 -0.25646293 0.0063855494 -0.14091511 -0.14775272 -1.2962499 0.21281068 0.62762403 -0.071508914 0.03163904 -0.05104076 -0.18477689 0.52066445 0.035586923 -0.10007361 -0.08711301 1.135402 0.12249696 -0.15477778 0.91529167 0.056932215 0.5988112 -0.058451302 -0.30098486 -0.104621924 -0.33296767 -0.23808953 -0.38324764 -0.4830318 -0.650781 -0.34206054 -0.06610889 0.15430905 -0.07103999 0.28131598 0.710961 0.024927631 -0.61969644 -0.006529879 -0.059632402 0.012709625 0.26916558 0.32746866 -0.18510716 0.09341799 -0.3695831 0.29071417 -0.029858366 -0.22190782 -0.33547232 0.091153085 -0.048601225 0.019925525 0.14059836 0.4995694 0.27199444 0.90819615 0.32990074 0.26869178 0.28112787 0.3580819 -0.16046059 0.010095406 0.34184882 0.1718213 -0.0032758922 0.3254819 -0.51582795 0.044643156 -0.08201805 -0.30651212 -0.15237038 0.36401153 0.0029858311 -0.061239235 -0.18991876 0.5359779 -0.08894729 -1.1330347 0.4009559
bateau 1.0261837 -0.20169266 -0.32350722 0.251759 0.2646916 -0.20402174 -0.6873011 0.013972706 0.17435831 1.0731204 -0.042239472 -0.2359411 0.35513553 0.052803252 -0.56548667 -0.20113657 -0.22401346 0.7405565 -0.18385747 -0.2543372 0.5288139 0.17728099 -0.07209109 0.012140432 -0.053221032 -0.45508215 0.39578894 0.0016973994 -0.15014611 0.27396172 0.08658436 0.16133271 -0.7377593 0.20090856 -0.18408854 -0.087719955 0.13587175 -0.028559808 -0.20835216 -0.16018155 -0.3398164 -0.2162053 -0.106802024 -0.2984343 0.8971643 -0.13093942 0.13287823 -0.23174119 0.37830177 0.039226074 0.19329073 0.1505708 0.15857461 0.5054781 -0.5094959 0.42380008 -0.5979505 -0.3822564 -0.06515504 -0.18412103 0.2946218 0.07027259 0.30028167 0.5744532 -0.23595327 0.13817935 -0.28821677 0.35207903 -0.17881434 0.27123848 -0.01864277 -0.109559774 0.21007277 1.0921141 0.21218866 -0.37699747 -0.16562736 -0.19465831 -0.4911548 -0.3620965 0.3186082 0.0013081846 -0.052657127 -0.018262548 0.30410308 0.27507582 -0.008156803 1.2598972 0.1836949 0.4153332 -0.20474286 -0.11705186 0.082063675 -0.058316257 0.18526338 0.07088023 -0.12723987 -0.24122001 1.3092027 0.10087442 -0.37631562 -0.32931554 -0.46626738 -0.54183686 -0.45745528 -0.010693761 0.26401976 0.16820616 0.35102266 -1.2936761 0.03902319 -0.16061725 0.41239002 0.18785223 0.4206545 0.1432671 1.0484723 -0.12750119 0.56472677 0.9692683 0.40096194 -0.062357895 0.27339333 -0.76208013 -0.11496077 -0.18304811 -0.4543743 -0.048598167 -0.9501285 -0.22912937 -0.1534265 -0.0911233 -0.7347802 -0.3330618 0.08330421 -0.016332444 0.1120498 0.21073043 0.08013358 -0.057267547 -1.3989908 -0.2562806 0.4636263 0.24103375 0.8504819 -0.17961474 -0.08963829 -0.089359954 -0.08284232 0.059537675 -0.08128645 0.08508277 0.24769716 0.04683368 0.10008501 -0.24667989 -0.17618024 1.4999957 0.26789084 0.34449944 -0.24159586 -0.20540176 -0.19691966 0.89688915 0.5739148 -0.17320809 0.055141356 1.2415 0.6744369 0.009807594 0.1742959 0.6487808 -0.08207849 -0.100906186 -0.034135506 -0.0833217 -0.21762273 -0.00046616638 -0.13181615 0.061752256 -1.2462717 0.014780315 -0.3504764 -0.4109987 0.7239205 0.14020996 0.25065207 0.048974764 -0.46818355 -0.34115162 0.54586965 -0.1357476 -0.08615838 0.25183162 -0.25365624 0.40638265 0.3297509 0.32004616 -0.21521369 0.27658528 -0.21565814 0.30789936 0.017947288 0.5883248 0.49592924 0.15361881 0.042368233 0.40462545 0.0008697968 1.3770658 -0.13757609 -0.10323544 -0.36799347 -0.09760458 0.15191738 0.74569696 0.17711276 0.18342544 -0.064694956 -0.12649521 0.045808043 0.0031124174 0.2765126 -0.27163085 -0.03240162 -1.4158386 0.14313681 0.4895673 -0.18851818 -0.08998021 0.06310103 0.12289272 0.27286533 -0.030642182 0.19460031 -0.09282556 -0.15654947 0.31030247 -0.150307 0.2854166 -0.28818187 0.16008136 0.14267315 -0.15955111 0.25454816 -0.4705067 0.034891505 -0.45393428 -0.54103243 -0.03300471 -0.069598354 -0.38269493 0.0057768114 -0.32449362 0.26604623 0.5202389 0.559408 -0.28204346 0.19046165 -0.09697662 0.216523 0.52909017 0.21221818 -0.12403518 0.34643 -0.6073584 0.41397366 -0.21728978 -0.50735706 -0.43158975 0.3481329 -0.074639104 -0.012924531 -0.066815734 0.33044136 -0.18830931 0.81242406 0.27835932 0.30528763 0.37275878 0.17001589 -0.1075379 0.026295485 0.021519875 0.4018258 -0.17609556 0.14737916 -0.1995504 0.3271987 0.15378933 -0.28958765 -0.31329226 0.14535007 -0.6562778 0.20171352 0.572997 -0.122484945 0.0447547 -1.140332 -0.10981768
vélo 0.4319951 0.2825964 -0.4127693 -0.4143381 0.12559181 0.25668234 0.10558536 -0.3964583 -0.17043203 0.7584689 -0.2848906 0.057162188 -0.41467538 0.48549753 -0.58882 0.39767754 0.05575682 1.062394 0.06503982 0.21753415 -0.43595272 0.14207622 0.10345053 -0.55127853 0.53928477 0.86350405 0.030343924 0.021089515 0.16424069 0.5784738 0.38791898 -0.41838092 -0.21360135 0.012654268 -0.104579 -0.24449116 0.24546252 -1.0941914 0.35436872 0.22886273 0.03571275 -0.050291605 0.40945774 0.18041757 -0.3306557 -0.013804156 0.07435685 -0.27754873 0.24909557 -0.06497417 0.24939433 -0.09914504 0.32761586 0.093963794 -0.2315203 0.40441054 -0.64576906 0.18925576 0.09365662 0.055279456 -0.36771503 0.3929985 0.12425732 0.69367695 0.23545067 -0.5590979 -0.11733746 0.08159525 0.15802154 0.29351318 -0.15345275 -0.11753497 -0.13389681 0.96582067 -0.03957585 -0.7403915 0.20393634 0.1740174 -0.040296398 0.16037977 -0.3084242 -0.10653965 0.06101945 0.11279914 -0.08909395 0.6686177 0.9323525 0.78335786 0.13564812 -0.25761586 0.39953792 -0.1134334 0.31653082 -0.21182166 -0.16673565 -1.4080167 0.17583372 0.22987501 0.3195533 0.48118043 0.08900448 -0.004994884 -0.37252 -0.38677374 -0.47599086 0.06701328 -0.056864943 0.025912272 0.22400054 -0.2902189 0.034600794 -0.26285082 0.24006172 0.11913551 -0.39847755 -0.5931893 0.6227787 -0.6645495 0.06331116 0.9346821 0.08861452 0.16540551 0.52362335 -0.33427903 -0.69208115 0.16605918 -0.0029599653 0.11802186 -0.03740043 -0.7646027 0.15724185 -0.18025637 -0.08612772 -0.11246103 0.031169472 -0.06577978 0.18139084 -0.03810432 -0.114614315 -0.36228278 -1.1389552 -0.25079784 1.006168 0.068795964 0.35271138 0.023258135 -0.14920297 0.002406968 0.19195506 -0.10799913 -0.65680134 0.110838816 0.33997843 0.011980921 0.026920572 0.17361279 -0.099622756 -0.18911171 -0.29433355 0.30851564 -0.02462324 0.23445646 -0.011811484 -0.07440509 0.0027398113 -0.15790792 -0.1343504 0.13051735 -0.290089 0.04398897 0.34820652 -0.3371067 0.014967894 0.5297733 -0.35951144 -0.43699685 0.058408346 0.0086668385 0.099544235 -0.13318083 -0.2803838 0.15363581 -0.66994864 0.19084413 -0.052585255 0.0396237 0.035348687 0.75729334 -0.23175775 -0.14142175 -0.080579564 -0.39705834 -0.14227633 0.11391696 -0.41961917 0.49849975 0.17211463 -0.014652638 -0.5777603 0.26032537 -0.2937017 0.273173 -0.47458616 0.11925448 0.102775425 0.28344277 0.44627577 -0.4391034 0.22483325 -0.21404697 0.19409925 0.052194703 -0.17716731 -0.07669882 0.28203616 0.2486758 -0.12999809 0.8982954 0.23405059 1.1759547 0.39456713 -0.11827546 0.066739485 0.3012635 -0.018522779 -0.82116127 0.2161557 0.40427127 -0.12062728 -0.049021255 0.4019458 0.12944943 0.048251178 0.051681764 -0.27827945 0.04577147 -0.12107582 0.39991856 0.35822633 0.8392631 -0.19030367 0.1693086 -0.8057979 -0.22107191 -0.010786243 0.37728608 0.025411734 -0.35920486 -0.41951686 -0.18774994 -0.06641161 -0.34926873 0.14163537 -0.019204631 -0.31584978 0.34484112 0.24423985 -0.4613656 -0.45819154 0.67634195 -0.016308466 0.13177335 0.01365479 -0.20105642 0.19813684 -0.05496205 0.08233024 0.6274554 -0.35588542 -0.23461023 0.25856513 -0.49182197 0.08748526 0.16003732 -0.0010103147 -0.1386966 0.6580902 0.22344697 -0.6039765 0.1653421 -0.33324662 -0.49017134 0.20687878 0.6304993 -0.110980585 -0.22366332 -0.43537056 -0.29886127 0.1341183 -0.3109888 -0.08029919 -0.17648388 0.2142298 -0.10698355 -0.16579449 -0.8307693 0.5631842 -0.056623798 -0.24537109 0.18506004
